1622 128
H79 0.159861 0.012881 -0.131926 0.049746 -0.230506 -0.056836 0.337619 -0.459594 0.251779 -0.321285 0.300083 0.585657 0.005665 0.020674 -0.181769 -0.260947 -0.289597 0.087683 0.006045 0.485408 -0.341793 -0.285608 -0.221750 0.519128 0.222349 0.024245 -0.303251 0.042293 -0.110032 -0.249394 0.135089 -0.161341 0.198058 -0.494498 -0.057113 0.140840 0.102918 0.057637 -0.038483 0.004500 -0.096770 -0.579002 0.171064 -0.119976 0.069295 -0.374545 -0.065202 -0.022707 0.073090 0.210074 -0.051593 0.037645 -0.276490 0.375107 -0.302337 0.189478 0.208741 -0.158130 0.209497 -0.153970 0.264706 0.001085 0.586450 -0.063804 0.269066 -0.112304 -0.473595 0.198122 -0.080527 0.003006 0.163158 0.379985 0.076181 0.569997 -0.274508 -0.014627 -0.015283 -0.006007 0.230812 -0.239039 -0.356286 0.171897 -0.260914 0.355612 0.093763 -0.457776 0.231310 -0.032667 -0.185264 0.195066 -0.226732 0.036342 0.118348 -0.143487 0.702762 0.103673 0.088713 -0.045155 0.079417 -0.237622 -0.133953 -0.943723 -0.338292 -0.068976 -0.224746 0.163825 -0.267531 0.048918 0.132139 -0.422808 0.152762 -0.559090 -0.365068 0.202696 0.066489 -0.001175 -0.039017 -0.054066 0.093400 -0.319744 -0.434592 -0.280142 -0.106982 -0.077595 -0.374646 0.311171 0.200632 0.085201
H95 -0.195648 0.092501 -0.067207 0.065672 -0.047793 -0.139069 0.249921 -0.488066 0.095693 -0.064549 -0.054970 -0.046485 0.067734 0.486808 -0.685802 0.358506 -0.294126 0.392394 -0.196486 0.252013 -0.425755 -0.352471 -0.474821 0.541999 -0.000196 -0.060305 -0.585959 0.032491 -0.237930 0.121455 0.002964 -0.440356 0.344980 -0.830858 -0.379628 -0.138842 0.140749 -0.138231 0.280041 -0.475068 -0.325476 -0.312772 0.142868 0.163358 0.099469 -0.440387 -0.270438 0.497040 -0.362875 0.112027 0.532809 -0.058290 -0.716035 -0.013732 -0.151794 0.130965 0.316270 -0.130960 -0.396115 0.405455 0.061848 0.037597 0.550593 0.466902 -0.247768 -0.156421 -0.223393 -0.104684 0.189335 0.124669 0.529492 0.078275 -0.396721 0.640198 0.168385 -0.697087 -0.278304 0.212409 -0.040631 0.208896 -0.096920 -0.205525 -0.076675 -0.138413 0.190084 0.073125 -0.310218 -0.453365 -0.060135 0.276875 0.185220 0.170450 -0.109632 0.062134 0.065946 0.270818 -0.089260 -0.054080 0.139905 -0.264145 0.132173 -0.266428 -0.018283 -0.079143 -0.353665 -0.183220 -0.397817 0.573443 0.042838 -0.067694 0.269271 0.012664 -0.279697 -0.098240 -0.456433 -0.054450 0.253160 0.137115 0.592185 -0.254657 -0.102531 0.324337 0.405644 0.095411 -0.211270 0.112045 0.464895 -0.035526
H209 -0.003309 0.019325 0.435967 0.022379 0.007549 -0.142494 0.240618 -0.233993 -0.129860 0.276019 0.334366 0.438944 -0.227262 -0.356380 -0.645671 0.346993 -0.469502 0.083800 -0.015078 0.629108 0.212715 -0.349584 -0.374468 -0.206877 0.075762 -0.373337 -0.375288 0.057407 -0.409773 -0.246467 0.853877 -0.006463 0.034930 -0.228365 -0.266078 -0.240798 -0.092092 -0.244717 -0.088382 -0.589397 -0.415900 -0.445278 0.172368 -0.289606 0.278794 0.113459 -0.581805 -0.207909 -0.176142 0.552318 -0.130150 -0.062355 0.161687 0.056251 0.053375 0.512271 -0.090799 -0.083747 0.214255 0.661621 0.435451 -0.711532 0.578329 0.411132 -0.301498 0.421097 0.195123 0.146884 0.297274 0.092829 0.236934 0.279371 -0.159651 0.620804 0.217530 -0.413171 -0.196580 -0.366014 -0.124870 -0.200594 0.194417 0.254964 -0.515567 -0.266309 0.119366 -0.180409 0.024694 -0.504626 -0.701804 -0.201465 0.353272 -0.025539 -0.158190 0.005285 -0.486970 0.450559 -0.417360 0.233024 0.089691 0.068200 -0.213419 -0.340598 -0.153531 -0.206544 -0.507386 -0.012747 0.293150 0.342462 -0.183867 0.042587 0.055458 -0.675190 -0.027727 0.437880 -0.200881 0.058066 -0.365170 -0.005550 -0.097889 -0.567278 0.302002 -0.396687 0.692666 0.199938 -0.728340 0.054432 0.197203 0.088746
H191 -0.220372 0.018216 0.151189 0.275076 -0.204132 0.033937 0.577158 -0.237442 0.219162 -0.231304 -0.053686 0.713266 -0.139230 0.010128 -0.775514 -0.040288 -0.193344 0.027476 0.280009 -0.248542 -0.228787 -0.687703 -0.403252 0.540956 -0.538919 -0.026559 0.484244 0.303480 -0.444164 -0.131633 0.478690 -0.390356 0.313801 -0.618872 0.406905 -0.280217 -0.180292 -0.603623 0.196808 -0.511044 -0.027200 -0.723802 -0.077204 -0.125087 0.564169 -0.153767 -0.002698 -0.226527 0.402097 -0.407501 -0.495903 0.051694 0.008710 -0.133454 -0.342738 0.477101 0.316970 0.194617 -0.168591 0.045808 -0.095982 -0.134516 0.153360 0.104934 -0.152232 0.295321 0.344451 0.049750 0.174059 -0.187354 0.545762 -0.020106 -0.079331 0.019455 0.189532 0.065985 -0.210650 0.259181 0.066598 0.162306 -0.465658 0.032265 -0.213171 0.083192 -0.077847 0.116932 0.276241 -0.236243 0.480605 -0.319883 -0.164911 0.177343 0.036130 -0.008393 -0.426486 0.416263 0.007227 0.849047 0.305671 0.256970 -0.065040 -0.424336 -0.045203 0.159158 -0.257725 -0.484872 0.131574 0.064363 0.159790 -0.245594 0.339360 -0.381857 -0.141369 0.247532 -0.511038 -0.063882 -0.286146 -0.285442 0.583161 -0.161434 0.293707 -0.121212 0.301812 -0.269410 -0.470511 0.313374 0.486342 -0.474500
H149 0.131128 -0.101615 0.243301 -0.296511 -0.325510 0.129251 0.424561 -0.847384 0.240594 0.159050 0.308474 0.247759 0.202663 -0.376715 0.248180 0.167031 -0.600470 0.150525 -0.229024 0.275242 -0.721064 -0.477695 -0.330237 0.180469 -0.046718 -0.214088 -0.091808 0.076377 -0.161516 0.157299 0.758849 -0.168462 -0.024049 -0.547898 0.192889 -0.399109 -0.134622 -0.717292 -0.118105 0.082249 -0.155782 -0.377803 0.439161 0.061233 -0.129519 -0.204844 -0.473990 0.298103 0.448304 -0.108631 -0.172204 0.030527 0.513480 0.121607 -0.230655 0.559165 -0.061486 0.180180 -0.175042 0.300078 0.131923 -0.563243 0.517091 -0.118058 -0.334252 -0.005310 -0.126123 -0.238168 0.189728 0.697158 0.428469 0.253266 -0.483712 0.188635 -0.179872 -0.366663 -0.406304 0.274655 -0.262057 0.098804 0.078992 -0.420467 -0.640530 0.412134 -0.308711 0.383132 0.070478 -0.546416 -0.416399 -0.088068 -0.484020 0.329362 -0.052642 0.444880 -0.286250 0.068371 0.332852 0.176321 0.282345 -0.156620 0.324209 -0.052970 -0.027209 -0.650564 -0.611563 -0.315164 -0.047591 -0.352104 0.445718 -0.253829 0.378339 -0.183107 -0.050386 0.211576 0.185387 -0.081445 -0.097296 0.442639 0.100901 0.116185 -0.499645 0.269857 0.813505 -0.124889 -0.310529 0.009137 0.435052 -0.370606
H87 0.074233 -0.474349 0.143048 0.050725 -0.306080 0.151422 0.386431 -0.468172 0.103673 -0.341846 0.056872 0.069499 -0.183856 -0.254802 -0.026308 -0.319277 -0.398733 0.218629 0.147627 0.471526 -0.353842 -0.055536 -0.404042 0.445236 0.211032 -0.488519 0.006604 0.045952 -0.146347 -0.348066 0.501875 -0.036518 -0.029964 -0.430801 0.245760 0.062201 -0.059667 -0.359622 -0.166917 -0.065450 0.095123 -0.914912 -0.204746 -0.281740 0.004963 -0.396930 -0.310961 0.078957 -0.037959 0.241332 -0.199964 0.121397 0.273001 -0.184804 -0.411897 0.316460 0.251895 -0.701603 0.066659 -0.263278 0.350143 -0.083203 0.709974 0.599295 -0.149161 -0.095094 -0.148894 0.187091 -0.325119 0.044013 0.363236 0.089765 0.080181 0.340728 -0.272307 -0.197037 0.073324 0.132789 0.211744 0.063162 -0.393944 0.220381 -0.179740 0.082458 0.024269 -0.302750 0.532059 0.116378 -0.276696 -0.101748 -0.212567 0.447170 -0.423913 0.072703 0.666054 0.275333 -0.011917 0.284420 0.222758 -0.526768 -0.054747 -0.896037 0.044601 -0.184999 -0.057173 0.197739 -0.479966 -0.025295 0.126297 -0.569964 0.547633 -0.407095 -0.294031 0.531467 0.435698 0.318249 0.239251 -0.313818 -0.066153 -0.576247 0.143419 -0.001544 -0.124463 0.249261 -0.083015 0.785611 0.407271 0.171965
H89 0.247963 0.079124 0.120133 0.315836 -0.227508 -0.035568 0.241276 -0.694799 -0.199960 -0.372233 0.235485 0.667499 0.564530 -0.093948 -0.090190 -0.017250 -0.353072 -0.249023 0.148828 0.224984 -0.053308 -0.656881 -0.721593 -0.064317 0.059156 0.389192 -0.096907 0.496316 -0.689668 -0.250884 0.422651 0.146870 0.248340 -0.438522 0.170451 -0.045799 0.471010 0.196352 0.200470 -0.221921 -0.226721 -0.714133 0.066303 0.521481 -0.072029 -0.613711 0.157747 0.086838 0.065404 0.224967 0.280735 -0.064999 -0.312649 0.520911 -0.296541 0.329743 0.139355 -0.319573 0.227984 -0.031074 0.363795 0.189806 0.472431 0.150651 -0.070347 -0.106614 0.097647 0.319532 0.237244 -0.329542 0.209663 -0.003592 -0.258939 0.386689 -0.255366 0.300130 -0.267919 -0.324622 0.274887 -0.072706 -0.062059 -0.014229 -0.298618 0.259776 0.096932 -0.572708 0.055939 -0.517149 -0.241050 0.170613 -0.584518 -0.308912 0.471838 -0.037626 0.526056 -0.136986 -0.174649 -0.026352 0.131295 -0.287909 0.037985 -0.877722 -0.471674 0.283641 -0.440927 0.128447 -0.062308 -0.089747 0.145761 -0.126110 0.156683 -0.438507 -0.057198 0.421318 0.096380 0.166824 0.086927 -0.199876 -0.076843 -0.379959 -0.000858 0.129322 0.588764 -0.641461 -0.446445 -0.025277 0.667020 0.133459
H106 0.204887 0.164340 0.499517 0.216208 -0.088358 -0.109077 0.011674 -0.758238 0.515258 -0.293536 0.013333 0.546359 0.224621 -0.492004 -0.614008 0.630555 -0.126239 -0.244161 0.203344 0.354792 -0.746923 0.004133 -0.579148 0.385836 0.319464 0.229326 -0.228762 0.440718 -0.318287 -0.513984 0.257782 -0.125715 0.328076 -0.512616 0.143164 -0.185260 -0.394786 -0.364150 0.025370 -0.491251 -0.666581 -0.779059 0.259360 0.380951 -0.044070 0.351156 -0.391043 -0.551172 -0.102369 0.376549 -0.627140 -0.267878 -0.354813 -0.044158 -0.333295 0.366914 -0.173006 0.150607 -0.081308 0.103956 0.618617 -0.289549 -0.075601 0.308830 -0.487647 -0.179036 0.063397 -0.305907 0.510253 -0.286299 0.718599 -0.138672 -0.400180 0.879789 0.330392 -0.413988 -0.262780 0.079506 -0.248990 -0.064033 0.225178 -0.358130 -0.169731 0.185764 -0.459041 -0.212889 0.418568 -0.491157 0.137856 0.216596 -0.101603 0.518071 -0.043183 -0.020193 0.509128 0.177354 -0.398033 -0.076965 0.218783 0.346380 -0.218617 -0.213109 0.305520 -0.155242 -0.150392 0.155792 -0.459764 0.059870 -0.007481 0.181169 0.200051 0.024578 -0.185163 0.887339 0.260762 0.399073 -0.428641 -0.302313 0.277253 0.298709 -0.015573 -0.195590 0.470500 -0.415017 -0.053461 0.143205 0.725189 -0.472968
H20 -0.760038 -0.030721 -0.271169 0.293997 -0.869948 -0.250451 0.499304 -1.073152 0.601734 -0.730974 0.135153 0.348595 -0.221387 0.412330 -0.375972 0.123441 -1.364639 -0.214294 0.518756 0.233094 -0.938017 -1.140106 -0.255619 0.157789 -0.229503 0.154101 0.463695 -0.000639 -0.277882 -0.208287 0.202233 0.154104 0.590252 -0.339081 -0.088051 -0.566497 -0.476611 0.128039 -0.366395 -0.029048 -0.591595 -0.877193 0.270828 -0.306647 -0.011483 -0.273874 -0.187641 -0.409474 0.105484 -0.394480 -0.036836 -0.004624 -0.631555 0.002708 -0.200818 0.359965 0.437497 0.002979 0.120919 0.152617 -0.061772 -0.105826 0.360026 0.083531 -0.085764 0.021615 -0.362679 0.381545 0.060557 0.612171 0.117831 0.336905 -0.303832 0.159795 0.090494 0.059778 0.171046 0.442678 0.012429 0.014085 0.109415 0.176568 -0.366938 -0.068989 -0.814985 -0.740216 0.182417 -0.114050 0.208847 0.183007 0.005251 0.383479 -0.181796 -0.295335 0.327433 0.280748 -0.217125 0.016621 0.318197 0.454922 -0.253780 -0.123943 0.243423 -0.338798 -0.550315 0.269322 -0.108474 -0.139057 0.315037 0.083858 0.285262 0.162866 0.543985 0.260540 0.084703 0.397083 -0.494467 -0.065445 0.587057 -0.169271 -0.152775 0.160099 0.284189 -0.303326 -0.553921 -0.428724 0.106639 -0.479273
H1 -0.191515 0.088690 -0.141020 0.019993 -0.681389 -0.374425 0.239138 -0.379513 -0.083588 0.590393 0.093671 0.657042 -0.323802 -0.137517 0.039605 -0.087455 -1.103987 -0.244723 0.056515 0.655476 -0.733991 -0.869527 -0.993895 0.434962 -0.353333 -0.242354 0.241413 0.091052 -0.244678 -0.383535 0.948589 0.102822 -0.154015 -0.834100 -0.320213 -0.238183 -0.133780 0.199799 0.002684 -0.278814 -0.499502 -0.747654 0.232267 -0.132737 0.105665 -0.058832 -0.830448 -0.093158 -0.188049 0.530798 -0.007167 -0.205591 -0.283269 0.084837 -0.816236 0.387356 0.443067 0.357049 -0.509891 -0.104631 0.486649 0.104224 -0.115056 0.190639 0.034364 -0.027021 0.248420 -0.075839 0.550173 0.018638 0.277140 0.110710 -0.163613 0.729057 0.296729 0.114802 -0.131089 0.098098 0.374343 -0.467097 0.220274 -0.576525 -0.076815 0.149213 -0.535717 -0.136515 0.454244 -0.320271 -0.065594 0.245019 0.241236 0.387008 -0.010816 0.107635 0.367929 0.234676 -0.141286 -0.020139 0.053905 -0.208444 -0.023435 -0.119605 -0.180381 -0.454771 -0.149579 -0.042579 0.360607 0.018479 0.244179 -0.142980 0.124278 -0.177111 0.201538 0.038416 -0.608343 0.613888 0.259286 -0.029373 -0.049006 -0.849139 0.471523 0.474410 0.098620 -0.048808 -0.495964 0.413359 0.265708 0.028687
H165 -0.185174 -0.194119 0.162737 -0.123988 -0.940364 0.208955 0.055833 -0.014693 -0.129031 -0.393100 -0.053485 0.573157 -0.412244 0.501650 -0.610092 0.015618 -0.794542 0.683393 0.566362 0.259121 0.079388 -0.366101 -0.397622 0.510591 -0.464828 -0.188164 0.283459 0.228445 -0.598332 0.166032 0.428210 0.196345 0.301074 -0.794434 0.294121 -0.522408 -0.191570 0.093533 0.270071 0.113830 -0.408223 -0.288661 0.310957 0.008394 -0.196116 -0.185175 0.162345 0.221503 0.407415 0.235943 0.103621 0.386040 -0.476432 0.396609 -0.430807 0.493626 -0.059523 -0.327893 -0.352946 -0.064097 0.079923 -0.473989 0.867133 0.671120 -0.246383 0.287516 -0.223933 -0.309051 -0.000924 -0.064941 0.538130 -0.126620 -0.813552 0.181569 0.009625 -0.343963 -0.086603 0.478066 0.335613 -0.314127 -0.050930 0.244833 -0.265360 -0.422665 -0.209805 0.179886 0.657271 -0.484505 -0.150245 -0.003241 0.386611 -0.008230 -0.146672 -0.714105 0.066945 0.356106 -0.096583 0.030435 -0.205485 -0.361153 0.362891 -0.372199 -0.418684 -0.632085 0.250236 0.127878 0.398245 0.194625 -0.021107 0.001720 0.162308 -0.429242 -0.055884 0.732752 -0.705117 0.676635 -0.458128 -0.506381 -0.188046 -0.713035 -0.184724 -0.108643 0.122097 0.092915 -0.180921 -0.013731 0.012373 0.139395
H111 -0.149844 0.196401 -0.042579 -0.452673 -0.263640 0.388567 0.382896 -0.998519 -0.290853 -0.468869 0.248788 0.511055 0.053192 -0.382590 -0.415532 -0.620217 -0.516801 -0.108828 -0.262717 0.084997 -0.011826 -0.493312 -0.941647 0.145913 -0.134059 -0.434506 -0.005776 0.018075 -0.369191 -0.524573 0.407655 0.069434 0.799268 -0.511515 -0.089955 -0.264144 -0.022403 -0.055415 -0.331948 -0.456248 -0.747639 -0.634369 0.337716 0.237182 -0.003963 -0.129460 -0.339148 0.010412 0.821517 -0.286143 -0.084014 -0.031417 -0.095550 0.102609 -0.693557 0.370095 -0.038701 -0.507656 -0.148024 0.078118 0.361847 0.093909 0.222511 -0.022618 -0.509511 0.231781 0.092745 0.069876 0.463972 0.548366 0.894277 -0.455779 -0.649746 0.653654 0.157845 -0.325297 0.616205 -0.470646 -0.064942 -0.395664 0.130912 0.072973 -0.037651 -0.427172 0.086564 -0.214085 -0.143001 -0.653403 -0.261583 -0.083522 -0.093094 0.515790 -0.094159 -0.086735 0.270075 -0.119686 0.403384 0.518752 0.010252 -0.649330 -0.110738 -0.436239 -0.134398 -0.825711 0.003502 -0.366620 0.154138 0.584067 0.515586 0.503461 0.530338 -0.209859 -0.303666 -0.024512 -0.555474 0.183979 -0.285019 0.576119 -0.007096 -0.203909 0.023110 -0.294605 -0.298786 0.066282 -0.525940 0.515013 0.417111 -0.470766
H211 -0.378960 -0.082676 0.366814 0.018137 -0.463989 -0.570925 0.414387 -0.103546 -0.265121 0.025280 0.164012 -0.005760 0.008599 0.518828 -0.752471 0.464133 -0.329979 0.162684 -0.182810 -0.086415 -0.340536 -0.481881 -0.482602 0.340850 0.143355 0.153545 -0.279746 0.271556 -0.134979 0.310485 0.027172 -0.299610 -0.013643 -1.195907 -0.325581 -0.007932 0.230155 -0.372506 0.140646 -0.533691 -0.421087 -0.670659 -0.282405 0.265065 0.217318 -0.467119 0.016639 0.454941 -0.549791 -0.150616 0.485560 -0.210756 -0.375636 -0.056133 -0.355194 0.089207 0.141536 -0.471427 -0.140851 0.342289 0.022432 -0.389414 0.473319 0.348135 -0.329892 0.193164 0.011632 0.081645 -0.174029 -0.156163 0.433367 0.459423 -0.326153 0.581023 -0.048531 -0.749905 -0.277178 0.196286 -0.020935 0.532962 -0.314634 -0.505692 -0.047782 -0.350914 -0.065983 0.156692 -0.186153 -0.345784 -0.029093 0.028155 -0.202864 0.381759 0.043406 -0.234809 0.030394 0.244863 -0.073649 0.070957 0.209774 -0.304084 -0.002510 -0.574197 -0.163984 -0.553898 -0.653082 -0.461580 -0.464749 0.469411 0.447897 0.509101 0.244649 0.159969 -0.344825 0.106977 -0.568091 -0.011054 0.419411 0.315506 0.294961 -0.043426 -0.411796 0.102900 0.210084 0.076709 -0.408197 -0.064218 0.328021 0.039371
H25 0.005590 -0.003162 0.919602 0.297169 -0.063638 -0.519149 0.081679 -0.515426 0.180190 -0.081555 0.451901 0.377094 -0.011651 0.151333 -0.311488 0.022092 -0.029187 0.738006 0.207964 0.383519 -0.302705 -0.366174 -0.405909 -0.241204 -0.462388 -0.176968 -0.026859 -0.089617 -0.807788 -0.201035 0.643596 0.118396 0.310121 -0.937102 -0.244076 0.366901 -0.363866 -0.456114 0.015307 -0.436808 -0.502790 -1.228616 0.324839 0.282213 0.189718 -0.276717 -0.211520 0.056149 0.046596 0.049698 0.028643 -0.497317 -0.084407 0.103710 -0.278724 0.675424 0.525900 -0.131950 -0.447075 0.164756 0.166178 -0.201930 0.645846 -0.195770 -0.086333 0.006659 -0.069936 0.385129 0.040548 -0.079441 0.242657 0.214905 -0.407354 0.237191 -0.011497 -0.286608 -0.158111 -0.062661 -0.341607 -0.304083 -0.115357 -0.331278 -0.666277 0.354588 -0.116467 0.490687 0.552835 -0.472923 -0.063275 0.388694 0.363144 -0.194700 -0.269779 -0.328954 0.179200 0.290211 -0.416472 0.158161 -0.121393 -0.137831 0.114607 0.097087 0.007267 0.133714 -0.216204 0.100776 0.192676 -0.228823 -0.062460 -0.198575 0.067311 0.104470 0.000973 0.768441 -0.375127 0.236784 0.577146 0.227748 -0.043007 0.084500 0.002942 0.121779 -0.004290 0.205538 -0.286764 -0.138187 -0.291096 -0.737046
H200 0.364617 -0.159346 0.035241 0.083859 -0.531734 -0.006194 0.530888 -1.033189 0.730132 0.026220 -0.129761 0.791820 -0.354096 0.278406 -0.378362 0.523377 -0.615902 0.041174 0.638670 0.099081 -0.375597 -0.259548 -0.431447 -0.038846 -0.533925 0.322423 0.333077 -0.194191 -1.046110 0.052670 0.410697 0.051351 0.020135 -0.864161 -0.236665 0.095523 -0.057223 0.008313 0.353146 -0.142063 -0.503990 -0.216777 0.287419 -0.032356 0.269737 -0.320722 -0.768554 -0.190221 0.085128 0.070707 -0.000081 -0.528763 -0.574882 -0.240350 -0.209658 0.584389 -0.014095 -0.385110 0.519260 0.274470 0.659493 -0.219532 0.078340 0.146076 -0.765154 0.105949 0.282687 0.041104 -0.161668 0.380318 0.883372 -0.079550 -0.079102 0.902325 0.077351 0.557885 0.044229 0.459566 0.132810 -0.412720 -0.451870 0.172205 -0.458747 0.009684 0.162902 0.193036 -0.077602 -0.292384 -0.652043 -0.399225 -0.127121 0.547569 -0.350083 -0.392198 0.398183 0.664861 -0.345880 -0.043358 0.147756 -0.097491 0.337237 -0.323111 -0.201101 0.185039 -0.215608 0.201471 0.065363 -0.398253 0.252490 0.304991 -0.132001 -0.214239 -0.250938 0.389648 -0.275395 0.722287 -0.736368 0.060329 0.512544 0.249737 0.348489 -0.599553 0.355283 -0.162528 -1.007428 0.273169 0.140825 -0.113630
H126 0.272682 -0.408752 0.301795 0.271402 -0.110007 -0.168571 0.275475 -0.704654 0.124682 -0.377968 -0.372139 0.164307 -0.331539 -0.252616 -0.273433 -0.437229 -0.131201 -0.194987 0.083345 0.092508 -0.733063 -0.161913 -0.539961 0.239815 -0.453940 -0.038827 -0.387076 -0.032082 -0.470399 -0.183765 0.594675 0.296261 0.171388 -0.167131 -0.077751 0.089521 -0.103188 -0.343098 0.084384 0.202504 -0.196418 -0.673026 0.167637 -0.564853 -0.008540 -0.259129 -0.655586 -0.293012 0.074563 0.076720 0.155595 0.431017 -0.190347 0.124856 -0.543367 0.656875 0.038954 -0.503956 0.332840 0.011020 0.063015 -0.235029 0.358127 0.015264 -0.125625 0.093042 -0.122936 0.259700 -0.526375 0.179891 0.490638 0.121087 -0.086347 0.779940 -0.147120 -0.250468 -0.064660 -0.093519 0.249383 0.104926 -0.620852 -0.062688 -0.432696 0.253078 -0.369763 -0.566044 0.556120 0.066288 -0.456927 0.238504 0.211433 0.401129 -0.452324 0.031835 0.555760 0.062388 -0.431988 0.126558 0.416008 -0.431106 -0.346170 -0.879968 -0.165349 -0.184987 0.005005 -0.094001 -0.613616 0.205274 -0.241040 -0.515295 0.303615 -0.404058 -0.262305 0.313976 -0.087100 0.410501 0.300056 -0.361216 0.312505 -0.726662 -0.289395 -0.165790 -0.326761 0.162161 -0.146826 0.204028 -0.116934 0.061143
H22 0.071635 -0.016745 0.621620 0.326064 -0.247670 -0.232160 0.050027 -0.728111 0.246593 -0.101449 0.655831 0.456644 0.173933 0.421157 0.041581 0.191022 -0.001184 0.496764 0.417823 0.128515 -0.313432 -0.287389 -0.673820 -0.448660 -0.181788 0.281158 0.342669 0.015634 -0.742285 -0.414813 0.379048 0.202214 0.322493 -0.579688 0.004845 0.481507 -0.252051 -0.262386 -0.093482 -0.707459 -0.512869 -1.261030 0.268492 0.153007 0.180498 -0.751163 -0.487318 0.461527 0.347027 -0.072720 -0.081172 -0.699498 -0.121299 0.025048 -0.349065 0.758995 0.339676 -0.107935 -0.561612 0.160715 0.138997 -0.063946 0.821136 -0.122061 -0.048418 -0.173343 0.033153 0.305386 -0.011392 -0.008750 0.613578 0.500581 -0.451128 0.299036 -0.289766 -0.305426 -0.222149 0.190849 0.103015 -0.072409 -0.442513 -0.007907 -0.455827 0.260965 -0.453638 0.358738 0.460615 -0.385061 -0.146738 0.326155 0.406679 0.153797 -0.187971 -0.039620 0.276765 0.209397 -0.493836 0.412161 -0.170092 -0.032306 0.136561 0.167676 0.071321 0.084636 -0.078996 -0.087761 -0.238627 -0.094016 0.334146 -0.109025 0.118202 0.047134 0.094687 0.524639 -0.278687 0.498599 0.643937 0.216853 0.046938 0.237978 -0.234803 0.362705 -0.098452 0.203426 -0.271421 0.273345 -0.272344 -0.642376
H71 -0.539344 0.460385 0.302776 0.553291 -0.679144 -0.305646 0.610266 -0.633746 0.797475 0.023550 0.635405 0.715586 -0.245339 -0.064652 -0.782841 0.321527 -0.946760 0.204293 0.750232 0.470327 -0.500167 -0.359724 -0.283008 0.351445 0.188280 -0.505108 0.396624 0.433056 -0.088595 -0.180719 0.750065 -0.025732 -0.144008 -0.361771 0.210511 -0.267175 -0.039702 0.241231 -0.364916 -0.332207 -0.329381 -0.618634 0.378449 0.493715 -0.444501 -0.750214 0.098670 0.397971 0.111593 -0.680931 -0.527548 -0.011586 -0.037535 -0.491663 -0.076529 0.314621 0.132465 0.052343 -0.171701 0.760561 0.762033 -0.341834 0.251250 0.576216 0.061864 0.366717 -0.049579 0.081458 -0.212689 0.589410 0.204653 -0.250643 -0.365267 0.716603 -0.045570 -0.288296 -0.048351 -0.323307 0.122327 0.311812 -0.350983 -0.048048 0.015333 -0.348713 -0.524276 0.311837 -0.093434 -0.786230 -0.544040 0.210482 0.148779 0.523807 0.538565 0.152979 0.467756 -0.268976 -0.240217 0.541654 0.036101 -0.237013 -0.813780 -0.435437 -0.259983 -0.913695 -0.807603 -0.028449 0.007769 0.268259 0.210358 -0.190035 -0.308622 -0.047272 -0.004108 0.149290 -0.068616 0.046115 0.244184 -0.237560 0.496450 0.074512 0.240045 -0.211965 0.321787 0.087624 -0.044280 0.151699 0.513307 0.090827
H33 -0.580344 -0.207673 0.051433 -0.219100 -0.595965 -0.580019 -0.106247 -1.002634 -0.106634 -0.364335 0.104947 0.387768 0.299243 -0.492548 -0.722118 0.115172 -0.777984 -0.141106 -0.326972 0.626577 -0.517362 -0.052877 0.149647 0.375175 0.013789 -0.199040 0.242734 -0.270183 -0.551888 -0.456737 0.314608 -0.137597 0.258480 -0.412122 0.345856 -0.216723 0.503611 0.018984 -0.031165 0.514050 -0.108451 -1.072552 0.275448 0.166319 0.152893 -0.679456 -0.604533 0.073948 0.666257 0.062831 -0.144196 0.012349 -0.338169 -0.305534 -0.196643 0.923963 0.093111 -0.024371 -0.410443 0.075317 0.284307 -0.028763 0.251652 0.627281 0.001107 0.029808 -0.065208 0.856901 0.773608 0.317327 1.333697 0.073692 -0.369492 0.101325 0.246337 -0.422382 -0.565591 0.245401 -0.238177 -0.010015 -0.182546 0.186353 -0.153524 0.366879 -0.635164 -0.241765 0.332035 -0.861765 -0.051269 -0.259985 0.083085 0.580897 0.025492 -0.151814 0.528489 0.041645 -0.487524 0.376820 -0.341945 -0.060594 0.219589 -0.344246 -0.426939 -0.170450 -0.204287 0.316339 -0.101970 0.568204 -0.296194 0.165622 0.857068 -0.281026 0.087408 0.131302 0.084308 -0.205077 0.638143 -0.553186 0.121326 -0.375373 -0.303650 0.030151 0.706324 -0.107418 -0.303068 -0.422826 -0.017079 -0.413946
H30 -0.090479 0.055534 0.262186 0.468116 0.036980 0.163726 0.231432 -0.732340 -0.021294 0.183967 0.166857 1.029745 0.015873 -0.224329 -0.582244 0.547232 -0.182906 0.493961 0.240408 -0.061581 0.074751 0.080963 -0.595154 -0.065445 -0.591804 -0.034992 0.332333 -0.150746 0.151929 -0.241944 0.462592 0.498626 0.277906 -0.195946 0.249563 -0.274249 0.370180 0.006169 -0.046506 -0.133845 -0.615670 -0.501498 0.121617 -0.139867 -0.283404 -0.540935 -0.544456 -0.003458 0.359913 0.045512 0.307058 -0.124768 0.078686 0.057989 -0.649592 1.186513 0.148053 -0.514822 0.180639 0.322669 0.592246 -0.543105 0.629107 0.299344 0.094160 -0.496920 0.298492 0.064290 0.275846 0.218887 0.995351 -0.447208 -0.681720 0.447251 -0.114640 0.216820 0.426040 0.212480 0.063986 -0.493192 0.157828 -0.171997 -0.423652 -0.398451 -0.381957 0.391053 0.443088 -0.025002 -0.144326 -0.383653 0.234329 0.200108 0.189643 -0.279327 0.332558 -0.057066 -0.430974 0.295802 -0.303576 0.566289 0.019936 -0.783798 -0.669180 -0.736104 0.122507 -0.329549 -0.570334 0.197671 0.376921 -0.678638 0.120122 -0.436561 -0.173381 0.227803 -0.186912 0.007786 -0.020021 -0.040323 0.512946 -0.502491 -0.240659 -0.196214 0.849646 0.192051 -0.280647 0.615282 0.174962 -0.501812
H147 0.033088 0.022607 0.422928 0.146479 -0.455393 -0.242291 0.086795 -0.476695 -0.492601 -0.087273 0.389329 -0.020820 -0.465460 -0.476256 -0.742846 0.242740 -0.991051 0.481531 -0.341585 1.349912 -0.732529 -0.600208 -0.918067 0.718539 -0.422642 0.190932 -0.418289 -0.301912 0.154482 -0.178423 1.073515 0.025131 0.511128 -0.646560 -0.196367 -0.300112 0.155145 0.055152 0.009991 -0.318620 -0.351708 -0.726876 0.675242 0.071203 0.404251 -0.003863 -0.222781 -0.485148 -0.458812 -0.446394 0.055907 0.448813 0.069487 0.061214 0.035196 0.504406 0.229581 -0.265821 -0.441590 0.482055 0.408389 -0.572132 0.340359 0.190065 0.420202 0.218817 -0.123479 0.315932 -0.077687 -0.301149 0.057207 -0.375134 -0.320441 0.533321 -0.265935 0.494367 -0.124318 -0.353501 -0.390798 0.291603 -0.123695 -0.010024 -0.115481 -0.260411 -0.223733 -0.291695 0.442758 -0.130481 -0.342396 -0.199463 -0.020825 0.216117 0.292436 -0.003529 0.171069 -0.108228 -0.216298 0.122119 0.455906 0.192596 0.460942 -0.806656 0.325713 -0.817125 -0.790493 -0.312458 -0.118333 -0.011183 0.279866 -0.229340 0.362417 -0.274716 0.350632 0.743102 -0.514073 0.948641 -0.001082 -0.055253 -0.118588 0.114244 -0.890234 0.202306 0.248341 0.623790 0.030906 0.408728 0.295160 -0.482246
H24 0.198535 0.202551 0.805578 0.334461 0.047233 -0.435655 0.020142 -0.671416 0.164111 0.027237 0.611700 0.621930 -0.163259 0.160157 -0.112507 0.191382 -0.138883 0.518436 0.132930 0.410458 -0.160877 -0.354858 -0.734525 -0.346633 -0.135408 0.133975 0.221422 -0.199420 -0.629537 -0.282697 0.950305 -0.229486 0.406732 -0.558372 0.350785 0.205627 -0.038644 -0.005979 -0.325810 -0.690968 -0.387033 -1.220384 0.116586 0.440419 -0.355053 -0.415787 -0.347467 0.400675 0.390974 0.204523 0.193082 -0.482061 -0.353693 0.244098 -0.046014 0.601350 0.234885 0.189795 -0.579991 0.343990 0.130328 0.024916 0.772252 0.010000 0.134672 -0.038824 0.302296 0.238168 0.141266 0.156130 0.703067 0.588305 -0.300507 0.131634 -0.005437 -0.478116 -0.280305 0.223229 0.036141 -0.152232 -0.609635 -0.083038 -0.184113 0.117732 -0.375336 0.468363 0.722845 -0.414612 -0.220185 0.415765 0.453534 0.046619 0.237218 0.092063 -0.013057 0.444880 -0.366347 0.375012 -0.173107 -0.031989 -0.004961 0.215889 -0.102422 -0.005907 0.020675 -0.483655 0.206985 0.018739 0.106999 -0.389242 0.256137 -0.049990 0.317892 0.543259 -0.053261 0.432108 0.736243 0.307019 0.159473 -0.194273 -0.068581 0.017497 -0.163563 -0.098711 -0.263217 0.293777 -0.097302 -0.588045
H210 -0.332828 -0.214933 0.344921 0.208601 -0.761434 -0.597191 0.381377 0.007899 -0.189214 -0.303184 0.236695 0.249125 0.009793 0.213962 -0.703285 0.250578 -0.473278 0.051752 0.027215 -0.152811 0.032497 -0.186000 -0.617055 0.447371 -0.164344 0.185706 0.061560 0.268999 0.021233 0.200634 0.208273 0.128309 0.290548 -1.019757 -0.082730 0.232731 0.533200 -0.210707 0.496154 -0.635250 -0.819952 -0.763637 -0.229674 0.121225 0.040562 -0.472993 -0.006651 0.234118 -0.359534 -0.317180 0.456258 0.067616 -0.239368 -0.119644 -0.227901 0.075950 0.230571 -0.336120 -0.296377 0.387132 0.237779 -0.234196 0.337725 0.043085 -0.398406 0.420784 -0.190368 0.289948 -0.197502 -0.107809 0.757639 0.146982 -0.032931 0.109186 -0.490458 -0.487820 -0.142266 0.133332 -0.226441 0.259421 -0.746694 -0.695077 -0.571068 -0.102831 0.066045 -0.015880 0.189962 0.138017 -0.013036 -0.428007 -0.062250 0.536386 0.181496 -0.440090 0.426800 0.300506 0.322934 0.430173 0.233147 -0.649775 -0.232544 -0.755688 -0.094870 -0.507250 -0.709511 -0.720998 0.091334 0.304879 0.378039 0.697916 0.080951 -0.041537 0.096093 0.370110 -0.303023 0.056617 0.502099 0.627342 -0.124299 -0.004742 -0.292684 0.119400 0.562124 -0.087092 -0.291828 0.396435 0.120002 -0.181679
H101 0.561961 -0.003524 -0.148861 -0.106609 -0.033678 -0.012606 0.451412 -0.714067 0.064302 -0.367336 0.393899 0.925259 0.154556 0.125869 -0.606601 0.075645 -0.540367 0.286352 -0.105534 0.525090 -0.422538 -0.590452 -0.126708 0.485928 0.491743 0.061200 -0.493127 0.264060 -0.120054 -0.114676 0.537874 -0.075566 0.074550 -0.594623 0.033476 0.278317 0.393039 -0.004614 -0.041240 0.291695 -0.451903 -0.532765 0.368654 -0.111241 0.329746 -0.150908 -0.280596 -0.150496 0.213359 0.236746 -0.041222 -0.146252 -0.174055 0.196174 -0.574720 0.338914 0.429444 -0.024358 0.242865 -0.065790 0.096663 -0.147621 0.186592 0.117225 0.288808 0.128791 -0.239798 0.142584 -0.194028 -0.055190 -0.040289 0.380826 -0.214098 0.199695 -0.276287 0.005782 -0.279934 0.314813 0.472227 -0.015876 -0.362852 0.178191 -0.396144 -0.016274 0.173258 -0.336617 0.263845 -0.515704 -0.114037 0.252349 -0.114885 0.061529 0.119829 -0.496855 0.570468 -0.187478 0.147497 0.043943 -0.241388 -0.002819 -0.116496 -0.748710 -0.332519 0.014268 0.018107 -0.132536 -0.175938 -0.005301 0.011655 0.218541 -0.099052 -0.291504 -0.190671 0.289633 0.308593 -0.149368 0.048831 -0.223975 0.184205 -0.330978 -0.702500 -0.691033 -0.297906 0.188917 -0.321293 0.312747 0.200924 -0.123175
H92 0.112510 -0.170209 0.173332 -0.008681 0.190881 -0.188962 0.657155 -0.652237 0.101897 -0.257887 0.058637 0.259847 -0.478860 0.352416 -0.100514 0.055857 -0.845080 0.427484 0.250278 0.803129 -0.387114 -0.530823 0.056757 0.780980 -0.227454 0.093401 -0.318451 -0.061731 -0.011826 -0.365701 0.477165 0.061208 0.266279 -0.664317 -0.128735 -0.606259 -0.484913 0.269592 0.109867 -0.515568 0.126795 -0.691241 0.114809 0.220631 0.164709 -0.108962 -0.321034 0.090790 0.040539 0.063939 -0.234549 0.246891 -0.028102 0.371557 -0.146886 0.417663 0.008403 -0.225631 -0.055455 -0.519607 0.597909 -0.106814 0.606217 -0.495355 0.245070 0.118118 -0.412047 -0.052080 0.470842 0.354890 0.077519 0.649319 -0.187562 0.456013 0.267024 0.369390 0.107070 0.036265 0.585958 0.152180 -0.208266 0.280924 -0.572499 0.461964 -0.091934 -0.631309 -0.174749 -0.126477 -0.469124 -0.108738 -0.187320 -0.107135 -0.304344 -0.279669 0.123040 0.019961 0.011732 0.023048 -0.012360 -0.406868 -0.073705 -0.871386 -0.679211 -0.511165 -0.369010 0.213040 -0.102371 -0.032434 0.299328 -0.305876 0.570980 -0.367012 -0.121625 0.055370 -0.415054 -0.119925 -0.149122 -0.304367 0.242207 -0.201761 -0.337084 -0.508984 0.397106 0.174418 -0.633244 0.576818 0.026785 0.165987
H72 -0.449675 0.238286 0.367941 0.505419 -0.082628 0.053213 0.395444 -0.924814 0.295258 -0.470043 0.633761 0.515362 -0.098602 0.453328 -0.859017 0.007528 -0.612319 -0.446259 0.265986 0.182040 -0.425166 -0.347326 -0.130664 0.447761 -0.525857 -0.116188 0.205591 0.364466 -0.055997 -0.246573 1.485872 0.503816 -0.225698 -0.455311 -0.453183 -0.128652 0.224339 0.381994 -0.247235 -0.248936 -0.475942 -0.598357 0.139108 -0.363867 -0.479654 -0.682238 -0.508600 -0.214610 0.126185 -0.315287 -0.092386 -0.315558 -0.566648 -0.157510 -0.016453 0.479447 0.213718 -0.090490 -0.324545 -0.143481 0.715325 -0.285671 0.332692 0.099010 -1.014615 -0.176986 -0.259605 -0.568829 -0.036128 0.817298 0.775204 0.629206 -0.539730 0.629325 -0.489743 -0.185231 0.162430 0.431815 -0.092748 -0.423663 -0.541929 0.320278 -0.403157 0.529561 -0.652223 0.325662 0.459187 0.021758 0.299415 0.175543 -0.312249 0.288836 0.349363 0.089714 0.528362 0.738957 0.001204 0.012486 0.193157 0.031205 -0.056259 -0.350903 -0.294103 -0.706603 -0.058486 0.198479 0.484387 -0.323789 -0.269639 -0.253242 0.392383 -0.151535 0.013884 -0.088394 -0.444348 -0.238376 0.525962 -0.709828 0.276573 -0.398696 0.237250 0.389012 1.098958 -0.379815 -0.524430 0.157845 0.638052 -0.079611
H217 -0.292860 -0.137979 0.383528 0.144388 -0.981702 -0.402560 0.446027 -0.345591 -0.017037 -0.322857 0.378811 0.461588 0.173617 0.209454 -0.694160 0.389877 -0.678060 0.010043 -0.105244 0.075440 -0.183811 -0.330630 -0.681920 0.547191 -0.144255 0.348431 0.285758 0.492378 -0.172231 0.114879 0.185161 0.107963 0.100395 -0.869972 0.195852 0.139461 0.013820 -0.430012 0.278940 -0.467655 -0.850321 -0.618360 0.137599 -0.145468 -0.028680 -0.432826 -0.010144 0.222202 -0.424139 -0.527662 0.319206 0.233189 -0.270782 -0.015583 -0.028438 0.258223 0.085865 -0.300148 -0.426114 0.196005 0.212753 -0.184853 0.149077 0.064021 -0.273281 0.691047 -0.409487 0.373023 -0.369403 -0.115131 0.954453 0.136652 -0.185032 -0.174040 -0.639308 -0.519192 0.308044 0.270451 -0.292514 0.262934 -0.705831 -0.364373 -0.654969 0.281335 0.108426 0.055434 0.052282 -0.160720 -0.028676 -0.222491 0.003733 0.131064 0.416143 -0.312850 0.418654 -0.128303 0.537151 0.575655 -0.103736 -0.474754 -0.648277 -0.434426 -0.132275 -0.143654 -0.724048 -0.100023 0.237320 0.415201 0.276346 0.734011 -0.208643 -0.090972 0.030242 0.622551 -0.409284 0.282510 0.368715 0.890251 -0.276036 -0.134155 -0.420995 0.461309 0.742366 -0.234875 -0.059606 0.080578 0.313897 -0.517310
H56 -0.791124 -0.026138 0.554364 0.427112 0.089279 0.458017 1.161114 -0.705429 0.190130 -0.275018 0.159253 0.751068 0.081381 0.220492 -0.318735 0.489640 -0.299855 0.289213 0.172093 0.711831 -0.147325 -0.589544 -0.785063 0.241108 -0.474383 0.231089 -0.226898 0.296181 -0.566595 -0.299470 0.357977 -0.466067 0.048791 -0.861239 -0.483035 -0.446541 0.274790 -0.085219 -0.831609 0.204534 0.162749 -0.956546 0.081696 0.184376 -0.843961 -0.326391 -0.331906 0.122673 0.113197 -0.719135 -0.217041 -0.521878 0.145072 0.196455 -0.520073 0.315366 0.633401 0.335302 0.091007 -0.297383 0.734322 -0.106260 0.208509 -0.110295 -0.436135 0.079023 0.362401 0.312681 0.541698 -0.180119 0.448606 -0.437775 -0.367000 0.410549 -0.038398 -0.731678 -0.053522 0.090406 -0.195573 -0.194467 -0.278878 -0.241231 -0.536303 -0.176286 -0.136058 0.238579 0.531791 -0.190582 0.531788 -0.653331 -0.601923 0.220688 -0.269389 -0.623965 0.255299 0.298039 0.021989 -0.450588 -0.274625 0.368584 -0.507701 -0.606511 0.137546 -0.200083 -0.484943 0.441616 0.118985 -0.032873 0.130116 -0.529135 0.399783 -0.411654 -0.545112 0.250201 0.416207 0.310778 0.311394 -0.121106 -0.146454 -0.181461 0.159821 -0.102614 0.053825 0.168307 -0.145927 -0.141271 0.402318 -0.784068
H13 -0.714151 0.181354 0.639243 -0.391241 0.016239 -0.057917 1.036913 -0.635625 0.243335 -0.194038 0.772601 0.822803 -0.185412 0.173814 0.067667 0.571743 -0.514049 0.440042 0.468984 -0.096398 -0.190700 0.105104 -0.854068 0.088022 -0.319316 0.469555 -0.440670 0.497405 -0.515457 0.571076 0.536462 0.541968 0.013264 -0.921877 -0.311828 -0.277337 0.432532 -0.271801 -0.241417 -0.202489 -1.106995 -0.168824 -0.551776 -0.233356 0.398458 0.278232 -0.627912 -0.262314 0.288689 0.041923 -0.170773 -0.469787 -0.287591 0.092558 -0.302536 1.011997 0.066427 -0.377170 -0.385911 0.179697 0.486383 -0.690329 0.396527 0.353614 -0.657646 0.322968 -0.081521 0.528019 0.534537 0.023000 0.674163 -0.437396 -0.558245 0.924030 0.266710 -0.733557 -0.119570 -0.063499 0.287885 -0.172713 -0.209667 -0.335582 -0.820849 -0.024582 0.188094 -0.708962 0.900308 -0.020386 -0.235168 -0.353264 -0.382323 0.757212 -0.226671 0.337530 0.189315 0.233442 0.525465 0.162259 -0.008760 -0.102882 0.249889 -0.200185 -0.579977 -0.112969 -0.403813 0.490409 0.100907 0.428232 0.604587 -0.138270 0.130024 -0.243630 -0.249754 0.087191 -0.825691 0.030064 0.503622 -0.236206 -0.053829 0.099734 -0.012636 0.368268 0.835873 -0.383052 -0.179659 0.192319 0.702833 -0.320011
H208 -0.269397 -0.232663 0.434483 0.188028 -0.501245 -0.551989 0.427963 -0.225342 0.341670 -0.087412 0.569256 -0.015473 -0.899740 0.105819 -0.903760 0.293274 -1.100264 0.027362 -0.138094 0.585479 -0.121757 -0.636990 -0.477465 -0.008053 0.189855 0.076908 -0.079670 -0.045886 -0.432193 -0.728237 0.868958 -0.166273 -0.142397 -0.561615 0.290244 -0.707671 0.026676 -0.182782 0.150078 -0.034487 -0.517589 -0.527377 0.436949 0.149897 -0.051599 -0.887941 -0.127068 -0.338983 0.400572 1.042223 0.460454 0.060082 -0.654055 0.202518 -0.888959 0.221061 0.053706 -0.297967 0.119179 0.483503 0.770835 -0.084658 0.725098 -0.005535 -0.400026 -0.376267 -0.340232 0.944041 -0.437993 -0.398979 0.740023 -0.884225 -0.631108 0.837651 0.388081 -0.982544 0.405663 -0.491499 0.266507 -0.265089 -0.206370 -0.190109 0.507411 0.041739 -0.658281 -0.381597 0.671867 -0.380201 0.273086 -0.019954 0.369029 -0.185338 -0.328691 -0.185349 0.273651 0.087117 -0.131252 0.945108 0.087298 -0.420040 0.580738 -0.791913 -0.156408 -0.149180 -1.084448 -0.040667 -0.155310 0.592348 0.014303 0.344928 0.052979 -0.937674 -0.755522 0.678786 -0.165996 0.242413 -0.585688 0.413726 -0.334163 -0.204585 -0.652341 0.366593 0.754410 0.003985 -0.250543 0.154912 0.685017 -0.174409
H97 0.040517 -0.035779 0.056458 -0.055790 -0.481638 -0.149011 0.292930 -0.254492 0.414963 -0.290020 0.221742 0.614599 -0.191551 0.021932 -0.475625 -0.008918 -0.071738 0.174250 -0.001519 0.765355 -0.676135 -0.091963 -0.302672 0.752355 0.345878 0.048401 -0.370052 -0.055057 -0.113732 -0.099598 -0.054807 -0.416940 -0.059521 -0.865779 -0.253893 -0.013989 0.170357 0.102670 -0.353876 -0.761369 -0.476567 -0.683277 0.064378 -0.265562 -0.197155 -0.672765 -0.029156 0.498890 0.280361 0.367177 0.240843 0.210351 -0.663386 0.260520 -0.028504 -0.136938 0.503839 0.471571 -0.360854 0.145599 0.251615 -0.156465 0.537866 0.223709 -0.422709 -0.636225 -0.099319 0.105528 0.471869 0.137096 0.556774 0.014631 -0.191588 0.771277 0.050991 -0.217328 0.302053 0.530764 0.028883 0.040999 -0.235790 0.488102 -0.080085 -0.013257 0.084851 0.066622 0.208503 -0.499984 -0.096800 0.309449 -0.090245 -0.197863 0.308964 -0.502358 0.146936 -0.118726 0.295504 -0.047488 -0.028210 -0.602511 -0.324540 -0.337072 -0.217709 0.074721 -0.258125 0.146353 0.153224 0.649026 0.207233 -0.060202 0.391393 -0.464963 -0.434762 0.409889 -0.129418 -0.157738 -0.009956 -0.207194 0.282696 0.290823 -0.211406 0.140942 -0.042063 0.251486 -0.488121 0.517138 0.390921 -0.352480
H177 0.183838 -0.123927 -0.336732 -0.779632 -0.251980 -0.746209 0.352007 -0.966440 -0.160358 0.188580 -0.103736 0.634393 0.251637 -0.515354 -1.039307 0.423285 -1.035998 -0.339400 0.900307 0.083313 -0.465793 -0.825786 -0.818529 -0.084635 -0.046647 0.332094 0.146818 0.059774 -0.283611 -0.006508 0.972635 0.077560 0.177504 -0.466321 0.488171 -0.637125 -0.371556 -0.048762 0.690448 -0.150099 -0.608932 -0.754400 0.449726 0.426874 0.224895 -0.068998 -0.217317 0.213940 0.307221 0.414967 0.473818 0.778773 -0.623188 -0.128587 -0.536844 0.349141 0.318616 -0.364966 0.165238 0.670938 0.146983 -0.120292 0.347147 0.948613 -0.637892 0.533549 -0.781942 0.519521 0.416679 0.424452 0.672683 0.072183 -0.495021 0.283584 0.446304 0.172223 0.367263 -0.464537 0.088688 -0.260417 -0.530719 -0.201295 -0.616225 -0.205778 -0.819533 -0.023123 0.315141 -0.079734 -0.632752 0.110050 -0.284104 0.880808 0.393233 0.116159 -0.310982 0.375330 -0.143873 0.533609 0.061830 -0.374287 0.335156 -0.865750 0.421899 -0.779276 -0.143352 -0.307028 -0.569294 0.648502 -0.310990 -0.170833 -0.008128 -0.386599 0.323446 0.680026 -0.457259 0.388200 0.291920 0.533744 0.449053 -0.110220 -0.483475 -0.078203 0.367334 -0.466999 -0.063978 0.667803 0.380915 0.244618
H29 -0.371095 0.055487 0.329893 0.751321 -0.280807 -0.022654 0.443985 -0.764870 -0.003748 0.135775 0.028874 0.919993 0.032305 0.002064 -0.871431 0.815604 -0.191838 0.100072 -0.077933 0.187813 -0.374727 0.250321 -0.757801 0.054244 -0.543633 0.344567 0.274356 -0.034275 0.244549 -0.186547 0.406530 0.470477 -0.083653 -0.669286 0.283925 -0.475494 0.246370 0.051513 0.259828 -0.253025 -0.692873 -0.657448 0.392564 -0.111866 -0.453631 -0.918396 -0.388073 -0.117411 -0.013199 -0.010647 0.578218 -0.265172 -0.090436 0.059950 -0.884971 0.769427 0.491408 -0.274396 0.235406 0.349171 0.772081 0.028310 0.514351 0.593714 -0.373755 -1.108595 0.195599 -0.238423 -0.241732 0.297387 1.006807 -0.302031 -0.952902 0.515138 -0.045503 -0.079893 0.289889 0.274904 0.041051 -0.179708 0.147316 -0.423789 -0.273916 -0.142606 -0.731015 0.088034 0.531983 0.148681 0.197795 -0.108157 -0.173343 0.512170 0.184433 -0.313697 0.884383 -0.306507 -0.362328 -0.016690 -0.144065 0.433917 -0.377366 -0.935733 -0.328507 -0.585767 0.164285 -0.427172 -0.435960 0.330627 0.481772 -0.586235 0.132016 -0.393420 -0.223287 -0.015207 -0.003153 0.139171 0.064111 0.291702 0.185470 -0.585473 -0.281789 -0.015299 0.856824 -0.101099 0.125681 0.393226 0.042184 -0.402123
H194 0.130444 -0.292305 0.195527 -0.385674 -0.151925 0.301265 0.649605 -0.578031 0.468153 0.316123 -0.162853 0.245718 0.089580 -0.110831 -0.413993 -0.144443 -0.588079 -0.035409 0.132052 0.395619 -0.799845 -0.879875 -0.535847 0.700000 -0.393736 -0.009031 0.014226 -0.199204 -1.230266 -0.146418 0.989980 -0.147484 0.475798 -0.177320 0.090585 -0.293220 -0.650100 -0.210929 -0.005843 -0.512574 -0.372557 -0.849091 0.067332 0.329834 -0.187852 -0.085536 -0.351594 -0.202622 0.682334 -0.297994 -0.305156 -0.169449 -0.020162 0.378123 0.079914 0.206017 0.494321 -0.366784 -0.241693 -0.059238 0.019419 -0.193091 0.289974 0.875782 -0.178155 0.013195 0.489585 0.335375 0.408269 0.392519 0.398063 -0.259325 -0.662908 0.600764 0.155985 0.042287 -0.181764 0.348299 -0.366991 0.066217 -0.004976 -0.018984 -0.057299 -0.198864 0.175699 -0.137519 0.084724 -0.258566 0.187741 0.077073 0.328369 0.140212 -0.573649 0.075940 -0.283911 0.135316 -0.317975 0.624416 -0.240339 0.108632 0.119738 -0.175569 0.228997 -0.116979 -0.516491 -0.018658 -0.412733 -0.307273 -0.296746 -0.391934 0.648612 -0.382307 0.005126 0.446174 -0.490792 -0.114431 -0.701325 -0.398201 0.872209 -0.480405 0.376507 -0.237507 -0.025181 -0.174814 -0.654248 0.399941 0.324799 -0.602645
H218 -0.276262 -0.537536 0.361037 0.695036 -0.039864 0.879937 0.117068 -1.285900 0.766955 -0.427006 -0.123334 0.172410 -0.598728 0.334658 -0.179069 -0.039928 -0.494247 0.780946 0.333283 0.909711 -0.667483 -0.942428 -0.320153 0.433868 -0.207067 -0.047423 -0.094561 -0.015559 -1.155730 -0.273061 0.728680 0.225884 0.556592 -1.058211 -0.030974 -0.946125 -0.452476 -0.081087 -0.173967 -0.135268 -0.265586 -0.771735 0.662776 0.050890 0.149446 -0.823647 -0.106373 -0.241111 0.813722 -0.060235 0.358633 0.104144 -0.031880 0.300631 -1.149987 0.692634 0.767097 -0.020249 -0.287542 0.022971 -0.233812 -0.242076 0.276919 0.177198 -0.003854 -0.745410 -0.527996 -0.071279 0.120595 0.310333 0.222853 -0.390994 -0.754982 0.520677 0.548208 -0.185107 -0.114752 0.080725 0.196867 0.321419 0.206586 0.012952 0.295507 0.074614 -0.473508 0.277191 0.101092 -0.947693 -0.015785 0.184858 0.146078 0.462116 0.168621 -0.756204 -0.127388 -0.491481 0.074363 0.153798 0.284638 0.099702 0.126634 -0.925830 0.603389 -0.288951 -0.049791 -0.220102 -0.093722 -0.003343 0.732563 -0.698546 0.468679 -0.289110 -0.553842 0.447350 0.158550 -0.037827 -0.173669 -0.096602 0.728923 -0.494323 0.139761 0.401915 0.456077 0.363250 -0.680749 0.053683 0.306418 0.206491
H80 -1.032247 -0.239554 0.683505 0.049773 -0.122066 -0.532922 0.720357 -0.673624 -0.203821 -0.078584 0.147008 0.364569 -0.217607 -0.138681 -1.551180 0.303390 -0.962844 0.031190 -0.091724 0.211485 -0.342567 -0.792570 -0.332329 0.149618 -0.246354 -0.564893 -0.511505 0.452525 -0.227862 -0.153766 0.891592 -0.495945 0.625426 -0.499280 0.118960 -0.227853 -0.129919 -0.064574 -0.840074 -0.580589 -0.154029 -0.462701 0.021867 -0.420562 -0.414592 -0.055275 -0.437489 -0.828800 0.977252 -0.505618 -0.473231 0.276649 0.610878 -0.358774 -0.640540 0.301192 -0.170479 -0.363236 -0.152948 0.246411 0.294273 -1.226176 0.482036 0.856769 0.134322 0.213220 -0.235953 0.455464 0.351967 0.102577 0.940473 -0.285544 -0.900885 -0.095796 0.166337 -0.982283 -0.117982 -0.274902 -0.462068 0.204941 0.090418 0.188399 -0.363190 -0.457744 -0.391311 0.239686 0.762589 -0.242343 0.337129 -0.212670 -0.223427 0.435057 0.281344 -0.135397 0.115480 0.372620 -0.762030 0.890977 -0.564337 0.778365 -0.025439 -0.302775 -0.546831 -1.455652 -0.683911 -0.019073 0.389814 0.709177 -0.227752 -0.194777 1.151612 -0.651599 -0.150184 0.520599 -0.094463 0.127185 0.155973 -0.242949 0.100299 -0.038400 -1.098542 -0.522165 0.657934 0.250580 -0.168166 0.007837 0.484198 -0.692315
H75 -0.403496 -0.194176 0.736085 -0.297051 -1.007778 -0.741556 0.258965 -0.641562 0.430862 -0.311222 -0.248147 0.946166 -0.818095 0.110118 -1.115369 0.344984 -0.422468 0.210005 -0.036632 -0.053534 -0.521743 -0.521300 -1.333477 0.535295 -0.163980 -0.433194 -0.269310 -0.133660 -0.630447 0.640710 -0.000696 0.279200 -0.137038 -0.757861 0.546340 -0.322590 0.063507 0.180500 0.274101 -0.680790 0.166967 -0.437699 0.040371 -0.124877 -0.258261 -0.032912 -0.843380 0.136352 0.416602 -0.057504 0.027315 -0.218571 -0.279366 0.260208 0.213560 -0.041498 0.090072 -0.452705 0.355020 0.463815 -0.284327 -0.703109 0.957151 0.298041 -0.116077 -0.094996 -0.862109 0.092695 0.163736 0.036858 0.644644 -0.009925 -1.056913 0.438250 -0.310553 -0.620338 -0.719384 -0.270416 0.131453 0.074551 -0.080151 -0.084947 -0.637785 -0.084287 -0.280504 -0.278985 0.737931 0.026508 -0.195963 0.483959 -0.451950 0.953845 0.009033 -0.081734 0.014956 0.200823 -0.011925 0.368252 -0.179802 0.058250 -0.452917 -0.434488 -0.119201 -0.362648 0.033589 -0.114345 0.406440 0.172725 0.598417 -0.049864 0.430466 -0.390666 -0.325326 0.764188 0.447398 0.277930 -0.436803 0.199260 -0.020420 -0.307018 -0.942746 0.015997 0.990320 -0.344279 -0.855087 -0.093621 0.516581 -0.454227
H192 -0.093809 0.010651 0.171339 -0.111124 0.018971 0.254105 0.848455 -0.530817 0.300521 -0.233831 -0.089859 0.830165 -0.022582 0.106646 -0.696652 -0.069650 -0.064749 -0.142585 0.219678 -0.130297 -0.580433 -0.602526 -0.393313 0.542853 -0.404261 0.053804 0.169295 0.107393 -0.790202 -0.317943 0.766568 -0.117029 0.601410 -0.168590 -0.018908 -0.312804 -0.341288 -0.165337 -0.135972 -0.547775 -0.305344 -0.956943 -0.079925 0.282566 -0.025270 -0.077951 -0.109345 0.007680 0.744024 -0.643791 -0.599759 0.023800 -0.040069 0.350644 0.102188 0.627011 0.313192 -0.305303 -0.215777 -0.233601 -0.037929 -0.215295 0.333320 0.325737 -0.023033 0.347741 0.740396 0.467291 0.192173 0.296797 0.260819 0.127315 -0.291068 0.101358 -0.291810 -0.182388 -0.344040 0.301491 -0.144266 -0.036831 -0.256627 -0.044941 -0.134601 -0.206469 0.057951 0.139115 0.492659 -0.162172 0.204573 -0.073848 -0.065587 0.065914 -0.234250 0.038545 -0.354550 0.525010 -0.242801 0.646921 -0.105039 0.337132 -0.063660 -0.331392 -0.112956 0.200421 -0.676421 -0.318299 -0.302263 -0.148816 -0.366633 -0.209530 0.390726 -0.680606 0.075910 0.377367 -0.485098 -0.220627 -0.438943 -0.513851 0.896921 -0.569701 0.283688 -0.488720 0.106336 -0.098746 -0.634897 0.411547 0.755401 -0.545603
P433 0.028329 0.067024 -0.133976 -0.138875 -0.220914 -0.096680 0.344492 -0.468846 0.297994 -0.296527 0.204163 0.411544 0.095261 0.262696 -0.477280 -0.050655 -0.167445 0.191300 -0.085881 0.418620 -0.571072 -0.183459 -0.185420 0.796792 0.432081 0.111106 -0.533867 -0.047070 0.035860 0.042321 0.003589 -0.411135 0.074162 -0.923048 -0.330375 0.096849 0.210562 -0.015285 -0.070163 -0.373178 -0.199261 -0.558431 0.063922 -0.146766 0.097636 -0.468556 -0.051804 0.363252 -0.035397 0.261222 0.238518 0.096047 -0.705784 0.215783 -0.066977 -0.079602 0.391764 0.253076 -0.163558 0.146096 0.049519 0.050604 0.524089 0.143491 -0.120073 -0.387370 -0.307683 -0.009214 0.120041 0.124909 0.456344 0.283341 -0.099285 0.651002 -0.125222 -0.240802 -0.016229 0.415086 0.099198 0.041610 -0.260135 0.343194 -0.178980 0.073142 0.204759 -0.136590 -0.113086 -0.319553 -0.156579 0.376427 -0.198683 0.064093 0.207708 -0.212041 0.317442 0.062586 0.251728 -0.282681 0.067167 -0.483228 -0.190729 -0.614550 -0.237618 -0.029971 -0.146222 0.127909 -0.153025 0.633373 0.139645 -0.157420 0.329643 -0.322046 -0.369049 0.201748 -0.052776 -0.190818 0.204657 -0.109969 0.300041 0.005897 -0.321411 0.002810 -0.188721 0.182705 -0.263077 0.471700 0.254539 -0.088645
H213 -0.452978 -0.475264 1.075592 0.938822 -0.402355 0.267994 0.562411 -0.625682 0.463288 -0.560537 0.762114 -0.403385 -0.556539 0.960522 -0.983700 1.024736 -0.498965 0.429952 0.444259 0.794140 -0.370858 -0.168930 -0.001968 0.634867 -0.376213 0.904701 -0.079235 0.402150 -0.982920 -0.308405 0.940100 -0.113471 0.159761 -0.491005 -0.400404 0.073133 -0.214939 0.080724 0.053718 -0.175653 -0.489583 -0.291910 0.186011 -0.265393 -0.448597 -1.041152 -0.111685 -0.504636 -0.113827 -0.355242 0.311838 0.082902 -0.556535 -0.030353 -0.180838 0.146079 0.271068 -0.258538 -0.211720 0.204201 0.416008 -0.674064 0.412462 0.521039 -0.268626 0.057276 -0.323398 0.439824 -0.761245 0.207710 1.092569 0.412489 -0.740829 0.531943 0.185681 -1.207004 -0.064559 0.540154 0.033643 0.489026 -1.066517 0.366348 0.084160 0.828900 -0.327602 0.244424 0.187524 -0.376137 0.051681 -0.043107 0.219131 0.011415 -0.136542 -0.761741 0.212314 0.435399 -0.291574 0.018917 0.421867 0.409653 0.264842 -0.654457 -0.121812 0.047529 -0.636692 0.016369 -0.053036 -0.320835 0.524338 0.629935 0.580681 -0.019686 -0.368327 0.518543 -0.569754 0.461013 0.361066 -0.431287 0.179472 0.332094 -0.370430 0.388546 0.882984 0.479791 -0.230101 0.038815 0.230526 0.009638
H64 -0.059927 0.006930 -0.104344 -0.197581 -0.205929 0.056048 0.597523 -0.633514 -0.286994 0.094454 0.238977 0.191700 -0.447466 0.458703 -0.543274 0.302069 -1.333573 -0.320404 0.648043 0.255629 -0.307617 -0.597795 -0.609313 -0.195575 0.146974 0.457391 -0.088829 0.321174 0.164767 -0.146268 0.257446 -0.426508 -0.218029 -0.362394 0.471911 -0.676615 -0.339411 -0.098415 -0.473759 -0.780877 -0.109148 -0.327913 0.366063 -0.336459 -0.069963 -0.085540 0.128711 -0.320846 0.048507 0.239776 -0.132318 0.098871 -0.265259 0.672214 -0.234345 0.856370 0.442822 0.066220 0.138605 -0.052704 0.821435 -0.438854 0.339079 0.623942 -0.407604 -0.227817 -0.065274 0.294234 0.344227 -0.221590 0.766388 -0.271455 -0.977265 0.320633 -0.265088 -0.544962 0.479952 0.444370 0.514799 0.089276 0.241107 -0.050483 -0.158285 0.180443 -0.025498 -0.246217 0.762005 -0.847178 -0.331302 -0.569863 -0.133467 0.270506 -0.283095 -0.085740 0.497731 0.520161 -0.038326 0.305974 0.145486 0.427477 -0.263711 -0.942160 -0.527019 -0.056351 -0.561560 -0.361539 -0.521622 0.368258 -0.534355 0.229139 -0.262230 0.253630 -0.090182 0.517415 -0.433746 -0.291724 0.166978 -0.240630 0.835687 -0.111333 -0.366610 -0.304486 0.894044 -0.163801 -0.290563 0.030092 0.200587 -0.182872
H195 0.114958 -0.136809 0.050337 -0.221954 -0.076512 0.307000 0.591704 -0.352189 0.026877 0.063190 -0.121111 1.062324 0.154371 0.098286 -0.730112 -0.447315 -0.326980 -0.260221 -0.114385 -0.094347 0.069296 -0.589285 -0.462424 0.713680 -0.544394 -0.253718 0.307459 0.456386 0.019639 -0.363609 0.682505 -0.639342 0.540173 -0.977265 0.398783 -0.228230 -0.131547 -0.455945 0.200548 -0.001944 -0.228620 -0.962595 0.073033 0.186985 0.456719 -0.186186 0.235244 0.178073 0.293032 -0.401634 -0.082708 0.451537 0.076710 -0.471424 -0.481740 0.485179 0.288297 -0.124418 -0.349707 0.136981 0.250900 -0.137037 0.334352 -0.116897 -0.180695 -0.045829 0.553137 -0.174670 0.174343 -0.121179 0.174094 -0.058892 -0.197535 0.469682 -0.016063 -0.138235 0.126640 0.121705 0.384839 -0.189039 -0.359844 -0.052025 -0.586414 0.093557 -0.206886 0.431929 0.634463 -0.125862 0.279605 -0.173030 0.128433 0.832295 0.091981 -0.240645 -0.507708 0.510922 0.014087 0.544792 0.619087 -0.033459 0.035421 -0.466379 -0.014748 0.183638 -0.652303 -0.365725 0.010592 0.429527 0.177185 -0.016140 0.486697 -0.584112 -0.032890 0.671233 -0.382032 0.108600 -0.553036 -0.253951 0.501087 -0.028942 0.476109 -0.314775 0.666221 -0.166033 -0.028045 0.056324 0.380119 -0.511573
H35 -0.436815 0.396349 0.366173 0.408721 -0.074463 -0.021102 0.267175 -1.082996 -0.107733 0.244006 0.284723 0.773952 -0.562818 -0.076386 -0.726446 0.802530 -0.143979 -0.103842 -0.109298 0.406021 -0.055780 -0.259740 -0.506233 0.731508 -0.580541 0.236360 -0.174945 0.403782 -0.570428 -0.152855 0.251999 -0.184281 -0.330426 -0.798618 -0.259669 -0.268436 0.147970 0.180663 0.533485 -0.136245 -0.034056 -0.717900 -0.142783 -0.318493 0.298695 -0.639240 -0.397180 0.247777 0.139976 0.310517 0.122189 -0.233263 0.082901 0.251980 -0.057218 0.761714 0.465466 0.277854 -0.454872 0.118819 0.634721 -0.646157 0.838694 -0.167136 0.031129 -0.174253 0.587863 0.415484 -0.205265 -0.025557 1.318359 0.264969 -0.556206 0.990407 0.118069 -0.279779 -0.144877 0.261945 0.441288 -0.124170 -0.380280 -0.366292 -0.414769 0.013834 0.217821 0.027232 0.711662 -0.460434 -0.422921 0.391507 -0.444019 0.539880 0.135984 -0.225771 0.672545 -0.055908 -0.101058 0.603295 -0.013444 0.149193 -0.351536 0.032136 0.068023 -0.366862 -0.705629 -0.027976 0.407823 -0.754179 -0.062731 0.095309 -0.067677 -0.120855 0.129181 0.039438 0.384189 0.540605 -0.265134 0.861513 0.011672 -0.261470 -0.165362 0.182787 1.101597 0.483431 -0.881093 0.727967 0.557724 -0.273729
H151 -0.510156 -0.324489 -0.378949 -0.038164 -0.321046 -0.161393 0.360917 -0.630160 0.318619 -0.157574 0.502624 0.527181 -0.218908 -0.761960 0.086132 0.454133 -0.717888 0.211395 -0.236215 -0.023664 -0.957003 -0.222358 -0.640359 0.112013 -0.064117 0.001408 -0.065817 0.008979 -0.380684 -0.099418 0.729727 -0.204917 0.361005 -0.246058 0.434103 0.217450 -0.322944 -0.573930 0.237481 -0.556876 -0.552774 -0.498704 0.629296 0.164586 0.184785 -0.129582 -0.410321 0.383025 0.563742 -0.031059 -0.225249 -0.353745 0.131274 0.181774 -0.612402 0.262245 -0.377244 -0.116356 -0.271868 0.346291 0.078485 -0.543116 0.549764 0.380454 -0.484379 -0.012884 0.163669 0.187079 0.011833 0.353506 0.424000 0.314915 -0.040826 0.326767 -0.353436 -0.318248 -0.417269 0.263109 -0.013835 0.286504 -0.259466 -0.151355 -0.704216 0.163967 0.132676 0.029784 0.157565 -0.964565 -0.572509 0.064840 -0.800953 0.319432 0.175279 0.247255 0.054170 -0.053193 0.097454 0.258089 0.576592 -0.423433 0.067861 0.481979 0.324369 -0.832950 -0.840485 -0.274081 -0.325900 -0.293300 0.219797 0.213217 0.403158 -0.043206 0.289907 0.367803 0.062430 0.208263 -0.203507 0.402186 -0.079726 -0.334036 -0.251976 0.143206 0.497216 -0.135491 -0.690816 -0.037909 0.533263 -0.309411
H58 -0.087782 -0.025418 -0.193139 0.059958 -0.235384 0.153334 0.995676 -0.382829 -0.088089 -0.059523 0.150775 0.350767 0.142534 -0.288158 -0.674404 0.381247 -0.880831 -0.237089 -0.131889 0.799653 -0.341722 -0.265200 -0.235712 1.225799 -0.512282 -0.354166 -0.679345 0.261458 0.231953 -0.634934 0.403360 0.151020 0.096368 -0.655183 0.128873 -0.360228 0.018550 0.066135 0.467724 -0.462812 -0.659586 -0.180738 0.366537 0.002323 -0.087606 0.112992 -0.435144 -0.115643 0.105734 -0.183971 -0.102895 0.371617 -0.030791 -0.133985 -0.169241 0.015814 -0.265804 0.041138 0.580171 -0.281707 0.486119 -0.176541 0.043726 0.815648 -0.327295 0.271654 -0.360254 0.699701 -0.164143 0.072379 0.321450 -0.166147 -0.449253 1.132533 0.165635 -0.883550 -0.470737 -0.256579 0.265751 -0.324401 -0.119862 -0.329969 -1.027732 0.326368 -0.403978 -0.523495 0.396746 -0.480338 0.047921 -0.494907 -1.046401 0.111425 -0.186798 -0.415230 0.454243 0.456564 0.259777 0.470243 0.429139 0.303557 -0.191779 -0.806163 0.263701 -0.469012 -0.888216 0.056445 -0.129648 0.242467 -0.145682 0.698646 0.222727 -0.430064 -0.082628 -0.214646 -0.294004 0.385320 0.165027 -0.401603 -0.086566 -0.892233 0.105124 0.229936 1.007401 -0.207563 -0.470788 0.472768 1.020266 -0.370159
H182 -0.322797 -0.342007 0.357611 -0.628539 -1.054607 -0.128553 0.701003 -0.832588 -0.190306 -0.178457 -0.068949 1.106850 0.049999 0.134914 -0.263765 0.294693 -1.238520 0.371974 -0.039895 0.721136 -1.036233 -0.285999 -0.743213 0.047897 0.045299 -0.087834 -0.213268 -0.199253 -0.574735 -0.276571 0.220866 -0.208136 1.092551 -0.808743 0.417894 -0.083616 -0.052232 -0.251595 -0.346940 -0.198264 -0.639853 -0.643561 -0.383897 -0.513607 0.425161 -0.094150 -0.588461 -0.111818 0.215464 -0.011849 -0.076481 0.785041 0.143819 0.178409 -0.338889 0.156488 0.524147 0.593481 0.142428 -0.010321 0.683763 -0.295938 0.395240 0.612514 -0.314592 0.588893 0.370043 0.400184 0.430883 0.120342 1.045254 0.055781 0.031842 -0.305018 0.095806 -0.125984 -0.259727 0.360056 -0.618129 -0.355603 0.215485 -0.758979 -0.586740 -0.313916 0.043424 0.254462 0.077577 0.190155 -0.179763 -0.573108 0.291919 0.437385 -0.333475 -0.388168 0.010808 0.057418 0.493463 0.531090 0.250488 -0.251578 0.112514 -0.793615 0.641813 -0.265487 -0.143615 -0.019829 0.233449 -0.055250 -0.337673 0.424206 0.472427 -0.716533 0.083576 -0.070849 -0.262165 0.360282 -0.229756 -0.264969 -0.184335 -0.349865 -0.311080 0.459463 0.661965 -0.389624 -0.417854 -0.172656 0.518483 0.024315
H52 -0.436594 0.272320 0.438630 0.264370 -0.504409 0.460076 1.325016 -0.685359 0.255829 0.006495 -0.240411 0.747544 0.526306 0.074336 -0.689683 0.480257 -0.313140 -0.193368 0.285057 1.178144 -0.461510 -0.554300 -0.712580 0.377723 -0.570189 -0.080712 -0.261522 0.175798 -0.420323 -0.195390 0.500348 -0.497723 0.524935 -0.636248 -0.279997 -0.529985 0.189600 -0.234619 -0.835122 0.400487 0.282901 -0.680426 0.052786 0.105720 -0.746095 -0.405324 -0.147076 0.355514 -0.019561 -0.437802 -0.033517 0.059907 -0.012781 0.109069 -0.774425 0.315447 0.495574 0.478366 0.242612 -0.173259 0.996800 0.084858 0.209591 0.302695 -0.680449 0.221651 0.472100 0.079029 0.402059 0.091087 0.390659 -0.041484 -0.275237 0.436650 -0.031132 -0.378811 0.191303 0.573822 -0.166558 -0.426419 0.084336 -0.281164 -0.504666 -0.206628 -0.205351 0.596633 0.379892 -0.226212 0.471511 -0.560847 -0.800936 -0.179559 -0.308547 -0.483480 0.364475 0.305456 -0.365599 -0.552852 -0.091462 0.284244 -0.030617 -0.913910 0.028265 -0.135312 -0.244474 0.282180 0.045141 -0.183774 0.047034 -0.556242 0.529109 -0.691918 -0.399017 0.122009 -0.050349 0.371552 0.559647 -0.332002 -0.011212 -0.099248 0.363078 0.049406 0.289909 0.193360 0.101039 -0.012243 0.290965 -0.737813
H31 0.073983 -0.012349 0.505463 -0.152828 -0.164425 -0.818737 0.193156 -0.698944 0.108735 0.039671 0.426251 0.477285 -0.050467 -0.023427 -0.592498 0.248311 -0.097815 0.692408 0.397729 0.316121 -0.040454 -0.708813 -0.188173 0.009901 -0.020536 -0.187604 0.442846 0.372014 -0.459753 -0.131405 0.710863 0.105731 0.204631 -1.031335 -0.447407 0.361599 -0.012390 -0.580679 0.182627 -0.102512 -0.814162 -0.970008 0.315629 0.439284 0.025477 -0.563008 0.084581 -0.077943 -0.207090 -0.016070 -0.546129 -0.703413 -0.025029 0.139165 -0.754446 0.715954 0.858417 -0.171523 -0.541595 0.208023 0.397156 -0.417515 1.072762 0.031938 -0.348999 0.162245 -0.296556 0.739531 0.052813 -0.118731 0.264586 0.019002 -0.453767 0.493586 -0.284139 -0.303609 0.068319 -0.090946 -0.499835 -0.471525 0.238940 -0.389646 -0.693984 0.329593 -0.186650 0.630944 0.474248 -0.359951 -0.168401 0.451787 0.073058 -0.327092 0.074687 -0.340333 0.160159 0.274552 -0.527121 0.234253 -0.161593 -0.380894 0.264528 -0.064357 -0.093627 0.017125 -0.309379 0.227073 0.313358 -0.281444 -0.066809 -0.451778 -0.124736 0.113362 -0.181854 0.684903 -0.299165 0.567556 0.470023 0.464861 -0.188422 0.270592 0.330078 0.012700 0.334469 0.188276 -0.258647 -0.103368 0.031179 -0.596727
P829 -0.236409 -0.145057 -0.252398 0.032464 -0.050022 0.262805 0.613345 -0.952174 0.486025 -0.000326 0.504542 0.436261 0.010803 -0.643845 0.270191 0.311746 -0.691869 0.208390 -0.383461 0.106705 -0.823934 -0.521496 -0.429834 0.070864 0.061772 -0.024709 -0.033226 0.027718 -0.277145 -0.159472 0.652360 -0.385740 0.262166 -0.514189 0.349199 -0.061964 -0.320366 -0.548234 -0.170351 -0.078026 -0.291467 -0.408287 0.723081 0.141248 0.038897 -0.139928 -0.481450 0.439990 0.508182 -0.186474 -0.183948 -0.312312 0.280457 0.086181 -0.567066 0.311605 -0.299731 -0.180561 -0.200309 0.366337 0.281741 -0.558541 0.680082 0.177116 -0.302207 0.019062 0.115765 -0.152074 -0.013040 0.609560 0.315250 0.383970 -0.230438 0.382459 -0.335202 -0.417359 -0.383563 0.170758 -0.056430 0.289986 -0.138424 -0.215877 -0.645116 0.162833 -0.056460 0.198688 0.029375 -1.090276 -0.570482 -0.150395 -0.877948 0.412073 -0.055753 0.481732 -0.097017 -0.113786 0.063416 0.117244 0.543460 -0.167337 0.071036 0.333429 0.121903 -0.657826 -0.820040 -0.072827 -0.394784 -0.296216 0.490434 -0.002300 0.529854 -0.239054 0.181916 0.206657 0.279949 0.177052 -0.192536 0.329847 -0.034991 -0.078641 -0.295998 0.207833 0.513976 -0.038178 -0.557623 -0.091905 0.584752 -0.231187
H84 0.122458 0.265946 0.026287 0.307901 -0.216725 0.146921 0.520481 -0.791191 0.234542 -0.175636 0.524286 0.362298 0.036461 0.136179 -0.419724 -0.344311 0.018375 -0.217577 0.109788 0.740503 -0.497637 -0.554443 -0.074890 0.682645 0.091588 0.077629 -0.235952 0.236487 -0.496537 -0.109946 0.414801 0.072102 0.401947 -0.793130 -0.083942 -0.034004 -0.122234 0.135861 -0.165464 -0.270835 0.190081 -0.479561 0.155322 -0.055780 -0.034775 -0.148830 -0.055186 -0.152895 0.314809 -0.134900 -0.328464 0.059067 -0.345514 0.411097 -0.355989 0.462239 0.265243 -0.021886 0.207181 -0.279504 0.248440 -0.076967 1.022242 -0.243278 0.353405 -0.024832 -0.413727 0.329863 -0.114122 -0.029511 0.189400 0.431503 0.031234 0.740553 0.095450 -0.409937 0.003176 -0.115585 -0.078976 -0.237054 -0.808283 -0.254553 -0.326213 0.489523 0.135208 -0.726886 0.185779 -0.256526 -0.182273 0.388145 0.061722 -0.174933 0.338609 0.341996 0.549754 0.035709 0.133946 0.339962 0.028086 -0.344893 0.361940 -0.664057 -0.389043 0.046945 -0.380404 0.281855 -0.315154 0.203129 0.288325 -0.121122 -0.101532 -0.663685 -0.552209 0.259306 0.418608 0.071166 -0.023501 0.261772 0.019953 -0.101256 -0.418419 -0.666098 0.181995 -0.033439 0.183761 0.396770 0.358744 0.194311
H96 -0.128417 -0.082083 -0.023240 -0.329884 -0.073540 -0.282786 0.180537 -0.422072 0.197660 -0.305681 0.383692 0.545497 -0.029895 -0.063015 -0.603798 -0.001513 -0.266469 0.246909 0.013705 0.368786 -0.549735 -0.313515 -0.200076 0.515880 0.408773 0.204453 -0.506508 -0.017695 0.132934 0.016412 0.355957 -0.319489 -0.117603 -1.117688 -0.402976 -0.110086 0.239261 0.014976 -0.066021 -0.562413 -0.121372 -0.501250 -0.144447 -0.103630 -0.129687 -0.433361 -0.137446 0.124124 -0.037248 0.685121 0.355078 0.138943 -0.759758 0.360867 0.006881 0.005824 0.119759 0.411380 0.055427 0.459162 0.127346 -0.248635 0.488899 0.177047 -0.610503 -0.533444 -0.266733 -0.109339 0.362601 0.211507 0.912158 0.067747 -0.397512 1.063057 0.028708 -0.081390 0.029408 0.144280 0.257287 -0.141796 0.119658 0.337450 -0.292188 0.074387 -0.032879 -0.123742 -0.152124 -0.418211 -0.225548 0.507606 -0.479139 0.049716 0.214282 -0.112640 0.112261 -0.020201 0.175646 -0.316919 -0.019504 -0.822723 -0.183994 -0.740203 -0.215098 -0.309615 -0.270421 0.194511 0.073273 0.844782 0.082174 -0.255958 0.438475 -0.458256 -0.508346 0.391992 0.019134 -0.111712 0.155538 -0.252573 -0.076043 0.043008 -0.371310 0.012451 -0.179506 0.144085 -0.355738 0.788698 0.172874 -0.298514
H65 -0.092441 -0.035601 0.053719 -0.141619 -0.204438 0.104430 0.526031 -0.563575 -0.277520 0.033730 0.159564 0.099553 -0.630228 0.437667 -0.488165 0.298640 -1.285701 -0.145317 0.507818 0.370169 -0.398889 -0.524438 -0.599155 -0.114909 0.168808 0.419817 -0.206447 0.254644 0.098143 -0.177167 0.219226 -0.424637 -0.209012 -0.390405 0.369423 -0.636699 -0.350066 -0.143311 -0.564331 -0.858840 -0.031525 -0.381497 0.343573 -0.499167 -0.036958 -0.063296 0.011546 -0.362056 -0.002262 0.265574 -0.127779 0.090370 -0.168572 0.649204 -0.170396 0.902170 0.467416 -0.018376 0.048114 -0.028016 0.737255 -0.536326 0.331205 0.640938 -0.324198 -0.357814 0.024030 0.194066 0.321181 -0.265885 0.763077 -0.357737 -0.958221 0.412113 -0.223288 -0.568979 0.387095 0.503999 0.523947 0.242155 0.272938 0.032891 -0.037692 0.054078 0.025148 -0.279940 0.779357 -0.888575 -0.376955 -0.564925 -0.013724 0.358853 -0.352601 -0.127633 0.571086 0.463704 -0.067686 0.210478 0.191972 0.419083 -0.320699 -0.951768 -0.531942 -0.093461 -0.499649 -0.351691 -0.551860 0.415027 -0.451732 0.116532 -0.185241 0.250118 -0.186309 0.518822 -0.373243 -0.252695 0.084011 -0.314396 0.834163 -0.188019 -0.388531 -0.278913 0.791417 0.070365 -0.300585 0.123532 0.120743 -0.139497
P826 0.199600 -0.105176 0.241914 -0.146232 -0.204817 0.039930 0.876287 -1.052088 0.677755 0.373004 0.242663 0.400527 0.357265 -0.645342 -0.066173 0.353479 -0.497594 0.196637 0.209441 0.440091 -0.605229 -0.294990 -0.205092 0.376359 0.139091 -0.203971 0.237107 0.372929 0.012491 0.018066 0.790295 -0.129675 -0.017769 -0.817742 0.065491 -0.381469 0.255224 -0.924196 -0.215711 0.271723 -0.066504 -0.246810 0.455227 0.392398 0.000853 -0.438444 -0.281944 0.100398 0.184073 -0.424169 -0.521159 -0.205203 0.584036 -0.040962 -0.603172 0.829803 -0.256547 -0.261063 0.244227 0.197612 0.435824 -0.578725 0.378390 -0.217009 -0.338713 0.262688 0.072869 -0.176520 -0.007465 0.554972 0.282711 0.468940 -0.732484 0.824108 -0.538571 0.003187 -0.693875 0.243998 -0.312319 0.067332 0.071782 -0.477400 -0.836428 0.315445 -0.040061 0.486481 -0.088607 -0.593116 -0.425016 -0.275281 -1.087632 0.304426 -0.129446 0.630310 0.105606 0.099092 0.413964 -0.001653 0.511262 -0.295981 0.242521 -0.435014 -0.146754 -0.453605 -0.622021 -0.007288 -0.230713 -0.253704 0.576438 -0.166267 0.129630 -0.373791 0.070833 0.250640 0.044046 -0.012582 -0.324242 0.212697 0.163408 0.155036 -0.140733 0.082932 1.070269 -0.018145 -0.331040 0.342635 0.699024 -0.573510
H203 0.200010 -0.185799 0.823261 -0.065094 -0.322812 -0.322180 -0.213659 -0.888195 -0.663303 0.256130 -0.086749 0.498872 -0.084834 0.007397 -0.588186 0.300755 -0.962109 0.129681 0.110344 0.866240 0.139044 -0.188061 -0.922566 0.123242 -0.635296 0.191197 -0.356153 -0.233080 -0.496031 -0.326240 1.302516 0.677139 0.230560 -0.384529 0.099452 -0.129424 -0.031724 0.269742 0.372369 -0.430259 -0.690663 -0.527056 0.265851 -0.325341 -0.059854 -0.293538 -1.152112 -0.310676 -0.079645 0.585551 0.723413 0.070766 -0.478769 0.009302 -0.621553 0.720708 -0.036553 -0.128926 0.182247 0.232649 0.395780 -0.383655 0.260747 0.281686 -0.620845 0.287810 -1.033301 0.149012 0.359633 -0.103286 1.103241 0.367537 -0.610055 0.132036 0.247242 -0.389770 -0.158299 -0.385016 -0.170721 -0.583336 -0.350174 -0.531100 -0.535727 0.618408 -1.050366 0.470489 0.751715 0.004304 -0.630087 -0.150938 0.379295 0.177639 0.353668 -0.573590 -0.037354 0.312888 -0.276754 -0.096616 -0.148914 0.231708 0.401156 -0.236011 -0.332050 -0.888051 0.318436 -0.251509 0.747915 0.436251 0.414217 0.001774 0.497337 -0.237260 0.308728 0.466790 -0.931281 0.942403 0.846859 0.443110 -0.186515 -0.303851 -0.582913 0.126924 1.074709 -0.115592 -0.531818 0.561411 -0.386779 -0.371722
H107 0.448711 -0.282880 0.030932 0.381023 0.253523 0.406239 1.365800 -1.133106 0.530496 -0.060768 0.538751 0.077578 0.297743 0.184828 0.110961 0.539120 -1.073143 0.235710 0.653196 0.543945 -0.454641 -0.784414 0.043676 -0.111542 0.345346 0.488234 -0.275175 0.739586 -0.651224 -0.661679 1.125180 -0.642801 0.388171 -0.353784 -0.217614 0.191415 -0.644705 -0.882616 -0.385125 -0.269877 -0.519906 -0.551697 0.140052 -0.291409 -0.031623 -0.276842 -0.142837 -0.635652 -0.189283 -0.173664 -0.145769 0.034464 0.115143 -0.198303 -0.700707 0.647251 0.069057 0.150766 0.132745 -0.251853 0.667119 -0.492577 0.079946 0.474614 -0.122689 0.741603 -0.036101 0.694216 -0.025296 0.473713 0.411179 0.652798 0.066436 0.427875 0.028981 -0.848474 -0.107616 0.421819 -0.114889 0.553335 -0.495390 0.028097 -0.439508 0.560244 -0.001930 -0.079114 -0.471457 -0.748229 -0.692555 -0.582386 -0.077723 -0.289913 -0.483017 0.180093 0.231784 0.496808 -0.308391 0.118500 0.656440 0.311892 -0.070792 -0.568361 -0.469686 0.129273 -1.025112 -0.142456 -0.748546 -0.177495 -0.110145 -0.009808 0.302168 -0.201521 -0.232150 -0.015563 -0.397499 0.263898 0.520715 -0.002213 0.842675 0.013876 -0.200808 -0.291181 0.229374 -0.150741 -0.444468 0.099455 0.315226 -0.061550
H82 -0.228852 -0.423531 0.425812 -0.138305 -0.306047 0.377991 0.871110 -1.016860 0.383091 -0.427844 0.398481 0.291391 -0.703070 -0.051165 -1.104979 0.740352 -0.449155 0.588522 0.712582 0.603492 -0.414086 -0.231807 0.036924 0.303996 -0.140557 -0.137459 -0.262447 -0.220015 -0.313872 -0.513339 0.297984 -0.611674 0.793311 -0.039578 0.176844 -0.326855 -0.428668 -0.261274 -0.267038 -0.354862 -0.905300 0.009075 0.648692 -0.050005 0.181505 -0.568161 0.098649 -0.128587 0.433392 -0.042942 -0.341091 0.361617 0.081786 -0.275721 -0.221194 0.251579 -0.085932 -0.629109 -0.159573 0.636670 -0.092249 -0.881005 0.448504 0.833327 -0.756736 -0.648075 0.151275 0.258821 -0.254092 0.837031 0.988265 -0.027318 -0.779431 0.419363 0.396291 -0.716549 0.344726 0.754879 -0.606288 -0.539365 -0.269552 0.587566 0.019945 -0.127789 -0.444137 0.171014 0.477623 -0.587529 -0.143093 -0.329312 -0.291333 0.622748 -0.195818 -0.394085 -0.195448 0.264328 -0.406531 0.210555 0.407459 0.188335 0.843400 -0.544830 0.133598 -0.800830 -0.229959 -0.236963 -0.450007 0.361087 0.031957 0.142215 0.722664 -0.245223 -0.120757 0.228038 -0.176343 0.180298 -0.763988 -0.729257 1.148440 0.087120 -0.149500 -0.041279 0.816618 0.118054 -0.339752 -0.014201 0.364044 -0.335331
H175 -0.052356 -0.206693 0.902207 -0.411530 -0.662012 -0.304466 0.808488 -0.830403 0.109417 -1.032589 -0.113501 0.064614 0.070268 0.369576 -1.244019 -0.065951 -0.792458 0.353663 0.807176 1.159246 -0.323072 -0.646094 -0.231823 0.770683 0.002634 0.385560 -0.369135 0.233725 -0.788225 -0.412066 0.720337 -0.403242 0.637106 -0.437611 0.018315 -0.532227 -0.599080 -0.172356 0.103400 -0.247876 -0.388977 -0.613137 0.024579 -0.225721 0.057132 -0.121160 0.225416 -0.802886 -0.104362 -0.083156 0.161057 0.740166 -0.890866 0.049588 0.407003 -0.008115 0.379582 0.204606 0.153102 -0.017097 0.223178 -0.377101 -0.036425 0.187234 -0.934191 0.411095 -0.477578 0.923827 0.037890 -0.481436 0.310892 -0.250351 -0.294591 0.293885 0.485100 -0.717514 -0.156922 -0.252843 -0.136266 0.175494 -0.154479 0.398303 -0.249143 0.293808 -0.552390 -0.430627 0.426237 -0.302084 -0.140026 -0.029742 0.026406 0.049220 -0.281201 -0.952312 0.057040 0.381387 0.251886 0.225414 0.247515 -0.539271 0.006137 -0.809220 0.396371 0.637828 -0.831842 0.316639 0.532022 0.289992 -0.484357 0.571019 0.272070 -0.680929 -0.248854 0.972545 -0.613715 0.250194 -0.018740 -0.363405 0.297478 0.392580 -0.143492 0.312677 0.773312 0.040197 -0.604482 -0.094594 0.289658 0.047526
H55 0.068616 -0.824093 0.056733 -0.308293 -0.879685 0.053938 0.131385 -0.458394 0.310340 0.724711 0.140356 0.696218 -0.130626 -0.088021 -0.789100 0.803225 -0.329113 0.021081 0.105835 0.461079 -0.803973 -0.730241 -1.031822 0.230997 0.177223 0.479333 0.525906 0.063810 -0.076454 -0.020538 0.467839 0.524491 0.111364 -0.540509 0.275456 -0.090913 0.268865 -0.153418 0.690490 -0.593447 -1.228197 -0.918733 0.335107 0.035992 0.279561 -0.723922 -0.556324 0.207467 -0.174289 0.260202 0.148691 0.162313 0.175934 -0.311913 -0.232153 0.273681 0.777468 -0.228354 -0.226617 0.365349 0.238217 -1.033709 0.388726 0.043627 -0.213743 -0.262249 0.481145 0.672812 -0.050539 0.320749 1.161990 -0.090974 -0.221121 0.352002 -0.360195 -0.019997 0.004464 -0.025516 0.089949 -0.488118 -0.222985 0.121380 -0.291693 0.150030 -0.176692 0.237178 0.102351 -0.760337 -0.563854 0.361612 -0.289887 0.604919 -0.165868 0.015317 0.120065 -0.299156 -0.360757 0.226976 -0.105152 0.337520 0.467391 0.193123 -0.090793 -0.147532 -0.699465 -0.221354 -0.418454 0.237087 -0.056396 0.115979 0.565658 -0.001338 0.082291 0.084926 -0.502255 0.658572 0.431606 -0.202349 0.045186 -0.283093 0.351087 -0.320441 1.282175 -0.681588 -0.214175 0.102818 0.604800 -0.298087
H18 -0.700711 -0.744734 0.657241 0.161976 -0.434640 0.096917 0.779724 -0.819972 0.151946 -0.465519 0.200204 0.303343 -0.282012 0.350181 -0.526495 0.355003 -0.578938 0.474156 0.405349 0.551361 -1.190264 -0.278197 -0.729291 0.345442 -0.599856 0.439953 0.142991 0.272068 -0.534846 0.397877 0.078791 -0.422729 0.918736 -0.436928 0.005561 -0.220425 -0.498983 0.076514 0.152108 -0.154110 -0.540469 -0.763572 -0.172217 0.260257 -0.258359 -0.652072 -0.686559 0.169579 0.286446 -0.559763 0.778898 0.580366 0.064085 0.070422 0.012211 -0.151514 0.245019 -0.195601 -0.172145 0.604494 -0.182568 -1.088786 0.198993 0.724475 -0.146191 -0.425864 -0.211583 -0.413232 0.213521 0.259257 1.294250 -0.153968 -0.441975 0.482174 -0.262556 -0.022109 0.507008 0.470233 0.532015 -0.288728 -0.576576 0.436846 -0.352988 0.406350 0.089853 0.326314 0.318392 -0.033974 0.077858 -0.537790 -0.507774 0.601785 -0.019145 -0.612965 0.153629 0.039582 -0.130597 0.753451 -0.172346 0.368538 0.122830 -0.170694 0.387378 -0.959853 -0.712582 -0.213214 -0.020212 -0.097643 0.027927 -0.186432 0.840207 -0.152248 0.123821 0.235856 -0.702130 -0.203292 0.190758 0.303422 0.232988 -0.230737 -0.167292 0.717975 0.799033 0.090248 -0.329616 0.081944 0.082783 0.231960
H86 0.056262 0.021308 0.060922 0.117854 -0.131271 0.048589 0.474253 -0.628725 0.442899 -0.405698 0.081959 0.214207 0.001873 0.454773 -0.526124 -0.030661 -0.247287 0.379577 0.008202 0.433404 -0.783822 -0.223465 -0.380849 0.662415 0.492297 0.100874 -0.527994 0.343884 -0.327570 0.220057 0.315669 -0.320269 0.152450 -0.976530 -0.573747 -0.061709 0.112971 -0.042163 -0.090937 -0.231340 0.045804 -0.569659 0.193063 -0.017593 0.100597 -0.755933 -0.088731 0.374054 0.061429 0.095765 0.199267 0.132222 -0.780288 0.508860 -0.042581 -0.076482 0.470280 0.239452 -0.072592 0.278112 -0.015864 -0.113858 0.809453 0.038516 0.099394 -0.520578 -0.199040 -0.203534 -0.160902 0.031371 0.581349 0.461254 -0.037216 0.686724 -0.397000 -0.271269 -0.022261 0.526354 0.253341 0.120307 -0.571954 0.616486 -0.355382 0.177007 0.324963 -0.073939 -0.154341 -0.454287 -0.148358 0.412160 -0.019402 0.187358 0.162629 -0.207188 0.500895 0.075400 0.217810 -0.255393 0.194030 -0.438360 -0.401016 -0.774693 -0.394917 -0.082207 -0.014886 0.305115 0.010916 0.589632 0.219488 -0.306815 0.200368 -0.375545 -0.394689 0.401457 0.139942 -0.221124 0.366267 -0.066870 0.271784 0.034989 -0.212457 0.003532 -0.388597 0.291306 -0.353779 0.509047 0.147975 0.236310
H178 -0.505297 -0.205755 0.450355 -0.207547 -0.843275 0.078222 0.682954 -0.812924 -0.158868 0.105595 0.098124 0.894318 0.189985 0.100393 -0.212861 0.263030 -0.902327 0.585245 -0.125956 0.691999 -0.974290 -0.101817 -0.699727 0.105465 0.028021 -0.151883 -0.162200 0.035128 -0.832583 -0.527196 0.320207 -0.028330 1.043629 -0.842781 0.249079 -0.128934 -0.378756 0.039529 -0.580778 -0.149587 -0.406561 -0.332620 -0.153482 -0.185251 0.360716 0.401347 -0.462951 -0.069329 0.283501 -0.142564 -0.170762 0.916281 0.107978 0.340274 -0.616100 0.134161 0.490966 0.413440 -0.161878 -0.005006 0.825546 -0.299047 0.469246 0.782750 -0.121808 0.564160 0.532002 0.356090 0.367536 -0.068998 1.002239 0.138888 -0.150016 -0.125975 0.167648 -0.248284 -0.124070 0.418847 -0.712827 -0.206487 0.311075 -0.607436 -0.808254 -0.208879 0.016644 -0.065915 0.392404 0.185298 -0.551679 -0.427056 0.110892 0.368991 -0.756973 -0.080224 -0.170791 0.168883 0.052553 0.352573 0.249323 0.231072 0.280817 -0.550438 0.210354 0.083893 -0.404066 0.122386 0.194526 -0.065340 -0.380865 0.144755 0.436276 -0.514827 0.486833 -0.014039 -0.127993 0.667789 -0.096804 -0.015598 -0.378758 -0.665269 -0.025512 0.400890 0.382473 -0.015503 -0.341161 -0.324818 0.782394 0.043988
H15 -0.344857 -0.021801 0.145694 -0.447342 -0.757505 0.042726 0.170519 -0.269119 0.699043 0.751232 -0.202297 0.856177 -0.554043 -0.120251 -0.959979 0.237078 -1.043444 -0.065989 -0.093137 0.329520 -0.546436 -0.193857 -0.328844 0.359831 0.076153 0.022615 0.548402 -0.045442 -0.103196 0.078674 1.180173 0.436705 0.045774 -0.813459 0.461469 -0.286077 -0.137345 0.329911 0.433911 -0.405663 -0.467183 -0.403677 0.432603 -0.621497 0.174719 -0.703214 -0.325498 0.434034 0.520276 0.213931 0.112243 0.190704 -0.400061 0.019645 -0.369285 0.166534 0.009942 -0.196255 -0.073635 0.767863 0.531284 -0.044116 1.085317 0.315558 -0.501011 -0.854095 0.139044 0.145851 -0.134101 -0.615844 0.953629 0.181723 -0.328612 0.157530 -0.572678 -0.369897 0.068868 0.256953 -0.025333 -0.204200 -0.077929 -0.312504 -0.618445 -0.072902 -0.410383 -0.276265 0.469043 -0.115749 -0.079329 0.075962 0.096495 0.757517 0.685431 -0.206036 -0.212851 0.742631 -0.296265 1.014824 0.095201 -0.584003 0.149293 -0.313526 0.088870 -0.253790 -0.705847 -0.261581 -0.342126 0.287980 -0.480132 -0.113252 -0.258500 -0.425776 0.122314 0.163404 -0.489731 -0.133784 -0.289228 -0.177480 0.079753 -0.359116 -0.713019 0.515919 0.938583 -0.078105 -0.728467 0.546955 0.080644 -0.985259
H132 0.168347 -0.123865 0.760588 0.403225 -0.030113 0.482933 0.745953 -1.384905 0.281756 -0.718224 0.108218 0.217694 0.058041 0.159925 -0.892124 0.040923 -0.208212 0.751730 0.661439 0.577196 -0.132272 -0.572880 -0.300781 0.300403 -0.260765 0.448976 -0.111899 0.019252 -0.434975 -0.161970 0.478476 -0.589462 0.645252 -0.467978 0.452663 -0.303972 -0.312497 -0.554601 -0.292623 -0.301851 -0.132297 -0.677507 0.686037 -0.299304 -0.265146 -0.829037 0.088693 -0.054907 0.707998 -0.286907 0.560652 0.661132 -0.221588 -0.196954 -0.040537 0.349583 0.708048 -0.150181 0.164372 0.632127 0.058278 -0.464561 0.496591 -0.221216 -0.154657 0.089373 -0.991720 0.342518 -0.077238 0.748571 1.008942 -0.197340 -0.683320 -0.414816 -0.057928 -0.415333 0.472828 0.212379 -0.283123 0.516756 -0.819341 0.732939 -0.187509 0.135878 -0.364382 0.498297 0.244619 -0.304491 -0.556973 -0.133317 0.145451 0.263697 0.157004 -0.401303 -0.016794 -0.310517 0.090373 0.359099 -0.175665 0.159345 -0.569631 -1.229961 0.141920 -0.062331 -0.036011 -0.244469 -0.147644 0.544145 0.476237 -0.445162 0.178230 -0.629222 -0.420818 0.823316 0.078224 0.253228 0.066440 0.512489 0.708508 0.561976 -0.959556 0.054863 0.762369 0.524468 -0.132520 0.883507 -0.201576 -0.450415
H3 -0.871363 0.151541 0.359325 -0.191061 -0.412184 -0.712203 0.517440 -0.174851 0.346862 0.465216 0.125274 0.606854 -0.162424 -0.276304 -0.553132 0.655619 -0.630259 0.137380 -0.013235 0.038009 -0.161426 -0.770604 -0.154713 0.381689 -0.595455 0.752458 0.425191 0.313914 -0.788645 -0.433525 1.055687 -0.259827 -0.195208 -0.551159 0.390828 -0.208032 -0.147842 0.071375 -0.147206 0.051815 -0.332744 -0.918207 0.476162 0.342251 -0.309359 -0.936426 -0.217445 0.234747 0.242893 0.204924 0.368287 -0.603265 -0.197313 0.163930 -0.785534 0.080032 0.098577 0.451839 0.585816 0.129694 0.036830 -0.294935 0.310539 0.493596 -0.558759 0.476484 -0.083055 0.722920 0.157323 -0.146118 0.404713 0.008029 0.277573 0.917352 0.332367 0.009836 -0.347633 -0.429475 -0.529791 0.230125 -0.203873 -0.685081 -0.875578 0.371705 -0.860419 0.134023 0.736017 -0.160590 0.679310 -0.126293 -0.236544 0.207349 0.687942 -0.397174 0.190603 0.568809 0.256796 -0.257819 0.171936 -0.269252 -0.155547 -0.157234 -0.034391 -0.642536 -0.862320 -0.275998 0.284613 -0.174625 0.173358 0.224569 0.139652 -0.431634 0.332286 0.732507 -0.142874 0.708177 0.214937 0.305642 0.050317 -0.127881 -0.375871 -0.140963 0.143088 -0.646894 -0.480716 0.096171 0.146710 -0.607380
H119 0.189304 0.204842 0.925461 -0.043376 -0.164899 -0.023961 0.625316 -1.411706 0.211997 -0.309726 0.160470 0.617025 0.638762 -0.126600 -0.647742 -0.123640 -1.028402 0.362667 0.489696 0.718414 -0.595793 -0.158647 -0.641725 0.484390 0.454529 -0.330666 -0.367422 0.381713 0.007059 -0.625802 1.114649 -0.348267 0.691632 -0.304381 -0.081054 0.255122 -0.625194 -0.414263 -0.748528 -0.204874 -0.128696 -1.264602 0.006380 -0.454262 0.216997 -0.206773 -0.556679 -0.458691 -0.371322 -0.363586 -0.131801 0.342377 0.275432 -1.169472 -0.296430 0.638227 -0.060663 0.037406 -0.155621 0.598157 0.490591 -0.527411 0.186550 0.710483 0.337858 0.589868 -0.016428 -0.118815 0.253700 0.833963 0.673377 0.822672 0.152250 0.415509 -0.145936 -0.208694 -0.453326 -0.376937 -0.474523 0.235721 0.016879 -0.332459 0.028911 -0.045169 -1.032133 0.213295 0.279564 -0.191888 -0.557617 0.224775 0.738451 0.772503 0.053834 0.541956 0.570583 0.178917 -0.474146 -0.314377 0.622279 0.253473 -0.590201 -0.128672 -0.041690 -0.764751 -0.287116 0.015491 -0.212944 0.419315 0.213726 -0.381361 0.806512 -0.416931 0.405342 0.434388 -0.195425 0.720687 0.468183 -0.625920 0.555816 0.214118 -0.545436 0.113394 0.463207 0.056052 -0.007853 0.644114 -0.019736 0.169866
H215 -0.643944 -0.428821 0.605000 0.197792 -0.793936 -0.309375 0.675816 -0.685180 0.059843 -0.443789 -0.017822 0.359170 -0.673019 -0.385716 -0.919875 0.987096 -0.806553 0.613898 0.212789 0.129879 -0.481477 -0.075868 -0.888076 0.218745 -0.420188 0.145094 0.344211 -0.241111 -0.544263 -0.272524 0.170906 -0.177934 0.485339 -0.198074 0.393255 -0.166024 -0.613812 -0.500845 0.009251 -0.381805 -0.613436 -0.252031 0.205777 -0.411065 -0.016062 -0.115434 -0.875789 -0.368932 0.589648 -0.267925 -0.322640 -0.334573 0.308795 -0.238780 -0.424425 0.687572 -0.050404 -0.126413 0.500441 0.623295 0.088099 -0.842760 0.189873 0.409241 -0.490158 0.470065 0.190176 0.703941 -0.231195 0.225288 1.362172 -0.144918 -0.156219 0.188436 -0.022901 -0.355052 0.367683 -0.064868 -0.276104 0.141209 0.090747 -0.413238 -0.415223 -0.238842 -0.406909 -0.139254 0.589808 -0.883669 -0.168482 -0.894753 0.370839 1.000661 -0.285797 -0.919637 0.025762 -0.441500 -0.121455 0.306037 -0.282138 0.208301 -0.544896 -0.188573 0.315128 -0.725966 -0.640139 -0.042094 0.388111 0.148508 0.475487 0.623168 -0.142430 -0.362989 0.076317 1.341392 -0.176332 0.854045 -0.806746 0.593131 -0.027913 0.183880 -0.162074 -0.170709 0.488407 0.313691 -0.759684 0.233475 -0.149668 -0.354549
H103 0.167199 0.017285 0.035616 -0.376052 -0.098481 -0.263194 0.857251 -0.415723 0.432114 -0.014906 0.072260 0.205409 -0.238323 0.254193 -0.440521 -0.101074 -0.852712 0.185489 0.064789 0.560188 -0.953397 -0.297610 -0.321151 0.203543 -0.380860 -0.145882 0.500599 0.319214 0.184572 0.099430 1.082181 0.729820 0.346025 -0.601754 0.105441 -0.283496 0.104504 -0.931506 0.542170 -0.636095 -0.601235 -0.576076 -0.025993 0.222234 -0.073043 -0.783090 0.193815 -0.018355 0.353646 0.330970 -0.042133 -0.632535 -0.411964 0.098951 -0.307749 0.042218 -0.399092 -0.213475 -0.078580 0.517846 0.639708 -0.900804 0.044269 0.642438 -0.145375 -0.295221 -0.236787 0.099341 -0.063679 0.566061 0.672209 -0.350670 0.235512 0.519455 0.073959 -0.201254 0.245330 -0.352044 0.150547 -0.169081 -0.349539 -0.183962 -0.953584 0.350431 -0.587086 -0.025834 0.073817 0.162447 0.368661 0.050654 0.007446 0.181650 -0.188468 -0.818202 -0.137974 0.406934 -0.021719 0.540155 -0.040341 -0.101979 0.334811 -0.719878 0.235090 -0.697438 -1.232923 0.210259 -0.070950 0.443106 0.051312 -0.255113 -0.129236 -0.505484 0.237392 0.472978 -0.540504 -0.435867 0.464945 0.068062 -0.062546 -0.049600 0.552479 0.263333 0.483900 -0.045447 -0.177284 0.445631 0.498160 -0.819017
H63 -1.288018 0.042218 0.485285 -0.176661 -0.623184 -0.240820 0.426184 -0.609193 -0.100992 -0.003998 0.348087 0.464858 -0.537855 0.352157 -0.884457 0.887944 -0.970678 0.872601 -0.074191 0.363532 0.081062 -0.527003 -0.387558 0.254514 -0.354511 0.037142 0.400041 0.245847 -0.595399 0.105648 0.934451 0.040047 -0.083884 -0.312688 -0.574903 -0.452055 -0.090730 -0.534884 -0.015296 -0.914135 -0.248503 -0.602211 -0.414156 -0.634040 -0.543143 -0.643114 -0.404692 -0.182182 0.019470 -0.092584 0.644193 -0.100930 -0.023136 -0.697446 -0.454373 0.699819 -0.212735 0.095421 -0.107928 0.394576 -0.107606 -1.125300 0.191387 0.507155 -0.634732 0.352635 0.209278 0.325697 0.533703 -0.062765 1.130372 -0.108927 -0.718920 0.155681 0.674583 -0.415984 -0.083527 0.082684 0.001059 -0.318037 0.695449 -0.446981 -0.476834 -0.079679 -0.371581 0.585418 0.250486 -0.325705 0.186906 -0.270468 -0.010306 0.382290 -0.558402 -0.609887 -0.473479 0.451525 -0.211516 0.004870 -0.293049 -0.331780 0.265353 -0.906011 0.099925 -0.342378 -0.709714 -0.442900 0.315238 0.454655 0.282111 0.337877 0.004313 -0.231878 0.651379 -0.208534 -0.600597 0.628702 0.290554 0.413696 -0.011426 -0.279195 0.661483 0.602415 0.640743 0.357071 -0.460691 0.265422 0.684245 -0.688919
H74 -0.152435 -0.073681 0.333308 0.090481 -0.446722 -0.052778 0.715912 -0.905744 0.246697 -0.122979 0.279452 0.626647 -0.151168 0.056197 -0.724117 0.143467 -0.632391 0.137799 0.196234 0.526446 -0.408814 -0.635339 -0.713246 0.417848 -0.154016 0.015035 -0.169141 0.208602 -0.469391 -0.185619 0.703864 -0.148416 0.408880 -0.957207 -0.014574 -0.163127 0.009319 -0.251994 -0.035041 -0.344468 -0.542688 -0.879737 0.274724 -0.013189 0.058784 -0.549419 -0.273998 -0.063147 0.183341 0.012076 0.142129 0.074456 -0.312159 0.022086 -0.515959 0.544887 0.329062 -0.217852 0.011945 0.225085 0.475443 -0.341816 0.667479 0.351180 -0.138713 0.175730 -0.106698 0.314122 0.060012 0.032416 0.619901 0.149119 -0.312941 0.617974 -0.116144 -0.392848 -0.139156 0.071844 0.065176 -0.056589 -0.331131 -0.022631 -0.527876 0.014541 -0.173658 -0.190508 0.300312 -0.452040 -0.320544 -0.084305 -0.210310 0.279254 0.026953 -0.287782 0.148632 0.242291 -0.056035 0.148504 0.110417 -0.164991 -0.066390 -0.689721 -0.136081 -0.344430 -0.625517 -0.019325 -0.094652 0.228608 0.199320 -0.142745 0.310373 -0.574874 -0.190717 0.420106 -0.364307 0.233740 0.051767 0.089740 0.266241 -0.359222 -0.181473 0.002519 0.581604 0.047752 -0.423860 0.276272 0.438226 -0.175263
H152 -0.099519 -0.498948 0.253316 0.324646 -0.743861 -0.071230 0.363897 -0.090136 0.119864 -0.309645 0.431214 0.599709 -0.149385 0.101619 -0.099575 0.252993 -1.298468 0.211660 -0.151329 0.066612 -0.360905 -0.579758 -0.701627 0.052265 0.088653 1.012714 0.247989 0.216557 -0.232792 -0.513068 1.000810 0.481931 0.512244 -0.854591 -0.342383 -0.023445 -0.025003 -0.166492 0.174483 -0.412657 -0.029318 -0.835068 0.169290 -0.462639 0.010200 -0.181958 -0.297445 -0.270946 0.032195 0.145337 -0.222824 0.199035 0.372171 -0.373616 -0.042560 0.074615 0.448676 -0.496759 0.508127 0.445205 0.072460 -0.928206 0.203844 0.072965 -0.462998 -0.392050 0.448078 -0.045419 0.397677 -0.389166 0.865060 -0.011571 -0.781346 0.187177 0.128539 0.093699 -0.120510 -0.075990 -0.149827 -0.320935 0.230981 0.281313 -0.489068 -0.272475 -0.314154 0.033582 0.184088 -0.142043 -0.228849 -0.560422 0.106875 -0.129865 0.536618 -0.385265 0.435676 0.286970 -0.108193 0.121189 0.316219 -0.440991 0.170920 -0.084763 -0.217069 -0.645084 -0.255810 0.022224 -0.372848 0.609241 0.668207 -0.398707 0.439872 -0.403492 -0.569185 0.811124 0.159381 -0.010138 -0.565685 0.144569 -0.252399 -0.052427 -0.338661 -0.314542 0.296971 -0.518749 -0.590397 -0.311213 0.590867 -1.004008
H189 -0.048373 -0.085394 0.678126 1.020515 -0.408577 0.085685 0.511075 -0.914480 0.243314 -0.418770 0.065501 -0.097256 0.455823 -0.191115 -0.437297 0.852610 -0.738599 0.558224 0.651506 0.791591 -0.176427 -0.625679 -0.683624 0.089682 0.482639 -0.292769 -0.429462 0.691035 -0.779472 -0.399342 0.693108 -0.588273 0.777944 -0.150479 0.589098 -0.467465 -0.067355 -0.384329 -0.568679 -0.715224 -0.082983 -0.093417 0.418657 -0.178947 -0.794616 -0.332329 0.114683 0.071606 0.010998 0.186599 0.310085 0.772006 -0.221663 0.171945 -0.096291 0.278351 -0.540323 0.063156 0.143520 0.190134 0.305132 -0.427981 0.567361 0.861301 -0.203955 0.250144 -0.698284 -0.214105 0.226423 0.153437 0.654462 0.551997 -0.619524 -0.025523 0.353191 -1.190557 -0.628767 0.212094 -0.223139 0.795006 -0.087442 -0.167654 0.009198 -0.208560 -0.570340 -0.146653 -0.143206 -0.547842 -0.425590 0.146560 0.200377 -0.393464 0.209034 0.405625 0.134429 0.213629 -0.196587 -0.004059 0.304959 0.315967 -0.363763 -0.890703 0.015339 -0.158430 -0.469852 -0.112671 0.073418 0.230436 0.732677 -0.268471 0.480587 -0.647051 0.018842 0.402485 0.442475 0.826068 0.176660 -0.261563 -0.015309 -0.391796 -0.672822 0.599585 1.059415 -0.213108 -0.125934 0.272844 0.843938 0.118184
H184 -0.052277 -0.176166 0.032898 -0.055223 0.102565 0.687821 1.141445 -1.065708 0.364225 -0.221652 0.460142 0.406636 -0.625569 -0.076770 -0.677197 -0.294741 -0.479172 0.223819 0.627839 0.759346 -0.328282 -0.436449 -0.946994 0.231507 -0.401809 0.020487 0.562043 0.380961 -0.383763 -0.641384 1.213448 -0.071925 0.772187 -0.356638 -0.121965 -0.207312 -0.228360 0.098047 -0.281573 0.165170 -0.299851 -0.484190 0.066787 -0.034236 -0.326510 -0.455452 0.158065 -0.720389 0.175626 0.565956 0.186862 -0.415948 0.161840 0.076219 -0.341677 0.168089 1.058781 -0.279580 0.345049 0.012695 0.603462 -0.497758 0.484398 0.791555 0.260346 -0.799883 0.580790 -0.207569 0.596466 -0.041995 0.248258 -0.629402 -0.413514 0.739956 0.059327 -0.150438 0.533982 0.133574 0.412673 -0.065480 0.459965 0.331465 -0.244665 -0.018379 -0.448998 -0.121576 0.449006 -0.576992 -0.466347 0.304331 0.280177 -0.083109 -0.213371 -0.617684 0.015256 0.285997 0.018122 -0.050433 0.579524 0.437058 0.622869 -0.645441 0.163123 0.132370 0.003958 0.490617 0.175313 -0.383239 0.447984 -0.046946 0.328375 -0.224356 -0.241246 0.605676 -0.024060 0.232435 -0.002211 -0.673213 0.376215 -0.308587 -0.141087 -0.210469 0.911049 -0.353222 -0.490225 -0.000469 -0.000897 -0.653656
H112 0.526931 -0.206022 0.634751 -0.363741 -0.141215 0.249488 0.602986 -1.280661 -0.723848 -0.966139 -0.315357 0.057096 0.358382 0.319267 -0.612478 0.029776 -0.455929 0.287901 0.009119 0.958121 -0.252008 -1.078037 -1.252864 0.383662 -0.351238 0.460274 -0.986026 0.574317 -0.907567 -0.045276 0.513463 -0.339436 1.267394 -0.856117 -0.536111 0.012367 -0.077801 -0.467580 -0.281949 -0.753421 -0.435292 -0.428828 0.135869 -0.056625 -0.270872 0.285669 -0.411565 -0.687287 -0.531252 -0.351831 0.662726 0.590293 -0.384201 0.497013 -0.116212 0.153542 0.020906 -0.508740 0.260712 -0.080927 0.095067 -0.365285 0.311030 0.066534 -0.578995 0.810363 -0.517378 -0.030486 0.500782 0.351664 0.627993 0.372201 -0.639297 0.348559 -0.096152 -0.293364 -0.186045 -0.080860 -0.268433 0.243843 -0.207448 -0.011691 -0.408721 0.024471 0.399814 -0.423230 -0.541006 0.174025 -0.640096 -0.199710 -0.276335 0.000963 -0.492020 -0.563149 0.305401 0.274643 0.136262 -0.256341 0.053425 -0.236190 -0.096192 -1.264846 0.171530 -0.229853 -0.030435 -0.297156 0.097200 0.175438 0.334321 0.394939 0.770674 -0.062441 -0.243280 0.354443 -0.732760 0.832367 0.063524 0.300274 0.215265 0.086763 -0.738538 -0.406643 0.028755 0.244405 -0.623392 0.486144 0.053958 -0.215992
H123 0.237451 0.112741 -0.004645 0.240710 -0.209739 0.033573 0.435734 -0.566970 -0.161167 -0.091229 0.270590 0.892962 0.529911 -0.045558 -0.143042 0.132219 -0.378351 -0.120111 0.027176 0.167659 0.025810 -0.663333 -0.699367 0.082482 -0.178622 0.147631 -0.067877 0.516111 -0.576485 -0.153954 0.456675 0.265398 0.033591 -0.602094 0.024261 -0.186485 0.515327 0.153830 0.279205 -0.160096 -0.206686 -0.799585 0.232674 0.804315 0.056939 -0.704314 0.038492 0.312130 0.085792 0.223731 0.082620 -0.255890 -0.135516 0.346505 -0.375516 0.457965 0.234650 -0.205399 0.095287 -0.182024 0.697549 0.368431 0.309474 -0.105837 -0.077368 0.128177 0.317163 0.179447 0.392821 -0.301055 0.100246 0.167516 -0.374964 0.645785 -0.212964 0.257190 -0.334527 -0.213117 0.333148 -0.241408 -0.193965 -0.289009 -0.647474 0.488715 0.136354 -0.190734 0.134829 -0.568498 -0.178088 0.060766 -0.572125 -0.440409 0.265275 -0.065519 0.423098 0.038825 -0.224015 -0.056231 0.056441 -0.279456 0.004394 -0.815090 -0.653149 0.295447 -0.643553 -0.079282 -0.025101 -0.259428 0.196762 -0.222255 0.099715 -0.391302 -0.321030 0.247048 -0.061282 0.013048 0.177155 -0.251798 -0.097091 -0.480126 0.279151 -0.094231 0.824765 -0.675718 -0.781305 -0.174262 0.666234 -0.124592
P200 0.127803 0.128729 0.840044 0.339982 0.045161 -0.429647 0.056260 -0.643586 0.179446 -0.042961 0.600518 0.554439 0.032563 0.237331 -0.177575 0.096480 -0.013711 0.609093 0.187487 0.357874 -0.133974 -0.373664 -0.547595 -0.371866 -0.257545 0.017319 0.108356 -0.073676 -0.734395 -0.293474 0.739199 -0.091347 0.343599 -0.675391 0.010337 0.385291 -0.158905 -0.245907 -0.176251 -0.575099 -0.397131 -1.213641 0.176839 0.294522 -0.075841 -0.481365 -0.282344 0.265145 0.262310 0.117802 0.021315 -0.633674 -0.181378 0.165436 -0.190991 0.709106 0.365615 0.004676 -0.536214 0.230927 0.185218 -0.082983 0.777729 -0.174541 0.032439 -0.044895 0.101385 0.294474 0.101868 0.048094 0.508073 0.507948 -0.355870 0.167939 -0.073068 -0.405932 -0.276824 0.092545 -0.088708 -0.192886 -0.402582 -0.120015 -0.448995 0.292662 -0.268549 0.518551 0.599457 -0.429159 -0.136125 0.439197 0.409711 -0.103974 -0.014876 -0.074347 0.111469 0.368821 -0.475676 0.260892 -0.205964 -0.042069 0.039893 0.211964 -0.154815 0.110956 -0.079193 -0.150014 0.194158 -0.118126 0.075354 -0.308821 0.187511 0.017746 0.107677 0.627754 -0.180863 0.361308 0.707819 0.253062 0.051839 0.032199 -0.091531 0.038852 -0.060966 0.085770 -0.307102 0.115947 -0.199677 -0.701312
H166 -0.318378 -0.334011 0.406545 0.002102 -1.240763 0.275548 0.055723 -0.145051 -0.263159 -0.377783 0.296024 0.669240 -0.557573 0.062878 -0.372974 -0.003515 -1.047101 0.687435 0.456751 0.345946 -0.241617 -0.176504 -0.662160 0.473529 -0.367040 -0.041985 0.359528 0.215637 -0.655994 -0.088790 0.499843 0.295329 0.478186 -0.807683 0.614157 -0.782792 -0.309003 0.377306 0.219008 0.089616 -0.813193 -0.325436 0.295566 0.319755 -0.061077 -0.399872 0.140274 0.024197 0.640690 0.252929 0.423438 0.433067 -0.226331 0.444648 -0.502242 0.334226 -0.056557 -0.215069 -0.147438 -0.081289 0.113108 -0.316482 0.526472 0.674424 -0.127296 -0.057720 -0.124895 -0.067958 -0.056608 -0.194827 0.842584 -0.669609 -0.620447 0.450850 0.234669 -0.328032 0.044250 0.138556 0.258515 -0.463145 -0.146727 -0.203217 0.055606 -0.304226 -0.786924 -0.210410 0.881782 -0.314987 -0.129865 -0.035503 0.726736 -0.061530 -0.302943 -0.916818 0.367687 -0.214599 0.154531 0.611517 -0.220648 -0.503881 0.021945 -0.509673 -0.111426 -0.786270 -0.210720 0.106024 0.455656 0.347740 -0.072835 0.073376 0.011187 -0.829087 -0.037385 0.849125 -0.624642 0.575685 -0.641423 0.017407 -0.288379 -0.878846 -0.337780 0.445180 0.287023 -0.052408 -0.182775 -0.014066 0.036430 0.325907
P964 -0.036834 -0.159839 0.140837 -0.226540 -0.090991 0.263138 0.735934 -0.519642 0.403649 0.066375 -0.123906 0.461333 -0.013385 0.027013 -0.587141 -0.098744 -0.332512 -0.093853 0.151415 0.085278 -0.739117 -0.741525 -0.404595 0.665156 -0.430599 0.057129 0.155406 -0.085407 -1.032551 -0.186411 0.859101 -0.112827 0.492522 -0.141147 0.061023 -0.300286 -0.464573 -0.199573 -0.005974 -0.543058 -0.302768 -0.869570 -0.032628 0.283508 -0.087198 -0.131625 -0.249579 -0.123006 0.725195 -0.463529 -0.425192 -0.140281 -0.068182 0.367900 0.126200 0.343964 0.453555 -0.333637 -0.226063 -0.157093 -0.036107 -0.196637 0.266432 0.653648 -0.074231 0.114682 0.619453 0.432613 0.285054 0.347516 0.384920 -0.101270 -0.467417 0.312222 -0.058142 0.000118 -0.234247 0.361900 -0.271807 0.041792 -0.155150 0.013256 -0.022828 -0.184939 0.148689 -0.029975 0.239283 -0.159394 0.263890 -0.013414 0.154258 0.101399 -0.390861 0.049914 -0.330819 0.301252 -0.267297 0.688536 -0.191288 0.258403 0.088846 -0.226146 0.092240 0.021056 -0.584095 -0.150105 -0.371359 -0.265355 -0.324547 -0.324957 0.525533 -0.499401 0.032511 0.351793 -0.483870 -0.246322 -0.565955 -0.446566 0.914577 -0.517652 0.348131 -0.300533 0.060122 -0.165767 -0.660576 0.382414 0.521726 -0.569911
H12 0.672108 -0.127499 0.684782 0.067238 0.087370 0.182788 0.661759 -1.228416 -0.118113 -0.469579 -0.011943 0.428096 0.355697 0.020183 -0.447427 0.788207 -0.406788 0.462415 0.693745 1.340815 -0.416553 -0.399286 -0.647070 0.003971 -0.265088 0.268241 -0.629752 0.065169 -1.062833 -0.317607 0.945470 -0.779169 0.313542 -0.482663 0.257106 0.157032 -0.079189 0.014092 -0.614232 -0.096772 -0.039701 -0.672279 -0.114346 -0.057498 0.035168 -0.263938 -0.763366 -0.275551 -0.279699 0.128205 -0.220495 0.226990 -0.087066 -0.161272 -0.002273 0.884665 0.325919 0.061447 0.201072 0.017836 0.814580 -0.243182 0.544469 0.343861 -0.704971 0.555225 0.050591 0.208818 0.385758 0.229383 0.590723 0.788641 -0.078224 0.421148 0.046826 0.017919 -0.263100 0.072385 -0.113948 0.032722 -0.515295 0.601947 -0.587756 0.371428 -0.129385 0.144783 0.272639 -0.645387 -0.860228 -0.448347 -0.499895 0.014594 -0.415405 0.229799 0.023622 0.286753 -0.482432 -0.551252 -0.020422 0.457990 0.340564 -0.421481 -0.052057 0.611710 0.068515 0.391630 0.171297 -0.452653 -0.240207 -0.331353 0.547026 -0.422311 -0.049406 1.046092 -0.216090 1.244279 0.716762 -0.996343 0.236761 0.638895 -0.214297 -0.453542 0.431446 0.283423 -0.382097 0.506198 0.122942 0.233271
H14 0.190230 0.737324 0.670809 0.203877 0.049600 -0.399924 1.215750 -1.182727 0.020466 -0.466590 0.209789 0.404739 0.693392 0.563927 -0.690930 -0.088614 -0.947426 -0.298535 0.713918 0.560770 -0.367010 -0.993964 -0.761416 0.058422 -0.186926 0.601489 -0.395460 0.643187 -0.329051 -0.357879 0.567922 -0.532216 0.248785 -0.529004 -0.574604 -0.385128 -0.127468 -0.119152 -0.268289 0.110132 -0.079373 -0.814902 0.647565 0.131914 -0.456600 -0.666337 -0.306281 -0.370037 -0.255591 -0.222286 0.026140 -0.157463 -0.723503 -0.073382 -0.388934 0.388760 0.115196 -0.100074 0.352790 0.260883 0.745217 -0.097073 -0.195351 -0.361719 -0.372121 0.590159 -1.008709 -0.012865 0.444411 0.297617 0.657251 0.016378 -0.507247 0.535866 0.250919 -0.732360 -0.071404 -0.777694 -0.135103 -0.180663 -0.714639 -0.006393 -0.201472 0.372023 -0.895512 -0.261618 -0.036771 -0.279792 -0.029029 -0.099469 0.090044 -0.039424 0.413313 0.041226 0.535589 0.553336 -0.496284 -0.489817 -0.284115 0.393194 0.006391 -0.457560 -0.544256 -0.183445 -0.544281 0.064553 0.010684 0.433339 0.547940 -0.194683 0.192825 0.091532 -0.334935 0.222458 -0.640349 0.731273 0.965067 0.245113 0.416309 0.838491 -0.560378 -0.326944 0.137895 -0.319566 0.315749 -0.035126 0.280093 -0.197070
H21 -0.147364 -0.071065 0.319827 0.089914 -0.431893 -0.102273 0.637162 -0.840635 0.189422 -0.192314 0.247460 0.637547 -0.116806 0.063969 -0.656955 0.243464 -0.730322 0.194465 0.178258 0.518841 -0.464775 -0.614346 -0.669312 0.420996 -0.177072 0.028530 -0.090469 0.205627 -0.503053 -0.213054 0.725278 -0.112893 0.336221 -0.843120 -0.000507 -0.213908 -0.062748 -0.204351 -0.006007 -0.362868 -0.488652 -0.861182 0.248949 -0.017462 0.020845 -0.448612 -0.349909 -0.020878 0.169651 0.021360 0.053735 -0.033663 -0.254941 0.084848 -0.454499 0.509862 0.280388 -0.158125 -0.052517 0.208635 0.443008 -0.393945 0.595364 0.323133 -0.279243 0.067598 -0.111020 0.235080 0.142341 0.141595 0.734299 0.116263 -0.449535 0.595636 -0.020223 -0.394020 -0.102915 0.081355 0.028709 -0.061923 -0.287174 -0.075810 -0.476223 0.077931 -0.226700 -0.073683 0.332683 -0.422488 -0.220619 -0.031534 -0.129009 0.291135 -0.007271 -0.220118 0.244787 0.249556 -0.105514 0.250305 0.121577 -0.094760 -0.028207 -0.621524 -0.133365 -0.344747 -0.534362 -0.058583 -0.049783 0.187181 0.217622 -0.075004 0.360089 -0.431977 -0.170594 0.469080 -0.268279 0.288164 0.047386 0.023643 0.225820 -0.266524 -0.204731 -0.013049 0.563280 -0.043226 -0.496046 0.274390 0.409512 -0.294931
H220 -0.323903 -0.375745 0.333903 0.229629 -0.638337 0.632591 0.725560 -0.903580 0.617929 0.196174 -0.563479 0.056937 -0.631446 -0.310500 -0.803204 0.636675 -0.637311 0.011659 0.618860 0.473110 -0.489327 -0.362323 -0.611693 1.104823 -0.475854 -0.055193 0.008043 0.198452 -0.519617 -0.026479 1.084241 0.226558 0.202016 -0.498236 0.105590 -0.545201 -0.506343 -0.283148 0.001180 -0.026179 -0.536799 -0.056875 0.430122 -0.718163 -0.284758 0.313337 -0.604296 -0.792210 -0.149453 -0.467883 0.036602 0.418045 0.101097 -0.436549 -0.260984 0.259414 0.406241 0.033920 0.013210 -0.047104 0.037576 -0.958611 -0.462620 0.761431 -0.683708 0.189924 -0.441240 0.042699 0.010345 0.300400 0.881453 -0.393315 -0.345989 0.480200 -0.231284 -0.516144 0.274675 0.192222 -0.451571 0.274356 0.004410 0.060479 -0.321367 0.214041 -0.033590 -0.079913 0.529270 0.033856 -0.256020 -0.642254 -0.508271 1.118123 -0.426838 -0.029003 -0.003444 0.139561 0.258443 0.131569 0.722112 0.246137 -0.657979 -0.260009 0.572886 -0.749987 -0.348642 0.163713 0.085167 0.104087 0.011616 -0.181798 0.290521 -0.300261 0.188853 0.365879 -0.490376 0.446741 -0.256829 -0.205103 0.509803 -0.428558 0.147661 0.430732 1.305240 0.303079 -0.158822 0.513439 0.482377 -0.211515
