1622 128
H79 0.115675 0.119972 0.053696 0.210158 -0.063719 -0.093984 -0.200001 0.271162 -0.062951 -0.403034 0.206934 0.176560 -0.233551 -0.006529 0.097115 0.029845 0.170580 0.433838 -0.017702 0.424905 -0.082282 0.166854 0.508757 0.784349 0.419702 -0.190989 -0.230930 -0.371130 0.644794 -0.123289 -0.345337 0.146865 -0.276588 -0.215841 -0.036367 -0.019469 0.125386 0.121832 -0.148281 -0.198147 0.093625 -0.366141 0.402769 0.250211 -0.159027 0.176534 -0.146643 0.332074 -0.164652 -0.106570 -0.059137 0.406259 0.110638 0.448957 0.215966 0.362402 -0.625531 -0.260466 -0.113615 -0.517533 0.111349 0.119209 -0.062282 -0.556723 -0.241944 -0.082520 -0.570801 -0.161127 0.396830 -0.033681 0.110829 0.085078 -0.242374 0.145683 -0.113228 0.216026 0.458539 -0.148611 0.476074 0.179821 -0.011182 0.128062 -0.178175 0.255891 -0.430759 -0.295653 -0.070883 0.101555 -0.313443 -0.276655 0.014923 -0.026276 -0.218911 -0.152083 0.408238 -0.259404 -0.271345 -0.210615 -0.260574 -0.152221 -0.328258 -0.777363 -0.202304 -0.056795 -0.087982 -0.118817 -0.161671 0.096114 0.001156 -0.082085 0.341026 -0.142633 -0.245548 -0.113521 -0.084491 -0.219951 0.379229 -0.081230 0.117264 0.034502 -0.218633 -0.306689 -0.302617 0.111749 -0.123742 0.237525 -0.376254 0.067017
H95 0.132871 0.021895 -0.305703 0.305417 -0.013922 0.320013 -0.221905 0.110293 0.109823 -0.618884 0.473258 0.356658 -0.033842 0.138180 -0.246034 0.117960 0.539886 0.674029 0.060883 0.473680 -0.051377 0.300536 0.273186 0.126557 -0.115970 -0.128048 -0.410138 -0.096204 0.517866 0.137246 0.016785 0.102212 -0.235739 -0.292886 -0.159308 -0.015568 0.297669 0.020032 0.057261 -0.273405 -0.058666 0.151732 0.436143 -0.460992 -0.254367 0.274976 0.278800 0.284534 -0.283798 -0.039611 0.519736 0.496969 0.073493 0.145933 0.559766 -0.042583 -0.084869 0.377602 -0.603880 0.099087 -0.028642 0.207598 0.077537 0.293397 -0.601020 -0.133393 -0.311137 -0.468157 0.475668 -0.019521 0.346745 -0.064438 -0.593783 0.740362 0.260938 -0.458750 0.124841 -0.063491 0.437708 -0.018039 -0.074641 0.499005 -0.080942 0.329185 0.194537 0.045846 -0.100135 -0.048832 0.039701 0.012170 -0.022246 0.127865 -0.165290 0.043929 0.223912 0.488306 -0.044384 -0.189716 -0.552232 -0.590840 0.164326 -0.401332 0.277731 0.076343 0.293322 -0.102923 0.154266 0.310721 -0.047353 -0.337902 0.210981 0.092451 0.041442 -0.613477 -0.234210 -0.142886 0.376895 -0.016023 -0.036520 -0.109897 0.047465 0.329895 -0.042431 0.082956 0.315793 0.250543 -0.105374 0.139802
H209 0.404707 0.114910 0.435984 0.736828 0.231870 -0.001642 -0.191357 0.515810 -0.336207 0.275402 0.469250 0.066728 -0.561267 -0.049199 -0.342297 0.178852 0.466907 0.472104 0.158585 0.542509 0.358274 0.494241 0.569634 -0.300569 0.221690 -0.216546 -0.443778 -0.131814 0.616069 0.281377 0.536376 0.556474 -0.540366 -0.314435 -0.089065 0.299090 0.496466 -0.175369 -0.329710 -0.273516 0.063041 0.481564 0.283242 -0.147728 -0.150631 0.661938 -0.027520 0.227532 -0.310296 -0.312698 -0.183167 0.277514 0.999941 0.106393 0.135747 0.538759 -0.587080 -0.288770 0.213868 -0.019437 0.379199 -0.351836 0.157443 -0.032065 -0.430869 0.745038 -0.005088 0.001879 0.310620 -0.112931 0.171998 0.113978 0.028635 0.642090 0.096583 -0.564551 0.076105 -0.161295 0.106397 0.280485 -0.159096 0.053056 -0.386444 -0.074330 0.169800 -0.133707 0.097810 -0.032422 -0.623754 -0.760246 0.157942 -0.075645 -0.069977 -0.043144 -0.326404 0.458775 -0.739608 0.056234 -0.339376 0.170342 -0.195279 -0.055113 0.135079 -0.252831 -0.045842 -0.107537 0.629107 0.066613 -0.076063 0.345232 0.080967 0.095506 0.056388 0.039040 0.150331 0.245884 0.524943 -0.045297 -0.388701 0.060907 0.335014 -0.437787 0.470660 -0.095136 -0.003090 0.358133 -0.106122 -0.054022
H191 0.349244 0.015931 -0.145944 0.700369 -0.340734 -0.019534 -0.385398 0.426713 -0.123411 -0.389735 0.115904 0.326466 -0.105981 0.203269 -0.533144 -0.125082 0.632791 0.485230 0.638380 0.134881 -0.047276 -0.103953 0.520586 0.279274 -0.369916 -0.263884 0.401737 -0.089332 0.548035 0.277323 -0.361052 0.370921 0.178432 -0.265657 0.379446 -0.086780 -0.022924 -0.280115 -0.142947 -0.675230 -0.183286 -0.088473 0.314435 -0.329163 0.291314 0.801960 0.497792 0.540097 -0.316178 -0.578485 -0.402102 0.393507 0.290973 -0.418000 -0.063098 0.404888 -0.234900 -0.080389 -0.207640 -0.495261 -0.230828 -0.237271 -0.017112 -0.092448 -0.033566 0.559492 -0.088360 -0.268810 0.406377 -0.377484 0.100322 0.302331 0.072735 0.151818 0.160438 -0.135959 0.003812 0.164331 0.255625 0.378936 -0.239798 0.034311 -0.223171 0.175381 -0.296352 0.424513 0.467690 0.087401 0.639123 -0.678964 -0.216335 0.059046 -0.119794 -0.131137 0.093313 0.622508 -0.020933 0.407111 0.464069 0.143235 0.051442 -0.565453 0.143197 -0.100843 0.391588 -0.538020 0.273574 0.143311 0.471197 -0.223481 0.070453 0.007776 0.198429 -0.175406 -0.028747 0.088119 -0.155555 -0.007905 0.198911 -0.067112 0.376176 -0.174266 0.364175 0.014555 -0.246076 0.182942 0.142124 0.000621
H149 0.868391 0.029431 -0.180024 -0.105778 -0.628158 0.228319 -0.298083 -0.053636 0.113368 0.106259 0.419460 0.062406 0.260977 -0.160735 0.429458 -0.094869 0.672592 0.432225 0.169132 0.176386 -0.270131 0.164990 0.214967 0.156384 0.209173 -0.462875 -0.393601 -0.226843 0.355132 0.406548 0.113887 0.486189 -0.409631 -0.929244 0.113600 0.137979 0.030977 -0.399539 0.194859 -0.305086 -0.583173 0.164171 0.196271 0.067914 -0.180417 0.567931 0.129727 0.725441 -0.026901 -0.137931 -0.341685 0.561461 0.697913 0.369132 0.153007 0.490357 -0.133770 0.027773 -0.486133 -0.011060 0.107707 -0.306722 0.325755 0.294407 -0.408763 0.393313 -0.406448 -0.523205 0.289100 0.528866 0.429522 -0.175807 -0.149603 0.367587 -0.076704 -0.389745 -0.016555 0.219459 -0.056921 -0.000343 -0.020229 -0.107288 -0.601749 0.334415 -0.076608 0.462000 0.091296 -0.267371 -0.546049 -0.173545 -0.022049 0.108658 -0.168374 0.353784 -0.223879 -0.073358 -0.237611 0.353407 0.012542 0.004781 0.240012 -0.113498 0.004900 -0.195195 -0.278142 -0.631257 -0.228725 -0.279899 0.526976 -0.124993 0.355208 0.051785 -0.442180 -0.250628 0.531060 -0.093922 0.341596 0.329554 0.262431 0.420780 -0.255833 -0.114654 0.568216 -0.312338 -0.205176 0.306394 0.366055 -0.030297
H87 0.589106 -0.618996 0.206486 0.417641 0.039773 0.385748 -0.040978 0.313096 -0.052738 -0.577213 -0.231360 -0.058626 -0.494811 -0.069702 0.190032 -0.118997 0.576304 0.394200 0.334327 0.558773 -0.448879 0.449505 0.215884 0.651124 0.191245 -0.428899 -0.398730 -0.480391 0.230381 -0.262246 -0.271143 0.361339 -0.404808 -0.185602 0.323200 -0.168515 -0.074172 -0.408890 -0.244826 -0.054327 0.035743 -0.157730 0.059830 -0.201595 -0.066637 0.001793 -0.221354 0.415054 -0.339192 -0.197095 -0.024064 0.470659 0.354250 0.067282 -0.241512 0.478427 -0.346248 -0.728217 0.000546 -0.664032 0.357342 0.014977 -0.056091 -0.011803 -0.277082 0.041751 -0.220918 -0.005184 0.011693 0.146176 0.284833 -0.069608 -0.049043 0.121287 -0.135307 -0.084481 0.379049 0.114780 0.343796 0.512333 -0.241225 0.017329 -0.204895 0.172790 -0.189976 -0.071611 0.433437 0.325558 -0.307313 -0.287201 -0.061318 0.372058 -0.713503 -0.138190 0.354080 -0.028294 -0.275086 0.013215 -0.055341 -0.494155 -0.173861 -0.697846 -0.107377 0.004009 0.416477 0.051136 -0.476107 -0.132437 0.123692 -0.191636 0.603392 -0.229987 -0.342412 0.200589 0.567192 0.231020 0.516922 -0.272635 -0.095426 -0.325763 0.017541 -0.244872 -0.226031 0.276339 0.220575 0.619158 0.037013 0.374085
H89 0.484175 0.147243 0.232511 0.394847 -0.101280 -0.343328 -0.342775 0.121531 -0.542978 -0.404885 0.036355 0.043370 -0.013823 0.057787 0.246825 0.154833 0.247587 0.245125 0.218353 0.698918 -0.082726 0.067738 0.264691 0.281572 0.254869 0.086009 -0.155106 0.031056 0.407808 -0.044857 -0.120933 0.306914 0.018843 -0.419884 0.112546 -0.545691 0.288975 0.311522 0.076757 -0.443539 0.169970 -0.228843 0.423320 0.514411 -0.552150 0.579114 0.123600 0.462478 0.051302 -0.270400 0.113564 0.614380 0.341384 0.416612 0.093979 0.229819 -0.726228 -0.220532 -0.307846 -0.866466 0.529263 0.149653 -0.306286 -0.060351 -0.179851 -0.146524 -0.655573 0.060387 0.690308 -0.337725 -0.071415 -0.190855 -0.211857 0.136607 0.059630 0.435454 0.239085 -0.283636 0.699380 0.432240 0.270237 -0.015759 -0.478996 0.312511 -0.140427 -0.306516 -0.207667 0.008056 -0.610063 -0.506895 -0.322002 0.146380 -0.028307 -0.116151 0.304484 -0.287821 -0.117569 -0.308411 0.080341 0.072922 0.048668 -0.385807 -0.349667 0.088284 -0.171193 0.061370 0.266117 -0.228090 0.239010 0.190941 0.185151 0.140246 0.233099 -0.242310 -0.129841 -0.221233 0.205825 0.067793 0.104257 0.556314 -0.044619 0.056133 0.337227 -0.276904 -0.246354 0.202247 0.240322 0.403027
H106 0.531047 0.307738 0.393728 0.534009 -0.276750 0.030005 -0.666292 0.052326 0.058946 -0.269624 0.102910 0.301382 0.072442 -0.307133 -0.363281 0.606397 0.350662 -0.020419 0.594563 0.323223 -0.441964 0.638280 0.174787 0.182848 0.606854 0.023145 -0.275612 0.228490 0.578309 -0.099866 -0.269642 0.427388 -0.245206 -0.643528 0.234780 -0.161339 -0.090908 -0.251600 -0.282565 -0.526666 -0.557479 0.006597 0.432372 -0.029290 -0.067691 0.888219 -0.203546 -0.204663 -0.597858 0.170511 -0.355972 0.264541 -0.084676 -0.283224 -0.056411 0.520801 -1.094773 0.286133 -0.248021 -0.272045 0.459839 -0.288933 -0.540884 0.325946 -0.699205 0.249433 -0.279404 -0.836159 0.675281 -0.215123 0.667868 0.101630 -0.621910 0.890786 0.572980 -0.653590 0.067496 0.167279 -0.108255 0.094868 0.515226 -0.164049 -0.272457 0.081472 -0.465606 0.032057 0.401982 -0.155865 -0.008125 -0.226437 0.006039 0.602261 -0.134196 -0.049484 0.547540 0.130861 -0.452663 -0.433395 0.125718 0.168470 -0.371850 -0.131172 0.324887 -0.490651 0.612802 -0.060802 -0.081891 0.381004 -0.098411 0.216960 0.262588 0.379732 0.068162 0.309333 0.207525 0.370412 0.177925 -0.129091 0.193731 0.363270 0.188366 -0.455213 0.102005 -0.224285 0.365824 0.235018 0.319643 -0.214662
H20 0.237665 -0.278217 -0.334417 0.615463 0.168553 -0.186655 0.168294 -0.112416 -0.039432 -0.377071 0.129632 -0.182120 -0.054392 0.261962 0.022413 0.523016 -0.038031 0.673401 0.330310 0.661798 -0.559626 -0.290343 0.496809 -0.182540 0.126762 -0.454300 -0.198342 -0.211166 1.018413 0.178207 -0.104006 0.698695 0.160733 -0.498988 -0.554502 -0.743198 -0.154574 -0.426572 -0.616034 -0.467460 -0.660139 -0.186300 -0.005600 -0.210902 -0.081096 0.095688 0.140902 0.619797 -0.827840 -0.072049 0.209486 0.838899 0.392300 0.242646 -0.129627 0.801856 -0.438122 -0.379872 -0.180821 -0.168479 0.225924 -0.181076 0.225524 0.252746 -0.712168 -0.195022 -0.081278 -0.129700 0.545436 0.248322 -0.177343 0.306734 -0.439809 0.921671 0.573110 -0.721278 0.221860 0.512557 0.231304 0.375480 0.410491 0.061034 -0.987314 -0.140589 -0.116021 -0.329725 0.153000 -0.072630 0.143201 -0.305162 0.310311 -0.007434 -0.984198 0.192129 0.305712 0.416880 -0.601998 -0.032131 -0.041971 0.386904 -0.458040 -0.164012 0.134141 0.216299 -0.386616 0.127414 -0.268576 0.077863 0.377360 0.153917 0.172877 0.483809 0.256742 -0.454236 0.362197 -0.110459 -0.095835 0.144315 0.259321 -0.129197 0.184869 0.228925 0.573904 0.320755 -0.178209 0.353365 0.304362 -0.163238
H1 0.172428 0.080272 -0.211653 0.009539 -0.503798 -0.435662 -0.138303 0.506694 -0.401491 0.380947 0.420617 0.087262 -0.492696 0.063820 0.159510 -0.197908 0.051920 0.186925 0.257398 0.639318 -0.648713 0.090350 0.053946 0.420339 0.173247 -0.290314 0.337745 -0.332483 0.782877 0.588798 0.141873 0.736919 -0.763682 -0.998557 -0.088127 -0.086564 0.406755 0.226762 -0.214050 -0.736163 -0.239569 0.017533 0.007596 -0.070369 0.350998 0.555519 0.021897 0.932233 -0.324914 0.139354 -0.009368 0.238560 0.306559 0.119306 -0.151806 0.448202 -0.057701 0.497299 -0.411684 -0.591610 0.253455 -0.053350 -0.124810 0.196864 -0.239020 0.056007 -0.206506 -0.018652 0.527591 -0.241732 -0.284937 0.229715 0.251866 0.592916 0.083628 -0.253331 -0.127266 0.531045 0.611259 -0.051217 -0.082781 -0.467707 -0.769926 0.443768 -0.342850 0.041392 0.552849 0.311105 -0.189725 -0.188051 -0.336150 0.570033 -0.397072 0.138855 0.286981 0.265610 -0.375715 -0.182737 -0.391695 -0.420401 -0.147909 -0.180306 0.574410 -0.348187 -0.151441 0.127369 0.716094 -0.240800 0.359684 -0.320088 -0.057253 0.204543 0.285882 -0.094311 0.101425 0.009702 0.620471 0.082006 -0.637365 -0.654694 0.510075 0.256069 -0.103831 -0.117340 -0.025553 0.596824 0.055234 -0.157717
H165 0.515982 -0.225242 -0.029727 0.325635 -0.923111 0.460568 -0.261245 0.432846 -0.345896 -0.288873 0.168401 0.324593 -0.241310 0.400908 0.102616 -0.235904 -0.013873 0.910994 0.651896 0.558988 -0.153547 0.208127 0.216917 0.297024 -0.265991 -0.212798 0.304310 -0.024132 0.252269 0.474157 -0.047019 0.630447 -0.077775 -0.967220 0.200724 -0.453471 0.018046 0.304525 0.055670 -0.021449 -0.316478 0.219117 0.273577 0.374060 -0.431360 0.204951 0.631922 0.637534 -0.232331 0.095269 0.005075 0.882468 0.073463 0.446068 -0.258239 0.387955 -0.584298 -0.263784 -0.434499 -0.438209 0.141498 -0.250134 0.264583 0.636508 -0.148691 0.315824 -0.358255 -0.890017 0.019880 -0.295703 -0.059558 0.305708 -0.555823 0.363391 0.491879 -0.587642 -0.047167 0.635853 0.095851 -0.088361 -0.185576 0.013162 -0.070243 -0.144175 -0.291660 0.079680 0.709137 -0.165161 -0.386064 0.095951 0.403607 -0.147317 -0.432581 -0.215293 0.142191 0.356486 -0.361836 -0.364233 -0.105635 -0.165930 -0.134093 -0.185139 -0.430909 -0.704391 0.455349 0.085708 0.397551 -0.251817 0.079675 0.056580 0.274002 0.014461 -0.353843 0.260198 -0.307175 0.248273 -0.370048 -0.252778 0.076456 -0.398848 -0.333443 -0.105789 0.100983 -0.066713 0.249902 0.052517 -0.047146 0.522405
H111 0.768023 0.198453 -0.296487 -0.245523 -0.421726 0.764780 0.015952 -0.126655 -0.648035 -0.424963 0.301266 0.315311 -0.365030 -0.169098 -0.169368 -0.527080 0.843423 0.091299 0.275269 0.283501 -0.026812 0.246744 -0.173681 0.235035 0.327541 -0.583187 -0.380221 -0.111566 0.411309 0.309865 -0.149777 0.390594 0.120054 -0.730164 0.182521 0.219479 0.350162 0.175859 -0.301158 -0.424599 -0.747494 0.236309 0.350459 0.063131 0.123535 0.657233 0.758179 0.472931 0.048759 -0.349637 -0.318434 0.368746 0.076367 0.036477 -0.227424 0.652370 -0.939081 -0.461366 -0.183318 -0.784216 0.440866 0.261924 -0.199953 -0.392840 -0.564239 0.593307 0.023914 -0.104069 0.563173 0.288236 0.481816 -0.426490 -0.127397 0.882643 0.360948 -0.573667 0.815781 -0.465467 0.079393 -0.306033 0.115141 0.101694 -0.106039 -0.312408 0.334703 0.121059 0.097521 -0.497195 -0.282875 -0.130101 -0.180348 0.523947 -0.069289 -0.179307 0.270666 -0.079158 -0.093182 0.019515 -0.498009 -0.456730 -0.075427 -0.291555 0.142230 -0.501686 0.635916 -0.191651 0.473781 0.499645 0.617837 0.481438 0.190697 0.185506 -0.260374 -0.199374 -0.153418 0.527240 0.222342 0.399953 -0.140535 0.198973 0.492884 -0.352520 -0.493216 -0.296783 0.029770 0.483630 0.001387 0.054581
H25 0.450137 -0.160085 0.759168 0.148522 -0.209494 -0.243956 -0.491597 -0.013865 -0.265564 -0.420696 0.517587 0.080995 -0.078414 0.284705 -0.161715 0.101382 0.971100 0.935916 0.668688 0.616767 -0.500082 0.318808 0.187534 -0.362013 0.015920 -0.090078 -0.029245 -0.555838 0.093354 0.089633 0.066284 0.685724 0.008163 -0.798318 0.268577 0.133722 0.090262 -0.115076 -0.247428 -0.281239 -0.558222 -0.519705 0.506280 0.206992 -0.014120 0.365945 0.632485 0.373471 -0.212751 -0.054317 0.556620 0.171304 0.096432 0.054484 -0.019448 0.815093 0.033349 -0.553737 -0.575471 -0.228914 0.112922 0.095447 0.081418 -0.140661 -0.325350 -0.031250 -0.548853 0.323069 0.193059 -0.091652 0.057966 -0.101487 -0.484515 0.093831 0.255312 -0.083477 0.283737 0.059904 -0.041658 0.037740 0.065010 -0.214475 -0.727685 0.247847 -0.318914 0.368199 0.569911 -0.121719 -0.192566 0.157071 0.421314 0.352865 -0.251167 -0.306810 0.423678 0.058940 -0.573407 -0.004449 -0.405135 -0.051724 0.208078 0.273710 0.302123 0.513762 -0.130961 -0.066078 0.248456 -0.108244 0.184453 0.201373 0.203970 0.401812 0.486274 0.462412 -0.182693 0.163441 0.720781 0.078041 0.278965 0.428935 0.036550 0.217921 0.014330 0.021824 0.125779 -0.070745 -0.575291 -0.217983
H211 -0.215632 -0.272777 0.102442 0.280299 -0.167078 0.034696 -0.023735 0.195853 -0.054854 -0.467487 0.185105 0.133732 0.001548 0.354355 -0.582933 0.472081 0.490327 0.617100 -0.001259 0.349180 -0.116969 0.407921 0.311193 0.307914 0.088362 0.172389 -0.550380 0.325808 0.707271 0.201327 -0.032523 0.137139 -0.472218 -0.371392 -0.093260 -0.048797 0.325794 -0.349866 0.151276 -0.115884 -0.110093 0.174094 0.263194 -0.453386 -0.340661 0.131285 0.675033 0.346744 -0.725989 -0.609749 0.752446 0.570202 0.089000 0.033719 0.292219 -0.170865 -0.095227 0.175631 -0.617672 0.072669 -0.038906 -0.050251 -0.144267 0.539203 -0.987447 -0.040144 -0.427203 -0.150630 0.037073 -0.201762 0.366629 0.104659 -0.546138 0.690341 0.291243 -0.886955 0.109887 -0.063413 0.189197 0.551615 -0.382603 0.354113 -0.398415 0.285931 0.190253 -0.045540 -0.105444 0.024592 -0.034316 -0.125713 -0.463488 0.308638 -0.037090 -0.124902 0.347992 0.403112 -0.020851 -0.113087 -0.312232 -0.711338 -0.099798 -0.433847 0.082953 -0.096278 0.063071 -0.146473 -0.133386 0.320990 0.113015 0.268572 0.222603 0.144983 -0.203680 -0.559966 -0.226073 -0.024402 0.569701 0.121320 0.049964 0.097086 -0.343653 0.232721 0.400868 -0.122329 0.427243 0.049025 0.228273 0.090547
H200 0.659167 -0.342569 -0.477709 0.199128 -0.550169 -0.048258 -0.597377 0.121588 0.081982 -0.415883 -0.023925 0.244604 -0.335982 0.705306 0.097954 0.413661 0.440133 0.567453 0.812746 -0.029519 -0.602502 0.085581 0.624965 0.131326 -0.185622 0.032835 0.163247 -0.568040 0.401845 0.412924 -0.554194 0.456692 -0.664771 -1.061060 -0.092271 0.213935 0.060586 -0.002107 0.120031 -0.401850 -0.545117 0.487170 0.289168 -0.077188 0.232815 0.249155 -0.114079 0.678680 0.028298 -0.413143 0.327029 0.280312 -0.254611 -0.292747 0.302156 0.534672 -0.403516 -0.240417 -0.051702 -0.114107 0.247252 0.032640 -0.586828 0.165825 -0.699800 0.098357 -0.211949 -0.716821 0.189414 0.631983 0.757228 0.001054 0.143392 0.728305 0.425426 0.379383 0.533604 0.568001 0.342454 -0.053765 -0.177091 0.107863 -0.319739 0.121434 -0.054757 0.443800 -0.179696 0.225171 -0.591936 -0.686529 -0.187647 0.893265 -0.671844 -0.346583 0.436854 0.467935 -0.378996 -0.343894 -0.248116 -0.385935 0.330215 -0.396925 -0.216071 -0.038018 0.669471 0.049450 0.145984 -0.299931 0.378589 0.581764 0.004294 0.106236 0.161923 -0.331782 -0.393785 0.388937 -0.079404 0.457086 0.308553 0.201192 0.398473 -0.288122 -0.256184 0.056977 -0.444094 0.652891 -0.467051 0.119108
H126 0.995590 -0.200173 0.209551 0.616053 0.166054 -0.180355 -0.301503 0.314308 -0.160843 -0.569399 -0.249942 0.027042 -0.408376 -0.281470 0.046117 -0.295320 0.513802 -0.011438 0.297143 0.276023 -0.424550 0.090910 0.303440 0.322279 -0.253829 -0.331410 -0.575853 -0.462962 0.250633 0.354438 -0.135435 0.460656 -0.340197 -0.340960 -0.063907 -0.059238 0.249055 -0.128835 -0.072681 -0.106870 -0.194600 0.137601 0.404072 -0.087072 -0.018309 0.044134 -0.349677 0.475900 -0.314939 -0.389253 0.072335 0.667016 0.240330 0.401440 -0.051907 0.643180 -0.761398 -0.278457 0.048676 -0.513581 -0.206302 -0.003132 -0.312502 -0.643212 -0.235295 0.033372 -0.433174 -0.058401 -0.016469 0.296425 0.152201 0.249949 -0.169087 0.368171 -0.296015 -0.148985 0.107951 -0.112878 0.327685 0.600681 -0.533027 -0.294810 -0.509212 0.155668 -0.414951 -0.074730 0.130140 0.234711 -0.103131 0.134313 0.048336 0.276847 -0.695236 0.111144 0.060427 -0.001454 -0.493476 -0.147570 0.121930 -0.500533 -0.281548 -0.858143 -0.376957 -0.284797 0.170465 -0.105125 -0.166098 -0.119127 -0.267097 -0.242604 0.470863 0.043283 -0.021236 -0.007363 0.080377 0.243944 0.624185 -0.343876 0.106836 -0.442773 -0.309188 -0.227398 -0.601347 0.233007 0.116372 -0.193935 -0.192124 0.003999
H22 0.338621 -0.167538 0.432469 0.202896 -0.176802 -0.014054 -0.429850 0.131722 -0.368448 -0.391888 0.536468 0.171477 -0.122622 0.224479 -0.031897 0.126877 1.027450 0.580739 0.605959 0.368109 -0.424963 0.287961 0.178449 -0.513814 0.551601 0.142981 0.226205 -0.308966 0.320076 -0.011195 -0.054603 0.595151 0.186168 -0.521471 0.353243 0.443571 0.085658 0.054047 -0.443729 -0.569154 -0.550692 -0.279199 0.220578 0.159981 -0.250555 -0.054415 0.446402 0.598861 -0.079486 -0.373880 0.389975 -0.048415 0.263111 -0.009866 0.029145 0.475869 -0.180580 -0.259645 -0.565267 -0.001564 -0.073413 0.085389 0.195242 -0.220267 -0.206242 0.027510 -0.469900 0.425060 0.405499 0.138566 0.268650 0.442289 -0.142365 0.147351 0.055475 -0.382825 0.140427 0.201093 0.157916 0.199261 0.053317 0.160722 -0.737940 0.110024 -0.439670 0.433817 0.269596 0.044550 -0.216380 0.069415 0.593358 0.736739 -0.038902 -0.096161 0.342023 0.114676 -0.728246 0.116277 -0.568496 0.310090 -0.122933 0.146123 0.284082 0.286617 0.011712 -0.303004 0.305345 0.207381 0.596925 0.124299 0.384260 0.378160 0.651586 0.400504 0.158586 0.422218 0.894352 0.201353 0.212268 0.371887 0.166255 0.141639 -0.067472 0.049524 0.116895 0.386635 -0.675547 -0.390543
H71 0.233071 -0.107479 -0.381181 0.300898 -0.412571 0.229820 -0.004519 -0.514245 0.118038 -0.550764 0.027170 0.074735 -0.225550 0.106302 -0.630286 -0.303389 0.300179 0.349944 0.801984 0.423630 -1.068624 -0.345509 0.310762 0.518717 0.011600 -0.535762 0.212719 -0.085531 0.475698 0.205391 -0.141486 0.652873 0.259987 -0.660859 0.422620 -0.936120 -0.473090 0.357494 -0.485917 -0.697244 -0.757350 -0.200508 0.589074 0.126365 -0.684700 0.078020 0.464791 0.912471 -0.137503 -1.246577 -0.114596 1.076972 0.419364 -0.253838 -0.002140 0.327581 -0.545244 -0.585425 -0.608189 -0.573713 0.126621 0.110596 -0.473744 0.321762 -0.196949 -0.089513 -0.679072 -0.191183 0.038230 0.856387 0.052846 -0.052622 -0.792142 0.526850 0.145553 -0.416345 0.550058 0.151979 0.154161 0.629790 -0.169358 -0.155775 -0.743668 0.205995 -0.404053 0.329558 0.170371 -0.033165 0.048810 0.204592 -0.003762 0.882944 -0.023355 0.177663 0.757474 -0.398777 -0.045694 0.146190 0.380965 -0.121365 -0.526462 -0.603536 -0.148319 -0.836764 -0.123858 -0.487175 -0.415284 0.317298 0.851391 -0.281668 0.412533 0.879777 0.265598 0.041331 0.172536 -0.113243 0.150202 -0.130358 1.137917 -0.077903 -0.051573 0.243404 -0.286569 0.091429 0.191649 0.425810 0.423064 0.019564
H33 -0.107351 -0.415775 -0.189349 0.088959 -0.451803 -0.278693 -0.585153 -0.136079 -0.417016 -0.228589 -0.065679 0.027795 -0.360369 -0.380674 -0.622495 0.051186 0.307856 0.383002 -0.225175 0.591659 -0.412229 0.459062 1.073726 0.204010 0.517828 -0.275570 0.138581 -0.767854 0.951940 0.482809 -0.544417 0.558966 -0.034707 -0.675835 0.635222 -0.098962 0.340417 0.148949 -0.239296 0.193542 -0.110241 0.151090 -0.289550 0.295427 -0.073245 0.485085 0.310287 0.577114 0.205070 -0.518710 -0.204621 1.064555 0.646980 -0.384285 0.459904 0.499983 -0.657227 0.217623 -0.596020 -0.323174 -0.378223 -0.236843 -0.262958 0.802110 -0.552320 0.294403 -0.321256 0.445679 1.142771 0.314106 0.500964 -0.244714 -0.437673 0.039211 0.794051 -0.499437 0.100262 0.287813 -0.364311 0.096996 0.255697 0.485267 -0.076982 -0.025841 -0.474368 -0.469733 0.310385 -0.252730 -0.182298 -0.606191 -0.181390 0.524522 -0.784755 0.158662 0.183142 0.149274 -0.638241 0.614427 -0.474983 -0.079309 -0.289437 -0.083479 0.071298 -0.272903 0.374688 0.291572 0.141726 0.322237 0.018700 0.239386 0.665256 0.363886 0.062255 -0.470265 0.475152 -0.234500 0.691229 -0.311442 -0.205090 -0.142036 0.259950 -0.210083 0.416093 0.026961 0.267825 -0.108763 -0.147295 -0.437717
H30 0.083944 0.233245 0.143003 0.500761 -0.248612 0.727783 -0.433583 0.229229 -0.416222 0.085340 0.065051 0.337572 0.004500 -0.391565 -0.487772 0.115465 0.339142 0.297713 0.226776 0.416235 -0.045628 0.710369 0.503289 -0.155030 0.202031 -0.353078 0.369278 -0.610160 0.961082 0.411578 -0.225706 0.831029 -0.326630 -0.281758 0.448796 -0.253712 0.317187 0.114574 0.030192 -0.532343 -0.532707 0.802390 0.212685 -0.421996 -0.533843 0.013641 0.005251 0.506350 -0.289703 -0.081596 0.528774 0.297113 0.310828 -0.074359 -0.430694 0.501588 -0.410511 -0.350049 -0.119143 0.028731 0.462008 -0.583143 0.005540 0.375673 -0.360209 -0.565422 -0.418991 -0.443559 0.520324 -0.045749 0.341189 -0.220913 -0.680957 0.008489 -0.072054 -0.267583 0.980636 0.117135 -0.135981 -0.511211 0.199574 -0.432350 -0.527660 -0.311354 -0.071398 0.357762 0.235161 0.678969 -0.183256 -0.592937 0.306125 0.505859 0.041135 -0.175651 0.503727 -0.108517 -0.379718 -0.127059 -0.303585 0.262724 0.001048 -0.634663 -0.295242 -0.646430 0.405342 -0.100244 -0.094452 -0.184061 0.507088 -0.514376 0.076846 0.172962 0.279173 0.094469 -0.115833 -0.179363 0.451845 0.125352 0.090516 -0.584074 -0.061744 0.120366 0.529098 0.060221 0.373281 0.516567 -0.171915 -0.141730
H24 0.569215 -0.150408 0.621494 0.562147 0.009444 -0.155444 -0.353897 0.009851 -0.241034 -0.253152 0.233620 0.415714 -0.356534 0.488190 0.028547 0.336114 0.701984 0.792661 0.596763 0.553297 -0.224334 0.162923 0.072468 -0.399251 0.078954 0.099376 0.131113 -0.572800 0.248674 -0.035434 0.033861 0.298943 0.294508 -0.482060 0.572945 0.032192 0.143160 0.181666 -0.339409 -0.536973 -0.445126 -0.331075 0.055468 0.475521 -0.603509 0.013120 0.308636 0.679869 0.053979 -0.084637 0.480389 0.209816 0.073534 0.084860 0.087632 0.579557 -0.314230 -0.213864 -0.516162 -0.289570 0.239210 0.208674 0.092540 -0.276983 -0.012869 -0.038788 -0.310803 0.210695 0.333972 0.195484 0.232681 0.558150 -0.166807 0.051033 0.493441 -0.458774 -0.100134 0.592353 0.227134 0.134263 -0.289313 -0.004516 -0.551057 0.083441 -0.349888 0.468957 0.622840 0.229021 -0.367029 0.133873 0.516454 0.424141 -0.145841 -0.104490 0.241562 0.324679 -0.607707 0.033961 -0.526396 0.283810 0.055147 0.213628 -0.039912 0.168447 0.358782 -0.463590 0.451352 -0.053023 0.551793 0.022659 0.445924 0.374696 0.589769 0.428098 0.232628 0.489344 0.753668 0.112920 0.417462 0.219155 0.048921 -0.182363 -0.022895 -0.014719 0.029335 0.587557 -0.460155 -0.425173
H147 0.485285 -0.580786 0.101438 0.125760 -0.370018 0.068716 0.049214 -0.302334 -0.205323 -0.111976 0.153492 -0.167986 -0.579193 -0.030392 -0.026881 -0.147157 -0.117048 0.801549 0.123190 1.054330 -1.345951 0.063508 0.062195 -0.000670 0.291844 0.010016 -0.668698 -0.583141 0.845129 0.722317 0.410535 0.740856 0.113561 -0.895086 -0.131668 -0.134102 0.168313 0.159110 -0.761932 -0.243084 -0.484157 0.749444 0.114295 -0.501459 -0.157716 0.543402 0.259090 0.059773 -0.305095 -0.689544 0.492237 1.693699 0.907504 0.217830 0.615929 0.211887 -0.368139 -0.152636 -0.231674 -0.045767 0.187368 -0.706841 -0.165586 0.839865 -0.388722 0.228166 -0.705993 -0.145277 0.034955 0.309776 0.205600 -0.133933 -0.586682 1.049166 -0.097628 -0.280858 0.216400 0.234235 -0.202100 0.223061 0.013578 0.408993 -0.312831 -0.239519 0.689328 0.112027 0.102470 0.573349 -1.032738 -0.368030 -0.041835 0.503293 -0.167727 0.029259 -0.067593 0.201956 -0.205308 -0.251908 -0.079451 0.146898 -0.258559 -0.305533 0.688671 -0.445615 -0.387377 -0.422939 0.466067 0.044594 0.289579 -0.022126 0.327612 0.324548 0.009560 0.388433 0.223643 0.453086 -0.244052 -0.319054 0.121130 0.224919 -0.358476 0.472745 0.128032 0.028185 0.514972 0.778408 0.314496 0.089855
H210 0.173437 -0.445058 0.172461 0.251307 -0.576231 0.172698 0.145667 0.088779 0.165281 -0.547258 0.116709 0.290790 -0.251195 0.161698 -0.293933 0.507949 0.317329 0.613720 0.271880 0.340621 -0.128204 0.475772 0.163318 0.735359 0.156481 0.409472 -0.138071 0.269567 0.524434 0.462471 -0.165242 0.450012 -0.367840 -0.834813 0.149666 0.230309 0.376477 -0.261075 0.486128 -0.385731 -0.404093 0.200256 0.092962 -0.092552 -0.179004 0.188493 0.683989 0.361730 -0.688907 -0.724231 0.525255 0.764221 0.106059 0.030085 0.270346 -0.155811 -0.048913 0.260340 -0.532516 -0.142710 -0.113338 -0.039813 -0.162152 0.216454 -0.693998 0.455942 -0.600629 -0.038573 -0.224019 -0.312189 0.462943 -0.065803 -0.151055 0.254793 0.044265 -0.437143 0.020567 0.093340 0.012158 0.320345 -0.565672 0.089552 -0.866244 0.359370 0.296353 0.134914 -0.052302 0.198618 -0.224882 -0.274111 -0.333088 0.394273 0.049232 -0.435663 0.477532 0.121014 0.056049 0.129571 -0.080227 -0.713135 -0.633739 -0.352348 0.098066 0.160949 -0.046205 -0.042427 0.398802 0.201990 0.301323 0.534751 -0.075004 0.079908 -0.093364 -0.062643 0.190643 0.331726 0.558039 0.472339 -0.392922 0.165928 -0.204830 0.165369 0.499731 -0.300606 0.522044 0.403030 0.153002 -0.372879
H101 0.359284 0.064420 -0.135721 -0.078144 -0.087045 0.235590 -0.312472 0.285721 -0.163991 -0.481268 0.441881 0.388013 -0.250519 0.308435 -0.024738 0.474365 -0.037104 0.666669 0.009967 0.384586 -0.206252 -0.230830 0.729337 0.823881 0.600036 -0.317374 -0.259702 -0.163631 0.748911 0.105612 -0.249340 0.289329 -0.343315 -0.408323 0.044912 0.127970 0.023821 0.159100 0.008799 0.099390 -0.264944 -0.305536 0.477971 0.347990 -0.047926 0.504119 -0.012568 0.286534 -0.073790 -0.185965 -0.246038 -0.005802 0.132018 0.180022 -0.180747 0.493082 -0.288813 0.088542 -0.309145 -0.755042 -0.245436 -0.050886 -0.264439 -0.312161 -0.081549 0.054478 -0.580854 -0.326491 0.157886 -0.220075 -0.292153 0.275672 -0.643895 -0.322756 -0.130751 0.166159 0.381993 0.076044 0.623299 0.326646 -0.037748 0.039693 -0.472761 0.175854 -0.273607 -0.080777 0.206292 -0.288662 -0.059858 -0.087083 0.007746 0.196027 -0.295937 -0.546558 0.573234 -0.419928 -0.025237 -0.119368 -0.643912 0.087078 -0.224998 -0.698192 -0.339074 -0.238396 0.184136 -0.331748 -0.136025 -0.113872 0.104994 0.286916 0.245911 0.159641 -0.025532 -0.308627 0.018535 -0.261641 0.544090 -0.058203 0.366507 0.084119 -0.499897 -0.541482 -0.244258 0.494368 -0.216802 0.510121 -0.154188 0.007719
H72 -0.097484 0.060521 0.390285 0.554688 -0.158379 0.441962 0.225529 -0.152564 -0.070103 -0.515350 0.475231 0.298328 -0.216639 0.543732 -0.365805 0.094349 0.113618 0.329264 0.499066 0.587795 -0.355767 0.198663 0.345533 0.609524 -0.379221 -0.342793 0.154094 0.206814 0.459250 -0.116154 0.670025 1.123379 -0.468520 -0.604219 -0.025095 0.118093 0.397491 0.390712 -0.737540 0.158015 -0.496608 0.053033 0.253491 -0.525225 -0.622085 -0.108713 -0.040076 0.296462 0.116244 -0.967777 -0.410901 0.243232 0.105212 0.037920 0.078964 0.875124 -0.552453 -0.151018 -0.179728 -0.584066 0.643739 -0.004009 -0.174094 -0.318376 -0.831754 -0.052236 -0.300341 -0.494634 0.208416 0.922832 0.600398 0.559612 -0.627105 0.855345 -0.313740 -0.323068 0.373312 0.486111 0.209567 -0.158917 -0.204868 0.104596 -0.539049 0.890885 -0.252695 0.193218 0.456560 0.227477 -0.215242 -0.173752 -0.334757 0.479936 0.015583 0.223074 0.450173 0.123178 -0.151326 -0.355957 -0.178946 0.223282 -0.090062 -0.071914 -0.198856 -0.520171 0.104134 0.066211 0.725069 -0.426363 0.466413 -0.042175 0.205482 0.336515 0.106855 -0.329037 0.060973 -0.133220 0.467207 -0.680367 0.200339 -0.118648 0.341637 0.168275 0.969142 -0.316333 0.038619 0.406960 0.210602 -0.239893
H217 0.015874 -0.356992 0.319658 0.207349 -0.690133 0.121354 0.222723 0.048008 -0.036412 -0.174251 0.068119 0.225254 -0.454753 0.450660 -0.355718 0.508911 0.179385 0.468188 -0.054902 0.361941 -0.388199 0.132485 0.275315 0.713946 0.294880 0.435432 0.077027 0.192250 0.662540 0.606235 -0.402202 0.617847 -0.454052 -0.842041 0.394469 -0.111956 -0.306435 -0.445835 0.174146 -0.628883 -0.520627 0.279850 0.069740 -0.111300 0.069519 0.486924 0.528486 0.508526 -0.645080 -0.939223 0.405890 0.755347 0.466883 0.156876 0.016072 0.216164 -0.369465 -0.306460 -0.378164 -0.674958 -0.193744 -0.219652 -0.320222 0.131836 -0.320872 0.624601 -0.739703 0.304413 -0.153471 -0.446305 0.345653 0.126955 -0.278573 -0.221171 -0.047418 -0.509007 0.557884 0.284281 0.029286 0.647895 -0.347578 -0.043466 -1.084952 0.403457 0.159454 0.263534 0.074312 0.143277 -0.188776 -0.465113 -0.174021 0.257219 -0.165905 -0.396343 0.223283 -0.076738 -0.134396 0.437988 -0.132034 -0.056279 -0.785000 -0.177201 -0.187544 0.241253 -0.228763 0.108761 0.270379 0.367862 0.578834 0.607976 -0.090201 0.271628 -0.205982 0.170944 -0.134756 0.206664 0.361243 0.812013 -0.488208 -0.159609 -0.520215 0.318956 0.372058 -0.416296 0.350830 0.063473 0.300682 -0.531958
H92 -0.176795 -0.190343 0.318015 0.619240 0.317314 -0.143209 -0.212810 0.385996 -0.101765 -0.317267 0.218728 -0.059603 -0.569078 0.321437 -0.071679 0.539171 -0.143012 0.907688 -0.177027 0.300552 0.239299 0.017992 0.829960 0.587489 -0.495684 -0.164835 -0.102803 -0.645311 0.501185 -0.075274 -0.157776 0.168313 -0.189377 -0.590883 -0.065236 -0.380545 -0.217199 0.153283 0.046612 -0.718281 -0.149085 -0.423214 -0.274933 0.538954 -0.119479 0.349887 -0.269815 0.484422 -0.286034 -0.231929 -0.323888 0.256226 0.296906 0.333103 0.437232 0.580580 -0.474579 -0.430946 -0.582479 -0.788396 0.462555 -0.024185 -0.134815 -0.262267 -0.350608 0.353992 -0.003092 -0.414770 0.625177 0.270063 0.231275 0.681759 -0.414535 -0.018594 0.526777 0.079878 0.249339 0.249591 0.634835 0.543516 -0.256294 0.203051 -0.561764 0.154569 -0.222079 -0.309013 -0.282424 0.112477 -0.277771 -0.547144 0.157991 -0.100585 -0.733693 -0.240510 -0.064211 -0.142802 -0.065598 0.500353 -0.443836 -0.462415 0.003911 -0.154378 -0.640906 -0.436568 -0.046656 -0.315604 -0.025448 0.208437 0.379802 0.326290 0.591014 0.301503 -0.084129 -0.226420 -0.387655 -0.430953 0.415646 -0.180639 0.187486 0.049940 -0.281983 -0.579685 0.214054 0.535235 -0.276785 0.766318 -0.160003 -0.279871
H56 0.108710 -0.144237 -0.105963 0.002924 -0.831218 0.482247 0.181180 -0.097035 -0.677251 -1.109443 0.430170 0.707085 0.356591 0.072234 -0.546784 -0.378573 0.669075 0.468659 1.123824 1.019685 -0.464953 0.091650 0.332952 0.010548 0.543235 0.380239 -0.130275 0.030868 0.700258 0.267719 0.081843 0.507222 0.220175 -0.497553 0.521208 -0.192475 0.055492 -0.128888 -0.760904 -0.151663 -0.208673 0.613851 0.528545 -0.586340 -0.668649 0.486287 0.899766 -0.050851 0.367998 -0.821493 0.431059 0.740218 0.651511 -0.231794 -0.433027 0.525705 -0.480858 0.308348 -0.078450 -0.236332 0.069962 -0.256018 -0.279331 0.266091 -0.595920 0.332318 -0.630330 -0.337711 0.613917 -0.380650 0.535493 -0.131207 -0.820071 0.095879 -0.083536 -0.253604 0.452034 0.169447 0.153720 0.055451 0.319800 -0.058308 -0.355016 -0.210741 0.089349 0.419807 0.737176 0.099579 0.431967 -0.414054 -0.429556 0.578124 0.402626 -0.600644 0.300728 0.101771 -0.205099 -0.814069 -0.261478 0.427935 0.086684 -0.684330 0.171792 -0.051510 0.459974 0.183668 0.616639 -0.058496 0.139624 -0.145022 0.527699 0.176906 0.170241 0.261454 0.171375 0.195490 -0.047250 -0.277366 0.015068 0.235916 -0.318890 0.154842 -0.110437 -0.305326 0.527317 -0.227174 -0.012727 -0.249606
H97 0.275886 -0.131339 -0.173724 0.112639 -0.284588 -0.013038 -0.397965 0.392955 -0.137110 -0.729028 0.549721 0.374610 -0.348070 -0.172424 -0.160909 -0.152622 0.454986 0.491063 0.398421 0.384362 -0.466693 0.135328 0.408594 0.465200 0.485048 -0.153576 -0.040068 -0.505622 0.712397 -0.119732 0.027860 0.092495 -0.419283 -0.620382 0.133889 0.193103 0.087845 0.329310 -0.394698 -1.130174 -0.417257 -0.253187 0.023561 -0.312840 -0.175240 0.210439 0.047867 0.486949 -0.146998 -0.009052 0.350490 0.553720 0.001144 0.031982 0.294438 0.272863 -0.161108 0.371503 -0.484849 -0.261662 -0.095771 -0.286959 0.192287 0.172743 -0.773919 -0.417958 -0.326355 -0.348624 0.445391 0.289535 0.732667 -0.109166 -0.676899 0.503369 -0.130180 0.200078 0.662019 0.348654 0.536063 0.058040 0.240152 0.680909 0.078973 0.092445 -0.194213 -0.209779 -0.134675 -0.205052 -0.149891 -0.046637 -0.239908 -0.164065 0.209416 -0.285213 -0.059718 -0.414943 0.075745 0.056953 -0.472141 -0.981276 -0.063072 -0.448639 0.215145 0.111858 -0.463235 -0.201538 0.215644 0.496217 -0.029982 -0.112988 0.513965 -0.013438 -0.036128 -0.139436 -0.167085 -0.333088 0.310413 -0.582467 0.037261 0.171706 -0.257632 0.103064 -0.605416 0.297416 -0.111043 0.567126 -0.137032 -0.375865
H13 0.304645 0.106555 0.229229 -0.007684 -0.140927 0.137311 0.291602 0.385186 -0.082649 -0.825888 0.751315 0.594283 -0.470094 0.143043 0.679909 -0.277322 0.582280 0.444763 0.976327 0.492116 -0.076261 0.725933 0.308723 -0.141613 0.078399 0.565627 -0.132685 -0.071288 0.658777 0.787045 0.207017 1.334724 -0.403936 -0.582137 0.238506 -0.349676 0.394168 -0.251813 -0.615935 -0.163594 -0.773582 0.324788 -0.205330 0.139232 0.746077 1.033349 0.379376 -0.099219 0.429702 0.031525 -0.576631 0.293138 0.490361 0.270677 -0.277146 1.016366 -0.634595 -0.894493 -0.561401 -0.792465 0.506982 -0.739715 -0.366852 -0.242534 -0.491200 0.804193 -0.625196 0.097999 0.455267 0.048668 -0.168142 -0.366001 -0.061313 0.591931 0.465827 -0.145445 0.222470 -0.138528 0.690638 0.118460 -0.705917 -0.356027 -1.180590 0.305062 -0.142146 -0.531891 1.043235 0.589741 -0.644381 -0.701245 -0.095821 0.503064 -0.728072 0.114927 -0.084598 -0.041467 -0.010196 -0.154756 -0.397353 0.293297 0.016181 -0.407333 -0.629179 0.089687 -0.290252 0.244093 0.178199 0.382834 0.732780 0.026318 0.245676 -0.102050 -0.165135 0.309469 -0.445907 -0.253395 0.745938 -0.372199 0.082920 0.092346 -0.279769 -0.635411 0.050392 -0.351262 0.059135 0.438363 -0.057009 -0.196958
H208 0.216047 -0.505130 0.248784 -0.084576 -0.491452 0.150133 -0.249562 0.265060 -0.100382 -0.244421 0.399745 0.306139 -1.257906 0.548666 -0.645720 -0.051058 0.539337 0.539193 0.528317 0.439798 -0.118199 0.322656 0.768250 -0.347527 -0.160363 0.673745 0.251207 -0.574676 0.547310 0.278665 0.375863 0.613509 -0.222222 -0.795157 0.911617 -0.206505 0.123717 0.419578 -0.278732 -0.457207 -0.929154 0.811953 0.124049 -0.306182 -0.367821 0.552584 0.821715 0.314391 0.356151 0.040498 0.405379 1.005162 0.188156 -0.341410 -0.001271 0.194214 -0.820600 0.027366 -0.704305 -0.602083 0.416840 -0.247013 -0.677908 -0.026390 -0.566878 0.101239 -0.901018 -0.326017 0.121019 -0.007134 1.025209 -0.426163 -0.937073 0.654061 0.298830 -1.070492 0.922731 0.309749 0.345177 0.265406 -0.138424 0.279232 0.198014 0.301272 -0.085765 0.721464 0.548023 0.195960 0.111363 -0.372672 0.109056 0.165293 -0.109861 -0.539728 -0.260281 0.089477 0.245493 0.478428 -0.418169 -0.831346 0.594434 0.155413 0.197592 -0.585865 0.281297 -0.694742 0.900624 0.689965 0.569790 0.816134 0.119996 0.405453 -0.326112 0.146682 -0.394389 0.143421 0.002007 -0.043478 0.022383 0.370328 -0.592926 0.254864 0.107761 -0.561063 0.622680 0.538413 -0.370033 -0.658011
H177 0.951154 -0.281574 -0.378947 0.156032 -0.144069 -0.371432 0.039310 -0.318256 -0.648972 -0.293665 0.005476 0.420221 0.213666 -0.241817 -0.639448 0.152023 0.034291 0.524241 0.744332 0.434608 -0.233945 -0.333397 0.200070 -0.386686 0.253439 0.001298 -0.242915 -0.298754 0.580080 -0.003891 -0.006081 0.437074 -0.333856 -0.199105 0.520804 -0.429131 -0.401801 -0.153550 0.275626 -0.197723 -0.286927 -0.192694 0.485791 0.303635 -0.199119 0.843385 0.256773 0.753821 0.122750 -0.235523 0.223325 1.144215 0.453766 0.164320 -0.207084 0.292442 -0.204720 -0.197938 0.082145 0.003779 0.065530 -0.074498 -0.077324 0.795622 -0.875351 0.683371 -1.053294 0.156180 0.686842 0.115813 0.274516 0.311660 -0.234914 0.213082 0.612104 -0.357703 0.891407 -0.393180 0.202922 -0.184557 -0.420097 0.104213 -0.948688 -0.301175 -0.592450 -0.017572 0.347402 0.447976 -0.201151 -0.563433 -0.530893 0.759750 -0.383569 -0.204949 -0.276395 0.511570 -0.653985 0.136685 -0.656423 -0.032200 -0.036308 -1.014585 0.573985 -0.588367 0.402775 -0.445910 -0.068113 0.385225 -0.143550 -0.295455 0.151223 0.099472 0.343826 0.378688 -0.027839 0.217125 0.471478 0.369658 0.331837 0.134140 -0.178795 -0.266444 -0.219836 -0.072857 0.286949 1.043950 0.303168 -0.001451
H192 0.475563 -0.032074 -0.288300 0.715313 -0.164587 0.135021 -0.096208 0.231068 0.001329 -0.553755 0.129424 0.504092 -0.534718 0.419697 -0.461973 -0.003304 0.952404 0.331983 0.756285 0.145384 -0.440043 0.040686 0.629073 0.162442 -0.210673 0.182566 0.466750 -0.164615 0.335026 0.104394 -0.016961 0.725347 0.107014 0.093377 -0.178924 -0.079979 -0.138919 0.181967 -0.189299 -0.884503 -0.471745 -0.171462 0.208655 -0.002349 0.011027 0.748001 0.533132 0.536468 0.124231 -1.029719 -0.416220 0.602606 0.583598 0.088300 0.336772 0.460684 -0.377105 -0.115643 -0.401725 -0.688931 -0.510543 -0.075999 -0.162879 -0.108793 -0.117621 0.410028 0.107707 -0.070758 0.498259 -0.073912 0.082501 0.244042 -0.256218 0.082996 -0.264547 -0.376776 0.082723 0.431521 0.226993 0.334701 -0.378631 0.064309 0.225230 -0.092065 -0.228283 0.456040 0.430604 -0.075834 0.628438 -0.500371 -0.255748 -0.080004 0.016443 -0.129348 -0.230604 0.660024 -0.023062 0.346651 -0.105264 0.289994 0.132144 -0.544806 0.136185 -0.058696 0.045778 -0.626353 0.168666 -0.001923 0.062181 -0.017184 0.023898 0.019517 0.302802 -0.577950 -0.308255 -0.371722 -0.005598 -0.101124 0.453631 -0.126179 0.403741 -0.283095 0.079928 0.037882 -0.264226 0.337188 0.414716 -0.172119
H29 0.012837 0.430967 0.409165 0.721085 -0.425642 0.703133 -0.541558 0.743135 -0.379899 0.027868 0.401815 0.503271 -0.406458 -0.278716 -0.530291 0.273281 0.487920 0.360063 0.432300 0.460635 0.274649 1.134736 0.741503 0.129568 -0.076471 0.155852 0.382092 -0.810913 0.721636 0.614315 0.049304 0.978155 -0.916597 -0.592691 0.735700 -0.151762 -0.023687 -0.011516 0.458538 -0.778009 -0.523715 0.918105 0.596316 -0.301932 -0.150812 0.514100 0.072142 0.234852 -0.031268 -0.414948 0.225101 -0.137912 0.802294 -0.029919 -0.214442 0.480862 -0.339131 -0.093868 -0.333362 -0.093082 0.312765 -0.457417 -0.110966 0.344661 -0.268105 -0.306435 -0.672954 -0.703250 0.163615 -0.057164 0.272464 0.002086 -0.592645 -0.296853 -0.121352 0.082460 0.751839 -0.048978 0.151871 0.044948 -0.112872 -0.296420 -0.386905 -0.045024 -0.233346 0.506775 0.385194 0.748871 -0.180668 -0.837963 0.072754 0.467089 0.217549 -0.268191 0.382148 -0.277614 -0.257209 -0.055573 -0.260605 0.199527 0.006576 -0.551826 -0.334607 -0.641072 0.447921 -0.494840 0.507906 -0.196041 0.549922 -0.630573 0.170318 -0.121438 0.311393 -0.161257 -0.513363 -0.119133 0.417903 0.335012 -0.234069 -0.505563 -0.359090 -0.403505 0.214518 -0.156969 0.493848 0.393796 -0.728556 -0.111472
H194 0.671410 -0.233400 -0.202942 0.588316 -0.528367 0.156321 -0.045397 0.493629 0.055914 -0.092728 0.252749 0.222084 -0.323534 0.330831 -0.183256 -0.081153 0.533530 0.372966 0.532358 0.362959 -0.564621 0.157310 0.548380 0.608572 0.154217 0.299533 0.447389 -0.442023 -0.017212 0.325875 0.295042 0.989452 -0.299486 -0.102513 -0.221663 0.142063 -0.063709 0.261678 -0.122837 -0.765910 -0.683173 -0.300555 0.010313 0.129896 -0.067128 0.678768 0.340083 0.243134 0.053984 -1.011560 -0.262085 0.425784 0.683073 0.262322 0.396245 0.197165 -0.301654 -0.530025 -0.341188 -0.797269 -0.276620 0.076129 -0.064405 0.457941 -0.343999 0.479001 0.385848 0.088498 0.377331 -0.166116 0.061879 0.128703 -0.546501 0.306232 -0.136724 -0.308990 0.274349 0.801081 -0.219382 0.421563 -0.433812 -0.113758 0.076282 -0.112384 0.078612 0.032830 0.318796 0.195792 0.500470 -0.598531 0.240920 -0.046088 -0.545684 -0.147603 -0.074018 0.394488 -0.125312 0.278077 -0.559230 0.350616 0.017569 -0.340768 0.256894 -0.130370 -0.022677 -0.270082 0.106503 -0.381791 0.089474 0.227478 0.253307 -0.063231 0.308535 -0.487491 -0.379350 -0.513936 0.014521 0.184478 0.273347 -0.251494 0.633796 -0.349193 0.064997 -0.259461 -0.363708 0.583054 0.203239 -0.281913
H151 0.328061 -0.353220 -0.560531 0.020726 -0.624058 -0.032375 -0.455953 0.119770 -0.097853 -0.332145 0.536477 0.186353 -0.421809 -0.567035 0.416116 0.114080 0.601672 0.487640 0.152312 0.410243 -0.834528 0.403712 0.097858 -0.109698 0.295511 -0.199276 -0.383168 -0.473477 0.575359 0.172179 0.184894 0.372991 -0.341717 -0.291134 0.609672 0.487927 -0.109376 -0.808817 0.117592 -0.767236 -0.481630 0.051842 0.693547 0.081460 -0.015323 0.648231 0.355814 1.039871 0.209480 -0.278456 -0.407444 0.324997 0.728332 0.458707 -0.265628 0.512634 -0.647357 0.176140 -0.356103 -0.202259 -0.199551 -0.360257 0.197196 0.445825 -0.739150 0.056153 -0.418012 -0.130477 0.425151 0.113563 0.078366 0.135321 0.038358 0.382300 0.011272 -0.557827 -0.004477 0.185346 0.033525 0.381528 -0.182565 0.065318 -0.483247 0.297788 0.013820 0.120753 0.261263 -0.701415 -0.514204 -0.016371 -0.236246 0.069018 0.057023 0.164437 -0.019873 -0.165930 -0.352794 -0.047555 0.311278 -0.011083 0.147625 0.067616 0.319607 -0.563814 -0.139374 -0.836046 -0.493874 -0.243386 0.442859 0.125560 0.335767 0.325202 -0.219149 -0.084820 0.467928 0.013974 0.254228 0.222923 0.276280 -0.135116 -0.323682 -0.171007 0.375516 -0.426577 -0.257055 -0.052743 0.123023 0.044662
H218 -0.575501 0.144414 -0.089515 0.136535 -0.209524 0.553180 -0.114573 0.254891 -0.379180 0.314248 0.526149 -0.002829 -0.650782 0.216168 0.119455 -0.315237 -0.119962 0.696185 -0.110763 1.055668 -0.175151 -0.140420 0.886694 -0.021022 0.093881 0.120259 -0.073034 -0.874063 0.778326 0.846953 0.350587 0.903694 -0.643426 -0.889813 -0.431549 -0.761351 -0.074071 0.867566 -0.496077 -0.525958 -0.432160 0.449153 0.539938 0.214580 -0.601016 0.268214 0.089022 0.723894 0.547334 -0.539805 0.357927 0.599440 0.940257 0.934930 -0.066653 -0.085040 -0.391800 0.209648 -0.954165 -0.347466 -0.048505 -0.569854 -0.277975 -0.110484 -0.204696 -0.423503 -0.992779 -0.746487 1.015016 0.073445 -0.370334 0.709020 -0.943964 0.384056 0.570947 -0.606547 0.256095 -0.051067 0.329857 0.253303 0.070471 -0.014001 -0.528870 0.174234 0.013174 0.021344 0.154013 0.194905 -0.643100 -0.090159 0.352204 0.445867 -0.158142 -0.153015 -0.460100 -0.081770 -0.009123 -0.549579 -0.930392 0.295531 -0.010830 -0.191188 -0.151681 -1.144980 -0.002108 -0.541837 0.862905 0.251321 0.687304 -0.190836 0.567989 0.817497 -0.042862 0.061818 -0.315934 -0.924412 0.350152 0.335420 0.216743 -0.493144 -0.650023 0.216898 -0.091633 0.244761 0.070188 0.317825 -0.654667 0.178301
H80 0.094112 -0.510923 -0.177201 0.701922 0.407956 -0.428225 -0.291031 0.127482 0.184509 0.131186 -0.104274 0.295150 0.307495 0.473934 -0.410885 -0.025295 0.287973 0.406454 -0.027060 0.314055 -0.803568 0.025047 0.662796 -0.058148 -0.037254 -0.818824 -0.717544 0.157496 0.645291 0.672418 -0.329866 0.469963 0.130262 -1.485972 -0.567387 0.287367 0.077854 -0.028966 -0.633923 -0.377286 -0.169151 0.240976 0.238284 -0.259962 -0.358853 0.208323 -0.231815 0.297278 0.256768 -0.662847 0.225341 0.561694 0.522689 -0.246596 -0.568854 0.071900 -0.729444 -0.558314 -0.809146 -0.624706 0.179057 -0.248754 -0.516918 0.493263 0.074736 -0.072702 -0.713466 -0.520090 0.608805 0.243918 0.179253 0.005118 -0.204708 0.417784 0.394241 -0.243185 0.027973 0.146756 0.286482 0.576459 -0.272857 0.198158 -1.074631 0.109098 0.327006 0.367229 -0.111165 0.514906 -0.006143 -0.134088 -0.318802 0.710558 0.001530 -0.332753 0.722478 0.642659 -0.912076 0.341143 -0.658292 0.446683 -0.153278 -0.219211 -0.495900 -0.540326 -0.215753 -0.173793 0.537535 0.356395 0.281311 -0.048184 0.366234 0.508506 0.064656 -0.243951 0.511921 -0.177520 1.038031 0.265360 0.278792 0.281283 -0.244183 -0.512296 0.158445 0.186212 -0.097496 0.564211 0.401018 -0.301444
H75 0.325699 -0.205186 0.624167 0.280605 -0.570066 0.020812 -0.690740 0.347880 0.330293 -0.456215 -0.288518 0.366381 -0.924914 0.590877 -0.308425 0.038838 0.501844 0.730434 0.633739 0.214307 -0.103058 0.208032 -0.120389 -0.115042 -0.005970 -0.522422 -0.199444 -0.613874 0.207692 0.775521 -0.308633 1.026378 -0.549696 -0.386647 0.455719 -0.134626 -0.014454 0.384599 -0.609515 -0.581162 0.251752 0.261318 -0.002458 -0.474910 -0.398012 1.039385 -0.080782 0.321453 -0.055069 -0.601511 0.062552 0.515798 0.574934 0.283851 0.436777 -0.274062 -0.551194 -0.328117 0.223658 -0.595705 -0.604391 -0.695359 0.302905 0.229639 -0.395754 0.126192 -1.173643 -0.213518 0.491083 0.146914 -0.094460 -0.134533 -1.017554 0.165686 0.028543 -0.398258 -0.072040 -0.068855 0.147911 0.003972 0.058502 0.426248 -0.425897 0.071327 -0.542204 -0.033938 0.585031 1.029025 -0.246242 -0.112920 -0.397061 0.604510 -0.362321 -0.175540 -0.207702 0.245368 -0.104799 0.070696 -0.429068 -0.019875 -0.500126 -0.184093 0.231057 -0.247290 0.965921 -0.054212 0.977982 -0.170333 0.460904 -0.316102 0.275775 0.078866 -0.105256 0.096177 0.553929 0.422277 0.092673 0.085861 -0.351231 0.142543 -0.410550 -0.183817 0.162205 0.022232 -0.320481 0.098743 -0.068071 -0.190801
H64 0.413896 -0.020556 -0.309608 0.099675 -0.205390 0.430199 0.069312 0.057209 -0.699990 0.058969 0.063357 -0.405540 -0.878160 0.908895 0.251553 -0.443474 -0.338307 0.301674 0.905395 0.210104 -0.078080 -0.005848 0.220918 -0.443973 0.194981 -0.209983 -0.127203 -0.276156 0.932453 0.373190 -0.291552 0.143323 -0.385350 -0.365575 0.535439 -0.208423 0.113969 -0.078271 -0.804499 -0.529342 -0.069392 0.675491 0.475201 -0.474341 -0.079271 0.429947 0.699827 0.401016 0.112997 -0.238214 0.196147 0.636414 0.529386 0.500363 0.334975 0.937950 -0.141847 -0.225464 0.118748 -0.682343 0.298260 -0.226545 0.162013 0.308669 -0.268530 0.214103 -0.234995 -0.095130 0.383406 0.244149 0.422091 0.440718 -0.628142 -0.008630 -0.025967 -0.742694 0.708268 0.546977 0.727243 0.485996 -0.027974 0.330496 -0.133530 0.353543 0.380681 -0.159383 0.330683 -0.301543 -0.548050 -0.521163 -0.036589 0.435869 -0.792615 0.068470 0.222639 0.446864 -0.019580 0.090141 -0.586168 0.079918 -0.246910 -0.786547 -0.447139 -0.099281 0.318431 -0.206190 0.253229 0.386816 -0.278787 0.457697 -0.281609 0.640994 0.102788 0.151019 -0.365109 -0.429722 0.679624 -0.356233 0.343906 -0.269846 -0.363953 -0.094971 0.224675 0.078131 0.299160 0.227453 -0.268109 0.273156
H213 0.432821 0.108333 0.001461 0.153461 -0.977740 0.525832 -0.442770 0.211878 -0.242734 -0.258631 0.362026 0.129433 -0.334774 0.171132 -0.395911 -0.421238 0.811276 0.545589 0.433489 0.264977 -0.351822 0.687952 0.790688 0.150080 -0.320473 0.277310 -0.058755 -0.495957 0.096758 0.179196 0.014803 0.958784 -0.515984 -0.695809 0.199400 0.309908 0.222735 0.098924 0.136478 -0.093495 -0.194315 0.252086 0.608194 0.190184 -0.021226 0.998541 0.304509 0.219338 0.906744 -0.598921 0.045846 0.415383 0.458742 -0.058193 0.236654 0.060718 -0.556981 -0.080282 -0.705840 -0.618939 0.309955 -0.281963 -0.271817 0.383504 -0.234284 0.456427 -0.522330 -0.054946 0.582509 0.121298 0.350766 -0.011313 0.021846 0.014316 -0.136218 -0.420020 -0.029014 -0.110030 0.395043 0.291300 -0.642074 0.005457 -0.193034 0.949235 0.168069 0.384388 0.116468 -0.139589 -0.839667 0.114966 -0.233263 0.677634 0.205549 -0.278074 -0.716118 0.381951 -0.063352 -0.195496 -0.462636 -0.446888 0.512098 -0.751034 -0.177022 -0.569321 0.489815 -0.548199 0.270551 -0.146076 0.141048 0.528477 0.809564 -0.195938 -0.350098 0.835483 -0.300112 -0.020306 1.102389 -0.451616 -0.377837 -0.230138 0.212536 -0.546391 -0.165016 -0.132992 0.097174 0.195792 -0.227719 0.136454
P433 0.069992 0.053027 -0.119151 0.086830 0.010077 0.087808 -0.330438 0.334758 -0.068795 -0.642035 0.496632 0.240821 -0.210318 0.007331 -0.131122 0.114044 0.340084 0.403706 0.005062 0.302522 -0.183092 0.048024 0.560754 0.521038 0.505250 -0.064551 -0.312333 -0.269435 0.765576 -0.054894 0.046234 0.015546 -0.442070 -0.427161 0.068690 0.103160 0.181343 0.201024 -0.075741 -0.474337 -0.055651 -0.121145 0.166541 -0.025552 -0.191112 0.274367 0.105664 0.261261 -0.299377 -0.096151 0.308037 0.357921 0.057637 0.213819 0.552877 0.157287 -0.269405 0.408628 -0.441976 -0.007187 -0.195885 -0.018915 0.023260 -0.138136 -0.549296 -0.422069 -0.355801 -0.380949 0.346746 0.080749 0.453784 -0.144820 -0.780801 0.499784 -0.244584 0.014760 0.359013 0.006743 0.647059 0.138458 0.258806 0.439194 0.052371 0.214147 -0.103180 -0.333973 -0.339050 -0.129265 -0.158661 -0.063672 -0.159431 0.068893 -0.019895 -0.061246 0.081049 -0.256238 0.001256 -0.190322 -0.409459 -0.706511 -0.010637 -0.784712 0.124132 0.001075 -0.153681 -0.028555 -0.026194 0.337113 -0.140251 -0.109543 0.374095 0.121668 -0.045531 -0.413140 -0.161422 -0.331978 0.328577 -0.438345 0.013052 0.038803 -0.209553 0.004825 -0.441874 0.270366 0.179607 0.255466 -0.328265 -0.157522
H195 0.558584 -0.236296 -0.239386 0.290811 0.038708 0.366652 -0.661083 0.480956 -0.143823 -0.028695 0.103455 0.602079 -0.010095 0.257312 -0.618254 -0.483951 0.503711 0.173484 0.254414 -0.121542 0.332203 -0.013889 0.684045 0.404311 -0.318977 -0.366625 0.447492 0.143327 1.144377 0.092973 0.192809 0.095321 0.099034 -0.613218 0.318729 0.005583 -0.045505 -0.099925 -0.280993 -0.193029 -0.343469 -0.173501 0.052831 0.117994 0.230319 0.586560 0.763762 0.526275 -0.434256 -0.579529 -0.174610 0.938992 0.267233 -0.663421 0.014905 0.584372 -0.313428 -0.181615 -0.353411 -0.330331 -0.057587 -0.268367 -0.282401 -0.160952 -0.468195 0.230659 0.128350 -0.694680 0.304233 -0.143771 -0.171914 0.177352 -0.192878 0.643102 0.036095 -0.157290 0.379368 0.000767 0.588388 0.239683 -0.224768 0.238141 -0.645558 0.313217 -0.509010 0.444521 0.651609 0.379311 0.401824 -0.417974 0.125314 0.703217 0.041055 -0.206222 -0.215831 0.650928 -0.140069 0.302633 0.436306 -0.073260 -0.183173 -0.557947 -0.129582 0.096603 -0.210173 -0.477531 0.507114 0.404545 0.226501 -0.074445 0.120438 -0.070600 0.318479 0.019410 0.145137 0.253571 -0.252015 -0.146616 0.143027 0.179582 0.600202 -0.399006 0.795853 0.114525 -0.005904 0.240997 -0.079291 -0.282273
H52 0.164674 -0.073113 0.012537 -0.084649 -0.619900 0.868532 0.256154 -0.086108 -0.508367 -1.149034 0.245962 0.591614 0.237224 -0.083931 -0.551690 -0.405204 1.044819 0.659500 0.867254 1.070411 -0.167711 0.054238 0.627387 0.372075 0.002557 0.279524 -0.372739 -0.384721 0.497145 0.131306 0.021972 0.188038 0.470865 -0.193399 0.503868 -0.115933 -0.277402 -0.169951 -0.525955 -0.007080 0.046097 0.512457 0.680797 -0.498937 -0.763414 0.766174 0.840249 0.031047 0.667039 -1.123054 0.271906 0.910941 0.938117 0.038015 -0.042889 0.473594 -0.414591 0.083542 -0.156342 -0.406202 0.039844 -0.348171 -0.102699 -0.190356 -0.576667 0.300135 -0.489993 -0.615899 0.654826 0.075464 0.633935 0.049146 -1.058837 -0.090737 -0.205331 0.031202 0.662359 0.168309 0.303748 0.364422 0.170974 0.284113 -0.148485 -0.149769 0.176726 0.545572 0.425541 0.068793 0.262476 -0.410606 -0.452454 0.269617 0.236891 -0.551466 0.026497 -0.019020 -0.078967 -0.523229 -0.241109 0.294631 0.513027 -0.610283 -0.100233 -0.170492 0.548281 -0.321008 0.464740 -0.245880 0.418823 -0.182340 1.034177 0.145385 -0.038864 0.155916 -0.043926 0.005325 -0.029045 -0.298718 0.276113 0.651926 -0.560906 -0.078095 0.081644 0.076914 0.261137 0.016991 -0.420107 -0.123313
H35 0.252895 0.232619 0.114055 0.008050 -0.280213 0.522879 -0.398688 -0.172707 -0.505531 -0.136528 0.227821 0.181111 -0.792090 0.172482 -0.294703 0.175348 0.957637 0.330649 0.864921 0.938791 -0.158290 0.141825 0.604029 0.921567 0.199497 0.155522 -0.543070 -0.009455 0.228411 0.217685 -0.316478 0.256234 -0.548037 -0.531457 0.378178 -0.361868 -0.436118 0.269235 -0.098990 0.254019 0.212623 0.212032 0.400396 -0.570718 0.564503 0.978594 0.345385 0.043039 0.125056 -0.204211 0.350070 1.107851 0.590095 0.187499 0.445011 0.652391 -0.312362 0.793077 -0.456277 -0.693437 -0.158201 -0.507431 -0.072504 -0.139427 0.089092 0.377828 -0.572028 0.116167 0.048195 0.088647 0.915620 0.230611 -0.439891 0.712038 0.448421 -0.338749 0.285846 0.275416 0.814529 0.156742 -0.009161 0.044863 -0.195033 0.244068 -0.138027 -0.077653 1.011156 0.154801 -0.822718 -0.138522 -0.389045 0.735687 -0.178129 -0.158261 0.275238 0.048111 -0.270780 0.092748 -0.019475 0.208253 -0.426772 -0.088147 0.702129 -0.424679 0.100466 -0.138148 0.883629 -0.592476 -0.148329 0.104840 0.311495 0.252399 0.379507 0.045313 0.694680 0.737351 0.084542 0.421325 0.027829 0.130545 -0.191576 0.073109 0.460839 0.276337 -0.173002 0.570974 -0.192204 0.358450
H182 0.957479 -0.331468 -0.071428 -0.200139 -0.360740 -0.221242 -0.145808 -0.172486 -0.557978 -0.506941 0.523969 1.062833 -0.064585 0.453341 -0.155469 0.411214 0.006163 0.587408 0.515217 1.012639 -0.717526 0.608102 0.427413 -0.406191 0.381797 0.163207 -0.542132 -0.952281 0.453286 0.535782 -0.323238 0.270671 0.082326 -0.552890 0.382547 0.302982 0.347043 -0.090328 -0.152578 -0.627829 -0.436411 -0.203097 -0.028263 -0.819425 0.262835 0.298412 -0.194585 0.673580 -0.127942 0.282062 -0.120708 0.591509 0.713278 0.108560 0.334003 0.604607 -0.483595 0.487970 -0.121786 -0.786238 0.759535 -0.506163 0.252532 0.066147 -0.373093 0.467129 -0.442527 0.068074 0.828231 -0.132513 0.230533 0.752342 0.006128 0.118189 0.308347 -0.323999 -0.045200 0.422296 0.087236 -0.311413 -0.195702 -0.252068 -0.612310 0.107423 -0.113654 0.524946 0.264850 0.373783 -0.094501 -0.481318 0.511986 0.185970 -0.188456 -0.462473 0.540192 0.323476 0.063580 -0.246609 -0.163054 -0.071866 -0.115416 -0.430032 0.655939 -0.388689 0.848844 -0.079534 0.157636 -0.253889 -0.008887 0.371755 0.354047 0.035818 -0.198604 -0.486892 -0.211685 -0.178820 0.105904 -0.466506 0.032057 0.134285 -0.697038 -0.085460 0.233840 -0.508034 0.035447 -0.000890 -0.290675 0.081385
H58 0.486657 -0.344812 -0.500722 0.060248 0.155103 0.576395 0.234358 0.116618 -0.561896 -1.029288 -0.475631 -0.219959 -0.988041 0.415962 -0.332992 -0.477443 0.396090 0.437326 0.681543 0.635530 -0.371116 -0.423752 0.547366 0.634231 -0.726817 0.159572 -0.378606 -0.801093 0.497853 -0.089800 -0.458305 0.388520 0.503948 -0.303884 0.203641 -0.736184 -0.622349 0.605628 -0.366314 -0.597994 -0.640243 0.425276 0.153726 -0.021684 -0.298322 0.508270 0.235929 0.474627 0.319740 -0.989212 0.173169 1.408117 0.239279 -0.076385 0.369609 0.272718 -1.010558 -0.414514 0.025836 -1.294493 0.000082 -0.015842 -0.787242 -0.539102 -0.172809 -0.058743 -0.352044 -0.182855 0.448147 0.745559 0.406558 0.120254 -0.928817 0.817080 0.298093 -0.362744 0.755495 0.107177 0.633337 0.333525 0.114523 0.339927 -0.327081 -0.075921 -0.085218 -0.172106 0.160234 0.382492 0.402542 -0.498363 -0.440620 0.264770 -1.071007 -0.499115 -0.244863 0.262457 0.244187 -0.035409 -0.007890 -0.203618 0.109729 -0.590368 0.002087 -0.633260 0.826788 -0.180542 0.483356 0.477953 0.397204 0.711829 0.616487 0.702058 0.205517 -0.240413 -0.439348 0.210387 -0.401900 -0.559589 0.182106 -0.196588 -0.209426 0.240589 -0.478979 0.257168 0.055293 0.582014 -0.609763 -0.309033
P829 0.712240 -0.009337 -0.556326 -0.053726 -0.536659 0.094739 -0.447689 0.084737 0.086133 -0.165566 0.648803 0.147951 -0.254899 -0.432078 0.630101 0.051881 0.666826 0.419779 0.043679 0.363010 -0.679406 0.274662 0.068978 0.184346 0.256368 -0.241662 -0.569831 -0.315794 0.463727 0.258146 0.116093 0.355866 -0.503111 -0.643641 0.382179 0.414046 -0.059808 -0.627074 0.159705 -0.649022 -0.446141 0.076618 0.734304 0.069074 0.023078 0.952687 0.055455 1.026886 0.172397 -0.139995 -0.574139 0.346250 0.662108 0.604135 0.052678 0.474259 -0.543633 0.265056 -0.496755 -0.240218 0.025163 -0.353601 0.287349 0.336386 -0.589055 0.235265 -0.402643 -0.450354 0.407858 0.274740 0.147666 0.021881 -0.030716 0.607319 -0.102748 -0.535195 -0.213308 0.110775 0.187097 0.347323 -0.169414 -0.109095 -0.515507 0.408329 -0.026377 0.200758 0.168624 -0.764102 -0.606052 -0.099221 -0.305957 0.114777 -0.057121 0.359134 -0.116328 -0.138955 -0.285693 0.008971 0.355846 -0.037535 0.202952 0.013978 0.264022 -0.504312 -0.208161 -0.690524 -0.449658 -0.326097 0.453117 0.038116 0.372046 0.203772 -0.377746 -0.224383 0.511635 0.003002 0.253713 0.162821 0.246518 0.139911 -0.259872 -0.138922 0.399463 -0.444092 -0.411052 0.000970 0.358373 0.220191
H31 0.428705 0.041834 0.657117 -0.094062 0.055425 -0.447206 -0.506251 0.234496 -0.569604 -0.102747 0.546433 -0.220197 -0.541587 0.154382 -0.463570 0.043431 0.626601 0.818800 0.703107 0.373188 -0.329853 0.171062 0.709384 -0.240731 -0.192770 -0.131693 0.125496 -0.821161 0.233553 0.175009 -0.011743 0.737791 0.041874 -0.936716 -0.157922 -0.012475 -0.103910 0.102867 -0.285067 -0.280540 -0.805069 -0.210609 0.436729 0.395369 0.185198 0.694585 0.375256 0.100397 -0.192966 -0.168276 -0.036516 0.189121 0.175246 -0.005487 0.097454 0.891963 -0.049444 -0.760639 -0.553628 -0.511997 0.301881 -0.162267 -0.138801 -0.390874 -0.249212 0.354895 -0.434446 0.363570 0.479127 0.237535 0.104123 0.011706 -0.455802 0.181744 0.468119 0.022058 0.542295 -0.077102 -0.109046 -0.023590 0.412959 -0.225724 -0.849196 0.211364 -0.406749 0.182010 0.407508 0.001990 -0.316216 0.008764 0.356832 0.325815 -0.487923 -0.485595 -0.003851 -0.052167 -0.579865 0.174766 -0.585580 -0.327040 0.128754 0.328588 0.259268 -0.238407 -0.080668 -0.097080 0.628384 0.197271 -0.020581 0.432645 0.299690 0.738894 0.650989 0.583814 -0.512655 0.130035 0.738600 -0.003642 0.116597 0.271316 0.185577 -0.101276 -0.216135 0.319864 0.022612 -0.085994 -0.879601 -0.379280
H96 -0.138520 0.004384 -0.094293 0.106881 0.017097 0.179995 -0.354198 0.150310 -0.117579 -0.728747 0.864367 0.458758 -0.170754 -0.076261 -0.241375 -0.095838 0.108622 0.560910 0.170688 0.086322 -0.253159 -0.003463 0.698482 0.348370 0.679603 0.118558 -0.059128 -0.206337 1.045840 0.024465 0.448987 0.213093 -0.231104 -0.777636 0.299107 0.146563 0.068015 0.219703 -0.194396 -0.731376 -0.163573 -0.011622 -0.008803 -0.001433 -0.184220 0.445901 0.117039 0.055890 -0.429939 -0.027371 0.166336 0.442859 0.285853 0.284086 0.395800 0.508753 -0.602413 0.367209 -0.341047 0.071478 -0.326253 -0.198915 -0.103372 -0.014174 -0.705788 -0.112464 -0.328529 -0.528023 0.337222 0.175894 0.718807 -0.077289 -0.881971 0.566489 -0.204808 0.117339 0.238723 -0.022990 0.688243 -0.085093 0.546039 0.379032 -0.075113 0.305542 0.036347 -0.410932 -0.255922 0.026130 -0.330740 0.011778 -0.160406 0.073840 0.039686 0.025296 0.119760 -0.206702 -0.104249 -0.022884 -0.360733 -0.698016 -0.352183 -0.977813 0.148887 -0.306578 -0.295042 -0.272890 0.139802 0.308567 -0.199281 -0.253448 0.276434 0.172714 0.029502 -0.290349 0.071457 -0.430299 0.291055 -0.435721 0.012338 -0.288881 -0.098535 -0.142416 -0.374557 0.053513 0.246370 0.352800 -0.409290 -0.465102
H84 0.099883 0.190807 -0.050787 0.705062 -0.160424 0.191694 -0.502001 0.519855 -0.013826 -0.378249 0.552092 0.123204 -0.160620 0.359156 0.261645 0.193648 0.471541 0.474849 0.027171 0.501525 -0.127743 0.071411 0.869232 0.654810 0.378621 -0.360524 -0.288699 -0.269215 0.512473 0.086719 -0.359139 0.439260 -0.153526 -0.290728 -0.403968 -0.252138 -0.150720 0.032901 -0.201384 -0.193709 0.188619 0.044970 0.533481 0.262035 -0.101876 0.343906 -0.108431 0.412435 0.074843 -0.382696 0.032455 0.362186 0.147656 0.643715 0.100925 0.472256 -0.522947 -0.151140 -0.352905 -0.609482 -0.098386 0.030804 0.494234 -0.538875 0.017783 -0.300158 -0.605192 -0.041242 0.441203 -0.132069 -0.189320 0.209837 -0.105595 0.207925 0.431289 -0.116962 0.398841 -0.004363 0.335693 0.120469 -0.417552 -0.150763 -0.425003 0.375272 -0.378323 -0.540814 -0.188776 -0.005981 -0.314009 -0.315437 0.522196 -0.012911 -0.263462 -0.059558 0.555335 0.118839 -0.313492 -0.076490 -0.243075 0.147174 0.154729 -0.801373 -0.557529 -0.000898 -0.249112 0.002955 -0.468310 0.172456 0.250359 0.027547 0.194765 -0.413150 -0.323629 -0.565594 0.107319 -0.240847 0.392142 0.405487 0.211950 -0.022436 -0.243896 -0.406149 0.153767 0.326468 -0.051746 0.233822 -0.314721 0.444266
H65 0.199965 0.116512 -0.182676 -0.026022 -0.224665 0.234950 0.036821 0.005656 -0.619519 0.204007 0.012575 -0.471152 -0.914119 0.802908 0.195400 -0.384373 -0.427206 0.227230 0.842346 0.185506 -0.224021 -0.020069 0.220685 -0.526689 0.205428 -0.127697 0.061030 -0.306953 0.969245 0.395678 -0.311446 0.208564 -0.333054 -0.413931 0.630904 -0.228216 -0.070579 -0.130003 -0.839686 -0.700130 -0.136980 0.589120 0.402953 -0.342744 0.033143 0.581434 0.644621 0.382919 0.198254 -0.336837 0.010670 0.503915 0.593608 0.374896 0.335259 0.878463 -0.029853 -0.164047 -0.022658 -0.599100 0.251829 -0.358317 0.046482 0.339454 -0.164340 0.206576 -0.271899 -0.070944 0.516230 0.291874 0.350006 0.454465 -0.589139 -0.113060 0.039688 -0.694551 0.562998 0.614998 0.612970 0.524109 0.083250 0.199890 -0.284829 0.392543 0.259413 -0.123868 0.413055 -0.311548 -0.497555 -0.596387 -0.138771 0.562022 -0.703208 0.145271 0.156244 0.426677 -0.064547 0.229473 -0.491910 0.303796 -0.245963 -0.540764 -0.315782 -0.152806 0.222308 -0.267962 0.303272 0.432563 -0.105137 0.417179 -0.287112 0.836444 0.203126 0.303592 -0.271070 -0.464332 0.679209 -0.257218 0.351604 -0.206615 -0.310015 -0.054899 0.363964 0.060342 0.290377 0.246480 -0.302339 0.030927
H18 0.277743 -0.702577 0.883193 0.476976 -0.424895 -0.060411 -0.190260 0.684098 -0.108533 -0.328355 0.401954 0.394640 -0.665524 0.361111 0.277527 0.149472 0.273094 0.809678 0.336501 0.521779 -0.707750 0.843819 0.678739 -0.266475 -0.205356 -0.143284 -0.047914 -0.249240 0.339760 0.593165 -0.217811 0.589396 -0.298656 -0.702374 -0.185797 0.053749 -0.168672 0.229693 0.316442 -0.425845 -0.568666 -0.047464 -0.249255 0.510899 0.130061 0.297992 -0.566587 0.786099 -0.319902 -0.461246 0.266562 0.561038 0.827897 0.219828 -0.053147 -0.197909 -0.764787 -0.394450 -0.405286 -0.089601 0.027555 -0.670991 -0.432546 0.037997 -0.193348 -0.041771 -0.404250 -0.899972 0.357823 -0.019750 0.564399 0.327632 0.176495 0.422464 0.107344 0.041883 0.516433 0.160469 0.581700 -0.526199 -0.477808 0.400213 -0.514928 0.851039 0.240558 0.732054 0.373723 0.296065 0.034637 -0.879125 -0.193097 0.259936 -0.280955 -0.355871 -0.183539 0.185815 -0.845362 0.409384 -0.701595 0.259177 0.054374 0.241843 -0.040331 -0.551721 0.158418 -0.410049 0.543507 -0.319894 0.039479 0.406066 0.330134 0.139364 -0.235975 0.138830 -0.158350 -0.484966 0.635303 0.625205 -0.386631 -0.183353 -0.143626 0.252508 0.211487 0.050820 0.035822 0.340835 -0.381053 0.306274
H203 0.073179 -0.348763 0.488161 0.825300 -0.193985 0.152444 -0.247364 -0.239427 -0.227564 0.045473 -0.624844 -0.291537 -0.800355 0.029411 -0.826637 0.205722 -0.058335 -0.443073 0.147730 0.451950 -0.664221 0.580328 0.633735 0.268758 -0.967421 0.088414 -0.303314 -0.662251 0.515464 0.681741 -0.457634 0.757531 -0.328720 -0.515308 0.447660 0.012174 -0.267545 -0.062127 0.042481 -0.732757 -0.544628 0.730470 0.241892 0.228311 -0.099421 0.856255 -0.372019 0.456385 -0.134594 -1.371074 -0.264542 0.680071 0.541180 0.002726 0.267125 0.074729 -0.652297 -0.045199 -0.385169 -0.440989 0.429258 -0.173502 -1.319419 -0.134201 -0.872780 0.307327 -0.561929 -0.800274 0.401825 0.092496 0.585219 0.403741 -0.428444 -0.030578 -0.042368 -0.653663 0.697406 0.242906 -0.004088 0.677571 -0.707013 -0.247314 -0.812425 0.188866 0.149314 0.512315 -0.021468 0.502350 -0.237152 -0.899832 -0.625664 0.699518 -0.390843 -0.445849 -0.250608 0.180846 -0.458480 0.244849 -0.092447 -0.010112 0.014211 0.055561 -0.297487 -1.509964 0.642516 -0.042023 0.727774 0.269662 0.274675 0.580315 0.428192 1.300147 0.266535 0.160280 -0.562665 0.114875 0.311397 0.142884 -0.111294 -0.037226 -0.031451 -0.389613 0.507330 -0.031851 0.212039 0.425418 -0.316214 -0.598066
H107 0.794760 -0.117453 0.235534 0.145228 -0.108313 0.821454 0.049462 0.214358 0.178056 -0.442550 0.167617 0.414976 -0.181179 0.547142 0.173454 0.222783 0.763683 0.989200 -0.259346 0.905603 -0.025303 0.527698 1.020930 0.929766 -0.244777 0.381353 -0.522051 -0.369350 0.740338 0.567192 -0.279651 0.503984 -0.045948 -0.730588 0.023611 0.180135 0.168820 -0.359297 0.350223 0.628241 -0.079175 0.527278 0.264076 0.353936 -0.489516 0.708179 0.079419 0.115792 0.173220 -1.068792 -0.241617 0.662819 0.602323 -0.376134 0.549798 0.587616 -0.781874 -0.108605 -0.617076 -0.701352 0.793997 -0.140263 -0.796884 -0.889509 0.190538 0.890430 -0.408590 -0.946683 0.367524 -0.156697 0.118290 0.361922 -0.102274 0.382299 0.088503 -0.462391 0.115359 0.218102 0.223153 0.685765 -0.649687 -0.223130 -0.464753 0.474836 -0.032614 0.800623 -0.197511 0.122858 -0.295828 -0.776053 0.567402 0.445000 -0.837986 -0.361719 0.038237 0.399616 -0.474094 -0.378776 -0.108315 0.641786 0.764054 -0.286978 -0.703029 -0.009626 0.598455 -0.201222 -0.156036 -0.315894 0.622611 0.466812 0.999255 0.045484 -0.527744 -0.258489 -0.222340 0.178068 0.288592 0.098547 0.320524 0.554119 -0.611802 -0.799828 0.178201 -0.321324 0.548260 -0.001666 -0.414890 -0.357452
H82 0.835601 -0.366735 -0.106002 0.322548 -0.768863 -0.075813 0.179917 0.822488 -0.575908 -0.296095 0.813017 0.442487 -0.772976 -0.178106 -0.018480 0.239124 0.299717 0.788761 0.956105 0.994855 0.418361 0.127835 0.627928 -0.182728 0.403982 -0.680854 0.134697 -0.325919 1.014202 -0.486880 -0.155349 0.611839 -0.438746 -0.264001 -0.182059 -0.121938 0.305286 0.149499 -0.670706 -0.673218 -0.987757 0.191490 0.531863 -0.104044 0.289795 0.048569 0.804332 0.932752 -1.006561 0.321220 -0.365141 0.699819 0.768780 0.311701 0.119172 0.107888 -0.721475 -0.486111 -0.391119 -0.143551 -0.204777 -0.058297 -0.060906 -0.118032 -1.094868 -0.118478 0.180498 0.111615 0.364752 0.074607 -0.080228 0.588186 -0.173667 0.347447 0.303145 -0.503046 0.594183 0.742855 -0.016883 -0.840307 -0.050609 0.262871 -0.453054 0.036404 -0.270730 -0.429863 0.759347 0.069112 -0.025802 -0.588240 -0.119692 0.095267 -0.560969 -0.244342 -0.050187 0.121937 0.075990 -0.497087 -0.081178 -0.441754 0.028482 -0.507254 0.181846 0.037889 0.439424 -0.377771 0.486252 0.106275 0.354034 0.508768 0.154032 -0.143933 0.232009 -0.163563 0.536229 0.286823 -0.176058 -0.413289 -0.036252 -0.418361 0.784705 0.062001 -0.165465 0.058878 -0.197579 0.534090 -0.173785 -0.171672
H175 0.434055 0.000330 0.558861 -0.116301 -0.348590 -0.420911 0.213593 0.026437 -0.320780 -0.349151 0.173159 0.491449 0.353186 0.055155 -0.297831 -0.377656 0.655000 1.069561 0.551398 0.478740 -0.528474 0.508679 0.843021 0.043978 -0.060867 -0.515485 0.067269 -0.677536 1.055944 0.501882 0.287992 0.594703 -0.219328 -0.157268 0.079392 -0.299857 0.331529 -0.119182 -0.391704 -0.321765 -0.238931 0.739453 0.401414 -0.596544 -0.175655 0.652972 -0.030551 0.383625 -0.138058 -0.383641 0.071855 0.993304 0.572908 0.316678 0.249499 0.417209 -0.405954 0.058576 -0.559737 -0.288731 -0.221252 -0.622255 -0.070611 -0.551979 -1.055482 -0.392446 -0.198034 0.286183 -0.249523 0.226010 -0.343215 0.190260 -0.212747 0.353611 0.680059 -0.618958 -0.030127 0.343734 0.009112 0.190485 -0.033639 -0.037085 -0.983194 0.016067 -0.500712 0.344456 0.225149 0.429543 -0.528175 -0.002628 -0.339530 -0.201692 -0.388882 -0.305914 0.421608 0.539100 0.126088 0.285838 -0.416559 -0.649033 -0.146600 -0.469669 -0.330127 0.057073 -0.383018 -0.663555 0.752514 -0.172436 0.105800 0.190512 -0.017313 -0.350100 -0.371626 0.014437 -0.345919 -0.197457 0.466395 0.450595 0.511721 0.472067 -0.252825 0.160774 0.539422 0.707118 -0.942918 0.844074 0.252258 0.207972
H55 0.630908 0.002366 -0.424341 -0.213633 -0.049781 0.472579 -0.057739 0.266210 -0.208129 0.608065 -0.014813 0.229363 -0.597049 0.382984 -0.582995 0.041747 0.424704 0.462613 0.386288 0.790931 -0.377780 -0.153959 0.199127 0.425699 -0.165988 0.019491 -0.107617 -0.633020 0.880772 0.277468 0.271093 0.207453 -0.437746 -0.189948 0.142293 -0.372031 -0.420878 0.141134 -0.191841 -1.348592 -0.149540 0.263026 0.628280 -0.568901 -0.611171 0.785758 -0.454159 0.711337 -0.027910 -0.735754 0.003660 0.871330 1.022209 -0.004714 0.526972 -0.349610 -0.299331 0.408318 -0.273261 -0.417574 0.623869 -0.525709 -0.394729 -0.355004 -0.337898 -0.145728 -0.275634 -0.978665 0.693702 0.571707 0.798558 0.621271 -0.433718 0.369690 -0.269273 -0.095437 0.456569 0.111502 0.870281 0.209686 -0.213052 0.437725 -0.146294 0.467681 0.354553 0.705118 -0.344972 0.624298 -0.423206 -0.506738 -0.764283 0.575022 -0.159948 -0.110349 -0.329575 0.318720 0.210085 -0.518914 -0.320570 -0.142421 0.562725 -0.329141 0.623281 -1.032301 0.451972 -1.196641 0.422977 -0.024396 0.477340 -0.252074 0.641711 0.485566 0.107139 -0.281111 -0.112710 0.092899 -0.017752 0.096827 -0.028366 -0.061397 -0.072031 0.035990 0.590843 -0.342260 0.129969 1.369714 0.206663 0.032391
P826 0.896869 -0.025697 -0.276456 -0.252421 -0.398392 0.064597 0.104175 -0.101218 0.392350 0.457173 0.311398 -0.118143 0.137318 -0.208356 0.582856 0.018129 0.209465 0.589812 0.231420 0.282505 -0.377665 0.063239 0.481619 0.362402 0.030198 -0.489255 -0.266497 -0.354726 0.670230 0.564842 0.100370 0.410799 -0.295263 -1.013366 -0.107441 -0.156361 -0.109034 -0.636039 -0.062380 -0.477913 -0.409686 0.219051 -0.036700 0.193216 0.294989 0.828840 -0.074153 0.713554 -0.023094 -0.268149 -0.834599 0.610241 0.881009 0.410880 0.237485 0.445470 -0.372696 0.102609 -0.477842 -0.464575 0.173553 -0.570168 0.142592 -0.025469 -0.149418 0.759162 -0.250710 -0.728637 0.423726 0.795688 0.114778 0.353658 -0.093538 0.631215 0.083180 -0.384961 -0.388129 0.313760 0.017127 0.126559 -0.073081 -0.125318 -0.824253 0.414002 0.100055 0.326728 -0.018496 -0.164485 -0.539383 -0.434544 -0.294748 0.005299 -0.637303 0.562810 -0.395116 0.076539 0.140168 0.418039 0.177915 -0.299175 0.192001 -0.181679 -0.012600 -0.558193 -0.257527 -0.600136 -0.150053 -0.185309 0.671394 0.060983 0.327731 0.033699 -0.426507 -0.354954 0.328972 -0.305400 -0.043526 0.315444 0.016440 0.308917 -0.290280 -0.146067 0.701127 -0.068212 -0.295029 0.703600 0.559768 -0.167487
H178 0.844759 -0.278778 0.108794 0.370370 -0.343004 -0.163981 -0.208016 0.010181 -0.424957 -0.584536 0.826707 1.156637 -0.049684 0.468947 -0.046452 0.339859 0.046870 0.971806 0.532352 0.618142 -0.739380 0.858755 0.562624 -0.414216 0.535479 -0.290717 -0.381797 -0.774481 0.658858 0.297083 -0.109370 0.603730 0.119086 -0.930079 0.138235 0.588053 0.413344 0.058548 -0.573980 -0.939639 -0.617124 -0.241726 -0.363479 -0.873780 0.475221 0.275714 -0.229133 0.684159 -0.498040 0.239322 -0.370450 0.752475 0.630576 0.112333 0.280009 0.854449 -0.512748 0.312884 -0.092654 -0.683366 0.757848 -0.591048 0.614156 0.098193 -0.506443 0.589875 -0.094288 -0.018682 0.568862 0.183663 0.504396 1.012205 0.090327 0.257362 0.133035 -0.181403 -0.064486 0.751879 -0.006173 -0.322259 -0.058721 0.122625 -0.876806 0.066421 -0.055264 0.245829 0.094436 0.450751 -0.338287 -0.503960 0.581964 -0.164330 -0.340328 -0.281050 0.501442 0.264255 0.002257 -0.015450 -0.067271 -0.145784 -0.507670 -0.402745 0.230665 -0.098041 0.337544 -0.050558 0.243384 -0.213583 -0.054325 0.236870 0.242398 -0.219549 -0.006706 -0.745259 0.037937 -0.186427 0.222987 -0.473094 -0.047367 -0.017665 -0.324820 -0.126258 0.191287 -0.172698 -0.354359 0.079982 0.134046 0.038575
H15 0.582347 -0.083622 -0.483857 -0.124838 0.115079 0.491882 0.046618 0.047263 0.502031 0.498491 0.014179 -0.117699 -0.769269 0.212375 -0.253028 0.220675 0.490163 0.396469 -0.122278 0.879203 -0.466186 0.456154 0.547041 0.538792 -0.049433 -0.569873 -0.248407 -0.799492 0.804059 0.128150 0.185870 0.555981 -0.840211 -0.634988 0.437508 0.044511 0.049416 -0.154273 -0.108751 0.107109 -0.487798 -0.034928 0.387962 0.001148 -0.219716 0.617797 -0.254788 1.107514 -0.123018 -0.379088 -0.767136 0.207869 0.781354 -0.204338 0.813353 0.296828 -0.062174 -0.220406 -0.495090 -0.174241 1.044755 0.549874 -0.285256 0.248326 -0.683193 0.246418 -0.061127 -0.508020 0.878770 0.818539 0.209971 -0.150683 -0.151750 0.686991 -0.201903 -0.959721 0.331793 0.161559 0.227467 0.278871 -0.297157 0.030831 -0.285996 0.570566 -0.262371 0.177678 0.111976 0.128827 0.020649 -0.925584 0.133777 1.123089 -0.904721 0.494761 -0.015184 0.470013 -0.254742 0.195962 -0.558830 -0.258979 0.719028 0.052987 0.815659 -0.368749 0.846399 0.100873 -0.632459 0.196494 0.963499 -0.310081 0.534708 0.802763 -0.368489 -0.835077 -0.091672 -0.380407 0.754096 -0.577460 0.014538 -0.219970 0.501729 -0.081467 0.284608 -0.186889 0.410509 0.927722 -0.481651 -0.104954
H132 0.029515 -0.329775 0.317062 0.941734 -0.545729 -0.390886 -0.433498 0.675236 -0.807249 -0.291015 0.465419 -0.094150 -0.390310 -0.468665 -0.244578 0.117837 0.606805 0.732394 0.320633 -0.020655 -0.880085 -0.127356 0.295766 -0.287909 -0.390348 -0.147139 -0.016751 -0.551061 0.638262 0.016650 -0.253528 0.370879 -0.292145 -0.909287 0.037443 0.217148 0.152072 -0.408612 -0.190038 -0.940051 -0.581493 -0.034244 0.173669 -0.077862 0.190169 0.810605 0.043477 0.986694 -0.219738 0.204678 -0.547403 0.670421 0.224938 0.187084 0.540968 0.000135 -0.015859 -0.644598 -0.363772 -0.004409 -0.010040 -0.668321 -0.216048 -0.332549 -0.725346 0.557367 -0.490052 -0.085619 0.901224 0.694592 0.332311 -0.104220 -0.434448 0.083827 0.457585 0.035275 0.054152 0.267275 -0.081269 0.673683 -0.044665 0.655574 -0.614240 -0.396237 0.277523 0.148638 0.564909 -0.154169 -0.442361 -0.354647 -0.067748 -0.013359 -0.859429 0.208860 -0.117237 -0.287450 -1.006338 -0.095727 -0.877828 -0.153832 -0.663800 -0.628820 0.128460 -0.303126 0.007310 -0.342901 0.047358 0.324953 0.180756 0.055176 -0.156817 0.141682 -0.214134 0.033802 0.008995 0.499774 -0.236032 0.064497 -0.002068 -0.153632 0.090375 0.224280 0.381788 0.643285 -0.626390 1.071988 0.279013 0.144641
H3 -0.186129 0.109719 -0.125815 -0.430975 -0.131828 -0.234179 -0.373786 0.212682 0.189952 -0.164845 0.104804 0.174507 -0.036201 0.446805 -0.258750 0.152160 0.694471 0.910393 0.724367 0.119706 -0.477750 -0.331951 0.902901 0.414278 -0.414690 0.457145 -0.130679 -0.192142 0.251416 0.079549 0.050440 0.397078 -0.101765 -0.796626 0.102450 -0.752548 -0.530100 0.130591 -0.836463 0.024922 -0.367821 -0.220318 0.588782 -0.169243 -0.246602 0.119210 -0.059770 0.607700 -0.121939 -0.218155 0.472454 0.575220 -0.235851 0.099302 -0.328107 0.464270 -0.542181 0.290364 -0.058790 -0.901535 -0.441155 -0.260970 -0.381091 0.875525 -0.371960 0.371881 -1.053291 -0.378630 0.923240 0.553724 0.387712 -0.111042 -0.117496 1.242342 0.950827 0.056208 0.191613 -0.083726 -0.134292 0.581971 0.023752 0.273805 -0.669478 0.399846 -0.415401 0.010941 0.676333 0.573231 0.424797 -0.510440 0.039533 0.534550 -0.049738 -0.026688 0.369738 0.880606 0.029811 -0.319304 -0.011183 -0.091081 -0.308821 -0.335008 -0.522256 -0.634361 0.209120 -0.488760 0.425121 0.233100 0.289653 -0.280244 0.784432 0.006822 0.215261 -0.040758 -0.422117 -0.025439 0.464174 0.055575 0.717113 -0.134384 -0.540644 -0.081965 -0.284244 -0.266599 -0.089411 0.559425 -0.295030 0.084199
H119 0.996297 0.103276 -0.206267 0.140090 -0.380363 0.950101 -0.389320 0.519092 0.236413 -0.559230 0.123760 0.202724 -0.202669 -0.152219 0.210970 0.082525 0.975447 0.254464 -0.216816 0.619583 -0.194924 0.238078 0.082736 1.035139 0.443647 -0.043422 -0.223736 -0.132160 1.106757 0.509780 -0.417515 0.958564 -0.486017 -0.448816 -0.027662 -0.337010 0.232286 -0.398826 0.304148 -0.156100 -0.691784 0.126766 0.526813 0.608134 -0.163731 0.519735 0.807497 0.992563 -1.244358 -0.595287 0.003928 0.094900 0.240059 0.375056 0.050241 0.532288 -0.556743 -0.106007 -0.592779 -0.031617 -0.166853 0.666065 -0.230437 -0.161330 -0.329366 0.256182 -0.152131 -0.487055 0.663036 -0.263535 -0.065598 -0.405796 -0.518814 1.081727 -0.257768 -0.743960 0.368198 0.041716 -0.146198 0.178684 -0.057887 -0.927211 -0.271492 -0.086895 -0.163860 0.429588 0.666711 -0.566617 0.562114 -0.528625 0.739100 0.478083 -0.802009 0.436337 0.503561 0.292719 -0.577152 0.038747 0.314164 0.246647 -0.045665 -0.440443 0.208589 0.032323 0.808383 -0.123323 -0.528124 0.085424 0.899260 -0.190903 0.437510 0.481281 -0.077112 -0.148600 0.253555 0.351518 0.026821 0.044895 -0.144653 -0.214608 0.250221 -0.038648 0.141582 -0.443620 0.564505 0.190005 -0.414324 -0.282320
H215 0.573109 -0.136682 0.060037 0.515608 -0.371818 0.151262 -0.292785 0.370227 -0.341497 -0.560530 0.455116 0.314081 -0.545803 0.254362 -0.220066 0.090736 0.694099 0.935333 0.583899 0.847724 -0.434560 0.352239 0.758181 0.379894 0.149291 -0.240946 -0.253874 -0.504068 1.094114 0.404140 -0.109933 0.854273 -0.374069 -0.924656 0.146592 -0.175021 0.089053 -0.089323 -0.398011 -0.659433 -0.510969 0.159964 0.430442 -0.084109 -0.191466 0.848292 0.338534 0.802093 -0.274677 -0.594229 -0.013837 0.938306 0.740113 0.201506 0.205878 0.737961 -0.809073 -0.238890 -0.525395 -0.696072 0.235637 -0.321981 -0.187194 -0.024028 -0.691116 0.325178 -0.650691 -0.438381 0.745440 0.128608 0.322154 0.254513 -0.576967 0.720426 0.300049 -0.559661 0.455918 0.235004 0.491028 0.392140 -0.097007 0.102870 -0.840074 0.315787 -0.241966 0.083683 0.431586 0.137559 -0.314297 -0.624080 -0.005368 0.516453 -0.571900 -0.205307 0.229021 0.291618 -0.483754 -0.113386 -0.428342 -0.119800 -0.188414 -0.605993 0.024881 -0.397552 0.229008 -0.298680 0.386980 0.143236 0.481857 0.161104 0.478480 0.340597 0.054953 -0.139413 0.019841 0.007229 0.502560 0.019993 0.079043 0.024286 -0.019416 -0.183022 0.231018 0.033465 0.055454 0.585078 -0.145897 -0.066784
H103 0.430160 0.046277 0.444571 0.491345 0.267468 0.286601 0.316686 -0.519197 -0.054755 -0.684319 -0.036306 -0.042312 -0.208655 0.344661 -0.607456 0.075500 0.685723 0.994086 0.659010 0.537136 -0.223388 0.162099 0.651904 -0.462096 -0.506438 0.249345 0.049506 -0.026758 0.842321 0.217131 0.287487 0.468624 0.656989 -0.503330 0.264755 -0.621527 -0.577782 -0.455911 0.022486 -1.051958 -0.738230 0.473181 -0.188663 0.256888 -0.457656 0.732367 0.749461 -0.111376 -0.189796 -0.781424 -0.125539 0.630398 0.438845 -0.092719 0.404332 0.514146 -0.840172 -0.526426 -0.347083 -0.015619 0.446780 -0.920993 -0.232833 0.053616 -0.546373 0.620619 -0.469023 -0.432978 0.222831 0.705274 0.848668 0.627019 -0.469520 0.359325 0.669187 -0.831397 0.626434 0.092097 -0.017836 0.681009 -0.256604 0.171320 -1.196513 -0.026006 0.031837 -0.020375 -0.087785 0.020349 -0.081270 -0.564590 0.268980 0.089575 -0.346717 -0.531267 -0.659661 0.153500 -0.133727 0.348432 -0.005056 0.520357 -0.100235 0.068201 -0.035195 -0.435558 -0.317814 -0.531973 -0.052985 0.574638 0.318862 0.483444 0.294614 0.651397 0.268274 -0.004375 -0.502105 -0.158257 0.022743 0.222024 0.735963 0.726465 -0.225642 -0.061579 0.660392 -0.129099 0.099978 0.312464 0.077834 -0.648866
H63 0.052414 -0.102731 -0.375411 -0.409641 -0.496859 0.203467 0.222144 0.156888 -0.558479 -0.278221 0.636793 0.067635 -0.770456 0.528742 -0.256219 -0.492562 0.234376 1.259941 0.276710 0.732856 0.235472 -0.195096 0.870543 0.095190 0.302277 -0.122107 -0.027371 -0.540602 0.466519 0.759711 0.505847 0.581728 -0.168980 -0.301025 -0.265250 -0.311313 -0.192708 -0.236606 -0.269962 -0.810843 -0.088820 0.339654 -0.326869 -0.672351 -0.410640 0.209555 0.878426 0.834185 0.220785 -0.530903 0.689912 1.093200 1.229257 -0.210540 -0.222260 0.132501 -0.449912 -0.594435 -0.025807 -0.363121 -0.222562 -0.859135 0.115948 0.207949 -0.099167 0.832421 -0.544685 0.128168 0.468603 -0.053599 0.146732 0.313214 -0.147284 -0.071444 0.482539 -0.339443 0.466389 -0.210991 0.414193 0.129076 0.175418 0.095517 -0.561073 0.067376 0.426469 0.322204 0.156664 0.476301 -0.461525 -0.424522 -0.194506 0.065186 -0.648376 -0.566374 -0.664522 0.445508 -0.203430 -0.031857 -0.878609 -0.377470 0.181581 -0.932660 0.053788 0.093197 -0.272370 -0.824983 0.591641 0.166177 0.829554 0.443714 0.113180 -0.235712 0.386424 -0.370160 0.107295 0.065588 -0.000509 0.750818 -0.234949 -0.061940 0.021366 0.177962 -0.075589 0.199706 0.012123 0.721609 0.144695 -0.042096
H74 0.529672 0.008281 0.291186 0.861828 -0.790422 0.088720 -0.252787 0.129399 0.008741 -0.114091 0.911209 0.000492 -0.401861 0.185441 -0.279488 -0.015647 0.788524 0.347709 1.000517 0.195575 -0.201268 0.381122 0.430040 0.079252 0.579860 -0.482256 -0.037258 -0.311096 1.455223 -0.090224 -0.047892 0.469922 0.026751 -1.146789 -0.202347 0.230231 0.381828 -0.421194 -0.708182 -0.303965 -0.783939 -0.335831 0.314862 -0.380931 -0.110025 0.152604 0.595899 0.036123 -0.618918 -0.256990 0.330728 1.207244 -0.104610 -0.598492 0.141338 1.330462 -0.542012 -0.096730 0.032858 -0.317470 0.442131 0.248704 -0.049307 0.165142 -0.447948 0.930327 -0.409252 -0.315805 0.164816 -0.376845 -0.034001 0.997275 0.028865 0.210919 -0.258942 -0.612993 0.214573 0.311797 0.058009 0.260050 0.222369 0.557898 -0.913761 -0.042179 -0.623944 -0.291940 0.440242 -0.198593 -0.320884 -0.697674 -0.126893 0.245422 -0.523909 -0.688037 0.007990 0.119620 -0.058715 -0.690485 -0.556112 -0.252826 -0.512852 -0.366665 0.399035 -0.171808 -0.188874 0.092629 0.201966 -0.090884 0.086316 0.251319 0.057127 -0.286858 0.585397 -0.657574 -0.060349 0.028772 0.601068 0.314260 0.230332 0.005378 0.557521 0.187564 0.421315 0.572589 0.220009 0.156674 0.307936 0.461786
H152 0.735403 -0.695239 -0.146549 0.244485 -0.352705 0.117759 -0.470768 0.455604 -0.148769 -0.992946 0.247722 0.221014 -0.287808 0.560833 0.418009 0.107717 -0.123306 1.196635 0.280002 0.199203 -0.446582 -0.210168 0.150668 0.080261 0.359566 0.804072 -0.264540 -0.118008 0.839810 -0.029712 -0.065818 0.973340 0.558160 -0.805445 -0.023085 -0.052421 -0.324647 -0.272879 0.039663 -0.359267 -0.063148 -0.128373 0.139335 -0.281301 -0.090885 1.072213 0.275828 0.389630 -0.429888 -0.324567 -0.193760 1.326317 0.637731 -0.324076 0.539873 -0.006273 -0.141759 -0.531056 -0.166460 -0.109860 -0.386893 -0.793493 -0.626017 -0.027493 -0.526768 -0.144975 -0.397695 -0.525401 0.552677 0.129529 0.348813 0.276268 -1.003142 0.013629 0.759482 -0.338457 0.137149 0.018854 0.214691 0.355555 0.416027 0.477578 -0.666734 -0.145381 -0.498738 -0.009552 0.271813 0.242129 -0.361815 -0.341900 0.594928 0.132049 -0.282312 -0.371442 0.255512 0.157874 -0.284274 -0.104344 0.172092 -0.407258 0.128280 0.071964 -0.099105 -0.435563 0.416579 -0.269245 -0.372039 0.654137 0.840423 -0.167731 0.565572 0.478734 -0.302446 0.348479 0.284133 -0.112116 -0.262587 -0.214270 0.215694 0.348556 -0.489839 -0.127615 -0.136777 -0.244449 -0.020701 -0.105595 0.363572 -0.559524
H189 0.190373 -0.026961 -0.243066 -0.009014 0.423977 -0.298114 0.336619 -0.159141 -0.399114 0.541730 -0.276231 -0.545888 -0.457532 -0.614886 -0.560935 -0.312048 0.710323 -0.116119 -0.429037 0.715090 -0.575875 0.087782 0.149559 0.294710 0.111734 -0.635981 -0.794652 -0.465404 0.945047 0.154168 -0.009612 0.341873 0.064543 -0.291076 -0.245238 -0.299434 0.062585 -0.333779 -0.589541 -0.620419 -0.163529 0.417299 0.634949 -0.435532 0.078386 1.324882 0.028161 0.794551 0.208375 -0.415810 -0.562180 0.614783 1.090878 -0.001265 0.091959 0.016154 -0.675942 -0.098140 -0.283525 -0.946568 0.635614 -0.353293 -0.831452 -0.211770 -0.399076 -0.032513 -0.340963 -0.141193 1.459845 0.010120 -0.183366 -0.029096 -0.041524 1.126272 0.116016 -0.849550 0.420054 -0.087465 0.419392 0.512200 0.080285 -0.413149 -0.773019 0.259830 0.246788 0.071213 0.218567 0.101725 0.014891 -0.521118 -0.574998 0.668368 -0.272290 0.175867 -0.179715 0.311671 -0.257971 -0.225163 -0.357637 0.186199 0.099123 -0.309428 0.962285 -0.772732 0.079270 -0.666529 0.305437 0.385792 0.755711 0.060222 0.283483 0.841299 0.215966 -0.311895 0.818529 -0.307518 0.628191 0.360696 -0.291490 0.016152 0.253543 0.078590 0.670754 0.128068 -0.153448 0.953913 0.560948 -0.148218
H184 0.521356 -0.101215 0.033202 0.435458 -0.294316 0.155698 -0.202621 0.294541 -0.265188 -0.462716 0.430763 0.234956 -0.458416 0.166686 -0.187032 0.055561 0.529206 0.731617 0.470600 0.709196 -0.281974 0.347812 0.541668 0.308267 0.171386 -0.207390 -0.153106 -0.332117 0.911300 0.298807 -0.068297 0.655132 -0.268169 -0.749276 0.064180 -0.103849 0.175732 -0.081253 -0.300477 -0.495167 -0.414406 0.134048 0.319803 -0.080548 -0.138168 0.668140 0.318147 0.575031 -0.327962 -0.377953 -0.011659 0.697562 0.637662 0.131883 0.183633 0.577098 -0.559254 -0.221515 -0.407120 -0.569639 0.228973 -0.252755 -0.128394 0.038983 -0.498999 0.249006 -0.444107 -0.379207 0.633351 0.006007 0.245909 0.145432 -0.391682 0.580052 0.245798 -0.503734 0.354761 0.195598 0.409346 0.347171 -0.065315 0.090180 -0.640297 0.228089 -0.185274 0.018301 0.331052 0.021707 -0.291855 -0.490240 0.058675 0.372449 -0.435165 -0.193574 0.233324 0.265087 -0.370033 -0.085173 -0.293800 -0.059122 -0.139610 -0.516035 0.065195 -0.205989 0.185070 -0.218727 0.292515 0.066748 0.405868 0.197940 0.355382 0.254027 -0.003364 -0.128446 0.108760 -0.006995 0.442722 0.037121 0.053584 0.014424 -0.024155 -0.189471 0.289065 -0.014777 -0.000563 0.405781 -0.132465 -0.099314
H112 0.474376 0.052350 -0.073633 -0.113304 -0.571638 0.382050 -0.124457 -0.113295 0.469133 -0.400224 -0.142324 0.061408 0.006030 0.665582 0.238305 0.474237 0.885942 0.207299 0.331156 0.966075 -0.580612 0.349616 0.238157 0.320184 0.278242 0.695056 -0.675731 0.240191 0.233384 0.762619 -0.218380 0.916108 0.026893 -0.586123 0.015229 -0.617293 -0.274127 -0.379542 -0.356184 -0.223657 -0.426472 0.826767 0.732897 0.267436 -0.625836 0.840957 0.581941 0.254303 0.156378 -0.798026 0.513526 0.951042 0.516803 0.289520 0.102433 -0.212558 -1.193447 0.090753 -0.630771 -0.259652 0.116044 -0.238859 -0.124150 0.193301 -0.347294 0.057817 -0.718810 -0.698697 0.458687 0.019379 -0.030118 -0.266769 -0.667889 1.310981 0.746211 -1.386470 -0.284701 0.175663 0.028092 0.598020 -0.203109 -0.526964 -0.511404 0.197402 0.216076 0.571069 0.023645 0.365156 -0.254998 -0.229824 0.140643 0.670235 -0.222065 0.171235 0.487779 0.741919 -0.146223 -0.513132 -0.102784 0.811134 0.010292 -0.085691 0.173104 -0.176098 0.423260 -0.255879 -0.088860 -0.064507 0.865505 0.651058 0.617713 0.802842 -0.357996 -0.039057 -0.000590 0.353812 -0.245580 0.973375 0.353370 0.522594 -0.726485 -0.380427 0.457593 -0.731287 0.551057 -0.112272 -0.063479 -0.137146
H86 -0.115853 -0.036970 -0.189220 0.151048 0.049542 0.224227 -0.233580 0.607340 0.028596 -0.613954 0.398888 -0.017467 -0.299592 0.004490 0.044853 0.199988 0.244703 0.755640 0.145419 0.327194 -0.389481 0.259060 0.574210 0.624875 0.726062 -0.262108 -0.191190 -0.184101 0.750278 0.007165 0.096688 0.212037 -0.618647 -0.541764 -0.155839 -0.250370 0.030104 0.289441 -0.082447 -0.327604 0.208567 0.171507 0.305360 0.214510 -0.198833 0.268122 0.094998 0.350886 -0.071519 -0.241801 0.062385 0.523342 0.009990 0.510748 0.487530 -0.037117 -0.516704 0.350921 -0.153651 -0.203186 -0.193232 -0.224995 -0.008625 0.108336 -0.366438 -0.745158 -0.404152 -0.524642 0.305710 0.079549 0.528583 -0.220940 -0.635821 0.575079 -0.308696 0.201187 0.469262 0.097759 0.763195 0.141134 0.216022 0.667511 -0.139255 0.172733 -0.349969 -0.110427 -0.331060 -0.045558 -0.066406 -0.385171 -0.293730 0.344730 -0.161608 0.104450 0.184742 -0.298351 0.134684 -0.240383 -0.175022 -0.656047 -0.076901 -0.811898 -0.154375 -0.280723 0.118982 0.210366 0.183117 0.339178 0.071701 -0.192296 0.572041 0.012133 -0.009700 -0.217132 -0.056127 -0.471827 0.442991 -0.396426 -0.320026 0.102567 -0.034557 0.100408 -0.755560 0.281728 -0.014892 0.559353 -0.218657 0.465656
P200 0.426962 -0.101779 0.687289 0.309320 -0.099294 -0.172296 -0.407067 0.051348 -0.272634 -0.325592 0.421558 0.267735 -0.240103 0.439197 -0.112748 0.185167 0.778743 0.865713 0.661221 0.529231 -0.310348 0.192550 0.180303 -0.393085 0.040566 0.051872 0.167139 -0.584899 0.161082 0.034217 0.029689 0.464850 0.200169 -0.611952 0.422563 0.048078 0.090350 0.137152 -0.288405 -0.409381 -0.534114 -0.399176 0.220693 0.359272 -0.370836 0.102316 0.531670 0.479616 -0.050531 -0.073346 0.498913 0.126403 0.006581 0.055764 0.039225 0.711507 -0.086257 -0.374665 -0.576509 -0.248874 0.146404 0.159768 0.122353 -0.265117 -0.080884 -0.010687 -0.432402 0.323321 0.268422 0.093019 0.147437 0.309620 -0.338489 -0.034043 0.380695 -0.259087 0.103016 0.358601 0.094807 0.053771 -0.098043 -0.125508 -0.619482 0.134591 -0.385877 0.438409 0.608461 0.103196 -0.237447 0.188104 0.536961 0.398808 -0.155512 -0.236204 0.313125 0.154461 -0.573863 0.075096 -0.548876 0.088012 0.104677 0.235862 0.066098 0.264401 0.136582 -0.274757 0.408642 -0.033214 0.349344 0.073508 0.347330 0.416430 0.626730 0.471555 -0.060874 0.344011 0.769230 0.064259 0.352687 0.272903 0.011078 -0.020136 -0.111121 0.047268 0.109219 0.264083 -0.605400 -0.386916
H123 0.558991 0.324626 0.164780 0.350907 -0.149920 -0.135454 -0.589323 0.203927 -0.746234 -0.259990 0.197058 0.141245 -0.146878 -0.178163 0.183173 0.275294 0.442828 0.002625 0.445337 0.704984 0.071133 0.275166 0.122945 0.127512 0.560910 0.173770 -0.188813 0.111115 0.380220 0.063799 -0.087599 0.639157 -0.248286 -0.352227 0.146183 -0.639224 0.386112 0.562065 -0.013792 -0.548524 0.043607 -0.105548 0.542807 0.497694 -0.462387 0.621044 0.002622 0.298263 -0.016735 0.094164 0.331330 0.601239 0.295873 0.359274 -0.045077 0.267970 -0.965788 -0.107457 -0.247029 -0.807401 0.532258 0.051801 -0.380777 -0.066764 -0.234622 -0.238726 -0.745978 -0.216170 0.762052 -0.542295 0.021807 -0.188440 -0.477775 0.516628 0.161538 0.307123 0.411730 -0.378267 0.760554 0.036216 0.457331 -0.173842 -0.564011 0.355640 -0.354891 -0.504402 -0.023505 0.114973 -0.766057 -0.406715 -0.307669 0.122994 0.070207 -0.208991 0.269052 -0.334969 -0.312010 -0.792871 0.027877 0.085559 -0.070047 -0.511928 -0.155831 -0.025579 -0.092000 0.180212 0.546919 -0.202675 0.128062 0.122394 0.120443 0.212352 0.238208 -0.123386 -0.093045 -0.048294 0.288925 -0.018126 -0.164321 0.256903 0.081478 0.190352 0.221190 -0.486965 -0.136242 0.091557 -0.045793 0.429278
H57 -0.443861 -0.076061 0.168691 0.161013 -0.823766 0.540155 -0.041849 0.168212 -0.786099 -1.055701 0.479849 0.528076 0.099214 0.208943 -0.787418 -0.294559 0.797965 0.472887 0.950641 0.801001 -0.235104 -0.257281 0.648688 0.226954 0.305790 0.402542 0.223449 0.474798 0.866872 0.377022 0.072003 0.554473 0.064091 -0.635200 0.643024 -0.283688 -0.287248 0.179158 -0.495602 -0.067763 -0.327286 0.839675 0.407321 -0.025198 -0.459804 0.660228 1.130842 -0.107419 0.231410 -1.056154 0.530252 0.684293 0.502354 -0.437818 0.081530 0.268748 -0.380368 0.191998 -0.449580 -0.229593 -0.187855 -0.336139 -0.555138 0.377993 -0.653237 0.436704 -0.657521 -0.537105 0.644069 -0.415213 0.754950 0.017237 -1.094000 0.104764 0.153135 -0.412792 0.590601 0.152128 0.112652 -0.052432 0.145647 0.078917 -0.253983 -0.212252 0.139292 0.213421 0.760443 -0.045040 0.415048 -0.448725 -0.455231 1.026717 0.431359 -0.505920 0.102113 0.096732 -0.311594 -0.395165 -0.325585 0.484363 -0.143641 -0.395055 0.052112 -0.187367 0.405692 0.302413 0.773895 0.123844 0.205720 0.307881 0.285663 0.626634 0.371967 0.288957 -0.319889 0.114265 -0.324162 0.211032 0.192281 0.107560 0.022287 0.118359 0.136001 -0.264678 0.456580 -0.052424 -0.131357 -0.222387
H127 0.589454 -0.092793 -0.041757 -0.027390 -0.204986 -0.185043 0.291445 0.041930 -0.424202 -0.585104 -0.106372 0.002848 -0.012740 0.119811 0.680498 -0.266338 0.245003 0.455052 0.180349 0.993987 -0.580876 -0.110972 0.206965 0.548084 0.290551 0.293265 -0.294119 -0.221183 0.498379 0.188027 -0.255347 0.443305 0.079436 -0.790077 -0.043609 -0.798140 0.013763 0.187733 0.225880 -0.242383 -0.310385 -0.085814 0.274279 0.334138 -0.907179 0.592617 0.214423 0.758941 0.324873 -0.132883 0.545703 1.110456 0.472029 0.958464 -0.405434 0.147633 -0.618674 -0.253418 -0.480219 -0.988106 0.494353 0.086854 -0.407066 0.225480 -0.155982 -0.372765 -0.928541 0.273975 0.672312 0.011397 -0.130769 -0.468326 -0.550762 0.226238 0.438409 0.181689 0.400485 -0.106222 0.730456 0.166601 0.370396 -0.389879 -0.727775 0.492789 -0.041836 -0.380075 0.260219 0.180399 -0.839842 -0.093482 -0.243875 0.371232 -0.636864 0.127708 0.372158 -0.309737 0.013030 -0.373706 -0.002707 0.063762 0.053619 -0.067336 -0.172864 0.081895 -0.056492 0.206559 -0.088167 -0.059017 0.442968 0.204692 0.263263 0.314368 0.242172 -0.269879 -0.105499 -0.427121 0.222882 0.038707 0.348761 0.449645 -0.571467 0.188764 0.464644 -0.373856 0.003993 0.385875 0.395013 0.472187
H166 0.291843 -0.297594 -0.090075 0.458331 -0.767570 0.739372 -0.117720 0.264822 -0.732235 -0.454764 0.413294 0.301002 -0.357975 0.640555 0.267785 -0.519683 -0.077288 1.287695 0.422559 0.546769 -0.158833 0.011257 0.573115 0.209186 -0.638033 -0.175396 0.060255 -0.235663 0.550198 0.603820 -0.047515 0.691903 0.037539 -0.860994 0.038050 -0.519839 0.107762 0.424794 -0.201830 0.216037 -0.350576 0.378103 0.032151 0.462120 -0.100069 -0.002660 1.281091 0.673860 -0.172815 -0.688284 0.532290 0.624660 0.429344 0.411878 -0.272990 0.440228 -0.388984 -0.584395 -0.381278 -0.664034 -0.005018 0.018070 0.117491 0.399553 -0.000088 0.232025 -0.097170 -0.608293 -0.052488 -0.087264 -0.261510 0.141952 -0.282531 0.649790 0.644888 -0.415904 0.055630 0.433739 0.175502 0.027178 -0.525283 0.218674 -0.095232 -0.138248 -0.291288 -0.169503 0.696427 -0.017888 -0.558231 -0.067291 0.468268 -0.495094 -0.621692 -0.279682 0.347740 0.309564 -0.103890 0.019427 -0.272468 -0.222948 -0.118294 -0.503812 -0.602437 -0.598795 -0.018159 -0.075295 0.553484 -0.057537 0.062480 0.050256 0.102976 -0.195808 -0.169173 -0.194304 -0.376536 0.148653 -0.168977 0.085513 0.189491 -0.304924 -0.334673 0.046597 -0.212956 0.126124 0.073571 0.187662 -0.238300 0.666096
H12 -0.109871 0.081964 0.008951 -0.639204 -0.648289 1.053914 0.250453 0.156593 -0.172782 -0.687923 0.186256 -0.186752 -0.437617 0.966358 0.270794 0.429430 0.491486 0.867483 0.340964 0.836412 -0.565379 0.328902 0.373001 0.751432 -0.014403 0.760330 -0.434378 -0.457616 0.416175 -0.003072 -0.279754 0.138805 -0.342415 -0.677902 0.184831 -0.008408 -0.725624 -0.380647 -0.295630 -0.090348 -0.608636 0.696802 0.445176 -0.113099 -0.371078 0.541492 0.433189 -0.003888 0.247604 -0.535993 0.181143 0.032415 0.058877 -0.081356 -0.012183 0.342731 -0.342637 -0.119277 -0.648641 -0.377651 0.562569 -0.073883 -0.549074 -0.703650 -0.627290 -0.218807 -0.649116 -0.691168 0.453266 0.342267 0.628261 0.330047 -0.850661 0.235296 0.430505 -0.611273 0.811993 0.308583 0.205055 -0.037830 0.244689 -0.189778 -0.622129 0.565484 0.223236 0.310002 0.362134 -0.273505 -0.681518 -0.457817 -0.258996 0.749211 -0.583067 -0.720076 0.503505 -0.233053 0.002431 -0.885408 -0.904843 -0.052985 0.616272 0.081813 -0.068128 -0.573899 0.894323 0.055258 0.026024 0.078517 0.559292 0.608506 0.373201 0.739579 -0.218782 0.650568 -0.431620 0.259893 0.257029 0.281462 0.095432 0.630953 -0.777951 -0.102111 0.266079 0.220287 0.366188 0.452268 -0.714242 -0.170672
H14 0.507626 0.100289 0.464307 -0.386799 0.346999 -0.127594 0.191471 0.209233 0.020926 0.749678 -0.531720 -0.186610 -0.866422 0.321883 -0.403647 -0.241960 0.063592 0.643691 -0.456958 0.634279 -0.288701 -0.035483 0.545585 1.072170 -0.248854 -0.052302 -0.387223 -0.410856 0.573300 0.589121 -0.071288 0.259245 -0.686846 -1.016870 -0.216979 -0.594800 -0.293660 -0.186237 0.529942 -0.253721 0.088671 -0.042815 0.148174 0.315887 -0.259030 0.844700 -0.175475 1.037937 -0.572108 -0.320570 -0.270926 0.775143 0.821776 0.325353 0.653255 -0.186532 -0.206027 -0.074622 -0.726754 -0.631216 0.191512 -0.238813 -0.290927 -0.191418 0.039668 0.706874 -0.674870 -0.508954 0.878542 0.303265 0.193967 0.434640 -0.589090 0.107844 0.375318 -0.958959 -0.417175 0.138912 -0.238874 0.576928 -0.303711 -0.415563 -0.879854 0.555525 -0.283878 -0.145600 0.291280 0.208837 -0.471477 -0.211829 0.548015 0.521591 -0.828123 0.165082 -0.456160 0.656776 -0.618102 0.735494 -0.671668 -0.464550 -0.292857 0.139621 0.337457 -0.818070 0.260421 -0.423700 0.493006 0.015838 0.544546 0.201166 0.592835 0.911562 -0.026631 0.241700 0.132110 0.272408 0.946336 0.034660 -0.366653 -0.189943 0.089558 -0.232874 0.318131 -0.128684 0.476274 0.553295 -0.098883 -0.210771
H21 0.431565 0.851700 0.020137 -0.014554 -0.182698 -0.194937 -0.350232 0.015499 -0.349677 0.319782 0.138242 -0.556457 -0.617235 -0.109305 -0.464837 -0.085122 0.709603 0.235876 0.700272 0.700428 -0.099257 -0.410201 0.514100 0.171582 -0.163948 -0.140348 0.232137 -0.647174 0.371222 0.489608 0.263209 0.521871 -0.307637 -0.368395 -0.006357 -0.883180 -0.484037 0.031570 -0.324542 -1.052743 -0.341801 0.174772 1.255136 0.033808 -0.313423 1.311769 0.844302 0.599569 -0.246295 -0.685991 -0.098206 0.563349 0.711107 0.678775 0.549520 0.546358 -0.308305 0.045924 -0.252771 -0.263257 -0.039251 -0.422716 0.038294 -0.254017 -0.521330 -0.070670 -0.731807 -0.557766 0.704834 0.190074 0.221835 0.248820 -1.300876 0.631698 0.326004 -0.722365 0.400634 -0.014695 -0.222147 0.655840 0.497818 -0.449066 -0.449227 -0.375758 -0.516336 0.040533 0.100592 -0.140059 -0.286390 0.072692 0.071747 0.269449 -0.202479 0.187416 -0.431165 -0.164097 -0.234957 -0.191473 0.290488 0.188197 0.105009 -0.082874 0.717378 -0.619936 -0.389536 -0.665278 0.434394 0.070766 0.536085 -0.109044 0.325265 0.994617 0.345550 -0.002351 -0.171514 0.123389 -0.560048 0.691874 0.828742 0.264632 -0.256876 0.191740 0.279101 -0.186422 0.018631 -0.095467 -0.458793 -0.067191
H220 0.429063 -0.074771 0.096021 0.315400 -0.300984 0.158500 -0.227819 0.276302 -0.219530 -0.356236 0.330663 0.264448 -0.396274 0.163319 -0.141899 0.028661 0.538347 0.641257 0.438550 0.601725 -0.292935 0.273212 0.515372 0.259214 0.122901 -0.107541 -0.211085 -0.355838 0.710461 0.303770 -0.046806 0.608416 -0.277787 -0.668536 0.158925 -0.074719 0.100657 -0.029857 -0.256835 -0.417114 -0.340655 0.151275 0.353200 -0.056475 -0.140705 0.649766 0.250236 0.539198 -0.125459 -0.445954 0.017953 0.653879 0.534950 0.160029 0.137136 0.471235 -0.533563 -0.117933 -0.381295 -0.499656 0.171893 -0.248895 -0.173321 -0.028641 -0.461407 0.238199 -0.505520 -0.308068 0.541999 0.034700 0.252683 0.131095 -0.413219 0.489113 0.171730 -0.395729 0.315799 0.126772 0.336924 0.262768 -0.106940 0.083614 -0.548630 0.238892 -0.141603 0.107508 0.328179 0.133079 -0.275909 -0.452983 -0.067109 0.391525 -0.376588 -0.150591 0.144821 0.210913 -0.329252 -0.087051 -0.292736 -0.107575 -0.090339 -0.422753 0.026132 -0.303386 0.215146 -0.226014 0.295566 0.085773 0.325496 0.105651 0.359488 0.203220 0.015976 -0.081025 -0.023418 0.027723 0.393271 0.008601 0.031878 0.037994 -0.069321 -0.113381 0.149384 -0.000165 0.078621 0.403455 -0.130167 -0.034296
