1622 128
H79 -0.009348 0.149139 -0.119225 -0.010401 -0.190295 -0.044408 -0.223200 -0.097402 0.254612 -0.332303 0.131400 0.053544 0.106605 -0.088648 0.160846 0.157134 0.075584 -0.076806 -0.196370 -0.099793 0.452876 0.014546 0.253796 0.085931 0.326709 0.376100 -0.172534 0.049945 -0.239288 0.109598 -0.302146 -0.104593 -0.433827 0.159656 -0.562618 0.257427 0.388421 -0.047847 -0.145037 0.013034 0.063810 0.159215 -0.070817 0.098700 -0.300076 -0.331074 -0.096727 -0.034052 -0.170606 0.005431 -0.105143 -0.044858 -0.104330 0.440355 0.053177 0.010533 -0.019461 -0.130493 -0.200867 -0.047668 0.419896 -0.057084 0.320849 -0.286783 0.365785 -0.023557 -0.599471 0.335080 0.095159 0.490195 0.004005 -0.258648 -0.183631 0.170867 -0.681417 0.092676 -0.055219 -0.405762 0.041255 -0.050097 -0.079988 0.556427 0.025850 0.350403 -0.080876 -0.033911 -0.151780 0.338279 -0.527746 0.025799 -0.062901 -0.125629 0.389393 -0.315412 0.388974 -0.293388 -0.071230 -0.180075 0.273437 0.020453 -0.185847 -0.218439 -0.566467 -0.022626 -0.188481 0.633296 -0.404426 -0.156783 -0.110228 0.223600 -0.015250 0.107323 -0.568582 -0.246565 0.231781 0.246631 -0.065893 0.625473 -0.198601 0.247623 -0.455581 -0.257122 -0.027989 0.141553 0.287814 -0.317090 -0.024092 0.473658
H95 -0.301656 -0.125196 -0.582938 0.225806 -0.049983 -0.151819 -0.460822 -0.513334 0.457425 -0.409382 -0.039143 -0.204765 0.394996 -0.149712 -0.066086 0.739544 0.291216 0.270287 -0.034966 0.029780 0.411326 -0.064298 0.512487 0.393832 -0.010809 0.302324 0.106513 -0.114752 -0.256866 0.305547 -0.539959 -0.589644 -0.385458 -0.098783 -0.271155 0.130687 0.492567 -0.129780 0.115693 -0.032692 -0.192092 0.204303 0.162202 -0.173466 -0.423766 -0.281152 -0.066385 0.589522 -0.334408 0.043990 0.199499 0.048248 -0.192797 0.371914 0.314519 -0.288838 0.388546 0.428343 -0.394041 0.029457 -0.080356 0.099273 0.202292 0.136575 -0.230289 -0.239734 -0.288014 -0.396656 0.355063 0.595993 0.231622 -0.262783 -0.364641 0.164303 -0.439687 -0.162684 -0.155011 0.416292 -0.167514 0.064571 0.111829 0.330839 -0.009973 0.092622 0.158820 0.526890 -0.047314 -0.087966 0.088043 0.291621 0.031659 0.343326 0.229143 -0.580653 0.068566 0.190638 0.265949 -0.280069 -0.040665 -0.040202 0.764732 -0.018298 0.000093 -0.117208 0.532256 0.375622 -0.080906 -0.317911 0.255060 0.050233 0.401536 -0.005879 -0.002985 -0.585295 0.074927 0.433169 -0.185228 0.389803 0.035304 0.114737 -0.078206 0.217119 0.302683 0.048310 0.214769 -0.168891 0.255849 -0.010440
H209 0.144951 -0.327207 0.075547 0.101665 0.301612 -0.571195 -0.338666 -0.238109 0.077946 0.300460 -0.148531 -0.544631 -0.501597 -0.697398 -0.022864 0.599446 -0.589911 0.002561 -0.202963 -0.211534 0.450800 -0.365733 0.337156 -0.047840 0.105457 0.408339 0.013985 -0.303779 -0.256263 0.588094 0.078206 -0.250786 -0.402522 -0.049920 -0.494683 0.214562 0.777696 -0.166657 -0.239486 -0.335513 -0.212628 0.648662 -0.532285 -0.467162 -0.131649 0.269889 -0.285318 0.040637 -0.459033 0.365506 -0.256758 0.509754 0.472679 0.081039 0.493128 -0.043811 0.003693 -0.222981 0.450923 0.077097 0.135132 -0.471336 0.178819 -0.012293 -0.119792 0.059238 -0.045054 0.311744 0.232235 0.780778 0.117191 -0.100683 0.028947 0.478401 -0.125136 -0.332800 -0.477979 0.018085 -0.053204 0.156934 -0.041866 0.478146 -0.057715 -0.193486 -0.101106 0.239407 0.247313 0.216065 -0.316579 0.022310 0.556331 0.449710 -0.086158 -0.485174 -0.493715 0.363876 -0.125351 0.003743 0.102446 0.086940 -0.141728 0.092522 0.366550 -0.061971 0.043422 0.134749 -0.001762 0.042822 -0.191366 0.569480 0.188900 0.264571 0.302690 0.268131 0.528567 0.761070 -0.427187 0.508547 -0.195236 0.464122 0.082998 -0.348555 0.111568 0.261380 0.365431 -0.475627 0.338035 -0.157191
H191 0.121104 -0.122196 -0.238983 0.292887 -0.318230 -0.500989 -0.009359 -0.224248 0.305803 -0.233693 -0.010774 -0.118429 0.052300 -0.070233 -0.337786 0.140922 -0.097089 -0.032041 0.350045 -0.622196 0.260068 -0.195919 0.467198 0.397147 -0.174305 0.200207 0.372947 0.075704 -0.478234 0.151190 -0.362913 -0.270602 -0.072602 -0.398997 -0.001559 0.199986 0.600397 -0.301174 0.157155 -0.210525 -0.203550 0.107301 0.183800 -0.395072 0.716122 0.081053 0.586876 0.250213 -0.478154 -0.283605 -0.876191 -0.206519 -0.005799 -0.284463 -0.075938 0.431837 0.165963 -0.369984 -0.542417 -0.113693 -0.072623 -0.161671 0.373241 0.013609 0.086813 -0.072479 -0.384607 0.363337 -0.023240 0.193404 0.100640 -0.444000 0.333573 0.397407 -0.584565 0.294075 -0.651731 -0.067276 -0.137161 -0.274856 0.047940 0.397462 -0.157679 0.511864 0.127129 0.605511 0.109533 0.596056 0.376297 -0.538548 -0.217291 0.109738 0.564406 -0.248598 -0.230191 0.350022 0.248266 0.248227 0.678027 0.013460 0.077147 -0.192396 0.118942 0.121885 0.304930 0.104140 0.097928 0.189622 0.359173 0.450748 0.176018 -0.067374 -0.112501 -0.086049 -0.166811 0.655156 -0.728236 0.729817 0.203980 0.411830 0.270816 -0.579237 0.003643 0.137404 0.100116 -0.014706 0.365946 -0.112170
H149 0.586982 -0.063154 -0.267934 -0.615834 -0.187969 -0.196108 -0.182933 -0.241690 0.424687 0.506513 0.012308 -0.559682 0.288583 -0.407808 0.446458 0.268204 0.284980 0.151242 -0.180265 -0.467538 0.156666 -0.087239 0.252868 0.437040 0.584449 -0.080736 0.011764 -0.163288 -0.228727 0.530111 -0.211690 -0.022932 -0.252746 -0.512478 0.130768 0.091391 0.371843 -0.473598 0.243298 -0.006730 -0.591933 0.413361 0.189282 0.328457 0.067724 0.225173 -0.040074 0.435415 0.038628 0.122457 -0.633010 -0.032919 0.632313 0.270671 0.321722 0.288743 0.370640 0.184940 -0.192829 0.293245 0.124163 -0.246517 0.411464 0.244518 0.000968 0.087320 -0.542003 0.189295 -0.043168 0.591769 0.347260 -0.428857 0.200282 0.103127 -0.572844 -0.053535 -0.194495 0.193568 -0.311937 0.152567 0.143364 -0.336798 -0.187298 0.039035 0.093859 0.553984 -0.294487 -0.009117 -0.649891 0.019522 -0.055757 0.198556 0.469539 0.354042 -0.344192 -0.380982 0.017206 0.215532 -0.023597 0.043802 0.656523 0.130673 0.135654 -0.014406 -0.288495 -0.153193 -0.380136 -0.318465 0.408594 0.044608 0.065862 0.191379 -0.428336 0.025701 0.707457 0.359921 -0.100952 0.838839 0.010999 0.834633 -0.333353 -0.288104 0.475043 -0.090647 -0.128651 0.085943 0.465015 -0.094626
H87 0.492522 -0.412179 0.061966 0.237455 -0.184053 -0.287058 -0.212143 -0.341345 0.389895 -0.557975 -0.181870 -0.328590 -0.085654 -0.374200 0.328509 -0.061168 0.664952 -0.000831 0.168580 -0.194265 0.112685 0.149929 0.000260 0.188880 0.096659 0.212218 -0.175967 0.114785 -0.476508 0.401812 -0.398256 0.024968 -0.592999 0.010368 -0.149972 0.142622 0.586684 -0.439908 -0.160567 0.372548 -0.209517 0.021887 -0.136535 0.045799 -0.348706 -0.234261 -0.314699 0.187451 -0.645440 -0.007597 -0.122806 0.112669 0.312775 0.211114 -0.206594 0.504535 -0.119292 -0.331555 0.055682 -0.146224 0.254370 0.059499 0.443747 -0.008688 0.173060 -0.057223 -0.288325 0.543944 -0.653671 0.449067 0.055086 -0.463126 0.174500 0.342808 -0.931982 0.031022 -0.127875 -0.187402 0.222389 0.357742 -0.357277 0.167048 -0.050528 0.173785 -0.012877 0.177360 0.172851 0.395848 -0.231367 0.301307 0.027413 0.165089 0.142911 -0.161256 0.380931 -0.378682 -0.296679 -0.080728 0.626521 -0.708619 -0.067991 -0.292838 -0.272949 0.036569 0.140817 0.581267 -0.722956 -0.186880 -0.063758 0.092971 0.102765 0.131846 -0.661731 0.218917 0.386661 0.747314 0.192996 0.220256 0.105228 0.169927 -0.119938 -0.277241 -0.353560 0.381552 0.701903 -0.342132 0.373280 0.375757
H89 -0.143008 0.296686 0.063594 0.038396 -0.035557 -0.627269 -0.572575 -0.236145 0.040281 -0.145045 -0.180870 -0.165446 0.145507 -0.428470 0.417991 0.273195 0.026190 -0.404391 0.060035 -0.108152 0.871595 0.072959 0.354979 -0.285814 0.212850 0.620072 0.224682 0.193618 -0.731599 0.055537 -0.301740 -0.285959 0.112944 0.053858 -0.216224 0.041707 0.538502 -0.009483 0.083067 -0.220571 -0.007850 0.231660 -0.083093 0.149955 -0.462010 -0.083733 0.113257 0.214728 -0.249633 0.252934 -0.070440 0.199855 0.055410 0.632625 0.206850 -0.034833 -0.112395 -0.249620 0.052873 -0.466336 0.564367 -0.085024 0.014228 -0.268035 0.129195 -0.142216 -0.317017 0.688491 0.243633 -0.077633 0.034399 -0.375657 0.052639 -0.075986 -0.723696 0.711830 -0.388198 -0.498129 0.033954 0.035577 0.181999 0.406448 0.076385 0.202595 0.125983 -0.032809 -0.054750 0.132964 -0.549136 -0.134981 -0.304003 -0.159148 0.445988 -0.154552 0.004584 -0.291762 -0.025140 -0.157176 0.629547 -0.080423 0.176712 0.129979 -0.282602 0.322504 -0.130269 0.578662 0.190048 -0.391012 -0.002942 0.721096 -0.310946 -0.042901 0.083311 -0.402320 0.448389 0.548375 -0.050180 0.598940 -0.338901 0.420367 -0.059796 0.024718 0.377703 -0.228900 0.204821 -0.226283 0.461324 0.499702
H106 0.112190 0.048004 0.129683 0.267422 -0.254145 -0.465868 -0.837955 -0.474915 0.657902 -0.249641 -0.202412 -0.451857 0.327117 -0.551954 -0.135496 0.941001 -0.089088 -0.501657 0.391163 -0.062520 0.072410 0.212540 0.305473 0.503197 0.353927 0.656889 0.021035 0.572755 -0.390081 0.191457 -0.576283 0.049439 -0.229305 -0.296763 0.055462 0.037977 0.104236 -0.466055 -0.154989 -0.278439 -0.614125 0.020517 -0.022142 0.085082 0.043588 0.157695 0.103614 -0.240350 -0.691578 0.381813 -0.691483 0.148829 -0.120483 0.047285 -0.081836 0.121520 -0.270929 0.142606 -0.635534 -0.036397 0.392297 -0.044163 -0.043715 0.266824 -0.238230 -0.193662 -0.435495 0.188613 0.509869 0.108152 0.287623 -0.098168 -0.207490 0.637157 -0.204835 -0.153430 -0.611788 -0.114661 -0.602683 0.073883 0.512482 -0.181564 -0.168241 0.113579 -0.323541 0.432983 0.406405 0.164118 0.238744 0.232816 -0.262293 0.545922 0.487623 -0.088787 0.402536 -0.079413 -0.275506 -0.253642 0.610758 0.397321 -0.216113 0.189080 0.399936 -0.313364 0.197204 0.581003 -0.438780 0.187299 -0.146458 0.557370 0.134361 0.567876 -0.174570 0.460014 0.386141 0.692146 -0.362095 0.150658 0.362387 0.711360 -0.188682 -0.218756 0.249293 -0.384952 0.668087 -0.445711 0.702047 -0.207692
H20 0.005028 -0.407020 -0.490946 0.621153 0.121843 -0.922866 -0.169544 -0.929768 0.421152 -0.278006 -0.241599 -0.296447 0.228699 -0.182403 0.123395 0.576217 -0.278965 0.120885 0.114660 -0.229339 0.098868 -0.659830 0.719958 -0.486799 0.218945 0.009677 0.049630 -0.066678 -0.079028 0.376442 -0.614257 -0.170384 0.504610 -0.400582 -0.402045 -0.170092 0.604603 -0.280481 -0.390254 -0.303671 -0.858884 -0.104088 -0.037386 0.007713 -0.086572 -0.448232 0.262411 0.541680 -0.789130 0.265897 0.238139 0.109563 -0.294672 0.281506 -0.081278 0.403829 0.278813 -0.642597 -0.384215 0.171713 0.115134 0.085219 0.771325 0.033456 -0.032135 -0.604520 -0.502871 0.597347 -0.033518 0.660715 -0.292540 0.021532 0.124305 0.612724 -0.269881 0.179077 0.109107 0.535043 -0.309732 0.028900 0.444052 0.203286 -0.602433 -0.476683 -0.089165 -0.298393 -0.469366 0.346189 -0.141781 0.205949 0.296430 -0.283386 0.125931 -0.009477 0.136511 0.146842 -0.416120 -0.058913 0.228604 0.183476 -0.041921 0.197119 0.214501 0.280653 -0.462631 0.539027 -0.413876 -0.170921 0.138002 -0.005632 -0.015153 0.593870 0.057886 -0.185159 0.734075 0.731540 -0.341151 0.530585 0.134636 0.328637 -0.151833 0.140644 0.240284 0.264860 -0.068901 0.051446 0.561570 -0.024658
H1 0.252133 -0.355410 -0.486006 -0.079105 -0.724154 -0.561887 -0.317156 -0.324509 0.227522 0.607487 -0.123012 -0.091206 0.026507 -0.126616 0.567867 0.194637 -0.468421 -0.387095 -0.132112 -0.081658 -0.032224 -0.638370 -0.003686 0.517763 -0.171710 0.493731 0.626695 -0.090045 -0.285787 0.693836 -0.348554 0.266282 -0.779251 -0.432224 -0.424457 0.351474 0.774964 0.133166 -0.265404 0.146315 -0.593561 -0.323687 -0.529984 0.109377 0.160730 -0.134673 -0.419143 0.440755 -0.331200 0.362757 -0.179279 -0.047303 0.143158 0.525203 -0.343805 0.128139 0.519428 0.296859 -0.343538 -0.240080 0.502937 0.294878 0.332284 0.083944 -0.138079 0.197032 -0.100483 0.267597 0.120172 0.383050 -0.182304 -0.306607 0.327119 0.303947 -0.299880 0.415532 -0.571020 0.454383 0.058184 -0.437793 0.119262 -0.135529 -0.267107 0.320837 -0.351786 0.392233 0.681124 0.411114 -0.001023 0.031129 -0.318240 0.452293 0.226571 -0.132822 0.356384 0.257709 0.126761 -0.227277 -0.132786 -0.195589 0.180777 0.368169 0.387387 -0.471224 0.130270 0.812204 0.258895 -0.320021 0.396798 0.175730 -0.081472 0.491784 -0.363133 -0.020413 0.436410 0.875557 -0.102789 0.595261 -0.445655 0.316170 -0.013733 0.145312 -0.126780 -0.175343 0.291384 0.026419 0.531415 -0.100674
H165 0.245303 -0.314184 0.120728 0.250385 -0.480899 -0.170572 -0.318841 0.068436 0.327374 -0.286533 -0.084948 -0.217806 -0.064098 0.162227 -0.065976 -0.009617 -0.257004 0.274148 0.408651 -0.184600 0.542993 -0.344444 0.517525 0.207637 -0.111068 0.375340 0.751877 0.149315 -0.808920 0.417033 -0.336228 0.184393 -0.342562 -0.598174 0.117778 0.100168 0.237279 0.253533 0.108081 -0.009776 -0.594093 -0.002326 0.061183 0.382357 -0.473404 -0.077060 0.349592 0.225760 -0.211209 0.439197 -0.422118 0.736792 -0.159761 0.519818 -0.077367 0.651359 -0.075525 -0.740001 -0.321246 -0.131831 0.245581 -0.237270 0.782083 0.406868 -0.233547 0.322132 -0.640680 -0.400314 -0.141324 0.260335 0.089776 0.064170 -0.186341 -0.034714 -0.269438 -0.122023 -0.323555 0.536098 -0.149647 0.027132 0.084235 0.319433 -0.199921 -0.470477 -0.013616 0.397258 0.211874 0.154505 -0.497322 0.234198 0.253948 -0.137309 0.125467 -0.455771 -0.185431 0.426511 -0.279774 -0.530141 -0.048915 -0.212442 0.327074 0.351602 -0.146831 -0.235120 0.385772 0.327797 0.075064 -0.621697 -0.026706 0.568310 0.309546 0.313343 -0.384307 0.532303 0.221043 0.896402 -0.908638 0.369079 -0.127697 0.397766 -0.738442 -0.656108 0.406249 -0.134420 0.120222 -0.108668 0.657745 0.084510
H111 0.206034 0.001705 -0.407508 -0.427744 -0.379453 -0.358211 -0.022288 -0.708396 0.363363 -0.349598 -0.065616 -0.169064 0.557471 -0.062339 0.143017 -0.058375 -0.455913 -0.141168 0.409034 -0.542937 -0.101349 -0.837390 0.462738 -0.059958 -0.206136 0.777313 0.294771 -0.364995 -0.329069 0.263297 -0.684253 0.018361 0.434402 0.192523 -0.276252 0.512824 -0.498194 -0.102965 -0.462511 -0.055153 -0.967410 -0.131802 -0.335646 0.227276 -0.125346 0.017774 -0.019077 0.314251 -0.034639 -0.388457 -0.557432 0.411880 0.087417 0.294361 0.220777 0.119078 0.183239 -0.331564 0.125390 0.011977 0.084651 0.165002 0.347273 -0.264138 0.009678 0.267582 -0.035596 0.276094 -0.105530 1.435148 -0.224571 -0.492328 -0.304560 0.044137 -0.407093 0.575909 0.244425 -0.045115 -0.673686 -0.208829 0.309930 0.461711 -0.084978 -0.252823 -0.019324 0.026607 0.128095 0.145492 -0.137550 0.187548 -0.228281 0.511261 -0.206753 -0.257715 0.510951 0.088332 -0.271240 -0.220960 0.096428 -0.215252 0.317188 0.196922 -0.064970 -0.336513 0.021666 0.236189 -0.422576 0.036659 -0.133721 0.794758 -0.068708 0.413653 -0.135067 -0.348893 -0.097002 0.516480 -0.882669 0.825476 0.917794 1.030711 -0.476436 -0.322063 -0.123500 0.247867 0.132900 -0.361683 0.554141 -0.192505
H25 -0.062367 -0.187821 0.109152 -0.513136 0.125118 -0.703392 -0.472432 -0.045026 -0.120236 -0.165268 0.051105 -0.497080 0.044379 -0.254225 -0.365109 0.479638 0.207803 0.277161 0.108534 -0.310294 0.460097 -0.508289 0.852028 0.296799 -0.040981 -0.065316 0.139339 -0.172762 -0.285233 0.284802 -0.058891 0.240899 -0.230816 -0.174075 -0.440635 0.266856 0.004112 -0.322480 0.199983 0.555319 -0.924529 0.200984 0.085724 0.158662 -0.092532 0.290139 0.398548 -0.209745 -0.690077 0.015773 -0.216506 -0.287387 0.053680 0.192425 -0.277128 0.144833 0.828190 -0.248884 -0.480016 -0.300241 -0.079679 -0.474266 0.302574 0.073931 -0.131163 0.168958 -0.511709 0.692105 0.048397 0.205742 -0.211152 -0.651260 -0.477623 -0.153844 -0.443104 0.179007 0.493089 -0.097125 -0.609712 -0.351412 0.610349 -0.085722 -0.330163 0.281592 0.290062 0.377479 0.330366 0.192931 -0.071782 0.353426 0.061979 -0.379726 0.385243 -0.343431 -0.060303 0.035484 -0.211025 -0.126525 0.287062 -0.608609 0.662822 0.372840 0.202281 -0.343878 0.165784 0.443031 0.171007 -0.302973 -0.285813 -0.152611 0.015917 0.461222 -0.196179 0.338093 -0.195683 0.369662 -0.181924 0.536669 -0.282580 0.517222 0.372178 0.045345 0.323916 0.406743 0.394028 -0.698658 -0.014944 -0.075212
H211 -0.485016 -0.142722 -0.289681 0.092913 -0.150119 -0.450132 -0.263393 -0.348904 -0.015056 0.020466 0.067632 -0.431271 0.313891 0.211716 -0.101311 0.909887 0.175154 0.065068 -0.297583 -0.341912 0.245583 -0.035632 0.598264 0.486519 0.101997 0.240071 0.230001 0.001169 0.090733 0.570759 -0.629440 -0.679711 -0.513472 -0.317065 -0.294039 0.404723 0.584869 -0.241243 0.112246 0.008616 -0.281505 0.274021 -0.095543 -0.090449 -0.095400 -0.330207 0.171917 0.553509 -0.380981 -0.184823 0.300434 -0.172999 -0.208165 0.143595 0.011486 -0.431907 0.372972 -0.036817 -0.061725 -0.141687 -0.060405 -0.160074 0.152988 0.074269 -0.278570 0.034306 -0.157246 -0.187902 -0.032159 0.278578 -0.024826 0.156891 -0.285528 0.161285 -0.467341 -0.313711 -0.334528 0.783966 -0.059578 0.383380 0.068375 0.120271 0.208098 -0.102395 0.140621 0.557095 -0.134973 -0.041464 0.316149 0.319559 -0.076196 0.436047 0.398507 -0.533140 0.011721 0.042152 0.189298 -0.425886 0.097723 0.060340 0.763092 -0.013999 0.122947 -0.373471 0.153650 0.321161 -0.286840 -0.262115 0.548922 0.610365 0.239532 0.271624 -0.073315 -0.790352 -0.233160 0.408249 -0.134639 0.271602 -0.069249 0.342959 -0.325560 0.299829 0.186802 0.124362 0.163589 -0.456788 0.419136 0.171167
H200 0.358770 -0.056030 -0.529271 0.387209 -0.383919 -0.562290 -0.949795 -0.310420 0.283684 -0.273758 -0.069728 -0.098616 -0.520695 0.069603 0.003327 0.700448 0.215880 -0.199131 0.554032 -0.613881 0.313813 -0.154123 0.629758 -0.042223 0.016642 0.625486 0.518952 -0.114526 -0.477500 0.184137 -0.366918 -0.216195 -0.491966 -0.535478 -0.708526 0.191244 0.510790 0.398260 0.621086 0.092708 -0.605771 0.733933 0.272215 0.448668 -0.275347 -0.212041 -0.220805 0.200248 -0.516633 -0.020606 0.170543 -0.583720 -0.458046 0.029054 0.059034 0.102296 0.328727 -0.432839 -0.216315 -0.130696 0.838577 0.222531 -0.132826 0.073445 -0.427190 0.017333 -0.192314 0.345936 -0.342558 0.553509 0.315417 -0.569085 0.323342 0.675919 -0.181170 0.489009 0.144334 0.351953 0.269966 -0.097489 -0.037275 0.406400 0.293965 -0.063824 0.450290 0.976542 -0.549413 0.733566 -0.745430 -0.207168 -0.060261 0.212538 0.307119 -0.581883 0.436892 0.354016 -0.100261 -0.056404 0.278074 -0.310671 0.939884 -0.163134 -0.316134 0.306832 0.417998 0.427257 -0.209797 -0.577717 -0.254696 0.609547 -0.435112 0.171445 -0.369532 -0.779904 -0.429804 1.402629 -0.226471 0.538137 -0.076843 0.701135 0.575420 -0.591526 -0.775309 0.303813 -0.189369 0.229092 0.040764 0.455105
H126 0.673600 0.162850 0.098810 0.382481 -0.020651 -0.547938 -0.508781 -0.280543 0.415131 -0.210414 0.004125 -0.118467 -0.014039 -0.282243 0.295698 0.297964 0.464347 -0.367631 0.067825 -0.240431 0.097801 -0.371401 0.422756 -0.031587 -0.249656 0.409299 -0.268867 0.185910 -0.402351 0.761639 -0.409271 -0.029638 -0.416218 -0.062611 -0.470020 0.011453 0.633025 -0.043883 0.127547 0.180052 -0.550374 0.398254 0.312720 0.066914 -0.390566 -0.071679 -0.281773 0.150243 -0.349518 -0.364287 0.022264 0.273344 -0.069118 0.888842 -0.046791 0.689887 -0.210133 0.060740 -0.286736 0.286244 0.134359 0.304274 0.285170 -0.599889 0.023174 0.301325 -0.260229 0.343726 -0.309878 0.541517 0.058535 -0.303972 -0.237115 0.590251 -0.601004 -0.013680 -0.424211 -0.276923 0.197303 0.276088 -0.337484 -0.090104 -0.368587 0.507135 -0.378585 0.181624 -0.206113 0.105386 -0.204164 0.503658 0.174044 0.253818 0.176089 -0.160512 -0.015063 -0.340073 -0.387578 -0.171904 0.460720 -0.434172 0.149439 0.007341 -0.624429 -0.148937 -0.076765 0.526151 -0.566349 0.059447 -0.289107 0.203266 -0.170664 0.383091 -0.489237 -0.295003 -0.172695 0.722001 -0.128066 0.436683 0.281259 0.257292 -0.428245 -0.336985 -0.160750 0.049436 0.536605 -0.784512 -0.049556 0.261139
H22 -0.371623 -0.447271 -0.043141 -0.414891 -0.009838 -0.850368 -0.628825 -0.119699 -0.144448 -0.227348 0.148623 -0.782070 0.287227 -0.203544 -0.386292 0.410506 0.196900 0.248351 0.252157 -0.398219 0.571792 -0.309182 0.627135 -0.288762 0.134855 0.038097 0.240789 0.080682 -0.564644 0.126284 -0.263771 0.379441 -0.295363 -0.184167 -0.464418 0.334072 0.237278 -0.306914 -0.046005 0.036032 -0.854657 -0.192395 0.251955 0.046509 0.166349 0.083681 0.271317 0.206541 -0.436485 -0.070663 -0.297921 -0.140732 0.218633 0.291396 -0.088873 0.152634 0.527938 -0.313309 -0.495456 -0.009981 -0.169074 -0.491987 0.485849 0.119518 -0.205046 0.207960 -0.840819 0.537125 0.226326 -0.032551 -0.185328 -0.334656 -0.650227 0.184241 -0.574968 0.088942 0.312551 -0.369512 -0.484105 0.064995 0.511602 0.117255 -0.652934 0.046342 -0.090941 0.353378 -0.016328 0.056366 0.108303 0.345128 0.258807 0.005582 0.079346 -0.152185 -0.213398 -0.127352 -0.561413 -0.093814 -0.095220 -0.612086 0.548852 0.535210 0.553330 -0.245150 0.196185 0.661462 -0.072630 -0.008226 -0.051617 0.192511 0.014428 0.433572 -0.015254 0.269119 -0.254972 0.663638 0.142823 0.423134 -0.384708 0.747526 0.123145 0.233773 0.129045 0.401581 0.401008 -0.706179 -0.171756 -0.109823
H71 -0.730056 0.023710 -0.403672 0.537418 -0.206343 -0.540759 -0.495082 -0.616414 0.716689 0.198648 0.314556 -0.609514 0.014718 -0.344331 -0.266982 0.359771 -1.002062 -0.065390 0.027422 -0.002004 0.328534 -0.419340 0.823747 0.553220 0.494682 -0.130041 0.677302 0.015401 -0.108487 0.118573 -0.056173 -0.081372 -0.808555 0.127688 -0.023745 -0.043689 0.798739 0.012415 -0.828724 -0.383835 -0.538500 -0.250547 0.012752 0.345540 -0.083896 -0.211076 0.374454 0.934931 -0.584328 -0.293986 -0.711790 0.415039 0.636952 -0.034820 0.596972 -0.223359 0.762797 -0.145198 -0.425171 0.240042 0.462556 -0.162298 0.505660 0.408457 0.524504 0.236247 -0.399701 0.035207 -0.116423 0.833211 -0.645107 -0.673932 0.117716 0.442042 -0.482209 0.170256 -0.251854 -0.241633 -0.144733 0.516477 0.140435 0.159080 0.044791 -0.083493 -0.180425 0.606195 0.145929 -0.386144 -0.458722 0.286348 0.342068 0.447673 1.147214 0.069190 0.283507 -0.396524 -0.102175 0.001195 0.666404 -0.238488 -0.042382 0.086356 0.281722 -0.806597 -0.359826 0.161023 -0.607393 -0.039539 0.135498 0.435967 0.029953 0.534553 -0.023821 -0.006202 0.544656 0.253105 -0.548267 0.279071 0.462386 0.561238 0.064758 -0.049761 0.284682 0.327643 0.568585 -0.477421 1.109458 0.449558
H24 -0.471809 -0.214321 0.267924 -0.287535 0.093457 -0.773782 -0.510883 -0.113960 0.016754 0.023015 0.386109 -0.798412 0.296642 -0.004038 -0.210180 0.352196 -0.125048 0.489134 0.067745 -0.170137 0.729853 -0.434241 0.652406 0.068529 0.332331 0.208150 0.320481 -0.167000 -0.648851 0.099445 -0.087063 0.209185 -0.199546 -0.126387 -0.299585 0.506078 0.139134 -0.312891 -0.265540 -0.243974 -0.686164 -0.483247 -0.160157 0.216469 0.344702 0.071328 0.418255 0.207457 -0.328732 0.098841 -0.516785 -0.381916 0.325174 0.303973 0.100848 0.028265 0.772495 -0.005102 -0.673496 0.035184 -0.188665 -0.450167 0.675121 0.014153 0.115079 0.084615 -0.561245 0.581711 0.199160 0.020985 -0.156930 -0.071114 -0.559952 -0.207870 -0.471239 0.213523 0.029616 -0.210637 -0.603669 -0.057527 0.523347 0.177569 -0.387418 0.248798 0.021978 0.473098 0.431135 -0.105142 0.057369 0.392236 0.321612 -0.225649 0.633160 -0.125590 -0.234982 0.025184 -0.385212 -0.013959 -0.009502 -0.330963 0.351530 0.872151 0.429061 -0.102730 0.068445 0.321895 0.303669 -0.086221 0.194141 0.226400 0.223231 0.596388 0.147554 0.540462 0.112497 0.437241 0.042474 0.736172 -0.360871 0.919838 0.131104 0.070138 0.294241 0.253781 0.280847 -0.711748 0.037744 -0.180130
H33 -0.851597 -0.383549 -0.557896 -0.647804 -0.575577 -0.545289 -0.436609 -0.660453 -0.066595 -0.034759 -0.266869 -0.454736 0.073605 -0.533394 -0.179187 0.697090 -0.684884 -0.203563 -0.155580 -0.049209 -0.075466 0.056872 0.917601 0.459326 0.654788 0.517960 0.778649 -0.661948 -0.335710 -0.027887 -0.721930 -0.341076 -0.028525 0.330755 0.132626 0.314079 0.394656 0.258994 -0.397679 0.828324 -0.405190 -0.029547 -0.220163 0.456349 0.025149 -0.613125 0.202968 0.321616 0.269948 -0.000123 -0.264820 0.240700 -0.022999 -0.136983 0.507750 0.287664 0.255064 -0.175098 -0.344274 -0.322415 0.180536 0.028181 0.182252 0.749144 0.442197 -0.296217 -0.822546 1.197676 0.622170 0.904102 0.574746 -0.626025 -0.151582 -0.097487 -0.250158 0.390634 -0.128096 0.676073 -0.797755 0.053200 0.166956 0.681305 0.520042 -0.146780 -0.443857 -0.080870 0.257534 0.238162 -0.195300 -0.084962 0.085931 0.700193 0.286242 -0.453223 0.541366 -0.138068 -0.281047 0.294443 -0.239069 0.518399 0.342769 0.297495 0.442746 -0.178068 0.012532 0.634127 -0.365060 -0.188446 -0.054796 0.547110 0.262215 0.691348 -0.102865 -0.134620 1.247767 0.755568 -0.287246 0.522079 -0.211229 0.445409 -0.323881 -0.099458 0.469686 0.043235 0.369918 -0.442619 0.352175 -0.276686
H30 -0.161581 -0.111749 -0.220878 0.172068 -0.204040 -0.029508 -0.706105 -0.329729 0.231918 0.274994 0.068910 -0.127187 0.262099 -0.461151 0.094930 0.309753 -0.364936 0.419194 0.082351 -0.555657 0.788632 -0.288519 0.333786 0.141509 -0.209929 0.239875 0.791436 -0.256883 0.013417 0.309876 -0.615183 0.127625 -0.107152 0.158922 0.143414 0.402981 0.638685 -0.076962 -0.445272 -0.482145 -0.711692 0.172129 -0.651480 -0.529838 -0.408220 -0.313228 0.088869 0.546122 -0.136658 0.329880 0.003039 0.138601 0.387048 0.109129 0.024747 0.306641 0.452631 -0.582948 0.235660 -0.141260 0.244449 -0.534208 0.661117 0.058625 0.722620 -0.164951 -0.163440 0.103918 0.494662 0.266996 0.244633 -0.485510 -0.294398 -0.145171 -0.821321 0.562752 0.065954 0.095702 -0.325074 -0.633659 0.681560 -0.172767 0.006596 -0.544773 -0.282919 0.760930 0.297470 0.759472 0.034677 -0.257736 0.303338 0.271622 0.630900 -0.666827 0.068944 -0.478639 -0.043476 -0.099241 0.166707 0.337964 0.471111 -0.182609 -0.138476 -0.597834 0.304047 0.368869 -0.311207 -0.121502 0.676516 0.047258 -0.180950 0.191096 0.007214 0.450919 0.436949 0.244899 -0.588700 0.675609 0.211275 0.333559 -0.394183 0.183121 0.684357 0.245759 0.464402 0.224713 0.860814 -0.441027
H147 0.498862 -0.247106 -0.267237 0.367563 -0.137652 -0.385525 -0.765171 -0.647850 -0.086383 -0.136247 0.019319 -0.518216 -0.043794 -0.782891 -0.115193 0.709707 -0.245030 0.406482 -0.335537 0.385855 -0.145925 -0.286114 0.403779 0.603574 -0.414683 0.317460 -0.132849 -0.452087 0.360372 0.554183 -0.358626 -0.345872 0.145856 -0.444468 -0.485114 0.143550 0.708707 0.265964 0.079538 0.349620 -0.836655 0.247315 0.252335 0.304571 0.301955 0.111806 -0.149790 -0.181818 -0.980366 -0.393157 -0.352414 0.554682 0.468795 0.494642 0.961691 0.180717 0.374104 -0.234708 -0.454088 0.049952 0.073262 -0.134034 0.204915 -0.102974 0.330102 0.175602 -0.309132 0.319413 -0.332654 0.210421 -0.243166 -0.532571 0.065532 0.507133 -0.771360 1.041752 -0.102059 -0.190835 -0.776492 0.230334 -0.090466 0.477525 0.346911 -0.421697 0.092654 0.131395 -0.240058 0.408901 -0.499037 -0.475402 -0.159354 0.199878 0.441418 -0.043452 0.248246 0.189616 0.216807 -0.084057 0.892365 0.346374 0.578040 -0.095868 0.474384 -0.619217 -0.598456 -0.091504 -0.194970 -0.282427 0.249562 -0.062928 0.157976 0.577911 -0.217571 0.547449 -0.035804 1.317810 -0.842864 0.202586 -0.010301 0.959052 -0.732483 -0.002739 0.159334 0.461143 0.565373 0.174200 0.228270 0.285288
H210 -0.131009 -0.452515 -0.023642 0.300944 -0.388361 -0.379758 -0.045933 -0.372430 0.208445 -0.144842 -0.013495 -0.418625 0.103158 0.299217 -0.129611 1.025999 0.177212 0.094692 -0.062304 -0.563114 0.116884 -0.031725 0.351412 0.525971 0.164081 0.796300 0.071269 0.250118 0.069175 0.723924 -0.864479 -0.527838 -0.229220 -0.582400 -0.034810 0.362847 0.449983 -0.395047 0.472993 -0.087275 -0.565820 0.674142 -0.084468 -0.129738 -0.079189 -0.532684 0.223282 0.478462 -0.501496 -0.335333 0.468581 0.234477 -0.084741 0.201801 0.074345 -0.362338 0.214639 -0.268229 0.164490 0.114776 -0.214953 -0.079739 0.025957 -0.021854 -0.216443 0.360625 -0.467514 0.160292 -0.589835 0.114139 0.361698 0.081243 0.037737 -0.101675 -0.456649 -0.243111 -0.196073 0.864696 -0.194612 0.714219 -0.304649 -0.097542 -0.193416 -0.033411 0.261080 0.383073 -0.335842 0.209616 0.106983 -0.049018 -0.102944 0.164711 0.286229 -0.810583 0.225642 -0.008943 0.303358 -0.113593 0.108923 -0.053386 0.137015 -0.300040 0.197787 0.003587 -0.179334 0.219081 -0.142674 -0.035410 0.554275 0.837823 -0.254590 0.410319 -0.164113 -0.272175 0.176979 0.643678 -0.170001 0.668269 -0.070233 0.539594 -0.749435 0.267583 0.139060 -0.084504 0.247913 -0.229037 0.329337 -0.137487
H101 0.392636 0.167757 -0.289259 -0.195972 -0.108926 -0.180812 -0.199056 -0.269261 0.257258 -0.206492 0.286979 0.121691 0.265114 0.050799 0.063533 0.451281 -0.142022 0.003248 0.035131 0.042620 0.212882 -0.361398 0.586332 0.184818 0.708094 0.588177 -0.199243 0.217358 -0.312306 0.223638 -0.113512 0.118807 -0.420967 0.033082 -0.479974 0.483792 0.433987 0.005215 -0.180515 0.272478 -0.294315 -0.036027 -0.051581 0.234543 -0.117465 -0.026363 -0.153971 -0.179318 -0.222085 0.222761 -0.303652 -0.184142 0.170565 0.112931 -0.303476 0.325805 0.269897 0.051809 -0.126605 -0.348462 0.382432 -0.109531 0.261462 -0.250066 0.709559 -0.072580 -0.801963 0.254118 -0.046953 0.213254 -0.373728 -0.027757 -0.655186 -0.194833 -0.980746 0.394467 -0.340397 -0.246358 0.105490 0.171455 -0.129285 0.630446 -0.521167 0.549136 0.039062 -0.125848 0.046301 0.166163 -0.260788 0.071394 0.031278 -0.099520 0.261393 -0.784330 0.370104 -0.284818 0.178968 -0.209513 0.109243 0.393379 -0.088465 -0.140752 -0.500149 0.006337 -0.008762 0.437813 -0.232918 -0.395554 -0.020919 0.654018 -0.143609 0.343369 -0.351201 -0.136224 0.550565 0.170029 -0.027289 0.482396 -0.054378 0.054398 -0.605214 -0.598760 -0.131217 0.407559 0.221984 -0.056793 0.114980 0.220514
H72 -0.225948 0.036019 0.664851 0.126865 -0.253951 -0.276418 -0.575042 -0.226343 0.255911 -0.106806 0.416761 -0.544155 -0.220740 -0.329681 0.042001 0.525078 -0.278130 -0.324564 0.576805 -0.210546 0.427430 -0.115424 0.564325 0.442029 -0.203412 1.175335 0.811036 0.049177 -0.861888 0.078114 0.016220 0.305346 -0.352706 0.014467 -0.221083 0.429277 -0.301988 -0.280593 -0.023502 0.590210 -0.647764 0.441888 -0.241966 -0.083986 -0.013494 -0.003024 -0.372309 -0.500946 -0.274367 -0.490153 -1.102486 0.235154 0.884498 -0.044502 0.310815 0.666915 0.146621 -0.649037 0.578724 -0.251585 0.256285 -0.496763 -0.016754 -0.372185 0.317991 0.712097 -0.260836 0.592993 -0.367489 0.535081 0.170401 -0.283556 -0.093823 -0.084309 -0.881777 0.944276 -0.647424 -0.742961 -0.564806 0.280514 -0.039708 0.236755 0.225770 0.669868 -0.184404 0.885959 0.421419 0.405396 -0.562836 -0.484545 -0.141074 0.724563 0.348053 -0.611719 0.061870 -0.551175 -0.182194 -0.166407 1.192234 0.302502 0.056762 0.159630 0.173865 -0.561282 0.135184 0.119922 0.010393 -0.179620 0.230883 1.064876 -0.264509 0.637518 -0.016464 0.555378 -0.132756 0.638049 -0.694304 0.690972 0.522681 1.377591 -0.417134 -0.650592 0.492785 0.149866 0.683732 -1.042075 0.342784 0.198239
H217 -0.249429 -0.333647 -0.040179 0.375652 -0.263441 -0.614638 0.045267 -0.711691 0.374435 0.295570 0.148472 -0.280938 0.059165 0.093109 -0.190861 0.963476 -0.478547 -0.111673 -0.454933 -0.407337 0.007798 -0.524107 0.226306 0.535400 0.206227 0.772170 0.441678 0.206059 -0.008131 0.546915 -0.684523 -0.521744 -0.274397 -0.656969 0.094551 0.421764 0.155785 -0.488451 -0.056455 -0.343589 -0.726323 0.362379 -0.010673 -0.318835 0.252150 -0.462451 0.159082 0.489679 -0.581511 -0.253193 0.150456 0.402081 -0.074076 0.360525 0.215305 -0.222335 0.272299 -0.483613 0.064007 -0.129277 -0.231220 -0.215768 -0.144636 -0.211791 0.046315 0.427570 -0.467319 0.313723 -0.617500 0.264289 0.364844 0.276392 -0.116595 -0.246684 -0.639251 0.137780 0.092032 0.583160 -0.254811 0.568755 -0.343050 0.278329 -0.255035 0.213029 0.242618 0.569272 -0.298906 -0.169819 -0.013055 -0.158420 0.073794 0.049317 0.494776 -0.407072 -0.177896 -0.312570 0.200547 0.208277 0.123401 0.236557 -0.203222 0.058735 0.131468 -0.005591 -0.401704 0.452230 -0.256484 0.402257 0.424144 0.920892 -0.442723 0.290906 -0.103669 -0.042574 0.010010 0.741592 -0.413388 0.866805 -0.068820 0.415930 -0.844641 0.280245 0.254354 -0.151180 0.294415 -0.583503 0.802970 -0.308143
H92 -0.275445 -0.069336 0.003057 0.173728 0.036428 -0.245934 -0.055109 -0.061384 0.086555 -0.220898 0.003635 -0.244722 -0.258483 0.007766 0.156960 0.406430 -0.216374 0.282706 -0.136044 0.111566 0.406511 -0.217083 0.783948 0.607156 0.349318 0.399409 0.136876 -0.476329 -0.100325 -0.095606 -0.296541 0.171360 -0.331039 -0.057186 -0.788524 0.090867 0.128895 0.049130 -0.184733 -0.251262 -0.245223 -0.191851 -0.496362 0.395822 -0.256983 -0.270691 -0.360460 0.376784 -0.657349 -0.157285 -0.496202 0.009471 0.010443 0.441806 0.219520 0.217194 0.018087 -0.537437 -0.459591 -0.647909 1.063683 0.169859 0.165396 -0.551156 0.228692 -0.167218 -0.719453 0.263087 0.420576 0.814323 -0.121794 -0.043384 -0.042654 0.257329 -0.258750 0.384507 0.219220 0.007114 0.090346 0.128042 -0.184594 0.722410 -0.251056 0.306483 -0.167870 0.156597 -0.472382 0.756490 -0.471006 -0.321072 0.154157 0.102865 -0.097608 -0.375881 0.376029 0.025396 -0.118381 0.191233 0.173574 -0.206042 0.259842 0.037029 -0.379018 -0.559558 -0.153964 0.277240 -0.416288 -0.037858 0.569167 0.383252 0.079482 0.301965 -0.408161 -0.301113 0.137675 0.345704 0.252262 0.718642 -0.123044 0.434703 -0.209593 -0.642488 -0.062850 0.723455 0.037110 -0.037729 0.076180 0.279975
H56 -0.483688 0.003718 0.151746 0.137565 -0.288335 -0.129409 0.241484 -0.449344 -0.164725 -0.344429 0.013356 -0.293455 0.298022 -0.577738 -0.057275 0.607481 0.062207 0.271923 -0.055762 0.260377 0.535344 -0.831913 0.494470 0.213382 0.253011 0.709381 -0.322834 -0.119142 -0.685609 -0.024244 -0.170203 -0.223152 0.013390 -0.474000 -0.257752 -0.032923 0.397764 -0.672389 -0.631216 0.392107 -0.346850 -0.110151 0.118509 0.556865 -0.525927 -0.199243 0.228633 0.035208 -0.069780 -0.478188 -0.575356 -0.229553 0.397744 0.188917 -0.215243 0.401347 0.438602 0.012796 0.108178 -0.185790 0.642621 0.146215 0.270225 -0.500384 -0.080762 0.208538 -0.152908 0.597830 0.550334 0.270502 0.051023 -0.760370 0.104777 0.060610 -0.384559 0.210194 -0.173618 -0.091293 -0.334567 0.034680 0.279937 -0.074821 -0.396696 -0.532781 0.282520 0.851469 0.375285 0.021683 0.430065 -0.619944 -0.275710 0.295794 0.222695 -0.749892 -0.037797 -0.200319 -0.264652 -0.435185 0.140486 0.595865 0.567792 0.009897 0.490099 0.074429 0.100456 0.669120 -0.243402 -0.545125 0.319797 0.469543 0.562064 0.298193 -0.481156 -0.091139 0.839375 1.138330 -0.393213 0.574839 -0.354843 1.002144 -0.336125 -0.791863 -0.109765 0.247183 0.214056 -0.717861 0.528141 -0.749997
H13 -0.193281 -0.448864 -0.288213 -0.116104 -0.040308 -0.972285 -0.395244 -0.865085 0.485979 -0.004151 -0.067789 -0.390612 0.107242 0.216433 0.348716 0.480893 0.292636 -0.246279 0.933498 -1.149561 0.594781 -0.006730 0.488292 -0.696622 -0.062943 0.506003 1.075658 -0.022705 -1.191921 0.758249 -0.653992 0.061698 -0.375622 0.012098 0.357795 0.513907 0.600466 -0.476294 0.133288 0.252099 -0.821974 0.331313 -0.129456 -0.330936 0.108578 -0.270563 0.311495 0.859175 0.019737 0.604667 0.205619 -0.305917 0.020167 -0.042598 -0.170476 0.484696 0.716511 -1.031654 0.115946 0.047287 -0.488112 -0.397551 0.534826 0.677305 -0.290186 0.393682 -0.550493 0.951400 -0.357871 0.452563 -0.261030 -0.596304 0.352139 -0.000969 -0.398465 0.082589 -0.475352 0.490379 -0.026045 0.311033 -0.024391 -0.362711 -0.059701 0.066116 0.480104 0.240954 0.298691 -0.033401 -0.610680 0.678635 0.395308 0.346110 0.380155 -0.143270 -0.165664 -0.290414 -0.495524 -0.199015 -0.182867 -0.203025 0.647512 0.518528 0.132244 0.710921 0.464494 0.812147 -0.315134 -0.448927 0.099283 0.670730 -0.511954 0.484742 0.288768 -0.646970 0.479710 0.535020 -0.253063 0.921534 0.395751 0.593288 -0.139612 0.067641 0.534871 -0.232889 0.229371 -0.574263 0.796180 0.055303
H208 0.134068 -0.608939 -0.312734 0.150345 -0.534663 -0.194772 0.371287 -0.576686 0.867934 -0.574545 0.019294 -0.349616 -0.214489 0.112343 0.638355 0.509691 0.558575 0.064396 0.060289 -0.330076 -0.243633 -0.420188 0.555829 0.048566 0.239243 0.674525 0.550813 -0.855549 -0.215348 0.193736 -0.330085 -0.615136 -0.020370 0.156490 -0.367898 0.313694 0.532348 -0.357282 -0.451876 0.780678 -0.647926 0.797354 -0.106950 -0.136723 -0.625967 -0.992823 -0.093449 0.240115 0.055700 -0.212867 0.084037 -0.264135 0.109694 -0.184456 0.128787 0.180879 0.389875 -0.439868 0.418135 -0.005569 0.041816 -0.012358 0.548094 -0.076343 0.041010 -0.654723 0.037859 0.577558 -0.801705 0.986774 0.183151 -0.986288 0.320832 0.454269 -1.081321 0.131874 -0.019724 0.900015 -0.414390 -0.033034 0.130764 0.360192 1.010668 -0.135739 0.397407 0.491555 0.056462 0.650536 -0.093403 -0.369331 0.426363 0.304599 0.092392 -0.932875 0.443395 -0.153034 0.125925 0.059139 0.348378 0.204106 1.162555 -0.075676 0.196358 0.759649 -0.173883 0.210254 -0.429943 -0.716670 0.353708 0.286836 0.342715 -0.114827 -0.789491 -0.552798 0.877470 0.659776 -1.176809 0.978256 0.241769 0.805976 -0.188560 -0.092565 -0.044164 0.343878 0.116656 -0.052079 0.596791 0.080082
H97 0.137061 -0.085328 -0.112608 -0.154809 -0.555520 -0.031939 -0.422761 0.103802 0.251738 -0.441767 0.226386 -0.242724 0.148436 -0.548255 0.068398 0.349802 0.511912 -0.079016 0.239976 0.115845 0.119608 0.100587 0.462339 0.396141 0.373879 0.557241 -0.088676 -0.247612 -0.412009 0.296616 -0.478131 -0.275946 -0.586126 0.046228 -0.333683 0.329142 0.202911 0.048520 -0.258575 -0.381450 -0.407191 0.326945 0.099297 -0.177590 -0.474894 -0.136985 -0.073485 0.313790 0.269098 -0.178014 -0.122681 0.394059 0.036197 0.346136 0.377127 -0.419646 0.263146 0.580751 -0.571943 -0.094897 -0.103446 -0.460046 0.482978 0.099849 0.006483 -0.647085 -0.310407 -0.089210 0.277681 0.807541 0.650623 -0.477373 -0.676119 0.314675 -0.680295 -0.162092 0.127006 0.334749 -0.314517 -0.248339 0.237766 0.889151 0.198647 0.186695 -0.289226 0.561644 0.116806 0.149755 0.044844 0.140228 -0.234863 -0.000558 0.570022 -0.644638 -0.424496 -0.363897 0.338047 -0.173955 0.253922 -0.349316 0.490186 0.042915 -0.192073 -0.117832 0.103386 0.666478 -0.153401 0.306035 0.100715 0.390403 0.651553 -0.213803 -0.415893 0.162542 0.000879 0.470161 -0.422044 0.075075 -0.241018 0.828528 -0.517563 0.030402 -0.353403 0.119203 0.332335 -0.214409 0.260863 0.149949
H177 0.652264 -0.259260 -0.428981 -0.450870 0.179903 -0.762476 -0.346135 -0.917009 -0.243837 0.013227 -0.306259 -0.254073 0.408379 -0.579717 -0.626343 0.636036 -0.370804 -0.180066 0.739074 -0.268079 0.557811 -0.517889 0.358046 -0.162135 0.280865 0.759347 0.317968 0.070478 -0.738165 0.354842 -0.143894 -0.384682 -0.485448 0.122430 0.303133 -0.124425 0.163919 0.125248 0.678892 0.412786 -0.534832 0.140068 0.527536 0.442493 -0.385660 0.103216 0.069650 0.548549 0.212471 0.316574 -0.043553 0.572195 -0.057476 0.488107 -0.185400 0.092145 0.465314 -0.330939 0.052006 0.004641 0.428244 -0.101076 0.491126 0.415726 -0.220087 0.156479 -1.425786 0.576678 0.289483 0.796632 0.002742 -0.295360 -0.138706 0.191382 -0.209353 0.173986 0.371265 -0.260733 -0.113073 -0.384137 -0.526794 -0.047841 -0.791893 0.137087 -0.512370 0.701775 0.074095 0.746495 -0.538787 0.076153 -0.357231 0.482573 0.603915 -0.268845 -0.179184 0.099901 -0.468836 0.102890 -0.077848 0.265197 0.579491 -0.414143 0.498326 -0.455172 0.370740 0.357855 -0.651730 -0.120920 -0.393211 0.227645 -0.294235 0.056635 -0.014307 0.242459 0.283840 1.201388 0.096851 0.971719 0.204792 0.966395 -0.555538 -0.561248 -0.044286 0.019919 0.748935 0.310445 0.246340 0.298033
H194 0.565611 -0.254027 -0.062490 -0.131204 -0.217759 -0.700091 -0.058965 -0.161422 0.648724 0.081007 -0.044608 -0.684687 -0.074069 -0.175143 -0.113464 0.231941 0.128844 -0.412861 -0.024756 -0.490528 -0.135282 -0.335542 0.341740 0.911727 0.008388 0.715822 0.498241 -0.316593 -1.168273 0.164293 0.156014 -0.181978 -0.190478 0.034402 -0.447482 0.616312 0.372815 0.028134 0.322073 -0.408183 -0.301494 0.049033 0.097358 0.083644 -0.059268 -0.171098 0.485153 -0.034334 -0.076370 -0.513282 -0.625610 -0.310339 -0.207112 0.307074 0.639085 -0.143870 0.336678 -0.588279 -0.563832 -0.485927 0.126131 0.080180 -0.127634 0.302728 0.039979 0.136568 -0.302456 0.659107 -0.040131 0.379406 0.055368 -0.380700 -0.068495 0.641045 -1.013906 0.365391 -0.689907 0.349639 -0.582896 0.258129 -0.609905 -0.096804 0.275403 0.332993 0.325979 0.469148 0.074204 0.771553 0.340313 0.078959 0.321754 0.163902 0.384653 -0.597310 -0.119897 -0.050397 -0.000177 0.076903 0.042989 0.114194 0.711638 0.124548 0.097235 0.152281 -0.028885 -0.062404 -0.487481 -0.458876 -0.229251 0.630997 0.285321 0.080280 0.108220 -0.170155 -0.279493 0.567522 -0.516283 0.468549 0.574385 0.422890 0.192766 -0.788448 -0.442866 -0.140863 0.212334 -0.164878 0.291662 -0.364524
H29 -0.555727 -0.133000 -0.007690 0.349606 -0.312139 -0.323998 -0.877591 -0.090840 -0.149111 0.374556 0.039456 -0.235506 -0.377215 -0.207044 -0.105876 0.543156 -0.549384 -0.023915 0.129892 -0.577920 0.723606 -0.427656 0.792371 0.020324 -0.499105 0.573122 1.071318 -0.424311 -0.119917 0.477842 -0.632448 0.171668 -0.203693 -0.053046 0.242119 0.268716 0.263613 0.171772 -0.012264 -0.527800 -1.105736 0.520331 -0.228518 -0.693510 -0.186145 -0.403379 0.243563 0.380325 -0.055174 -0.059574 0.050124 0.177177 0.545916 0.208673 0.082781 0.583531 0.644826 -0.570676 0.144854 -0.274610 0.203728 -0.444776 0.164625 0.087525 0.534121 -0.135233 -0.150478 0.190751 0.206102 0.449935 0.103291 -0.715865 -0.456764 -0.253699 -0.566542 0.765479 -0.023779 0.089365 -0.168286 -0.475209 0.845445 0.041172 0.118947 -0.447881 -0.406020 0.897293 0.367671 0.712835 0.157764 -0.297722 0.258886 0.387353 0.705713 -0.851494 0.021567 -0.710933 -0.043567 -0.057424 0.443605 0.252705 0.525600 -0.003651 -0.111123 -0.860087 0.389134 0.253054 0.027841 0.289216 0.550937 0.385376 -0.439367 0.401224 0.306943 0.040931 -0.059715 0.410461 -0.576458 0.753372 -0.023194 0.367786 -0.522119 0.028669 0.368364 0.272168 0.716748 -0.189355 0.404748 -0.376217
H218 -0.356566 -0.620226 0.127067 0.483570 0.308533 -0.093033 -0.773042 -0.494390 0.428903 -0.128852 -0.066983 -0.766324 -0.683896 0.104093 0.341252 0.173819 0.012609 0.265851 0.198936 0.233565 0.603088 -0.491656 0.782079 0.417211 0.591676 0.277557 0.711526 -0.285018 -0.582650 0.388131 -0.089222 0.007397 -0.620389 -0.508640 -0.937166 0.009921 0.429572 0.017105 -0.303276 0.287638 -0.531820 0.373415 0.128455 -0.226518 0.191629 -0.499710 0.053347 -0.112080 -0.365597 0.045589 -0.069078 -0.122343 0.241715 0.375504 -0.297647 0.148702 0.734386 -0.113152 -0.217130 -0.325311 -0.206557 -0.236388 -0.418571 -0.090638 0.333299 -0.118680 -1.058501 0.593129 -0.354559 0.609272 -0.307152 -0.014049 0.285852 0.397627 -0.166773 0.112248 -0.338918 -0.235504 -0.677803 0.647952 0.374749 -0.033854 0.336950 0.037085 0.139608 0.697296 0.110413 0.156057 -0.264583 0.039731 0.787939 0.525865 0.596326 -1.263425 -0.099235 -0.463022 0.472667 -0.154692 0.417034 0.051216 0.174616 -0.040642 0.663017 0.137328 0.314639 0.241228 0.444112 -0.196254 0.433642 0.577686 -0.531491 0.685186 -0.475096 0.036777 0.788554 0.743795 -0.040743 1.318827 0.006798 0.306081 0.541474 0.001287 -0.004207 0.791284 -0.090082 -0.373038 0.109409 0.884054
H80 0.148490 -0.562519 -0.758074 0.648090 0.493428 -1.256871 -0.914936 -0.664057 0.490754 0.055096 -0.445424 -0.500603 0.200835 -0.045867 0.035078 0.105280 -0.333328 -0.156657 -0.181952 -0.765993 -0.210306 -0.647012 0.735398 0.363628 -0.395522 -0.128559 0.252220 0.232430 -0.530541 0.964912 -0.820960 -0.227858 -0.113934 -0.839379 -0.699285 0.838834 0.468037 0.374259 0.174604 -0.237685 -0.774864 0.558961 -0.030328 -0.272271 -0.122468 -0.038512 -0.287590 0.327639 0.002870 -0.260164 -0.257123 0.412397 0.373580 0.046740 -0.201354 -0.344083 -0.037509 -0.590807 -0.660339 -0.261075 -0.410287 -0.295447 -0.231967 0.370913 0.481504 -0.483461 -0.451885 -0.141926 -0.255482 0.959901 -0.028523 -0.638933 -0.035508 0.301820 -0.198764 0.383730 -0.561060 -0.073986 -0.415521 0.378281 0.181044 0.166239 -0.185959 0.093512 0.449229 0.727335 -0.153601 0.507080 0.065513 0.753258 0.080860 0.418573 0.714507 -0.248695 0.500218 0.141441 -0.477026 0.388542 -0.015923 -0.082029 0.367943 0.492096 -0.305549 -0.896661 0.009223 0.015096 0.331756 0.498240 -0.053688 0.269176 0.265865 0.824974 0.068334 0.108397 0.284840 0.636821 -0.392392 0.669756 0.625353 0.650633 -0.451341 -0.250133 -0.092176 -0.092047 0.301445 -0.186632 0.637989 0.047526
H75 0.126226 -0.393648 0.284857 -0.182027 -0.339652 -0.843256 -0.430247 -0.458285 0.606365 -0.167314 -0.516937 -0.348440 -0.735628 0.105912 -0.187391 0.536946 0.143322 0.315578 0.363835 -0.514902 -0.109841 -0.427041 0.207720 0.022030 -0.155086 0.049899 0.046822 -0.387261 -0.829663 0.888201 -0.604347 -0.046220 0.115002 -0.248348 0.381237 -0.120459 0.219194 0.496071 -0.075757 0.324779 -0.070059 0.793180 0.228936 -0.055685 -0.164938 0.328070 -0.001432 0.210362 -0.122748 -0.394097 -0.118442 -0.179126 0.289430 0.586239 0.343818 -0.356721 0.434833 -0.665243 -0.078764 -0.345987 -0.372655 -0.268745 0.428900 0.247469 0.253274 -0.414924 -1.259999 0.716364 -0.197040 0.419655 -0.164368 -0.755514 -0.370072 0.266641 -0.662503 0.354333 -0.504555 0.034555 -0.046419 0.089449 0.485600 -0.022297 -0.143482 -0.175575 -0.479230 0.288789 0.189142 1.024031 -0.287959 0.139136 -0.452625 0.637407 0.628232 -0.390422 -0.249656 -0.247608 0.170326 -0.015505 0.023038 0.364200 0.181136 0.345870 0.536136 -0.188609 0.422366 0.775673 0.249773 -0.431654 0.371029 0.053636 0.148122 0.460157 -0.235987 0.304868 0.759147 1.218100 -0.539769 0.274378 -0.261964 0.848534 -0.698726 -0.070176 -0.003622 0.170300 -0.166595 -0.124554 0.004692 -0.002297
H64 0.459529 -0.377717 -0.355890 -0.332910 -0.146079 -0.343560 -0.319277 -0.799440 -0.021237 -0.079550 -0.168748 -0.992215 -0.432757 0.369403 0.545242 0.437929 -0.449667 -0.119330 0.717594 -0.450182 0.169321 -0.401018 0.408782 -0.210016 0.462119 0.524425 0.163940 0.043729 0.150969 0.283293 -0.723944 -0.485439 -0.458851 -0.294503 0.156246 -0.074937 0.159450 -0.361559 -0.441698 -0.177199 -0.341371 0.514918 0.373741 -0.395884 0.010248 0.259836 0.580729 0.001324 -0.475325 0.253369 -0.422978 0.102383 0.219432 0.615552 0.239141 0.821773 0.559000 -0.103606 -0.462103 -0.542502 0.268088 -0.445046 0.377874 0.494500 -0.084724 -0.216843 -0.807444 0.278789 -0.048983 0.499033 0.341508 -0.344276 -0.420561 0.380966 -0.800239 -0.367666 0.114706 0.734938 0.054717 0.166487 0.560238 0.361396 0.081462 0.467126 0.186396 0.375316 0.479338 0.068854 -0.567868 -0.279284 -0.025404 0.244243 -0.315082 0.215303 0.333962 0.582256 -0.055725 -0.218139 0.458419 0.457388 0.308731 -0.369218 0.203610 0.376820 -0.009469 0.207480 -0.535246 -0.413712 -0.282486 0.330507 -0.413357 0.933649 -0.209880 0.159448 0.166809 0.683997 0.075892 0.584015 0.612582 0.760767 -0.349094 -0.007259 0.087145 0.297887 0.683988 -0.101864 0.094646 0.387999
H192 0.459675 -0.061488 -0.118074 0.136579 0.001484 -0.531618 0.061378 -0.236267 0.465199 -0.331202 -0.162255 -0.250176 -0.436815 0.080515 -0.206651 0.564386 0.440318 -0.202598 0.332725 -0.627041 -0.038773 -0.120936 0.562766 0.690708 -0.067195 0.485870 0.519792 0.014097 -0.923286 0.017951 -0.279535 0.023011 0.021977 -0.044570 -0.357090 0.214633 0.461579 0.021207 0.370448 -0.406799 -0.276178 0.267947 0.195579 -0.158500 0.350141 -0.041409 0.540666 0.312376 -0.172144 -0.503212 -0.977417 -0.330394 -0.055986 0.369013 0.298192 0.413452 0.189220 -0.440345 -0.756527 -0.518884 -0.249340 -0.240210 0.073798 0.010040 0.231506 0.017431 -0.373264 0.641966 -0.023231 0.301088 0.120269 -0.379505 0.235149 0.329449 -1.122423 0.110947 -0.682352 0.244519 -0.264963 -0.202189 -0.219806 0.015391 0.351525 0.271946 0.118431 0.822195 0.320529 0.607790 0.341192 -0.253661 -0.185866 0.051891 0.693238 -0.351534 -0.261533 0.385651 0.117412 0.345645 0.377213 0.303433 0.516525 -0.118696 -0.042269 0.231403 0.114222 -0.201237 -0.337863 -0.295426 0.000844 0.513270 0.045787 -0.126345 0.002498 -0.234569 -0.232912 0.558010 -0.563905 0.524651 0.433340 0.229636 0.172212 -0.829010 -0.260731 0.189410 0.167423 0.115346 0.432625 -0.209819
H213 -0.181983 -0.428830 -0.646985 0.414117 -0.285161 0.113531 -0.786838 -0.388496 -0.150437 0.297314 0.233875 -0.544923 0.333276 -0.453458 0.464389 0.208948 0.248884 0.025882 -0.024882 -0.558172 0.326703 -0.179516 0.782095 -0.395983 -0.625874 0.293416 0.306433 -0.379923 -0.461873 0.262886 -0.472865 0.540038 -0.154865 0.065706 -0.771779 0.369653 0.331492 -0.132808 0.061950 0.327700 -0.816459 0.121027 0.177064 -0.288921 0.051213 0.170816 -0.386847 0.117513 -0.018395 -0.360125 -0.634119 0.289556 1.041221 0.231414 -0.205676 0.702648 0.684994 -0.557651 -0.290774 -0.003721 0.079965 -0.154104 0.889106 0.277633 0.419875 0.535705 -0.236668 0.632588 -0.284531 1.384742 -0.263656 -0.046451 0.232693 0.122732 -0.330122 -0.216696 -0.215492 -0.079513 -0.182842 0.033459 0.078083 0.426312 -0.317253 0.442496 0.593368 0.693115 -0.407986 0.153304 -0.463417 -0.040514 -0.042044 0.076723 0.142802 -0.361160 -0.843551 0.667647 -0.191150 -0.114544 0.728189 0.230637 0.687249 -0.346226 -0.345523 0.027029 0.099731 -0.051305 -0.613974 -1.111740 0.350570 0.499577 0.386476 0.157255 -0.505014 -0.427448 0.134477 0.868241 -0.311197 0.856131 -0.046878 0.319615 -0.017420 -0.413547 0.147433 0.876965 -0.171051 -0.252209 0.568734 0.586410
H52 -0.062733 0.042158 -0.020394 0.157717 -0.444377 -0.207057 0.330317 -0.339054 -0.017639 -0.099700 0.008218 -0.312060 0.559426 -0.821024 -0.260357 0.751917 0.017626 -0.142375 -0.137371 0.478837 0.444322 -0.893185 0.590094 0.298278 0.166290 0.704484 -0.084048 -0.140970 -0.562054 0.177517 0.022447 -0.305846 0.116040 0.063563 -0.569025 0.020573 0.475241 -0.868693 -0.579191 0.383377 -0.449424 0.118077 0.107111 0.067770 -0.553534 -0.193355 0.321822 0.440897 -0.300484 -0.233054 -0.412056 0.209765 0.653955 0.176017 -0.412549 0.413842 0.327726 0.043607 0.190602 -0.182902 0.673374 0.071962 0.455946 -0.548630 -0.302781 -0.048931 0.102193 0.536827 0.230168 0.551483 -0.120475 -0.432120 0.026998 0.280838 -0.636317 0.280884 0.150620 0.364927 -0.060841 -0.105010 0.243428 -0.157179 -0.348294 -0.217227 0.119303 0.960802 0.287480 -0.062939 0.524853 -0.275835 -0.332862 -0.140099 0.224064 -0.355135 0.235320 -0.299197 -0.635733 -0.396990 0.319568 0.383516 0.848142 0.042575 0.380842 0.024377 -0.163852 0.406495 -0.281539 -0.646412 0.305393 0.246240 0.597547 0.259718 -0.372201 0.213675 0.592652 1.087600 -0.081334 0.555297 -0.425775 1.163088 -0.239264 -0.693456 -0.114407 -0.004804 0.714669 -0.660987 0.416767 -0.789404
P433 -0.180255 0.072639 -0.375484 0.081902 -0.317025 -0.002546 -0.416464 -0.235161 0.435570 -0.533455 0.379524 -0.078554 0.273796 -0.174446 -0.019229 0.488627 0.191561 0.124079 0.015437 0.062212 0.184635 -0.014016 0.453218 0.205895 0.417941 0.330698 -0.181447 0.002659 -0.346559 0.251363 -0.225793 -0.318713 -0.575305 0.043071 -0.491673 0.215665 0.358017 0.117136 -0.175609 -0.158573 0.001128 0.286246 0.124040 0.023844 -0.460805 -0.322696 -0.162927 0.205745 0.044512 -0.111141 0.018261 0.038651 -0.116533 0.392569 0.286560 -0.356067 0.170840 0.450790 -0.275821 0.065381 0.011695 -0.156884 0.386124 -0.041454 0.197175 -0.553225 -0.310938 -0.302286 0.132419 0.578541 0.361853 -0.283895 -0.614401 0.223648 -0.687176 -0.052839 -0.015791 0.132376 0.021860 -0.158474 0.099619 0.844559 -0.000147 0.252263 -0.080110 0.280273 -0.234725 -0.018623 -0.012530 0.166444 -0.110587 0.046677 0.498046 -0.617799 0.013408 -0.207490 0.309938 -0.289371 0.164279 -0.114581 0.298105 -0.232937 -0.410871 -0.174765 0.150876 0.685248 -0.153876 -0.009275 0.098960 0.295048 0.393338 -0.163922 -0.371797 -0.219901 0.187356 0.249798 -0.208148 0.126281 -0.328126 0.242389 -0.276726 0.038640 -0.313250 0.180396 0.325461 -0.089095 0.107438 0.374822
H151 0.190919 -0.303814 -0.591329 -0.337146 0.090548 -0.248330 -0.425779 -0.116800 0.508481 0.031866 0.414601 -0.448014 -0.372023 -0.664221 0.802076 0.446013 0.007814 0.114970 -0.292458 -0.716635 -0.159167 -0.212171 0.082073 0.150918 0.535969 0.469920 -0.045960 -0.346146 -0.394978 0.390771 -0.226767 -0.336072 -0.323084 -0.189712 0.341599 0.453073 -0.055349 -0.208713 0.467989 -0.416837 -0.901046 0.466862 0.392568 0.287363 0.013271 0.176935 -0.286829 0.840799 0.026888 0.307395 -0.321935 -0.306364 0.314415 0.777170 0.032353 -0.101067 -0.084675 -0.267068 -0.329457 0.308837 -0.087760 -0.525285 0.545255 0.308274 -0.212326 -0.124108 -0.329540 0.240841 -0.283615 0.754625 0.243392 -0.247129 0.315084 0.248460 -0.672539 0.019443 -0.369978 0.132439 0.023889 0.363426 0.090614 -0.098785 -0.094568 0.110833 0.256642 0.556907 -0.161793 -0.435036 -0.975069 0.246459 -0.384515 0.212944 0.113454 0.278739 -0.249590 -0.682740 -0.258902 0.288311 0.505001 -0.150547 0.592319 0.672661 0.365703 -0.372611 -0.352445 -0.086359 -0.735761 -0.378601 0.115079 0.419827 0.015462 0.263984 0.006656 0.158030 0.681924 0.536317 -0.288290 0.896990 0.143172 0.559438 -0.505192 -0.059177 0.096179 -0.187897 -0.228996 -0.266640 0.426174 0.069298
H195 0.590686 -0.256319 -0.411604 -0.255664 0.165453 -0.084814 -0.272061 -0.260570 0.130916 0.051934 -0.261554 0.183114 0.167616 -0.043301 -0.218969 -0.020038 -0.017735 -0.350634 -0.140810 -0.736031 0.730160 -0.175172 0.566477 0.763401 -0.220092 0.215286 0.242816 0.257043 -0.262901 0.116868 -0.189574 -0.578495 0.028509 -0.499708 0.200949 0.403671 0.683162 -0.057844 0.398084 0.294880 -0.286435 0.128198 0.254251 0.058713 0.611107 -0.096104 0.471849 0.524617 -0.302687 -0.216010 -0.580560 0.181981 0.249573 -0.355976 -0.014142 0.302648 0.140414 -0.683735 -0.531458 -0.131948 0.112097 -0.191529 0.316282 -0.180306 0.163758 -0.290213 -0.144202 0.030855 -0.032051 0.366804 -0.186614 -0.521431 0.100375 0.717936 -0.719241 0.405745 -0.076905 -0.120315 0.133653 -0.370467 0.004166 0.323825 -0.373465 0.456560 0.081045 0.768688 0.212687 0.655421 0.121225 -0.160200 0.315140 0.775086 0.793852 -0.436993 -0.373374 0.487162 0.009222 0.192114 0.998297 0.121094 0.440048 -0.066810 -0.014727 0.197224 -0.007394 0.214301 0.040009 0.192729 0.299684 0.577132 0.302714 -0.059668 -0.118089 0.205757 0.127809 0.780510 -0.931432 0.608020 0.082112 0.747753 0.281594 -0.799073 0.510115 0.171865 0.524032 -0.276708 0.088650 -0.170431
H35 -0.350955 0.223131 -0.293100 0.284934 -0.048131 -0.289085 -0.637732 -0.771802 0.036195 -0.217146 -0.182769 -0.494245 -0.096751 -0.176198 -0.041704 0.747606 -0.022013 -0.351024 0.469644 0.308021 0.451630 -0.736205 0.764126 0.888478 -0.514506 0.807173 -0.076507 0.190410 -1.119081 0.229382 -0.662337 -0.200369 -0.448045 -0.192414 -0.189985 0.027913 -0.299595 0.041001 0.101357 0.088392 -0.146210 -0.368814 -0.267678 -0.268710 0.740443 0.145006 0.166169 0.180637 -0.310185 0.146239 -0.040956 0.695718 0.463796 0.310433 0.314725 0.679628 0.672142 0.735226 -0.397854 -0.152966 -0.177718 -0.225227 0.840938 -0.090787 0.491177 0.336137 0.035182 0.680838 -0.377478 0.663670 0.265587 -0.293894 -0.396892 0.366700 -0.051858 0.304932 -0.362676 -0.064943 0.305169 0.228436 0.208732 0.283433 -0.059660 0.172647 0.253686 0.164337 0.697304 0.089669 -0.162710 0.220187 -0.375644 0.428504 0.238751 -0.313034 0.007510 -0.482595 -0.154719 0.207830 0.794198 -0.235475 0.072625 0.172678 0.678883 -0.375494 -0.174438 0.647966 0.180719 -0.569180 -0.249301 0.350782 0.070722 0.464857 -0.029141 -0.188797 0.515565 0.752073 -1.375093 1.001923 0.165160 0.559309 -0.430083 0.200322 0.492543 0.388361 0.294446 -0.526532 0.443935 0.219964
H58 0.473561 -0.110791 -0.880429 0.296629 -0.135323 -0.816619 -0.949361 -0.180917 0.026933 -0.019040 0.320948 -0.759365 0.107091 -0.652732 0.643922 0.871787 -0.049734 0.028300 -0.095002 0.087026 0.288596 -0.101484 0.542031 0.463815 0.059001 0.447444 -0.523847 -0.262162 0.261716 -0.112076 -0.392510 0.169755 -0.230248 0.091040 -0.438812 0.585632 0.124505 -0.411309 0.312328 -0.165703 -1.166090 0.400942 -0.012613 0.238792 0.033631 -0.058590 -0.443032 0.465044 -0.484528 -0.073881 0.181002 0.236686 0.575888 -0.000417 0.188137 -0.170688 0.388472 0.315685 0.084762 -0.270865 -0.035054 0.321910 0.050176 0.515699 0.483839 -0.229772 -0.495635 1.047922 -0.396332 1.034443 -0.163865 -0.685854 -0.316310 0.939258 -0.479231 0.072622 -0.141930 -0.391407 -0.360282 0.020404 0.356671 0.134734 -0.740039 0.343090 -0.126113 0.328361 -0.024144 -0.037145 0.282603 -0.287698 -0.251440 -0.067583 0.005824 -0.620396 0.031178 -0.258303 -0.300375 0.468060 0.644656 0.480672 0.504652 0.196439 0.630217 -0.053615 -0.386268 0.111568 -0.316632 0.016047 -0.055432 0.617428 -0.300126 0.642828 0.186235 -0.415852 0.157612 0.977860 0.191795 0.669476 0.175564 0.602045 -0.010451 0.606676 0.424833 0.025372 0.325791 -0.561658 0.331811 -0.542854
H182 0.240781 -0.489106 -0.046861 -0.332477 -0.312591 -0.575033 -0.443257 -0.693715 -0.068635 -0.307257 0.381303 0.364738 0.108905 -0.140921 0.064172 0.515711 -0.394719 0.156831 0.142967 0.251747 -0.380697 0.142009 0.421160 -0.137762 0.200686 0.561458 -0.211728 -0.817343 -0.537318 0.533634 -0.400619 -0.273752 -0.001575 -0.258588 -0.107744 0.894579 0.655329 -0.357683 -0.029519 -0.084725 -0.723239 -0.217533 -0.201812 -0.687243 0.168742 -0.448491 -0.181605 0.386895 -0.162421 0.283503 -0.748248 0.351209 0.622913 0.470649 0.498243 0.458884 0.310059 0.450849 -0.051197 -0.453434 0.435920 -0.473356 0.515725 -0.113482 0.428217 0.348530 -0.386216 0.768854 0.228929 0.760246 0.071081 0.072702 0.309212 0.072906 -0.690953 0.248166 -0.696664 0.297395 -0.598813 -0.154893 -0.061290 -0.130437 -0.105580 -0.116100 0.159218 1.331831 0.031185 0.293476 0.042715 0.249196 0.487929 0.048035 0.705762 -0.387764 0.307002 -0.177998 0.308046 -0.050498 0.398442 -0.049839 0.286942 0.141911 0.905304 -0.460495 0.856623 0.139623 -0.404472 -0.413523 -0.194819 0.833999 0.076018 0.148902 -0.398095 -0.581251 0.208322 0.315784 -0.377595 0.038947 0.344084 0.602520 -1.192932 -0.310666 0.243503 -0.266589 0.302054 -0.741081 0.295012 0.151915
P829 0.346372 -0.148537 -0.646802 -0.544421 -0.032274 -0.083849 -0.217675 -0.130025 0.471242 0.197423 0.384058 -0.438198 -0.008611 -0.475097 0.787912 0.256865 0.190338 0.076012 -0.345060 -0.727064 -0.063397 -0.196970 0.193824 0.316376 0.503877 0.432018 -0.051003 -0.215625 -0.474242 0.265342 -0.234759 -0.198529 -0.297601 -0.479044 0.290753 0.375291 0.093125 -0.290052 0.375930 -0.259529 -0.826559 0.204451 0.472785 0.316042 0.193416 0.261927 -0.211438 0.764804 0.069262 0.273562 -0.590047 -0.423557 0.354026 0.643655 0.001799 0.032791 0.145647 -0.034356 -0.633672 0.269202 0.201617 -0.326578 0.697561 0.390429 -0.107012 0.045397 -0.440093 0.235940 -0.143096 0.662770 0.205680 -0.323746 0.395336 0.313158 -0.712978 -0.007863 -0.384928 0.023304 -0.058733 0.161051 0.051049 -0.241525 -0.296105 0.319365 0.269869 0.703465 -0.125776 -0.294214 -0.708654 -0.015718 -0.511245 0.209163 0.289033 0.531942 -0.321561 -0.391524 -0.086903 0.353830 0.433335 -0.083792 0.686499 0.444865 0.245740 -0.150360 -0.272448 -0.023052 -0.585916 -0.426891 0.326753 0.309834 0.135908 -0.006809 -0.235451 -0.004901 0.599795 0.494085 -0.070229 0.871453 0.017027 0.736062 -0.341097 -0.135576 0.110715 -0.132875 -0.246359 -0.018485 0.455739 0.134589
H84 -0.479434 0.160395 -0.050588 0.353718 -0.328647 0.241410 -0.091533 -0.315698 0.214619 0.029224 0.366149 0.010920 0.124901 -0.018732 -0.201436 0.212977 0.038629 -0.389017 0.018990 0.310172 0.262174 -0.241952 0.577262 0.194079 0.203887 0.595953 0.229029 -0.013397 -0.656644 0.221299 -0.386970 -0.047281 -0.142231 0.321595 -0.481046 0.375670 0.236604 0.253324 -0.471402 0.018648 0.083561 0.475002 -0.261324 -0.048908 -0.310087 -0.279377 -0.057486 -0.167420 0.030782 -0.234298 -0.329409 0.133069 -0.014027 0.385505 -0.099099 0.319003 0.026192 -0.035634 -0.136461 -0.521413 0.543465 -0.003653 0.551986 -0.369045 0.713027 0.067476 -0.612617 0.470626 0.175408 0.310777 -0.034773 -0.056669 -0.115019 0.145846 -0.393217 -0.043906 -0.088945 -0.354091 -0.444985 -0.234594 -0.580364 0.228600 -0.078366 0.517820 -0.039081 -0.223739 -0.037518 0.290270 -0.098708 0.020992 0.299163 0.113899 0.759054 -0.453973 0.421560 0.085748 0.060411 -0.055416 0.316189 0.300542 0.326949 -0.033667 -0.318939 -0.206108 -0.169907 0.763774 -0.352519 -0.041574 0.162119 0.479243 -0.195812 0.020540 -0.623881 -0.297717 0.403560 0.622743 -0.316366 0.751699 -0.264195 0.075924 -0.244803 -0.530336 0.334269 0.252906 1.002040 -0.320682 0.340548 0.681188
H96 -0.405584 -0.275735 -0.246576 -0.175318 -0.407806 -0.230541 -0.470128 -0.338803 0.472615 -0.505876 0.549259 -0.109488 0.211679 -0.009674 -0.104519 0.320607 -0.241187 0.197341 0.040115 -0.115250 0.362158 -0.399841 0.671585 0.415857 0.485557 0.636113 0.150515 -0.275092 -0.387295 0.165173 0.019005 -0.242508 -0.528672 -0.171168 -0.272526 0.301090 0.447591 0.230004 -0.228709 -0.579250 0.063584 0.116567 -0.112803 0.043427 -0.488250 -0.274913 0.082400 0.410223 -0.028758 -0.124218 -0.044046 0.069882 0.096380 0.554004 0.578287 -0.418154 0.154096 0.532067 -0.416756 0.088350 0.046427 -0.173036 0.491012 -0.092888 0.030051 -0.604641 -0.440054 -0.137452 0.253335 0.873802 0.696600 -0.508602 -0.826727 0.203772 -0.819509 0.254083 -0.175532 0.294581 0.079119 -0.456084 0.496710 0.837674 0.143270 0.192625 -0.180782 0.495002 -0.266070 0.058825 -0.035042 0.067991 -0.415570 -0.077909 0.766727 -0.668302 -0.137365 -0.155138 0.314446 -0.137543 -0.089283 -0.444751 0.210850 -0.451042 -0.086923 -0.352548 -0.077669 0.559646 -0.021832 0.084224 0.033763 0.509025 0.394618 -0.206164 -0.484220 -0.023472 0.370310 0.267051 -0.518189 0.163994 -0.579634 0.442415 -0.312236 0.129162 -0.298692 0.046677 0.486175 0.029984 0.296418 0.015202
H31 0.109507 -0.221992 -0.336007 -0.683724 -0.008822 -0.607049 -0.394397 -0.077199 -0.150877 -0.136772 0.087065 -0.583481 -0.196646 0.076276 -0.197815 0.562870 0.096758 0.267992 0.533273 -0.328174 0.646655 -0.628488 0.652316 0.328632 0.565042 0.143186 0.615182 0.297881 0.068676 0.147352 -0.256261 0.199831 -0.041677 0.142620 -0.175316 0.100774 0.162811 0.011783 0.085284 0.333431 -0.988715 0.471611 0.094865 0.188524 -0.555939 0.013896 0.585691 -0.234390 -0.579243 -0.359029 -0.467204 -0.229092 0.081898 0.289267 -0.438484 -0.022923 0.858005 -0.162808 -0.547861 -0.218527 -0.193568 -0.640354 0.687097 0.621706 0.022538 0.136815 -0.639342 0.839533 -0.089154 0.210740 -0.227003 -0.455625 -0.362117 0.068159 -0.647862 -0.061550 0.591745 -0.060962 -0.574948 -0.206690 0.515270 0.161283 0.096796 -0.074300 0.122440 0.444786 0.124780 0.622463 -0.287238 0.250460 0.194456 -0.346466 0.705950 -0.233804 -0.039250 0.096855 -0.382038 0.100996 0.325652 -0.458005 0.578978 0.308520 0.194351 -0.387251 0.413088 0.312918 0.259861 -0.077331 -0.077668 -0.465596 0.026780 0.462752 -0.140596 0.006537 -0.008408 0.998971 -0.159314 0.604585 -0.303593 0.573593 0.573079 0.013529 0.252695 0.381628 0.500422 -0.225893 0.112064 0.348560
H65 0.149357 -0.157413 -0.164584 -0.388197 -0.191843 -0.416021 -0.200506 -0.652851 -0.006904 -0.172931 -0.179068 -0.807456 -0.510776 0.360312 0.500117 0.468432 -0.701555 0.042277 0.551301 -0.298458 0.244987 -0.511819 0.552859 -0.090866 0.502955 0.553132 0.246901 -0.016784 0.160651 0.181211 -0.818345 -0.515320 -0.412699 -0.266790 0.227918 0.008891 0.062216 -0.332600 -0.605035 -0.397667 -0.213139 0.489362 0.277996 -0.457028 -0.091620 0.161943 0.545587 0.177140 -0.384279 0.095770 -0.563290 0.247599 0.237920 0.691604 0.370781 0.661373 0.530746 -0.174277 -0.415032 -0.583258 0.290012 -0.424265 0.237434 0.367424 0.020096 -0.118468 -0.900316 0.115574 0.096077 0.541816 0.290458 -0.421628 -0.496237 0.206573 -0.639835 -0.392904 -0.039211 0.792941 0.012794 0.249517 0.487663 0.368869 0.012960 0.265837 0.106407 0.315326 0.522718 -0.085118 -0.499491 -0.453417 -0.024112 0.294384 -0.287358 0.112103 0.273696 0.519343 -0.086966 -0.321527 0.372623 0.535027 0.257924 -0.275475 0.130238 0.235953 0.038758 0.215985 -0.332189 -0.359535 -0.167649 0.395175 -0.376044 0.888394 -0.197211 -0.017755 0.306530 0.613761 -0.058643 0.710900 0.577091 0.719147 -0.492028 -0.011559 0.224550 0.310385 0.549182 -0.192067 0.167326 0.219017
H18 -0.069920 -0.316011 -0.085673 0.102362 -0.261451 -0.229410 -0.489896 -0.337547 0.011854 -0.236114 0.145859 0.116410 0.095721 0.116218 0.230938 0.965641 -0.364017 0.100589 0.578591 -0.109405 0.498820 -0.408035 0.624589 -0.240222 -0.276604 1.282100 0.270746 -0.281150 -0.301787 0.625953 -0.797957 -0.373722 -0.288686 0.082309 -0.891909 0.588815 -0.197175 -0.067191 0.215818 0.689131 -0.532701 0.469033 -0.667438 -0.057336 0.051164 -0.077469 -0.953650 -0.268893 -0.526433 0.520086 -0.011108 -0.081917 0.316051 -0.000003 -0.246223 0.233211 0.386761 -0.232748 0.527113 0.183776 0.371466 -0.448666 0.259516 -0.349901 0.151913 0.030879 0.001415 -0.185557 0.132647 0.660659 0.124822 -0.402774 -0.147655 0.099051 -0.246089 0.692102 -0.054071 -0.136025 0.044155 -0.925628 0.403327 1.182550 -0.060997 0.426320 0.209916 0.710411 0.434019 0.680568 -0.218303 -0.624736 0.089154 0.689397 -0.145833 -1.234126 0.263253 0.838682 -0.258073 -0.420148 0.348683 0.849709 0.631120 0.468831 0.057874 -0.333018 0.688227 0.777050 0.311955 -0.472651 -0.142296 0.608671 0.006260 0.297869 -0.257533 0.046816 -0.150778 1.063864 -0.888365 1.186211 -0.333071 0.998074 -0.191956 -0.461053 0.057579 0.519869 0.487310 -0.698264 -0.135554 0.402461
H203 -0.123037 -0.025872 -0.469210 0.544202 -0.824980 0.069659 -0.843337 -0.776394 0.645024 0.252932 0.222565 -0.514365 0.251380 -0.040640 0.008298 0.908386 -0.973586 -0.531634 0.338462 -0.131335 -0.182286 -0.358494 0.981261 1.098117 0.722799 0.623947 0.806918 -0.194192 0.373834 0.148912 -0.704686 -0.300969 -0.183185 -0.191713 -0.091210 0.121512 -0.307270 -0.018613 -0.405196 0.152727 -0.915413 0.594604 0.130934 0.661656 -0.193131 -0.430441 0.048075 0.421701 -0.222271 -0.323781 -0.483028 -0.038309 -0.198012 -0.252684 0.118628 -0.356164 0.786998 0.044499 0.049770 0.319184 0.356019 -0.110813 -0.342570 0.459469 -0.517116 -0.011508 -0.602321 -0.516213 -0.049856 0.539121 0.313941 -0.668825 0.391872 0.255940 -0.098128 0.260615 0.196763 0.994575 -0.929179 -0.028689 0.572399 -0.144192 0.416299 -0.277861 0.164542 1.077439 -0.215760 -0.147152 -0.720795 -0.797731 0.064994 0.380599 0.601496 -1.079014 0.398158 -0.065354 -0.141770 -0.471665 0.309198 0.736106 0.752155 0.174207 0.156850 -0.785383 -0.204474 0.368892 0.070354 -0.188147 0.345320 0.632618 0.245074 0.896320 -0.083877 -0.101451 0.527944 1.151355 -1.271688 1.006012 0.633397 1.287679 -0.155694 -0.620989 0.082918 0.096102 -0.319197 -0.011366 0.549091 -0.090081
H107 0.903332 -0.868836 -0.463084 0.559773 -0.155605 -0.055123 -0.330656 -0.206398 0.593055 0.259838 -0.013228 0.112533 -0.328548 -0.650386 0.471006 0.207881 0.317957 -0.288781 -0.299697 -0.409628 -0.040775 -0.009515 0.420121 -0.158320 -0.444366 0.632167 0.011379 -0.307458 -0.327335 0.425357 -0.386017 -0.108968 -0.096435 -0.715180 -0.000144 0.599506 0.616388 -0.104038 0.143922 0.021652 -0.439448 0.325967 -0.237488 0.023767 -0.183124 0.204443 -0.053514 0.363003 -0.345853 -0.015543 -0.026201 0.383013 0.088858 0.030999 0.083262 -0.139997 -0.528186 -0.027186 -0.514028 -0.686963 0.341731 -0.126366 0.031682 -0.429755 0.412752 -0.131621 -0.709261 0.506964 0.319171 0.733309 -0.057941 -0.821962 0.492924 1.044834 -0.453258 -0.213249 -0.378129 0.444616 -0.586780 0.079322 -0.266172 0.650712 -0.134092 -0.210950 0.028984 0.769687 -0.154223 0.553298 -0.111237 -0.490339 -0.036782 0.207645 -0.215070 -0.251775 -0.390576 0.205429 -0.039259 0.271052 0.658702 0.806191 0.550368 0.177482 -0.318881 0.288290 -0.111476 0.250314 -0.238842 -0.637799 -0.072551 0.666938 0.329988 0.072173 -0.722646 -0.486522 0.916445 1.266223 -0.687660 1.100609 0.296752 0.432872 -1.045834 -0.224390 -0.184243 -0.755033 -0.091793 -0.541422 0.562394 -0.549102
H82 0.233200 -0.447602 -0.506674 -0.025494 -0.323855 -0.078263 -0.716965 -0.140152 0.070375 0.467890 -0.020648 0.019631 -0.639103 -0.413633 1.392473 0.341664 0.196197 -0.245846 0.128869 -0.193231 0.499754 -0.291535 0.793863 -0.421566 0.051565 0.322721 0.692526 -0.826842 -0.084133 0.269909 -0.964140 0.042051 -0.063862 0.148327 -0.519692 0.164737 0.247182 0.296505 -0.126308 0.426018 -1.112619 0.888519 -0.293758 0.357649 -0.693325 -0.521070 -0.727784 0.598037 -0.470694 0.453266 0.149641 0.121016 0.697431 0.571655 0.175728 0.456141 0.226012 -0.769079 0.201212 0.036327 0.303769 0.063791 0.243012 0.041210 0.012127 -0.274766 0.027263 0.553377 -0.276579 1.259446 0.093089 -0.535938 0.678751 0.072312 -0.308086 0.884970 0.277109 0.628242 -0.232293 -0.417060 0.409938 0.246434 0.476296 -0.195320 0.117547 0.221234 -0.372158 0.455237 -1.581854 0.005597 0.359643 0.399340 -0.061941 -0.358327 0.104319 -0.452860 -0.577334 -0.530676 0.232425 -0.140118 0.990985 0.659817 -0.285811 -0.004553 0.029961 0.475831 -0.076392 -0.567279 0.313797 0.221706 -0.372972 0.741070 -0.119392 -0.588894 1.110522 1.158583 -0.545774 0.907467 0.133225 0.595463 0.089369 -0.020599 0.280077 0.280517 -0.142159 -0.292401 0.284075 0.584758
H175 0.208459 -0.154432 -0.000575 -0.100719 -0.146698 -0.787152 -0.385200 -0.598987 0.304312 -0.212111 -0.108086 -0.435632 0.326509 -0.358851 0.086240 0.492616 0.253287 0.201449 0.062773 -0.257567 0.133068 -0.213115 0.890597 0.308791 0.247919 0.400116 0.266332 -0.261467 -0.326892 0.487106 -0.448743 -0.169694 -0.333333 -0.114755 -0.543818 0.129124 0.680220 -0.199404 -0.063444 -0.033541 -0.620820 0.605046 0.232184 -0.178343 -0.393424 -0.130443 0.077585 0.330647 -0.553567 0.025014 -0.248440 0.290950 -0.021399 0.630973 0.408919 0.195683 0.279096 -0.110234 -0.563006 -0.206300 0.282864 -0.202199 0.367605 -0.264739 -0.094187 -0.481949 -0.671720 0.602530 -0.253160 0.752096 -0.170315 -0.369207 -0.134266 0.578648 -0.497719 0.138206 -0.297947 0.294188 -0.379781 0.079349 0.267338 0.136798 -0.286956 0.107484 -0.197763 0.626943 -0.119126 0.537158 -0.583378 0.335170 0.081618 0.003967 0.528329 -0.444440 0.259301 0.023003 -0.000118 -0.200171 0.371316 -0.342589 0.491387 0.153488 -0.097467 -0.100452 -0.201134 0.378804 -0.302073 -0.501365 -0.030985 0.468025 -0.058912 0.390677 -0.523240 -0.125238 0.248861 0.817453 -0.235131 0.966595 0.229157 0.929846 -0.369561 -0.127179 0.147973 0.577339 0.062716 -0.181551 0.603205 0.311284
H55 0.224096 -0.822357 -0.493717 -0.338553 -0.283122 -0.345185 -0.043424 -0.275501 -0.077404 0.350563 -0.475090 -0.550865 -0.074207 -0.054891 -0.507276 0.678558 -0.243585 -0.133985 0.146889 0.305598 0.117441 -0.823543 0.085597 0.461323 0.476316 0.539625 0.916380 -0.242034 -0.095908 0.541121 -0.241671 -0.049931 0.058854 0.164098 -0.104735 0.165205 0.866360 -0.195506 0.061966 0.193363 -0.615415 -0.131264 0.118653 -0.422122 0.148987 -0.421021 0.617026 0.523002 -0.924624 -0.466235 -0.220673 0.974767 0.380194 0.270322 0.453648 -0.227577 0.830927 -0.466151 -0.671364 -0.474035 -0.073218 -0.591052 0.374267 -0.393386 0.372337 -0.183735 -0.454522 0.975566 -0.172534 0.736253 0.136776 -0.244862 0.133054 -0.250595 -1.141717 0.169773 -0.099628 -0.043383 -0.118353 -0.112359 -0.071189 0.586126 -0.126374 0.222368 -0.076105 0.298616 0.066231 0.135855 -0.201959 0.314552 -0.310881 0.301240 0.152670 -0.224216 -0.045603 -0.078797 -0.059909 -0.321328 0.260702 0.547539 0.646091 0.462640 0.446287 0.064529 -0.327790 0.317532 -0.668183 -0.029044 -0.132440 0.388430 0.553276 0.597226 0.294212 -0.303078 -0.039235 1.273521 0.408428 0.259119 -0.215721 0.131208 0.049950 -0.487947 0.825157 -0.119950 1.107790 -0.476115 0.793135 -0.154112
P826 0.950746 -0.079055 -0.220604 -0.484833 -0.447620 -0.325887 -0.340766 -0.399578 0.701615 0.496148 0.027299 -0.525252 0.411252 -0.531520 0.710447 0.374870 0.424084 0.038326 0.386267 -0.330161 0.095093 0.087399 0.402316 0.141537 0.788088 -0.085044 0.337228 0.098154 -0.045500 0.294400 -0.146204 0.073316 -0.103236 -0.589044 -0.025197 -0.012866 0.432317 -0.732383 0.232866 0.238770 -0.429916 0.822176 0.493007 0.635524 0.015041 0.108430 0.089118 0.351565 -0.084586 -0.178029 -0.621755 -0.371138 0.509785 0.223155 -0.097811 0.420702 0.134073 0.028169 -0.241730 0.271514 0.125116 -0.264587 0.237292 -0.086136 -0.055363 0.203356 -0.491829 0.212044 -0.200133 0.690015 -0.043493 -0.233074 -0.031731 0.384974 -0.663741 0.204469 -0.515945 0.287667 -0.379334 0.001947 0.401778 -0.462746 -0.353450 0.334021 0.315857 0.927874 -0.479837 0.099015 -1.032219 -0.039807 -0.470147 0.049523 0.355838 0.563414 -0.068797 -0.221343 0.214454 0.026184 0.385570 -0.287750 0.987519 -0.058943 -0.087281 0.150043 -0.000513 0.073275 -0.300552 -0.462252 0.398060 0.154074 -0.177180 0.117127 -0.166829 -0.324273 0.344723 0.506455 -0.328482 0.829335 -0.005166 0.957404 -0.000702 -0.099090 0.427021 0.051067 -0.117770 0.212705 0.390342 -0.050722
H86 -0.265447 0.054101 -0.343778 0.133703 -0.171623 -0.152372 -0.217024 -0.213897 0.448988 -0.604532 0.211504 -0.307884 0.288756 -0.203344 0.094185 0.546732 -0.093980 0.289291 -0.017469 -0.042358 0.253270 -0.031871 0.380784 0.143471 0.493823 0.308964 -0.235302 0.325949 -0.377349 0.400729 -0.196773 -0.250172 -0.536020 -0.095759 -0.731306 -0.204405 0.354496 0.175903 -0.066841 -0.074219 0.040880 0.294509 0.142488 0.222825 -0.496092 -0.376695 -0.020194 0.261005 -0.117839 -0.063658 -0.021583 0.240766 -0.179315 0.826012 0.166588 -0.345092 0.046831 0.344738 -0.253117 0.116530 0.171473 -0.165748 0.642330 0.026016 0.416166 -0.750213 -0.452036 -0.108919 0.013271 0.534220 0.308218 -0.198425 -0.537681 0.466662 -0.736006 -0.062169 -0.180585 0.040356 0.207531 -0.107210 0.196032 0.890893 -0.333508 0.208569 -0.238709 0.399865 -0.395230 0.167004 0.048294 0.152611 -0.190559 0.093405 0.358311 -0.297693 0.102319 -0.167494 0.303719 -0.221697 0.504443 -0.063413 0.068272 -0.199413 -0.430523 -0.396350 0.103965 0.890924 -0.179476 -0.037249 0.251162 0.194402 0.296343 -0.080168 -0.336368 -0.081545 0.289823 0.315206 -0.115769 0.260733 -0.501078 0.277331 -0.374980 0.212584 -0.240155 0.074618 0.268808 -0.145120 0.221911 0.593142
H178 0.464525 -0.468033 0.035069 -0.119586 0.002036 -0.764277 -0.256882 -0.918616 -0.191536 -0.317772 0.255296 0.258763 0.186775 -0.075904 0.157020 0.475746 -0.070066 0.421277 0.049839 0.085202 -0.583137 0.110673 0.556590 -0.374955 0.201518 0.543940 -0.404284 -0.803073 -0.510386 0.445724 -0.552408 -0.201707 0.523951 -0.325828 -0.194760 0.843303 0.389264 -0.285515 -0.014464 0.227248 -0.724734 0.213476 -0.001624 -0.723706 0.202787 -0.259235 -0.095711 0.248222 -0.238031 0.137674 -0.477285 0.545497 0.356250 0.670267 0.175969 0.497264 0.341907 0.121323 0.085661 -0.379266 0.364200 -0.303602 0.592355 -0.115997 0.399909 0.368921 -0.387177 1.055550 -0.075671 0.794000 0.173778 0.368090 0.340149 -0.001482 -0.652219 0.273987 -0.452630 0.524355 -0.829189 -0.077513 0.000030 -0.214465 -0.507614 -0.119912 0.268384 0.847759 -0.108577 0.754388 -0.272931 0.185335 0.576373 -0.208451 0.178413 -0.253112 0.155447 0.030603 -0.017774 -0.117247 0.372803 0.245515 0.514320 0.127285 0.635444 -0.029134 0.695284 0.191745 -0.406442 -0.483215 -0.406656 0.547396 -0.109179 0.313537 -0.084877 -0.688477 0.305607 0.783237 -0.120146 0.317291 0.192980 0.532118 -1.082612 -0.230989 -0.037195 0.039183 0.255186 -0.773825 0.318066 0.198107
H15 0.565709 -0.870917 -0.109482 0.473778 0.095966 -0.388391 -1.335756 -0.341504 0.639500 -0.395167 -0.279168 -0.108716 -0.014589 -0.339937 0.130086 1.002925 0.555260 0.328276 -0.050457 -0.533363 0.417826 0.107412 0.667993 -0.271761 -0.154833 0.310513 0.291185 -0.224543 -0.423799 0.760025 -0.701047 -0.000244 -0.463135 -0.130773 -0.722646 0.815486 0.571656 -0.255661 0.454587 0.314758 -1.092201 0.517556 -0.262457 -0.551584 -0.118974 -0.449305 -0.754304 -0.207850 -0.832185 0.952726 0.433726 -0.250571 -0.448522 0.169867 -0.474633 0.387779 -0.197146 -0.890887 0.031737 0.184810 -0.103996 -0.110189 0.607836 0.039396 -0.317868 -0.665174 -0.617346 0.172481 -0.143299 0.039187 0.237399 0.036054 -0.454269 0.262923 -0.920404 0.091155 -0.087647 0.299712 -0.530689 -0.104947 0.180948 0.351461 -0.076602 0.093067 0.022135 -0.057445 -0.128258 1.088341 0.120780 0.635293 0.958581 0.353373 0.006893 -1.195029 0.122778 0.325917 -0.709749 -0.220017 0.020018 -0.031551 0.761216 0.386274 -0.033358 0.270632 0.677161 1.085954 -0.230862 -0.244088 -0.049097 -0.059369 0.165448 0.463661 -0.285191 0.504029 0.309679 1.261864 -0.513824 0.547157 -0.247017 0.284882 -0.095004 0.107488 0.191963 0.358500 0.462801 -0.220775 -0.110081 -0.156886
H132 0.306698 -0.035823 -0.471554 -0.045112 -0.698308 -0.761946 -0.556545 -0.658963 0.402192 0.279089 0.317408 -0.373799 0.577149 -0.783171 0.544523 1.113980 -0.119370 -0.092758 -0.226703 -0.480861 -0.204921 -0.416687 0.251713 -0.062385 0.342997 0.769038 -0.399118 -0.629640 0.169498 0.884523 -1.156183 -0.693498 -0.732829 -0.455855 -0.967472 0.769732 0.154028 -0.881761 -0.068236 -0.170165 -0.633943 0.572156 -0.492102 -0.047986 0.384557 0.382542 -1.238375 0.312298 -0.699949 0.787948 -0.468775 -0.580109 -0.077287 0.232432 0.160988 -0.477176 0.404634 0.539698 0.613553 0.754708 0.306200 0.031116 -0.087677 -0.508735 -0.719785 0.146880 -0.298599 -0.189005 0.361691 0.959100 0.461828 -0.143944 -0.010627 -0.012284 -0.492630 0.376009 -0.300019 0.414357 -0.822546 -0.079773 0.515040 0.693167 -0.238915 0.130178 0.315257 0.105124 0.056181 -0.190539 -0.421544 -0.271220 -0.085073 0.419824 -0.236178 -0.299236 0.347112 0.088261 -0.264918 -0.545378 -0.061754 0.033288 0.073118 0.329170 0.309333 -0.251869 0.216614 0.676469 -0.141611 -0.138652 0.361717 0.544544 -0.147057 0.295410 -0.375613 -0.278189 0.564444 1.057101 -0.833392 1.386953 -0.227411 0.900296 0.037668 0.437083 -0.084287 0.103377 -0.139859 -0.167238 0.176297 0.123049
H3 -0.239934 -0.132053 -0.699147 -0.181882 0.179168 -1.054544 -0.785540 -0.594052 0.372294 0.871952 -0.328630 -0.815695 -0.191693 -0.551927 -0.035997 0.783844 -0.369885 -0.048980 0.338046 -0.655373 0.219183 -1.081741 0.929935 0.677710 -0.475124 0.942725 0.702418 -0.473053 -0.433740 0.353445 -0.087321 -0.629084 -0.008289 -0.612035 -0.147012 -0.194650 0.209321 -0.051935 -0.143975 0.134590 -0.924458 0.215096 0.372405 0.104586 0.464117 -0.202250 -0.208475 0.703914 -0.320139 0.141529 0.005945 -0.160424 0.198062 0.122437 0.394778 0.001042 0.916813 0.424520 0.029439 0.083691 -0.493562 -0.187962 -0.099034 0.483472 -0.122963 0.183554 -0.029179 0.287270 0.407651 1.047199 0.088307 -0.535093 0.720929 1.115922 0.220032 0.876646 -0.248507 0.219294 -0.571244 0.060099 0.788695 -0.053927 -0.011250 -0.117462 -0.160770 0.889288 0.291006 0.366015 0.185156 -0.389708 -0.068128 0.907327 0.632660 -0.100046 -0.374348 0.424601 0.393196 -0.262413 0.506915 0.250648 0.720898 0.160774 0.649216 -0.697522 0.008887 -0.085482 0.042523 -0.186578 0.281096 0.388695 0.253449 0.546403 0.533878 -0.217412 -0.046011 1.036644 -0.753058 0.905822 0.540152 0.954038 0.030428 -0.122971 -0.301864 -0.223812 -0.058237 0.058153 0.075236 -0.241486
H119 0.333115 -0.801899 0.187494 0.076957 0.544228 -0.039577 -0.348757 -0.442670 0.307940 -0.440171 0.070622 -0.345211 0.458674 0.052319 -0.136088 0.321940 -0.449345 -0.080370 -0.153426 -0.560026 0.113342 -0.468983 0.894128 0.525819 -0.025340 0.873221 0.110020 -0.150100 -0.152468 0.326826 -0.556965 0.415167 -0.706965 0.061146 -0.316010 0.278930 0.231041 -0.049154 -0.359783 0.237233 -0.008345 0.075464 0.098680 -0.092051 0.049726 -0.252525 0.549356 1.060030 -0.583752 -0.420036 -0.053193 0.116138 0.461042 0.385912 0.332077 -0.282860 0.337426 -0.125468 -0.106491 -0.192026 -0.569384 0.071766 0.185882 -0.332580 0.527695 -0.319392 -0.210765 0.636712 -0.069789 1.167559 -0.231569 -0.172745 0.287323 0.849054 -1.132766 0.773802 -0.429823 0.117843 -0.426191 -0.189845 0.410906 -0.412744 -0.077474 0.099798 -0.287231 0.710243 0.455317 -0.294927 0.565051 0.273439 0.255312 -0.047451 -0.027793 -0.374155 0.243975 0.266636 -0.337565 -0.379128 0.882884 0.151422 -0.259510 -0.166972 0.135681 -0.113327 -0.188977 0.372634 -0.309084 -0.484389 -0.219036 0.970191 -0.102496 0.427854 0.136252 0.510181 0.876600 0.708770 -0.982755 0.158691 0.014787 0.709690 -0.566236 0.137993 0.459770 0.292520 0.014541 -0.101621 0.295925 -0.022401
H215 0.095340 -0.324427 -0.385970 0.091276 -0.269356 -0.733875 -0.652486 -0.562558 0.483118 -0.168971 0.027939 -0.541192 0.069371 -0.339895 0.108443 0.713001 -0.096993 -0.005980 0.067547 -0.415919 0.481375 -0.375616 0.815707 0.421613 0.259038 0.631638 0.421204 -0.131538 -0.548617 0.508868 -0.571751 -0.213532 -0.459694 -0.267639 -0.451274 0.377446 0.710426 -0.197126 -0.014045 -0.034708 -0.754720 0.323788 -0.019986 0.045530 -0.127838 -0.222263 0.078140 0.499011 -0.620529 0.048968 -0.412958 0.134536 0.221226 0.451486 0.231323 0.167509 0.447183 -0.317197 -0.426035 -0.144435 0.257363 -0.244510 0.567263 0.075819 0.195670 -0.103608 -0.756005 0.553785 -0.055009 0.869893 0.037048 -0.496847 -0.051280 0.442714 -0.899131 0.308587 -0.328013 0.119267 -0.325040 0.063307 0.204838 0.400279 -0.167337 0.208393 -0.009615 0.621378 -0.021386 0.429450 -0.421839 0.081557 0.077322 0.269702 0.623639 -0.485042 0.071282 -0.027072 -0.096225 -0.092090 0.523445 -0.067432 0.509886 0.150024 0.112982 -0.204756 0.006255 0.603707 -0.320923 -0.331261 0.193959 0.594072 0.056067 0.464475 -0.302640 -0.096709 0.464950 1.080794 -0.533019 0.967077 -0.020309 0.833190 -0.287436 -0.246827 0.222126 0.220947 0.466624 -0.379835 0.589660 0.219299
H103 0.106657 -0.284592 -0.303434 0.076070 -0.241814 -0.618989 -0.541826 -0.512986 0.418158 -0.143247 0.025370 -0.467949 0.048373 -0.293460 0.097787 0.638073 -0.093956 0.002637 0.088587 -0.328775 0.388465 -0.396757 0.737062 0.352780 0.223775 0.593745 0.359360 -0.138697 -0.509403 0.459778 -0.487607 -0.185896 -0.373126 -0.267732 -0.416446 0.331660 0.602856 -0.201556 -0.041804 0.004377 -0.693431 0.299431 -0.005301 0.059060 -0.122692 -0.197408 0.079659 0.410850 -0.539631 0.005047 -0.381755 0.102301 0.205221 0.386603 0.191964 0.177733 0.409919 -0.286604 -0.341314 -0.125323 0.268609 -0.224585 0.495907 0.043221 0.150976 -0.063898 -0.652401 0.510160 -0.029772 0.786233 0.027639 -0.477399 -0.032021 0.400899 -0.771353 0.272566 -0.287156 0.128864 -0.313611 0.038025 0.170652 0.346445 -0.158643 0.157960 -0.006601 0.598095 -0.003377 0.413396 -0.346186 0.028575 0.067854 0.259170 0.511273 -0.480098 0.065730 0.006435 -0.108958 -0.105602 0.464363 0.003448 0.493699 0.122857 0.141361 -0.162003 0.012440 0.542088 -0.300496 -0.311690 0.164962 0.532301 0.066285 0.440426 -0.281318 -0.094042 0.414068 1.003593 -0.485815 0.872487 -0.010363 0.801733 -0.257894 -0.282006 0.155613 0.226194 0.415791 -0.371953 0.510903 0.115771
H63 0.050099 -0.111417 -0.505145 -0.275660 -0.191897 -0.883721 -0.314320 -0.818878 0.219602 0.000991 0.084318 -0.424760 -0.149254 -0.109911 0.241457 0.055017 -0.467628 0.379817 0.065833 0.070972 0.429443 -1.188317 1.007111 0.615201 0.011810 0.131885 0.451477 -0.012125 -0.709581 0.459884 0.388380 -0.129384 -0.010852 -0.133363 -0.494594 -0.155106 0.352349 -0.476377 0.051851 -0.170594 -0.630439 -0.418057 -0.091955 -0.014862 -0.525970 -0.712979 0.327261 0.559372 -0.156061 -0.190106 -0.175646 0.171642 0.490712 0.033459 -0.480839 0.465575 0.070548 -0.411437 -0.722255 -0.163667 0.009521 -0.188132 0.559821 0.001284 0.225181 0.368133 -0.467473 0.742987 0.061890 0.605872 -0.250927 -0.106295 0.514465 0.272214 -0.052639 0.286712 -0.185160 0.172902 -0.033788 -0.237062 0.775350 -0.600864 -0.483699 0.444747 -0.266147 0.915377 -0.102933 0.410636 -0.173998 0.541408 -0.132068 -0.027036 0.038376 -0.187711 -0.447430 0.206598 -0.492097 -0.334118 -0.075352 -0.599771 1.024292 -0.443923 -0.062049 -0.015088 -0.278237 -0.242893 -0.689069 -0.059745 0.224978 0.515343 -0.124745 -0.039570 0.244747 -0.455436 0.173338 1.038721 -0.418172 1.119487 0.085765 0.696336 0.239186 -0.424249 -0.445403 0.427392 0.629842 0.251137 1.255100 -0.124510
H74 -0.250658 -0.058765 -0.133152 0.048911 -0.504539 -0.715498 -0.346031 -0.598941 1.092880 0.542586 0.149694 -0.852357 -0.016078 -0.294787 0.233317 0.064856 0.298282 -0.630668 0.835679 -0.317728 0.474188 -0.289776 0.340449 -0.140278 0.180557 0.533583 0.386047 -0.259657 0.151280 0.619174 -0.603363 -0.274544 -0.036574 -0.417979 -0.009943 0.421666 0.538498 -0.330515 -0.692865 0.056787 -0.731638 0.033440 -0.153527 0.025162 -0.060852 -0.264263 0.340476 -0.204698 -0.205439 -0.181431 -0.051397 0.496448 0.118561 -0.208917 0.119026 0.495118 0.521476 0.005855 0.092364 0.440065 0.209420 0.106638 0.493513 0.247659 0.295846 0.885054 -0.515684 0.102578 -0.527855 0.222264 -0.446521 0.016878 0.155491 -0.295256 -1.135146 -0.061437 -0.506801 -0.007799 -0.515866 0.245819 0.190032 0.731308 -0.591863 -0.155197 -0.085776 0.072590 0.562822 0.219932 -0.420870 -0.369771 -0.297019 0.490797 0.114334 -0.617748 -0.564275 -0.270424 0.653555 -0.535058 0.199682 -0.133865 0.211155 0.505647 0.277078 -0.474153 0.096578 0.759280 -0.074370 -0.179792 0.103147 0.323924 -0.061523 -0.100191 0.183108 -0.273635 0.023724 0.508570 -0.515200 0.879437 0.278486 0.549340 -0.090797 0.226917 0.500683 0.398692 0.508987 -0.758755 0.608277 0.546082
H152 0.585668 -0.681215 -0.326922 0.252815 -0.186847 -0.677461 -0.268185 0.137178 0.237894 -0.227359 -0.095398 -0.617113 -0.263224 0.101963 0.590837 0.139579 -0.414497 0.224081 -0.381326 -0.641130 0.201117 -0.549176 0.126234 0.323074 0.389727 0.974568 0.097768 0.348025 -0.731946 0.173436 -0.244712 0.209062 0.328365 -0.532179 -0.453458 -0.014613 0.786807 0.003211 0.373994 -0.090816 0.112050 -0.060801 0.398629 -0.210993 0.004879 0.359772 0.484361 0.444488 -0.638861 -0.043493 -0.479486 0.619961 0.724977 0.169649 0.361101 -0.157690 0.652215 -0.528777 -0.560183 -0.142889 -0.380858 -0.497509 0.197179 -0.012994 0.207117 -0.187828 -0.250501 0.318133 0.232408 -0.067224 0.015684 -0.451042 -0.022743 0.163742 -0.380949 -0.039798 -0.694792 -0.099042 0.124717 0.163881 0.509186 0.096266 -0.186300 -0.254625 -0.107383 0.588626 -0.253210 0.556131 -0.243625 0.294187 0.372203 -0.161380 1.068535 0.011871 -0.155817 -0.031082 -0.116832 -0.072353 0.802796 -0.735516 0.640360 0.569627 0.174536 -0.380424 0.339414 0.516450 -0.981397 0.066495 0.481122 -0.160203 0.071164 0.228571 -0.728553 -0.113104 0.818901 0.693371 -0.593081 0.646332 -0.261141 0.375521 -0.427218 -0.240837 -0.670707 -0.309263 0.582879 -0.988148 0.945160 -0.369206
H189 0.152506 -0.286053 -0.121951 0.229299 0.646744 -1.133403 -0.295268 -0.251765 0.055607 0.198296 -0.512558 -0.792689 -0.046495 -0.504511 -0.420072 0.514575 0.225061 0.121876 0.001018 -0.463500 0.330254 0.017165 0.735886 0.481987 0.779598 0.164577 0.482900 -0.548333 -0.005124 0.161141 -0.487456 -0.267535 0.388315 -0.111185 -0.394455 0.557694 0.785809 -0.102769 0.111462 0.428145 -0.480832 0.786371 0.593846 0.075244 0.194872 -0.197478 0.212395 0.761255 -0.114618 0.050706 -0.399753 -0.426558 -0.353395 0.552212 0.028844 -0.230434 0.109438 -0.302900 0.076433 -0.688835 -0.126578 -0.455417 -0.387281 -0.563887 -0.258604 -0.408997 -0.716339 0.479404 0.203868 0.486897 0.215699 0.008736 0.537666 0.575835 -0.592621 0.617295 0.270806 0.662814 -0.697949 -0.122220 -0.310872 -0.398707 0.106650 -0.287155 -0.048070 0.334344 -0.184718 0.289738 -0.507638 -0.172477 0.525571 -0.160079 0.423139 -0.419185 0.231912 0.167584 -0.591547 -0.622486 -0.070876 0.153372 0.827965 0.155750 0.318588 -0.158375 0.083570 0.035971 0.175353 -0.462520 -0.177168 0.711411 -0.309101 0.646248 0.268120 -0.241127 0.724062 1.192194 0.246645 0.944876 -0.343219 0.861288 -0.107528 -0.484498 0.084505 0.972746 -0.180163 0.005041 0.008426 -0.190234
H184 -0.026357 -0.593181 -0.514298 0.030461 -0.097707 -0.341618 0.387534 -0.568721 0.483388 -0.402495 0.134273 -0.801770 -0.558388 -0.066857 -0.318957 0.135145 -0.386788 0.166997 0.156835 0.030163 0.715391 -0.075891 0.435129 0.931122 0.568004 0.336466 0.951617 0.335300 -0.304210 -0.090781 -0.157640 -0.477334 0.091102 -0.472430 -0.419919 0.169472 1.089511 -0.034162 -0.326902 -0.148818 -0.312248 0.060494 -0.176764 0.022456 -0.242868 -0.419663 1.098960 0.175149 -0.993932 0.609910 -0.285099 -0.365072 0.191415 0.192726 0.357526 -0.393718 1.078857 -0.591998 -0.691378 -0.591402 0.459751 -0.259096 0.383535 0.704174 0.820221 -0.674206 -0.407099 0.174547 0.446278 0.121195 -0.048480 -0.634120 0.285831 0.514369 -0.986522 -0.095193 -0.119277 0.526882 0.008840 0.311154 0.504555 0.434749 0.151570 -0.168126 0.060255 0.184305 0.136988 0.231562 -0.156616 -0.132805 0.679540 -0.329592 0.925441 -0.694807 0.318645 0.216532 0.640010 -0.188539 0.544932 0.106714 0.378813 -0.186825 0.552957 0.403685 0.028721 0.619508 0.028302 -0.208636 0.579251 1.004315 0.015143 0.442318 -0.157429 0.380733 0.945071 0.498110 -0.228227 0.540225 -0.154226 0.445607 -0.355588 -0.319694 0.663159 -0.012149 0.360533 0.009879 0.557480 -0.062803
P200 -0.278525 -0.216623 0.195313 -0.375524 0.098940 -0.811661 -0.572659 -0.053516 0.037432 -0.105938 0.265263 -0.640432 0.211952 -0.082753 -0.243854 0.355181 0.049539 0.369646 0.190436 -0.256277 0.551413 -0.471032 0.751008 0.058292 0.143656 0.051885 0.315138 -0.131323 -0.512431 0.130026 -0.066535 0.268561 -0.170107 -0.153843 -0.316544 0.360523 -0.000552 -0.324047 -0.024996 0.084813 -0.848825 -0.206433 -0.001742 0.227619 0.142005 0.140977 0.417409 0.044210 -0.467108 0.064524 -0.391465 -0.394376 0.135270 0.228919 -0.110086 0.098057 0.759281 -0.167549 -0.587682 -0.029191 -0.181522 -0.450782 0.506714 0.043521 -0.083563 0.103239 -0.486106 0.602764 0.102619 0.064392 -0.242498 -0.342546 -0.520876 -0.122713 -0.395091 0.275761 0.221830 -0.183307 -0.610704 -0.170578 0.624927 -0.023382 -0.372636 0.229013 0.075436 0.437791 0.347662 0.043046 -0.000759 0.419247 0.215796 -0.267337 0.484890 -0.153326 -0.127704 -0.013797 -0.407146 -0.045673 0.103395 -0.519154 0.508635 0.730836 0.317083 -0.209105 0.120721 0.392600 0.236684 -0.132848 -0.050882 0.034745 0.088555 0.563632 0.034326 0.460982 -0.113872 0.452147 -0.078299 0.581883 -0.267937 0.804325 0.292463 0.100169 0.221350 0.324386 0.303875 -0.687187 -0.000962 -0.137716
H123 -0.396465 0.237161 -0.067148 0.062670 -0.068219 -0.697059 -0.671210 -0.087678 0.011607 0.017816 -0.109181 -0.317778 0.007202 -0.275366 0.108271 0.491371 0.064968 -0.326328 -0.136549 -0.249848 1.126728 -0.076040 0.409160 -0.083068 0.324422 0.434471 0.365035 0.213879 -0.696029 0.096374 -0.362592 -0.102120 0.095620 0.140563 -0.336624 0.040155 0.565485 0.167647 0.082289 -0.288591 0.061812 0.327423 -0.069503 0.195099 -0.153079 -0.172898 0.514188 0.181587 -0.437508 0.138846 0.074840 0.130502 0.053210 0.598588 0.296451 -0.249361 0.037773 -0.443675 -0.361970 -0.622043 0.224296 -0.218615 0.095696 -0.135442 0.246411 -0.133423 -0.526209 0.941540 0.270137 -0.146910 -0.082024 -0.276147 -0.138011 0.139589 -0.618125 0.593867 -0.349513 -0.473771 -0.218733 -0.014030 0.183933 0.294629 0.030872 0.283863 -0.020544 -0.039922 0.050234 0.259840 -0.645890 -0.026097 -0.262370 -0.388828 0.692119 -0.093225 -0.223848 -0.180126 -0.073454 -0.036838 0.672541 0.002951 0.149545 0.289199 -0.042864 0.411888 -0.449125 0.573070 0.378974 -0.358723 0.125055 0.459226 -0.231368 0.251811 0.016745 -0.317294 0.544708 0.700663 -0.169450 0.696353 -0.660021 0.394768 0.134105 0.236966 0.857040 -0.140255 0.097316 -0.512357 0.481279 0.563059
H112 -0.107637 -0.337170 -0.067542 -0.169784 0.238380 -1.040635 -0.748692 -0.113487 0.564269 -0.119898 0.132416 -0.535915 -0.256723 -0.406737 0.216565 0.057658 0.335775 -0.699556 -0.193223 -0.288446 0.209075 -0.400817 0.815344 0.434532 -0.129162 0.662969 0.617817 0.422591 -0.674997 0.147483 0.349042 0.012532 -0.542132 -0.428262 0.186177 0.082197 0.871183 -0.386675 -0.029774 0.022456 -0.286072 0.346622 0.144465 0.459504 -0.268607 0.298847 0.656185 0.482025 -0.424042 -0.117221 -0.260687 0.507530 0.087455 0.537400 0.345877 -0.488952 0.363955 0.118272 -0.504682 -0.193887 -0.044687 -0.001759 1.012581 0.255294 -0.099839 0.338918 -0.570792 0.881435 -0.030137 1.325812 -0.641390 -0.629553 0.098424 0.864843 -0.222274 0.110620 -0.774755 0.102888 -0.087816 0.267749 -0.329815 -0.090776 -0.089005 0.785665 -0.366986 1.105438 -0.009843 0.597284 -0.506513 0.141878 -0.501332 -0.025445 0.240187 0.220531 -0.103269 0.128316 0.548320 0.883641 -0.035209 -0.482100 0.052579 -0.057439 0.760437 -0.236714 -0.143366 0.195911 0.029791 -0.431684 -0.422792 0.357007 0.021625 0.718355 0.008793 -0.167383 0.048043 0.815235 -0.113220 0.648493 0.040643 0.692636 -0.150949 -0.292066 0.233119 0.146219 0.407551 -0.296616 0.539594 0.367685
H166 0.134299 -0.187540 0.268127 0.350337 -0.552222 -0.055444 -0.530954 0.080762 -0.082929 -0.259392 0.222512 -0.246886 -0.066881 -0.332019 0.035573 0.140762 -0.370118 0.524956 0.383984 -0.285864 0.343736 -0.167045 0.734524 0.430432 0.168798 0.297781 0.500472 0.209937 -0.673129 0.599699 -0.309581 0.037805 -0.231799 -0.843431 0.345724 -0.262773 0.472585 0.389096 0.068122 0.169839 -0.652141 0.354964 0.546440 0.665900 -0.325445 -0.028403 0.948956 0.411441 -0.285916 0.072183 -0.468759 0.413267 0.097849 0.664012 -0.066772 0.517006 -0.143493 -0.551413 -0.324197 -0.634466 0.157528 -0.547385 0.540917 0.479937 -0.019833 -0.048076 -0.719367 -0.496429 -0.015663 0.316853 0.059984 -0.218393 -0.147075 0.516654 -0.066433 -0.415022 -0.727475 0.622632 -0.243395 0.034146 -0.112590 -0.103787 -0.022860 -0.446589 -0.503243 0.520113 0.429277 0.036779 -0.529729 0.443954 0.584474 -0.463354 0.100767 -0.464868 0.084029 0.086704 -0.564456 -0.452768 0.004441 -0.182174 0.219631 -0.005514 -0.171764 -0.490429 0.132244 0.325355 -0.162576 -0.520251 -0.241058 0.355311 0.264248 0.108011 -0.262811 0.465786 0.331691 1.049161 -0.836521 0.568522 0.057186 0.380283 -0.779942 -0.563832 0.198096 0.017777 0.318685 -0.555354 0.672070 0.333320
H57 -0.419780 -0.174470 0.131113 0.457251 -0.000378 -0.302684 0.144139 -0.175298 -0.182200 -0.341484 -0.066553 -0.377562 0.150103 -0.525492 0.035553 0.371951 0.163005 -0.002363 -0.197018 0.112223 0.207175 -1.239713 0.740473 0.229565 -0.034576 0.239709 -0.475770 0.010417 -0.295702 0.160485 0.065429 -0.280415 -0.090530 -0.953611 0.167910 0.025106 0.365778 -0.410956 -0.399039 0.520423 -0.721953 0.190541 0.226069 0.752832 -0.131975 -0.491445 0.162214 0.040222 -0.209483 -0.596227 -0.371098 -0.360459 0.271448 0.017463 0.139411 0.444355 0.816396 -0.137526 -0.243153 -0.039816 0.433570 0.125958 0.158550 -0.154871 -0.128944 0.348807 -0.066629 0.492554 0.210007 0.301475 -0.007923 -0.753601 0.236748 0.100919 -0.329044 0.247358 -0.088840 0.106748 -0.232663 0.108234 0.064937 -0.263223 -0.474933 -0.489449 0.383718 0.895244 0.318672 -0.107029 0.380612 -0.475485 -0.006069 0.754680 0.355832 -0.586083 -0.347644 -0.390433 -0.479209 -0.149800 0.270484 0.499135 0.508370 0.179672 0.279292 0.230276 -0.087804 0.556386 -0.380459 -0.391935 0.110718 0.581984 0.328917 0.636617 -0.370633 -0.139691 0.590333 0.972068 -0.657012 0.569007 0.116813 0.932990 -0.133001 -0.794362 -0.236355 0.351780 0.035479 -0.538828 0.634582 -0.693041
P755 -0.102529 0.045941 0.061826 -0.014932 -0.117801 -0.464838 -0.504471 -0.467059 -0.015404 0.009109 -0.140588 -0.202655 -0.235858 -0.571525 0.428366 0.544714 0.108767 -0.271542 0.005142 0.109618 0.677075 0.241812 0.339361 -0.008987 0.312730 0.485051 0.265235 0.135189 -0.704664 -0.277911 -0.085012 -0.243121 0.057418 -0.156136 0.253884 -0.067680 0.776385 0.072042 -0.075157 0.003617 -0.055896 0.165685 0.238722 0.336130 -0.429628 -0.418467 0.469827 0.217428 -0.487723 0.174679 -0.138597 0.255277 -0.286848 0.518377 0.613686 0.011234 -0.064242 -0.508864 -0.279342 -0.447243 0.708559 -0.100769 0.122795 -0.287090 0.188401 -0.253285 -0.634148 0.599699 0.226819 -0.254778 -0.008026 -0.381240 0.555893 0.194359 -0.714359 0.569510 -0.480073 -0.460710 -0.037355 0.352740 -0.020299 0.466730 0.220754 -0.145689 0.109867 0.184624 -0.400795 -0.030966 -0.526640 -0.320721 -0.238819 -0.171092 0.712158 -0.156790 0.115788 -0.396990 -0.070308 -0.142317 0.293637 -0.010340 0.331848 0.149211 0.133595 0.286674 -0.366926 0.225790 0.143286 -0.691022 -0.075579 0.560550 -0.153944 0.026495 -0.134542 -0.411634 0.488738 0.791058 0.061080 0.602848 -0.337045 0.487591 -0.359167 0.050220 0.354071 -0.067609 0.266360 0.116791 0.411914 0.325560
H12 -0.535646 0.037699 -0.716534 -0.206906 -0.592993 -0.167167 -0.379542 -0.490143 0.662711 0.183115 0.058915 -0.579493 0.619603 0.379568 0.681143 0.722957 -0.251666 0.081142 0.100501 -0.121254 0.289613 -0.309959 0.711692 0.235449 0.864495 0.443323 0.964558 -0.337779 -0.580596 -0.161776 -0.480707 -0.075470 0.004497 -0.083088 -0.277431 0.357938 0.079814 -0.466369 -0.708612 0.350771 -0.644549 0.067490 -0.267823 0.345720 -0.336334 -0.448746 0.155105 0.409521 -0.359828 0.666838 -0.630663 -1.003826 0.031289 -0.205126 -0.336308 0.019031 0.923881 -0.137330 -0.158172 -0.227430 0.745842 0.159272 0.393432 0.207820 -0.072686 -0.336271 -0.514158 0.382299 0.343237 0.462204 -0.212811 -0.353995 0.550935 -0.229507 -0.264919 0.565282 0.034068 0.202108 -0.728946 -0.437720 0.933955 -0.048455 0.163840 0.209899 0.451500 0.387317 0.147042 -0.228769 -0.995352 -0.323013 0.030254 0.063154 0.387800 -0.196229 0.997443 -0.290900 -0.084675 -0.657588 0.075288 0.170284 0.899374 0.669982 0.196869 0.152397 0.258129 0.665414 0.198703 -0.980050 0.376346 0.184291 -0.288614 0.587300 -0.221244 -0.287482 1.005574 0.575704 -0.138892 1.026484 -0.054694 1.001179 0.501152 -0.005083 0.659129 0.313269 -0.280573 -0.156194 0.792188 0.338489
H14 0.076950 -0.441207 -0.180730 -0.254267 0.705539 -0.659827 0.188411 -0.376802 0.524199 -0.181838 -0.323780 -0.445385 0.321046 -0.416654 -0.128447 0.060718 -0.403934 0.020726 -0.096111 -0.502119 0.028384 -0.979098 0.622562 0.825732 0.053927 0.658116 -0.052569 0.114645 -0.492334 0.200835 -0.015134 -0.427760 -0.422502 0.013492 -0.381079 -0.408957 0.371698 -0.823527 0.109699 0.403701 -0.244140 -0.028877 0.574399 -0.419264 -0.097324 -0.363667 0.285125 0.685830 -0.562977 -0.005918 -0.832576 0.498507 0.112504 0.815457 0.063177 0.071854 0.081463 -0.470299 -0.331133 0.003095 -0.254765 -0.271692 0.673474 -0.249079 -0.016743 0.013424 -1.255774 -0.117772 0.140112 0.875684 0.108966 -0.424755 -0.448128 -0.036369 -0.991215 -0.175022 -0.769511 -0.306254 -0.654362 0.461399 -0.133156 0.171963 -0.482196 -0.088847 -0.125893 0.004233 0.188497 -0.116727 0.165050 0.019053 0.523315 0.085557 0.804997 -0.343110 -0.676713 0.391156 -0.428488 0.234136 0.338474 -0.353895 0.155386 0.043611 0.187873 -0.657512 -0.496087 0.205693 -0.193875 -0.361314 0.444166 0.056934 0.655448 0.743185 0.128017 0.285839 -0.121863 1.115926 -0.273003 0.206995 -0.063729 0.611026 -0.275250 -0.312740 -0.070601 -0.213219 1.011293 -0.929265 0.771855 0.101921
H21 -0.038240 0.037999 -0.277460 0.627811 -0.722784 -0.487575 -0.278869 -0.806181 0.605995 -0.562169 0.126337 -0.149012 0.128521 0.199769 -0.509341 0.844003 -0.140059 -0.164262 0.710611 -0.285774 0.137839 -0.508934 0.576726 -0.049291 0.180339 0.342895 0.517548 0.565458 0.166967 0.477935 -0.722347 -0.160295 -0.353001 -0.233959 -0.197021 -0.114823 0.056341 -0.589734 -0.357698 1.055359 -1.040771 0.310486 0.508418 0.535130 -0.105650 -0.213336 0.062527 -0.365959 -1.063939 -0.233327 -0.072768 -0.674066 -0.404413 -0.388302 -0.863561 0.468029 0.279606 -0.652502 0.271626 0.594648 0.332209 0.094716 0.509144 0.417753 -0.427673 0.153524 -0.429082 -0.219460 -0.660530 0.164235 -0.067433 -0.241470 -0.046536 0.272451 -0.448478 0.104998 0.441920 0.042286 -0.562984 0.326205 0.075256 0.472764 -0.319488 -0.005862 0.149325 0.069010 -0.083826 0.292614 -0.437037 0.180893 -0.209984 0.432408 0.401888 -0.550039 0.963629 0.071134 -0.505544 -0.594604 0.778920 0.379548 0.013236 -0.085395 0.053270 -0.279206 0.045241 0.899610 -0.105396 0.040500 0.398799 0.158373 0.044262 0.650554 -0.689118 0.368621 0.358989 1.394198 -0.750288 0.762352 0.545401 0.923014 -0.235421 -0.323258 -0.054254 0.326196 0.780388 -0.233445 0.217212 0.588270
H220 -0.635448 -0.302739 -0.329887 0.112225 -0.743770 0.186599 -0.519995 -0.279897 0.413018 -0.209223 0.098674 -0.287979 0.789899 -0.392989 -0.649083 1.304590 0.473119 0.864289 0.190243 -0.755995 0.529701 0.238243 0.261857 0.692677 0.610992 0.524651 0.520841 -0.172957 -0.733105 -0.013716 -0.422598 0.361255 -0.528505 -0.470592 -0.217106 0.514377 0.293007 -0.500843 0.360741 0.347135 -1.140805 -0.080149 -0.128815 0.536964 0.159633 -0.190218 -0.551126 0.605819 -0.507460 0.416550 -0.269687 -0.838542 0.167873 -0.518337 -0.543930 -0.145557 0.607926 -0.446667 -0.006570 0.321401 0.393437 -0.218035 0.454669 0.490654 -0.281599 0.052504 -0.449192 0.101753 0.246163 0.191414 0.770284 -0.115731 0.009623 -0.036726 -0.439970 0.078567 0.484126 0.096272 -0.429745 -0.021269 0.290643 0.304310 -0.112123 -0.200616 0.495584 0.770980 -0.475594 0.523054 -0.126055 -0.009303 -0.234997 0.500223 0.483002 -0.540608 0.509483 -0.249958 -0.396175 -0.125031 0.102577 -0.302000 0.525760 0.238522 0.102704 -0.448338 0.632366 0.544046 -0.627497 -0.143711 0.872198 0.460809 0.459333 -0.110229 -0.363229 0.426953 0.146183 0.943354 -0.144520 0.838355 -0.654094 0.908066 0.065320 -0.268337 0.052138 0.554804 0.077435 0.399137 0.731662 -0.294720
