1622 128
H79 -0.207830 0.067457 0.007460 0.385424 0.109025 0.074303 -0.011258 0.126494 -0.100768 -0.406125 -0.047086 -0.136788 0.032950 -0.032364 0.030050 -0.098352 -0.040630 0.487943 -0.544704 0.531860 0.174535 0.282244 0.143718 0.263903 -0.256352 -0.023576 -0.198317 0.036270 0.173086 -0.019784 0.052427 -0.159677 0.265131 -0.186579 0.087761 -0.472527 -0.257736 0.077315 0.063961 0.484606 0.317364 0.048645 0.028931 -0.207090 0.369508 0.126249 -0.683397 0.062527 -0.049076 0.337250 -0.052106 0.256366 -0.121301 -0.035720 -0.106179 -0.266179 -0.101581 0.214264 0.186569 -0.234839 0.394981 0.141694 -0.329597 -0.172241 -0.170193 -0.467255 -0.455288 0.340581 -0.075630 0.464939 0.084522 0.105574 -0.163949 -0.243459 0.004127 -0.348292 0.310033 -0.136207 0.468505 0.246696 -0.713439 0.213277 -0.124205 0.083440 -0.248269 -0.301823 0.055088 -0.160602 0.117571 0.158334 0.348652 -0.261356 -0.169309 0.045464 0.127881 -0.157225 0.303782 0.066540 -0.026566 -0.367990 -0.091505 -0.396452 -0.663366 0.204987 -0.454522 -0.617778 0.107745 -0.038972 -0.041167 -0.003605 0.087176 -0.350296 0.315555 0.172790 -0.088522 -0.346566 0.554068 -0.225662 -0.092134 -0.102293 -0.207785 -0.513525 -0.498696 0.131548 0.251568 0.248065 -0.302213 -0.061824
H95 -0.489769 0.028758 -0.470368 0.114856 -0.042941 0.339435 0.112463 0.056120 0.285724 -0.488053 -0.088988 -0.125766 0.311707 0.204085 -0.488457 0.287057 -0.024157 0.504562 -0.659358 0.238256 0.300532 0.253881 -0.232903 -0.115726 0.164651 -0.254369 -0.276743 0.380736 0.239845 0.001617 0.302419 -0.545878 0.055566 -0.212338 -0.241715 -0.217183 -0.033681 -0.183178 0.220330 0.137078 0.138634 0.308085 0.385668 -0.605968 0.250355 0.036039 0.053564 0.277692 -0.330668 0.240138 0.500776 0.039753 -0.456162 -0.362764 0.144562 -0.411992 0.205431 0.567961 -0.106592 0.651902 0.235765 0.039016 -0.312870 0.835925 -0.261262 -0.351200 -0.239835 0.036017 0.091819 0.297750 0.203999 0.100427 -0.336867 0.119963 0.159425 -0.813452 -0.198162 0.045311 0.206365 -0.023720 -0.505151 0.184251 -0.090453 0.093118 0.087563 0.340677 -0.020044 -0.537122 0.679843 0.217401 -0.071939 0.323515 0.137756 0.098400 0.055594 0.441866 0.273090 -0.500725 -0.212980 -0.228656 0.298721 -0.181522 -0.114978 0.249646 -0.125588 -0.183626 0.140297 0.158352 0.025780 -0.411129 -0.054147 -0.271504 0.184169 -0.006761 -0.284902 -0.173749 0.465384 0.123300 -0.216210 -0.088864 0.270894 0.519492 -0.065082 0.081567 0.352928 -0.123481 -0.107902 -0.120839
H209 -0.197348 0.211215 -0.359717 0.353882 0.143356 0.061760 0.233432 0.155235 -0.372288 0.230977 -0.214378 -0.218174 -0.378881 -0.127211 -0.226602 -0.068500 -0.644557 0.549803 -0.529734 0.012901 0.614821 0.423135 0.227990 -0.587686 0.105830 -0.232740 -0.374853 0.354839 0.063267 0.440756 0.145961 -0.169695 -0.127782 -0.139400 -0.021659 -0.133497 0.044340 -0.041127 0.098853 0.142464 0.140652 0.361235 -0.092342 -0.237202 0.381127 0.285532 -0.321136 -0.228771 -0.098652 0.817338 -0.238401 0.028820 0.356876 -0.321575 0.028081 -0.210497 -0.001536 -0.057133 0.361209 0.529005 0.779254 -0.309307 0.093984 0.795555 -0.525817 0.483152 0.005740 0.741194 -0.222109 0.083462 -0.042697 0.233270 0.201593 0.211549 0.146423 -0.735452 -0.197865 -0.322355 -0.141655 -0.022102 -0.341943 0.585766 -0.034975 -0.374720 0.343840 -0.162497 0.119480 -0.316318 -0.079030 -0.202297 0.425773 -0.241315 0.081077 0.460363 -0.427937 0.573504 0.024647 0.275217 -0.548866 0.186940 -0.539035 0.191060 -0.512898 0.059922 -0.105709 -0.356503 0.572867 0.114813 -0.500907 -0.156684 -0.412888 -0.434510 0.154160 0.539607 0.171630 0.019898 0.058377 0.051507 -0.465253 -0.023179 0.332645 -0.095008 0.172832 -0.040957 -0.233257 -0.067842 0.119793 0.036402
H191 -0.319868 0.213615 -0.796923 0.324254 -0.155479 0.029180 0.396544 0.215011 -0.114366 -0.429012 0.146562 0.068192 0.197793 0.239814 -0.341746 -0.482567 -0.260413 0.656210 -0.032892 -0.251249 0.524319 -0.128232 0.285367 -0.142623 -0.388541 -0.242895 0.062632 0.369773 -0.048057 0.167935 0.057519 -0.746677 0.281419 -0.353547 0.881005 -0.407243 -0.358541 -0.220583 0.522095 0.402489 0.181694 0.222942 0.122430 -0.337201 0.692649 0.365839 0.292651 -0.069634 0.204206 0.434555 -0.159183 -0.407843 -0.246769 -0.390440 -0.439033 -0.409786 0.346626 0.211895 0.139288 0.198586 0.250316 0.272736 -0.027693 -0.028311 -0.101653 0.165727 -0.185120 0.294980 0.241556 -0.487672 0.202376 -0.149794 0.105836 -0.653031 0.201379 -0.059866 -0.043374 -0.139273 0.101840 0.283904 -0.515256 -0.019797 0.043338 0.154316 0.020714 0.325847 0.234101 0.095605 0.747628 -0.228486 0.211695 -0.308367 0.137083 0.327625 -0.320247 0.401531 0.404198 0.521939 -0.091303 -0.124415 -0.041130 -0.140019 -0.194591 -0.036702 0.163081 -0.855661 0.285955 -0.309223 0.157658 -0.203806 -0.106583 -0.280308 0.538866 0.220942 -0.331129 0.271960 -0.307171 0.266355 0.061157 0.012800 0.371907 -0.149092 -0.173349 -0.658296 0.045257 -0.071919 0.421212 -0.310054
H149 0.331098 0.208182 -0.590082 -0.322050 -0.176504 0.664864 0.048015 0.157580 0.239348 -0.058711 -0.232102 -0.352257 0.246210 -0.195400 0.508931 -0.028128 -0.079850 0.750958 -0.803563 -0.177455 0.088193 0.193032 -0.231392 -0.162170 0.159018 -0.212065 -0.504393 0.132421 0.010841 0.311022 0.015686 -0.310523 0.106046 -0.570520 0.336533 -0.340084 -0.353904 -0.582082 0.556067 0.106827 -0.091907 0.425457 0.475186 -0.181313 0.509687 0.634155 -0.282127 0.294849 0.346787 0.521846 -0.435439 -0.009408 0.499242 -0.112422 0.036291 -0.213646 0.028687 0.306390 -0.223630 0.524853 0.294772 0.091785 -0.088346 0.391098 -0.142560 0.026633 -0.402144 0.258579 -0.303189 0.664849 0.218916 -0.300262 -0.051526 -0.213785 -0.012052 -0.628028 -0.367102 -0.052235 0.049457 0.205047 -0.337890 -0.239913 -0.385359 0.198811 0.198254 0.400839 0.084947 -0.399401 -0.245332 0.094833 0.276185 0.230230 0.020693 0.636245 -0.612154 -0.034983 0.388857 0.392277 -0.042167 -0.007219 0.419618 0.275492 -0.104919 0.050416 -0.323289 -0.955578 -0.143890 -0.462155 0.335853 -0.156798 -0.388214 -0.121687 -0.041026 0.301910 0.369526 -0.224403 0.053898 0.568482 0.140187 0.378300 -0.535970 -0.150879 0.178341 -0.224780 -0.082509 -0.061244 0.101487 -0.313887
H87 0.133285 -0.278090 0.073455 0.177483 0.075277 0.451474 0.171401 0.120254 -0.054163 -0.487436 -0.443229 -0.525793 -0.004592 -0.258088 0.094774 -0.328603 0.177171 0.432642 -0.371625 0.192608 0.035456 0.508197 -0.252641 0.120671 -0.337471 -0.460745 -0.302679 0.014911 -0.119998 0.012381 -0.048350 -0.003571 -0.023745 0.037545 0.500128 -0.444346 -0.074404 -0.225115 0.013113 0.668608 0.391865 0.045264 -0.029601 -0.324231 0.428392 0.028156 -0.523427 0.018778 -0.241164 0.399877 -0.027636 0.131922 0.256848 -0.352953 -0.494398 -0.263777 -0.069213 -0.438611 0.228449 -0.233788 0.611392 0.349261 -0.044544 0.397990 -0.340444 -0.307787 -0.058246 0.490382 -0.574304 0.163411 0.254729 -0.323853 0.221566 0.148243 -0.181347 -0.468297 0.185242 -0.069728 0.230716 0.305138 -1.036252 -0.062955 0.076983 -0.257159 -0.115694 -0.289774 0.427893 0.029800 0.267828 0.207108 0.156033 0.212750 -0.495570 0.451349 0.077259 -0.050166 0.058920 0.265745 0.077926 -0.519281 -0.179910 -0.494880 -0.320395 0.175695 -0.205038 -0.663390 -0.444413 -0.115690 -0.213783 -0.631779 0.133275 -0.647589 0.002777 0.631628 0.321308 0.346047 0.504108 -0.008889 -0.278417 -0.276828 0.166886 -0.303336 -0.595735 0.239286 0.377490 0.363051 0.352053 -0.046798
H89 -0.223087 -0.003775 0.081917 0.409469 0.434200 0.209106 -0.124015 0.293815 -0.349313 -0.857861 -0.240750 0.068407 0.441677 -0.289982 0.187089 -0.130626 -0.327359 0.231974 -0.300526 0.694157 0.530847 0.105489 0.038234 -0.374198 -0.513260 0.186425 0.054203 0.319481 -0.183976 0.036453 0.107099 -0.254850 0.331441 -0.338434 0.242493 -0.662490 -0.118272 0.156145 0.375015 0.051537 0.306247 0.386752 -0.152700 -0.383700 0.142955 0.289482 -0.497111 0.463275 -0.239460 0.441173 0.147647 0.521623 0.119256 -0.103137 -0.004402 -0.333845 -0.034557 0.118742 0.241142 -0.003541 0.493108 0.097649 -0.317811 0.188514 -0.099656 -0.612458 -0.246771 0.544431 -0.030135 0.297073 0.245752 -0.127244 -0.152368 -0.537189 0.105238 0.000863 -0.093489 -0.589282 0.632996 0.534793 -0.473605 -0.048260 -0.023270 -0.112372 -0.100708 -0.247489 -0.050319 -0.333325 -0.077394 0.201272 0.057791 -0.200431 0.252719 0.096900 -0.222198 -0.298522 0.217775 0.186796 0.104479 -0.223719 0.118019 0.139042 -0.525492 0.633832 -0.316187 -0.261960 0.339332 -0.265838 -0.203848 -0.011901 -0.228831 -0.390070 0.853334 0.162923 0.131996 -0.197829 0.465506 -0.048442 -0.361902 0.119520 -0.134282 -0.287711 -0.017384 -0.586221 0.205656 0.176463 0.085768 0.246451
H106 -0.382277 0.166365 -0.238811 0.618038 -0.129438 0.199087 -0.116663 -0.042878 0.307551 -0.296425 -0.050851 -0.269066 0.126997 -0.358481 -0.394021 0.253712 -0.482442 0.154797 -0.007611 0.374880 0.492041 0.261082 0.085739 -0.441924 0.171161 0.493701 -0.098485 0.871544 0.011490 -0.177798 0.227540 -0.319199 0.295826 0.205798 0.451563 -0.512572 -0.909593 -0.305821 0.056713 0.369154 0.225465 0.237843 0.392549 -0.269958 0.131072 0.298924 -0.358951 -0.518076 0.063262 0.657646 -0.357255 0.422082 -0.271679 -0.276727 -0.541514 -0.263033 -0.333213 0.154901 0.331974 0.725509 0.358687 -0.150602 -0.565982 0.633060 -0.187657 -0.106424 -0.825593 0.301027 0.121477 -0.019794 0.154183 0.118318 0.022878 -0.157652 0.540992 -0.878283 -0.140363 0.026937 0.028310 0.586829 -0.560343 -0.131776 0.256704 0.173311 -0.451778 0.073793 0.907165 -0.397085 0.415919 -0.233129 0.033718 0.087875 -0.085449 0.469582 -0.154303 0.204293 -0.125035 -0.161524 0.065532 0.724934 -0.205560 -0.175461 0.057195 0.087342 0.070979 -0.685912 -0.230216 0.135425 -0.273425 0.016161 -0.527473 -0.025264 0.216991 1.170338 0.214097 -0.075211 -0.092322 -0.218313 0.166020 0.261358 -0.135898 -0.336276 0.174603 -0.681731 0.630831 -0.552679 0.025487 -0.060398
H20 -0.604551 -0.007210 -0.975999 0.524500 0.075519 -0.101008 0.391533 -0.581306 -0.060018 -0.397383 -0.197873 -0.284117 0.287276 0.256943 0.117959 0.097819 -0.736762 0.869011 -0.260446 0.249703 -0.029452 -0.336686 0.245877 -0.774801 -0.227247 -0.777955 -0.142939 0.511056 -0.028784 0.203711 -0.127661 -0.049037 0.725042 -0.419683 -0.175440 -0.687743 -0.351581 -0.024985 0.224224 0.450310 -0.353722 0.036174 0.007616 -0.000722 0.217583 0.182383 0.004394 0.273589 0.087667 0.638917 0.598455 0.084845 -0.324139 -0.064463 -0.520323 -0.672236 0.273677 -0.169008 0.137826 0.436956 0.405143 0.651250 0.125531 0.749004 -0.416216 -0.521934 -0.261767 0.613626 0.133854 0.489216 -0.101848 0.073011 -0.102199 0.143729 0.162460 -0.485357 0.607042 0.203930 -0.068160 0.186658 -0.125305 0.152059 -0.140022 -0.544677 0.007376 -0.188964 -0.265788 -0.215553 0.411054 0.583318 0.839548 -0.313609 0.098365 0.178515 0.196032 0.184458 0.074141 0.502543 -0.188928 -0.042296 -0.253123 0.210805 -0.274271 0.164445 -0.465834 -0.634354 -0.561746 -0.328573 -0.038392 -0.497016 0.048562 0.258367 0.786585 0.519855 0.223189 -0.051017 -0.424181 0.038846 0.040701 -0.041107 0.361012 0.105086 -0.089442 -0.150801 0.007393 -0.092434 0.565286 -0.267285
H1 -0.051939 0.037274 -0.512368 0.046792 -0.422510 -0.208682 0.043866 0.244912 0.015094 0.315225 -0.146023 -0.239437 0.060437 0.193094 0.645568 -0.237221 -0.461359 0.031505 -0.846902 0.164180 0.120054 0.264506 -0.499472 0.106395 -0.054680 -0.340549 0.344253 0.231221 -0.120386 0.365510 0.061942 0.019238 -0.248858 -0.796268 -0.125015 -0.249441 0.134592 0.003747 0.383933 0.358809 -0.047597 -0.005342 -0.087647 0.081865 0.850667 0.604458 -0.596620 0.244224 -0.463574 0.936225 -0.128037 -0.252539 -0.092434 -0.167310 -0.499818 -0.486769 0.248391 0.597035 -0.268217 0.266883 0.735020 0.283056 -0.633445 0.326941 -0.376481 -0.116291 0.049864 0.620954 -0.132196 0.170141 0.006288 -0.136945 0.115321 0.312612 0.133788 -0.409006 -0.437562 -0.129932 0.446819 -0.076259 -0.531714 -0.558162 -0.273454 0.170761 -0.108026 -0.426244 0.433463 -0.080741 0.556829 0.590176 0.172314 0.290603 0.499466 0.598934 0.210243 0.163162 0.426527 0.202127 -0.279240 -0.059444 -0.213645 0.428136 -0.053498 0.270099 -0.574253 -0.668097 0.473812 -0.343448 0.339232 -0.010561 -0.418221 0.097477 0.563968 0.039216 -0.109830 0.391772 0.771701 0.515670 -0.505924 -0.285620 0.730485 0.185377 -0.306462 -0.581675 0.268826 0.182834 0.096597 -0.465641
H165 0.118346 -0.202622 -0.042267 -0.168089 -0.706579 0.197527 -0.040029 0.273213 -0.057880 -0.168247 -0.046888 0.320283 -0.613465 0.539329 0.233183 -0.413639 -0.468445 0.730806 -0.145295 0.620409 0.288787 0.236417 -0.304831 -0.389479 -0.098874 -0.470711 0.312844 0.255741 -0.297444 0.119181 0.020760 -0.120408 -0.112140 -0.685009 0.280648 -0.610661 -0.423158 0.325756 0.738995 0.902625 0.098406 0.398749 0.446751 -0.024442 0.124690 0.218938 0.001645 0.394945 0.142983 0.637649 0.167706 0.597813 -0.021871 0.122364 -0.202343 -0.222427 0.140351 0.169943 -0.152153 0.005237 0.325729 -0.239623 -0.086563 0.863853 -0.101890 0.053367 -0.565915 -0.026162 -0.321256 0.139707 -0.045448 0.037096 -0.198624 -0.480418 0.368937 -0.892384 -0.247658 0.390692 0.602870 -0.032379 -0.653348 0.085215 -0.078955 0.013908 -0.084203 0.082717 1.045095 -0.437151 -0.030603 0.227816 0.415695 0.115672 0.182951 0.410737 -0.079425 0.458075 -0.018180 -0.401087 -0.297961 -0.219389 0.052731 0.308756 -0.600699 0.254589 0.014515 -0.343170 0.548368 -0.764607 0.198842 -0.105951 -0.215097 -0.002935 0.221052 0.788260 -0.224821 0.487830 -0.146371 -0.008887 -0.483147 -0.501936 -0.201271 0.030229 -0.224469 -0.229733 0.536525 -0.160270 0.046074 0.356159
H111 -0.063965 0.412223 -0.435134 0.136545 0.245574 1.216062 0.571862 -0.212603 -0.131811 -0.628959 -0.287549 -0.418222 0.138733 0.176939 -0.386671 -0.428593 -0.305550 0.688321 -0.320015 -0.061633 0.858389 0.419475 -0.308812 -0.659047 0.276353 0.088566 -0.186843 0.850951 -0.127123 -0.325185 0.137592 -0.419329 0.837333 -0.320029 0.516513 -0.678102 -0.558455 0.091814 -0.209920 0.379176 -0.330455 0.649645 0.424518 -0.180374 0.108885 0.501208 -0.054748 -0.099912 0.443958 0.289077 -0.045026 0.286941 0.196099 -0.630579 -0.666664 -0.624287 -0.191632 0.027753 0.277391 0.806859 0.205260 0.134253 -0.000730 0.270732 -0.232275 0.081080 -0.435589 0.462019 -0.132728 0.706068 0.626805 -0.256643 -0.152435 -0.164382 0.481663 -0.688574 0.632836 -0.466884 -0.028780 -0.017035 -0.214412 0.764793 0.400408 -0.897336 0.219088 0.470929 0.056223 -0.430294 0.187946 -0.140544 0.310432 0.064220 0.060032 0.367819 -0.173929 -0.154203 0.477578 0.170473 -0.269441 -0.323401 -0.205498 -0.372645 -0.447373 0.137945 0.222620 -0.367648 0.500828 0.334550 0.523241 0.148185 -0.417719 -0.148586 -0.154370 0.180931 -0.222916 0.045368 -0.321150 0.734917 -0.390619 0.595684 -0.072407 -0.399794 -0.439327 0.016281 0.353961 0.186676 -0.126136 0.139198
H25 -0.155604 0.148698 -0.191458 0.040020 -0.092836 -0.204785 -0.176549 0.273156 0.151020 -0.512629 0.070801 -0.549928 -0.067896 0.034822 -0.105046 -0.294245 0.274873 0.623841 -0.397912 0.051123 0.542805 0.599559 0.152967 -0.702069 0.241116 -0.586197 -0.133790 0.265347 -0.448884 0.112044 0.171196 -0.074871 -0.038903 -0.438618 0.019262 -0.180889 -0.863717 -0.472710 0.419617 0.655125 -0.235005 -0.216230 0.186678 -0.241135 0.592501 0.280305 -0.302033 -0.417336 -0.219857 0.764106 0.276224 -0.643771 0.159872 -0.524843 -0.191216 -0.156182 0.318516 -0.217782 0.060193 0.600785 0.065015 -0.137572 -0.306387 0.044193 -0.206422 -0.015155 -0.485033 0.846316 -0.135367 -0.128396 -0.021788 -0.319966 -0.281385 -0.271450 0.189090 -0.118524 0.234052 -0.246559 0.288176 0.116770 0.047205 -0.149168 -0.225084 0.248068 0.128348 0.195840 0.651370 -0.458548 0.248835 0.347655 0.761409 -0.298421 0.075574 0.474602 -0.031903 0.052868 -0.282873 -0.275194 -0.095008 -0.213584 0.054158 0.651850 -0.005131 0.725285 -0.370022 -0.136924 0.266079 -0.355199 -0.123468 -0.351537 -0.550498 0.353955 0.510137 0.583099 0.000205 -0.022660 0.336296 0.147808 -0.254950 0.396223 0.378717 0.127869 -0.192762 0.197175 0.494155 -0.556882 -0.413357 -0.371063
H211 -0.458337 -0.063119 -0.360975 -0.098978 -0.066829 0.179763 0.215445 0.363921 -0.297855 -0.208227 -0.307328 -0.374710 0.171205 0.346432 -0.342763 0.008268 -0.086032 0.213465 -0.558745 -0.005753 0.233081 0.251172 -0.234948 -0.340305 0.414682 -0.083497 -0.164909 0.603016 0.495237 0.125082 0.264565 -0.531276 -0.064714 -0.371352 -0.128012 -0.246293 -0.013493 -0.189075 -0.007845 0.360274 0.198404 0.086039 -0.040095 -0.545489 0.384692 0.002706 0.324090 0.319059 -0.461780 0.082276 0.513975 -0.085310 -0.136889 -0.557700 -0.355353 -0.527277 0.392919 0.146198 0.045169 0.636212 0.292670 -0.275058 -0.188477 0.980925 -0.082793 -0.129075 -0.125783 0.358670 -0.311206 0.077615 -0.109481 0.070775 -0.569313 0.067884 -0.073145 -1.160327 -0.395187 -0.018100 0.308698 0.601328 -0.542100 0.037332 0.024044 -0.126015 0.012965 0.378736 0.172228 -0.572716 0.862400 0.015979 -0.102788 0.183592 0.229164 0.345742 -0.221126 0.162136 0.209060 -0.334440 0.088718 0.037592 0.134120 -0.269881 0.266050 0.181034 -0.443383 -0.270744 -0.064622 0.048842 0.533851 -0.154914 -0.104700 0.032021 0.082608 -0.075341 -0.411187 -0.275441 0.514254 0.066768 -0.062981 -0.085508 -0.184470 0.355513 -0.349763 -0.008073 0.330219 -0.393641 0.055956 0.006502
H126 0.271590 -0.204058 0.037950 0.562887 0.313492 0.110319 -0.111870 -0.087711 -0.014633 -0.486233 -0.358749 -0.366861 -0.192414 -0.060192 -0.150811 -0.178790 0.207671 0.435649 -0.520344 0.135881 -0.028821 0.303770 -0.325691 -0.120761 -0.884134 -0.392411 -0.587059 0.309183 -0.050180 0.361988 -0.133673 -0.074393 0.318814 -0.212699 0.013202 -0.447668 0.020858 -0.059264 0.245133 0.707577 0.062764 0.445838 0.301136 -0.195037 0.619710 0.151012 -0.447705 -0.052550 -0.205547 0.134871 0.132412 0.315099 -0.150702 0.009311 -0.319938 -0.152432 -0.393428 -0.289223 0.497357 0.250994 0.166872 0.168448 -0.154147 -0.158615 -0.046847 -0.083043 -0.040931 0.172557 -0.463631 0.385852 0.037619 0.119717 0.141494 0.273554 0.160270 -0.757190 -0.094541 -0.537153 0.000168 0.377825 -1.204667 -0.141397 -0.153777 -0.112453 -0.396436 -0.279275 0.289963 -0.072706 0.499537 0.423595 0.618836 0.121071 -0.413317 0.336078 -0.119654 -0.069492 -0.160314 0.109079 0.093037 -0.270404 -0.422283 0.003859 -0.550353 -0.043180 -0.405729 -0.932785 -0.041622 -0.055837 -0.141550 -0.472512 -0.121895 -0.293675 0.374778 0.650469 -0.039783 0.463044 0.501338 0.164090 0.034435 -0.167622 -0.167360 -0.341019 -0.609640 0.052463 0.377831 -0.354991 -0.084159 -0.416018
H200 -0.115640 0.094786 -0.735117 0.668404 -0.369154 0.059321 -0.386157 0.171770 0.136439 -0.270194 -0.360133 -0.223888 -0.022423 0.043301 0.270987 -0.066036 -0.495282 0.124791 -0.369842 -0.445769 0.087923 0.165591 -0.046846 -0.502753 -0.112649 0.303549 0.001099 0.101664 0.097267 0.100702 -0.168164 -0.464143 0.204703 -0.519372 -0.106405 -0.060909 -0.476809 -0.070488 0.626216 0.916801 -0.059504 1.026723 0.085910 -0.298746 0.593481 0.308809 -0.838068 0.217687 -0.027501 0.686273 0.203496 -0.439866 -0.743119 -0.944451 -0.062657 -0.205600 -0.084652 0.060701 1.042563 0.697920 0.586279 0.293133 -0.631131 0.275634 -0.463991 -0.244651 -0.248884 0.413793 -0.568764 0.704565 0.394302 -0.243237 0.493217 -0.050738 0.312669 -0.244717 -0.042692 0.234415 0.262853 0.096791 -0.537666 0.029379 0.205466 -0.146017 0.150667 0.238511 -0.018578 -0.011203 -0.183494 -0.273569 0.400320 0.414234 -0.291838 0.382081 0.228636 0.574393 0.382964 -0.403195 -0.047941 0.003315 0.307979 0.015269 -0.681380 0.391899 0.362632 -0.684827 0.260676 -0.508007 -0.081334 0.173717 -0.644722 -0.434555 0.565497 0.053209 -0.207829 0.487335 -0.122284 0.636086 -0.004464 0.245699 0.612581 -0.387067 -0.870109 -0.182550 -0.235751 0.189630 -0.245791 0.018920
H22 -0.076237 -0.070543 -0.224785 0.088231 -0.208869 0.252922 -0.155365 0.294535 0.108632 -0.456479 0.023352 -0.667564 0.090059 0.151886 0.106521 -0.289126 0.288198 0.366851 -0.205787 0.075148 0.650136 0.647406 -0.185966 -0.963974 0.438477 -0.191125 -0.036068 0.621538 -0.675671 -0.054676 0.099423 0.180695 -0.221285 -0.192021 -0.020495 -0.118604 -0.640583 -0.166758 0.417333 0.292416 -0.333016 -0.224780 0.135975 -0.328238 0.507295 -0.068060 -0.762720 0.140371 0.070438 0.604960 0.165675 -0.692532 0.237093 -0.434034 -0.297387 -0.216799 0.241793 -0.049971 -0.036517 0.735247 -0.114686 0.032620 -0.091747 0.234169 -0.136289 -0.010542 -0.506335 0.768891 -0.125933 0.008465 0.216508 0.021980 -0.206657 0.141224 0.068055 -0.351473 0.070015 -0.504210 0.509278 0.349191 -0.196301 0.284217 -0.276673 -0.022343 -0.074109 0.216805 0.499903 -0.352168 0.241062 0.392544 0.942602 -0.002985 0.087856 0.531150 -0.004294 0.001174 -0.583999 -0.136402 -0.490925 -0.162050 -0.021128 0.566929 -0.001991 0.880322 -0.172144 -0.249744 0.016451 -0.137638 0.124517 -0.097712 -0.599916 0.120941 0.355222 0.553199 0.031554 0.417684 0.750210 0.136793 -0.383775 0.520441 0.261575 0.157411 -0.496079 0.087839 0.539759 -0.136088 -0.533499 -0.189006
H71 -0.538033 0.523143 -0.970836 0.542025 -0.357098 0.333778 0.108033 0.336004 0.433962 -0.048461 0.161390 -0.221130 -0.252957 0.128438 0.002791 -0.378588 -1.034207 0.384491 -0.266054 -0.052713 0.546882 0.290261 0.096532 -0.414784 0.360840 -0.831262 0.198676 0.642790 0.054919 -0.149359 0.447673 0.177109 -0.163005 -0.118324 0.681291 -0.881625 -0.361179 0.432010 0.125496 0.192170 0.143724 0.461035 0.478119 0.249432 0.196654 0.025371 0.052707 0.652265 -0.165597 0.197428 -0.378331 -0.113370 0.117595 -0.484187 0.258952 -0.486120 0.316499 0.054620 0.026918 0.874752 0.577349 0.434642 -0.336935 0.818846 0.330724 0.063230 -0.341322 0.693596 -0.657003 0.439759 -0.501698 -0.390958 0.234914 0.033532 0.288361 -0.399105 -0.129174 -0.431706 0.423808 0.418034 -0.582770 -0.019267 0.051879 -0.194387 -0.238506 0.364002 0.223917 -0.668224 -0.368566 0.142490 0.480758 0.152656 0.492718 0.620424 0.300011 -0.427404 0.286532 0.188260 0.259290 -0.193616 -0.500207 -0.001601 -0.560434 -0.180126 -0.252829 -0.933106 -0.275595 -0.112383 0.123421 -0.614375 -0.692456 0.247696 0.477845 0.165702 -0.179444 -0.179910 0.085536 0.122059 0.356364 -0.031853 0.667021 0.034128 -0.410921 0.033425 0.340835 0.235544 -0.002502 0.331164
H33 -0.514358 -0.301998 -0.686558 -0.170606 0.006877 0.001531 -0.177747 -0.521171 -0.190642 -0.541690 -0.321072 -0.419499 0.134969 0.028541 -0.135307 -0.384095 -0.769487 0.035932 -0.966931 0.128898 -0.105603 0.669849 -0.024465 -0.381988 0.204963 -0.094968 0.363453 0.170509 -0.089799 -0.321605 -0.402769 -0.368477 0.584793 -0.269088 0.695454 -0.810746 0.007301 0.257421 0.087473 1.372367 0.202928 0.388616 0.005902 0.083326 0.539122 -0.114443 -0.197714 -0.078183 0.484812 0.348304 0.011121 0.195154 0.170290 -1.049353 -0.046659 -0.244198 0.239728 0.477737 0.188893 0.581113 0.147081 0.383530 -0.439373 1.195042 -0.221505 -0.331134 -0.369403 1.240426 0.394550 0.556189 0.541367 -0.653587 0.064995 -0.597715 0.448963 -0.502374 -0.167336 0.264296 -0.148993 0.275331 -0.306434 0.216821 0.464342 -0.430546 -0.685303 -0.418304 0.280855 -0.603265 0.629771 0.133428 0.290847 0.664251 -0.376549 0.370144 0.493220 0.012164 0.066514 0.517907 -0.394294 0.257945 -0.334664 0.205063 -0.043963 0.338463 -0.016387 -0.016116 0.176707 -0.062929 -0.309630 -0.206132 0.035757 -0.090825 0.769753 0.193149 0.394981 -0.007657 0.387880 0.003822 -0.073935 -0.163807 0.214115 0.361480 -0.275066 -0.190024 0.912293 -0.374729 -0.355423 -0.705931
H30 -0.418504 0.360572 -0.352166 0.707562 0.096187 0.597131 -0.259007 0.497389 -0.048757 -0.063690 -0.266582 0.002909 0.161413 -0.196083 -0.145430 0.088250 -0.213039 0.755276 -0.623082 -0.261236 0.622553 0.638612 -0.091046 -0.747554 -0.108186 -0.277950 0.465359 0.166820 0.475933 0.207792 -0.170355 0.153367 -0.045266 -0.405518 0.561545 -0.338024 0.233364 0.051467 0.353012 0.293986 -0.207836 0.740120 -0.190737 -0.943920 0.358449 0.019729 -0.560129 0.387005 -0.069756 0.992115 0.477320 -0.259151 0.059841 -0.470899 -0.441255 0.255643 0.388328 -0.238313 0.234828 0.575233 0.773805 -0.416918 -0.278289 0.705478 0.118567 -0.660072 -0.200457 0.384829 0.147578 -0.170473 0.898997 -0.473041 -0.516121 -0.477975 0.032659 -0.192571 0.315256 0.103691 0.462767 -0.352065 -0.267197 -0.490820 -0.277182 -0.219066 -0.129555 0.423977 0.532650 0.149731 0.462773 -0.182315 0.690781 -0.119468 0.524206 0.203680 -0.043912 -0.145525 0.002159 0.097540 -0.331369 0.466466 0.227298 -0.147659 -0.523477 -0.056083 0.072610 -0.777209 -0.377168 0.018123 0.324679 -0.646506 -0.627695 -0.107495 0.393129 0.439127 -0.052010 -0.296963 0.412308 0.006300 0.146298 -0.409965 0.004515 0.025223 0.537791 0.012478 0.573280 0.408781 0.042494 -0.478717
H24 -0.072624 0.135437 -0.100212 0.337117 -0.132409 0.033760 -0.063172 0.190179 0.141323 -0.389246 0.038537 -0.260443 -0.012196 0.118558 0.069766 -0.048412 0.236471 0.613296 -0.273497 0.023846 0.781486 0.433625 -0.106170 -0.918951 0.316647 0.135270 -0.022661 0.460657 -0.522682 -0.021896 0.145714 -0.305301 0.211288 -0.078706 0.301135 -0.077361 -0.626628 -0.089330 0.251912 0.123717 -0.267052 -0.305356 -0.113082 -0.155550 0.149654 -0.129304 -0.474465 0.008517 0.148487 0.518137 0.171704 -0.610409 -0.061026 -0.448485 -0.052231 -0.247077 0.058841 0.170552 -0.108899 0.966917 -0.182247 0.179229 0.109240 0.245683 -0.142534 0.011758 -0.286828 1.049238 -0.118922 -0.026379 0.393245 0.348237 -0.122296 -0.313492 0.161364 -0.495168 -0.094001 0.086867 0.540582 0.326134 -0.318718 0.439705 -0.131676 0.003258 -0.106966 0.430433 0.657271 -0.273329 0.205670 0.458873 0.912963 -0.160161 0.295422 0.682592 -0.111454 0.242185 -0.489425 0.046729 -0.416513 0.043618 -0.135096 0.725481 -0.266602 0.988999 -0.022423 -0.420819 0.363903 -0.218535 0.262840 -0.196830 -0.327522 0.301589 0.643871 0.567190 0.106400 0.312871 0.753154 0.055959 -0.119864 0.441954 0.167423 -0.081619 -0.631350 -0.083811 0.328111 -0.139232 -0.762710 -0.430775
H147 -0.701438 -0.121283 -0.755170 1.098933 0.100596 0.547392 0.424680 -0.271294 0.364161 -0.184027 0.177780 -0.724444 -0.600077 -0.140274 0.279934 -0.309798 -1.113709 0.835558 -0.251548 1.259221 0.473315 0.177066 -0.364212 -0.488498 -0.138105 -0.259259 -0.118499 -0.015725 0.061273 -0.432706 0.916100 -0.185973 0.015974 0.256702 -0.153806 -0.692598 -0.710693 0.299504 -0.186843 0.278452 0.453315 -0.021238 -0.139402 -0.404131 0.124678 -0.176254 -0.604149 0.290461 -0.251310 1.022086 0.432060 0.647768 -0.072953 -0.231961 0.128739 -0.591515 0.301360 0.670854 0.694378 0.479902 0.428796 -0.027738 -0.358207 0.604450 -0.052082 -0.830518 -0.730589 0.691230 0.393220 0.440683 -0.434059 0.189312 0.686867 0.340642 0.540083 -0.755186 -0.039677 -0.054374 0.337007 0.092223 -0.621230 0.736440 0.552899 -0.202118 -0.083254 -0.123541 0.827340 0.069985 0.214549 -0.290959 0.482022 -0.361642 -0.113532 0.236532 0.220166 0.540037 0.454938 -0.421227 0.228335 0.091119 -0.051789 -0.076704 0.714687 0.356373 -0.459368 -0.442718 0.486518 -0.181158 0.118867 -0.780112 -0.325113 -0.119050 0.440393 0.740761 0.363866 0.125562 -0.209116 -0.252988 -0.206722 0.094772 0.867663 0.504733 -0.018778 0.034155 0.320119 0.479733 0.407340 0.235321
H210 -0.435690 -0.173513 -0.187339 -0.114524 -0.323708 0.040428 0.561707 0.222591 -0.179263 -0.410681 -0.271488 -0.257347 -0.003651 0.634308 -0.220488 0.296087 -0.474870 0.441845 -0.564705 -0.057032 0.387168 0.277133 -0.378212 -0.183076 0.224019 0.100970 -0.026307 0.786991 0.347197 0.311854 -0.112798 -0.411086 -0.054657 -0.627318 0.271539 -0.327623 -0.220488 -0.472913 0.405612 0.523090 0.010057 0.190246 -0.083897 -0.359102 0.430359 -0.311238 0.437996 0.423703 -0.716485 -0.094449 0.614889 0.263995 -0.264713 -0.540812 -0.309026 -0.688087 0.382129 -0.145703 0.077530 0.470429 0.132230 0.061764 -0.082480 0.657569 -0.073585 0.336030 -0.566282 0.610815 -0.899699 -0.157574 -0.070346 -0.064711 -0.156581 -0.550208 -0.351464 -0.981865 -0.216209 -0.063089 0.214280 0.757652 -0.959327 0.051996 -0.348849 -0.020645 0.142622 0.201239 0.199089 -0.328783 0.587612 -0.106121 -0.021297 -0.059153 0.072362 0.116001 0.033410 0.137942 0.457200 0.012369 -0.032028 -0.092338 -0.351039 -0.237379 0.028800 0.500358 -0.631073 -0.167120 0.155167 -0.066757 0.638235 -0.088447 -0.539173 0.064974 0.078604 0.313101 -0.248953 -0.007381 0.383658 0.740421 -0.190416 0.010467 -0.454611 0.452373 -0.044655 -0.280284 0.459212 -0.310821 0.162820 0.042944
H92 -0.373045 -0.214799 -0.319903 0.777947 0.204993 0.256011 0.129258 0.410616 0.023065 -0.401197 -0.305509 -0.652207 -0.347926 0.372640 -0.109089 0.205557 -0.307951 1.051764 -0.892252 0.412148 0.376238 0.306142 0.301027 0.117842 -0.610411 -0.438149 -0.176836 -0.106723 0.060672 0.048404 0.235132 -0.154989 0.028834 -0.487062 0.105869 -0.720343 -0.646026 0.079937 0.270069 0.131748 -0.147058 0.070906 -0.355080 0.096424 0.329001 0.229205 -0.647284 0.374994 -0.198345 0.315606 -0.260232 -0.048769 0.090036 -0.169033 0.078511 -0.155437 -0.224024 -0.185725 -0.245276 -0.174797 0.720325 0.025509 -0.467079 0.138311 -0.602635 -0.049357 -0.171315 0.203481 0.323166 0.409777 0.172132 0.588803 -0.085100 -0.245138 0.623136 -0.596101 0.181192 0.094057 0.715557 0.677847 -0.647934 0.341754 -0.232590 0.129881 0.046273 0.056111 0.221010 -0.200645 0.386719 -0.011983 0.541050 -0.226625 -0.602887 0.222893 -0.176213 0.097972 0.046015 0.522076 -0.364239 -0.623274 0.145443 0.245835 -0.629745 -0.284186 -0.242686 -0.730156 0.201189 -0.022781 0.564742 0.143274 0.137985 0.193146 0.261603 0.054462 -0.258063 -0.379533 0.441415 -0.126194 -0.022717 0.180337 0.011371 -0.383762 -0.218045 0.321462 0.061587 0.291934 0.040611 -0.310682
H101 -0.038523 -0.078594 -0.303419 0.306839 0.392756 0.489808 0.414971 0.000179 -0.004583 -0.398645 -0.013878 -0.050994 -0.017588 0.013493 -0.047589 0.218551 -0.435737 0.701239 -0.556537 0.613184 0.142480 0.041804 0.297322 0.062532 0.096005 -0.018162 -0.394181 0.233870 0.192850 0.145195 0.509970 -0.080157 0.044743 -0.148701 0.279898 -0.284002 -0.087777 0.046910 -0.044742 0.748943 0.089488 0.131745 0.120718 -0.255743 0.253742 0.273475 -0.754763 -0.055600 0.016112 0.557040 -0.006547 0.063842 0.220747 -0.381878 -0.760882 -0.189555 0.119932 0.429026 0.096714 -0.269340 0.156107 -0.049470 -0.471717 0.033195 0.024285 -0.488515 -0.407577 0.268426 -0.114540 0.040974 -0.316773 0.203555 -0.230345 -0.491797 -0.357491 -0.123723 0.197752 -0.193088 0.724765 0.374321 -0.504086 0.128107 -0.332575 0.051408 0.159011 -0.040852 0.367249 -0.290486 0.182677 0.432186 0.395216 -0.183354 -0.283321 -0.210250 0.235450 -0.312916 0.303402 0.248413 -0.423409 -0.183917 -0.052410 -0.231522 -0.612645 0.113371 -0.236146 -0.647009 0.181986 -0.181513 -0.114363 0.189262 -0.299337 -0.021254 0.445894 0.174296 0.272155 -0.396952 0.555700 -0.274812 -0.088869 -0.219837 -0.273958 -0.679688 -0.483748 0.275602 0.283871 0.438498 0.111359 -0.185561
H217 -0.302967 -0.244356 -0.191020 -0.104545 -0.395817 0.235476 0.500827 0.014482 -0.137319 0.016537 -0.122550 -0.019540 -0.045546 0.345555 0.049697 0.165996 -0.645005 -0.001419 -1.088253 -0.099262 0.035955 0.326585 -0.475125 -0.381106 0.385952 0.077351 0.167643 0.625849 0.047274 0.042985 -0.084488 -0.160612 -0.205907 -0.691247 0.435057 -0.210671 -0.608576 -0.728678 0.068587 0.534242 0.016242 0.175719 -0.082093 -0.434588 0.576682 -0.074667 -0.134783 0.084085 -0.423191 0.334064 0.417290 0.300511 -0.251740 -0.377477 -0.418893 -0.437921 0.098686 -0.324822 -0.130495 0.433799 0.239012 0.106159 -0.378135 0.743270 -0.258929 0.352647 -0.595053 0.802157 -0.838454 -0.139272 0.457031 -0.028493 -0.225224 -0.650160 -0.448499 -0.824858 0.098244 0.013314 0.193413 0.344425 -0.885939 0.217001 -0.271257 0.370763 0.058666 0.199517 0.134409 -0.330300 0.152505 0.215403 0.048425 -0.260114 0.349126 0.380130 -0.220892 -0.262780 0.449909 0.477617 -0.428594 0.013800 -0.769392 0.032742 -0.314519 0.698774 -0.613250 0.011722 -0.047376 0.189201 0.370597 -0.007807 -0.753940 -0.160481 -0.257909 0.677641 -0.300669 -0.026375 0.436431 0.710766 -0.240890 -0.236979 -0.580247 0.576977 -0.089589 -0.409341 0.321007 -0.419105 0.268039 -0.256839
H72 -0.301988 -0.189609 -0.467091 0.160277 -0.462467 0.332749 0.655421 -0.231497 0.410226 -0.254622 0.056874 -0.168693 -0.263082 0.647027 0.043411 -0.967514 -0.941459 -0.016631 -0.125082 0.510316 0.324651 0.149757 0.208197 -0.077760 0.032157 -0.124301 0.553741 0.675406 -0.173538 -0.286666 0.831051 0.186900 -0.284104 -0.448695 0.389676 -0.368247 -0.885917 0.324595 0.012807 1.332810 0.645706 0.029583 -0.082923 -0.620495 0.335165 -0.083265 -0.671126 -0.631755 0.235121 0.581766 0.165851 0.062349 -0.217945 -0.746377 -0.709738 -0.742258 0.659463 0.438324 0.407483 -0.128821 0.460902 0.131860 -0.480274 0.418342 -0.255897 -0.152904 -1.083942 0.992020 -0.366818 0.184488 -0.183702 -0.417256 0.121181 -0.396608 -0.368936 -0.241279 0.143987 -0.032313 0.425807 -0.271579 -0.936764 0.049671 -0.131726 0.585225 -0.665875 -0.103579 1.195507 0.548868 0.659965 0.052236 0.322939 0.039619 0.226068 0.278638 0.326500 0.868462 0.580015 0.433426 -0.510579 0.208259 -0.728879 -0.220580 0.044635 0.608606 -0.026260 -0.257879 1.139355 -0.343374 -0.472313 -0.670386 -0.379875 -0.331815 0.459786 0.920236 0.106338 0.361536 0.369220 -0.004708 -0.461303 -0.168330 0.784618 0.302907 -0.138534 -0.690133 0.503222 0.221112 0.177641 -0.149650
H56 -0.413972 0.054323 0.350934 0.171668 -0.210089 0.684819 0.341544 0.152439 -0.212967 -0.134145 -0.310871 -0.297987 -0.141389 -0.339619 0.619032 -0.067602 -0.694822 0.046644 -0.941464 0.839145 0.368010 -0.123299 -0.321315 -0.750894 0.016825 0.144149 -0.049465 0.168075 0.458825 0.118090 0.478434 0.049788 -0.151461 -0.577518 0.180419 -0.927715 -0.362022 -0.060499 -0.184232 0.773842 -0.048706 0.825198 -0.135580 0.335755 0.360843 0.000304 -0.878301 -0.087696 -0.171356 0.582316 -0.359652 0.298027 0.439376 0.029326 0.015132 0.077187 0.504457 0.630503 0.708566 0.630000 0.808010 -0.309452 -0.787080 0.364222 -0.381074 0.354079 -0.310922 0.531587 0.024829 0.957133 0.088954 -0.510274 -0.101466 -0.241054 0.261094 -0.519522 -0.001661 -0.448729 0.150601 -0.496052 -0.463281 -0.326772 -0.248996 -0.300038 -0.409888 0.188794 0.787973 -0.239352 -0.051184 -0.396931 0.263053 0.775513 -0.026197 0.196546 -0.298062 -0.213929 0.174828 -0.501220 -0.342266 0.678911 -0.192714 0.191804 -0.387540 0.291897 -0.426126 -0.241328 0.564641 -0.286174 0.227419 -0.128643 -0.520221 -0.125106 -0.211368 0.697773 0.330113 0.002161 0.163111 0.762496 -0.280124 0.354048 0.057385 -0.101594 -0.147791 0.167461 0.423106 -0.073808 -0.271319 -0.616451
H97 -0.119239 -0.092179 -0.506213 0.179858 -0.356046 0.276337 -0.092605 0.440841 0.053750 -0.567459 -0.012955 0.027681 -0.218021 -0.161545 -0.023653 -0.412012 0.060922 0.379637 -0.695184 0.538787 -0.080451 0.300395 0.031050 0.074396 0.219099 -0.227010 -0.266872 -0.069646 0.361647 0.168532 0.227966 -0.451937 -0.112702 -0.443126 0.122376 -0.128727 0.002457 -0.028710 -0.164781 0.033281 -0.152206 0.095624 -0.131252 -0.730461 0.361389 0.316205 -0.256318 0.327224 0.159692 0.513939 0.404297 0.223367 -0.396998 -0.650948 -0.094464 -0.562023 0.196236 0.688604 -0.058961 0.349745 0.406685 -0.359663 -0.429442 0.452447 -0.448430 -0.513274 -0.287460 0.442877 0.073039 0.637123 0.313869 -0.015731 -0.359729 0.218031 -0.124008 -0.695340 0.282187 0.327209 0.293534 0.066949 -0.417143 0.583757 0.195163 -0.211931 -0.093449 0.041611 0.193476 -0.378940 0.274259 0.344368 0.170359 -0.254458 0.436380 0.055429 -0.197338 -0.156125 0.539586 0.089419 -0.293526 -0.806967 -0.088825 0.207965 -0.312205 0.161228 -0.413519 -0.659935 0.349996 0.473412 -0.128728 -0.138663 0.330383 -0.330738 0.431075 0.524508 -0.362617 -0.077069 0.255433 -0.523366 -0.178170 0.333608 0.006751 0.131868 -0.737215 0.141447 0.121290 0.301589 0.072246 -0.441009
H13 -0.496867 -0.204372 -0.838804 0.403842 0.213505 0.516967 0.323582 -0.403989 0.517194 -0.530314 -0.196964 -0.555970 -0.142560 0.305104 1.000054 -0.121375 -0.599429 0.853446 -0.705526 -0.047293 0.063317 0.182589 -0.687322 -0.502013 -1.039774 -0.107755 0.336481 -0.193164 -0.035406 -0.105252 0.134289 0.280320 0.302849 -0.261180 0.235786 -1.084919 -0.636003 -0.250714 0.646922 0.847817 -0.306563 0.841364 -0.026048 -0.264232 0.396665 -0.048505 -0.603813 0.705401 0.178035 0.436371 0.326636 0.039455 -0.118873 0.026145 -0.422901 -0.149947 0.188051 -0.453425 0.263196 -0.060587 0.238617 0.687971 -0.626435 0.034583 0.127015 -0.837089 -0.733927 0.629131 0.087768 0.870562 0.058054 -0.597953 0.426979 -0.466570 0.645197 -0.232154 0.212301 -0.267265 0.675149 0.327798 -0.834367 -0.607238 -0.421163 0.293107 -0.349439 -0.020363 0.677022 0.697243 0.264967 0.230269 0.685373 0.218999 -0.626862 0.362371 0.401410 -0.157912 0.595376 0.237648 0.216452 0.044267 0.478868 0.268887 -0.135556 0.217603 -0.428812 -0.775002 -0.334660 -0.618491 1.111240 -0.942493 -0.631639 0.219465 0.438620 -0.149715 0.101636 -0.009831 0.374008 1.142083 0.301144 -0.193481 0.047610 0.216883 -0.014072 -0.130878 0.605357 0.487008 0.361322 -0.361613
H208 -0.553424 0.163520 -0.118128 0.197608 -0.044395 -0.323964 -0.012012 0.464832 0.388951 -0.115850 0.241885 -0.337503 -0.493680 0.366997 -0.042795 0.160581 -0.505394 0.391464 -0.798883 -0.129762 0.805390 0.232120 0.102325 -1.146799 0.308437 0.359379 0.231202 -0.071461 0.307731 -0.283999 0.391406 -0.173000 -0.260611 -0.076541 0.355490 -0.584038 0.126069 0.110394 0.056518 1.023482 -0.183558 0.750622 0.066008 -0.166560 0.104823 -0.325703 -0.283776 -0.112306 0.400507 1.513065 0.399271 -0.005853 -0.473225 -0.001287 -0.217390 -0.587635 -0.081100 0.225970 0.305370 0.882210 0.672809 0.545589 -0.283429 0.078257 -0.508245 -0.630368 -0.720585 0.769067 -0.784809 0.123309 0.499786 -0.559607 -0.125163 0.033061 0.190243 -0.994953 0.234440 -0.592066 0.477233 -0.107081 -0.383402 -0.169568 0.605693 0.254132 -0.400051 0.032340 0.465874 -0.069479 0.545945 -0.089904 0.597427 -0.394066 0.048788 0.474448 -0.146792 0.210568 0.293669 0.608990 -0.673144 -0.185370 0.448471 0.402953 -0.048711 0.700631 -0.976941 -0.865684 0.243630 -0.038148 -0.279211 0.013117 -0.691028 -0.459855 -0.241191 0.441305 0.255398 -0.230763 -0.214987 0.658044 -0.505287 0.433680 -0.340770 0.228269 -0.019819 -0.722782 0.474116 -0.506398 0.066208 -0.307314
H177 0.194350 -0.144242 -0.713521 -0.090053 0.171866 -0.349512 0.272133 -0.308430 -0.418565 -0.205943 -0.632218 -0.036548 0.468099 -0.394764 -0.280416 -0.176106 -0.636849 0.384198 0.136579 -0.053948 0.507824 -0.240540 -0.313409 -0.889205 0.287604 0.096868 -0.187718 0.200247 -0.294876 0.297358 0.312092 -0.182425 0.050076 -0.171714 0.250438 -0.509429 -0.749751 -0.074732 1.038760 0.788171 0.077064 -0.080023 0.301638 -0.055541 0.346310 0.601634 -0.399953 0.471191 -0.025224 0.751680 0.191621 0.303082 -0.237922 -0.313242 -0.414973 -0.372507 0.476394 0.259001 0.528812 0.722132 0.316266 0.419381 -0.304544 0.809681 -0.564731 0.606113 -1.025281 1.028023 -0.006000 0.262911 0.396530 0.163525 -0.099795 -0.437746 0.493729 -0.233022 0.205731 -0.521391 0.040163 -0.140595 -0.968904 -0.007353 -0.636098 -0.272819 -0.508681 0.104732 0.323298 0.219189 -0.043760 0.351038 -0.126524 0.236518 0.386247 0.386911 -0.287338 0.477932 -0.055715 0.038383 -0.255817 -0.195637 0.229309 -0.316256 0.332982 -0.015399 0.397885 -0.773477 -0.296938 0.144520 -0.422030 -0.596185 -0.476777 -0.291701 0.594187 0.642580 -0.165795 0.183519 0.542911 0.529150 -0.030158 0.299757 -0.148628 -0.084090 -0.885542 -0.423978 0.501945 0.608034 -0.237420 -0.140458
H194 -0.055669 -0.097801 -0.647826 -0.093167 -0.137161 0.235696 0.607192 0.470216 0.310204 0.074174 -0.307977 -0.465997 0.343892 0.141469 -0.144566 -0.816708 -0.723726 0.404450 -0.763473 -0.173828 0.190209 -0.076673 -0.137791 0.055093 -0.119433 0.055536 0.010823 0.080510 -0.712356 0.166629 0.534915 -0.377987 0.225057 -0.255041 0.422815 -0.294652 -0.601196 0.199812 0.663431 0.015472 -0.028074 0.041457 -0.076445 -0.105203 -0.055270 -0.005791 -0.172735 -0.434816 0.615214 0.335259 -0.031098 -0.263644 -0.327394 -0.230014 0.233275 -0.870314 0.569190 -0.360696 -0.162823 0.387246 0.454624 0.167651 -0.400335 0.994020 -0.088081 -0.011381 -0.061065 0.671647 0.064868 -0.082143 0.212822 -0.314093 -0.445734 -0.334838 0.008209 -0.224394 -0.119238 0.223987 -0.115270 0.661535 -0.863543 -0.060070 0.094382 0.046761 0.367918 -0.034142 0.463479 0.207971 0.938446 -0.090728 0.801489 -0.021660 -0.247163 0.447581 -0.357528 0.287101 0.246881 0.374007 -0.629390 0.064655 -0.005360 0.108253 -0.269743 0.205837 -0.485617 -0.616148 0.173905 -0.291306 -0.212588 -0.180777 0.086366 -0.251449 0.536240 0.464694 -0.307834 -0.315852 -0.294393 0.282512 0.364613 -0.143181 0.214581 -0.176506 -0.353588 -0.741989 0.078708 0.010013 0.034248 -0.574929
H29 -0.861134 0.369407 -0.558239 0.818794 -0.095070 0.678119 0.075564 0.175153 -0.117406 0.017367 -0.242821 0.156271 -0.121960 0.048563 -0.208366 0.239906 -0.803559 0.594174 -0.653164 0.002613 0.462150 0.648673 0.168228 -0.624680 -0.428296 -0.076684 0.471623 -0.008919 0.690239 0.078990 0.003324 0.113662 0.021077 -0.169431 0.867840 -0.782526 -0.215558 0.118973 0.265567 0.182667 -0.167815 0.927000 0.014815 -0.865564 0.084920 -0.234821 -0.346591 0.102466 0.210001 0.647689 0.422924 -0.009351 0.037753 -0.512116 -0.404150 0.236742 0.351913 0.034045 0.355749 0.421331 1.027665 0.058117 -0.277225 1.215446 -0.038811 -0.994750 -0.214580 0.100911 0.082772 0.266194 0.593072 -0.389868 -0.290135 -0.714012 0.079943 -0.328525 0.363447 0.359644 0.399856 -0.206198 -0.214057 0.068466 0.275731 -0.290889 -0.297972 -0.026032 0.417056 0.273374 0.447307 -0.519582 0.449058 -0.027165 0.222724 0.187350 0.282113 0.076403 0.259251 0.397323 -0.122439 0.589515 0.053127 -0.281776 -0.631970 -0.228668 0.293516 -0.845869 -0.197778 0.101644 0.137370 -0.853293 -0.364147 -0.500632 0.557034 0.139103 -0.117194 -0.320862 -0.064607 0.002466 0.080149 -0.649909 0.087565 -0.271879 0.504552 -0.113788 0.804241 0.477379 -0.036640 -0.180083
H218 -0.329181 -0.310537 -0.202807 0.902600 0.184281 0.964329 -0.268821 0.163617 0.089862 -0.416305 -0.079244 -0.590005 -0.291241 0.220641 0.282425 -0.742164 -0.165382 0.926123 -0.383763 0.395205 0.475583 0.105113 0.012929 -0.264958 0.367476 -0.572908 0.297112 0.196288 -0.472298 0.072915 0.473125 0.100323 -0.363032 -0.906225 -0.130108 -0.783203 -0.293532 0.134392 0.083592 0.336857 0.111754 0.069980 0.153294 -0.646227 1.035706 -0.044795 -0.343981 -0.302153 0.096305 0.554975 -0.118810 -0.269759 0.350097 -0.084931 -0.613070 -0.207357 0.493022 0.305828 -0.224275 0.436889 -0.181888 -0.129029 -0.496055 0.587763 -0.113927 -0.244993 -0.730363 0.493037 -0.614825 -0.001542 -0.067582 0.164966 0.103522 -0.161893 0.820247 -0.916807 -0.303718 -0.502257 -0.389754 0.713665 -0.408849 -0.182196 0.170080 -0.091928 0.162983 0.387654 0.275782 -0.565693 0.528522 0.100305 0.981198 0.157518 0.450317 -0.242327 -0.591249 -0.170397 1.019928 0.492940 -0.072201 0.028564 -0.413817 -0.234856 0.195053 0.662400 -0.174521 -1.061318 0.540351 -0.030952 0.470258 -0.324714 -0.581247 -0.273374 -0.267641 0.680788 0.230194 -0.307527 0.303090 0.590436 0.160381 -0.650063 0.614081 0.168005 -0.384606 -0.073211 -0.444756 -0.013544 0.007853 0.371359
H80 -0.692028 -0.435664 -1.245556 0.530982 0.238354 0.352251 0.389183 -0.167303 0.271650 0.093203 -0.674502 -0.008467 -0.000552 0.613539 0.008698 -0.527850 -0.695253 0.362535 -1.189739 -0.038831 0.268246 0.106318 0.091388 -0.152902 -0.743197 -0.546833 -0.264947 0.249580 -0.073917 0.219153 -0.220173 -0.505506 0.554349 -1.096675 0.056214 -0.152809 -0.321482 0.566806 -0.162537 0.365599 0.455150 0.905508 0.406590 -0.421133 0.131866 0.081772 -0.570009 -0.180760 0.595767 0.165685 0.283777 0.184523 0.069226 -0.775688 -0.997544 -0.768202 -0.226660 -0.159562 -0.468718 0.087535 0.759139 0.011062 -1.137473 0.831269 0.218662 -0.748360 -0.611624 -0.004215 0.051799 0.502648 0.156142 -0.385797 0.438138 -0.721733 0.159521 -0.591639 -0.473199 -0.219435 0.362239 0.440932 -0.637437 -0.021168 0.038273 -0.079342 0.428765 0.266650 0.096788 0.220736 0.737398 -0.111934 -0.402234 0.445864 0.357795 0.347427 0.490272 0.357112 0.109964 0.704435 -0.510543 0.618672 0.059844 0.136346 -0.676897 -0.503592 -0.085236 -0.752212 0.759404 0.134691 0.156808 -0.436868 -0.245618 0.056660 0.227641 0.260948 0.279393 -0.262342 0.738929 0.642282 -0.013500 -0.030583 -0.275337 -0.125354 -0.398641 -0.501380 0.262593 0.119192 0.354136 -0.313900
H75 -0.576750 -0.028922 -0.324975 -0.040987 -0.150306 0.395516 -0.020755 0.092625 0.475698 -0.842716 -0.543564 -0.328165 -0.510990 0.285005 -0.375956 -0.244431 -0.061908 0.855521 -0.260239 -0.085693 0.144367 0.270045 -0.524027 -0.863124 -0.067724 -0.506087 0.010711 0.417474 -0.518938 0.549559 -0.310105 -0.273022 0.055796 -0.010456 0.614115 -0.595953 -0.704640 0.153434 -0.162990 0.709900 0.874223 0.704366 0.082728 -0.979477 0.047439 0.702382 -0.603715 -0.201485 0.488015 0.433167 0.417802 -0.002324 -0.094015 0.011902 -0.026138 -0.936869 0.161948 0.125105 1.096741 0.613913 -0.434079 -0.082815 -0.049564 0.748603 -0.151434 -0.398941 -0.869000 0.810595 -0.329966 0.493087 0.138062 -0.578880 -0.573314 -0.339410 -0.211019 -0.621019 -0.499048 -0.273911 0.317829 0.303380 -0.221797 0.256085 0.283436 -0.325695 -0.416782 0.081223 0.536801 0.239183 0.342061 0.554545 0.386740 0.577040 0.329132 0.086215 -0.569517 0.077364 0.491221 -0.065710 -0.508558 0.258254 -0.387585 0.167290 0.003720 0.482377 0.216186 -0.290009 0.547480 -0.334697 0.064946 -0.766766 -0.214882 -0.414107 0.200013 0.947225 0.730327 0.366304 -0.368894 0.100834 -0.402138 -0.141555 -0.219926 0.183518 -0.357964 -0.167935 -0.061450 -0.451980 -0.243457 0.049097
H195 -0.152947 0.273882 -0.903925 -0.011059 0.081273 0.487455 0.400872 0.391653 -0.333537 -0.002142 -0.019768 0.305717 0.052451 0.440756 -0.286391 -0.514481 -0.710221 0.356600 -0.584773 0.010309 0.790434 -0.084803 0.356880 0.145614 -0.324676 -0.331337 0.262478 0.830445 0.415999 -0.177736 0.432915 -0.839621 0.482323 -0.471010 0.604750 -0.425163 -0.430866 0.108558 0.712719 0.710576 0.292978 0.339814 0.296204 -0.101881 0.619020 0.729868 0.431916 0.158620 0.319857 0.519486 0.029971 0.405603 -0.113981 -0.522184 -0.308532 -0.701942 0.146043 0.271102 0.041747 0.222130 0.714819 0.118701 -0.172899 0.130502 -0.099655 -0.084213 -0.145340 0.273970 0.267996 -0.163079 -0.228813 0.173444 0.021025 -0.335142 0.203470 -0.400012 0.125970 -0.239100 0.405707 -0.111469 -0.595407 0.295838 -0.195199 0.239996 -0.214262 0.491804 0.377838 0.125541 0.549126 -0.262254 0.431199 0.165389 0.475319 0.120419 -0.581474 0.756533 0.706229 0.615803 0.191903 0.090605 0.071899 -0.141562 -0.383535 -0.109497 0.016368 -1.017229 0.387766 0.090160 0.224701 0.082211 -0.189162 -0.414455 0.525268 0.450153 -0.339105 0.004218 -0.803584 -0.014724 -0.031649 0.023104 0.351105 -0.375010 0.589780 -0.670705 0.381462 -0.247158 0.392405 -0.248625
P433 -0.378837 -0.075996 -0.323854 0.145206 -0.126791 0.259416 -0.142658 0.243335 0.026680 -0.609739 0.126809 -0.017039 -0.065332 -0.035864 -0.176894 -0.073681 0.060906 0.405962 -0.502300 0.481305 0.076349 0.092161 0.135836 0.214950 0.218941 -0.049951 -0.307862 0.013268 0.482004 0.045818 0.403314 -0.412854 0.011218 -0.351963 -0.048979 -0.190027 -0.116557 -0.018918 -0.041480 0.075559 0.150670 0.139271 -0.079992 -0.492351 0.314835 0.250351 -0.227249 0.189458 -0.192714 0.285707 0.372822 0.257863 -0.485238 -0.411111 0.016789 -0.261197 0.030828 0.598539 0.062764 0.291433 0.345398 -0.139018 -0.442857 0.290078 -0.344995 -0.517944 -0.352784 0.136796 0.051051 0.463048 0.260022 0.111629 -0.451122 0.118212 -0.025120 -0.708959 0.175258 0.160030 0.436730 0.044594 -0.534776 0.454354 0.020015 -0.014646 -0.074927 -0.101966 -0.013788 -0.407532 0.220124 0.257864 -0.013724 -0.077778 0.254029 -0.022160 -0.050800 -0.023824 0.458263 -0.135059 -0.068920 -0.803486 0.125927 -0.265724 -0.291167 0.033141 -0.449327 -0.516621 0.142397 0.433589 -0.127631 -0.152670 0.205973 -0.344227 0.248249 0.241387 -0.198489 -0.303714 0.454705 -0.414845 -0.176680 0.020107 0.003761 0.061266 -0.518778 0.192544 0.421898 0.280975 -0.120190 -0.302178
H192 -0.182264 0.164556 -0.921954 0.181861 0.078702 0.217711 0.712303 0.254263 0.000472 -0.373064 -0.138560 0.111118 0.071057 0.435459 -0.436870 -0.587994 -0.164978 0.545961 -0.193093 -0.451351 0.109741 0.153190 0.195973 0.043160 -0.027381 -0.111700 0.075992 0.464436 -0.581592 0.029545 0.049019 -0.467544 0.341088 -0.190654 0.413819 -0.487889 -0.509131 0.106727 0.666697 0.168685 0.054690 -0.010351 0.077144 -0.184352 0.326750 0.386014 0.042092 -0.182235 0.660541 0.325967 -0.221588 -0.375558 -0.340422 -0.076712 -0.011608 -0.621007 0.436661 0.021979 -0.015013 0.150001 0.218804 0.146126 -0.197104 0.533886 0.142027 0.123182 0.110043 0.747714 0.079982 -0.281263 0.235965 -0.249902 -0.180973 -0.649214 -0.197002 -0.423710 -0.274080 0.149627 0.001295 0.263537 -0.691940 -0.218548 0.376632 -0.045758 0.022965 0.362541 0.554275 0.030447 0.906533 -0.075398 0.400236 -0.291307 0.203220 0.480692 -0.511435 0.703012 0.443255 0.621738 -0.453120 0.201009 -0.171484 -0.097931 -0.311447 0.073484 -0.170531 -0.854614 0.077926 -0.307701 -0.213180 -0.161209 -0.266178 -0.389890 0.665966 0.274767 -0.274324 -0.136494 -0.315494 0.097967 0.382918 -0.387527 0.327977 -0.314385 -0.349218 -0.718657 -0.036528 -0.021182 0.618936 -0.442294
H64 -0.269578 0.444441 -0.483961 -0.417967 0.001973 0.140153 0.023861 0.235967 -0.710981 -0.478399 -0.515547 -0.462406 -0.686958 0.494435 0.740197 -0.287882 -0.924806 0.659128 -0.055699 0.056582 0.216547 -0.083269 -0.456934 -0.735982 -0.035930 0.060794 -0.053685 0.368824 0.505505 -0.155320 -0.441199 -0.251397 0.203704 -0.414072 0.496214 -0.407751 -0.563039 -0.214263 -0.064372 -0.345928 0.273746 0.596868 0.150919 -0.876370 0.710078 0.477093 -0.241690 -0.085785 -0.100367 0.812373 -0.313130 0.060396 -0.008981 0.066921 -0.179827 -0.296840 0.507897 -0.095929 0.082811 0.057129 0.701402 0.283582 -0.431138 0.624278 -0.118879 0.100229 -0.138027 -0.116680 0.014555 0.179092 0.298313 -0.476636 -0.431534 -0.459612 0.166439 -0.648318 0.215129 0.181449 0.223986 0.350836 -0.311252 0.193686 0.039019 -0.178891 -0.144200 -0.451685 0.485374 -0.704568 -0.055337 -0.327989 0.527225 0.591910 -0.379451 0.546368 0.038392 0.867059 0.771732 0.097639 0.159509 0.305919 -0.295046 0.002386 -0.110508 0.540220 0.126081 -0.675350 0.120149 -0.411745 -0.198950 -0.637091 -0.370552 -0.081975 0.239325 0.673590 -0.442460 0.095512 0.206648 0.475422 0.158947 0.198191 0.188015 0.457408 -0.180482 0.329653 0.301257 0.252927 -0.264016 -0.236020
H213 -1.152650 -0.196503 -0.901418 0.683915 -0.399928 0.551691 0.115865 0.207083 -0.427457 -0.127390 -0.153614 -0.931951 0.174653 -0.325810 0.203636 -0.495946 0.171085 0.266359 -0.733034 0.043826 -0.029068 0.533075 0.018260 -0.814514 -0.788455 -0.093379 0.281146 0.227666 -0.504376 -0.224114 0.314576 0.343871 0.414889 -0.217407 -0.390410 -0.158984 -0.645451 -0.323709 0.503091 0.299923 -0.195925 0.076055 0.002659 -0.740280 0.673815 0.636249 -0.585934 -0.335931 0.476839 0.439429 -0.344265 0.133168 0.474288 -0.235671 -0.367687 -0.684135 0.376126 -0.112712 -0.303304 0.304396 0.139981 0.268490 -0.532191 1.153212 -0.145753 0.316133 0.227840 1.053932 -0.119736 0.765197 0.231570 0.073375 0.127910 -0.042383 0.387448 -0.715970 -0.367916 0.047783 0.344189 0.429055 -0.579031 0.046315 -0.236350 0.356843 0.703514 0.106555 0.000509 -0.426455 0.355095 0.610246 0.241043 -0.026161 0.138272 0.455610 -0.919136 0.576466 0.181328 0.005881 -0.103485 0.045654 0.115531 -0.196117 -0.472675 0.450570 -0.126581 -0.986117 -0.101944 -0.913847 0.060167 0.131549 0.239999 -0.185462 0.538005 0.475312 -0.457373 0.133545 0.529045 0.012704 -0.600926 -0.484982 1.149953 -0.229411 -0.658483 0.324840 0.040987 -0.113540 0.276253 0.058100
H52 -0.201474 0.156004 0.080659 0.443580 -0.502514 0.790359 0.546657 0.253808 0.150189 0.080831 -0.533595 -0.299310 0.204629 -0.296064 0.159791 -0.228785 -0.411187 -0.071080 -0.772641 0.639151 0.259833 -0.231197 -0.117862 -0.917295 -0.442579 -0.097053 0.175784 0.061937 0.276318 0.224017 0.655356 0.052507 0.419745 -0.334295 -0.032916 -0.971873 -0.501213 -0.155071 -0.206125 0.831195 -0.281828 0.785896 -0.128569 0.090897 0.367144 0.042398 -0.507253 -0.109321 0.099056 0.589756 -0.184954 0.274240 0.563805 -0.195564 -0.423473 0.007694 0.317352 0.405872 0.518276 0.633272 0.643098 -0.252625 -0.721837 0.275835 -0.674337 0.266687 0.150279 0.451107 -0.017769 0.877717 -0.109790 -0.191550 -0.258475 -0.065704 0.297382 -0.167841 0.347631 -0.128657 0.116988 -0.419508 -0.018584 -0.279733 -0.230466 -0.289798 -0.345942 0.537298 0.665569 -0.174257 0.391281 -0.081540 0.155686 0.179385 0.135564 0.264980 -0.302833 -0.207024 -0.213477 -0.273323 -0.533474 0.482085 0.197592 0.420835 -0.335381 0.074681 -0.450317 -0.601748 0.785502 -0.473417 0.456428 -0.445751 -0.282220 -0.114812 0.139560 0.870482 -0.352056 0.159757 0.415103 0.706790 -0.294948 0.608107 0.352983 -0.065615 -0.220413 0.008487 0.494299 -0.086383 -0.576364 -0.863464
H35 -0.456830 0.258712 -0.794459 0.326347 -0.131720 0.564347 0.012671 -0.587426 -0.206723 0.331412 -0.652019 -0.344777 -0.511159 -0.155304 -0.200708 0.472640 -0.700925 -0.026453 -0.576640 0.314686 0.161068 0.470687 -0.084922 0.506047 -0.400302 0.546168 -0.147689 0.235508 0.339290 0.174392 -0.310624 -0.529918 -0.214120 -0.040257 0.166471 -0.792564 -0.401743 0.328262 0.608895 0.949983 0.726280 0.908175 0.395317 -0.744518 0.946010 0.379365 -0.503696 -0.185081 -0.142030 1.092109 0.245902 0.957194 -0.074482 -0.360714 -0.123941 -0.230396 0.577093 0.807922 0.196879 0.238234 0.475467 -0.286125 -0.614100 1.042825 0.259479 -0.242112 -0.429139 0.817446 -0.474165 0.525305 0.551747 -0.106585 -0.185744 -0.161300 0.443382 -0.814582 -0.296691 0.112606 0.642137 0.043073 -0.907073 -0.135407 0.039553 0.000141 -0.146470 -0.440822 0.771393 0.138530 0.173119 0.138901 -0.231464 0.689280 0.150875 0.336252 0.248978 0.103474 0.439150 0.108229 -0.038485 0.717025 -0.377634 -0.108566 0.228839 -0.188265 -0.285958 -0.680735 0.432166 -0.480249 -0.283648 -0.087875 -0.577601 -0.191534 0.474012 0.000517 0.497464 0.359591 0.119959 0.809590 -0.124259 -0.652767 -0.071909 0.174095 0.569413 0.022640 0.329112 0.448316 0.267069 0.247859
H58 0.157624 0.036173 -0.662478 0.373324 -0.238371 0.323637 -0.001115 0.460368 -0.452544 -0.661931 0.060566 -0.595665 -0.306937 -0.058601 0.017639 0.237542 0.068987 0.803745 -0.140184 0.508343 0.504128 0.820946 0.114496 -0.112123 -0.228047 -0.017827 -0.667750 0.321415 0.375502 -0.524097 0.023062 0.011673 0.290776 -0.131644 0.573821 -0.293787 -0.884900 -0.083121 0.916016 0.163963 -0.339158 0.798008 0.556280 -0.553940 0.273793 0.409413 -0.287374 -0.094960 0.185435 0.353066 0.317505 0.419049 0.123536 -0.571682 -0.022923 -0.697739 0.007670 0.419973 0.503878 -0.181922 -0.157198 0.235255 -0.234298 1.024424 0.161368 -0.164308 -0.858075 1.243604 -0.737073 0.498058 0.117397 -0.516108 -0.245159 0.069279 0.206638 -0.876714 0.013403 -0.448112 0.092941 0.064779 -0.010516 0.384667 -0.631761 -0.027135 -0.392425 0.195508 0.244833 -0.182984 0.622159 -0.578161 -0.099268 -0.664286 -0.169494 -0.208114 -0.173547 0.435822 0.092474 0.590886 -0.024760 0.630250 -0.038799 0.117197 0.434683 0.484087 -0.115891 -0.944371 0.352663 -0.194902 -0.087971 0.316977 -0.557034 -0.195720 0.557691 0.330917 -0.409132 0.817632 0.424875 0.028156 -0.181962 0.172465 0.022390 0.524958 0.030172 -0.153338 0.183558 0.089584 -0.155385 -0.605951
H182 -0.377188 -0.361816 -0.650553 0.558716 -0.356509 -0.289723 -0.152202 -0.007739 -0.090448 -0.049718 -0.003529 0.263356 -0.632175 0.071089 0.564783 -0.312195 -0.980536 0.181255 -0.328799 0.448855 -0.104805 0.080564 -0.459124 -1.141911 -0.798364 0.166345 0.168623 0.073800 -0.248328 0.429550 -0.355127 -0.068700 0.538584 -0.257016 0.527782 -0.318146 -0.237500 0.438023 0.446673 0.125187 -0.217334 0.530010 -0.274771 -0.887605 0.677305 -0.384216 -1.134130 -0.171485 0.507355 0.918939 0.024361 0.081070 -0.067186 0.016723 -0.380397 -0.461041 -0.009335 0.358334 0.692461 0.293399 0.254971 -0.059902 -0.669223 0.335323 0.262160 -0.369325 -0.248676 1.033305 -0.149784 0.529729 0.043647 0.126322 0.420156 -0.278944 0.153182 -0.478896 -0.276631 -0.000262 0.284032 0.207827 -0.651793 -0.408728 0.265883 -0.277393 -0.426507 -0.196320 0.481133 0.363819 0.868612 0.233435 1.100356 -0.109873 0.512744 0.188767 0.208742 0.042873 0.421391 0.530332 -0.295939 0.625218 -0.904149 0.839699 -0.112039 0.181632 0.022773 -1.290108 0.563331 -0.596013 -0.121465 0.062456 -0.478687 0.078328 0.712767 0.757316 -0.108687 0.375816 -0.000815 0.148500 0.299729 -0.074491 -0.006229 -0.239929 -0.343581 -0.993266 0.111923 -0.367953 -0.445407 -0.423456
H96 -0.324927 -0.225417 -0.485794 0.011995 0.116669 0.322383 -0.229612 0.169987 0.014910 -0.712950 0.298085 -0.018918 -0.170062 0.110673 -0.218822 -0.324450 -0.081491 0.654601 -0.537832 0.052657 0.156236 0.005495 0.092330 -0.055313 0.343605 -0.105797 -0.346752 -0.040400 0.464213 0.001352 0.401474 -0.411109 0.147401 -0.557412 0.149089 -0.169255 -0.098250 0.068890 0.103281 0.118023 0.001928 0.090159 -0.161934 -0.531761 0.465795 0.407205 -0.416459 -0.036831 -0.127081 0.596439 0.501022 0.009010 -0.457674 -0.369154 -0.065244 -0.207722 -0.002212 0.638916 0.092895 0.631948 0.182703 -0.007037 -0.624876 0.292808 -0.480099 -0.359286 -0.350268 0.073432 -0.042375 0.618082 0.540041 -0.070621 -0.610435 0.272324 -0.134109 -0.500401 0.149434 -0.071039 0.605408 -0.192681 -0.310167 0.527022 0.165510 -0.025258 0.081266 -0.072658 -0.080879 -0.370388 0.090528 0.577296 0.247222 0.088095 0.286652 0.140627 -0.031132 -0.011818 0.440636 0.098123 -0.298977 -0.964841 -0.092724 -0.362133 -0.341204 0.064569 -0.423254 -0.922381 0.168906 0.401016 -0.282274 -0.359663 0.078793 -0.350260 0.353763 0.358914 -0.165633 -0.213811 0.330059 -0.328121 -0.062685 -0.154522 0.060962 -0.074816 -0.853630 0.200408 0.434324 0.343480 -0.403898 -0.759037
H151 -0.450735 -0.130939 -1.027113 -0.003538 -0.219875 0.107702 -0.128784 0.262697 0.046214 -0.321537 0.136763 -0.233052 -0.422478 -0.662002 0.418813 0.075635 -0.259913 0.587875 -0.808406 -0.074425 -0.062528 0.463438 -0.546021 -0.320603 0.134915 -0.200980 -0.373812 0.142110 -0.236103 0.039326 0.341321 -0.621646 0.076997 0.069176 0.552822 0.013108 -0.421818 -0.619275 0.857728 -0.205852 0.040066 0.134198 0.758120 -0.223481 0.678831 0.382659 -0.250495 0.433196 0.471009 0.791858 -0.393934 -0.314555 0.362842 0.105102 -0.576071 -0.358472 -0.152042 0.347896 -0.094468 0.387510 0.061053 0.056725 -0.151237 0.467877 -0.634446 -0.208257 -0.358062 0.647051 -0.179659 0.101816 0.276685 0.030253 0.450239 -0.288484 0.159271 -0.677903 -0.246203 -0.044929 0.362759 0.371980 -0.687932 0.233226 -0.089685 0.203684 0.327910 -0.090909 0.267570 -0.831538 -0.167995 0.566701 -0.154528 -0.049778 0.440999 0.627387 -0.201436 -0.098186 0.281128 0.100197 0.169365 -0.047750 0.382295 0.645022 0.144716 -0.188120 -0.460310 -0.968377 -0.175095 -0.574787 0.406292 -0.097073 -0.508858 0.263994 0.180675 0.308915 0.330727 -0.059018 0.378152 0.544085 0.006751 -0.240224 -0.444035 -0.163988 -0.236122 -0.384352 -0.057390 -0.387050 0.124353 -0.221475
H31 -0.037736 0.107102 -0.617968 -0.248504 -0.176118 -0.387112 -0.262463 0.214989 -0.117260 -0.739080 -0.149773 -0.764301 -0.187312 0.182420 -0.029447 0.014147 0.202101 0.775649 -0.206524 -0.125763 0.783226 0.161804 0.388742 -0.496047 0.429003 -0.186244 0.222580 0.449705 -0.184773 0.220156 0.131227 -0.052107 0.213049 -0.365370 -0.000422 -0.461583 -0.702541 -0.403507 0.530225 0.896505 -0.499474 0.333899 0.382718 -0.200646 0.246040 0.528948 -0.134781 -0.661528 -0.258453 0.572544 -0.189205 -0.617458 0.030755 -0.226049 -0.507562 -0.534332 0.657968 -0.225930 -0.156317 0.336050 0.105512 -0.249499 -0.158862 0.573804 -0.371666 -0.037748 -0.776983 1.185808 -0.472151 0.187494 0.000504 -0.533900 -0.549814 -0.118942 -0.105279 -0.291902 0.597059 -0.179646 0.203344 0.128183 0.084228 0.019265 -0.091230 0.137207 0.199517 0.229884 0.515881 -0.286016 -0.020204 0.592659 0.856033 -0.460695 0.502359 0.407515 -0.164111 0.165761 -0.024829 -0.174839 -0.161839 -0.312420 0.234347 0.524665 -0.172719 0.447138 -0.298597 -0.433932 0.336093 -0.416658 -0.019071 -0.507358 -0.492118 0.412385 0.485820 0.386567 -0.163008 0.379391 0.262037 0.550294 -0.372621 0.511044 0.454305 0.013661 -0.353648 0.243402 0.560450 -0.332640 -0.299498 0.001183
H84 -0.708804 0.179706 -0.276364 0.615819 0.075977 0.376441 0.262291 0.257865 -0.217737 -0.275455 0.059925 -0.401433 -0.298949 0.106782 -0.031029 -0.200657 0.243879 0.283060 -0.626548 0.803147 0.028756 0.031912 0.263546 0.181102 -0.004652 -0.038472 -0.191690 0.161108 -0.132161 -0.058256 0.028744 -0.054141 0.299230 0.022494 -0.259105 -0.632028 -0.765363 0.164284 0.014095 0.352957 0.517391 0.674056 0.181367 -0.189583 0.090692 0.367513 -0.493120 0.033330 0.317685 0.139569 -0.057419 0.132229 -0.155425 0.125900 -0.373530 -0.323494 -0.043704 0.162623 0.014933 -0.423135 0.274948 0.114187 -0.127134 -0.218588 -0.074008 -0.321597 -0.498199 0.668467 0.095177 -0.006194 -0.016384 0.197019 -0.059909 -0.171319 0.366415 -0.668183 0.685525 -0.043921 0.094914 -0.100152 -1.138291 -0.017963 0.001950 0.165695 -0.087400 -0.511946 0.100109 -0.291835 0.214364 0.462699 0.746098 -0.304718 0.147622 0.388305 0.113621 0.039950 0.422560 0.366460 -0.060634 -0.457720 0.407947 -0.117207 -0.518818 0.236488 -0.609545 -0.542193 -0.011964 0.106442 0.014915 -0.044827 -0.358754 -0.388117 0.148987 0.281744 0.093763 -0.184206 0.437344 0.271878 -0.229155 -0.138373 0.077533 -0.368680 -0.315144 0.389519 0.625230 0.283423 -0.145364 -0.099149
P829 -0.108866 0.014798 -0.793454 -0.053849 -0.130455 0.487394 -0.034922 0.198436 0.261891 -0.425656 0.149259 -0.193902 -0.181689 -0.606958 0.467614 0.075779 -0.111552 0.799105 -0.931806 -0.105751 -0.157969 0.232002 -0.448358 -0.294271 0.077002 -0.176033 -0.626200 0.017324 -0.245069 0.194730 0.103587 -0.575184 0.065367 -0.121469 0.666362 -0.091049 -0.542345 -0.548038 0.785780 -0.208454 -0.074402 0.300292 0.762105 -0.339573 0.480082 0.388002 -0.414311 0.432123 0.524504 0.647517 -0.295574 -0.274586 0.379535 0.193804 -0.174847 -0.407326 -0.070932 0.179423 -0.066575 0.552233 0.086084 -0.006155 0.136728 0.614061 -0.392049 -0.193566 -0.373429 0.346277 -0.309296 0.298431 0.376049 -0.201369 0.250171 -0.353005 -0.137660 -0.702829 -0.242952 -0.046817 0.234084 0.402114 -0.674782 0.056177 -0.270137 0.221211 0.289510 0.244504 0.295748 -0.771422 -0.225700 0.415841 0.119681 0.053541 0.196766 0.657845 -0.488942 -0.247526 0.120913 0.217097 0.130807 0.131306 0.364729 0.583812 0.014629 -0.087425 -0.514474 -0.884642 -0.452787 -0.612069 0.327127 -0.251562 -0.373107 0.008717 0.141202 0.514509 0.616232 -0.127358 0.239053 0.405138 0.215054 -0.069471 -0.708909 -0.182740 -0.053285 -0.299328 -0.157176 -0.318468 0.201859 -0.258755
H65 -0.315146 0.605021 -0.393363 -0.400419 -0.046616 -0.014508 -0.061494 0.321477 -0.624508 -0.632559 -0.438943 -0.280226 -0.648770 0.499466 0.541803 -0.125676 -0.847221 0.765765 -0.160461 0.049575 0.275490 0.007697 -0.350401 -0.789879 0.016375 0.221424 -0.001648 0.503010 0.459231 -0.240404 -0.402462 -0.157638 0.317269 -0.415550 0.535285 -0.313774 -0.769730 -0.248340 0.040362 -0.430849 0.127004 0.433838 0.104139 -0.879276 0.602178 0.367311 -0.401755 -0.073413 -0.025823 0.732094 -0.135417 0.044769 -0.136276 -0.060492 -0.171005 -0.365683 0.474793 -0.149050 -0.014775 0.203681 0.601222 0.300927 -0.503431 0.620030 0.055081 0.098780 -0.326553 -0.042967 0.089093 0.114288 0.315237 -0.432521 -0.542888 -0.473529 0.168058 -0.555473 0.206425 0.240031 0.441256 0.415243 -0.259321 0.233075 -0.066456 -0.292686 -0.332041 -0.450600 0.518606 -0.662044 0.000899 -0.315662 0.595915 0.364470 -0.259949 0.445510 0.109652 0.818104 0.518619 0.015124 0.107993 0.362964 -0.294398 0.111917 -0.180178 0.587775 0.172783 -0.606687 0.093576 -0.285037 -0.159160 -0.576314 -0.417541 0.003538 0.365819 0.633662 -0.517710 0.091194 0.198780 0.416947 0.121058 0.288388 0.057107 0.463960 -0.157059 0.376209 0.425835 0.262299 -0.428318 -0.325654
P826 0.086847 0.006325 -0.524992 -0.107193 -0.011106 0.708818 0.150897 0.073571 0.325228 0.110658 0.002960 -0.552841 0.090007 -0.564510 0.626057 -0.078079 -0.347381 1.047685 -0.752130 0.001303 0.359159 0.548620 -0.217988 -0.281551 0.026630 -0.041146 0.025565 -0.040633 0.072275 -0.081760 0.180578 -0.152175 0.177499 -0.444975 0.705903 -0.639425 -0.465827 -0.748551 0.585241 -0.033811 -0.161162 0.673293 0.577581 -0.173597 0.535770 0.517385 -0.464030 0.370714 0.531885 0.438317 -0.623119 0.073196 0.778270 -0.041410 -0.221462 -0.167267 -0.413422 -0.062687 -0.187969 0.657964 0.290323 -0.149326 -0.320943 0.216936 0.067178 0.173346 -0.481339 0.273911 -0.063689 0.904773 0.420640 -0.000277 -0.192320 -0.373725 0.091859 -0.531602 -0.516977 -0.211993 0.192957 0.401038 -0.389359 -0.069668 -0.507289 0.294312 0.106632 0.525468 0.112646 -0.448732 -0.344000 -0.086487 0.018294 0.092207 -0.107828 0.870965 -0.644139 -0.139766 0.535570 0.530002 0.165482 -0.172551 0.384725 0.268064 -0.283876 -0.182989 -0.266699 -1.091944 -0.000409 -0.205955 0.753778 0.029187 -0.438345 -0.174943 0.345025 0.462941 0.089693 -0.270033 0.148814 0.751066 0.027771 0.286209 -0.621331 -0.006504 0.372632 -0.155050 0.201291 0.155959 0.075529 -0.549788
H18 -0.435531 -0.201186 -0.904935 0.803192 0.106183 0.280061 0.645473 -0.229335 0.036356 0.356499 -0.287949 -0.853157 -0.148639 -0.086831 0.756355 -0.206809 -0.637358 0.566557 -0.635992 0.519908 0.134981 0.082155 -0.129797 -0.191611 -1.111593 -0.035069 -0.339485 0.353145 -0.100500 0.358186 0.172481 -0.352900 0.498650 -0.007328 -0.413181 -0.674436 -0.632582 -0.108051 0.679327 0.517386 0.294485 0.730804 0.236916 0.036987 0.740995 0.683115 -0.633246 0.000795 0.117150 0.743857 -0.602936 0.276873 0.441174 0.180947 -0.375408 -1.039937 0.150049 0.183438 0.474583 0.136480 0.610497 0.143661 -0.533628 0.341834 0.109556 -0.142098 -0.077014 0.371333 0.311476 0.737520 -0.673741 0.187834 1.133237 0.127179 0.524220 -0.822414 -0.590273 -0.530289 0.087748 0.273582 -0.756621 -0.159382 -0.180796 0.424972 0.254746 -0.103625 0.467727 0.120914 0.536207 -0.309009 0.374526 0.220538 -0.458091 0.685534 -0.512573 0.872377 0.438577 0.367150 0.082890 0.746683 -0.215927 0.495861 0.003095 -0.239126 -0.334209 -1.077336 0.579677 -1.019465 0.113523 -0.144469 -0.466048 -0.209297 0.500758 0.172402 0.160737 0.177926 0.028945 1.040996 -0.255817 -0.240819 0.866750 -0.200595 0.414973 -0.451560 -0.182398 -0.160875 0.647680 0.298730
H203 0.208297 -0.807541 -0.633627 -0.077067 -0.364984 0.393144 0.000641 -0.487259 0.117389 -0.202805 -0.301983 -0.928464 -0.423022 -0.141223 0.666741 -1.112403 -1.074701 0.366993 -0.444961 -0.042866 -0.007791 0.347133 -0.267339 -0.986645 -0.120716 -0.472526 -0.088962 0.087627 -0.330234 -0.202544 0.281881 -0.311821 0.602786 -0.178942 0.722834 -0.353030 -0.969273 -0.648852 0.178897 0.300678 -0.552325 0.230195 -0.296923 -0.334608 0.218396 -0.112481 0.202037 -0.075932 0.077601 0.575253 0.209579 0.734743 0.294725 -0.706627 -0.427878 -0.793613 0.349173 -0.572914 0.575544 0.942543 0.157401 0.057887 -0.583170 1.488176 -0.331186 0.293739 -0.616823 0.810863 -0.462019 0.486679 0.373763 -0.646372 0.455811 -0.184607 0.105117 -0.882862 -0.046667 0.058769 -0.448687 0.309666 -0.466014 0.066901 0.475572 -0.229134 0.069898 0.434786 0.881785 -0.093521 -0.042597 -0.286609 0.378928 -0.279698 -0.057863 0.556526 -0.686462 0.170300 0.199341 0.327116 0.202714 -0.224997 -0.134148 0.423417 0.319446 0.107488 -0.445778 -0.341853 0.134600 -0.374261 0.030121 -0.866260 -0.092431 0.185519 0.642233 1.148069 0.098561 0.526671 -0.537329 0.710176 0.148506 0.562911 0.496154 0.310644 -0.512998 -0.398031 0.387560 -0.212246 0.781020 -0.331729
H107 -0.716329 0.147165 -1.085613 0.882947 -0.641188 0.428067 -0.013137 -0.250527 0.456131 0.254394 0.468029 -0.012490 0.132976 0.459703 0.324808 -0.192249 -0.977390 0.613402 -0.791312 0.375933 0.652520 0.407724 -0.014596 -0.456287 0.262299 0.012550 0.057220 0.531740 0.343115 -0.090809 -0.116567 -0.619460 0.286427 -0.898145 0.108061 -0.533800 -0.680269 0.100619 -0.046673 0.304664 0.335446 0.537923 -0.316537 0.348059 0.716850 0.090666 -0.416285 0.339895 0.196878 0.757895 -0.440958 -0.034565 -0.374405 -1.036101 -0.094729 -0.109173 -0.083517 1.515480 -0.158975 0.955203 0.922762 0.090013 -0.110311 0.561681 -0.216583 -0.304818 -0.773834 0.359330 0.881977 0.583417 0.419687 0.209774 1.067758 -0.218421 0.913676 -1.279038 -0.281368 0.546904 -0.228079 -0.134806 -0.360119 0.595277 0.337683 -0.164047 -0.328497 0.375947 0.258976 -0.424444 0.439582 -0.694929 0.381111 0.080935 -0.106597 1.086166 0.597051 0.855249 0.043194 0.428514 -0.244776 0.655385 -0.076179 0.466920 -0.372104 -0.001870 0.115728 -0.504122 0.797842 -0.409968 0.329562 0.072000 -0.288994 -0.032962 0.039516 -0.031229 0.457709 0.021332 0.042372 0.550321 0.029461 0.400509 0.336621 0.281147 0.206841 -0.913014 0.156150 -0.008877 -0.011522 -0.378276
H82 0.067860 -0.296131 -0.942031 0.029602 -0.384645 0.314183 0.407282 0.609208 -0.343911 -0.270563 -0.090886 -0.368959 -0.610892 -0.269947 0.460381 -0.397163 -0.046995 0.659124 -0.377366 0.186829 0.902154 0.259787 -0.155671 -0.863938 -0.229447 -0.322251 0.257717 0.142529 0.288049 -0.628995 -0.389719 -0.346812 0.243850 -0.040458 0.388257 -0.365203 -0.326532 0.208242 0.433705 0.176314 -0.911651 0.592342 0.570880 -0.237237 0.699816 0.097044 -0.170842 0.227836 -0.127100 1.217801 -0.221306 -0.105240 0.380733 0.131126 -0.241684 -1.066387 -0.065116 -0.442795 -0.198092 0.662478 -0.094751 0.583157 -1.124127 0.232927 -0.556270 -0.514743 0.276797 0.951225 -0.190690 0.420671 0.186528 0.264887 -0.173804 -0.612580 0.194694 -0.343829 0.298250 0.358244 0.053591 -0.657933 -0.766380 0.396799 0.182120 -0.112557 0.162982 -0.023194 1.001833 0.025307 0.905854 0.047902 0.281115 0.172107 0.121364 0.181597 -0.277845 -0.117232 0.661240 -0.211347 -0.613805 -0.319443 0.445675 0.212428 -0.073794 0.294915 0.323894 -1.273843 0.497317 -0.003013 0.356880 0.049435 -0.416434 0.028732 0.585055 0.432628 -0.001230 0.234144 0.005875 0.148087 -0.034477 -0.186757 0.669544 0.278943 -0.962811 -0.385369 0.307376 0.081701 -0.582318 -0.490428
H175 -0.297409 0.186284 -0.699435 0.580801 -0.096112 0.359737 0.458532 -0.229321 0.411476 -0.203017 -0.474747 -0.007744 -0.492123 0.391864 0.054082 0.323080 -0.511068 1.666934 -0.445154 -0.166898 0.340502 0.816267 -0.399258 -0.844749 -0.473305 -0.652197 -0.501487 0.083642 0.516832 0.386816 -0.292116 -0.835576 -0.078530 -0.047506 0.856052 -0.431409 0.012400 0.026220 0.235806 0.392132 0.185502 1.345080 0.364943 -1.011975 0.091193 -0.228550 -0.597011 0.900511 -0.241192 0.710220 0.556520 -0.225970 0.204999 -0.395126 -0.085783 -0.287381 -0.128677 0.172949 1.072498 0.877522 0.460158 0.033970 0.167938 0.504288 -0.299896 -0.770190 -0.270977 0.317886 -0.829960 0.365812 0.050934 -0.349012 0.623473 -0.112953 0.263307 -1.154033 -0.513876 -0.041543 0.421643 0.105544 -0.490846 0.369793 0.138947 -0.580781 -0.179809 0.692831 0.160257 0.108496 0.201107 -0.465041 0.451108 0.253818 0.133114 0.564117 0.574515 0.167835 0.545811 0.188709 -0.113233 0.032654 -0.211255 0.310324 -0.169563 0.138602 0.403504 -0.677879 0.476866 -0.207866 0.659731 -0.750462 -1.070386 -0.268416 -0.164339 0.134231 0.310233 0.183072 -0.167448 0.518831 0.317563 0.141247 -0.413570 0.280325 0.299043 -0.049101 -0.502295 0.159647 0.197715 0.499810
H55 -0.736587 0.345682 -1.043260 0.491403 -0.002580 0.457536 0.110606 -0.526459 0.424114 -0.099987 -0.383485 -0.507671 0.495638 0.109585 -0.172676 0.356174 -0.498842 0.730977 -0.281567 -0.423946 0.009497 0.402667 -0.464624 -1.038244 -0.341144 0.096897 -0.407028 0.831069 0.039162 0.741287 -0.461314 -0.040919 0.543465 -0.565196 0.534905 0.088650 -0.134204 -0.570090 -0.125081 0.002071 0.118401 -0.032001 -0.370384 -1.125154 0.931286 0.483599 -0.678219 0.074895 -0.082809 0.896380 0.390734 0.386280 0.036954 -0.938566 -0.693461 -0.162467 0.141477 0.403815 0.373295 1.014848 0.500421 0.260475 0.505909 0.825250 -0.014814 -0.268006 -0.275845 0.488999 -0.179464 0.730042 1.039122 -0.048664 0.485802 0.037556 -0.202195 -0.857599 -0.385514 -0.212753 0.297519 0.441885 -0.389705 0.521454 0.038218 -0.168227 0.171332 -0.068123 -0.335639 -0.177933 -0.035736 0.379299 0.050689 -0.028623 0.216402 0.948971 -0.035246 0.209655 0.291648 0.365427 0.060143 0.612597 -0.500572 0.030549 -0.108181 0.246124 -0.346759 -0.848102 -0.703072 -0.493727 0.080515 -0.511034 -0.218832 -0.323773 0.281362 0.123776 0.328212 0.215354 0.669646 0.059653 -0.110222 0.217123 -0.202247 -0.256475 0.341479 -0.583225 0.197257 0.045608 0.857892 -0.019471
H178 -0.152753 -0.445012 -0.484197 0.426240 -0.129523 -0.072177 -0.024313 -0.418930 -0.123640 0.106698 -0.262352 0.013891 -0.606427 -0.161252 0.817580 -0.360065 -0.987013 0.161867 -0.498213 0.428285 -0.208455 0.393947 -0.599232 -1.335427 -0.571529 0.081235 0.133691 -0.070847 -0.212394 0.211499 -0.323504 0.270994 0.439714 -0.131652 0.602986 -0.114462 -0.179406 0.113455 0.077909 0.364281 -0.268664 0.516736 -0.543537 -0.948558 0.653816 -0.456553 -1.202216 -0.183677 0.323263 1.069117 0.213901 0.375059 0.232478 -0.195737 -0.660758 -0.382614 0.057054 0.082726 0.917592 0.287388 0.373502 0.020145 -0.442522 0.606739 0.207113 -0.354228 -0.234718 1.172656 -0.363731 0.746017 0.260131 -0.187806 0.656563 -0.104801 -0.065513 -0.371225 -0.104071 -0.015096 0.076977 -0.166719 -0.428075 -0.262796 0.224792 -0.457202 -0.469492 -0.436819 0.580225 0.631489 0.350260 0.250467 1.062891 0.013568 0.218799 0.282819 0.296971 -0.037925 0.285229 0.591384 -0.257647 0.602984 -0.976027 0.629821 0.000203 0.481671 -0.021228 -0.923355 0.265787 -0.422694 -0.337500 -0.363660 -0.474346 -0.154467 0.636222 0.945105 0.400425 0.610149 0.190352 0.282104 -0.065165 -0.160185 0.237707 -0.042811 -0.339356 -0.619751 0.297999 -0.102706 -0.017570 -0.365082
H15 -0.332390 -0.229114 -1.083510 0.577898 -0.523266 0.786451 0.272981 -0.796585 0.701555 -0.143609 -0.088453 -0.265444 -0.029443 0.387367 0.202511 -0.479994 -0.044722 0.868159 0.268681 0.646909 0.128889 0.335542 0.020274 -0.613547 0.044449 -0.841009 -0.333484 0.460930 -0.089872 0.049620 0.088233 0.016323 0.558616 -0.570253 0.118293 -0.506256 -1.193472 0.010600 -0.149249 1.300453 0.039416 0.416028 0.779359 -0.366895 0.620343 -0.072637 -0.417921 0.186352 0.516955 0.145635 0.181796 -0.214029 0.115690 -0.645506 -0.951482 -0.315253 0.039191 0.505547 0.531246 0.604786 -0.189197 0.468816 0.311012 0.021160 0.155372 -0.591720 -0.912656 0.367638 0.091934 0.952785 -0.227570 0.273115 0.780402 -0.160864 0.108446 -0.744738 0.251829 0.189155 0.215776 -0.165007 -0.367168 0.407258 -0.196142 -0.110206 -0.413922 0.420816 0.488549 0.063105 0.404479 0.367746 0.518227 0.544366 0.014509 0.546541 0.728684 0.540454 -0.237858 -0.269436 0.227859 -0.168834 -0.229912 0.089641 -0.179879 0.143727 0.330618 -0.443308 0.138210 -0.501266 0.544897 -0.947164 -0.171482 0.153238 0.214422 0.486785 0.155493 0.749494 0.264685 0.097495 -0.081127 0.279257 0.234505 -0.028103 -0.933006 0.459267 0.560448 0.162029 -0.516286 -0.224276
H132 -0.447430 -0.004344 -0.634829 0.390882 -0.153854 0.305495 0.152744 0.075017 -0.093305 -0.197202 -0.165015 -0.356892 -0.044641 -0.022836 0.132672 -0.143256 -0.537780 0.603127 -0.763312 0.202494 0.301211 0.327334 -0.183893 -0.542511 -0.060964 -0.005231 -0.001737 0.296770 0.175800 -0.010023 0.110037 -0.308208 0.197183 -0.447887 0.087511 -0.537897 -0.398406 -0.131946 0.394477 0.529831 -0.009851 0.484349 0.243791 -0.348520 0.510184 0.261507 -0.425695 0.227512 -0.008747 0.831041 0.150578 0.229788 -0.126895 -0.400867 -0.181642 -0.632752 0.318944 0.257694 0.230735 0.697244 0.432671 0.025860 -0.487439 0.644850 -0.164796 -0.274602 -0.580411 0.701857 0.002961 0.634368 0.156551 -0.142142 -0.027558 -0.279832 0.244957 -0.745299 -0.094650 -0.043475 0.233162 0.167303 -0.592278 0.158486 -0.069662 -0.164562 -0.074508 0.113128 0.463527 -0.295757 0.281419 0.110002 0.507578 -0.012393 0.039554 0.462834 -0.020623 0.208548 0.240021 -0.005293 -0.273857 0.081005 -0.175691 0.111952 -0.258151 0.265660 -0.332326 -0.708063 0.208729 -0.183865 0.073502 -0.274992 -0.501679 -0.129343 0.476023 0.514029 -0.030621 0.040207 0.245733 0.374299 -0.215559 -0.007164 0.150270 0.181370 -0.115146 -0.144793 0.372991 0.087370 -0.028887 -0.198771
H3 -0.032753 0.164196 -0.158407 -0.679701 0.410039 0.465955 0.332763 -0.012469 -0.038403 0.130495 -0.315741 -0.347779 0.059002 0.070701 -0.076617 -0.625235 0.038882 0.496771 -0.610822 -0.125917 0.504502 0.351329 -0.357191 -0.555566 -0.376994 -0.058107 -0.040694 0.662706 -0.553679 -0.235243 0.581271 -0.260741 0.098427 -0.027937 0.849414 -0.779866 -0.531815 -0.131252 0.428928 0.895531 0.065635 -0.020333 0.584545 -0.667103 0.494034 -0.365274 -0.117650 0.047405 0.500199 0.451912 0.485208 0.133409 0.615280 -0.312976 -0.794621 -0.118571 0.508746 0.291896 0.226810 0.551606 -0.690068 -0.157538 0.102568 0.959257 0.933602 0.187688 -0.391860 0.786587 -0.040541 0.191624 -0.074885 -0.414740 0.257830 0.163262 0.273124 -0.689092 -0.252877 -0.910114 -0.153749 0.096079 -0.602117 -0.409285 -0.090454 0.203885 -0.470269 0.389667 1.260757 0.083644 1.137289 0.230604 0.916277 0.381914 0.398026 0.691820 -0.422343 0.438393 0.245009 0.098015 0.546397 0.419979 -0.166089 0.115070 0.262751 0.144899 -0.211462 -1.132848 -0.140312 -0.277445 0.236910 -1.082798 -0.269334 -0.207619 0.362767 0.932251 -0.058976 0.265506 0.446217 0.378951 0.327744 -0.310049 -0.110573 0.060835 -0.145577 -0.362535 0.879119 -0.339945 0.013340 -0.385133
H119 0.159266 -0.180931 -0.427758 0.138477 0.592813 0.792385 0.299461 -0.275899 -0.032945 -0.462130 -0.084658 -0.289069 0.765337 0.303313 -0.075069 -0.319274 -0.313382 0.515535 -0.575984 -0.364419 0.647580 0.519895 0.055985 -0.278570 -0.118760 0.094678 -0.513384 0.497914 0.571852 -0.012066 -0.179898 0.230298 -0.100424 -0.530004 0.068908 -0.352252 -0.873394 -0.550571 0.257585 0.528589 0.335283 0.104016 0.126399 -0.343883 0.643000 0.039245 -0.229065 0.354446 -0.175794 0.547816 0.269231 -0.637117 0.002687 -0.696832 -0.488989 -0.996828 -0.210250 0.284290 0.185674 1.011838 0.434564 0.431362 -0.377322 0.004974 -0.004223 -0.114496 -0.006709 0.488919 0.355067 0.807876 0.485579 0.382595 0.453134 0.577138 -0.229724 -0.142137 0.233077 -0.211432 0.128920 -0.246528 -0.051193 0.127176 -0.017460 0.090808 0.018527 0.480654 0.751753 -0.500644 0.983986 0.247998 0.713327 -0.434751 -0.552012 0.835209 0.463918 0.709827 0.078032 0.038575 0.473295 -0.253433 -0.671147 0.065203 -0.371168 -0.172570 -0.287521 -0.538380 0.204968 -0.016759 -0.019378 -0.050172 -0.456906 -0.038448 0.696117 0.801311 0.352808 -0.011081 -0.370346 0.050861 -0.242612 0.817018 -0.137755 0.226884 -0.044126 -0.086874 0.050177 0.323632 -0.126411 -0.576867
H215 -0.559147 -0.185596 -1.001261 0.011526 -0.394289 -0.183413 0.203507 0.343873 -0.303459 0.204917 -0.024601 -0.392429 -0.110902 -0.401865 0.610299 -0.570520 -0.425092 0.454264 -0.427536 -0.067552 0.440059 0.309163 -0.060908 -0.685463 -0.213540 -0.513370 0.734246 -0.132183 0.109086 -0.001289 0.150835 -0.257737 -0.323665 -0.195375 0.629659 -0.314299 -0.705810 -0.474259 0.897356 0.637638 0.244044 0.679233 -0.136916 -0.672990 0.527108 0.244678 -0.134697 0.186450 0.512575 1.040376 -0.004183 -0.410203 0.708744 -0.342626 -0.154292 -0.159519 0.912856 0.080627 0.350666 0.573618 0.257527 -0.056983 -0.246517 1.096662 0.144146 -0.264287 -0.183084 1.076071 -0.302830 0.154452 -0.015859 -0.560392 0.465148 -0.637733 -0.322694 -0.325033 -0.282271 0.057060 0.361859 -0.018082 -0.032547 -0.773473 -0.178971 0.511625 -0.081022 0.061481 1.092542 -0.034243 0.227363 -0.322530 0.643327 0.519032 0.526303 0.566881 -0.546674 0.357558 0.315261 0.064973 0.079134 0.592769 0.102397 0.430083 0.359045 0.525917 -0.395927 -0.733798 0.138377 -0.892351 -0.006310 -0.763337 -0.700381 -0.251743 0.849795 1.324187 0.575783 0.297398 -0.466406 0.388109 -0.146868 -0.496516 1.079318 0.316105 0.365712 -0.529247 0.340985 -0.038971 0.533552 0.009324
H103 0.086227 0.150856 -0.709778 0.145730 0.313560 0.465046 0.791473 -0.353601 0.020697 -0.116022 -0.447125 -0.739025 -0.297867 0.915358 0.163009 -0.309113 -1.421423 0.766140 -0.233936 0.333825 0.426030 0.156618 -0.388911 -0.701257 -0.344509 0.239283 0.793791 0.897307 0.374083 -0.085454 0.422010 -0.165032 0.692804 -0.211010 0.561272 -0.966254 -0.478115 -0.078220 0.379175 -0.114096 -0.235266 0.771418 -0.454364 0.204520 -0.059457 0.114044 0.311956 0.180921 0.017463 0.801363 0.025613 0.167410 -0.300717 -0.379158 -0.522529 -1.087462 -0.066542 0.205036 0.328883 0.613429 0.597337 -0.302438 -0.302429 1.083330 -0.003941 0.054737 -0.382617 0.619646 0.108204 0.667586 0.182663 0.133297 0.322822 -0.230297 0.915603 -0.924314 0.062690 -0.177401 0.487067 0.462202 -0.229158 0.408138 0.044567 -0.345151 -0.556540 -0.055123 0.515665 0.478520 0.919763 -0.185884 0.655893 -0.023460 -0.151321 -0.324068 -0.253164 0.479856 0.380519 0.432172 -0.532260 0.545376 -0.457731 0.110529 0.492168 -0.030277 -0.172811 -0.235125 0.640833 0.182421 0.511841 -0.071636 -0.489094 0.286384 0.602740 0.061103 -0.456544 0.173361 -0.285068 0.658119 -0.391925 0.227093 0.879716 0.449590 -0.022503 -0.626242 0.375323 0.242836 0.380490 -0.268074
H63 -0.305130 0.224354 -0.401856 0.160568 0.197852 0.353787 -0.075080 -0.520259 0.057836 -0.199085 -0.338905 -0.628630 -0.288479 -0.164440 0.404317 0.222309 -1.169503 0.806108 -0.989463 0.401537 0.277275 0.318900 0.049731 -0.947844 0.666668 0.091338 -0.412398 0.206470 0.233175 0.071115 0.237063 0.260306 0.332124 0.158515 -0.550125 -0.982993 -0.660571 -0.284935 0.041699 0.469520 -0.116106 0.539459 -0.040398 -0.429695 -0.325068 -0.300006 -0.575865 0.245564 0.045900 0.733244 0.607472 0.908586 0.145821 -0.468186 -0.056904 -0.271500 -0.405082 -0.394965 0.794161 0.869522 0.186323 -0.502809 -0.407624 1.102145 0.143691 -0.267669 -1.071195 0.798358 -0.439384 1.342430 -0.070733 -0.021731 -0.176402 0.169108 0.448571 -1.126567 0.016534 -0.210557 0.151834 0.420602 -0.048681 0.210349 -0.081225 -0.565039 -0.223846 -0.089426 0.180906 -0.487224 -0.754285 0.351678 1.042581 -0.052000 -0.593925 0.408707 -0.250548 -0.142455 0.050884 -0.438496 -0.192595 0.075553 -0.079679 -0.023003 -0.526445 0.468500 -0.728372 -0.678549 -0.483808 0.063021 -0.241559 -0.278059 -0.807465 -0.041316 0.574396 0.635277 0.644064 -0.498611 0.103675 0.695453 0.205438 0.208126 -0.493704 0.047538 -0.136363 0.358613 0.440196 -0.050256 0.067997 0.040878
H74 -1.032825 0.066647 -0.548276 0.503550 0.193450 0.647020 0.781129 -0.317480 -0.273549 -0.281131 -0.544112 -0.482446 -0.234054 0.253407 -0.305038 -0.166930 -0.750691 0.302726 -0.066808 0.375359 0.643722 0.239165 -0.136275 -0.904904 -0.393111 0.100360 0.059785 0.698764 0.619500 -0.302095 0.011476 -0.444583 0.880498 0.106957 0.387543 -0.672227 -0.485411 -0.026075 -0.128395 1.090968 0.552055 1.036184 0.561653 -0.556731 0.064409 0.055427 0.171483 -0.403979 0.179836 0.433712 0.460044 0.948169 -0.253144 -0.759300 -0.584371 -0.444063 0.329321 -0.404343 0.926903 -0.055549 0.857641 0.354710 -0.261781 1.059693 0.205968 0.081020 -0.876895 0.726198 -0.273438 -0.111823 -0.387928 0.058351 0.290957 -1.174018 -0.210755 -0.746799 0.246407 -0.241266 0.289666 0.336012 -0.932385 0.581218 -0.091798 -0.520065 -0.212369 -0.416585 0.534188 0.107837 0.338261 -0.815162 -0.014727 0.034128 -0.284088 -0.070650 -0.059250 0.499942 0.564472 -0.241677 -0.164978 0.489698 -0.151878 -0.484174 -0.294219 -0.011954 0.004148 -0.162586 0.165350 -0.286184 -0.169112 -0.297245 -0.571560 -0.664478 0.648428 0.162286 -0.308174 -0.149559 0.065524 0.596870 -0.354956 -0.268315 0.067241 0.014205 0.353193 0.185633 0.798430 -0.116968 0.192139 0.745908
H152 0.244690 -0.019462 -0.435634 0.195537 -0.516938 0.482133 0.635933 0.082584 0.186986 0.059510 0.341462 -0.136643 0.129123 0.401448 0.083028 -0.274277 -0.204753 1.209318 -0.795624 0.016162 0.231209 0.685257 -0.568996 -0.093400 0.098992 -0.461020 -0.725233 0.701389 0.040201 0.467415 0.261979 -0.408164 -0.048819 -0.514908 0.509148 -0.276586 -0.075068 -0.587200 0.929310 1.256678 0.521010 -0.053246 0.115681 -0.133462 1.027255 0.163175 0.089958 0.414130 -0.273479 0.610015 -0.085337 0.235950 0.342977 -0.639392 -0.428341 -0.219320 0.238833 0.424918 0.489451 0.731088 0.192923 0.210943 0.950461 0.590533 -0.071937 0.489542 -0.051725 0.345294 -0.302083 -0.510055 -0.022004 0.343155 0.554843 -0.076911 0.180412 -1.451548 -0.707641 -0.065073 0.138296 0.101689 -1.420962 0.045289 -0.144846 0.237282 -0.011036 0.202039 0.798405 -0.354871 0.904071 -0.037496 0.914471 -0.222180 -0.448365 1.137727 -0.087048 0.687394 -0.037036 0.146905 0.111211 -0.491489 -0.360377 -0.008216 -0.029477 -0.067764 -0.365969 -0.771146 -0.313792 -0.528372 0.448740 -0.655065 -0.217745 -0.627938 -0.284068 0.616055 0.166233 0.290485 -0.159513 -0.017100 -0.289994 -0.492855 -0.161926 0.082044 0.160364 -0.536385 0.763579 -0.655811 1.085112 -0.226703
H189 -0.522182 -0.202121 -0.748728 0.394756 0.291983 -0.073898 0.389605 -0.212771 -0.109810 0.162159 -0.539985 -1.025953 -0.047890 -0.110957 -0.275693 0.201393 -0.720963 0.710734 -0.993074 0.159862 0.290022 0.559227 -0.015922 -0.449333 0.686843 -0.030318 0.340252 -0.163155 -0.110573 -0.112082 0.133450 -0.454862 0.741485 -0.366406 -0.159427 -0.363239 -0.561412 -0.139570 0.422264 0.405933 -0.212931 0.498087 0.331223 -0.212230 0.320849 -0.049025 -0.175299 0.577698 0.263137 0.776901 0.064593 0.120678 -0.182409 -0.295110 0.108897 -1.056620 0.378893 -0.045347 -0.070101 0.096243 0.081910 -0.544883 -1.126967 0.475837 -0.154555 -0.754274 -0.999452 1.138722 0.422421 0.583777 0.181598 0.037945 0.060000 -0.334501 0.534325 -0.258855 0.016165 0.693915 0.169904 0.131930 -0.234967 -0.191066 -0.050480 -0.333318 -0.087209 0.142764 0.557622 -0.150735 0.213733 -0.123700 0.714792 -0.337188 0.492592 0.215725 -0.117371 0.175793 0.103129 -0.288136 -0.671180 0.696345 0.483821 0.393511 0.225306 0.134475 -0.431517 -0.618936 0.270137 -0.289540 0.675161 0.585178 -0.818672 0.643479 0.846159 0.033708 0.387280 -0.116310 0.433481 0.767306 -0.327365 0.372862 -0.012178 0.104110 0.053047 0.340658 0.205372 0.274884 -0.371551 -0.474958
H184 0.196535 -0.566221 -0.759490 -0.235117 -0.132594 0.870571 0.272982 -0.613078 0.071894 -0.421322 -0.039820 -0.285029 -0.083475 -0.346282 0.546072 -0.330422 -0.517959 0.321873 -0.243242 0.584649 0.268945 0.090691 -1.157575 -0.198725 -0.297190 -0.099164 0.446548 0.505019 0.422060 -0.408687 0.177568 -0.541531 0.569686 -0.233364 0.752298 -0.623076 -0.041477 -0.333359 0.438359 0.726587 0.229624 0.826918 0.359432 -0.471206 0.309836 0.498129 0.288450 0.493908 -0.285747 0.579840 0.136792 0.667375 0.481319 -0.244122 -0.988669 -0.752437 0.460526 0.635710 0.378386 0.453658 0.132403 0.409709 -0.332731 1.100201 0.148720 -0.549219 -0.372001 0.101708 0.071585 0.420284 0.257569 -0.530748 0.569978 -0.151841 0.235968 -1.290217 -0.261247 -0.160572 0.290573 0.209202 -0.816866 -0.046410 0.034482 -0.074540 -0.480293 0.122853 0.470046 -0.165695 0.113441 0.290892 -0.182880 0.555423 0.396354 0.212079 -0.015765 0.053014 0.833358 0.240637 0.833871 -0.073158 0.267837 -0.483939 0.595206 0.194211 0.278506 -0.713584 -0.088594 -0.371246 0.951747 -0.420271 -0.317452 -0.119561 0.026188 0.650239 0.630923 0.692715 0.248413 0.708651 -0.347160 -0.226587 -0.048972 0.178209 0.225771 -0.781003 0.806533 0.118974 0.446988 -0.149152
H86 -0.722249 0.026134 -0.374776 0.196347 -0.129799 0.174675 0.079433 0.330026 0.039096 -0.489034 0.155302 0.113046 0.061686 0.097148 -0.142820 0.098740 -0.352392 0.467138 -0.732012 0.219852 -0.173652 -0.001406 0.197647 0.327072 0.104259 -0.210303 -0.161867 0.034383 0.392843 0.182644 0.335136 -0.242943 -0.056988 -0.562997 -0.039593 -0.568145 -0.097022 0.146449 0.164868 0.348706 0.399697 0.411814 0.005532 -0.358806 0.394189 0.167767 -0.374076 0.203994 0.115729 0.248539 0.237500 0.257933 -0.562834 -0.233551 0.205180 -0.335844 -0.170969 0.709830 0.099987 0.220556 0.349557 -0.035492 -0.446626 0.594437 -0.184897 -0.708283 -0.276700 0.324298 -0.250281 0.611552 0.397247 -0.011600 -0.372879 -0.177254 -0.283890 -0.606458 -0.036808 0.225915 0.584137 0.034103 -0.472486 0.467545 -0.193854 0.037722 -0.120304 -0.210921 -0.379677 -0.392977 0.270339 0.332328 -0.157909 0.012321 0.207934 -0.042019 -0.162179 0.025613 0.684603 0.101878 -0.132210 -0.621430 0.079628 -0.438860 -0.858032 -0.178420 -0.500177 -0.525490 0.255762 0.274682 -0.169324 -0.020824 0.314468 -0.465493 0.549234 0.315389 -0.088769 -0.524091 0.427721 -0.401890 -0.353397 -0.310251 0.035201 0.016263 -0.658938 0.047311 0.179436 0.285039 -0.022683 -0.164336
H123 -0.196162 -0.160483 -0.030052 0.177742 0.730275 0.261186 -0.141472 0.295354 -0.590771 -0.892515 -0.423788 -0.199172 0.272382 -0.269924 0.149097 0.203056 -0.426751 0.339601 -0.467528 0.521759 0.808361 0.066448 -0.026153 -0.508022 -0.371808 0.187068 0.082533 0.560376 -0.065081 -0.048419 0.296135 -0.155851 0.232557 -0.242704 0.353298 -0.846359 -0.036871 0.105632 0.315569 0.421295 0.200652 0.520479 -0.091211 -0.096762 0.354449 0.229484 -0.258920 0.260151 -0.522524 0.460317 0.107917 0.570299 0.200125 -0.284207 0.095610 -0.519809 0.134467 -0.161758 0.138544 0.004889 0.516549 0.265644 -0.665708 0.357900 -0.164819 -0.485501 -0.248740 0.660931 -0.277481 0.334045 0.043240 -0.227172 -0.354068 -0.477890 0.030337 -0.090782 -0.126808 -0.848429 0.604534 0.687110 -0.416853 0.146707 -0.157892 -0.151581 -0.016782 -0.226989 -0.058719 -0.499952 -0.110494 0.171431 -0.084528 -0.123511 0.132887 -0.210348 -0.410168 -0.414822 0.368148 0.274849 0.040825 -0.321751 -0.012013 0.031252 -0.410426 0.743239 -0.467819 -0.272475 0.496787 -0.291573 -0.057158 0.058628 -0.293764 -0.139263 0.654551 0.097805 0.103845 -0.112893 0.575781 0.014583 -0.689855 0.118521 0.122597 -0.108637 -0.033698 -0.394934 0.155896 0.137087 0.050762 0.357171
P200 -0.074416 0.098677 -0.098255 0.174984 -0.111472 -0.094553 -0.126766 0.275899 0.144109 -0.464786 0.070361 -0.474121 -0.035751 0.104325 0.030068 -0.212123 0.314654 0.612967 -0.276679 0.043901 0.762101 0.538391 0.002920 -0.892382 0.374841 -0.177152 -0.032575 0.340686 -0.584032 -0.020614 0.199690 -0.183644 0.051934 -0.221268 0.214507 -0.125724 -0.801525 -0.250883 0.344909 0.440842 -0.308653 -0.292437 0.020149 -0.201147 0.373942 0.011612 -0.386693 -0.218383 0.018336 0.678066 0.189473 -0.725094 0.091710 -0.495900 -0.199090 -0.254250 0.248928 -0.027643 -0.040697 0.772630 -0.114441 0.024786 -0.090306 0.096324 -0.207648 -0.012283 -0.430847 1.086848 -0.217083 -0.119692 0.195490 -0.007089 -0.174043 -0.307340 0.200370 -0.278110 0.092798 -0.140226 0.431852 0.224163 -0.124853 0.136635 -0.181718 0.105803 -0.019190 0.362956 0.715174 -0.336963 0.264220 0.403368 0.894221 -0.250265 0.242142 0.551770 -0.068429 0.115352 -0.375385 -0.073357 -0.323690 -0.081591 -0.004698 0.717605 -0.059061 0.954181 -0.211017 -0.278233 0.367478 -0.265503 0.102824 -0.236940 -0.515833 0.335149 0.529683 0.565647 0.057115 0.210752 0.612360 0.194151 -0.244607 0.457254 0.287332 0.015860 -0.499483 0.060810 0.401691 -0.289502 -0.603498 -0.361658
H112 -0.411337 0.040536 -0.654629 0.414271 -0.039728 0.467398 0.229266 0.168254 -0.017334 -0.500203 -0.233976 -0.405547 -0.042424 0.102827 0.061495 -0.255910 -0.457097 0.771127 -0.784818 0.281081 0.523130 0.411280 -0.123047 -0.494960 -0.104074 -0.194792 -0.088522 0.456441 0.011478 0.038601 0.165233 -0.314532 0.257281 -0.480231 0.304353 -0.663421 -0.584182 -0.133088 0.387322 0.660645 0.089353 0.471326 0.183271 -0.472657 0.592532 0.286961 -0.513713 0.130470 0.043227 0.823516 0.101883 0.117565 -0.006853 -0.463969 -0.390404 -0.609546 0.175929 0.204189 0.251285 0.537221 0.518987 0.117660 -0.416842 0.646258 -0.266457 -0.271864 -0.571450 0.799644 -0.122770 0.490496 0.234755 -0.098165 -0.025956 -0.313969 0.236726 -0.821287 -0.008336 -0.164993 0.410231 0.259231 -0.774095 0.159213 -0.072781 -0.048741 -0.105441 0.093141 0.502623 -0.274230 0.450590 0.139781 0.552842 -0.003503 0.035363 0.486768 -0.103957 0.268464 0.347947 0.186666 -0.238027 -0.063323 -0.117044 0.053807 -0.400267 0.316732 -0.313926 -0.884552 0.284596 -0.236926 0.149557 -0.314329 -0.410705 -0.213057 0.524107 0.581870 -0.013642 0.000576 0.351429 0.324771 -0.255744 0.019003 0.160576 -0.070853 -0.320676 -0.184296 0.460813 0.022826 -0.009236 -0.254665
H166 0.060180 0.219452 -0.148282 0.091009 -0.799165 0.378425 -0.216311 0.532315 -0.451161 -0.085256 0.401466 0.537595 -0.290106 0.159245 0.311203 -0.381013 -0.572574 0.553346 0.055002 0.431717 0.583602 0.500110 -0.132359 -0.480463 0.444287 0.207176 0.404982 0.454022 0.026493 0.111427 0.178779 -0.258663 -0.222872 -0.777349 0.379523 -0.454502 -0.375768 0.345634 0.824241 0.814954 -0.084298 0.591626 0.616518 -0.160621 0.425828 0.198810 0.153467 0.176384 0.154189 0.822154 0.152705 0.120817 0.065500 -0.122942 -0.352981 -0.071132 0.348838 0.679044 -0.034814 0.234101 0.341633 -0.500758 -0.398546 0.875224 0.230729 -0.074822 -0.641341 0.045712 -0.366232 -0.209984 0.121950 -0.096907 -0.256399 -0.482259 0.452783 -0.690948 -0.488764 0.258002 0.533650 -0.313974 -0.604998 -0.114092 0.098063 0.231153 -0.326865 0.199200 1.298109 -0.608797 -0.018110 0.016171 0.499678 -0.277864 0.579529 0.325444 0.212406 0.435026 0.102910 -0.542938 -0.340590 0.242221 0.124974 -0.023164 -0.519953 0.292876 0.015369 -0.413356 0.752957 -0.426735 -0.104358 0.006404 -0.846942 -0.235446 0.348577 0.718595 -0.382186 0.259948 0.031742 0.148397 -0.356034 -0.432200 -0.187001 0.089628 -0.281650 -0.442868 0.707539 -0.154198 -0.323401 0.567923
H197 -0.173653 0.254023 -0.824862 -0.050833 0.117078 0.579357 0.312272 0.396405 -0.323595 0.105300 -0.102337 0.268192 0.040195 0.472070 -0.197454 -0.476967 -0.838917 0.231544 -0.700277 0.128642 0.799181 -0.097916 0.351235 0.146014 -0.328356 -0.294814 0.328382 0.860673 0.513924 -0.244639 0.481906 -0.792725 0.562992 -0.484636 0.488022 -0.428150 -0.436206 0.197279 0.590622 0.732375 0.259081 0.416351 0.264303 -0.016285 0.497787 0.704813 0.422367 0.165185 0.294905 0.476609 0.105757 0.608682 -0.100465 -0.547674 -0.270364 -0.704648 0.092664 0.236125 0.006619 0.227707 0.782716 0.072413 -0.259422 0.168139 -0.093104 -0.221034 -0.140484 0.181752 0.266281 -0.002397 -0.311878 0.207329 -0.026922 -0.243176 0.245235 -0.406639 0.192061 -0.188879 0.489708 -0.116840 -0.500738 0.365627 -0.207864 0.219717 -0.232451 0.442021 0.346510 0.126907 0.432719 -0.267013 0.473888 0.318179 0.441408 0.030188 -0.524290 0.697821 0.692439 0.537525 0.239436 0.159416 0.091186 -0.136192 -0.441456 -0.130015 -0.027943 -0.927648 0.414856 0.154763 0.273608 0.168554 -0.170806 -0.335251 0.492207 0.427011 -0.318220 -0.068902 -0.858727 -0.063221 -0.048164 0.085404 0.299658 -0.385915 0.728703 -0.567279 0.448736 -0.231543 0.294905 -0.222194
P964 -0.129223 0.007433 -0.821610 -0.007626 -0.107478 0.150897 0.652392 0.423098 0.165061 -0.143590 -0.191486 -0.216924 0.240103 0.255253 -0.282085 -0.786539 -0.467155 0.480523 -0.497424 -0.356720 0.135766 -0.029991 0.046138 0.079277 -0.120943 -0.029985 0.066747 0.209797 -0.665964 0.139898 0.332493 -0.484752 0.237956 -0.257201 0.512948 -0.360263 -0.540014 0.123066 0.713864 0.071372 0.017294 -0.006710 -0.019132 -0.147250 0.176236 0.192526 -0.046931 -0.346749 0.647138 0.361136 -0.148237 -0.401277 -0.367543 -0.166580 0.119345 -0.799304 0.560717 -0.163745 -0.122357 0.284732 0.341922 0.198331 -0.322075 0.771495 -0.017119 0.070279 0.030079 0.714556 0.088310 -0.235820 0.263687 -0.323928 -0.345444 -0.515600 -0.085772 -0.236736 -0.190390 0.195402 -0.070459 0.511769 -0.801827 -0.151565 0.220388 0.068101 0.232661 0.113648 0.497800 0.146469 0.979012 -0.063662 0.613610 -0.152185 -0.016808 0.480488 -0.456795 0.454693 0.365115 0.544391 -0.565236 0.051713 -0.062219 0.045746 -0.237472 0.134302 -0.356408 -0.761108 0.162388 -0.321699 -0.208384 -0.190683 -0.018420 -0.314926 0.634661 0.401568 -0.327782 -0.190101 -0.318363 0.203007 0.371570 -0.240751 0.318418 -0.203153 -0.400346 -0.808288 0.006680 -0.017100 0.302001 -0.569598
H12 -0.350954 0.020584 -0.606893 0.360963 -0.035090 0.415602 0.224479 0.152339 -0.037028 -0.456434 -0.231517 -0.385518 -0.031417 0.113459 0.045230 -0.226246 -0.433964 0.729342 -0.702484 0.234614 0.459002 0.366925 -0.114529 -0.455411 -0.092819 -0.185704 -0.094415 0.375558 0.010193 0.036845 0.146115 -0.294840 0.233310 -0.414315 0.282914 -0.601796 -0.528981 -0.098234 0.352361 0.604888 0.061407 0.414999 0.149422 -0.443326 0.516867 0.241339 -0.466479 0.114171 0.047659 0.751134 0.102555 0.091300 -0.025330 -0.428114 -0.353580 -0.546315 0.175030 0.170335 0.205875 0.493883 0.467936 0.116233 -0.374894 0.598762 -0.228954 -0.256671 -0.523185 0.717796 -0.114416 0.436886 0.226590 -0.084060 -0.058442 -0.274546 0.208322 -0.756776 0.032973 -0.153601 0.338119 0.220837 -0.680938 0.160787 -0.076199 -0.073683 -0.086589 0.061952 0.454731 -0.271832 0.412912 0.134671 0.509901 -0.007261 0.037470 0.454712 -0.115201 0.253969 0.313254 0.155316 -0.222110 -0.082498 -0.090804 0.033765 -0.377244 0.288719 -0.280249 -0.790465 0.240635 -0.194426 0.114159 -0.309485 -0.353798 -0.212827 0.470686 0.549900 -0.027269 0.025071 0.315315 0.282019 -0.225994 0.022214 0.140908 -0.038306 -0.309748 -0.153221 0.401030 0.025899 -0.006788 -0.234530
H14 -0.051392 -0.011718 -0.656211 -0.106767 0.551792 0.568332 0.793147 -0.394210 0.017048 -0.010635 -0.679674 0.075556 0.130998 -0.434010 -0.086717 -0.086141 -0.824081 0.048721 -0.575171 -0.140150 -0.110804 0.045074 -0.526765 -0.519602 0.161593 0.802570 -0.502757 0.516431 0.479810 -0.197820 0.327902 -0.595027 0.404344 0.562825 -0.188042 -0.639105 -0.100132 -0.292334 0.404170 1.116981 0.352753 0.764752 0.829112 -0.596421 -0.194541 -0.276956 -0.419489 0.453372 -0.013471 0.834648 0.221838 0.888956 -0.227107 -0.307386 -0.243532 -0.748752 -0.152365 -0.071322 1.059134 1.005051 0.437713 0.027868 -0.142834 0.977702 -0.063779 -0.383559 -0.747014 0.493517 -0.155027 1.186159 0.401307 -0.482664 -0.055133 -0.128523 -0.466052 -1.022391 -0.385956 -0.410199 -0.325073 -0.215261 -0.823543 0.332846 0.285103 -0.918258 -0.094745 -0.380776 0.192346 -0.162920 -0.120115 -0.099943 0.428458 0.349725 0.235160 0.484612 -0.212420 0.576157 -0.086728 -0.130686 -0.237068 0.328436 -0.161601 -0.187809 -0.298883 0.014894 -0.458980 -0.509469 -0.090470 -0.319612 -0.086326 -0.483190 -0.203675 -0.213703 0.444774 0.469099 0.082579 0.510575 0.205085 0.055965 -0.343270 0.095117 -0.118109 -0.184821 -0.201238 -0.427299 0.701515 -0.106771 0.084587 0.253718
H21 -0.258331 -0.119939 -1.087433 0.030144 -0.086936 -0.135262 0.342724 -0.540379 0.017582 -0.071992 -0.188394 0.200838 -0.071983 0.651166 0.895907 -0.317024 -0.924488 1.028740 -0.813665 0.674917 0.374527 -0.102293 -0.042496 -0.443242 -0.066604 -1.150086 0.017145 0.296013 0.110144 0.896625 -0.242714 -0.679419 0.344369 -1.112953 -0.236200 -0.374933 0.388414 0.026072 -0.039677 0.749392 0.786148 0.600415 0.067938 -0.418346 0.596948 0.440077 0.078499 0.665232 -0.293267 0.813420 0.203373 0.047520 0.306335 -0.268050 -0.369378 -0.792495 0.356895 0.584225 0.170668 0.320767 0.723302 0.002326 0.168527 1.003741 -0.298421 -0.639892 -0.510501 0.168984 0.072923 0.741951 -0.283966 0.153836 0.470174 -0.159133 -0.099675 -0.979575 -0.637749 0.065261 0.227989 -0.053609 -0.407814 0.412403 -0.166969 -0.301123 0.628408 -0.013057 -0.070492 -0.371935 -0.242769 0.558515 0.304151 0.129640 0.307149 0.554553 0.188526 0.560210 0.716550 0.125381 -0.100899 -0.049236 -0.056523 0.305868 -0.488485 0.311638 -0.358596 -0.134377 0.865817 -0.799291 0.258658 -0.703505 0.056566 -0.364247 0.343446 -0.106592 1.058545 0.186225 0.155743 0.604960 -0.623526 -0.062290 0.332374 0.401034 0.213011 -0.500476 -0.031933 0.051675 0.680657 0.635216
H220 -0.575551 -0.140560 -0.745499 0.347021 -0.426246 0.471932 0.623320 -0.053096 0.362967 -0.241043 -0.366828 -0.926626 -0.175599 0.715882 0.385574 -0.063683 -0.772474 0.638300 -0.280433 0.247569 0.792489 0.089025 -0.393379 -0.224197 -0.000432 0.300784 0.195308 0.243424 -0.472511 -0.612455 0.248531 -0.437034 0.625997 -0.336145 0.129619 -0.648596 -1.213685 0.275264 0.175785 0.842624 0.023581 0.115068 0.142241 0.497372 0.416336 0.286443 -0.491224 0.172766 0.105199 0.310269 -0.221173 -0.084461 -0.025618 -0.285683 -0.042858 -0.885554 0.295124 0.402661 0.035360 0.089565 0.317266 0.678050 -0.844863 0.010166 -0.413849 -0.036861 -0.759752 0.994089 0.222879 0.313475 -0.013616 0.295885 0.462585 -0.442215 0.597501 -0.692616 0.126139 0.019108 0.441797 0.764785 -0.566900 0.722798 0.210023 0.142034 0.336962 0.261833 0.582330 -0.149602 0.366516 -0.513516 0.029994 0.452074 -0.918446 0.546263 0.427020 0.576987 0.456884 0.007624 -0.017307 -0.295373 -0.158631 0.406717 0.095158 0.457504 0.136702 -0.132509 0.856313 -0.419307 0.712693 0.489968 -0.416291 0.044906 0.180832 -0.109958 -0.445783 0.247103 0.049506 0.995933 -0.424129 0.582651 0.527021 0.466400 -0.268827 -0.076157 0.073550 0.051039 -0.265264 0.380999
