1622 128
H79 0.401404 0.019504 -0.201608 -0.016291 -0.080503 -0.054283 -0.077514 0.223296 -0.123522 -0.110222 0.144021 0.071059 -0.296901 0.367009 0.057176 -0.256868 0.009131 0.063216 -0.232805 0.344879 0.140328 -0.341145 0.133601 0.312431 0.470706 -0.049895 -0.076580 -0.234706 0.460896 0.153348 0.171705 0.039234 -0.014591 0.065164 -0.151929 0.392617 0.245856 0.166043 -0.021660 0.188965 0.206592 -0.067920 0.548322 -0.071869 0.091386 0.106717 -0.018084 -0.137663 -0.344478 0.000395 -0.110282 -0.243099 0.169487 0.035555 0.082497 -0.315717 0.003066 -0.033302 0.111389 -0.287958 -0.100347 -0.210360 -0.014880 -0.321929 0.101321 -0.508303 -0.265364 -0.052226 0.079094 0.145287 0.047005 0.612054 -0.392053 -0.132944 -0.446389 0.131001 0.173548 -0.107265 0.042843 0.084615 -0.260037 0.650831 -0.147956 -0.308622 0.192565 -0.515409 -0.291982 0.300175 -0.577757 0.307491 -0.171243 -0.358299 0.042375 -0.304121 0.230460 -0.401192 0.051580 -0.141003 -0.101323 0.447693 0.313667 -0.637088 -0.338568 0.096964 -0.406950 -0.380540 -0.061749 0.040268 0.016656 0.068005 0.523463 -0.286243 -0.445050 0.080092 0.265732 0.160720 0.281100 0.049081 0.055899 0.050265 -0.369485 -0.516898 -0.367709 0.064991 -0.150098 0.127445 -0.258319 0.321893
H95 0.009215 -0.170019 -0.417533 -0.079173 -0.129869 0.233787 -0.007936 0.352616 -0.109701 -0.367524 -0.232100 -0.223312 -0.297077 0.299887 -0.185070 0.216462 0.141736 0.128254 -0.618205 -0.064681 0.048918 0.031327 0.117861 0.173944 0.141714 0.109819 -0.073821 -0.017688 0.257600 0.364209 -0.151391 -0.402835 0.133174 -0.232937 -0.372404 -0.159079 0.502464 -0.223727 0.244645 0.091856 0.308672 -0.005311 0.084033 -0.030627 -0.174785 0.280201 0.740195 0.075686 -0.673436 -0.456914 0.671934 0.071173 -0.181171 -0.052690 0.287920 -0.639099 0.130778 0.051800 0.117387 0.263641 -0.296301 -0.129127 0.415081 0.176573 -0.529188 -0.646326 0.011083 -0.154129 0.129642 -0.176418 0.659614 0.216395 -0.574197 0.362749 -0.266238 -0.499422 0.035038 0.082676 0.022368 0.324223 -0.440398 0.540847 0.057043 -0.358444 0.417749 -0.051908 -0.506474 0.101363 -0.145451 0.385204 -0.302132 -0.105668 0.286136 -0.248037 -0.263009 -0.013687 0.221711 -0.077141 -0.187701 0.019179 0.365625 -0.360130 0.073764 0.110454 -0.103767 -0.327460 -0.218864 0.446795 0.313788 -0.187822 0.501196 0.073711 -0.539707 -0.246109 0.021545 0.109447 0.354025 -0.058514 0.289024 0.036357 -0.118934 0.095092 0.215291 -0.291319 0.306137 -0.227691 0.334589 0.129446
H209 0.375706 0.159331 0.113549 0.366590 -0.167293 -0.263897 0.145799 0.469987 -0.105554 0.445428 -0.267138 -0.228276 -0.672537 -0.043733 -0.241532 0.091381 0.205106 -0.543404 -0.456721 0.175227 0.170892 0.086079 -0.159544 -0.776337 0.016097 -0.612193 0.034433 -0.155180 -0.201800 0.446124 -0.173860 -0.236110 -0.130209 0.108216 -0.233148 0.118329 0.388682 0.045786 -0.221149 0.089459 0.322966 0.134634 0.145036 -0.366484 -0.020020 0.412605 0.606203 0.056313 -0.217347 -0.208914 -0.058507 -0.129404 0.610565 -0.085086 0.444333 -0.157094 -0.144000 -0.321839 0.606158 0.312039 0.438059 -0.480642 0.523580 0.401109 -0.487768 -0.127647 0.163324 0.120288 -0.013440 0.203332 0.421503 0.337559 -0.181171 0.358458 -0.260928 -0.436853 -0.197274 -0.264608 -0.336278 -0.039326 -0.298772 0.721502 -0.119946 -0.478489 0.245083 -0.445642 -0.414362 0.114338 -0.551785 0.226915 -0.312523 -0.228767 0.049743 0.483550 -0.620067 0.276964 -0.255849 0.395879 -0.497716 0.678082 -0.114160 0.210228 -0.173501 0.117044 -0.255136 -0.200957 0.476018 0.210854 -0.224494 0.195960 -0.113731 -0.292936 -0.050492 0.261845 0.486408 0.307521 0.160589 0.381366 0.162294 0.168816 -0.008734 -0.670151 0.694064 -0.064514 -0.172545 -0.095007 0.000523 0.305234
H191 -0.004972 -0.045522 -0.164001 0.258333 -0.495707 -0.132788 0.424759 0.536316 0.061194 -0.202535 -0.140354 -0.041305 -0.358045 0.324128 -0.133848 -0.507238 0.277346 -0.099933 0.146549 -0.492040 0.037606 -0.655909 0.114952 -0.157247 -0.451319 0.025296 0.808023 -0.126851 0.010447 0.235836 -0.204493 0.010158 0.486983 -0.015850 0.072978 -0.264479 0.102923 -0.280596 0.110401 -0.141796 0.261928 0.015439 0.285905 -0.439330 0.429166 0.637845 0.682905 -0.154530 -0.114264 -0.676970 -0.349628 -0.316467 0.147784 -0.288786 0.364685 0.206780 0.105946 -0.222637 0.383602 0.166806 -0.166312 -0.096926 0.156150 0.153465 0.240743 -0.213402 -0.249884 -0.060902 -0.120825 0.060152 0.553381 0.383491 -0.169121 -0.507010 0.134522 0.057903 -0.496618 -0.199673 0.244911 0.097807 -0.678769 0.884068 -0.059754 -0.121966 0.110915 0.037564 -0.090839 0.193086 0.239556 -0.025673 -0.728332 -0.436612 -0.079649 0.225265 -0.644096 0.280714 0.212839 0.576187 0.162329 0.391893 0.229769 -0.420985 -0.180247 0.162966 -0.098553 -0.512541 0.103091 0.252152 0.593681 -0.177698 0.674619 -0.572509 -0.125707 0.128027 0.020264 0.314480 -0.402781 0.343168 0.403168 -0.090403 -0.019456 -0.324075 -0.064656 -0.266950 -0.064298 0.054234 0.378610 0.013777
H149 0.369190 -0.001389 -0.228989 -0.193530 -0.540057 0.008554 0.037559 0.125729 0.140151 0.138340 -0.080435 -0.272774 -0.416517 -0.262212 0.554968 0.010535 0.391588 -0.298678 -0.213557 -0.039502 -0.386937 -0.024080 -0.169403 -0.180778 -0.156235 -0.651517 0.041320 -0.326450 -0.243872 0.363256 0.019515 -0.207606 -0.225585 -0.023547 0.507872 -0.215915 0.322589 -0.433067 0.355303 0.141195 -0.012838 -0.117007 0.614886 0.264180 0.138068 0.323368 0.408681 0.378728 0.271500 -0.383770 -0.168258 -0.571278 0.361116 0.340246 -0.073456 0.069773 -0.093948 0.096886 -0.058023 0.161798 -0.032495 -0.134306 0.430613 0.144437 -0.113240 -0.201369 -0.113515 -0.154050 0.139575 0.467385 0.549987 0.110116 0.003250 -0.092202 -0.183023 -0.101075 -0.501608 0.161113 -0.158829 0.332857 -0.618031 0.267202 -0.241449 -0.061077 0.323365 0.587796 -0.359451 -0.204028 -0.932958 0.517511 -0.596486 -0.079024 0.093538 0.200333 -0.375665 -0.455254 0.198600 0.110632 0.155059 0.345407 0.896113 0.084739 -0.098684 -0.215001 -0.279725 -0.625326 -0.495916 -0.070860 0.530556 -0.173392 0.249381 0.162952 -0.499922 0.364769 0.483297 0.263424 0.028231 0.624812 0.540389 0.396336 -0.778370 -0.160467 0.553795 -0.137906 -0.036164 -0.059730 0.005680 0.103016
H87 0.531094 -0.024419 0.250913 -0.119634 -0.175811 -0.068653 0.047694 0.022550 -0.086080 -0.405703 -0.178318 -0.356885 -0.386688 0.271241 0.256446 -0.646744 0.579871 -0.024707 0.005005 0.129947 0.158175 -0.147299 -0.144254 0.415865 0.205343 -0.427167 0.224690 -0.297552 -0.005036 0.177964 -0.007431 -0.148516 0.030186 0.166305 0.340024 0.270358 0.235861 -0.163257 -0.078403 0.499496 0.488963 -0.154986 0.176469 -0.019963 0.110325 0.172926 0.267416 -0.087922 -0.306162 -0.056315 0.003764 -0.227744 0.414395 -0.286337 -0.035469 -0.297115 0.158134 -0.670283 0.602758 -0.432703 0.015234 0.040575 0.279301 0.308448 -0.071033 -0.492121 -0.190145 0.213489 -0.446330 0.212308 0.222902 0.242900 -0.144025 0.133933 -0.517066 -0.109461 0.200887 -0.133454 -0.078388 0.373022 -0.654766 0.668861 -0.138576 -0.271250 0.103332 -0.419956 0.029579 0.486807 -0.553847 0.310933 -0.250375 -0.135939 -0.228029 0.033133 0.250816 -0.424942 -0.180424 0.270441 0.158018 -0.080152 0.465623 -0.833701 -0.012259 0.292419 -0.392320 -0.115949 -0.138614 -0.143632 0.116627 -0.390456 0.766131 -0.501627 -0.377364 0.617828 0.726764 0.451803 0.279722 -0.088602 0.111828 0.028074 -0.140224 -0.342832 -0.434865 0.413353 0.073596 0.310571 0.074259 0.398942
H89 0.343157 0.372858 -0.077037 0.199561 -0.063517 -0.248146 -0.025888 0.211430 -0.213911 -0.181515 0.021895 0.260299 -0.223005 0.162543 0.602970 -0.129132 -0.131829 -0.415766 -0.314306 0.308267 0.240012 -0.642478 0.001969 -0.373461 0.398962 0.095707 0.507703 0.044536 0.063148 0.085478 0.055753 -0.164331 0.429908 0.153931 0.046465 -0.160479 0.557490 0.583054 -0.007133 -0.090533 0.436171 -0.107009 0.440057 0.008842 -0.229602 0.273608 0.128445 0.113519 -0.061990 0.071069 -0.107313 -0.133000 0.034661 0.144628 0.520048 -0.507637 -0.248351 -0.027605 0.144788 -0.461507 0.100812 0.049441 -0.122904 -0.257040 -0.025662 -0.723554 0.149616 0.228487 0.455027 -0.088234 -0.049456 0.325659 -0.374447 -0.263177 -0.198123 0.368576 -0.192623 -0.240713 0.211905 0.203341 -0.324237 0.640521 0.076119 -0.261755 0.112107 -0.657916 -0.681023 0.013001 -0.745952 0.374310 -0.553359 -0.701062 0.538199 -0.130439 0.069793 -0.532679 0.008550 -0.123182 0.263969 0.342298 0.487736 -0.340929 -0.429342 0.538482 -0.475693 -0.114193 0.192363 -0.253041 0.234331 -0.028551 0.557888 -0.469812 -0.174050 -0.072772 0.634471 0.280080 -0.134227 0.224769 0.066363 -0.049894 -0.306888 -0.160783 -0.070049 -0.485972 -0.358247 -0.064944 -0.084731 0.466788
H106 0.300388 0.358584 -0.127824 0.356598 -0.363982 -0.339466 -0.017732 0.147526 0.354480 -0.009873 -0.137122 -0.359674 -0.396386 -0.093116 0.109610 0.328731 0.301432 -0.676407 -0.464161 0.250112 -0.414134 -0.060437 -0.279477 -0.013601 0.402809 -0.143156 0.082702 0.031619 0.283444 0.076257 -0.288220 0.084125 0.266956 0.016239 0.156920 -0.292794 0.172882 -0.303267 -0.228103 -0.091477 -0.236572 -0.368017 0.399401 -0.004155 0.243550 1.016903 0.029720 -0.481916 -0.761460 0.199417 -0.206072 -0.434711 -0.152905 -0.510306 0.259143 -0.342108 -0.485957 -0.074742 0.327992 0.028566 0.222816 -0.194914 -0.256605 0.116020 -0.336185 -0.424590 -0.101341 -0.374508 0.447722 0.098542 0.440163 0.370358 -0.586736 0.428191 0.192353 -0.451541 -0.443803 -0.296340 -0.489552 0.320543 0.075597 0.445914 0.005787 -0.324385 0.005307 -0.336156 -0.297212 0.132716 -0.375639 0.738150 -0.186233 0.019190 0.167143 0.163133 0.031790 -0.201052 -0.424685 -0.020061 0.528041 0.868921 -0.177138 0.000065 0.272802 -0.007584 -0.260896 -0.201245 -0.283353 0.871940 0.613204 -0.022865 0.669811 0.234448 -0.422093 0.820609 0.839080 0.724453 -0.060092 0.188591 0.967962 0.594980 -0.303690 -0.238991 0.159457 -0.331753 0.475535 0.140386 0.210517 -0.103256
H20 0.123161 0.329788 -0.245770 0.490663 0.072363 -0.550670 -0.059490 -0.297803 0.412341 -0.230680 -0.406986 -0.196687 -0.340743 0.738078 -0.073753 0.039639 0.173557 -0.065300 0.142237 0.082128 -0.370410 -0.859389 0.309277 -0.521098 -0.123847 -0.955642 0.281954 -0.250093 -0.080050 0.758915 -0.567602 -0.277193 0.408879 -0.273270 -0.375588 -0.470442 0.333061 -0.064358 -0.613179 -0.215941 -0.548674 -0.387094 0.324242 0.070245 0.053970 0.055100 0.602142 0.326950 -0.425897 -0.314539 0.466316 -0.366928 -0.312565 0.098276 -0.267209 0.370374 0.010537 -0.244184 -0.115390 0.417682 0.140851 0.133446 0.922221 0.123373 -0.122303 -0.573298 -0.412304 -0.034126 0.026648 0.464973 0.335853 0.636160 -0.698702 0.402581 -0.097742 -0.099134 0.216683 0.272527 -0.312168 0.397856 -0.316270 0.473030 -0.780039 -0.717432 0.336964 -0.455530 -0.623460 0.048816 -0.307527 0.769678 -0.239835 -0.397203 -0.272991 0.371795 -0.309738 -0.084872 -0.044557 0.321749 -0.042117 0.746343 0.214535 -0.429065 -0.245424 0.803997 -0.608340 0.030189 -0.184303 0.123757 0.069074 0.023137 0.336373 -0.067706 -0.117220 0.217536 0.520118 0.226829 -0.036196 0.273319 0.955460 0.185589 -0.291096 0.020312 -0.077547 0.311234 -0.251746 0.178325 -0.161712 0.353888
H1 0.234503 0.104285 -0.411104 0.066388 -0.936949 -0.216753 0.180332 0.554025 -0.272975 0.634065 -0.351290 -0.285547 -0.840051 0.519666 0.281677 -0.319715 -0.006119 -0.887082 -0.476009 0.107925 -0.411626 -0.438648 -0.411121 0.083781 -0.160883 -0.829261 0.891271 -0.623505 -0.031183 0.465737 -0.342279 0.063938 -0.337231 -0.294958 0.018942 -0.094377 0.937829 0.349860 -0.130576 0.197873 0.067875 -0.092376 0.031779 0.032308 0.216908 0.632900 0.270593 0.300061 -0.663908 -0.023484 0.134075 -0.464808 0.005427 0.288812 0.226736 0.079787 0.087584 0.279283 -0.253523 -0.285378 0.359369 0.123892 0.142615 -0.093350 -0.059285 -0.269597 0.123852 0.027647 0.121538 -0.123745 0.295621 0.080306 -0.224705 0.294316 -0.169272 0.115526 -0.247365 0.212030 0.164473 -0.053116 -0.439523 0.332733 -0.105756 -0.261886 -0.107371 -0.034104 0.214688 0.670034 -0.141810 0.548562 -0.834708 -0.155759 0.261529 0.051817 -0.139263 0.003824 0.371322 0.227044 -0.423606 0.424877 0.217391 -0.353130 0.191595 0.021097 -0.294318 0.038660 0.455559 0.393349 0.346888 -0.234611 0.438089 0.180776 -0.439293 0.154687 0.072856 0.521855 0.558895 0.392277 0.274668 -0.090676 0.210088 0.393635 -0.020537 -0.266895 0.492593 0.451594 0.149432 0.112886
H165 0.718758 -0.319094 -0.292400 0.546361 -0.745676 0.005163 0.086489 0.998713 -0.047362 -0.239120 -0.317304 -0.112666 -0.995713 0.772679 -0.166168 -0.120973 -0.072709 -0.097055 0.087263 0.263110 0.265747 -0.014895 -0.259438 0.058355 -0.143099 -0.466991 0.390812 0.071252 -0.402545 0.405371 -0.078277 0.159597 0.051949 -0.232923 0.499912 -0.244310 0.096126 0.382199 0.369380 0.191068 -0.081120 -0.133956 0.345657 0.470709 -0.321930 0.729797 0.666782 0.240613 -0.316601 0.329370 -0.102861 0.182956 -0.325814 0.241710 -0.208689 0.058315 -0.545408 -0.403896 0.097441 -0.157071 0.285797 -0.275928 0.388415 0.344350 -0.374423 0.002358 -0.196894 -0.234622 0.014291 -0.226656 0.377088 0.462622 -0.791494 -0.116023 -0.021525 -0.583099 -0.385655 0.394339 -0.181601 0.190586 -0.346940 0.927276 0.035879 -0.447528 0.187451 0.326101 0.093788 -0.177710 -0.517094 0.910578 -0.227933 -0.537182 0.132339 -0.074338 -0.256729 0.113182 -0.078292 -0.044457 -0.140809 0.338257 0.437529 0.033399 -0.293935 -0.124526 0.418952 -0.106060 0.123372 -0.125848 0.046100 0.342699 0.531369 -0.054314 -0.398722 0.671671 -0.115641 0.515964 -0.461546 -0.123475 0.179905 -0.071522 -0.723287 -0.608228 0.266027 -0.358186 0.182994 0.228225 0.204055 0.240943
H111 0.530839 0.082796 -0.278862 -0.267147 -0.298073 0.160541 0.107043 -0.022026 -0.296491 -0.467334 -0.561252 -0.399735 -0.644601 0.271675 0.009363 -0.998883 -0.134486 -0.288615 -0.256147 -0.354337 0.552625 -0.653009 -0.414851 -0.255996 -0.206105 -0.459748 0.218423 -0.230549 -0.375277 0.336753 -0.159448 0.006533 0.774158 -0.247919 0.100473 -0.069242 0.121475 0.541833 -0.134530 0.097204 -0.298553 -0.371569 0.470328 0.491611 0.003601 0.568648 0.804111 -0.221700 0.082709 -0.553743 -0.318866 -0.015580 0.032924 0.100505 -0.018169 -0.252441 -0.369012 -0.408493 0.318652 -0.267960 0.188519 0.241282 -0.196018 -0.253835 -0.565064 -0.180661 0.249740 -0.239467 0.302736 0.894171 0.727783 0.067862 -0.570905 0.297161 0.100919 -0.350042 0.333538 -0.310277 -0.110675 0.110410 -0.214407 1.056618 0.365753 -1.110683 0.487266 -0.368115 -0.527024 0.072685 -0.277293 0.650081 -0.380876 0.023061 0.054187 -0.046338 -0.048916 -0.556461 0.258496 0.430643 -0.487433 -0.212786 0.211716 -0.026603 -0.183560 -0.079071 -0.135260 -0.261521 0.149517 0.672820 0.634392 0.340850 0.480327 -0.032418 -0.696016 -0.084444 0.123387 0.446715 -0.402631 0.637202 0.364433 0.540808 0.205601 -0.433956 -0.556174 -0.109691 -0.123014 0.385201 0.324820 -0.180229
H25 0.386872 -0.220737 -0.053182 0.133489 -0.385711 -0.614995 -0.218755 0.327422 -0.245805 -0.150093 0.161523 -0.595080 -0.627238 0.165544 -0.319579 0.118250 0.372898 0.081763 -0.129136 -0.056065 0.263940 -0.537339 -0.080896 -0.499861 -0.374934 -0.431111 0.158582 -0.397103 -0.495278 0.357257 0.279090 0.072823 0.299633 -0.215599 -0.448362 0.202430 0.385027 -0.283454 0.167503 0.513395 -0.312434 -0.385239 0.314203 0.291909 0.536792 0.684571 0.508570 -0.095859 -0.903091 0.004702 0.292369 -0.450802 0.284550 -0.360072 0.185903 -0.076261 0.353454 -0.647323 0.267004 0.130010 -0.111284 -0.167404 0.315085 -0.600723 0.072332 -0.250157 -0.273951 0.299400 0.160146 -0.163175 0.239969 -0.184026 -0.436520 -0.109806 -0.009280 0.458117 0.055881 -0.406431 -0.528265 -0.245483 -0.094676 0.406181 -0.515208 -0.125003 0.393843 0.078877 -0.080256 -0.161330 -0.080636 0.668636 -0.221949 -0.832121 0.213575 -0.028915 -0.571835 -0.024270 -0.128505 0.089026 -0.013715 -0.049771 0.685014 0.102311 0.184396 0.463537 -0.250803 -0.098233 0.242211 0.147090 0.626431 0.092212 0.601905 0.405137 -0.319267 0.697436 0.186051 0.631253 0.166476 0.293526 0.300527 0.515484 0.089745 -0.191381 -0.098082 -0.182505 0.102046 -0.570413 -0.133981 0.114936
H211 -0.195419 -0.260248 -0.144402 0.123664 -0.328648 -0.203710 0.155946 0.555317 -0.362512 -0.243057 -0.254286 -0.375924 -0.286353 0.385102 0.007296 0.174131 0.129499 -0.138383 -0.738634 -0.489137 -0.216137 -0.034106 -0.037062 -0.139990 0.314979 0.205928 -0.009803 0.174207 0.130274 0.766238 -0.602770 -0.385969 0.200080 -0.494796 -0.206350 0.112225 0.539901 -0.210513 0.195515 0.048753 0.231530 -0.255280 -0.421989 0.196506 0.050449 0.212454 0.884719 0.165830 -0.584526 -0.632433 0.542387 0.139503 0.063886 -0.162567 0.007240 -0.517916 0.004702 -0.261577 0.174736 0.083433 -0.108146 -0.317841 0.447473 0.317344 -0.366780 -0.336372 0.234702 0.135567 -0.273197 -0.244888 0.482901 0.316902 -0.394654 0.039066 -0.368990 -0.426056 -0.086460 0.236575 -0.222526 0.632821 -0.538467 0.283246 -0.007222 -0.701706 0.398236 0.002903 -0.437847 0.146992 -0.125411 0.344152 -0.528252 0.021583 0.520311 -0.255398 -0.408219 -0.134565 0.224129 -0.011375 -0.006102 0.079813 -0.050914 -0.295394 -0.071006 -0.087277 -0.279725 -0.274290 -0.306545 0.349730 0.429714 0.378619 0.293005 0.232826 -0.836629 0.034299 0.166463 -0.022218 0.315866 0.022020 0.346785 0.434143 -0.488693 -0.003903 -0.045576 -0.203131 0.039035 -0.398597 0.505011 0.109065
H200 0.432893 0.063735 -0.558352 0.455627 -0.448175 -0.093280 -0.102870 0.133592 0.015710 -0.206204 -0.279963 -0.028281 -0.956461 0.712428 0.442610 0.388021 0.065128 -0.416780 0.244350 -0.366477 -0.332095 -0.166980 -0.154609 -0.181408 -0.206545 -0.211482 0.626259 -0.574764 -0.259792 0.299556 -0.225049 -0.155580 -0.042728 -0.071765 -0.386507 -0.214560 0.238831 0.093357 0.218521 0.333604 -0.128398 0.402769 0.519338 -0.107915 0.262549 0.524554 -0.249314 -0.173337 -0.246523 -0.042567 0.417439 -0.500452 -0.222092 -0.502019 0.158198 -0.071630 0.085610 -0.655892 1.054995 0.022097 0.200663 0.078837 -0.341687 0.169546 -0.617685 -0.719058 0.441912 -0.071295 -0.177877 0.396758 0.708475 0.174669 -0.079915 0.597890 0.311119 0.375783 -0.076239 0.616364 -0.097716 0.016513 -0.591194 1.118344 0.331701 -0.438798 0.488967 -0.114567 -0.513120 0.240527 -1.054654 0.197453 -0.264001 0.055263 -0.223991 -0.408993 0.079455 0.162978 -0.142804 -0.304688 0.020975 0.677434 0.842402 -0.195786 -0.081648 0.497837 0.033286 -0.182665 -0.229486 -0.119831 0.426745 0.555855 0.278177 0.135313 -0.270473 -0.067837 0.174877 0.838180 -0.231209 0.445809 0.945883 0.349412 0.041960 -0.558640 -0.008903 -0.213106 -0.222213 0.133859 -0.002035 0.159159
H126 0.842908 0.118933 0.266635 0.083194 -0.055911 -0.052164 -0.034523 0.137081 -0.125484 -0.240329 -0.330668 0.038474 -0.479963 0.106682 0.423443 -0.667886 0.586360 -0.180677 -0.288227 0.123928 -0.185723 -0.548217 -0.101765 0.211863 -0.060128 -0.237615 -0.009699 -0.001446 0.161333 0.423948 0.107237 0.084211 0.286076 0.092115 -0.118523 0.069982 0.615471 -0.303940 -0.111780 0.828212 0.448082 0.044992 0.516437 -0.279244 -0.073229 0.308189 0.142887 -0.244650 -0.554293 -0.439234 0.274278 0.198305 0.402692 0.127855 0.053882 -0.200516 -0.071126 -0.603587 0.870729 -0.208709 -0.245545 -0.010605 -0.082170 -0.383114 0.152133 -0.059308 0.085165 0.077597 -0.432775 0.333110 -0.032718 0.694594 -0.275092 0.143480 -0.348207 -0.183892 -0.213774 -0.388415 0.244874 0.478987 -0.842558 0.424989 -0.280645 -0.237081 -0.056033 -0.497913 -0.211413 0.359409 -0.519051 0.242175 0.071933 -0.097449 -0.331786 -0.031964 -0.107622 -0.698399 -0.507056 -0.023708 0.210065 -0.043172 0.206334 -0.517173 -0.028553 0.180728 -0.467318 -0.504543 -0.257570 0.238999 0.122235 -0.391386 0.264983 -0.218844 -0.347497 0.230486 0.360575 0.557468 0.500944 -0.013842 0.361577 -0.111117 -0.443757 -0.357973 -0.506539 0.213532 0.178944 -0.332103 -0.071886 0.162545
H22 0.364334 -0.293437 -0.186870 -0.063458 -0.498705 -0.394098 -0.231162 0.430101 -0.058179 -0.146700 0.055166 -0.640072 -0.516157 0.427010 0.012981 -0.195077 0.659905 -0.185064 -0.108850 -0.239192 0.387562 -0.320626 -0.080517 -0.636737 0.017709 -0.425679 0.297835 -0.181664 -0.621096 0.008277 0.149128 0.397106 0.295679 0.018367 -0.684506 0.550987 0.438792 -0.040424 0.131270 0.146057 -0.279629 -0.520300 0.135957 0.205436 0.649489 0.320284 0.240496 0.439834 -0.677173 -0.061206 0.213896 -0.596582 0.387899 -0.312194 0.209405 -0.382347 0.233456 -0.651987 0.085624 0.204254 -0.298452 -0.346601 0.205585 -0.625817 -0.114800 -0.009598 -0.274836 -0.182109 0.281177 -0.167678 0.388576 0.225973 -0.415060 0.245554 -0.224282 0.066319 -0.313914 -0.397303 -0.345425 0.102156 -0.232563 0.693790 -0.546853 -0.157724 0.143168 0.075554 -0.452041 0.210546 0.137922 0.798262 -0.052482 -0.374807 -0.056461 0.186097 -0.519350 -0.017215 -0.412312 0.265715 -0.433861 -0.040931 0.636240 0.198631 0.223458 0.473523 -0.203436 0.201722 0.037981 0.208158 0.973120 0.425380 0.495994 0.099834 -0.275780 0.637853 0.197937 0.884668 0.133345 0.199442 0.267417 0.612605 0.080618 0.085478 0.015613 -0.118106 0.029611 -0.267251 -0.180946 0.094738
H71 0.091422 0.188979 -0.361916 0.452781 -0.416860 0.002447 0.067590 0.455442 0.418635 0.302492 0.159015 -0.331777 -0.992071 0.477439 -0.158619 -0.208083 -0.302850 -0.338398 0.068664 -0.048604 0.226858 -0.370862 0.110796 -0.265623 0.513303 -0.784393 0.439634 0.023110 -0.042499 0.411028 0.446802 0.205982 0.059277 0.301114 0.518154 -0.678933 0.632878 0.379350 -0.316785 -0.149907 0.251599 -0.040942 0.469177 0.470419 -0.015265 0.160405 0.942764 0.482883 -1.018538 -0.862523 -0.308050 -0.373630 0.539769 -0.224183 0.685954 -0.626283 -0.102497 -0.531423 0.271081 0.456654 0.593307 -0.112743 0.394417 0.337745 0.173777 -0.077987 0.176898 0.150748 -0.318734 0.319267 0.051967 0.051392 -0.102400 0.337661 -0.102857 0.001517 -0.314657 -0.686175 0.252456 0.520905 -0.516931 0.544103 0.458247 -0.831823 0.310487 -0.022784 -0.707908 -0.324306 -1.071255 0.522023 -0.111430 0.009611 0.665734 0.171099 -0.244005 -0.725022 0.230039 0.265186 0.168005 0.187292 0.146822 -0.340083 -0.376072 -0.532925 -0.738431 -0.540858 -0.294878 0.620081 0.533937 -0.435103 0.079942 0.051975 -0.690171 0.293766 0.255426 0.203774 0.041688 -0.038183 0.889757 0.217405 0.117787 -0.477541 -0.010581 0.129269 0.458286 0.074745 0.565747 1.127508
H33 -0.034981 -0.211391 -0.450757 -0.204995 -0.559607 -0.549902 -0.508594 0.142853 0.109884 -0.028934 -0.524085 -0.499224 -0.594266 -0.024509 -0.354611 -0.138219 -0.035451 -0.550380 -0.484830 0.189200 -0.097640 -0.022500 0.434374 -0.222379 0.269414 0.046664 0.719246 -0.549208 0.064101 0.284131 -0.597221 0.072377 0.602065 0.253850 0.778380 -0.133039 0.870845 0.213581 0.157486 1.116168 0.183898 -0.314097 0.432358 0.126695 0.536317 0.029298 0.523958 0.012686 0.102139 -0.202441 -0.134374 -0.150488 0.130728 -0.566038 -0.011366 0.141655 -0.316286 -0.240638 0.146924 0.142864 -0.330030 -0.230221 0.163185 0.221040 0.027097 -0.310273 -0.026444 0.799001 0.394930 0.327033 1.080185 -0.113779 -0.596666 -0.495344 0.162038 -0.164285 -0.284004 0.142657 -0.677530 0.115124 -0.130080 1.278230 0.222929 -0.552348 -0.287322 -0.922921 -0.064596 -0.197594 -0.434760 0.099805 -0.424061 -0.147034 -0.195606 -0.105393 -0.026216 -0.264242 -0.019925 0.494727 -0.452646 0.760397 0.555698 0.025721 -0.188552 0.286086 -0.144034 0.013703 -0.274272 0.896474 0.095796 0.085261 0.676662 0.100427 -0.659988 0.361100 0.672572 0.153449 0.127472 -0.059386 0.647060 0.010651 -0.453107 -0.330438 0.683165 -0.202900 0.447505 -0.359988 -0.372725 0.217502
H24 0.496335 -0.252004 0.014972 0.150734 -0.535734 -0.339474 -0.218325 0.331424 -0.189120 -0.279900 0.166784 -0.614115 -0.433343 0.409518 0.330308 0.062215 0.602980 0.006268 -0.326220 -0.147498 0.431932 -0.374657 -0.197893 -0.581699 0.044034 -0.047605 0.197929 -0.322105 -0.606551 0.024471 0.283388 0.076952 0.309990 0.026808 -0.364674 0.598996 0.439344 -0.003417 0.166738 0.046468 -0.237800 -0.665648 0.125910 0.377126 0.195475 0.269452 0.329710 0.237201 -0.362339 -0.101738 0.387055 -0.468905 0.137381 -0.078934 0.402625 0.017455 0.326329 -0.186115 -0.073073 0.159218 -0.425177 -0.220358 0.639036 -0.649158 0.017557 -0.067407 -0.102364 0.192327 0.273532 -0.015801 0.507931 0.434200 -0.278121 -0.083350 -0.052553 -0.114011 -0.515890 -0.203664 -0.339695 0.005598 -0.303808 0.857468 -0.440129 -0.343437 0.044933 0.208741 -0.203672 0.284554 -0.190825 0.959221 0.131480 -0.652284 0.253633 0.063365 -0.512759 0.202785 -0.460440 0.377024 -0.439347 0.032716 0.438656 0.433798 0.138588 0.516342 -0.072091 -0.037949 0.238587 0.263846 0.907004 0.162679 0.792958 0.146782 -0.211065 0.523832 0.386792 1.160708 0.455867 0.575646 0.185138 0.616951 0.054891 -0.108616 -0.196375 -0.126979 0.040704 -0.258291 -0.164318 -0.223304
H147 0.746621 0.076869 -0.130817 0.197794 -0.399837 0.230102 0.351896 0.030977 -0.792515 0.264083 -0.440175 -0.814956 -1.209581 0.224173 0.205570 -0.018883 -0.561565 0.153504 -0.055446 0.774782 -0.344797 -1.000476 -0.490946 -0.731157 -0.867458 -0.158435 0.497211 -0.424638 0.152378 0.408148 0.450195 0.224566 0.619991 0.128292 -0.040497 -0.987667 0.531453 0.259699 -0.279855 0.889104 -0.610582 0.411019 0.420180 0.091519 -0.340761 0.632278 0.611163 -0.217272 -0.491543 -0.416680 0.643260 0.402412 0.274164 0.491407 0.429130 -0.041391 0.242860 -0.700289 0.306723 -0.130869 0.152724 -0.193326 0.432152 0.131893 0.226287 -0.775525 0.024358 -0.084829 -0.198668 0.400540 0.149787 -0.245480 -1.308765 0.007366 -0.098594 0.066705 -0.112128 0.396042 -0.319747 0.225621 -0.090344 0.727652 0.093407 -0.906673 -0.023579 -0.616622 0.221312 0.434136 -0.635730 0.618444 -0.201633 -0.622884 -0.194060 -0.150720 -0.326098 -0.262281 -0.273112 -0.186942 -0.293547 0.911943 0.849114 -0.427172 -0.028302 0.178145 -0.203651 0.176837 0.065640 -0.220902 0.232220 -0.164288 0.259084 0.580521 0.114873 0.840444 -0.075513 0.994845 -0.568131 0.073107 0.446130 0.221745 -0.797441 0.362128 0.319009 0.001460 0.841647 -0.080453 -0.203488 -0.109012
H30 0.319163 0.222489 -0.077945 0.741981 0.116866 0.353181 -0.397456 0.533705 -0.371831 0.299769 -0.275853 0.012028 -0.703853 0.004316 0.193297 0.248669 0.461872 0.079052 -0.247613 -0.226881 0.334543 0.013548 -0.230209 -0.629908 -0.145342 -0.287607 0.406401 -0.518071 0.470897 0.383631 -0.381427 0.306103 0.395451 0.185900 0.538429 -0.014831 0.795312 0.043611 0.188671 -0.025677 -0.188763 0.357683 0.281558 -0.254242 0.027079 0.371604 0.259630 0.202319 -0.300834 -0.113318 0.677694 -0.578062 0.375249 -0.123568 -0.345268 0.258743 -0.240643 -0.679651 0.575498 0.530199 0.149411 -0.503546 0.447935 0.173383 0.024800 -0.753966 0.187032 -0.144053 0.238852 -0.146818 0.987934 -0.197598 -0.588358 -0.039440 -0.087481 0.456170 0.546906 -0.144329 -0.040939 -0.191359 -0.106311 0.406012 0.118111 -1.204709 0.178536 -0.071409 -0.381051 0.587302 -0.484828 0.185160 -0.112267 -0.445380 0.360662 -0.167875 -0.206791 -0.783662 0.025367 0.066251 -0.341293 0.866938 0.561141 -0.322470 -0.486995 -0.632062 0.105442 -0.389980 -0.530899 0.480659 0.677185 -0.489819 0.005089 0.005492 -0.677173 0.478320 0.222372 0.228946 0.025187 0.187262 0.713229 0.010995 -0.632108 -0.543666 0.672835 0.191937 0.204506 0.666403 -0.028635 0.058691
H210 0.239900 -0.272404 0.076880 0.385019 -0.751905 -0.221650 0.232848 0.566739 0.082664 -0.387076 -0.368923 -0.376041 -0.555557 0.609584 0.052570 0.301870 0.008193 -0.055099 -0.284238 -0.105633 -0.183700 -0.034742 -0.321768 0.123093 0.202674 0.368734 0.117425 0.187737 -0.084784 0.970973 -0.559191 0.112284 0.276127 -0.323526 0.391014 0.185953 0.436492 0.038083 0.469295 -0.230332 -0.057948 -0.104503 -0.164452 0.087756 0.055468 0.103542 0.780249 0.292555 -0.551300 -0.622660 0.341182 0.197515 0.220710 0.004066 0.314184 -0.746657 -0.086495 -0.274568 0.024985 -0.027747 -0.002071 -0.242267 0.097786 -0.016260 -0.303975 0.031079 -0.096135 0.453914 -0.405513 -0.344055 0.586893 -0.113753 -0.234741 -0.260781 -0.460404 0.002587 -0.135322 -0.045565 -0.442428 0.597125 -0.786111 0.282666 -0.423335 -0.391135 0.715435 -0.229802 -0.313746 0.199066 -0.555445 0.152855 -0.576194 -0.345027 0.400525 -0.451503 0.182921 -0.179258 0.504634 0.504946 -0.146446 0.120272 -0.326471 -0.184177 -0.096762 0.173248 -0.599418 -0.284381 0.109922 0.676337 0.419317 0.424191 0.057885 0.136678 -0.588600 0.694389 0.435815 0.243634 0.353036 0.586091 0.235921 0.647976 -0.656623 0.005665 0.327360 -0.346921 0.092829 0.231117 0.297110 -0.086597
H101 0.764150 0.015007 -0.377663 0.097287 0.068027 -0.155831 0.068472 0.309695 -0.152644 0.093531 0.194445 0.011015 -0.663358 0.454889 -0.024888 -0.053615 -0.123306 0.137973 -0.097893 0.385690 -0.006765 -0.862335 0.225848 0.032893 0.610813 -0.209374 -0.093996 0.044512 0.397175 0.392553 0.255087 -0.020579 0.107873 -0.193549 0.055749 0.409736 0.508784 0.064700 -0.055450 0.403200 -0.105382 -0.044686 0.755006 -0.225942 0.399034 0.611180 0.043311 -0.030782 -0.413156 -0.018189 -0.264765 -0.660351 0.377649 -0.271933 -0.391609 -0.001800 0.068497 0.094786 0.395184 -0.238977 -0.130607 -0.243026 -0.139889 -0.073622 0.363468 -0.322168 -0.038358 -0.186041 -0.020298 -0.253772 -0.185736 0.657498 -0.654038 -0.450284 -0.507653 0.223352 -0.209608 0.201542 0.300508 0.299493 -0.149994 0.526121 -0.409845 -0.513531 0.404035 -0.518046 -0.153442 -0.047965 -0.388225 0.461049 -0.350091 -0.359979 -0.154901 -0.560786 0.129879 -0.471245 0.241396 -0.153040 -0.351804 0.784972 0.387907 -0.437687 -0.225213 0.041619 -0.251501 -0.340601 0.048759 -0.142871 0.038333 0.341166 0.219294 -0.071311 -0.200962 0.147040 0.485275 0.156666 0.281859 0.148659 0.294153 0.066923 -0.430011 -0.585329 -0.222742 0.350709 -0.078119 0.515327 0.092319 0.186263
H72 -0.089317 0.267269 -0.087254 0.654690 -0.524106 -0.114791 0.248582 0.068627 0.293639 -0.378912 0.404248 -0.344384 -0.840316 0.676230 -0.329951 -0.259354 0.118608 -0.660574 0.405853 -0.062228 -0.215648 -0.439615 0.130144 -0.248994 -0.388858 -0.757786 0.491279 0.119255 0.059713 -0.121838 0.648622 0.696384 0.180206 -0.227376 -0.333959 0.126588 0.468825 0.747948 -0.148085 0.328368 -0.194943 -0.490033 0.435187 0.016565 -0.608117 -0.218084 0.672489 0.036799 -0.166082 -1.236180 -0.029628 -0.457121 0.011401 -0.277002 0.296329 0.055377 0.124251 -0.327605 0.539212 -0.035417 0.314157 -0.130127 0.569530 -0.115150 -0.572575 -0.805907 -0.202950 -0.396502 -0.467183 0.668481 0.967215 0.320757 -0.835440 0.110105 -0.877749 0.190792 -0.120143 0.266786 -0.326422 -0.337606 -0.876926 0.690528 -0.502344 -0.083816 -0.438412 0.151187 -0.273143 0.273726 -0.549265 0.738675 -0.761160 -0.452511 0.741590 0.241386 -0.283468 0.008294 -0.167935 0.337530 -0.279581 0.551840 0.174304 0.031251 -0.334151 -0.051721 -0.470184 0.140169 0.137330 0.121523 0.550121 -0.286235 0.619509 0.243346 -0.475548 0.326311 0.266874 0.349364 0.504348 -0.207189 0.837268 -0.031993 -0.023897 -0.088252 0.524618 -0.341034 -0.107006 -0.294916 0.630004 0.370478
H217 0.477197 -0.083470 0.042604 0.128766 -0.954721 -0.186902 0.248364 0.262326 0.141687 -0.333544 -0.166510 -0.050488 -0.705127 0.710663 0.058182 0.177991 -0.188325 -0.231558 -0.420260 0.012674 -0.219509 -0.355348 -0.402257 0.009256 0.233107 0.296034 0.403471 0.105417 -0.317593 0.729571 -0.273140 0.010495 0.147331 -0.394408 0.606608 0.189619 0.028253 -0.405101 0.119805 0.064303 -0.065048 -0.096981 0.232234 -0.062346 0.183742 0.072073 0.572675 0.220239 -0.599449 -0.559492 0.254057 0.075262 0.067818 0.187255 0.263734 -0.463278 -0.174635 -0.386702 0.040663 -0.209333 -0.119740 -0.097000 0.046414 -0.052357 -0.170818 0.299848 -0.257973 0.420377 -0.544965 -0.377944 0.711636 0.175323 -0.483625 -0.676237 -0.584990 0.059759 0.216821 -0.104534 -0.219610 0.489079 -0.678028 0.715596 -0.418863 -0.023853 0.527921 -0.021000 -0.414521 -0.046879 -0.746581 0.314431 -0.378340 -0.727079 0.284711 -0.405531 -0.034174 -0.470584 0.545620 0.676597 -0.417019 0.124707 -0.434509 -0.083938 -0.289786 0.505736 -0.625193 0.167988 0.045059 0.734872 0.396188 0.229629 0.079209 -0.168244 -0.847780 0.956171 -0.049039 0.469211 0.153780 0.736203 0.368555 0.289282 -0.756313 0.173091 0.170537 -0.566190 -0.042352 0.040192 0.529804 -0.079813
H92 -0.017676 0.271579 -0.021260 0.257771 -0.115344 -0.250628 -0.072364 0.277023 -0.379432 -0.009881 -0.139333 -0.732720 -0.893227 0.719686 -0.007667 0.202193 -0.168252 -0.012180 -0.387512 0.267372 0.090696 -0.494399 0.579381 0.403941 -0.174592 -0.286291 0.248324 -0.710912 0.680210 0.109048 -0.136075 0.272429 0.280256 -0.018568 -0.033648 -0.084034 0.103133 0.080846 0.007692 -0.224857 0.039982 0.049302 0.251477 0.410749 0.290056 0.468230 -0.080520 0.100401 -0.250070 -0.427717 -0.267420 -0.159178 0.165938 0.329432 0.408110 -0.302921 -0.117308 -0.527233 0.020059 -0.609278 0.511629 -0.024513 -0.172471 -0.682908 -0.147852 -0.380068 -0.280401 -0.282576 0.337336 0.465736 -0.010490 0.739767 -0.617778 -0.232579 0.223275 0.203694 0.234917 0.060783 0.208955 0.582582 -0.416720 0.847251 -0.552824 -0.038452 0.035660 -0.734513 -0.706309 0.622908 -0.574916 0.164963 0.030616 -0.422008 -0.326736 -0.510137 0.067286 -0.177894 -0.036566 0.258527 -0.516151 0.356528 0.690082 -0.350465 -0.520762 -0.387896 -0.625400 -0.398569 -0.170292 0.391113 0.583919 0.290410 0.717288 0.149669 -0.341513 0.206359 0.256376 -0.026470 0.409260 0.157613 0.668056 0.148486 -0.504254 -0.562417 0.185207 0.434547 -0.254117 0.242451 -0.478897 0.074173
H56 0.095899 0.154685 0.094864 0.144295 -0.583712 0.481069 0.646234 0.310136 -0.602295 -0.297303 -0.341334 -0.266450 -0.364646 0.072153 0.275735 0.201875 0.204886 -0.091829 -0.445969 0.765317 0.108855 -0.784344 -0.428587 -0.377226 0.007588 -0.098111 -0.221919 -0.080821 -0.263621 0.192253 -0.018426 -0.405115 0.419745 -0.060614 0.252517 -0.352950 0.316123 -0.540562 -0.419785 0.411713 0.597040 -0.396963 0.387669 0.296937 -0.297737 0.419436 0.600676 -0.178844 -0.086536 -0.669890 -0.227046 -0.541886 0.461229 0.262456 -0.139274 -0.083131 0.162762 0.145238 0.466823 -0.214050 0.606458 -0.081566 0.252462 -0.323754 -0.292888 0.023395 0.460178 0.163672 0.719905 -0.383969 0.374344 -0.032419 -0.596688 -0.362835 -0.006053 -0.415111 -0.093423 -0.273158 -0.327976 0.172635 -0.256560 0.584922 -0.332876 -0.702701 0.409112 0.018592 0.177484 0.006412 -0.007222 -0.168169 -0.614141 -0.212067 -0.166335 -0.465311 -0.391137 -0.346128 -0.134181 -0.158804 -0.293219 1.012350 0.385449 -0.348638 -0.097089 0.270922 -0.125891 0.276682 -0.097557 -0.018635 0.705778 -0.127426 0.871137 -0.460086 -0.972080 0.287940 0.673758 0.945203 0.009124 0.416277 0.163127 0.495551 -0.338680 -0.616124 0.181077 -0.104399 0.361529 -0.469801 0.160134 -0.430476
H97 0.499183 0.043194 -0.312103 -0.374401 -0.685931 -0.047743 -0.107966 0.593472 -0.099407 -0.258277 0.088290 0.054927 -0.852969 -0.300862 -0.113514 -0.341067 0.139439 -0.297274 -0.458178 0.203050 0.037892 0.236617 0.365002 0.267068 0.555260 0.147981 0.172159 -0.368022 0.295086 0.128929 0.085554 -0.313106 -0.313799 -0.069656 -0.284366 0.170801 0.532640 -0.033356 -0.069666 -0.225132 0.152261 0.086395 0.345695 -0.169596 0.143305 0.358219 0.428765 -0.030818 -0.053728 -0.252315 0.015178 -0.134929 0.018435 -0.254178 0.509258 -0.649497 0.033390 0.292328 0.124703 0.163656 -0.286956 -0.580183 0.221790 0.081237 -0.056332 -0.900511 -0.068496 -0.301401 0.196185 0.241209 0.891272 0.123692 -0.489462 0.161487 -0.481777 0.044651 0.410919 0.224981 0.084636 -0.250570 -0.469883 0.957864 0.197428 -0.451428 -0.043755 -0.211416 -0.311547 0.162490 -0.701889 0.100326 -0.353606 -0.061547 0.646269 -0.568240 -0.793410 -0.315418 0.394930 0.006115 -0.428772 -0.223116 0.348136 -0.240799 -0.243235 -0.099155 -0.334038 -0.302625 0.214024 0.877677 0.149430 0.307844 0.684241 -0.319876 -0.572997 0.328805 0.164828 0.183524 0.216845 -0.328027 0.099698 0.620140 -0.194277 -0.062855 -0.515685 -0.207208 0.021925 0.228511 -0.050340 0.002287
H13 -0.027091 0.284900 -0.231297 0.032519 -0.220478 0.169139 0.556098 0.518679 0.326662 -0.444399 0.442783 -0.005172 -0.774502 0.638816 0.861636 0.183344 0.326449 -0.179388 0.232028 -0.060983 0.158784 -0.016119 -0.284622 -0.688893 0.240762 -0.113296 0.016312 -0.092545 -0.220471 0.869974 0.362182 0.546767 0.207562 0.242016 0.089182 -0.222971 1.052254 -0.291936 -0.288033 0.333757 -0.519348 -0.167103 -0.019428 0.004942 0.650656 0.874780 0.908347 -0.167458 -0.492824 0.054497 -0.328592 -0.797898 0.071845 0.157518 0.361552 0.438563 -0.032865 -0.790228 -0.222309 0.110290 0.157143 -0.450058 0.355944 -0.219401 -0.708454 -0.262778 0.053340 0.488862 0.341307 0.053671 0.238834 -0.229475 -0.519591 0.839892 0.245150 -0.295514 -0.240142 -0.099534 0.064970 0.184170 -0.598632 0.589987 -0.534374 -0.472323 0.697060 -1.007769 0.181222 0.346609 -0.822257 0.412994 -0.471768 -0.461765 -0.269896 0.437713 -0.364132 -0.656191 0.600484 -0.069476 -0.152001 0.620537 0.658134 0.052747 -0.379974 0.520776 -0.566904 0.298718 -0.325791 0.654319 0.899666 -0.386853 0.581810 -0.288531 -1.050050 0.228145 0.039152 0.035531 0.345751 -0.009843 0.499921 0.512716 -0.471382 -0.572187 0.297297 -0.240400 0.163460 0.045588 0.578106 0.178084
H208 0.533395 -0.110825 0.135526 0.264723 -0.526152 -0.133187 0.415384 0.436564 -0.053830 -0.240871 -0.537330 -0.097727 -1.142412 0.221984 0.361331 0.087703 -0.419063 -0.509752 -0.678299 0.004567 -0.260076 -0.168465 -0.376612 -0.277753 0.078875 0.186233 0.529520 -0.434432 0.520464 0.351750 -0.220677 -0.369960 -0.154053 0.312304 0.549048 -0.431922 0.513906 -0.112661 0.074188 0.765130 0.143898 0.506901 0.122550 -0.437884 -0.345552 0.518288 0.525062 -0.539109 0.434489 0.341120 0.518812 -0.042668 -0.320739 0.212571 -0.096117 -0.019590 -0.159621 -0.080024 1.018520 -0.253623 0.236980 -0.106296 0.163004 0.266686 -0.368907 -1.431241 -0.072756 -0.006885 -0.287988 -0.110468 1.213580 0.085201 -0.956667 -0.088928 -0.454752 -0.775304 0.315588 0.518642 0.256342 0.253581 -0.611930 0.794957 0.364452 -0.421632 -0.260134 -0.474665 0.178080 0.797502 -0.245418 0.230861 -0.779199 -0.373750 -0.152950 -0.190180 -0.119474 -0.088000 0.072528 0.269590 -0.223860 1.012175 0.526518 -0.396263 -0.066053 0.187216 -0.487731 -0.445602 -0.277070 0.110448 0.126034 0.327107 0.264921 -0.415376 -0.867052 0.494026 0.863735 0.298455 -0.280496 0.607409 0.264458 0.183839 -1.244041 0.092968 0.670388 -0.629300 0.167541 0.140550 0.204463 -0.722839
H194 0.591216 -0.145872 -0.174883 0.014078 -0.486796 -0.132170 0.372916 0.338037 0.172131 0.240143 -0.392458 -0.389004 -0.496209 0.156577 0.016701 -0.397690 0.243275 -0.630789 -0.233026 -0.262777 -0.322937 -0.581200 -0.030043 0.207893 0.008571 0.358068 0.763757 -0.498372 -0.590703 0.148300 0.080231 0.052768 0.462474 0.195045 -0.407411 -0.012036 -0.039233 0.015571 0.225597 -0.277391 -0.121454 -0.408745 0.188370 0.118063 0.011657 0.328031 0.702523 -0.293804 0.041008 -0.777205 -0.205130 -0.649525 -0.119908 0.153563 0.526097 -0.277049 0.223251 -0.614657 -0.069224 -0.119020 -0.164955 -0.045162 -0.175098 0.415413 0.256095 -0.115675 0.390637 -0.035993 0.066305 -0.071959 0.832725 0.394734 -0.597374 -0.325815 -0.409514 0.082665 -0.591617 0.369486 -0.171131 0.301909 -0.757037 0.317832 0.155526 -0.312737 0.267550 -0.312534 -0.090040 0.431535 0.327779 0.331887 -0.074847 -0.382538 -0.197812 -0.052678 -0.701121 0.047242 -0.022097 0.620373 -0.534403 0.861504 0.541594 -0.032602 -0.086706 0.098785 -0.655675 -0.452116 -0.305976 -0.034563 0.039116 -0.029693 0.697488 -0.349318 0.031138 0.409839 -0.033298 -0.069754 -0.244896 0.267741 1.075725 0.028802 -0.070489 -0.428315 -0.093244 -0.509219 -0.104422 0.041515 0.163382 -0.115547
H29 -0.291081 0.230774 0.062819 0.575605 -0.162653 0.231090 -0.105795 0.512111 -0.539009 0.229713 -0.198288 -0.093371 -0.857301 0.448114 0.122010 0.544566 0.318701 -0.176032 -0.442458 0.079519 0.158508 0.032040 -0.134184 -0.706117 -0.317075 0.074885 0.405466 -0.484477 0.248995 0.620042 -0.161521 0.307279 0.108746 -0.002828 0.542174 -0.389031 0.294746 -0.031476 0.424967 -0.282776 -0.452934 0.371709 0.551869 -0.365869 0.196192 0.220817 0.341166 -0.138886 -0.458260 -0.313277 0.701192 -0.851210 0.382729 -0.168265 -0.219896 0.286097 -0.037595 -0.345846 0.106286 0.602247 0.187348 -0.164190 0.382321 0.419234 -0.263502 -0.705996 0.101971 -0.266499 -0.081985 -0.036701 0.548190 -0.078793 -0.894813 -0.173778 0.157450 0.423975 0.427992 -0.411755 -0.183780 0.141379 0.032686 0.629785 0.118068 -0.964935 0.167830 -0.368521 -0.391613 0.489807 -0.458412 0.391149 -0.314064 -0.495202 0.254806 -0.170373 -0.205195 -0.778795 0.288546 0.155113 -0.141362 0.852715 0.322398 -0.188167 -0.381263 -0.222164 0.219560 -0.331523 -0.167817 0.667258 0.655434 -0.502088 0.154480 -0.199020 -0.508219 0.173630 -0.137308 0.450749 0.024752 0.760865 0.419656 0.035803 -0.431491 -0.514955 0.216036 0.258249 0.504398 0.490146 -0.522847 0.392273
H177 0.013237 0.426811 -0.484163 0.086453 -0.340691 -0.369498 0.715742 0.155579 0.027954 0.574893 -0.243509 -0.370739 -0.157713 0.070503 -0.644000 0.262902 -0.284778 -0.659096 -0.055955 0.306687 0.331687 -0.737283 0.066133 0.017174 0.119085 -0.107192 0.427191 -0.064561 0.203242 0.177850 -0.272681 -0.396371 0.525705 0.459066 -0.216254 -0.639229 0.275053 0.004092 0.199032 0.475969 0.367703 0.423199 1.045174 0.193049 -0.320079 0.660536 1.023780 0.258281 -0.219472 -1.165573 -0.113566 -0.296423 -0.046170 -0.316403 0.427470 -1.351920 -0.371001 -0.375159 0.384127 0.039441 0.410842 0.204253 0.029500 -0.266124 0.109500 -0.409425 -0.969320 0.549854 0.446651 0.157271 -0.239318 0.213374 0.366606 -0.010213 0.283992 -0.049026 -0.511235 -0.736312 -0.096423 0.253420 -1.187833 0.260359 -0.194352 -0.212217 0.046989 -0.431495 -0.651061 0.162165 -0.487071 0.315083 -1.004079 -0.215507 0.640761 -0.293240 -0.232938 0.306054 -0.040160 -0.164436 0.193292 1.433558 0.472714 -0.369932 -0.133234 -0.178978 -0.589325 -0.824660 -0.153489 0.411970 0.806297 -0.000634 0.055934 0.089893 -0.452961 -0.161381 0.281792 0.600940 0.114936 0.817212 1.064500 0.554789 -0.507859 -0.192175 0.914544 -0.650283 0.306132 -0.444828 0.333855 0.623997
H218 0.044938 -0.489529 0.077542 0.606207 -0.109121 0.603014 0.032394 0.484031 0.052942 0.093244 -0.081066 -0.450034 -1.528967 0.357807 0.357338 -0.844783 0.158506 -0.133194 -0.023832 0.662270 0.664381 -0.644430 -0.032696 -0.359923 0.007046 -0.965680 1.049041 -0.527333 -0.243480 -0.145167 0.768579 0.192098 0.073972 0.037122 -0.403449 -0.823071 0.561888 0.368401 -0.638114 0.484489 0.254376 -0.139860 0.450112 -0.315357 0.331569 0.591311 0.569206 -0.468839 -0.352458 -0.074503 0.034445 -0.471296 0.509666 0.038200 0.255792 -0.006328 0.543678 -0.573535 0.429819 -0.145760 -0.340781 -0.270878 -0.375912 0.190659 -0.008070 -0.904697 -0.280932 -0.212111 0.144659 0.275370 0.237966 0.433621 -0.302857 0.492953 0.671148 -0.468900 -0.488354 -0.389673 -0.229493 0.279632 -0.192044 1.122202 0.790114 -0.805622 -0.008027 -0.212072 0.026239 0.023635 -0.231272 0.635910 0.166907 -0.342398 0.423779 -0.462713 -0.995107 -0.362215 0.217882 0.262811 -0.222463 0.614553 0.656592 -0.416367 0.372595 0.242411 0.257023 -0.543665 0.678086 0.435445 0.918368 -0.435091 0.436284 -0.035663 -0.582175 0.717073 0.528030 0.188058 -0.051206 0.114206 0.877710 -0.578333 0.536597 -0.153199 0.151477 0.055193 -0.060979 -0.038731 -0.075481 0.764715
H80 0.025781 -0.285784 -0.540408 0.267701 0.330683 -0.522431 0.284202 0.111824 0.251260 0.062168 -0.813894 -0.059808 -0.351096 0.417754 -0.274323 -0.617680 0.309891 -0.559788 -0.741175 -0.345625 -0.308294 -0.514218 0.004904 -0.312776 -0.134400 -0.902752 -0.058532 0.025000 -0.232725 0.596320 -0.670371 -0.354441 0.976869 -0.391287 -0.512021 0.271056 0.571867 0.451061 -0.505305 0.438828 0.215560 0.283756 0.309063 -0.088626 -0.294481 0.501168 0.347668 -0.093901 0.283586 -0.637216 0.231016 -0.243467 0.223149 -0.525154 -0.205086 -0.790006 -0.338716 -0.580922 0.152632 -0.360822 -0.205027 0.061703 -0.476496 0.444237 0.320633 -1.046233 -0.324454 -0.356902 0.137492 0.594979 0.375101 0.224644 -0.221781 -0.304412 -0.216381 0.049777 -0.655592 -0.294742 -0.137236 0.704272 -0.566720 0.947075 0.014175 -0.713121 0.685804 0.238359 -0.607358 0.750349 -0.189021 1.076905 -0.808164 -0.048294 0.612601 -0.261179 0.218793 0.102212 -0.506405 0.526720 -0.344277 0.979803 0.449164 0.173068 -0.476275 -0.196628 -0.000473 -0.216105 0.467427 0.459750 0.303632 -0.235259 0.717556 0.291564 -0.161996 0.420681 0.775676 0.353490 0.385530 0.264872 0.530917 0.298534 -0.652886 -0.439783 -0.074548 -0.168793 0.123857 -0.041048 0.379387 -0.169665
H75 0.071849 0.009763 0.066902 -0.072304 -0.756399 -0.246122 -0.286149 0.370520 0.362212 -0.379583 -0.536925 -0.405664 -1.186260 0.637826 -0.065082 0.320153 0.317697 0.072127 0.071837 -0.333151 -0.389130 -0.503990 -0.807390 -0.230183 -0.181240 -0.580676 0.131100 -0.506193 -0.536373 0.864501 -0.488581 0.218973 -0.142925 0.286403 0.324414 -0.291806 0.114140 0.448686 -0.103851 0.137698 0.812308 0.330792 0.421537 -0.259315 -0.235886 0.955207 -0.013607 -0.012486 -0.042856 -0.426687 0.299361 -0.184386 -0.026530 0.292295 0.718441 -0.637474 -0.264243 -0.383018 0.640886 -0.121164 -0.847368 -0.467740 0.535709 0.126261 0.158872 -0.637418 -0.831327 0.006791 0.011162 0.146624 0.332471 -0.323108 -0.892778 -0.180299 -0.390322 0.179445 -0.460587 -0.478835 0.166041 0.131983 -0.164772 0.828597 -0.058723 -0.455536 -0.299651 -0.168026 -0.013961 0.622422 -0.538745 0.658437 -0.509234 0.036802 0.206005 -0.292053 -0.654007 -0.358147 0.161813 0.067144 -0.142418 0.566710 0.079665 0.160181 0.313971 0.205061 0.345830 0.006154 0.151779 0.357813 0.695703 -0.274317 0.433924 -0.032260 -0.584746 0.550719 1.113423 0.673882 -0.326758 0.386123 0.129786 0.187616 -0.764354 0.222582 0.072157 -0.039169 -0.224751 -0.447260 -0.023029 0.215792
H213 0.037833 -0.395758 -0.431196 0.114757 -0.974599 0.451722 0.272385 0.830559 -0.919597 0.534372 0.176531 -0.886700 -0.924888 -0.414702 0.330100 -0.290662 0.105631 -0.706254 -0.779699 0.280934 0.125631 -0.061239 -0.201620 -0.679378 -0.186156 0.194091 0.714973 -0.421595 -0.227696 0.097312 0.709169 0.483238 0.134008 0.602774 -0.217923 0.261083 0.566175 0.089415 0.182574 0.869172 -0.006735 0.001692 0.084025 -0.150111 -0.217213 0.940089 0.500214 -0.352042 0.022261 -0.777857 -0.051681 0.158936 1.151685 0.114801 0.505993 -0.941956 0.228931 -0.657993 0.456026 -0.369036 -0.240279 -0.222986 -0.224501 0.426881 0.185319 -0.252716 0.605628 0.398401 0.079431 0.330245 0.224035 0.174979 -0.428438 -0.193434 0.060006 -0.283490 -0.505723 -0.006386 0.025391 0.237206 -0.508313 1.041112 0.240721 -0.132713 0.392622 0.184245 -0.478691 0.274996 -0.657633 0.522666 -0.700436 -0.240101 0.284215 -0.718028 -0.879124 -0.125100 0.010902 -0.200231 -0.388618 0.568502 0.774687 -0.267376 -0.244187 -0.192930 -0.043601 -0.492708 -0.109913 0.040545 0.698273 0.527209 0.973770 0.240706 -0.411847 0.392044 0.045988 0.574820 0.100928 0.216421 -0.013263 -0.000671 -0.092333 -0.255310 0.355070 -0.140604 0.413295 -0.035599 0.373242 0.231284
P433 0.323002 0.054022 -0.391400 -0.211004 -0.269992 0.076357 -0.112577 0.318817 -0.066296 -0.305057 0.224844 0.008826 -0.430544 0.089698 -0.031780 -0.145709 -0.047107 0.015816 -0.521116 0.088269 -0.055154 -0.141963 0.413838 0.310485 0.600259 0.201031 -0.120699 -0.116638 0.426834 0.288202 0.106676 -0.328506 -0.166360 -0.145879 -0.461596 0.151114 0.411404 -0.097909 0.054390 -0.012626 0.262013 0.011781 0.265546 -0.024688 0.014517 0.229001 0.348194 -0.105490 -0.385974 -0.219024 0.122413 -0.048405 -0.063667 -0.025926 0.281175 -0.502484 0.027173 0.311088 0.138697 0.216347 -0.414299 -0.321067 0.322597 -0.036142 -0.017635 -0.811083 -0.066869 -0.256662 0.025554 0.029988 0.526080 0.423382 -0.488623 0.168380 -0.518413 -0.151746 0.278022 0.202346 0.117572 -0.069910 -0.379115 0.658024 -0.076081 -0.353169 0.161055 -0.465535 -0.435733 0.116730 -0.555906 0.162136 -0.203355 -0.058639 0.354068 -0.407703 -0.396698 -0.165474 0.267477 -0.148637 -0.222582 -0.055868 0.259505 -0.645339 -0.232165 0.021163 -0.359101 -0.282522 -0.034050 0.544473 0.008132 0.168478 0.496292 -0.240295 -0.610733 0.081086 0.382361 0.004180 0.257314 -0.268694 0.116550 0.220570 -0.161020 0.002526 -0.513479 -0.139896 0.130951 0.034838 0.061070 0.171803
H195 0.105395 0.078833 -0.392461 -0.093211 -0.451212 0.303919 0.214348 0.608917 -0.082355 0.176004 -0.178174 0.273667 -0.644801 0.560340 -0.383209 -0.552651 0.249111 -0.445977 0.112071 -0.479073 0.461499 -0.440928 0.175054 -0.106989 -0.444279 -0.230345 1.083741 -0.042670 0.233159 0.006920 0.097503 -0.319026 0.570278 -0.087474 0.446570 -0.417939 0.261506 0.131334 0.099418 0.118803 0.134486 0.255319 0.571808 0.039968 0.568782 0.638575 0.872197 0.079003 0.113571 -0.607411 -0.364428 -0.405458 0.068335 -0.525802 0.255793 0.275894 0.007823 -0.163406 0.085524 0.388321 0.143660 -0.193998 0.315859 -0.057954 0.408026 -0.539696 -0.196459 -0.569315 0.133421 0.005146 0.523376 -0.167974 -0.337496 -0.343896 0.001265 0.443971 -0.120416 -0.266546 0.521625 -0.354055 -0.544729 0.986869 -0.003112 -0.278160 -0.034564 0.475772 0.203345 0.337311 0.090319 0.167874 -0.637370 0.046729 0.455268 -0.139894 -0.857364 0.447789 0.327839 0.468737 0.205389 0.997035 0.557131 -0.444120 -0.465861 0.122529 -0.053338 -0.325709 0.351511 0.579738 0.754298 0.059211 0.765765 -0.580078 -0.195511 0.503591 -0.010340 0.587975 -0.796582 0.213350 0.641835 0.312723 -0.004413 -0.474772 0.501443 -0.274638 0.357217 0.191376 0.007485 0.265397
H192 0.336226 0.079844 -0.075681 0.224174 -0.417026 0.012531 0.485456 0.272091 0.129679 -0.259126 -0.330423 -0.047582 -1.024490 0.342820 -0.133065 -0.175472 0.782450 -0.395760 0.126327 -0.353864 -0.343207 -0.336417 0.202001 0.040983 0.012555 0.323788 0.901871 -0.312326 -0.386706 0.026195 -0.204233 0.250840 0.563053 0.406512 -0.432472 -0.320460 0.111686 0.146887 0.122578 -0.096865 0.048800 -0.020940 0.442807 -0.084046 0.295292 0.570221 0.661701 -0.124725 0.067769 -0.782717 -0.596330 -0.578892 0.049377 0.197911 0.614323 0.160496 0.030421 -0.457314 0.127355 -0.174438 -0.420607 -0.200863 -0.166485 0.059445 0.573987 -0.071747 0.167745 -0.009074 0.062824 0.145182 0.794984 0.478513 -0.251872 -0.555751 -0.438498 -0.259931 -0.695435 0.142402 0.202814 -0.009546 -0.763870 0.579929 0.428360 -0.391596 0.007497 0.084590 0.167656 0.166149 0.247603 0.203879 -0.476900 -0.367866 -0.029103 0.047531 -0.764051 0.272311 0.033528 0.596827 -0.289553 0.953058 0.480130 -0.415102 -0.118127 0.172843 -0.375300 -0.775497 -0.175083 0.086389 0.267425 0.018488 0.513038 -0.585136 -0.072709 0.204327 0.082074 0.152770 -0.170600 0.190111 0.868615 -0.126931 -0.117126 -0.540636 -0.193148 -0.150071 -0.093635 0.125707 0.501724 0.245168
H64 0.383184 -0.030816 -0.297127 -0.139408 -0.312954 0.405768 0.019722 -0.086112 -0.355627 0.101388 0.011625 -0.880283 -0.744612 0.894348 0.590362 -0.452284 -0.502832 -0.493503 0.490937 -0.230469 0.199475 -0.344075 -0.404885 -0.654365 0.216332 0.038083 0.243834 0.159402 0.257843 0.134155 -0.138007 -0.199165 0.019210 0.047341 0.366243 -0.274988 -0.054945 -0.127739 -0.494381 -0.077823 0.425238 0.257442 0.400740 -0.474364 0.141122 0.895322 0.706367 -0.302945 -0.353058 0.023548 -0.186379 -0.057619 0.416607 0.399090 0.505499 0.373252 0.255719 -0.065857 0.408118 -0.566355 0.142782 -0.230653 0.074304 0.134143 -0.081671 -0.182034 -0.276630 -0.179035 0.344559 -0.000628 0.658467 0.330344 -0.900166 -0.256111 -0.450942 -0.602142 0.198611 -0.120130 0.184985 0.305527 0.024780 0.864545 0.105771 -0.040499 0.414466 -0.222957 0.215782 -0.003156 -0.564948 0.338683 -0.275052 -0.308599 -0.303623 0.476606 -0.036108 0.144122 0.178989 0.544662 -0.084639 0.832737 0.074718 -0.301294 -0.204349 0.272383 -0.408982 -0.352339 -0.121461 0.211478 0.350675 0.130102 0.076391 0.690121 -0.412516 0.817729 0.202192 0.209294 0.574839 0.109407 1.211047 0.516889 -0.546444 -0.363167 0.335535 -0.432322 0.408611 -0.384865 0.210297 0.476773
H52 0.119972 0.077420 -0.176240 0.484528 -0.753603 0.535252 0.819212 0.263852 -0.015981 -0.331373 -0.495976 -0.138825 -0.175035 0.162402 -0.030734 0.208647 0.265604 -0.305655 -0.090409 0.690282 -0.322404 -0.938860 -0.172647 -0.484642 -0.261582 -0.476325 0.068621 -0.014188 -0.266179 0.283663 -0.123299 -0.419828 0.982573 0.202886 0.141774 -0.542524 0.322478 -0.418215 -0.827761 0.548068 0.338509 -0.200664 0.450283 -0.015681 -0.329518 0.227429 0.780760 0.127044 -0.176170 -0.719101 0.095004 -0.210696 0.474491 -0.115516 -0.618265 0.103660 0.016484 -0.076900 0.565954 -0.241223 0.442303 0.057112 0.450385 0.021771 -0.294174 -0.265485 0.616873 0.156838 0.236461 -0.422502 0.204899 0.072205 -0.512862 -0.147994 -0.028647 -0.391170 0.250544 0.243093 -0.411282 0.233762 -0.154199 0.428418 -0.384441 -0.823035 0.247624 0.342127 0.211824 -0.141693 0.157658 0.087759 -0.688761 -0.541035 -0.161122 -0.390772 -0.143251 -0.296699 -0.256624 -0.071318 -0.073107 0.939656 0.568061 -0.400614 -0.152970 0.443874 -0.101938 0.080425 -0.132907 -0.045676 0.727150 -0.256200 0.814362 -0.380081 -0.880535 0.682563 0.393800 0.881027 0.264240 0.188040 0.455681 0.658327 -0.158817 -0.376287 0.026533 -0.090017 0.564696 -0.363399 0.180331 -0.383601
H35 0.062716 0.020560 0.202022 0.119587 -0.219747 0.220074 0.010298 -0.106681 -0.709265 0.247239 -0.411601 -0.545802 -1.026399 0.443224 -0.197264 -0.544320 0.261889 0.077850 -0.351803 0.514381 1.077505 -0.206063 0.628150 0.271910 -0.146876 -0.306620 0.693052 -0.419373 0.539790 0.166949 -0.949431 -0.447342 0.588807 0.062646 -0.127041 -0.643071 0.698412 0.494024 -0.204610 0.001762 -0.075619 -0.121557 0.074735 -0.437452 0.058620 0.244150 1.382299 0.477144 -0.368569 -0.551487 0.490384 -0.166437 -0.018168 0.492280 0.018517 -0.124668 0.070239 -0.242998 -0.589071 -0.136878 -0.140795 -0.282735 0.758995 -0.091513 0.410876 -0.624419 -0.775576 -0.625024 0.359640 0.081025 1.049632 1.005315 -0.803530 -0.172563 -0.111144 -0.197320 0.453218 0.744439 -0.066088 -0.017534 -0.737478 0.358924 0.069408 -0.608747 0.231061 -0.662704 0.158901 0.944851 -0.315631 0.648622 -0.203948 -0.451045 0.128462 -0.502998 -0.480656 -0.220064 0.646079 0.316488 -0.789961 0.942968 0.514489 -0.561227 -0.584221 -0.049608 0.051222 -0.537425 0.584549 -0.077080 0.607555 0.000138 0.648423 0.069137 -0.387725 -0.041069 0.611387 -0.107035 -0.113942 0.361447 1.084149 -0.377367 -0.494622 0.186654 1.170677 0.142209 -0.207617 0.605140 -0.313128 1.077280
H58 0.584840 0.192431 -0.542551 0.437124 -0.220115 -0.042302 0.306709 0.622350 -0.228907 -0.042533 -0.073672 -0.841436 -0.436731 0.329881 0.215364 0.082184 0.352981 -0.072998 -0.177580 0.299281 0.131364 -0.351714 0.233432 -0.043124 -0.282694 -1.131083 0.023820 -0.346033 0.361002 -0.345230 -0.211799 0.093751 0.598008 0.138648 0.399508 -0.013492 0.262486 0.088720 0.162919 -0.485685 -0.531589 0.419090 0.823269 0.181886 0.257377 0.890090 0.512286 0.356838 -0.501602 -0.647129 0.200701 -0.118351 0.400942 -0.274644 0.516029 -0.628117 -0.200596 -0.274356 0.502118 -0.216968 -0.255235 0.050685 0.221402 0.770624 -0.005335 -0.430960 -0.441931 0.833962 -0.287228 0.450989 0.072977 0.056681 -0.229755 0.591814 0.140400 -0.481893 -0.417262 -0.465264 -0.060378 0.254997 -0.409975 0.665239 -0.773569 -0.776431 0.010703 -0.447430 -0.626774 -0.102277 -0.515954 0.324876 -0.849902 -0.898064 -0.417737 -0.477854 -0.199251 -0.200303 0.057855 0.824302 0.047697 1.162776 0.420967 -0.435511 0.441390 0.162385 -0.589184 -0.463388 -0.287523 0.479772 0.248184 0.763861 0.422917 0.332458 0.060724 0.194445 0.222018 0.937589 0.436581 0.156413 0.623373 0.038822 0.042835 0.175412 0.210131 0.235335 0.029603 0.407420 0.123023 -0.305724
H151 -0.167264 -0.260550 -0.482009 -0.057128 -0.696519 -0.411316 -0.151128 0.134227 -0.286035 -0.265863 -0.303467 -0.127479 -0.899705 -0.596713 0.010661 -0.050706 0.298312 -0.342209 -0.211037 -0.052263 -0.362604 0.161708 -0.448796 -0.192810 -0.494582 -0.640944 0.202154 -0.337068 -0.289807 0.304723 0.099563 -0.595103 -0.129114 0.730691 0.557310 0.410887 0.459736 -0.529819 0.448449 0.007680 0.152379 -0.475776 0.790489 0.151709 0.310851 0.307277 0.804193 0.293750 0.384946 -0.492059 -0.271035 -0.646118 0.099498 0.401958 -0.434328 0.198895 -0.284345 0.202946 0.260719 -0.373057 -0.240443 0.204802 0.301174 -0.053682 -0.457769 -0.438542 -0.244729 0.157640 0.353137 -0.106004 0.476286 0.451666 0.150057 -0.043348 -0.225675 -0.184929 -0.261699 0.137962 -0.068960 0.253749 -1.050392 0.768186 -0.045433 -0.103975 0.325578 -0.244643 -0.289311 -0.370800 -0.566683 1.049074 -0.983127 -0.288268 0.199295 0.055962 -0.187057 -0.186115 0.137589 0.070817 -0.042082 0.364942 0.649639 -0.009933 -0.057494 -0.194948 -0.154965 -0.602131 -0.140244 -0.336132 0.358827 0.180160 0.296211 0.406210 -0.443262 0.300758 0.523573 0.765433 0.200250 0.489127 0.670794 0.008242 -0.475496 -0.247488 0.202766 -0.390752 -0.031426 -0.150556 -0.045153 -0.027968
H182 0.570423 -0.178078 -0.219343 -0.504482 -0.774927 0.137545 0.126643 0.074909 -0.877855 0.105401 -0.194514 0.265387 -0.708381 0.326575 0.767716 -0.508619 -0.054095 0.081256 -0.728734 -0.123984 0.038739 0.127229 -0.482124 -0.799833 0.033421 0.373323 0.545648 -0.901513 0.056493 0.189037 -0.323856 0.244884 0.964710 0.127764 -0.004211 0.345430 0.707092 0.044708 0.112271 0.491171 0.060770 -0.017076 -0.054296 -1.031732 0.733802 0.802919 0.260430 -0.067703 -0.178771 -0.228832 0.250160 0.066718 0.975333 0.065066 0.571747 -0.332125 0.416782 -0.294904 1.138490 -0.368351 -0.173724 -0.273832 0.472114 0.149977 0.201749 -0.812993 0.226938 0.073138 0.263693 0.431050 0.826110 0.699993 -0.401649 -0.582572 -0.117644 0.079828 -0.189111 0.227818 -0.404465 -0.432609 -0.205303 0.943789 0.196643 -0.604834 0.241239 -0.268043 -0.084329 1.259649 -0.465458 0.466542 0.294089 -0.561010 0.226395 -0.277600 -0.272113 -0.190307 0.181944 0.058341 -0.350834 0.601267 0.495706 0.055143 0.068992 0.016934 0.657682 -0.253789 0.248338 0.280873 0.632526 -0.269204 0.724521 -0.189729 -0.823032 0.081908 0.418688 0.328034 -0.211586 0.196294 0.566216 0.089042 -0.779363 -0.039991 0.420822 -0.964784 0.073261 -0.591428 -0.035950 0.115368
H96 0.310114 -0.241517 -0.507017 -0.275891 -0.258522 0.010623 -0.339621 0.229212 -0.050927 -0.397604 0.423986 0.036476 -0.809619 0.132931 -0.120875 -0.500434 -0.123257 0.041308 -0.554894 -0.062351 -0.012800 -0.273369 0.353531 -0.076299 0.352011 0.229171 0.102184 -0.331409 0.499025 0.272128 0.209624 -0.489788 -0.034796 -0.240354 -0.357157 0.195942 0.395343 -0.002533 0.008550 -0.039338 0.154587 -0.083297 0.197248 0.076582 -0.012648 0.518566 0.379859 -0.371385 -0.448483 -0.020333 0.292249 -0.290621 -0.066887 0.093648 0.329328 -0.088959 -0.044492 0.256682 0.063318 0.450727 -0.470133 -0.417663 0.271956 -0.070277 -0.202737 -0.701123 -0.173153 -0.539052 0.079374 0.227191 0.871174 0.392268 -0.741984 0.087536 -0.543622 0.159776 0.131590 0.138317 0.146891 -0.226000 -0.229955 0.825179 0.071760 -0.176549 0.258804 -0.334511 -0.418089 0.206279 -0.800425 0.500460 -0.278047 -0.100139 0.420691 -0.361897 -0.720976 -0.002630 0.117122 0.095153 -0.610373 -0.045045 0.155237 -0.842764 -0.221171 0.048262 -0.123101 -0.499132 0.180942 0.674344 -0.150069 0.199609 0.332286 -0.162151 -0.630033 0.184133 0.427803 -0.025362 0.099480 -0.320593 0.302492 0.050325 -0.205786 -0.047573 -0.516773 -0.268607 0.261657 0.073640 -0.385539 -0.127730
H31 0.491961 -0.116837 -0.348134 -0.248136 -0.527364 -0.553278 -0.150738 0.363360 -0.330856 0.037454 0.062711 -0.845552 -0.761740 0.324398 -0.152375 0.012337 0.239433 -0.008114 -0.196858 -0.257143 0.377781 -0.750497 -0.062871 -0.081073 0.312396 -0.093486 0.505745 -0.131614 -0.258062 0.480637 0.591142 0.285639 0.471089 -0.241748 -0.569083 0.185854 0.422038 -0.199522 0.128089 0.790453 -0.207471 0.076926 0.447399 0.230609 0.276530 1.075982 0.548558 -0.657295 -0.716101 -0.298644 -0.185673 -0.345608 0.398526 -0.510402 0.274007 -0.295402 0.418830 -0.622447 0.248995 -0.258591 -0.375996 -0.539328 0.179003 -0.198691 0.070114 -0.496035 -0.284757 0.443434 0.161560 0.078658 -0.027614 -0.390732 -0.722358 0.032938 -0.215576 0.266013 -0.208338 -0.654815 -0.565449 -0.173825 0.465994 0.699776 -0.054650 -0.379287 0.180960 0.195147 -0.335781 0.163595 -0.457238 0.876361 -0.088957 -0.970432 0.800770 -0.181125 -0.375152 0.018037 -0.044077 0.161947 0.072157 0.008787 0.703137 0.283845 0.224536 -0.115984 -0.186495 -0.011537 0.426686 0.294939 0.805559 -0.334215 0.620704 0.283798 -0.517344 0.525960 0.036260 0.788393 -0.013792 0.790227 0.109176 0.715846 0.241228 -0.374510 0.089135 -0.063429 0.328927 -0.726082 0.281520 0.340858
P829 -0.079591 -0.155451 -0.377547 -0.312915 -0.513811 0.029321 -0.058004 0.165008 -0.204234 -0.030962 -0.008504 -0.110868 -0.865085 -0.681621 0.276248 -0.044630 0.385912 -0.345726 -0.541310 -0.210429 -0.292050 0.042412 -0.408271 -0.186128 -0.360346 -0.164520 0.068907 -0.496744 -0.228314 0.208608 0.169887 -0.438210 -0.244223 0.606261 0.605255 0.378600 0.440517 -0.449752 0.528999 0.198466 0.078847 -0.247885 0.787898 0.023729 0.385342 0.438721 0.495035 0.120238 0.519485 -0.457699 -0.179689 -0.822989 0.194065 0.502936 -0.134293 -0.018694 -0.092493 0.082051 0.109644 -0.113908 -0.113412 -0.050659 0.395750 0.034388 -0.230102 -0.278937 -0.134485 -0.118958 0.257736 0.159575 0.696465 0.224956 0.180710 -0.199284 -0.402742 -0.237641 -0.353964 -0.010402 0.074200 0.250931 -1.026940 0.599987 0.013006 -0.037914 0.231849 0.063806 -0.139252 -0.293813 -0.623156 0.589710 -0.954390 -0.048250 0.054463 0.117758 -0.446255 -0.384856 0.132194 0.144296 -0.037145 0.445024 0.793378 0.157089 -0.092494 -0.332496 -0.282607 -0.647843 -0.293976 -0.215602 0.549742 0.044391 0.420512 0.177724 -0.456110 0.253482 0.507448 0.645431 0.332010 0.561039 0.437274 0.206003 -0.648600 -0.243152 0.381963 -0.330183 -0.018681 -0.210426 -0.014804 -0.003938
H84 0.267156 0.437482 -0.196119 0.160276 -0.333631 0.121605 -0.037441 0.178603 -0.025309 0.058325 0.500973 -0.220417 -0.557302 0.681631 -0.079104 -0.201261 0.273406 -0.263418 -0.016789 0.558696 -0.089902 -0.759221 0.309686 0.479176 0.711301 -0.054409 -0.056659 -0.356412 0.344385 0.138474 0.128865 0.026852 0.298530 0.047425 0.048813 0.369204 0.036771 0.207505 0.046266 -0.000398 0.236511 0.454608 0.699710 0.127221 0.078557 0.356714 0.136677 -0.020450 -0.081357 -0.207482 -0.318724 -0.461063 -0.133431 0.230988 -0.186537 -0.324174 -0.045930 0.138339 0.216254 -0.486135 -0.191316 -0.140857 0.013986 -0.605397 0.206645 -0.510540 -0.241346 -0.051251 0.004974 -0.246739 -0.041226 0.196235 -0.385438 -0.288375 -0.118922 0.147180 0.339935 -0.004614 -0.221515 -0.151411 -0.567647 0.298901 -0.081973 -0.158557 0.130445 -0.626294 -0.339542 0.037367 -0.525053 0.354461 0.028706 -0.334642 0.401648 -0.449974 0.299777 -0.250733 0.327134 0.149412 0.018911 0.300921 0.768654 -0.354683 -0.092779 -0.222002 -0.614459 -0.153288 -0.255444 0.286629 0.405580 0.189155 0.204415 -0.207759 -0.776578 0.177736 0.581168 0.215147 0.287628 0.375920 0.445120 0.166692 -0.335245 -0.425255 -0.314078 0.238594 0.279616 0.082534 0.074454 0.400031
H65 0.250302 0.016572 -0.485186 -0.186883 -0.339925 0.290483 0.073496 0.060896 -0.399862 0.008533 -0.042085 -0.762191 -0.848375 0.896378 0.612330 -0.381308 -0.693488 -0.495394 0.401073 -0.273049 0.040338 -0.460946 -0.267037 -0.711190 0.276641 0.064753 0.303472 0.214796 0.379607 0.179891 -0.195701 -0.272751 0.035220 -0.002517 0.350442 -0.335943 0.049862 -0.100052 -0.561468 -0.228767 0.345026 0.212692 0.339013 -0.389519 0.101486 0.695886 0.755137 -0.159303 -0.342477 -0.084288 -0.110970 0.007648 0.419161 0.414760 0.608903 0.303562 0.340930 -0.050965 0.237454 -0.391056 0.167275 -0.154692 0.052191 0.401834 -0.077746 -0.237992 -0.083598 -0.197386 0.318715 0.037671 0.636193 0.280899 -0.910241 -0.169343 -0.402439 -0.585280 0.083081 0.133409 0.340085 0.449758 -0.001651 0.959274 0.146670 -0.309075 0.410231 -0.402425 0.141672 -0.129229 -0.588655 0.233548 -0.386483 -0.186036 -0.271714 0.435027 -0.018791 0.197399 0.250443 0.454597 -0.138856 0.818081 0.137246 -0.394814 -0.261688 0.321625 -0.441091 -0.228465 -0.123858 0.294070 0.231905 0.097767 0.061161 0.701360 -0.421136 0.629883 0.109751 0.150428 0.545758 0.029656 1.185460 0.461792 -0.462176 -0.273072 0.280428 -0.312786 0.453733 -0.170013 0.215578 0.459910
P826 0.412554 -0.217589 -0.403124 -0.318383 -0.677949 -0.235274 0.138687 0.089500 0.313526 0.279335 -0.068011 -0.539002 -0.233180 -0.448661 0.488925 0.201266 0.088787 -0.137268 -0.115499 0.079957 -0.424996 -0.051262 -0.174085 -0.125152 0.356906 -0.460902 0.355696 -0.184581 -0.050071 0.236898 0.115906 -0.221328 -0.104260 -0.072473 0.368977 -0.203765 0.494971 -0.741125 0.190602 0.261722 0.273757 0.009613 0.887977 0.377115 0.170723 0.458340 0.544157 0.233716 0.123170 -0.563114 -0.154069 -0.511418 0.421621 0.213951 -0.238198 0.041840 -0.459920 0.032298 0.145161 0.114019 -0.327433 -0.407324 0.313451 -0.289739 0.147413 -0.103046 -0.048500 -0.027430 0.234323 0.339200 0.440866 0.457476 -0.532623 -0.023634 -0.544583 0.025442 -0.798154 0.012791 -0.364864 0.313491 -0.409986 0.405192 -0.412785 -0.137351 0.548311 0.678296 -0.681583 -0.453177 -0.871206 0.572271 -0.955364 -0.279429 -0.002143 0.401783 -0.253685 -0.400541 0.321195 0.132265 0.242014 0.113833 0.924767 -0.070137 -0.212276 -0.165845 -0.232674 -0.463029 -0.491561 0.167922 0.641932 0.112009 0.282985 0.002355 -0.125019 0.295243 0.467652 0.444098 -0.022093 0.746495 0.362660 0.503909 -0.749456 0.107089 0.567955 -0.203713 0.242308 -0.122010 0.164649 -0.194386
H203 0.267823 -0.580344 -0.471883 0.314730 -0.690223 -0.163489 0.345010 -0.112251 0.340394 -0.432424 -0.377378 -0.349007 -1.016717 1.126071 0.171722 -0.633367 -0.822240 -0.455855 0.319736 0.129426 -0.514522 -0.788344 0.299757 0.500430 -0.138712 -0.497143 0.652180 0.015498 0.191657 0.116790 -0.347773 -0.090615 0.946981 0.207913 0.276539 -1.056046 0.377899 0.216990 -0.927424 0.399022 -0.129615 0.079217 0.209417 0.230233 -0.311696 0.340028 0.905118 0.361786 -1.140604 -0.769655 0.283416 0.557851 -0.584316 -0.173634 0.316485 -0.823743 -0.193831 -0.777348 0.561958 -0.519702 -0.229354 0.505544 -0.297105 0.490505 0.083570 -0.727999 -0.656940 -0.051631 -0.576851 0.174845 0.227228 0.350561 -0.339309 0.075187 -0.178715 -0.487537 -0.153193 0.483251 -0.069425 0.686402 -1.005633 0.753532 0.475737 -0.296620 0.177753 -0.395312 0.143761 0.288188 -0.509367 0.517658 -0.265016 -0.477597 0.063630 -0.694376 -0.051713 -0.043254 -0.008581 0.260309 0.341251 0.693781 0.295247 -0.727502 -0.379115 0.127680 -0.446104 0.007582 0.149639 0.730962 0.546634 -0.104659 0.861286 0.635757 -0.288134 0.523805 0.294085 0.590801 -0.152417 -0.432771 1.586070 0.039502 -0.236538 0.402826 -0.328525 -0.547700 0.615739 0.011108 0.470113 0.363344
H55 0.532051 -0.566859 -0.744689 -0.344403 -0.628963 0.332057 0.323012 -0.274591 0.591432 0.298989 -0.650433 -0.047488 -0.582741 0.050411 0.020071 -0.034617 -0.040914 -0.566926 0.093049 0.564565 -0.834855 -0.851943 -0.344617 -0.330309 0.419400 -0.773329 0.639128 -0.312795 0.195370 0.376443 -0.190550 -0.395230 0.363400 0.462074 0.209632 -0.661147 0.690645 0.236168 -0.917513 -0.009673 -0.562949 -0.411806 0.344796 -0.131509 -0.307748 -0.020986 0.476351 0.176367 -0.173068 -0.640122 0.104337 0.510444 0.400863 -0.064069 0.464015 -0.241878 0.162271 -0.158225 -0.067937 -0.247331 -0.020082 -0.350293 0.239024 0.162465 -0.180052 -0.670869 0.385049 0.304453 0.059454 0.912312 0.935844 0.179243 -0.158666 0.130084 -0.529002 -0.483818 0.011655 0.329872 -0.176076 0.033915 -0.638268 1.102329 0.139217 -0.530440 0.306045 -0.161404 -0.742909 -0.280909 -0.942603 0.873014 -0.870278 0.430551 -0.048824 0.497742 -0.256289 -0.367557 -0.002284 0.215860 -0.144683 1.023366 0.560141 0.044644 -0.104929 0.536188 -0.612568 0.011817 -0.306047 0.475980 -0.063393 0.070642 1.173477 0.349932 0.045505 0.091847 0.660593 0.813474 0.560041 -0.514888 0.924904 0.091003 0.020449 -0.255478 0.387776 -0.583224 0.613500 0.152052 0.413011 -0.119504
H107 0.969853 -0.041535 -0.361457 0.276132 -0.157089 -0.060501 -0.139621 -0.177598 0.257454 0.439007 -0.200393 0.207006 -0.778332 0.165431 0.197471 -0.462544 -0.204676 -0.017123 -0.127526 -0.024389 0.092206 -0.150012 -0.270053 -0.628495 -0.010974 -0.167696 0.362549 0.020037 0.207896 0.525141 -0.470046 0.111358 0.637164 0.370311 0.569235 -0.234320 0.326528 0.001642 0.090930 0.586179 -0.604418 -0.108367 0.578099 -0.410177 0.115401 0.652913 0.863314 0.371452 -0.406902 -0.001808 0.041608 0.131913 -0.073508 -0.073800 -0.204797 -0.300667 -0.750558 -1.113190 0.556269 0.025022 0.200772 0.017299 0.328780 0.074042 0.186524 -0.185623 -0.521749 -0.390016 0.074133 0.709935 0.253939 0.854663 -0.244914 -0.145415 -0.171118 -0.573420 -0.312266 0.466903 -0.234980 0.592368 -0.905074 0.635715 0.461947 -0.353469 0.704644 -0.727645 -0.516773 0.361974 -1.057896 1.047147 0.372055 -0.134710 -0.468706 0.759172 0.211161 -0.249363 -0.330706 -0.111750 0.396025 0.906647 0.486434 0.077653 -0.755287 0.167640 -0.056111 -0.740366 -0.537194 -0.288150 0.252098 -0.146265 0.095557 0.216058 -0.072334 0.048392 0.537818 0.485239 -0.752955 0.435564 1.084052 -0.175470 -1.354474 -0.567294 0.708266 -0.662301 0.078562 0.086488 0.139679 0.522966
H82 0.506672 -0.004104 -0.301074 0.190227 -0.585975 -0.148566 0.244057 0.486000 -0.173530 -0.128512 -0.124215 -0.297230 -1.110893 0.492708 0.191224 -0.252414 0.232488 -0.285633 -0.219848 0.247285 0.157940 -0.647783 0.002361 -0.363143 0.079539 -0.546300 0.536531 -0.328907 0.173605 0.376183 -0.158655 -0.159065 0.406351 0.083141 -0.062289 -0.249817 0.707644 0.035706 -0.240199 0.309445 -0.045231 -0.063416 0.673741 -0.045359 0.175358 0.630068 0.931919 0.149676 -0.590416 -0.412087 0.065690 -0.421977 0.306605 -0.027580 0.276870 -0.425965 -0.078169 -0.498974 0.398975 -0.031429 -0.051082 -0.186505 0.344203 -0.081527 -0.133079 -0.779462 -0.178753 -0.097047 0.076506 0.290493 0.577880 0.588496 -0.664449 0.014687 -0.273545 -0.173956 -0.147042 0.074235 -0.145647 0.185010 -0.753906 1.086218 -0.107002 -0.692027 0.336980 -0.504956 -0.371716 0.312776 -0.637700 0.737155 -0.575384 -0.558171 0.171341 -0.195904 -0.458508 -0.325627 0.082428 0.097412 -0.253925 0.731099 0.730502 -0.452778 -0.309719 0.279462 -0.332334 -0.416081 0.056163 0.403513 0.673444 0.098471 0.716660 -0.088017 -0.603656 0.438780 0.621570 0.667243 0.066603 0.236985 0.852134 0.216448 -0.378635 -0.319983 0.105657 -0.180192 0.146543 0.068683 0.042854 0.409416
H175 0.548039 0.076880 0.248684 -0.272810 -0.516931 -0.727509 0.188809 0.278999 -0.129400 -0.409282 -0.402800 -0.425263 -0.049906 0.406043 0.059800 -0.283506 0.546774 0.393383 -0.080467 -0.028519 -0.612564 -0.142117 0.318675 -0.559812 -0.064009 -0.662395 0.362439 -0.745515 0.242377 0.544873 0.017870 -0.058489 0.363822 0.493901 0.035985 -0.502332 0.338779 -0.229101 -0.054346 0.040801 0.099284 0.433194 0.328829 -0.323105 -0.284286 0.774907 0.456182 -0.090011 -0.579743 -0.330700 0.452964 0.068760 0.014165 0.144879 0.832528 -0.171123 -0.150686 -0.120055 0.101980 0.231884 -0.367766 -0.555395 0.159714 -0.195695 -0.767302 -1.131187 0.092366 0.452812 -0.368940 0.135923 0.075079 0.262287 -0.865131 0.083190 0.469753 -0.478915 -0.494956 -0.071943 -0.600376 0.435584 0.221200 0.808340 -0.411308 -0.858476 -0.343548 0.195950 -0.514766 0.046317 -0.857634 1.254853 -0.415966 -0.998698 0.094391 -0.265079 -0.107582 0.101652 0.182014 0.321386 -0.336502 -0.272306 0.436351 -0.221135 -0.486165 0.287736 -0.522698 -0.595988 -0.056612 0.159997 0.086352 0.238595 0.289911 -0.162715 -0.737465 0.760198 0.106795 0.237511 0.365925 0.560121 1.242685 0.822176 -0.627521 0.155758 0.127654 0.685702 -0.520163 0.140547 0.238949 0.544732
H18 0.386204 0.067493 0.325748 0.329848 -0.927227 0.003044 0.828225 0.102583 0.078238 0.110694 -0.403867 -0.251850 -0.937234 0.612280 0.503850 -0.283856 0.015160 -0.818430 -0.437284 1.050392 -0.203863 -0.354310 -0.451165 -0.289335 0.086394 0.134358 0.636095 0.032020 -0.149156 0.418665 -0.556009 0.062367 0.925890 0.035789 0.046619 -0.574858 0.063358 0.140995 -0.278730 1.024896 -0.393811 -0.487616 0.464466 0.277617 -0.500818 0.465759 0.463713 -0.229479 -0.229096 -0.554281 0.552195 0.230180 0.054046 0.284038 -0.099326 -1.297605 -0.671596 -0.443139 0.199569 -0.351431 0.015586 0.077967 -0.375885 -0.125133 0.349206 -0.421752 -0.572815 -0.249127 0.063268 0.285829 0.148660 0.531948 -0.274967 -0.143107 -0.146270 -0.203976 -0.096851 0.110945 -0.454824 0.092751 -0.779056 0.674736 0.006005 -0.029571 0.233065 -0.512711 0.074412 0.870250 -0.325099 0.625815 -0.410065 -0.101053 0.217172 -0.715699 -0.065320 -0.234933 -0.461884 -0.050228 -0.172703 1.511206 -0.061348 0.237215 0.204112 0.375677 -0.136461 0.075375 0.445166 0.297821 0.440305 0.176785 0.723487 -0.167851 -0.607423 0.719122 0.749208 0.657584 -0.485389 0.987746 0.556081 0.056771 -0.771757 0.556892 0.470919 -0.921582 0.807616 -0.423061 -0.249464 0.344369
H178 0.361014 0.083529 -0.166825 -0.240765 -0.555284 0.140040 0.279104 -0.151256 -0.581723 0.118107 -0.115250 0.359659 -0.653542 0.143202 0.899986 -0.495476 0.062194 0.033733 -0.623716 -0.122483 -0.421863 0.324647 -0.298926 -0.936940 -0.108644 0.250707 0.661264 -0.898881 -0.000961 -0.227685 -0.258183 0.338052 0.945794 0.351113 0.156361 -0.141307 0.542948 0.090228 -0.297847 0.162344 0.045577 0.215891 -0.020811 -0.708762 0.639867 0.878996 0.441647 -0.062429 0.034177 -0.426499 0.301818 0.202936 0.780687 0.263146 0.665712 -0.197112 0.447259 -0.214256 0.915576 0.012047 0.093261 -0.160709 0.751797 0.503004 0.330917 -0.936934 0.339438 0.194174 0.168600 0.646811 1.134821 0.507516 -0.332556 -0.354205 -0.099673 0.205451 0.041338 0.261832 -0.328671 -0.517245 -0.301933 0.754556 -0.183533 -0.444400 0.074815 -0.585403 -0.023436 1.355529 -0.825196 0.326485 0.165196 -0.453695 -0.017546 0.040495 -0.595644 -0.215401 0.017084 0.230225 -0.205725 1.002163 0.579409 -0.083845 -0.105258 0.305886 0.273793 -0.145984 0.027293 0.470954 0.329832 -0.528700 0.581747 -0.383448 -0.338651 0.159081 0.662446 0.429149 -0.066025 0.149959 0.648085 -0.071713 -0.449455 0.169472 0.158533 -0.752714 0.231282 -0.591143 0.128343 0.130902
H15 -0.295200 -0.198744 -0.215557 -0.523300 -1.064713 0.182740 0.551209 -0.511557 -0.035421 0.624433 -0.242199 -0.707084 -0.777442 0.259836 0.425541 0.692688 -0.796903 -0.335554 0.006876 0.677767 -0.090922 -0.559166 0.066040 -0.522935 0.473351 0.333950 0.913472 -0.201301 0.232274 0.309814 -0.096915 -0.263902 0.123602 0.174834 0.580888 -0.948880 0.397732 -0.273929 -0.448775 0.405383 -0.552957 -0.054892 0.241214 -0.359176 0.086994 0.102431 0.883584 0.232827 -0.621724 -0.647106 0.698487 -0.359896 0.196965 -0.061637 0.521562 -0.874879 0.403597 0.033743 -0.008439 -0.107931 0.373967 0.295249 0.478689 0.207804 -0.134501 -0.946899 -0.146333 0.412273 0.073206 -0.163142 0.689349 -0.208864 -0.484915 -0.249476 -0.441166 -0.170217 0.069327 0.449690 -0.505164 0.458654 -0.485287 0.284880 0.054073 -0.448485 0.355882 -0.666550 -0.389473 0.369255 -0.676424 0.416416 -0.984419 -0.006918 0.344445 -0.682794 -0.270849 -0.076436 0.553866 -0.011871 -0.204358 0.756958 0.450814 -0.223884 -0.064653 0.898994 -0.453920 0.481027 -0.061796 0.297328 1.127822 0.339857 0.387055 0.647544 -0.678346 0.386216 0.582834 1.098974 0.112818 0.572058 0.866480 0.968564 -0.531205 1.018434 0.919449 -0.639111 0.653790 0.195314 -0.072688 0.202215
H132 -0.156822 0.016412 0.183599 0.445170 -0.583068 -0.250435 -0.085266 0.292702 -0.472545 0.286493 -0.054969 -0.394329 -0.683012 -0.112665 0.121685 -0.518883 0.000785 0.023500 -0.114127 -0.279327 -0.505564 -0.806889 -0.085115 -0.408532 -0.401781 -0.341188 0.627133 -0.487779 -0.133761 0.226854 -0.215706 -0.356871 0.361494 -0.315539 0.336198 -0.355111 0.672361 -0.442336 -0.366611 -0.189609 0.011132 -0.145850 0.403172 0.212699 0.100800 0.988554 0.760383 0.556806 -0.322808 -0.133971 -0.207500 0.039842 0.030347 0.066106 1.019565 -0.797256 0.700438 -0.636472 0.303763 0.264268 -0.165148 -0.358534 0.131773 0.076272 0.314731 -0.087506 -0.331091 0.205756 0.515334 0.737852 0.204417 -0.040701 -0.433891 -0.381899 0.058951 0.091716 -0.591354 0.287685 -0.151956 0.914472 -0.333776 0.574001 -0.189629 -0.880450 0.612729 -0.022671 -0.123979 -0.073490 -1.068274 0.695877 -0.003859 -0.562654 -0.327418 0.177381 -0.493431 -0.650788 -0.537213 0.176298 -0.609338 0.606013 -0.313649 -0.432315 -0.028412 0.130879 -0.320347 -0.150990 -0.089519 0.253830 0.109714 -0.371268 0.064955 0.271313 -0.514896 0.778590 0.253137 0.638676 -0.387987 0.026344 0.701321 -0.201406 -0.270659 0.526722 0.479295 0.239922 -0.333941 0.472806 0.477841 0.707393
H3 -0.306773 0.363567 -0.587914 -0.014471 -0.051658 -0.584669 -0.199948 0.930526 0.146313 0.071171 -0.394171 -0.534448 -1.017338 0.609079 -0.060847 -0.081101 0.256586 -0.005463 -0.358759 -0.516483 -0.006771 -0.944651 0.282881 -0.181264 -0.426728 -0.228762 0.295228 -0.054847 -0.549955 0.220749 0.389100 -0.571392 0.417941 0.049154 0.274422 -0.418752 0.238847 0.115682 -0.457560 0.294979 0.432435 -0.602637 0.569439 0.363622 0.166758 0.336176 0.290941 0.354425 -0.490164 0.061808 0.511418 -0.721636 -0.104827 0.023616 -0.059419 -0.073544 -0.087857 -0.035610 0.785014 -0.190108 -0.760572 -0.314339 0.286357 0.902111 -0.055339 -0.214660 -0.239794 0.208108 0.621515 0.166196 0.540249 0.324524 -0.177184 0.669760 0.401320 0.227839 -0.428150 -0.611775 -0.352702 0.695629 -0.323214 0.923206 -0.291115 -0.669460 0.203096 -0.220122 -0.358519 0.198112 -0.203782 0.685998 -0.049383 -0.608433 0.804893 0.054338 -0.418608 0.323199 0.037815 0.034845 -0.148845 0.146514 0.456169 -0.131535 -0.646263 -0.573196 -0.387615 -0.653026 -0.235049 0.661326 0.303075 -0.340802 0.987936 -0.115751 -0.242777 1.005550 0.062567 0.424614 0.519805 0.116561 1.064353 0.167550 -0.577591 -0.622322 -0.706133 -0.365436 0.108397 0.127770 -0.125514 0.352554
H119 0.030624 -0.185117 -0.231089 0.563302 -0.100039 0.173568 0.577536 0.489000 -0.101925 0.102225 -0.215711 0.104227 -0.548578 0.804096 -0.233680 0.040238 -0.172675 -0.368001 -0.590687 -0.187235 0.232852 -0.975644 0.053833 -0.867783 0.013821 -0.038314 0.511611 -0.026329 0.144637 0.138068 -0.398922 0.669514 0.797712 0.054556 -0.318515 -0.874969 0.582155 0.361843 -0.629283 0.130336 -0.027934 0.058845 0.269547 -0.040368 0.177919 0.489371 0.930971 0.606184 -1.142985 -1.059810 0.681279 -0.536693 0.635042 -0.580788 0.577889 -0.943378 -0.038997 -0.585835 0.552902 0.639538 -0.164744 -0.083621 0.079049 -0.134362 0.477449 -0.890987 0.372204 0.285365 0.198144 0.294037 0.076318 0.067818 -0.256271 0.302762 0.281913 0.556373 -0.442323 -0.497213 -0.277216 -0.070491 0.281742 0.436881 0.184100 -1.160983 0.049159 -0.387736 -0.219162 0.314946 0.402308 0.646196 -0.038519 -0.718346 0.388629 -0.498137 -0.297102 -0.074576 -0.146006 0.161590 -0.106630 0.993129 -0.423888 0.071522 -0.323828 0.068254 -0.133333 0.225075 0.342885 1.116602 0.862946 0.124341 0.115496 0.123054 -0.490911 0.551977 0.905972 0.521288 -0.742974 0.145328 0.781490 0.292449 -0.113123 0.205489 0.407950 -0.254960 0.268692 0.164095 0.083155 -0.031158
H215 0.815714 -0.369823 -0.421215 -0.398250 -0.452463 -0.420941 0.503449 0.037880 -0.360569 0.110208 -0.455752 -0.481613 -0.926964 0.099565 0.298378 -0.312738 -0.379887 -0.632980 -0.838104 0.017607 -0.083894 -0.378817 -0.485925 0.377108 -0.184560 -0.029336 0.522525 -0.116230 0.083193 0.457377 -0.127045 0.088583 0.146964 -0.311519 -0.801727 -0.184592 0.530122 0.107296 0.236838 1.365311 -0.043147 -0.056870 0.116632 -0.370095 0.144827 1.240000 0.422324 -0.586642 -0.212232 -0.431840 -0.287350 -0.059161 0.083385 0.063419 0.189147 -0.426780 -0.275102 -0.464694 0.708534 -0.883874 -0.328404 0.148461 -0.597205 -0.438701 -0.458040 -0.731074 -0.050514 -0.568411 -0.086562 0.760587 0.611110 1.129151 -0.342974 0.274540 -0.349601 -0.642679 -0.721268 0.507473 -0.137903 0.248479 -0.695340 0.539628 0.455276 0.325976 0.360937 -0.765465 -0.133890 0.455997 -0.267738 0.870266 -0.571726 0.006586 -0.042001 -0.109708 -0.161853 0.118325 0.157692 -0.183129 -0.171060 0.325255 0.552982 0.193157 0.019205 0.232756 -0.094793 -0.666642 0.642422 -0.069098 0.676401 0.438272 0.579043 0.546202 -0.347874 -0.026153 0.656004 0.259462 -0.187437 0.602339 0.563338 0.149547 -0.472360 -0.099655 0.586100 -1.162703 -0.078478 -0.259159 0.369655 0.017090
H103 0.814783 0.137175 -0.197247 -0.078421 -0.218129 -0.135385 0.494810 0.733812 -0.126105 -0.064781 -0.149114 -0.687030 -1.173325 0.885186 0.113742 -0.338567 -0.213797 0.006545 -0.474288 0.254370 -0.096816 0.146825 -0.515899 -0.146620 -0.009324 -0.082781 0.538104 -0.096795 0.276894 0.273888 0.840029 0.311186 0.403097 0.211034 0.643238 0.118468 0.546556 -0.086887 0.580979 0.211255 0.800940 0.649399 0.117688 0.251666 -0.030214 0.889581 0.937435 -0.223000 -0.330048 0.110117 0.150997 -0.654881 0.030152 -0.224595 0.774411 -0.837157 -0.350144 -0.337401 0.774018 -0.045197 0.166669 -0.935611 -0.404762 0.522809 0.126373 -0.416244 -0.276434 0.106646 0.033970 -0.029703 0.682462 -0.238144 -0.122263 -0.034059 0.126604 -0.248027 -0.391171 -0.605326 0.366089 0.417976 -0.663012 1.032776 0.135296 -0.187311 -0.265392 -0.041213 -0.084775 0.447428 -0.272077 0.713147 -0.178413 -0.580354 0.416890 -0.764555 -0.371712 0.060516 0.013970 0.053328 -0.356240 0.645651 0.670969 -0.042805 0.280295 -0.712383 -0.523301 -0.198275 -0.059615 0.884043 0.608977 -0.393923 0.110217 -0.053649 -0.251613 0.715701 -0.264381 0.247998 0.657144 0.276655 0.294461 0.421187 -0.179817 -0.151267 0.154561 -0.477313 0.682185 -0.077458 0.285095 -0.003497
H63 -0.592586 0.212450 -0.000663 -0.148984 -0.937208 -0.263495 0.218585 -0.096481 -0.260880 0.001694 -0.311675 -0.658515 -1.030524 0.432887 0.098299 -0.118761 -0.017453 0.005949 -0.096554 0.189934 0.383044 -0.393742 -0.050286 -1.035606 -0.699601 -0.505718 1.263415 -0.357845 -0.790460 0.515159 0.119018 -0.165509 0.457708 0.363867 -0.186564 -1.058164 0.432394 -0.645766 -0.593490 0.138990 -0.061413 -0.448311 -0.463284 -0.251875 -0.486986 0.264616 1.242476 0.058350 -0.410985 -0.660264 0.779049 -0.402361 0.182062 -0.331441 0.157308 0.089901 -0.246598 -0.742358 0.238162 0.386716 0.085733 -0.567666 1.216276 0.292470 -0.124552 -0.326556 -0.290056 0.187510 0.359769 0.408187 0.970401 -0.034958 -0.535583 0.259030 0.551396 -0.119057 0.069636 0.035026 -0.425041 -0.327182 0.092331 0.671339 -0.272301 -0.300549 0.011913 0.078631 -0.089198 0.567168 -0.482064 1.042225 -0.365650 -0.463709 -0.196390 -0.007023 -1.244984 0.227800 -0.235811 -0.121686 -0.773091 0.428538 0.605565 -0.469706 -0.470395 0.797102 0.059505 0.333822 0.475593 0.469065 0.952836 -0.096716 0.626976 0.027219 -0.159309 0.706789 0.302993 0.903808 -0.135321 0.366771 0.875805 0.391607 0.265687 0.397549 0.542559 -0.331567 0.783673 -0.264032 0.164781 0.356882
H74 0.403316 0.015183 -0.206512 0.099914 -0.569227 -0.070979 0.105793 0.339388 -0.001732 -0.063703 -0.114349 -0.356272 -0.945831 0.377491 0.093257 -0.342643 0.265692 -0.326365 -0.313787 0.087191 0.151677 -0.471305 -0.079291 -0.368011 0.127460 -0.346551 0.466511 -0.326043 0.146229 0.398275 -0.034054 -0.117030 0.428064 -0.067435 -0.005378 -0.003157 0.680580 -0.100504 -0.144763 0.427236 0.048458 -0.145284 0.504114 -0.052629 0.188786 0.597447 0.763617 -0.182520 -0.376704 -0.319702 0.115642 -0.264355 0.095933 -0.222424 0.141312 -0.141849 0.031285 -0.324210 0.527242 -0.024230 -0.010434 -0.260548 0.275148 -0.093751 -0.040659 -0.482790 -0.209702 -0.139475 0.115863 0.059425 0.538255 0.590347 -0.490309 -0.118984 -0.333964 -0.199878 -0.249976 0.049541 -0.120053 0.257525 -0.567763 1.068625 -0.143810 -0.621063 0.205368 -0.389283 -0.329062 0.304832 -0.622156 0.620668 -0.511599 -0.444017 0.186627 -0.181276 -0.482288 -0.224839 0.070287 -0.048280 -0.218758 0.592248 0.544588 -0.229084 -0.115344 0.146865 -0.344949 -0.242114 0.016585 0.258936 0.600537 0.016547 0.656995 -0.223839 -0.540751 0.360055 0.437707 0.518853 0.057328 0.392524 0.651867 0.267169 -0.436190 -0.199970 0.218022 -0.164984 0.235466 -0.106247 0.146712 0.324871
H152 0.720378 -0.258207 -0.774425 0.376124 -0.532842 0.244613 -0.164459 0.556393 -0.277220 -0.320681 -0.228281 -0.330027 -1.059208 0.324465 0.499129 -0.397295 -0.905371 -0.107040 -0.775616 -0.437562 0.302505 -0.771009 -0.158299 -0.484938 0.251648 0.564344 0.196826 0.245766 -0.007987 0.173052 -0.007292 0.477518 0.724065 0.056003 -0.517258 -0.633894 0.493918 -0.129677 0.336493 0.389950 0.298660 -0.488456 0.196739 0.213030 0.177536 0.812501 0.209647 0.098206 -0.953843 -0.198725 -0.337302 -0.000205 0.770560 -0.452705 -0.051534 -0.248616 -0.116831 -0.790619 0.586556 0.118058 -0.314826 -0.435696 0.464567 0.002233 0.388860 -0.779922 0.152633 -0.290567 0.251261 -0.133956 0.209366 0.365587 -0.301658 -0.553046 0.310904 -0.278806 -0.267905 -0.333905 0.131697 -0.068416 0.043071 0.659934 0.101614 -0.646514 0.321542 -0.776027 0.146982 0.262998 -0.817948 0.099581 0.539906 -0.255565 0.232872 -0.423882 -0.381942 0.241925 -0.299119 -0.026681 -0.187683 0.424999 0.137642 -0.020308 -0.470967 -0.050138 0.171123 -0.353240 -0.273293 0.388275 0.745746 -0.295435 0.125349 0.100669 -1.350589 0.757510 0.926815 0.290133 -0.521770 0.332206 0.437559 0.043863 -0.174800 -0.024970 -0.052842 -0.717425 0.402363 -0.688624 0.882994 -0.175470
H189 0.367470 -0.030494 -0.241998 0.151285 -0.420436 -0.156832 0.182902 0.310023 -0.095392 -0.078646 -0.208586 -0.317997 -0.859886 0.389763 0.078684 -0.191388 0.099065 -0.241061 -0.330599 0.104737 0.040881 -0.502351 -0.042576 -0.226800 0.143319 -0.330366 0.412908 -0.273388 0.041414 0.421833 -0.063506 -0.162122 0.386869 0.020584 -0.023112 -0.170927 0.600407 -0.034021 -0.097760 0.295758 0.101325 -0.110886 0.489899 -0.035379 0.136445 0.528935 0.704321 0.074893 -0.412298 -0.369794 0.065338 -0.366750 0.143641 -0.038283 0.250899 -0.347416 -0.038295 -0.371068 0.382571 -0.066760 -0.025465 -0.248778 0.232280 -0.090706 -0.087608 -0.606126 -0.175861 -0.074308 0.178012 0.161796 0.542687 0.419811 -0.512325 0.014306 -0.234943 -0.141741 -0.177863 0.053696 -0.162797 0.255942 -0.594509 0.860406 -0.043334 -0.550249 0.282717 -0.314832 -0.364836 0.228240 -0.564403 0.607232 -0.392561 -0.395618 0.165830 -0.093805 -0.363559 -0.190735 0.019558 0.092047 -0.211927 0.629998 0.533281 -0.301805 -0.201379 0.181644 -0.361221 -0.329120 0.018120 0.300315 0.592942 0.014763 0.604151 -0.070979 -0.539215 0.374468 0.558740 0.516943 0.092395 0.313432 0.628265 0.279927 -0.395135 -0.273382 0.163686 -0.190895 0.113662 0.005963 0.121091 0.253989
H184 0.444066 0.019586 -0.270511 0.196349 -0.525713 -0.091462 0.141895 0.448022 -0.130391 -0.099036 -0.159697 -0.349631 -0.952705 0.464859 0.136373 -0.206896 0.147349 -0.253927 -0.326765 0.128843 0.115738 -0.523315 -0.067114 -0.282581 0.109228 -0.359892 0.462196 -0.266367 0.049353 0.429509 -0.030349 -0.051721 0.368148 0.025126 0.022788 -0.145142 0.624448 0.004183 -0.054924 0.289343 0.067073 -0.090058 0.510086 -0.005036 0.121932 0.620680 0.729387 0.048091 -0.527654 -0.412279 0.101786 -0.408301 0.255026 -0.075948 0.253981 -0.353281 -0.033168 -0.416801 0.426312 -0.025489 -0.010088 -0.257915 0.302575 -0.007849 -0.072265 -0.621264 -0.146805 -0.059051 0.137502 0.156843 0.579995 0.408320 -0.615730 -0.006624 -0.229321 -0.142839 -0.200936 -0.073593 -0.116997 0.271889 -0.593166 0.982300 -0.094052 -0.621960 0.296350 -0.328937 -0.392217 0.265905 -0.639793 0.681170 -0.458849 -0.483642 0.189091 -0.177537 -0.376430 -0.269907 0.060373 0.175807 -0.206875 0.685571 0.562481 -0.346820 -0.242786 0.149872 -0.337568 -0.347975 -0.011362 0.366603 0.650205 0.021495 0.659268 -0.067764 -0.644771 0.466118 0.503908 0.587562 0.113632 0.321019 0.689243 0.272802 -0.415263 -0.328250 0.176341 -0.212269 0.155294 0.005488 0.117945 0.296183
H123 0.575382 0.304286 -0.402448 0.157908 -0.045849 -0.229897 -0.080033 0.352307 -0.383614 0.075774 0.123470 0.223149 -0.403020 -0.016263 0.677051 0.118191 -0.116738 -0.440650 -0.491253 -0.006421 0.239195 -0.778452 -0.084372 -0.324148 0.417883 0.107819 0.531187 0.164759 0.074832 0.105977 0.261355 0.121987 0.372511 0.175184 0.219499 -0.114591 0.717085 0.533301 0.436558 -0.057380 0.268624 -0.049216 0.666278 0.223186 0.129575 0.580677 0.092353 0.117000 -0.231301 -0.025890 -0.165528 -0.301582 0.288083 0.058408 0.596418 -0.472864 -0.303656 -0.028919 0.235723 -0.495794 -0.047010 0.142997 -0.363975 -0.316220 0.109126 -0.444059 0.302316 0.196019 0.550069 -0.248103 -0.181434 0.416045 -0.340825 -0.089257 -0.105472 0.439097 -0.534851 -0.351045 0.500405 0.199427 -0.403467 0.485880 -0.092153 -0.061752 0.057968 -0.572308 -0.648678 -0.045315 -0.721158 0.426430 -0.709824 -0.801957 0.461881 -0.175812 -0.018597 -0.641538 0.067859 -0.085694 0.434815 0.394379 0.574813 -0.283244 -0.276724 0.327689 -0.559083 -0.519386 0.062550 -0.172956 0.626316 0.037869 0.533303 -0.150417 -0.346502 -0.184617 0.656173 0.421950 -0.057314 0.302144 0.081929 -0.003485 -0.195992 -0.129894 0.246733 -0.610031 -0.409066 -0.135687 0.099483 0.349029
H86 0.118582 0.353940 -0.355850 -0.084601 0.030985 0.079272 -0.014351 0.305729 0.002276 -0.319252 0.162758 -0.100567 -0.307344 0.322653 0.104773 0.076603 -0.141890 0.202035 -0.453863 -0.069514 -0.225181 -0.382428 0.470927 0.335782 0.850081 -0.049675 -0.064559 -0.023921 0.574314 0.447593 0.082271 -0.264801 -0.127340 -0.186542 -0.544741 -0.073894 0.322573 -0.173669 0.056869 -0.065330 0.468218 0.237180 0.385745 0.090406 0.238701 0.259340 0.283361 -0.188892 -0.363072 -0.276452 -0.163181 -0.184066 -0.106894 0.115334 0.348869 -0.507492 0.099980 0.487452 0.475407 0.325550 -0.411607 -0.388679 0.284394 0.046408 0.213726 -1.105980 0.005715 -0.261911 0.000798 0.102846 0.618858 0.618566 -0.538430 0.188355 -0.541134 -0.185487 0.255641 0.251407 0.239212 0.091637 -0.216346 0.810423 -0.404531 -0.625618 0.122349 -0.569639 -0.806967 0.061963 -0.443516 0.033629 -0.254210 -0.093352 0.012249 -0.265662 -0.298591 -0.359913 0.406620 -0.082450 -0.057458 0.270256 0.240958 -0.752636 -0.327564 -0.115197 -0.443807 -0.106716 -0.159392 0.682383 0.112565 0.154775 0.503065 -0.313046 -0.600872 0.112185 0.623434 -0.193527 0.325632 -0.116115 0.245283 0.261046 0.024605 -0.020602 -0.607810 0.111332 -0.147280 0.226619 0.239642 0.477928
P200 0.427533 -0.254835 0.009904 0.062100 -0.498180 -0.541410 -0.203842 0.316054 -0.170228 -0.200952 0.159981 -0.673003 -0.541154 0.332438 0.018183 0.002537 0.488970 0.044058 -0.189102 -0.014242 0.327718 -0.480747 -0.159088 -0.609647 -0.145571 -0.322764 0.169260 -0.352165 -0.640716 0.193580 0.315043 0.107697 0.272954 -0.070933 -0.419876 0.389862 0.384015 -0.165127 0.120056 0.270626 -0.327142 -0.603259 0.185125 0.385096 0.430745 0.396723 0.425720 0.134430 -0.673297 0.008576 0.337017 -0.539596 0.236207 -0.181283 0.251158 -0.069282 0.331540 -0.454339 0.022401 0.168874 -0.252528 -0.218690 0.463089 -0.700916 0.014413 -0.091072 -0.222374 0.204446 0.216079 -0.086143 0.318130 0.118637 -0.360603 -0.075804 -0.038835 0.187549 -0.222212 -0.341827 -0.489812 -0.044079 -0.192129 0.589459 -0.546962 -0.244150 0.182965 0.116057 -0.140765 0.086594 -0.097869 0.902524 -0.014161 -0.695318 0.200028 0.007210 -0.535445 0.049522 -0.293300 0.234997 -0.342268 -0.093391 0.543125 0.303990 0.174492 0.499650 -0.235624 0.049484 0.246497 0.220990 0.789808 0.212581 0.643587 0.299644 -0.286879 0.734389 0.274898 0.938428 0.324399 0.439327 0.242057 0.671517 0.054474 -0.078702 -0.207859 -0.099205 0.104113 -0.395979 -0.208018 -0.016865
H112 0.048084 0.257444 0.259583 0.434720 -0.456595 -0.096562 -0.532823 0.451524 0.228012 -0.582115 0.045982 0.048972 -1.015511 0.326082 0.522006 -0.264550 0.294924 -0.788255 -0.201854 0.339605 -0.105449 -0.499175 0.141093 -0.781814 -0.102570 0.131412 1.164598 0.246897 -0.383507 -0.053039 0.339009 0.581021 0.542146 -0.199708 0.613366 -0.591282 0.649038 -0.229874 -0.259803 0.013228 -0.406505 -0.045245 0.556294 0.339231 -0.095381 0.140626 0.816323 0.114411 -0.558886 -0.232122 0.410736 0.112942 0.105426 -0.141917 0.239361 -0.135471 -0.150781 -0.504219 0.582877 0.238860 -0.095152 0.039539 0.901283 -0.197156 -0.480809 -0.149296 -0.180433 0.503483 0.213836 0.728896 0.490072 0.283701 -0.233436 0.087656 0.213764 -0.088216 -0.340484 0.046511 -0.113979 0.261193 -0.872550 0.499225 0.287380 -0.016862 -0.320283 -0.037277 -0.658008 0.522577 -0.733126 0.517458 -0.204520 -0.559973 -0.288145 -0.334194 0.030370 -0.416744 0.426354 1.045250 -0.189045 0.393382 -0.133676 -0.289901 0.191175 0.164773 -0.200137 0.045249 0.022732 0.129732 0.353352 0.316475 0.029642 0.453514 -0.360132 0.632391 0.179274 0.272183 -0.166123 -0.035305 0.745708 0.513004 -0.356118 -0.333797 0.316483 0.019584 0.594313 0.098772 -0.323508 0.305714
H57 -0.210525 0.005413 0.244432 0.137975 -0.538877 0.285304 0.422476 0.638408 -0.849789 -0.635914 -0.313531 -0.400722 -0.419602 0.271530 0.212493 -0.009362 0.337155 -0.136228 -0.497397 0.617100 0.128024 -1.159161 -0.057463 -0.202818 -0.071440 -0.325375 -0.181451 -0.048279 -0.274554 0.309234 0.079437 -0.187589 0.255427 -0.401925 0.588886 -0.469043 0.036036 -0.273251 -0.266731 0.357185 0.368062 -0.187960 0.067458 0.584821 -0.239617 0.232074 0.392519 -0.251434 -0.290258 -0.625678 -0.020375 -0.697181 0.180728 0.196247 0.306999 0.034240 0.376543 -0.035757 0.017982 -0.125805 0.535832 -0.183913 0.108380 -0.139812 -0.273051 0.140150 0.225190 -0.019471 0.899315 -0.270706 0.668039 -0.035837 -0.919895 -0.704141 -0.055016 -0.087755 -0.150734 -0.261005 -0.371637 -0.036753 -0.290330 0.610147 -0.230396 -0.882401 0.378341 0.266373 0.191975 0.071440 0.107176 0.060765 -0.411925 0.163884 0.086241 -0.477366 -0.622692 -0.530200 -0.301877 0.195272 -0.400094 1.023609 0.439640 -0.246902 -0.346893 0.225374 0.000383 0.429311 -0.146214 0.058474 0.729726 0.049320 0.927368 -0.052155 -0.968562 0.384214 0.520800 0.782023 -0.316907 0.435851 0.535443 0.422780 -0.382189 -0.635582 0.155548 0.033313 0.284519 -0.127413 0.379973 -0.356078
H38 0.168251 -0.143811 0.052273 0.594804 -0.170026 0.272211 -0.019657 0.521285 -0.570237 -0.173453 -0.347121 -0.005292 -0.895352 0.503697 0.268987 -0.074050 0.436817 0.001560 -0.452099 -0.161328 0.261717 -0.397428 0.074407 -0.957248 -0.019459 -0.334544 0.542590 -0.367458 0.603316 0.254193 -0.309255 0.070704 0.612476 0.141091 0.263049 0.271254 0.845337 0.220293 0.065794 -0.285603 -0.342722 0.363270 -0.193362 -0.456762 -0.188657 0.078208 0.092465 0.122142 -0.529573 0.047041 0.722682 -0.604232 0.499159 -0.279250 -0.022802 0.268253 0.104376 -0.849392 0.449695 0.347653 0.043293 -0.746251 0.397493 -0.014898 -0.045899 -0.383156 0.257992 -0.121834 0.354419 -0.419562 0.831482 -0.340732 -0.771080 -0.173758 -0.222652 0.280560 0.565092 -0.039539 0.018198 -0.402258 -0.088625 0.329741 -0.431869 -1.061939 0.276644 -0.003285 -0.249669 0.718704 -0.531213 0.131989 0.126659 -0.707900 0.427040 -0.669802 -0.385808 -0.366516 0.216614 0.198898 -0.449528 0.750210 0.623583 -0.245357 -0.700253 -0.276726 -0.029073 -0.070662 -0.517870 0.555867 0.870009 -0.061311 0.115914 0.205889 -0.669523 0.838387 0.312155 0.357826 0.468793 0.138421 0.491000 0.257808 -0.300942 -0.091984 0.330795 0.335044 -0.007655 0.676749 0.298871 -0.039176
P964 0.413785 -0.068086 -0.172914 0.122341 -0.505690 -0.067627 0.439298 0.351156 0.134644 0.009382 -0.326444 -0.242436 -0.688982 0.236332 -0.073280 -0.328757 0.437276 -0.485283 -0.062976 -0.344638 -0.338078 -0.519090 0.108204 0.142430 -0.047310 0.341885 0.850544 -0.416264 -0.486799 0.067266 -0.028610 0.142246 0.512658 0.257197 -0.368486 -0.164368 0.017727 0.040513 0.209324 -0.197864 -0.043530 -0.261290 0.299125 0.022706 0.170989 0.438582 0.691381 -0.220610 0.074468 -0.793841 -0.410762 -0.600808 -0.051701 0.144118 0.563204 -0.066848 0.170401 -0.506968 0.015667 -0.130417 -0.291453 -0.097052 -0.165060 0.266958 0.440986 -0.115513 0.271116 -0.037860 0.048955 0.012005 0.823514 0.432860 -0.474566 -0.504156 -0.395563 -0.035211 -0.660963 0.273225 0.008154 0.175179 -0.739127 0.474183 0.250600 -0.310800 0.140124 -0.097436 0.038949 0.291564 0.336775 0.256683 -0.282749 -0.393657 -0.104539 -0.007152 -0.779448 0.159055 0.027340 0.626235 -0.393498 0.879667 0.506092 -0.216842 -0.086593 0.100623 -0.502462 -0.591796 -0.226776 0.045875 0.187896 -0.029594 0.672174 -0.446210 -0.028099 0.339723 -0.001439 0.014239 -0.278897 0.231392 0.976849 -0.075061 -0.085315 -0.437742 -0.138757 -0.372612 -0.099416 0.072312 0.345737 0.019551
H12 0.897492 -0.341219 -0.192907 0.028247 -0.570253 -0.184538 0.358680 0.165784 0.202888 -0.065061 -0.239304 0.103132 -0.634414 0.378623 0.469368 0.191605 0.366414 -0.304031 -0.086116 0.187481 -0.392022 0.106087 0.023613 -0.059800 -0.047037 0.312529 0.861293 -0.127535 0.021304 0.370398 -0.375487 -0.430084 0.003438 -0.204270 0.185365 -0.416893 0.826684 -1.029749 -0.104211 0.844199 -0.109360 -0.244170 -0.240612 -0.673173 0.571500 0.202411 0.741111 0.050829 -0.972071 -0.031914 0.255117 -0.467720 -0.017999 -0.680136 -0.005729 0.672100 0.373899 -0.421739 0.914722 0.503373 0.311895 -0.183690 0.791422 0.214468 -0.417213 -0.441285 0.167731 -0.104062 -0.341823 -0.158453 1.310666 0.813030 -0.226945 0.375917 -0.272510 -0.637958 -0.189775 0.915625 -0.353728 -0.209293 -1.066803 0.487439 -0.074348 0.194860 0.225328 -0.281056 0.510189 0.169446 -0.500135 -0.117672 -0.295827 -0.218306 -0.593949 0.210228 -0.502037 0.271550 0.034241 0.047340 0.138426 0.720141 0.507324 -0.541340 -0.172146 0.895088 -0.141421 -0.236993 -0.117491 0.130348 0.353439 -0.165312 0.413991 -0.332927 -0.695961 0.609592 0.511958 0.802117 0.325201 -0.069660 1.171599 0.353412 -0.230947 -0.205825 0.800438 -0.653671 0.415722 -0.038587 0.176513 0.188844
H14 0.180551 0.115169 -0.357897 0.156577 -0.077195 -0.034593 0.466756 0.306918 -0.017024 -0.143666 -0.377456 0.104640 -0.637231 0.684638 0.433308 0.111953 -0.462157 0.041203 -0.040946 -0.099260 -0.179918 -1.142543 -0.098107 -0.461300 0.121454 -0.180176 0.339786 -0.258345 0.190808 -0.156617 -0.053142 -0.145254 0.643203 0.021055 0.309757 -1.060676 0.200483 -0.174460 0.313413 -0.086873 -0.224173 -0.435210 0.792085 0.408216 -0.012208 -0.184851 0.507472 0.988946 -0.677911 0.031789 0.353729 -0.382240 -0.162574 0.565245 0.022041 0.080443 -0.415580 -0.481804 -0.050973 0.366888 -0.020613 -0.150021 0.697921 -0.753269 -0.408399 -0.452466 -0.479433 -0.391352 0.673756 0.057654 0.724804 -0.122339 -0.774107 -0.410258 -0.068443 0.123296 -0.175632 -0.030099 -0.758184 0.157167 0.073714 0.264549 -0.391122 -1.234797 -0.071723 -0.609861 -0.390028 -0.067938 -0.588345 0.460052 0.445266 -0.712665 0.594910 -0.142204 -0.261296 -0.053331 -0.205510 0.353136 -0.341429 0.553180 0.389059 0.198582 -0.076213 -0.251198 -0.467561 -0.034243 -0.483241 0.112854 1.170188 -0.084164 0.392569 0.765157 -0.409918 0.637446 0.122919 0.921519 -0.171409 0.189109 1.159302 0.441653 -0.304894 0.011618 0.323514 -0.593249 0.316453 -0.205110 -0.070383 0.030550
H21 0.244806 0.625778 0.657987 -0.193639 -0.582706 -0.011849 -0.090700 0.038352 -0.057180 0.250402 -0.131282 -0.387984 -0.781494 0.172738 -0.223862 -0.233872 0.620000 -0.125902 0.076955 0.646017 0.544646 -0.099293 0.318200 -0.139838 -0.445255 -0.222583 0.492801 -0.282869 -0.348884 0.506526 0.116375 -0.325925 -0.188747 0.191486 0.159254 -0.400972 0.654409 0.124255 -0.200314 0.570059 0.135107 0.709725 0.703209 0.029718 -0.358139 0.200603 0.726014 -0.314520 -0.143686 -1.109301 0.374383 -1.034632 -0.377667 0.147102 0.050763 -0.389020 -0.286427 0.058553 0.089140 0.098284 0.532147 0.000551 0.621571 -0.211414 0.362332 0.019251 -0.712044 -0.404404 -0.033318 -0.045314 0.714781 0.102800 -0.643082 0.105396 -0.306878 0.040785 0.148203 -0.213004 -0.171738 -0.159967 -1.356289 0.364976 -0.027481 -0.221313 -0.101069 0.092583 -0.173107 0.376810 -0.780936 0.235561 -0.694561 0.051838 -0.053352 -0.607269 -0.678908 -0.498447 0.123279 -0.092147 -0.602906 0.596696 0.647942 -0.680844 -0.803293 0.245720 0.136573 -0.005097 0.509072 -0.149716 0.461807 0.196901 0.384018 -0.287063 -0.406810 0.270790 -0.164154 1.016659 0.677281 0.289214 0.423693 0.585987 -0.316485 -0.034556 0.045158 -0.008855 0.623483 -0.079213 -0.853984 0.917483
