1622 128
H79 0.055678 0.015006 0.398597 -0.045783 0.105280 -0.315154 0.019245 0.112203 -0.362685 -0.484457 -0.067179 0.056282 0.522177 -0.129010 0.513033 -0.101561 0.156130 0.280899 -0.373038 -0.165908 -0.042366 -0.132148 0.213038 0.192211 0.301741 0.046511 -0.642857 0.174551 0.254695 0.035036 0.030566 -0.132829 -0.249402 0.104960 0.297596 0.592633 0.045213 0.346717 -0.197187 0.515784 0.111331 -0.180844 0.428182 0.019719 0.171526 -0.038273 -0.165378 0.281946 0.485744 -0.398131 -0.121663 0.124179 0.051530 0.455202 0.149890 -0.178443 -0.264079 -0.006224 0.386238 -0.227977 0.235403 -0.131286 -0.314746 -0.603013 0.080430 -0.268620 -0.192664 -0.047799 0.252003 0.063012 -0.158636 0.073038 0.232000 0.231643 -0.320653 -0.217961 -0.003723 -0.295089 0.105839 -0.040270 -0.263764 0.382006 0.048340 -0.000860 -0.046955 0.064946 0.154668 -0.155417 0.010240 -0.014869 0.041422 -0.168437 0.393290 -0.528283 0.335755 -0.150868 0.164374 -0.157955 -0.271868 0.193233 -0.338156 -0.425332 -0.419366 -0.077947 -0.580098 0.467388 -0.087247 0.013713 -0.597102 0.253488 0.080606 -0.279891 0.187095 -0.038982 -0.044899 0.031345 0.313032 -0.333084 -0.528677 -0.256312 -0.123726 -0.033005 0.066756 0.396466 0.062395 0.359784 -0.301615 -0.212462
H95 -0.447936 0.036585 0.055368 -0.154105 0.060994 0.165014 0.164488 -0.294898 0.045888 -0.116621 -0.425929 0.142709 0.523730 0.179166 -0.187895 0.098776 0.171577 0.419289 -0.574228 0.162796 0.126729 -0.146273 -0.112627 0.153790 0.053781 -0.099604 -0.454772 0.328216 0.087657 0.222284 0.124375 -0.579742 -0.135939 0.235569 -0.056074 0.034672 -0.155981 0.428252 -0.013371 0.114412 0.249851 0.159097 0.465846 -0.594226 -0.191492 -0.192178 0.139779 0.411212 0.237444 -0.451468 0.370625 0.013976 -0.211738 0.341292 0.428717 -0.542997 0.192033 0.556852 0.147352 0.208945 0.360244 0.135399 -0.111511 -0.139898 -0.391951 -0.275850 0.343187 -0.433466 0.489814 -0.196359 0.271772 -0.058917 -0.092264 0.443455 0.313079 -0.721583 -0.049068 -0.246589 0.113848 0.014881 -0.219150 0.197502 0.325083 0.106560 0.033828 0.517612 -0.140509 -0.287729 0.422613 0.097953 -0.135291 0.337102 0.415875 -0.447515 0.096916 0.588702 0.126543 -0.305686 -0.576663 -0.186444 0.268865 0.018056 -0.129698 -0.007528 -0.042884 0.407737 0.010904 0.220851 -0.384415 -0.317393 0.181578 -0.091667 0.048923 -0.068828 -0.440579 0.171818 0.119527 -0.421949 -0.471556 -0.292879 0.194193 0.500147 0.371083 0.210298 0.325602 0.287001 0.023051 -0.273674
H209 -0.013097 0.090145 0.730947 -0.080739 0.187676 0.037039 0.481723 0.257586 -0.171888 0.223294 -0.298099 -0.028824 0.260711 -0.442835 -0.155242 0.216219 -0.009453 0.124995 -0.442624 0.115237 0.300185 0.102729 0.205042 -0.661725 0.614171 -0.172393 -0.368285 0.176992 -0.057991 0.468799 -0.307170 -0.232206 -0.315192 -0.033785 0.015456 0.201251 -0.077354 0.222725 -0.469893 -0.135235 -0.014382 0.307389 -0.008977 -0.670518 -0.032828 0.312697 -0.012913 0.158051 -0.090523 0.098081 -0.094071 0.140015 0.761069 0.198361 0.340789 -0.216748 -0.156580 0.286933 0.700485 0.484352 0.786870 -0.324666 0.211609 0.217171 -0.426513 0.635569 0.759421 0.302123 0.237129 -0.146856 0.110196 0.020112 0.472476 0.576072 0.266889 -0.582495 -0.158338 -0.395056 -0.155724 -0.273530 0.069995 0.488366 0.062508 -0.567070 0.412233 0.015351 -0.165475 -0.124808 -0.293227 -0.515924 -0.143174 -0.292502 0.384069 -0.109133 -0.588709 0.438558 -0.207159 0.012077 -0.564401 0.075763 -0.389035 0.084694 -0.037398 -0.044798 -0.415000 0.104984 0.210202 0.383261 -0.514283 -0.116876 -0.327002 -0.644680 -0.235883 0.263303 0.275935 0.193115 0.175991 0.063752 -0.646470 0.113958 0.334389 -0.102615 0.398846 0.276961 -0.035274 0.477736 -0.066611 -0.135588
H191 -0.188516 -0.256347 0.294739 0.170442 -0.114080 -0.203556 0.684891 0.300832 -0.434525 -0.194741 -0.024825 0.184126 0.257060 -0.367617 -0.655690 -0.152824 0.416377 0.575217 0.064946 -0.359424 0.227621 -0.589770 0.080954 -0.091109 0.079199 0.039574 0.291348 0.096172 0.094736 0.077270 0.084138 -0.433691 0.478166 -0.266677 0.792997 0.284495 -0.244171 -0.205923 -0.089722 -0.047299 0.182801 -0.316759 0.739049 -0.657698 0.706478 0.223313 0.397222 0.390318 0.436163 -0.427847 0.073438 0.076007 -0.311853 0.023857 0.314085 -0.101593 0.077284 0.153782 0.436219 0.181278 0.025358 -0.379698 -0.482513 -0.197676 0.150725 0.433918 0.148724 -0.055757 0.200943 -0.441645 0.325038 0.218915 0.701337 0.375765 0.381055 -0.149440 -0.086583 0.021755 -0.280720 -0.155532 -0.249965 0.504230 -0.135159 -0.211191 0.064830 0.413103 0.090473 -0.297698 0.487655 -0.760941 0.059728 -0.383395 0.425394 -0.211194 -0.542315 0.305076 -0.054876 0.220331 0.045652 0.241376 0.205756 0.123932 0.101731 0.021477 0.031672 -0.097626 0.414797 0.015059 -0.228896 0.193358 -0.067717 -0.523153 0.337854 -0.027284 -0.440349 0.593751 -0.201471 0.153411 -0.507329 0.056822 0.290589 0.096196 0.401715 -0.003027 -0.089266 0.522322 -0.258743 -0.484351
H149 0.302597 0.002339 0.271815 -0.476337 -0.240435 0.676300 0.548281 -0.076411 0.225831 -0.089508 0.037599 -0.131020 0.656385 -0.243763 0.538592 0.090076 -0.160294 0.173426 -0.673977 -0.071053 -0.396565 -0.298763 -0.124868 -0.245470 0.379601 0.068798 -0.151097 0.170502 -0.088732 0.367010 -0.123132 -0.201207 -0.390582 -0.210986 0.717368 0.028207 -0.647194 0.043783 -0.080568 0.019837 -0.190905 0.202107 0.540719 -0.418713 -0.161843 0.367872 -0.013196 0.666904 0.570523 -0.445816 -0.140402 -0.197360 0.451500 0.319511 0.449572 -0.465675 -0.035848 0.187801 0.038767 0.152813 0.639791 -0.491362 0.007928 -0.073905 0.199771 0.191882 0.435794 -0.640884 0.192069 0.587138 0.414871 -0.214516 0.509669 0.387307 0.159144 -0.469615 -0.433838 0.010483 -0.125018 -0.143316 -0.221071 0.051806 -0.048476 -0.063996 0.267633 0.863758 0.183509 -0.397447 -0.275929 -0.179125 -0.054047 0.057649 0.439203 0.076580 -0.361828 -0.090562 0.240945 0.130250 0.155433 0.263209 0.135697 0.696209 -0.164983 -0.308504 -0.400731 -0.032783 -0.216049 -0.428019 -0.028746 -0.194202 0.124670 -0.242860 0.183075 0.088791 0.388046 0.301413 -0.293980 0.285400 -0.423205 0.307313 -0.034544 0.124529 0.683206 -0.248058 -0.022564 0.572956 0.279528 -0.368308
H87 0.179473 -0.532155 0.735936 0.255127 0.196855 0.035267 0.407569 -0.011431 -0.015992 -0.411888 -0.588539 -0.099865 0.338881 -0.385912 0.436730 -0.566533 0.336442 0.174629 -0.173539 -0.150441 -0.174215 -0.244852 -0.116350 0.269297 0.406835 -0.328613 -0.576330 0.060173 -0.052164 0.183945 0.285747 -0.193244 -0.187008 0.245815 0.566236 0.616329 -0.187265 -0.097741 -0.216814 0.523902 0.372121 -0.379552 0.225005 -0.483168 0.093781 -0.154404 -0.153703 0.444915 0.249016 -0.560451 -0.189057 0.219475 0.415858 -0.019370 0.007546 -0.377437 -0.180309 -0.387034 0.567027 -0.345689 0.163271 -0.302286 -0.322937 -0.286336 0.105052 -0.078094 0.224787 0.240825 -0.297798 0.180494 0.010920 0.032574 0.741643 0.410985 -0.190738 -0.271765 -0.156338 -0.194635 -0.136141 0.159909 -0.753897 0.224455 0.185962 0.151951 0.171668 0.183181 0.442621 -0.008331 0.124650 -0.188330 0.130512 0.148051 -0.139603 -0.043751 0.299409 0.167330 -0.140897 0.009385 0.136611 -0.162498 -0.371621 -0.334020 -0.066668 0.005492 -0.378734 0.731674 -0.143129 -0.077027 -0.457946 -0.274913 0.264861 -0.589479 -0.169471 0.089566 0.290419 0.326796 0.483662 -0.390713 -0.799262 -0.548837 0.382860 0.251496 0.040592 0.310341 0.273718 0.659836 0.031562 -0.085211
H89 0.166184 0.287261 1.006637 -0.169892 0.410574 -0.184152 -0.114102 0.070621 -0.829598 -0.331101 -0.344397 -0.024169 0.801028 -0.329526 0.382663 -0.004900 0.016649 -0.147354 -0.316735 0.062256 0.135212 -0.307107 0.014867 -0.238297 0.307886 0.216805 -0.315882 0.515146 -0.048397 -0.020133 0.397346 -0.215617 0.107089 0.205943 0.621587 0.359359 0.236395 0.340882 -0.011928 0.255692 0.425470 0.164076 0.338496 0.078088 -0.028558 0.035131 0.248398 0.210137 0.432969 -0.287390 0.015383 0.135844 0.016868 0.558942 0.432881 -0.328747 -0.204178 -0.168808 0.369904 -0.321191 0.214278 0.011705 -0.198291 -0.503600 -0.124382 -0.318576 0.066294 0.303692 0.315101 -0.355427 -0.153234 -0.314039 0.152876 0.057358 -0.155915 0.156500 -0.266484 -0.645151 0.146664 -0.029544 0.049213 0.160651 0.229251 -0.251127 0.129043 -0.015920 -0.092684 -0.400489 -0.133887 -0.124337 -0.078390 -0.376072 0.740901 -0.315928 0.027177 -0.668224 0.297335 0.049528 0.094610 0.158601 -0.182290 -0.069201 -0.253121 0.168243 -0.705260 0.624319 0.331577 0.017260 -0.396017 0.384452 -0.240567 -0.266248 0.556926 -0.151618 -0.006932 0.178635 0.002806 -0.255970 -0.642749 -0.226969 0.103225 0.136790 0.578384 -0.124565 0.174839 0.405529 -0.056733 -0.009025
H106 -0.201837 -0.049191 1.333366 0.399347 -0.292068 -0.237366 0.144812 -0.213632 0.015652 -0.255683 -0.181910 -0.063345 0.704981 -0.620563 -0.254590 0.632997 0.117813 -0.144364 -0.085874 0.139286 -0.459829 0.258124 -0.096098 -0.029838 0.748800 -0.073284 -0.475835 0.809757 -0.014084 0.052294 -0.048807 -0.174169 0.173857 -0.179952 0.613373 -0.127066 -0.445834 -0.031671 -0.347984 0.055046 -0.130799 -0.205127 0.820139 -0.282040 0.089628 0.301494 -0.084810 -0.143058 0.070009 -0.252176 -0.248438 -0.025481 -0.189680 -0.004909 0.282824 -0.170661 -0.582194 0.234419 0.636106 0.102484 0.625001 -0.270935 -0.677234 -0.126973 -0.252823 0.170605 0.175192 -0.304743 0.491323 -0.147047 0.205007 -0.051790 0.270061 0.608103 0.622845 -0.762794 -0.002659 -0.165686 -0.489816 0.027010 0.163815 -0.233681 -0.023210 -0.142095 -0.216555 0.219585 0.309013 -0.560089 0.219569 -0.204307 0.022308 0.215692 0.336279 0.109672 0.448364 0.267921 -0.376590 -0.112302 0.117831 0.493708 -0.528064 0.483595 0.192676 -0.219988 -0.170861 0.646905 -0.083451 0.409840 -0.294176 0.165341 -0.075441 0.101891 0.111865 0.675445 0.134393 0.556501 -0.228671 -0.578580 -0.392606 0.162233 0.151627 0.069777 0.858063 -0.175467 0.579204 0.299139 0.087875 -0.696948
H20 -0.183965 -0.333581 0.346761 0.585496 0.095571 -0.198955 0.634840 -0.495842 -0.212876 -0.349923 -0.483350 0.053805 0.807788 -0.180225 0.105718 0.082947 -0.671802 0.244060 -0.294091 -0.108885 -0.427080 -0.881475 0.182212 -0.777535 0.480269 -0.357325 -0.151536 0.330024 0.417035 0.339352 -0.325287 -0.288374 0.463845 -0.232714 0.022754 -0.105867 -0.356416 0.352716 -0.484947 0.143028 -0.442102 -0.491061 0.172928 -0.715736 0.021820 -0.352554 0.137772 0.767304 -0.001297 -0.512607 0.449228 0.250068 0.062984 0.184032 0.097811 0.080036 0.224631 0.026509 0.233195 0.499413 0.456247 -0.090402 0.052617 0.130395 -0.051686 -0.321615 0.364865 -0.118684 0.234831 0.354531 -0.013578 0.051316 0.508310 0.733620 0.527193 -0.468143 0.300436 0.239102 -0.344291 0.010987 0.237537 0.453315 -0.193767 -1.048937 0.146606 -0.020318 -0.180394 -0.311202 0.059882 -0.035957 0.126340 -0.419915 0.214403 -0.094670 0.160643 0.281704 -0.421074 -0.009365 -0.068713 0.272816 -0.620814 0.103620 0.088659 0.379404 -0.824809 0.569137 -0.330771 0.056516 -0.426370 -0.221053 -0.031992 -0.118436 0.573817 0.059215 0.236549 0.052683 -0.375169 -0.179126 -0.367917 -0.337342 0.107173 0.552309 0.370245 0.278768 0.102590 0.657095 -0.067820 -0.639926
H1 -0.319672 -0.092620 0.381520 -0.001521 -0.531757 -0.258064 0.413971 0.130630 -0.273078 0.705748 -0.254851 0.221272 0.347066 -0.337209 0.451657 -0.337060 -0.401914 0.033052 -0.913440 -0.019488 -0.324911 -0.501240 -0.427541 0.125283 0.341147 -0.462147 0.246524 0.176725 0.024137 0.442617 0.131359 -0.028854 -0.620432 -0.421303 0.134360 0.353467 0.369953 0.708680 -0.197837 0.144120 0.151957 -0.389564 0.001704 -0.299219 0.404709 0.019324 -0.237691 0.656548 -0.030957 -0.071168 -0.031977 -0.310959 0.030762 0.118678 0.163107 -0.342716 -0.022549 0.578352 -0.042995 -0.133219 0.699572 -0.014024 -0.652436 -0.076390 -0.013073 0.193653 0.827892 0.012362 0.445269 -0.284655 -0.175905 0.156493 1.053860 0.759062 0.249901 -0.155126 -0.682082 0.085002 -0.251338 -0.530522 0.076205 -0.246053 -0.103429 -0.244505 -0.190444 0.185711 0.221468 -0.028587 0.376876 -0.230829 -0.115164 -0.090148 0.395105 0.101759 0.055176 0.303431 0.140717 0.028344 -0.382256 0.007211 -0.447234 0.580606 0.058268 -0.247099 -0.427832 0.614421 0.612733 0.042511 -0.298497 -0.057854 -0.207817 -0.257797 0.335503 -0.188692 0.027008 0.301258 0.301050 -0.035562 -0.939137 -0.372549 0.915306 0.373489 0.332374 -0.268197 0.034317 0.709826 -0.007492 -0.557843
H165 0.355340 -0.288029 0.913411 0.112318 -0.529519 0.441457 0.236165 0.246054 -0.308802 -0.192920 -0.348317 0.178111 0.435703 0.107185 0.222711 -0.417936 -0.487533 0.670506 -0.019669 -0.005388 -0.003080 -0.347438 -0.400109 0.081081 0.022942 -0.091522 -0.206987 0.701815 -0.664958 0.553906 -0.008653 -0.184096 -0.261482 -0.248763 0.674176 -0.083572 -0.133677 0.831859 0.331882 0.409819 0.241784 -0.193478 0.230859 -0.048026 -0.142171 0.330086 0.215568 0.605740 0.386129 0.059679 -0.243203 0.374399 -0.088446 0.504099 -0.065179 0.464128 -0.459514 0.040912 0.130431 -0.125359 0.589721 -0.237173 0.244160 0.390776 -0.095919 0.564910 0.204825 -0.518988 -0.043075 -0.471736 0.167126 0.101742 0.117166 0.054310 0.512018 -0.645807 -0.416701 -0.135603 -0.145701 -0.258653 -0.194088 0.369940 0.036504 -0.436689 0.184750 0.532316 0.588700 -0.521719 0.068971 -0.103772 0.155039 -0.265025 0.253322 -0.349026 -0.012953 0.738632 -0.050586 -0.082935 -0.488438 0.035738 -0.100446 0.005367 -0.399543 -0.308139 0.174225 0.570185 0.055733 -0.370869 -0.502352 0.055983 0.109730 -0.423302 0.024312 0.482793 -0.342356 0.572175 -0.496985 -0.439804 -0.619907 -0.525750 -0.319428 -0.326414 0.417395 -0.295650 0.368423 0.640228 0.217821 0.205427
H111 -0.038577 -0.232469 0.218022 -0.135153 -0.137961 0.759441 0.857888 -0.064215 -0.387663 -0.865104 -0.497237 0.014118 0.173380 -0.228096 -0.194138 -0.689480 -0.325451 0.094191 -0.208098 -0.025893 0.263526 -0.539483 -0.549559 -0.116607 0.239396 -0.086338 -0.089263 0.591155 0.007630 0.185244 0.475653 -0.267043 0.329900 -0.164643 0.555322 0.077253 -0.533079 0.504189 -0.550823 0.476767 -0.166000 -0.046763 0.472030 -0.360552 -0.027319 0.037891 0.255045 -0.370053 0.823854 -0.930566 -0.253507 0.151264 0.027928 -0.079982 -0.273997 -0.794047 -0.296694 -0.089036 0.750928 -0.293504 0.268855 0.035020 -0.245516 -0.372035 -0.002724 0.303365 0.338084 -0.072140 0.096161 0.279378 0.134091 -0.567746 0.273033 0.373238 0.150852 -0.383709 0.302483 -0.128518 -0.155197 -0.460654 0.200153 0.998732 0.967890 -0.405130 0.250904 -0.020352 0.335676 -0.235926 0.322107 -0.098540 -0.401087 0.184691 0.665637 -0.590029 0.651051 0.029947 0.600484 0.178503 0.026448 0.052970 -0.651496 0.160737 -0.109806 -0.412108 0.178563 0.227430 0.532730 0.536284 -0.005461 0.147960 0.104486 -0.250108 -0.321821 -0.055856 -0.219371 0.862349 -0.568876 -0.084562 -0.712060 0.073236 0.369670 0.074013 -0.135527 -0.103519 0.309999 0.427318 -0.062765 -0.311164
H25 -0.054678 -0.269738 0.741153 -0.381648 -0.072866 -0.088562 -0.046710 -0.017045 -0.055487 -0.447884 0.256166 -0.275539 0.461150 0.094477 -0.135004 0.086407 -0.122743 0.650167 0.055102 -0.277586 -0.014618 -0.425244 0.024807 -0.576024 0.173285 0.109534 0.110171 0.487230 -0.189262 0.309854 0.415670 0.368955 -0.474013 -0.192531 -0.021411 0.265970 -0.616177 0.435091 -0.352542 0.361697 -0.382922 -0.331820 0.328759 -0.134081 -0.106827 0.129797 -0.121773 0.040586 -0.139947 -0.756604 -0.236060 -0.321800 0.315162 0.425320 0.246418 -0.316389 0.553183 0.016114 0.244709 0.296397 0.492453 -0.246457 0.142340 0.041100 -0.155242 0.553540 0.308144 -0.037289 -0.250583 -0.251415 -0.174739 -0.304494 0.138300 0.497338 0.092485 -0.246316 -0.093482 -0.774970 -0.332525 -0.023367 0.313779 0.528365 -0.189292 0.348674 0.350797 0.394287 0.479013 -0.064435 -0.023103 0.335537 0.176090 -0.121325 0.793462 -0.336198 -0.087447 0.216907 -0.202927 0.213798 -0.296496 -0.299059 -0.223692 0.751080 -0.242822 -0.226128 -0.141775 0.518563 0.097560 -0.265864 -0.561015 -0.236105 0.013595 0.128312 0.161679 0.740921 -0.510588 0.581653 0.067922 -0.339264 -0.458511 0.011154 0.662642 0.298155 0.437168 -0.116936 0.384322 -0.074813 -0.722622 -0.322512
H211 -0.566811 -0.166384 0.257603 -0.202966 -0.282866 0.062952 0.448158 -0.077460 -0.166821 -0.105799 -0.484335 0.087887 0.617877 0.415925 -0.260125 0.246180 0.207792 0.100675 -0.797174 -0.111649 -0.141065 -0.392895 -0.101461 0.144356 0.177771 -0.012459 -0.386773 0.584201 0.279763 0.645842 -0.147722 -0.660163 -0.291186 -0.002715 0.138469 0.278846 0.013671 0.186508 -0.048339 0.250934 0.157551 0.064515 -0.033845 -0.658443 -0.083896 -0.276963 0.508349 0.306144 -0.111129 -0.761259 0.542606 -0.084538 0.043788 -0.073435 0.096462 -0.456241 0.141384 0.278900 0.214493 0.050047 0.524080 -0.168495 -0.152457 0.153947 -0.356789 0.205563 0.643884 -0.206306 0.051682 -0.331727 0.150224 -0.008653 0.053646 0.039046 0.230190 -1.014018 -0.212844 -0.071654 0.027777 0.199721 -0.397933 0.190017 0.311675 -0.283253 0.250136 0.746657 -0.252439 -0.408996 0.575850 -0.064658 -0.460068 0.480606 0.465040 -0.344753 0.090862 0.226011 0.228161 -0.040376 -0.255750 -0.107997 -0.019815 0.237393 -0.158540 -0.063450 -0.283749 0.462043 -0.065260 0.270695 0.117301 0.045521 -0.022266 0.042508 -0.234589 -0.195915 -0.603130 0.152293 0.125478 -0.194910 -0.531071 -0.294980 -0.064715 0.382480 0.549098 0.043241 0.370366 0.072411 0.299230 -0.147192
H200 0.362585 -0.306297 0.445577 0.319740 -0.728810 -0.125509 0.058854 -0.149776 -0.154801 -0.118706 -0.492948 0.048585 0.442499 -0.016003 0.209687 0.342026 -0.235097 0.041037 0.016547 -0.369595 -0.219021 -0.245693 -0.179547 -0.359389 -0.102303 0.382409 0.254343 0.009907 -0.333337 0.395870 -0.309793 -0.440843 -0.151333 -0.187181 0.124172 0.631331 -0.417222 0.781199 -0.122271 0.708272 -0.329253 0.150110 0.560862 -0.332000 0.136045 -0.193928 -0.415795 0.230459 0.435483 -0.834707 0.411085 -0.354047 -0.251046 -0.144925 0.535046 -0.246765 -0.102375 -0.140233 1.017191 0.282472 0.712906 -0.175172 -0.863638 -0.071499 -0.056405 0.041093 1.097150 -0.520601 -0.152510 0.174203 0.483808 -0.139078 0.787726 0.929677 0.381443 0.253019 0.185426 0.135950 -0.112989 -0.050169 -0.416826 0.728240 0.483266 -0.503514 0.329369 0.586423 -0.063971 -0.163616 -0.414304 -0.480871 0.215128 0.302075 0.371482 -0.800244 0.383100 0.603394 -0.318536 -0.485557 -0.150029 -0.008245 0.085278 0.402228 -0.238685 0.390771 -0.039646 0.758480 -0.070082 -0.299300 -0.555627 0.378884 0.060714 -0.210784 0.352527 -0.018788 -0.501812 0.736409 -0.660426 -0.159568 -0.374876 0.065766 0.589154 -0.038128 0.171874 -0.058789 -0.132300 0.594588 -0.778770 -0.309482
H126 0.476796 -0.316660 0.734303 0.181093 0.221725 -0.269317 0.168774 0.119662 -0.004448 -0.296598 -0.524172 0.003493 0.222394 -0.333854 0.172651 -0.450034 0.516058 0.068449 -0.382383 -0.280665 -0.487385 -0.562988 -0.200897 -0.045187 0.015707 -0.312358 -0.755798 0.292359 -0.113886 0.575210 0.246118 -0.060236 -0.109968 0.072764 0.263712 0.525691 0.044663 0.075525 -0.247068 0.465063 0.069948 -0.051623 0.631006 -0.453765 0.184602 0.060371 -0.268312 0.192268 0.462996 -0.757302 0.058658 0.386954 0.283634 0.477359 0.038379 0.101555 -0.330686 0.012473 0.623341 0.183817 -0.136477 -0.310975 -0.588628 -0.679501 0.166285 0.347109 0.272873 -0.047403 -0.386086 0.301084 -0.104298 0.147917 0.483463 0.802610 0.022624 -0.511278 -0.369895 -0.476566 -0.038702 0.244121 -0.757188 -0.038439 -0.197161 0.069206 -0.170158 0.174904 0.206790 -0.178920 0.294752 0.106276 0.442853 0.062809 -0.206008 -0.043746 -0.254998 -0.002966 -0.191427 0.100177 0.038843 -0.148720 -0.594433 -0.199242 -0.207793 -0.137030 -0.503324 0.195559 -0.254507 0.215752 -0.790843 0.099823 -0.157682 -0.258840 0.103080 -0.018217 -0.135935 0.533303 0.366907 -0.342453 -0.409515 -0.573424 0.058209 -0.052585 -0.059718 0.269550 0.189728 0.250302 -0.201568 -0.360040
H22 -0.230174 -0.208686 0.633972 -0.293741 -0.012326 0.301152 0.153281 -0.029755 -0.100824 -0.451907 0.186271 -0.196999 0.762243 0.042166 -0.138625 0.035065 -0.177961 0.355455 0.018961 -0.164566 -0.029529 -0.306688 -0.112646 -0.909593 0.311217 0.375951 0.230920 0.543492 -0.220026 0.065120 0.378178 0.510449 -0.539399 0.024336 -0.005227 0.325282 -0.592957 0.565508 -0.688030 -0.067171 -0.193362 -0.611772 0.190825 -0.262993 0.149043 -0.086399 -0.495172 0.431029 0.135358 -0.673611 -0.116187 -0.226505 0.427741 0.344535 0.175539 -0.387070 0.342350 0.195022 0.133439 0.524432 0.415203 -0.102754 0.175478 -0.148168 -0.208435 0.518491 0.381162 -0.092639 0.094821 -0.276931 -0.176981 0.082772 0.008255 0.722429 0.063258 -0.278390 -0.148296 -0.862625 -0.005750 0.116784 0.361962 0.751246 -0.461805 0.210388 -0.008440 0.264476 0.190529 -0.168847 0.148465 0.272548 0.158076 0.133904 0.597327 -0.133751 -0.026497 -0.089655 -0.313254 0.308876 -0.457969 0.124041 -0.314233 0.681181 0.062095 -0.100122 -0.151191 0.499720 0.037689 0.078238 -0.229456 0.045428 -0.085952 -0.171619 0.223279 0.498297 -0.605691 0.552908 0.152611 -0.272966 -0.213760 0.140921 0.564746 0.553069 0.343393 -0.021552 0.477971 0.184211 -0.809532 -0.477293
H71 -0.203696 0.200835 0.609065 0.656129 -0.704127 -0.246469 0.275180 0.096517 0.322141 -0.081524 0.327021 0.199304 0.469144 -0.231959 -0.353899 -0.120240 -0.492128 0.118862 -0.087039 -0.066184 -0.165309 -0.559757 0.073480 0.094144 0.666076 -0.586085 0.038171 0.506343 -0.142256 0.410093 0.244551 -0.396160 -0.484168 0.160914 0.659151 -0.462490 -0.071696 0.825833 -0.542792 -0.099914 0.441277 -0.364667 0.844904 -0.111468 0.110269 -0.366195 0.513394 0.745029 0.230621 -0.806327 -0.368678 0.311631 0.530738 -0.194066 0.601424 -0.415331 -0.022216 0.253411 0.262139 0.441085 0.916801 -0.131907 -0.356364 0.449382 0.421570 0.472573 0.324371 -0.023877 -0.194681 0.007238 -0.458347 -0.545607 0.743058 0.689865 0.365059 -0.369068 -0.184932 -0.954043 -0.006006 0.299586 -0.433709 0.255672 0.132150 -0.370590 0.028693 0.349328 -0.096118 -0.795220 -0.305887 -0.353049 0.006578 0.151097 0.924318 0.073445 0.196847 -0.223039 0.158556 0.379237 0.104543 -0.150813 -0.737281 -0.214948 -0.445294 -0.320143 -1.026396 0.136500 -0.228389 0.283448 -0.201472 -0.051370 -0.314435 -0.178168 -0.083413 -0.150662 -0.476249 0.153065 -0.289498 -0.423342 -0.199611 -0.525707 0.696266 -0.181973 0.035130 0.184543 0.030840 0.788531 0.169821 0.386696
H33 -0.614710 -0.511639 0.048240 -0.363808 -0.036996 0.078449 0.200741 -0.328536 -0.203054 -0.216732 -0.456180 -0.322249 0.495713 -0.803952 -0.007419 -0.215724 -0.560849 -0.030861 -0.647210 0.155034 -0.472274 0.119683 0.317257 -0.052857 0.333724 -0.338122 0.114271 -0.054387 -0.103145 0.191229 -0.096989 -0.276806 -0.195327 0.498561 0.566916 -0.128296 -0.071016 0.900902 -0.245259 0.822841 0.362159 -0.275883 0.113271 -0.235450 -0.133021 -0.553920 -0.009686 0.486534 1.036650 -0.580503 -0.234602 0.171570 0.400692 -0.164373 0.037174 0.023451 -0.098374 0.355851 0.132541 0.089101 0.570124 -0.470418 -0.103293 0.440551 0.599849 0.316347 0.706186 0.301900 0.444926 0.405581 0.186556 -0.195472 0.730496 0.543274 0.930761 -0.636509 -0.718188 -0.047980 -0.319551 -0.101162 0.117598 0.937787 0.388918 -0.047285 -0.178685 -0.162145 0.492615 -0.683986 0.136236 -0.350613 0.084927 0.289037 0.438021 -0.263067 0.262919 0.293270 -0.132831 0.433436 -0.372963 0.181526 -0.402676 0.429021 -0.274081 -0.313152 -0.073220 0.493407 -0.016140 0.128326 -0.768480 -0.292919 0.546024 -0.177665 0.431268 -0.029476 0.702286 -0.044891 -0.267579 -1.061776 -0.236053 -0.725787 0.469301 0.072866 0.873478 -0.487877 0.162566 0.322000 -0.350379 -0.364637
H30 -0.345762 0.382827 0.470719 0.247333 0.074845 0.846808 0.050093 0.373718 -0.601743 0.132646 -0.115185 0.279184 0.642231 -0.308375 -0.296079 0.502845 0.003216 0.502520 -0.590345 -0.202680 0.317746 0.305839 -0.068878 -0.516242 0.027140 -0.051197 0.103199 0.223418 0.292850 0.304976 0.011019 0.279671 -0.236737 0.239190 0.677218 0.082367 0.167159 0.458276 -0.215596 0.158322 -0.076799 0.590840 0.571206 -0.887394 0.052883 -0.195478 -0.168559 0.184354 0.612593 -0.462141 0.262480 -0.265198 0.299161 0.202599 0.120389 0.171209 -0.151716 -0.222892 0.767166 0.625427 0.672457 -0.284953 -0.208067 0.153234 0.528738 -0.260560 0.889339 -0.475723 0.283569 -0.365382 0.220901 -0.230611 0.239530 0.407057 0.514448 -0.139857 0.049985 -0.708559 -0.197773 -0.658875 0.259553 0.346614 0.288430 -0.459714 0.025693 0.525164 0.067223 -0.085811 0.214266 -0.424288 0.536149 0.141263 1.041018 -0.439175 0.277070 -0.356488 -0.065756 0.228660 -0.191336 0.959348 -0.361698 0.172307 -0.458001 -0.588412 0.058348 0.015999 -0.300562 0.227432 -0.096305 -0.348642 -0.454151 -0.301972 0.364185 0.082594 -0.354490 0.140815 -0.376757 -0.384058 -0.164136 -0.671577 0.086027 -0.214215 1.220076 0.183359 0.675865 0.715884 -0.490242 -0.509907
H24 -0.186895 -0.157506 1.059302 -0.002668 0.003933 0.154888 0.265960 -0.042237 0.177058 -0.943247 0.340609 -0.096540 0.586562 0.252843 -0.047219 0.166646 0.092838 0.651730 0.307311 -0.039933 -0.036309 -0.308564 0.041340 -0.979359 0.416740 0.499023 0.130863 0.536874 -0.251186 0.038977 0.166891 0.088371 -0.065548 0.226270 0.514683 0.220738 -0.598353 0.524597 -0.893875 -0.187183 -0.073595 -0.507363 0.189143 -0.185991 -0.182524 -0.380255 -0.038123 0.405897 0.292299 -0.815592 0.019734 -0.180565 0.285560 0.390778 0.514477 -0.329300 0.326121 0.247057 0.195074 0.562615 0.247816 -0.112843 0.504670 -0.105824 0.016153 0.472461 0.381207 -0.094788 -0.095069 -0.183781 0.081416 0.177451 0.021263 0.426689 0.042755 -0.620721 -0.161582 -0.434860 0.121836 0.343988 0.134949 1.005464 -0.193076 0.074642 -0.071896 0.406943 0.239127 -0.300865 -0.022276 0.147241 0.316602 -0.049010 0.822420 -0.224123 0.005650 0.091914 -0.247024 0.271852 -0.350370 0.079266 -0.426546 0.736753 -0.134599 0.160689 -0.177255 0.360408 -0.027895 -0.035356 0.002172 -0.053815 0.200667 -0.085779 0.252879 0.692805 -0.458355 0.709992 -0.149794 -0.447877 -0.022400 0.320920 0.236004 0.390155 0.219400 -0.057660 0.455719 0.077637 -0.798243 -0.435627
H147 0.045557 -0.255526 0.766285 0.177637 0.022041 0.365993 0.251107 0.190365 -0.330801 -0.072385 -0.186480 -0.383214 -0.065383 -0.366692 -0.202644 0.141916 -0.745159 0.660069 -1.009671 0.834894 -0.508247 -0.203052 -0.257739 0.639758 -0.198547 0.226395 -0.380178 -0.042018 0.324617 0.527014 0.527899 -0.267252 -0.001572 -0.182394 0.015684 0.070855 0.051358 0.687106 -0.696314 0.374424 0.318119 0.163446 0.227172 -0.388820 0.447508 0.484469 -0.136629 -0.320178 -0.246653 -1.068797 -0.176920 0.452342 0.380884 0.495040 1.426706 -0.553350 -0.216752 0.172271 0.530724 -0.102391 0.319827 -0.163158 -0.727603 -0.050051 0.255916 0.419306 0.821299 -0.121260 -0.102392 -0.392503 -0.081465 -0.032955 0.658031 0.704805 0.173428 0.230571 -0.623683 -0.585526 -0.451451 0.070941 -0.578734 0.876031 0.420569 -0.297034 0.465401 0.142282 0.021266 0.050528 -0.402210 -0.477852 -0.002642 -0.062923 0.932177 -0.280609 -0.063067 0.478545 0.357572 0.164848 -0.012098 0.365408 -0.037077 0.081109 0.287476 -0.542461 -0.617056 -0.210492 0.163986 -0.090596 -0.206982 -0.185422 -0.150464 -0.510858 0.282123 0.578339 -0.144822 1.184149 -0.255927 -0.774181 -0.386041 -0.043128 -0.052013 0.294362 0.440415 0.029098 0.599555 0.403546 0.212131 -0.332809
H210 -0.414399 -0.181178 0.505126 -0.126819 -0.811353 0.153587 0.368411 -0.038349 0.165843 -0.079063 -0.242651 0.287520 0.591125 0.233522 -0.176502 0.316369 0.077740 0.100092 -0.577258 0.095634 -0.114369 -0.102732 -0.276552 0.617719 0.062692 0.500173 -0.087288 0.636464 -0.001962 0.689903 -0.334521 -0.423676 -0.446814 -0.041480 0.504026 0.328750 -0.162929 0.139683 0.328769 0.263107 0.073452 -0.064352 -0.002181 -0.544657 0.064600 -0.284991 0.331626 0.284237 -0.132197 -0.771216 0.500594 0.279961 0.058465 0.037794 0.090529 -0.485821 0.028932 0.443548 0.235987 0.222788 0.453773 0.082598 -0.221168 0.192618 -0.075519 0.589760 0.390869 0.158140 -0.166964 -0.768402 0.382751 -0.220532 0.531740 -0.231516 0.080340 -0.535357 -0.132679 -0.142459 -0.120454 0.097057 -0.588999 0.230031 -0.080561 0.174444 0.409921 0.552248 -0.111798 -0.126937 0.176744 -0.206153 -0.338631 0.185188 0.746280 -0.638488 0.370441 0.002276 0.438501 0.356079 -0.324113 -0.205506 -0.488750 0.046092 -0.034808 0.081782 -0.419916 0.486581 0.201184 0.433457 0.135645 0.143298 -0.257111 -0.251089 -0.187078 0.237755 -0.520888 0.314286 0.156169 0.219756 -0.560143 -0.233720 0.076453 0.541599 0.740679 -0.281663 0.605447 0.270977 0.060181 -0.437502
H101 0.327074 -0.082244 0.697076 -0.116880 0.225353 -0.162345 0.291130 0.014343 -0.444887 -0.438118 0.062305 0.229281 0.587551 -0.054816 0.139148 0.360688 -0.293423 0.639036 -0.416202 0.070630 -0.300698 -0.553891 0.346252 0.081233 0.729254 0.144316 -0.724871 0.273149 0.439066 0.436406 0.451383 -0.099424 -0.314531 -0.082286 0.237838 0.684603 0.034465 0.268280 -0.158079 0.773501 -0.137058 -0.068334 0.592833 -0.203523 0.406029 0.213010 -0.212617 0.167289 0.333047 -0.146738 -0.162150 -0.160984 0.245589 0.140580 -0.223871 0.119763 0.254497 0.357643 0.644482 -0.131519 0.144919 -0.298338 -0.272948 -0.162778 0.218086 -0.045679 -0.022989 -0.205138 0.008787 -0.334643 -0.408867 0.107476 0.016939 -0.038659 -0.392973 -0.216041 -0.043350 -0.011148 0.208614 0.004344 -0.201438 0.392884 -0.293705 -0.138156 0.135410 0.204079 0.384828 -0.453870 0.172635 0.023709 0.053440 -0.217918 0.299117 -0.709486 0.294192 -0.202867 0.199586 -0.141315 -0.442099 0.465445 -0.112586 -0.299417 -0.443132 -0.054146 -0.384040 0.332904 -0.032744 -0.235259 -0.497693 0.363359 -0.214934 -0.201117 0.233023 -0.009855 0.357187 0.089722 0.350461 -0.337278 -0.471274 -0.282549 -0.087538 -0.164736 0.126781 0.557351 0.279709 0.616197 -0.055229 -0.389353
H72 -0.044471 0.423619 0.677700 0.116713 -0.247289 0.381372 0.451120 -0.360978 0.433394 -0.661576 0.206973 0.710715 1.147787 0.007996 0.295330 -0.224903 -0.113218 -0.296221 0.215931 -0.000678 -0.345352 -0.398640 -0.349728 0.156344 -0.181218 0.086854 -0.204085 0.665983 0.374381 0.295988 0.590253 0.353549 -0.607378 -0.118650 0.538646 0.057554 -0.224953 0.575357 -0.478698 0.420895 0.231094 -0.380651 -0.054758 -0.759220 -0.342560 -0.135305 -0.463997 0.055241 0.483749 -0.901386 -0.557253 0.192309 0.145586 0.073683 0.015087 -0.109615 0.044488 0.598239 0.652458 -0.046486 1.298158 0.156005 -0.005545 -0.267969 -0.522935 0.214910 0.996597 -0.522927 -0.035341 0.469732 0.222211 0.559092 0.343487 0.865092 -0.193686 -0.279884 -0.312382 -0.177994 0.085864 -0.512460 -0.484862 0.716339 -0.259819 0.397327 0.090541 0.151283 0.419155 0.004846 0.404151 -0.193124 -0.778505 -0.019849 0.795908 0.035730 0.384597 0.376279 0.251075 0.195951 0.112278 0.132877 -0.616080 -0.275543 -0.761023 -0.334478 0.032061 0.533266 0.066720 -0.143119 -0.703081 -0.464072 0.065106 -0.709158 -0.146165 -0.287386 -0.317504 0.032874 -0.188552 -0.754037 -0.164699 -0.826656 0.698036 0.032370 1.030650 -0.703470 -0.008649 0.599189 0.543827 -0.198781
H217 -0.199445 -0.263941 1.032322 -0.012933 -0.621676 -0.102721 0.453629 -0.055399 0.024832 -0.105250 -0.115875 0.416892 0.607664 0.101966 -0.054010 0.187885 -0.236872 -0.117558 -0.547829 -0.090947 -0.431514 -0.599533 -0.389384 0.267431 0.120155 0.432069 0.142948 0.688267 0.096814 0.523031 -0.208009 -0.163354 -0.595206 -0.403095 0.805372 0.331957 -0.611285 -0.147414 -0.047443 0.339273 -0.100349 -0.240803 0.131527 -0.624158 0.332541 -0.093088 0.092935 0.275400 -0.166011 -0.751163 0.398778 0.294656 -0.126610 0.287680 0.092331 -0.188416 -0.055652 -0.034409 0.356053 -0.191957 0.336972 -0.056007 -0.498655 0.109952 0.087886 0.760619 0.361580 0.319181 -0.418316 -0.677970 0.366070 0.125344 0.342221 -0.325475 0.057101 -0.347799 0.176117 -0.063298 -0.179411 0.290803 -0.546904 0.302292 -0.249752 0.147177 0.223964 0.602504 0.017272 -0.281383 0.152513 -0.078950 -0.321401 -0.407389 0.648492 -0.407875 0.011210 -0.232473 0.219072 0.651022 -0.129803 0.165667 -0.718107 0.454879 -0.413776 0.309780 -0.531843 0.836342 0.065994 0.400258 -0.133636 0.313907 -0.454119 -0.380928 -0.323422 0.273607 -0.739270 0.487405 -0.021772 0.277574 -0.601477 -0.323070 -0.280863 0.548070 0.661064 -0.259100 0.465712 -0.067324 0.341259 -0.647225
H92 -0.110418 -0.178632 1.051142 0.181091 0.367713 -0.230035 0.342604 0.076596 -0.397905 -0.517730 -0.238714 -0.072779 0.282023 0.181861 0.251544 0.412600 -0.318073 0.650544 -0.356215 0.003898 -0.012228 -0.466640 0.492295 0.242755 0.108279 0.214589 -0.282610 -0.064173 0.342445 0.273768 -0.240949 -0.101372 -0.341825 -0.169902 0.486411 0.032539 -0.356325 0.544650 -0.334816 -0.088228 0.020261 -0.303788 0.109671 0.082685 0.210138 0.153989 -0.386144 0.797697 0.068376 -0.634325 -0.511720 0.331031 0.335199 0.620603 0.488642 -0.153901 -0.273653 -0.323024 0.156191 -0.562710 0.797147 -0.276992 -0.610304 -0.814508 -0.168368 0.113088 0.343460 -0.388115 0.463575 0.166651 0.060291 0.479683 0.357367 0.288666 0.321930 -0.402033 0.145395 -0.160606 0.163960 0.188779 -0.347554 0.795034 -0.382430 0.177794 0.099555 0.000273 -0.071611 -0.222578 -0.076178 -0.423678 0.048850 -0.063682 0.078048 -0.647539 0.153460 0.154430 0.243982 0.408765 -0.597032 0.035246 -0.364802 -0.088592 -0.810134 -0.517325 -0.491458 0.156485 -0.089121 0.223856 -0.214925 0.550907 0.205771 -0.001362 0.213727 -0.017375 -0.207203 -0.059411 0.139185 -0.518696 -0.291919 -0.234033 -0.010418 -0.250040 0.632824 0.299493 -0.024512 1.027087 -0.343525 -0.491081
H56 -0.224623 -0.085955 0.846898 -0.212203 -0.482107 0.475059 0.743254 0.525816 -0.033631 -0.387300 -0.098035 -0.077716 0.788488 -0.604341 0.082649 0.106119 0.322563 0.099346 -0.197539 1.009181 0.122271 -0.130687 -0.082029 0.000497 0.151443 0.077785 -0.276798 0.278619 -0.138828 0.207071 0.412868 -0.520350 0.172941 0.159126 0.373190 -0.149317 -0.408617 0.171346 -0.503806 0.648264 0.288841 0.033625 0.355321 -0.016432 -0.380070 0.327240 0.373433 0.015007 0.605840 -0.620553 -0.194177 0.099906 0.714882 0.432713 -0.167216 -0.166698 -0.132140 0.635101 0.848805 -0.013602 0.934642 -0.098201 -0.354631 -0.282317 0.035050 0.698937 0.943784 -0.311854 0.665142 -0.705776 -0.175991 -0.300448 0.359703 0.145366 0.243264 -0.335940 -0.346898 -0.375316 0.279978 -0.057683 0.064567 0.120302 0.078759 -0.075280 0.082694 0.741153 0.570110 -0.279600 0.458860 -0.683050 -0.408347 -0.343895 0.787686 -0.551465 -0.298748 -0.128723 -0.321925 -0.296154 -0.222258 0.281277 0.274567 0.038426 -0.051061 -0.190387 -0.083549 0.287481 0.182750 -0.317625 0.119329 -0.234581 0.510328 -0.798912 -0.248400 0.580960 -0.219046 0.642724 -0.015811 -0.395807 -0.554286 0.451417 0.460109 -0.406271 0.216859 0.028656 0.379639 -0.192799 -0.551764 -0.672962
H97 0.221723 -0.126581 0.350327 -0.276630 -0.591981 -0.182565 0.148679 0.292821 -0.153028 -0.240641 -0.134287 0.369903 0.293472 -0.309690 0.127592 -0.153071 0.466302 0.051631 -0.175910 0.340521 -0.349345 0.000894 -0.072449 0.224016 0.450348 -0.032287 -0.443060 0.101837 0.100426 0.168751 -0.035973 -0.287019 -0.437300 -0.114866 0.083188 0.516099 0.283982 0.292711 -0.477112 -0.095100 -0.165351 -0.198218 0.204499 -0.665938 0.008650 -0.145724 -0.029257 0.432359 0.725418 -0.339350 0.187336 0.190782 -0.282490 0.115220 0.354423 -0.477575 0.048513 0.504629 0.126340 0.019683 0.301965 -0.428342 -0.043128 -0.146095 -0.215840 -0.405161 0.349606 -0.028822 0.536222 0.105414 0.313404 -0.076941 0.065880 0.524563 0.053141 -0.704318 0.324426 0.037812 -0.226011 -0.084855 -0.087220 0.850311 0.154952 -0.361399 -0.150951 0.219436 0.112761 -0.590868 0.261424 -0.023115 0.048700 -0.220965 0.781836 -0.823795 -0.218934 0.081292 0.403197 -0.199814 -0.598644 -0.580338 -0.149405 0.108138 -0.155362 0.224763 -0.485517 0.633520 -0.045787 0.631239 -0.606760 0.422293 0.534218 -0.273778 -0.003801 0.181866 -0.531529 -0.031363 0.027085 -0.972030 -0.337572 0.022374 -0.114667 0.285761 -0.142060 0.305621 0.002729 0.447325 0.197983 -0.326412
H13 -0.204591 -0.435687 0.862187 0.271907 -0.558457 -0.258734 1.160176 0.384796 -0.179673 -0.632773 -0.058751 0.639240 0.358492 -0.042093 0.754793 -0.453074 -0.493332 0.135770 0.711193 -0.105888 0.131060 -0.776232 -0.500803 -0.796611 0.091679 0.177057 0.441045 0.986642 -0.091183 0.384773 0.267394 0.203137 -0.132784 -0.173388 0.500272 0.055015 -0.014210 0.760613 -0.788549 0.699267 0.007084 -0.420088 -0.732226 -0.835735 0.090501 -0.054385 0.344827 0.355567 0.629454 -0.267012 -0.157811 0.359245 -0.113446 0.133078 -0.204096 -0.322546 -0.085153 -0.216449 0.312013 -0.282058 0.575697 -0.433620 -0.320118 -0.333917 -0.083169 0.095280 0.847789 0.342611 0.188754 -0.470034 -0.160669 -0.292507 0.567063 0.888031 0.790353 -0.406035 0.027399 0.032731 0.235270 -0.652278 0.049165 0.618311 -0.324729 -0.328498 0.030619 -0.662474 0.907588 0.212710 0.148625 -0.449863 -0.344847 -0.901407 0.439069 -0.342542 0.131257 0.302490 0.199415 0.282057 -0.478604 0.012006 -1.080132 0.646528 -0.493350 0.403572 -0.443445 1.279001 0.755750 0.504723 -0.462477 0.008166 0.093395 -0.601775 0.154934 0.205915 -0.649174 -0.160172 -0.405457 -1.125382 -0.755005 -0.464667 0.421698 0.455185 0.589771 -0.531130 0.242929 0.296898 -0.350664 -0.574360
H208 -0.193717 -0.489765 1.207502 0.449267 -0.099559 -0.305933 0.643750 0.163737 0.263944 -0.287073 0.043370 -0.233194 -0.127738 0.034881 -0.208420 0.266688 -0.591411 0.324294 -0.852018 -0.037445 0.200490 -0.214732 0.188109 -0.757877 0.826396 0.184358 0.155104 -0.009219 0.402680 0.172501 0.370577 0.044515 -0.353203 0.230505 0.756636 -0.261349 -0.149133 0.566517 -0.546831 0.685306 -0.116718 0.131239 0.210303 -0.443475 -0.295593 -0.608011 0.500039 0.357842 0.644045 0.136387 0.376116 0.127404 -0.302660 0.309214 0.392224 -0.686986 -0.194471 0.077143 0.695670 0.207040 1.017974 -0.232713 -0.372970 -0.419859 0.236347 -0.097330 -0.081103 0.104690 -0.398646 -0.519767 0.366410 -0.518268 0.237621 0.497445 0.301368 -1.081125 0.314537 -0.365330 -0.161642 -0.075288 -0.389907 0.338088 0.734782 -0.276049 -0.267462 0.531001 0.504717 -0.359341 0.559392 -0.607556 0.262925 -0.320139 0.222578 -0.063025 -0.035641 0.302510 0.078756 0.494915 -0.349021 0.379972 0.034532 0.349139 0.051193 -0.009891 -0.933794 0.190993 -0.047633 0.041664 -0.479175 0.498171 -0.611487 -0.659002 -0.376143 0.250309 0.388234 0.108125 -0.353929 0.154825 -0.959774 -0.115255 -0.328986 0.543106 0.880009 -0.180366 0.689978 0.288621 -0.180544 -0.628096
H177 0.212431 -0.321066 0.051393 -0.605868 0.202674 0.001463 0.755257 -0.139163 -0.443031 0.175929 -0.517581 0.239646 1.096736 -0.937016 -0.044486 -0.083972 -0.663095 -0.336933 0.048426 0.320395 0.008177 -0.636089 -0.656474 -0.501967 0.371462 0.610941 -0.128350 0.371029 0.076669 0.272311 0.660716 -0.282092 -0.522214 0.347699 0.639209 -0.029550 -0.791119 0.575902 0.100633 0.910922 0.211243 -0.322400 0.541605 -0.020977 -0.152349 0.399892 -0.079137 0.494064 0.554421 -0.546362 0.261009 0.809784 0.299119 -0.050497 -0.062309 -0.823014 0.158088 0.433079 0.929760 0.485478 0.708890 0.082963 -0.389820 0.288583 0.100312 0.672304 0.393961 0.351571 0.449714 -0.019514 -0.036828 -0.027099 0.751631 0.350536 0.470314 -0.080862 0.060449 -0.992586 0.035697 -0.326558 -0.715476 0.350901 -0.103152 -0.200845 -0.415607 0.493445 0.478353 0.246652 -0.228190 -0.271286 -0.655319 0.347782 1.042287 -0.222991 -0.168190 0.287608 -0.058685 0.175038 -0.073577 0.264273 -0.233878 -0.438791 0.330141 -0.601571 -0.296826 0.103399 -0.394142 0.580788 -0.934449 -0.423184 -0.400963 -0.860306 0.371495 0.387821 -0.176441 0.475573 0.171294 0.066336 -0.424078 -0.108491 0.270278 0.111402 -0.019582 -0.379589 0.877835 0.837460 -0.204795 -0.191390
H194 0.062419 -0.397733 0.679403 0.000205 -0.045929 -0.134050 0.641024 0.340357 0.196525 -0.053215 -0.011248 -0.354932 0.924480 -0.433344 -0.469546 -0.449103 -0.165280 0.271644 -0.587099 -0.233798 -0.057730 -0.781044 0.044983 0.127974 0.219746 0.199234 -0.074608 -0.294209 -0.201082 0.187915 0.707276 -0.298028 0.432733 0.005378 0.621849 0.541714 -0.562389 0.088022 -0.044325 -0.154322 0.071171 -0.388263 0.701462 -0.427328 -0.152491 -0.115493 0.588544 -0.049843 0.924177 -0.918141 -0.054079 -0.049251 -0.096427 0.230340 0.522151 -0.735024 0.333499 -0.436092 0.420500 0.268565 0.405261 -0.110716 -0.490818 0.153579 -0.053397 0.142536 0.499997 -0.160882 0.173169 -0.077224 0.009684 0.193882 -0.046295 0.629301 0.286525 -0.065042 -0.008105 0.232907 -0.745192 0.384995 -0.463387 0.559384 0.077670 -0.033229 0.482838 -0.075022 -0.097770 -0.213924 0.722485 -0.307152 0.556905 -0.251356 0.159629 -0.166346 -0.301752 0.109515 -0.159792 0.287957 -0.530800 0.397716 0.176177 0.443307 -0.292752 -0.119039 -0.423385 -0.151609 0.042086 -0.182357 -0.549485 0.057974 0.565931 -0.445422 0.314365 0.101044 -0.566846 -0.009254 -0.548098 -0.145402 -0.137278 -0.173887 0.460591 -0.144422 0.411721 -0.286851 -0.088185 0.423432 -0.446471 -0.909583
H29 -0.646067 0.139170 1.001793 0.321041 -0.295423 0.453475 0.303507 0.423226 -0.703001 0.094594 -0.229612 0.278387 0.382966 -0.197707 -0.304662 0.406235 -0.095807 0.152949 -0.557305 -0.265353 -0.028881 0.103059 0.064335 -0.641006 -0.017429 0.091028 -0.097126 0.030749 0.239125 0.537584 -0.003080 0.354697 -0.578228 -0.034398 0.851362 -0.106218 -0.482400 0.309708 0.156039 -0.078405 -0.406044 0.496029 0.810717 -0.918415 0.332448 -0.163553 -0.034606 0.159744 0.442475 -0.591225 0.340260 -0.411670 0.434310 0.308818 0.323304 0.265592 -0.040414 -0.112939 0.537188 0.660933 0.565779 -0.002109 -0.453035 0.548560 0.072123 -0.189708 0.481433 -0.552196 -0.022688 0.144406 -0.048472 -0.124914 0.207441 0.218250 0.625082 -0.398535 0.166299 -0.747026 -0.372687 -0.279696 0.151332 0.446097 0.347975 -0.751407 -0.195213 0.266608 0.007623 -0.031425 0.269043 -0.223673 0.464602 0.177646 0.646519 -0.444582 0.135981 -0.445316 0.049331 0.188772 -0.203591 0.675325 -0.448014 0.193316 -0.270866 -0.381799 -0.256876 0.140405 -0.180497 0.278894 -0.321483 -0.259918 -0.499490 -0.607600 0.637247 -0.152110 -0.504843 0.247910 -0.304347 0.095923 -0.684893 -0.711499 -0.142714 -0.156936 0.635072 0.294293 0.851389 1.001360 -0.718428 -0.375474
H192 -0.330777 -0.244570 0.345343 0.083750 -0.133945 -0.148522 1.006482 0.395125 -0.252152 0.127862 -0.105274 -0.018812 0.325207 -0.386451 -0.630032 -0.286105 -0.064416 0.362868 -0.362024 -0.195827 -0.085690 -0.771063 -0.012239 0.248942 0.218012 0.141841 0.122385 -0.113354 -0.228119 0.000942 0.301430 -0.468813 0.655677 -0.058282 0.706805 0.170292 -0.376868 0.249427 0.023262 -0.485805 0.220194 -0.380851 0.690230 -0.398648 0.363697 0.109133 0.724517 0.301688 0.940498 -0.536621 -0.090353 0.123895 -0.289459 0.386298 0.603064 -0.477142 0.141878 -0.144469 0.192822 -0.103385 0.108508 -0.157160 -0.788563 0.194805 0.185024 0.173454 0.502331 -0.017167 0.490749 -0.356820 0.143981 0.266528 0.424448 0.236174 0.500862 -0.168795 -0.309818 0.444816 -0.633091 -0.049173 -0.223136 0.325779 0.242881 -0.447743 0.232732 -0.034534 0.147516 -0.447147 0.801646 -0.586349 0.184497 -0.459324 0.380642 -0.219099 -0.470344 0.488569 0.056064 0.306731 -0.575532 0.756755 0.153914 0.476340 -0.011043 -0.198473 -0.347870 -0.230787 0.427802 -0.046242 -0.492920 0.270991 0.299725 -0.480250 0.621491 -0.073718 -0.570294 -0.017643 -0.554753 -0.071116 -0.149741 -0.383526 0.417200 -0.106964 0.411597 -0.328752 -0.149660 0.704142 0.055610 -0.757120
P433 -0.091814 -0.074316 0.256702 -0.372798 -0.072780 -0.204504 -0.018669 -0.083094 -0.035903 -0.299576 -0.105277 0.281101 0.356526 0.002690 0.149398 -0.107100 0.331513 0.323576 -0.413932 -0.007343 -0.118632 -0.063253 0.108070 0.458393 0.429503 -0.093440 -0.780635 0.084424 0.267258 0.208968 0.173876 -0.386392 -0.323028 -0.064707 -0.013336 0.517741 0.294318 0.280699 -0.120738 0.190174 0.127236 -0.081714 0.242016 -0.367339 0.072349 -0.117328 -0.048626 0.296191 0.505564 -0.326505 0.211026 0.015034 -0.312060 0.184506 0.438346 -0.368210 -0.108094 0.560536 0.193607 0.106702 0.048176 -0.161869 -0.060517 -0.284148 -0.193723 -0.422839 0.073425 -0.115941 0.337860 0.133702 0.316464 -0.088455 -0.148203 0.350717 -0.201402 -0.668716 0.064939 -0.102134 0.068415 -0.007668 -0.087101 0.525077 0.240395 -0.147199 -0.033572 0.272932 -0.121354 -0.456690 0.282734 0.198085 -0.121205 0.141316 0.555342 -0.624997 0.005387 0.322395 0.344943 -0.321371 -0.500977 -0.399723 0.014867 -0.273694 -0.222624 0.037142 -0.414512 0.614400 -0.045637 0.339643 -0.614536 0.219865 0.349613 -0.199790 -0.015426 0.017304 -0.189462 0.001763 0.229787 -0.723866 -0.546898 -0.145728 -0.075169 0.314549 -0.107041 0.417253 0.114468 0.354176 0.231953 -0.199407
H80 -0.178622 -0.484856 0.816389 0.426093 0.507553 -0.430899 0.719979 -0.265195 -0.204986 -0.117665 -0.581635 0.076397 1.073251 -0.022906 -0.335592 -0.382387 -0.121701 -0.042588 -0.127464 -0.092749 -0.575410 -0.686189 0.065715 -0.619689 -0.107295 -0.337598 -0.460950 0.812870 -0.155928 0.635211 -0.385382 -0.730594 0.700827 -0.906583 -0.004720 0.353076 -0.297249 0.704943 -0.728256 0.318455 0.116892 0.212516 0.391859 -0.527423 -0.248447 0.008761 -0.129749 0.131729 0.976466 -1.123177 -0.003886 0.328416 0.452835 -0.056678 -0.214209 -0.886855 -0.308971 -0.161259 0.097951 -0.479048 0.484625 -0.172026 -0.757856 0.136719 0.468537 0.083468 0.128846 -0.251471 0.144106 -0.025875 0.267595 -0.089071 0.541885 0.088055 0.471242 -0.267073 -0.379322 -0.330048 -0.252006 0.466392 -0.166325 0.601302 -0.353573 -0.435882 0.793994 0.676281 -0.115361 0.063569 0.269430 0.077600 -0.589247 -0.125169 1.015720 -0.372975 0.215030 0.221301 -0.575808 0.174194 -0.784848 0.537122 -0.285113 0.698154 -0.553393 -0.531619 -0.227507 0.448768 0.640126 0.191779 -0.608808 0.043072 0.366972 -0.077679 0.027457 0.283446 0.196490 0.466441 0.011716 -0.217533 -0.130930 0.238705 -0.338877 -0.220072 0.068508 -0.262235 0.122367 0.500524 -0.030547 -0.471021
H218 -0.579421 0.114830 0.371102 0.802547 -0.654133 -0.000182 -0.109588 0.345423 -0.490785 0.205651 -0.059475 0.291881 0.390608 0.146550 -0.191244 0.552728 -0.657666 0.521855 -0.173286 0.603209 0.107514 -0.652635 0.024263 -0.100319 0.276189 0.137979 0.287037 0.731509 -0.111558 0.289258 0.157479 -0.487016 -0.461889 -0.531573 -0.017176 -0.423907 -0.038016 1.103682 -0.178642 0.514757 0.360238 0.176391 0.487143 -0.541364 0.404027 0.164042 -0.169420 -0.083020 0.456745 -0.289331 0.305570 0.466425 -0.114113 0.161368 0.323775 -0.032133 0.394013 1.218543 0.627110 0.274649 0.343716 -0.255500 -0.608711 0.217274 0.399945 0.009167 0.611263 -0.589858 0.374879 -1.125129 -0.284499 0.108577 0.235798 0.207375 1.111488 -0.501531 -0.571600 -0.606703 0.057555 -0.080464 0.501958 0.596973 -0.001902 -0.517165 -0.101267 -0.125221 0.145338 -0.530116 0.127602 -0.435416 0.173627 -0.305370 1.646904 -1.342056 -0.006664 0.437621 0.504355 0.007132 -0.920537 0.800700 -0.818698 0.174751 -0.081132 0.195489 -0.162013 0.696380 0.828489 0.178740 -0.622502 0.409401 -0.457303 0.015469 0.484977 0.344623 -0.664287 -0.065197 -0.752185 -0.545730 -0.418988 -1.050236 0.651987 0.059511 0.929251 -0.117714 0.177155 0.458698 -0.336025 0.017641
H75 -0.282578 -0.413600 1.151772 -0.000002 -0.500884 -0.270724 0.234429 0.199208 0.116904 -0.215021 -0.679087 0.123830 -0.117938 -0.073193 -0.293681 -0.009702 0.243349 0.387118 0.015753 -0.079260 -0.268188 -0.582617 -0.604167 -0.418998 0.075398 -0.521895 0.224043 -0.045140 -0.362145 0.686460 -0.371300 0.114224 -0.303279 0.155726 0.729971 0.060633 -0.413699 1.016200 -0.742677 0.429790 0.537149 0.379330 0.254304 -0.823143 -0.324219 0.260802 -0.153318 0.441908 1.114062 -0.879584 0.142305 0.165976 0.056609 0.473017 0.714774 -0.705861 -0.182550 0.066040 1.355345 -0.310095 0.132154 -0.681896 -0.398494 0.246972 -0.046459 -0.069157 0.059092 -0.198783 0.116901 -0.065878 -0.043003 -0.328027 -0.184675 0.361273 -0.018649 -0.124917 -0.503603 0.098700 0.119299 -0.152530 -0.021274 0.342927 0.095682 -0.352726 -0.645868 0.258953 0.751844 0.580086 0.341867 -0.068013 -0.131824 0.072739 0.768302 -0.523194 -0.279382 0.092873 -0.127595 0.023740 -0.749382 0.690318 -0.496504 0.594626 0.049957 -0.193877 0.219923 0.605735 0.722691 -0.147177 -0.347770 -0.423408 0.045064 -0.508282 0.009807 0.619639 0.476075 0.659904 -0.299664 -0.428419 -0.722996 -0.285526 -0.034109 0.279908 0.679322 -0.023108 -0.171798 0.400883 -0.415661 -0.371575
H64 0.089268 0.076608 -0.107891 -0.317608 -0.426401 0.596360 0.564294 0.080327 -0.513964 0.189588 -0.332912 0.026234 -0.028903 0.228277 0.779171 -0.472569 -0.922849 -0.379598 -0.115996 0.120836 -0.377292 -0.774034 -0.688811 -0.260447 0.566414 0.282748 0.022355 0.472616 0.720024 0.199923 0.043530 -0.811872 -0.791253 0.116435 0.643868 0.130086 -0.496006 0.317577 -0.879144 -0.032575 0.479051 0.143494 0.426754 -1.065289 -0.094972 0.287993 0.157106 0.116792 0.342275 -0.454668 -0.008095 0.487393 0.352452 0.449599 0.445849 -0.259252 0.419099 0.692295 0.562092 -0.096099 0.585753 -0.218906 -0.264830 0.398228 0.226131 0.168728 0.897188 -0.465920 0.011156 -0.256236 0.053143 -0.129929 0.241634 0.363879 0.136436 -0.572706 -0.233027 0.211982 0.441267 -0.009596 -0.084797 0.735025 0.510023 0.177616 0.237819 0.055592 0.802648 -0.490119 -0.219306 -0.582459 -0.207267 0.138842 0.354703 0.092695 0.302806 0.547457 0.620002 0.034149 0.083298 0.443428 -0.839288 -0.146798 -0.154201 -0.113234 -0.494119 0.220281 -0.085683 0.305634 -0.839574 -0.087538 -0.464114 0.010208 0.170101 0.118540 -0.521986 -0.189299 0.052979 -0.373156 0.059334 -0.406547 0.134674 0.500750 0.335612 -0.294396 0.674308 0.440359 -0.440499 -0.098244
H213 -0.184100 -0.161588 0.269042 0.571939 -1.094133 0.407970 0.766531 0.212709 -0.183563 0.033035 -0.261041 -0.246267 0.487453 -0.256391 0.114207 0.031196 -0.647406 -0.383079 -0.495005 0.689594 -0.750412 -0.731457 -0.412836 -0.528845 -0.549190 0.144519 0.337065 0.786422 -0.235783 0.316698 -0.031375 0.225337 -0.070202 -0.280609 -0.375818 -0.594028 -0.261503 0.940942 -0.644147 0.354168 -0.216750 0.160269 -0.291578 -0.649094 -0.525617 0.312091 0.099412 -0.222303 0.510826 -0.940312 0.104973 0.793520 0.421696 0.464309 0.421307 -0.884937 -0.119657 0.562208 0.328049 0.108756 0.828295 -0.026790 -0.310965 0.514644 -0.044379 0.308246 1.534965 -0.032543 0.324795 0.044107 0.069391 0.038929 0.416322 0.484609 0.553036 -0.795429 -0.365776 -0.253429 0.090672 -0.309144 0.188735 0.574872 0.070283 -0.312291 0.352009 0.126683 0.000489 -0.407013 0.097058 0.288345 -0.887532 -0.408812 1.166929 -0.685084 -0.743552 0.628629 0.249731 0.075733 -0.317669 0.006567 -0.592155 0.232042 -0.362910 -0.492465 -0.579948 0.195467 0.040789 0.188298 -0.691364 0.500510 0.341429 -0.355401 -0.070658 0.827879 -0.440122 0.334633 -0.524985 -0.888103 -0.652411 -0.428466 0.656521 0.058887 0.340973 -0.173152 0.363642 -0.056165 0.436027 -0.204813
H35 -0.295101 0.112586 0.809126 0.198422 -0.272590 0.554362 0.382412 -0.655114 -0.768071 -0.539853 -0.334661 -0.118169 0.124707 -0.402918 0.083847 0.213150 0.101333 0.133028 0.260724 0.510200 -0.129937 -0.403917 -0.115449 0.547728 -0.220347 0.010901 -0.346387 0.711408 -0.019492 0.156016 -0.441429 -0.383176 -0.154307 -0.176345 0.506438 -0.189424 -0.796914 0.946537 -0.330295 0.604856 0.531017 -0.197043 0.461493 -1.135134 0.469140 0.070761 0.128431 0.444534 0.283277 -0.667461 0.327535 0.670587 0.369664 0.322163 0.560112 0.120778 0.173656 0.642311 0.272897 -0.377568 0.395077 -0.457347 -0.371778 -0.220686 0.563021 0.052532 0.750959 -0.055330 -0.107008 0.168457 0.736635 0.173348 0.335425 0.543839 0.785242 -0.297414 0.262589 0.265970 0.513370 -0.134560 -0.184014 0.480494 0.175720 -0.585113 -0.195300 0.201958 0.817820 -0.131327 -0.256858 0.105941 -0.620508 0.137132 0.442005 -0.712139 0.611567 -0.293865 0.182346 0.127758 0.073362 0.180178 -0.669848 0.505711 0.467250 -0.458502 -0.258834 0.671731 0.493096 -0.609482 -0.783725 -0.044008 0.138073 -0.137835 0.601517 -0.182095 0.125999 1.079826 -0.553771 -0.073810 -0.615702 -0.112786 0.090196 0.546223 0.610183 0.698801 0.069667 0.930270 -0.409321 -0.111018
H151 -0.419319 -0.642760 0.486787 -0.258558 -0.476475 0.285001 0.372503 0.272011 -0.312747 -0.291636 0.015828 -0.040665 0.249086 -1.100754 0.335499 0.286981 -0.359021 0.255939 -0.624605 0.179842 -0.755802 -0.013278 -0.470039 -0.321216 0.245194 -0.147168 0.041434 -0.084072 0.073946 0.310805 0.175785 -0.142501 -0.347792 0.323412 0.949405 0.459659 -0.473943 0.095084 0.036122 -0.148567 -0.226583 -0.169273 0.764167 -0.484162 0.080785 0.038560 0.144365 1.136735 0.807624 -0.632230 -0.123335 -0.304151 0.405140 0.696541 0.075505 -0.442597 -0.251034 0.120015 0.223932 -0.099879 0.527888 -0.298926 -0.535452 0.060303 -0.146227 -0.223727 0.526079 -0.271880 0.381212 0.154689 0.241536 -0.151289 0.912364 0.477793 0.329941 -0.268645 0.123046 0.175961 -0.231979 -0.096419 -0.246429 0.402657 0.129432 -0.382439 0.064685 0.728516 0.196706 -0.583573 -0.194341 0.225444 -0.391753 -0.270585 0.765617 0.026624 -0.216327 -0.334237 -0.143093 0.000845 0.289948 -0.104431 0.181634 0.883012 0.264354 -0.871663 -0.655204 0.031445 -0.393187 -0.459689 -0.017106 -0.404592 -0.001022 -0.195120 0.442343 0.408026 0.234131 0.620839 0.038528 0.128327 -0.528617 -0.073022 -0.055311 0.302919 0.328124 -0.010632 0.267288 0.663467 -0.225025 -0.795576
H58 0.368600 -0.265670 0.183811 0.584351 -0.377687 0.405443 0.806196 0.394918 -0.556812 -0.085450 0.197627 -0.060052 0.526055 -0.457432 0.241538 0.040770 -0.408129 0.356472 -0.061788 0.551179 -0.055895 -0.079541 0.116223 0.025561 -0.299840 -0.114561 -0.446375 0.424934 0.572686 -0.285477 0.165395 0.289117 -0.066199 -0.241810 0.713002 0.138504 -0.339313 0.638678 0.248098 -0.348165 -0.750696 -0.067653 0.384099 -0.626056 -0.172465 0.461093 0.091614 0.107089 0.257261 -0.588103 -0.023521 0.488123 0.597952 -0.023660 0.138622 -0.166908 -0.142294 0.263053 0.408448 -0.269918 0.772921 -0.242204 -0.303041 0.757288 0.428886 0.199769 0.407578 0.305379 -0.449610 -0.004024 -0.053010 -0.123526 0.322773 0.833510 0.439988 -0.865665 -0.131320 -0.282953 -0.356416 -0.489033 0.213557 0.408704 -0.609190 -0.227751 -0.278924 0.047928 0.474230 -0.136523 0.502480 -0.572911 -0.439861 -0.856359 0.231961 -0.720302 0.092784 0.533607 0.019538 0.404999 0.268482 0.696846 -0.434712 0.258896 0.264935 -0.382371 -0.321452 0.212120 -0.016722 0.030210 -0.720201 0.365578 -0.267025 -0.404327 0.392469 -0.181465 -0.540360 0.429228 0.092297 -0.596624 -0.565906 -0.700419 0.430473 0.670595 0.817847 -0.104930 0.626651 0.945058 0.208055 -0.669166
H182 0.127816 0.058693 0.497491 0.242790 -0.212417 0.015193 0.264221 -0.041970 -0.643061 -0.294170 -0.325321 0.516001 0.525247 0.033557 0.552212 0.653565 -0.621535 -0.232967 -0.195442 0.177927 0.030084 -0.255195 -0.582187 -0.839169 0.519048 0.355177 -0.232570 0.443672 0.239629 0.357518 -0.089862 -0.369109 -0.776004 -0.097700 0.407876 0.819355 -0.125848 0.331983 -0.442187 0.669496 0.171382 -0.107694 0.095311 -0.722135 0.552149 -0.224141 -1.078139 -0.073272 -0.012147 -0.182532 0.023902 -0.537685 0.503544 -0.155150 0.141770 -0.294319 -0.052109 0.549053 1.392062 0.033882 0.419015 -0.177073 -0.626744 -0.696879 0.040316 0.207221 1.132721 -0.070009 0.034723 -0.584665 -0.402338 0.085321 0.736729 0.700442 0.175071 -0.042714 -0.511099 -0.680950 0.445498 -0.513355 0.082147 0.231606 0.203508 -0.017008 0.341108 -0.114177 0.288918 -0.349962 -0.075225 -0.472140 0.318706 0.275053 0.841435 -0.667696 1.054125 -0.037854 0.415295 -0.087140 -0.120750 0.818190 -1.588765 0.558722 0.242285 0.367412 -0.086990 1.213166 0.343118 0.253739 -0.497566 0.991935 -0.895388 -0.068136 0.135795 -0.197883 -0.072027 0.114704 -0.227708 -0.255638 -0.339531 -0.305186 0.374928 0.085981 0.731210 -0.595589 0.530737 0.525889 -0.875924 -0.693248
H52 0.188784 0.194489 0.763058 0.033517 -0.481128 0.501039 0.667697 0.542146 0.275291 -0.370775 -0.178911 -0.106028 1.004855 -0.733946 -0.202778 -0.003997 0.219190 -0.250209 0.007952 0.733708 -0.049371 -0.200098 0.026860 0.004880 0.115177 0.118865 -0.192578 0.235033 0.097223 0.353845 0.348157 -0.375156 0.510507 0.691648 0.180779 0.040772 -0.605486 0.219856 -0.709492 0.751344 0.227555 0.164338 0.667471 -0.487277 -0.357410 0.369223 0.552379 0.152432 0.689090 -0.693123 -0.059130 0.531077 0.660328 0.340780 -0.236024 -0.209589 -0.376484 0.304692 1.092689 -0.011197 0.738576 -0.144215 -0.200494 -0.255207 -0.197662 0.220788 0.822049 -0.551525 0.281779 -0.357688 -0.301095 0.019838 0.179708 0.426944 -0.017433 -0.298861 -0.009919 0.009965 0.182666 0.081532 0.152473 0.469111 0.220077 -0.046434 -0.111560 0.646019 0.321866 -0.287345 0.439112 -0.255557 -0.491130 -0.715994 0.776010 -0.315991 0.188671 -0.154044 -0.406561 -0.219298 0.057861 0.123827 0.264116 0.092000 -0.059898 -0.309782 -0.340953 -0.024477 0.131322 -0.354091 0.047381 -0.348216 0.466542 -0.815943 -0.066516 0.762973 -0.633950 0.585889 0.135224 -0.603393 -0.483436 0.525493 0.420225 -0.245204 0.349545 0.163930 0.547970 -0.002587 -0.831625 -0.558166
H195 0.221602 -0.387076 0.218168 -0.053001 0.106487 0.120879 0.483026 0.160511 -0.302426 -0.312735 -0.180972 0.566098 0.603119 -0.125995 -0.573300 -0.494037 0.178435 0.277981 0.021327 -0.536768 0.310390 -0.960041 0.094472 0.283820 0.020320 -0.029734 0.452517 0.545498 0.438350 -0.205743 0.278492 -0.759009 0.734622 -0.378723 1.027129 0.210155 -0.351842 0.045607 -0.235852 0.527996 0.228123 -0.458473 0.637967 -0.258665 0.638484 -0.033060 0.737508 0.769230 0.610454 -0.614981 0.086424 0.777105 -0.324091 -0.333340 0.151931 -0.111999 0.045322 -0.097440 0.414802 0.049539 0.255590 -0.293281 -0.503743 -0.425005 0.327039 0.078676 0.258564 -0.502047 0.003250 -0.315456 -0.024030 0.211200 0.617676 0.473452 0.238262 -0.099065 0.095414 0.001761 0.364865 -0.076363 -0.342211 0.593925 -0.455073 0.102006 -0.206643 0.501459 0.499534 -0.058259 0.459437 -0.591185 0.166468 -0.027892 0.631671 -0.401204 -0.560514 0.424705 -0.044116 0.276471 0.502536 0.348020 -0.088978 -0.001850 -0.194126 0.081063 -0.388983 0.049596 0.441656 0.048082 -0.291002 0.211263 0.260831 -0.564033 0.399272 0.168129 -0.231568 0.592461 -0.703412 -0.143434 -0.388205 0.093603 0.390472 0.013717 0.961777 -0.180298 0.197311 0.315553 -0.385872 -0.458032
H96 -0.126710 -0.200790 0.348036 -0.468870 -0.242122 -0.106816 -0.066875 -0.036909 -0.014307 -0.207182 0.390121 0.508583 0.188502 0.038839 0.036887 -0.208847 0.294094 0.250862 -0.287396 -0.196961 -0.124598 -0.177508 0.075626 0.363987 0.529865 0.131501 -0.376178 -0.009422 0.362139 0.128400 0.238968 -0.253111 -0.264364 -0.306400 0.208143 0.614229 0.287632 0.400291 -0.234248 -0.235679 0.050405 -0.028998 0.187038 -0.476904 0.046070 0.156988 -0.151035 0.030337 0.669454 -0.467247 0.302348 -0.184244 -0.391898 0.174736 0.729559 -0.336137 -0.199813 0.680058 0.352003 0.367608 0.097425 -0.166827 -0.316505 -0.141877 -0.106145 -0.304903 0.269511 -0.199080 0.461988 0.061328 0.558813 -0.387565 -0.092522 0.517165 -0.281170 -0.429385 0.164533 -0.078596 0.302888 -0.320363 0.343567 0.730416 0.318797 -0.124943 0.019677 0.313286 -0.340771 -0.324690 0.218472 0.106762 -0.239504 0.039026 0.742006 -0.761741 -0.140896 0.271828 0.299681 -0.050025 -0.655003 -0.586758 0.149957 -0.337388 -0.239860 -0.001288 -0.490029 0.505453 0.129655 0.480509 -0.699439 0.289357 0.311050 -0.327235 -0.063219 -0.047258 -0.248455 -0.094953 0.148610 -0.825477 -0.595195 -0.247637 0.240320 0.321321 -0.177158 0.360356 0.241874 0.692965 -0.186747 -0.528967
H31 0.007672 -0.242515 0.444838 -0.539987 -0.201627 -0.324381 0.222925 -0.033300 -0.232381 -0.338998 0.248520 -0.261988 0.486662 -0.021788 -0.094181 0.334221 -0.039636 0.635572 0.363652 -0.369503 0.208288 -0.590723 0.291233 -0.393350 0.639998 0.216320 0.459036 1.032041 0.001853 0.264049 0.190758 0.212462 -0.084458 0.030240 0.093764 0.259265 -0.227351 0.748906 -0.290486 0.516462 -0.447287 0.135630 0.439007 -0.240231 -0.406631 -0.090934 0.340839 0.122584 0.051550 -1.020633 -0.465955 -0.357920 0.262774 0.490668 0.230741 -0.583703 0.730576 0.168777 0.201620 0.141598 0.770463 -0.473700 0.317964 0.401179 -0.049156 0.453303 -0.076549 0.176831 0.099577 -0.232112 -0.173746 -0.176416 0.282699 0.613078 -0.223724 -0.448860 0.029115 -0.377579 -0.469333 -0.073328 0.313243 0.823011 0.013948 -0.130933 0.128070 0.538473 0.317672 0.288810 -0.227328 0.197344 0.143711 -0.244888 1.218446 -0.341250 0.044875 0.350448 -0.302160 0.202229 -0.380040 -0.035414 -0.227552 0.423831 -0.355443 -0.436274 0.050325 0.584207 0.368334 -0.196003 -0.442961 -0.548519 -0.071664 0.088010 0.189176 0.518230 -0.227060 0.989061 -0.040189 -0.286771 -0.603952 0.056249 0.798447 0.228428 0.758555 -0.010888 0.342433 0.407056 -0.455461 -0.061273
P829 -0.296139 -0.330607 0.100012 -0.302424 -0.358209 0.482824 0.495613 0.299625 0.062879 -0.458861 0.299178 0.045121 0.298095 -0.692271 0.455406 0.394469 -0.338814 0.238105 -0.705362 0.073520 -0.674778 -0.289016 -0.451809 -0.250001 0.434676 0.163692 -0.179472 0.018432 -0.008628 0.185910 0.033773 -0.294877 -0.437770 0.256827 0.842778 0.468217 -0.781547 -0.022770 0.096021 -0.200396 -0.309221 -0.141538 0.784531 -0.428696 0.067493 0.252594 0.015112 1.016277 0.629992 -0.347094 -0.111734 -0.470964 0.301921 0.769145 0.043070 -0.653703 -0.058796 0.224753 0.144129 0.059022 0.474079 -0.305356 -0.192068 0.051404 -0.271860 -0.058790 0.606356 -0.500987 0.229272 0.217125 0.242208 -0.024100 0.788304 0.283399 0.205539 -0.486119 -0.115265 0.253627 0.015436 0.030248 -0.230136 0.261542 -0.005145 -0.096487 0.275678 0.604300 0.292571 -0.865775 -0.163020 0.187176 -0.384964 -0.167097 0.515113 0.062107 -0.326621 -0.248562 -0.048879 0.018568 0.351602 0.066799 0.028031 0.992839 0.237679 -0.672495 -0.555202 -0.058982 -0.458044 -0.566019 0.025302 -0.146269 0.101425 -0.158406 0.371907 0.348559 0.350479 0.447392 -0.038570 0.244521 -0.480622 -0.115257 0.032358 0.208102 0.346179 -0.254923 0.038056 0.456695 -0.049591 -0.634005
H84 -0.167605 0.175424 0.606530 0.402184 -0.101505 -0.162174 0.453407 0.257568 -0.421131 -0.017872 -0.119829 -0.099162 0.327874 0.061126 0.275484 -0.131035 0.091558 -0.038827 -0.540389 0.053197 -0.025548 -0.218974 0.160790 0.580479 0.310348 0.101527 -0.670748 0.184300 0.172585 0.240862 -0.016644 -0.356990 -0.110455 0.224079 -0.178493 0.533903 -0.301315 0.702134 -0.173854 0.688830 0.499813 0.312066 0.618296 -0.033342 0.290516 0.003862 -0.100055 0.023900 0.838597 -0.686632 -0.248641 0.244094 -0.109618 0.505987 -0.179704 -0.222219 -0.288003 0.425859 0.623684 -0.233950 0.099883 -0.078019 -0.216739 -0.801021 0.499525 -0.152538 -0.097970 0.034272 0.289036 -0.130968 -0.178035 0.286082 0.551333 0.430903 0.044725 -0.283524 0.006081 -0.050536 -0.246107 -0.426484 -0.572125 0.344280 0.189839 0.042471 0.064111 -0.515024 -0.037304 -0.042674 0.045267 -0.235478 0.172049 -0.401132 0.707840 -0.347199 0.550036 0.345796 0.371582 0.066993 -0.181245 0.420977 -0.210996 -0.433319 -0.413887 -0.138705 -0.479805 0.387090 0.169339 -0.008863 -0.595247 0.334292 -0.158928 -0.572673 -0.007286 -0.228810 0.251241 0.090973 0.200046 0.013995 -0.630868 -0.448318 0.077212 -0.304290 0.183821 0.275922 0.141662 0.353083 -0.346155 -0.072161
H65 0.118773 0.089758 0.124511 -0.354975 -0.332451 0.289272 0.476189 0.199788 -0.674788 0.147056 -0.369459 -0.037198 -0.130867 0.147904 0.767569 -0.439240 -0.849772 -0.255629 -0.072804 0.133598 -0.407065 -0.904692 -0.597358 -0.555643 0.530089 0.293680 0.194701 0.347517 0.750022 0.075722 0.087044 -0.727978 -0.579139 0.113363 0.552400 0.238003 -0.488206 0.373927 -1.003638 -0.157235 0.376322 0.137398 0.516790 -1.015983 -0.025339 0.222090 0.152276 0.234669 0.306645 -0.474733 0.040583 0.377100 0.422833 0.552999 0.552534 -0.250468 0.538446 0.508525 0.489904 -0.033545 0.595082 -0.178057 -0.424890 0.355117 0.238317 0.096962 0.837661 -0.535742 0.051289 -0.304822 -0.078161 -0.197764 0.241964 0.525136 0.124927 -0.404272 -0.160082 0.252868 0.446178 0.178432 0.036332 0.722766 0.429464 -0.019612 0.063162 0.111798 0.802705 -0.390980 -0.204452 -0.667421 -0.055068 0.071716 0.314942 0.112294 0.206863 0.429757 0.373607 -0.115689 0.091289 0.407382 -0.578137 -0.032813 -0.077067 -0.066815 -0.544370 0.195753 -0.057173 0.139522 -0.800433 -0.213628 -0.457244 0.017369 0.347582 0.128731 -0.704624 0.055074 0.114966 -0.306179 0.051833 -0.234640 0.267749 0.572873 0.178160 -0.032043 0.699836 0.534237 -0.868226 -0.203948
H18 0.309923 0.124148 -0.144704 -0.192171 -0.243356 0.252675 0.160188 0.032080 0.288816 -0.507508 0.580634 0.082774 0.859990 -0.023035 0.050823 0.340152 -0.444654 0.677311 -0.306353 0.230556 -0.036427 -0.147888 0.187237 -0.282081 0.232312 0.811487 -0.467499 0.214234 -0.139776 0.403142 0.361217 -0.562359 -0.335707 0.150100 0.129254 0.456176 -0.277365 0.552666 0.134415 0.830556 0.082085 0.292509 0.548098 -0.227452 -0.037655 0.213952 -0.136554 -0.073426 0.867732 -0.611889 0.197568 0.151467 0.014948 0.364994 0.673616 -0.674749 0.215731 0.673598 1.035284 1.106353 0.316360 -0.562573 0.312332 -0.000878 0.327144 0.250488 0.540646 -0.589583 -0.043778 -0.322222 0.416729 -0.281179 0.379430 0.457064 -0.146942 -0.019788 -0.586170 -0.867851 0.007669 -0.539276 -0.482991 1.287039 0.341435 0.155332 0.869685 0.428659 -0.190872 -0.811002 -0.473167 -0.354230 -0.145002 -0.302925 1.672209 -1.009049 -0.513164 0.458830 0.471094 0.056855 -0.444885 0.527385 0.080478 0.188549 -0.398215 0.062045 -0.353394 0.184136 -0.053523 -0.533101 -1.046585 0.246167 -0.000848 -0.649225 0.172645 0.188275 -0.316350 -0.138301 -1.062919 -0.183028 -0.380323 -0.519545 -0.059980 -0.043046 0.617610 -0.361289 -0.144510 -0.010359 0.351324 0.261377
P826 0.244227 -0.106249 0.347169 -0.398273 -0.269107 0.302903 0.625183 -0.374261 0.372344 -0.081162 0.322494 -0.280696 1.042576 -0.607304 0.543771 0.093822 -0.272326 0.386294 -0.331420 0.193236 -0.550699 -0.331601 0.147443 -0.282960 0.625791 -0.048114 -0.030142 0.260505 0.145551 0.123701 0.230218 -0.131968 -0.242691 -0.202357 0.903930 -0.052785 -0.422976 -0.320361 -0.221649 0.250366 -0.107661 0.064309 0.807923 -0.356023 -0.058752 0.199867 0.222403 0.925189 0.685309 -0.760327 -0.263839 -0.041320 0.461597 0.448444 0.177991 -0.135107 -0.299237 0.121568 0.211581 0.388786 0.444953 -0.746067 0.073659 -0.478802 0.254590 0.212505 0.251852 -0.669419 0.093700 0.805959 0.144382 0.282974 0.277767 0.708594 -0.122529 -0.503503 -0.705543 0.049006 -0.359804 -0.022510 -0.270821 0.000293 -0.499821 0.005373 0.163663 0.961985 0.107306 -0.858725 -0.235938 -0.242365 -0.330850 -0.300544 0.236321 0.269911 -0.382564 -0.066593 0.283285 -0.024894 0.407244 0.061183 0.115871 0.402231 -0.325922 -0.310282 -0.598161 0.264196 -0.352753 -0.381826 -0.080637 0.005203 0.055172 -0.364281 0.742237 0.166025 0.272527 0.353775 -0.332451 0.143393 -0.633718 0.137631 -0.130478 0.453462 1.026986 -0.127532 0.080089 0.607516 0.284580 -0.734795
H203 -0.483675 -0.195755 -0.307390 0.265045 -0.343497 0.585505 0.422104 -0.524573 0.020864 -0.193516 -0.131028 0.054890 1.092671 -0.265210 -0.503371 0.379929 -0.868221 -0.252305 -0.683181 -0.473190 -0.283450 -0.038587 -0.383690 0.009310 0.616624 0.530646 -0.101691 0.405174 0.368906 -0.200420 0.387119 -0.342547 -0.109582 0.539874 0.961326 0.575947 -0.799859 0.091682 -0.213351 0.618621 -0.000715 -0.166506 0.858185 -0.725217 0.160272 -0.534391 -0.047788 -0.019057 0.811524 -0.847052 0.125988 -0.204984 -0.473318 -0.543951 -0.117056 -1.201868 0.451844 0.231024 1.055847 0.544791 0.176044 -0.038430 -0.633157 0.291779 0.511665 -0.320444 0.294136 -0.557419 0.118674 -0.295133 0.256864 -0.354509 0.589375 0.175000 0.250856 -0.315188 -0.146505 -0.188858 -0.610667 -0.266906 -0.086898 0.512868 0.690225 0.335384 0.334952 0.276933 0.215147 -0.495811 0.205139 -0.336641 0.124675 0.288001 1.264582 -0.665674 0.985802 0.217856 0.248378 0.273264 0.064422 1.207956 -0.521481 0.683957 -0.259381 -0.351231 -0.030394 0.617325 0.099099 0.181777 -0.492396 0.056808 -0.000243 0.207822 0.557229 -0.164082 -0.144139 0.037702 -0.805015 -0.044157 -0.241671 -0.671757 0.510226 0.291308 1.054690 -0.736689 0.574326 0.421290 -0.058068 -0.774693
H107 -0.132460 -0.164930 0.182631 0.326357 -0.600144 0.333858 0.253122 0.317623 0.183081 -0.461522 0.100606 0.763337 0.682181 -0.017326 -0.175280 0.246419 -0.294529 -0.173847 -0.123193 -0.264162 -0.345834 -0.947970 -0.086692 -1.137638 0.208236 -0.142860 0.221548 1.044525 0.295642 0.028075 0.114048 -0.174428 -0.375199 0.140067 0.309818 0.044785 -0.671306 0.702602 -0.430101 0.652116 -0.024406 0.191593 0.123301 -0.733469 -0.601601 -0.092747 0.496160 0.177183 0.790986 -0.916924 0.650419 0.480363 -0.125670 -0.138355 -0.325537 -0.827344 0.019302 0.936774 0.646454 0.497641 0.495515 -0.204344 -0.154536 -0.388436 0.385659 -0.300621 0.526887 -0.497219 0.308800 0.005897 -0.294809 -0.694830 -0.144757 0.787929 0.431541 -1.084144 0.259995 -0.493499 0.194495 -0.432241 0.573538 0.639557 0.112316 -0.397420 -0.300035 0.376702 -0.255793 -0.609856 0.308488 0.354009 -0.264107 -0.259017 0.838064 -0.686101 0.116595 -0.343355 -0.280105 0.232542 -0.100829 0.342158 -0.932418 0.327966 -0.617111 0.268792 -0.409245 0.556633 0.142280 0.227807 -1.202038 0.069451 0.059597 0.022391 0.117238 -0.248138 -0.538792 -0.072409 -1.055649 -0.167543 -0.040471 -0.830986 -0.019890 0.345756 0.475329 -0.676356 0.239736 -0.337179 -0.440885 -0.690414
H82 -0.030809 -0.244783 0.846983 0.035853 -0.287438 0.096142 0.667874 0.191853 -0.379759 -0.381470 -0.238274 0.177259 0.746063 -0.314867 0.152359 -0.111491 -0.130987 0.422430 -0.399223 0.013919 -0.090647 -0.623633 -0.105212 -0.229676 0.362380 -0.056013 -0.277747 0.491431 0.125230 0.307650 0.077537 -0.395713 -0.247779 0.022748 0.648712 0.425844 -0.303404 0.652542 -0.480963 0.422080 0.094658 -0.125655 0.627497 -0.686253 0.134482 -0.009805 0.137437 0.572894 0.574088 -0.767491 -0.055394 0.218751 0.317162 0.403766 0.390130 -0.536681 -0.066058 0.208068 0.632736 0.116289 0.613112 -0.275555 -0.448964 -0.201953 0.053613 0.122846 0.716948 -0.217659 0.197506 -0.160363 0.046751 -0.001573 0.683827 0.606678 0.290073 -0.531885 -0.193479 -0.318025 -0.114346 -0.252588 -0.287555 0.672026 0.150406 -0.277541 0.178521 0.410152 0.320467 -0.350099 0.172034 -0.340210 -0.067848 -0.171494 0.791847 -0.538301 0.010473 0.245831 0.133004 0.015963 -0.302138 0.224480 -0.352872 0.203984 -0.267143 -0.193259 -0.482755 0.538984 0.184277 0.075886 -0.631680 0.048868 -0.029943 -0.540771 0.284091 0.200241 -0.204596 0.495890 -0.247555 -0.501555 -0.742399 -0.418464 0.375719 0.272973 0.607017 0.005979 0.316107 0.774322 -0.245864 -0.468772
H175 -0.159115 0.032117 0.407447 -0.228798 -0.243399 -0.418404 0.918853 0.084172 0.897362 0.104903 -0.024760 0.022260 1.393262 -0.125245 -0.156187 0.203383 -0.381520 0.362550 -1.110643 -0.059977 -0.662780 -0.455842 -0.245199 0.398473 0.198860 0.352888 -0.842842 0.108410 0.358347 1.027856 0.160575 -0.412485 -0.530929 -0.054191 -0.324204 0.207695 -0.716777 0.291567 -0.321536 0.551388 0.063883 -0.296970 0.235920 -0.480504 0.274906 0.231805 -0.437286 0.309535 0.061807 -1.197015 -0.110498 0.133657 0.006132 0.411272 0.493292 -0.538370 -0.103631 0.791541 0.620362 1.022757 0.496830 -0.084790 -0.379069 -0.846089 -0.392733 0.823744 0.972420 -0.301948 0.178845 0.056094 -0.315813 0.611708 0.657322 1.316733 0.467074 -0.707694 -1.067925 -0.311789 -0.586476 -0.021034 -0.724046 0.252519 -0.729715 0.141741 0.232220 -0.058417 -0.292428 -0.142522 0.053523 -0.104437 -0.000602 -0.033371 0.715373 0.161187 -0.090859 0.965665 0.106775 0.207117 -0.551055 0.405896 -0.809111 0.343030 -0.369879 -0.089396 -0.794612 -0.163452 -0.066150 0.102151 -0.307417 -0.193172 -0.147933 -0.641741 -0.135971 0.344139 -0.454825 0.132127 -0.187120 0.111576 0.041332 0.014708 -0.023770 0.054376 0.673416 -0.390255 -0.225287 0.093492 0.273330 -1.090797
H55 0.032867 0.196298 -0.018059 -0.143301 0.275689 0.759133 0.691069 0.191120 -0.073334 -0.549950 -0.091196 0.186255 1.240057 -0.623642 -0.430808 0.210596 0.203854 -0.086762 -0.252412 0.297688 0.559191 -0.011750 0.201866 0.248353 1.069109 0.308454 -0.751212 0.820702 0.296418 -0.058588 0.442601 -0.960254 0.188411 0.240465 0.878615 -0.111542 -0.566365 -0.546105 -0.029417 0.172301 0.213222 -0.170626 0.872409 -0.465927 -0.057659 0.155402 0.629979 0.153581 0.378129 -0.276215 -0.496954 0.507060 0.287664 -0.265582 0.159805 -0.662780 -0.094347 0.308599 0.722936 0.238954 0.744717 -0.283238 0.121232 -0.385501 -0.215175 0.453029 0.748688 0.120906 0.707578 0.000570 0.270622 -0.178834 0.644622 0.085409 0.540747 -1.199228 0.005356 -0.805646 -0.051523 -0.272429 -0.146671 0.720665 0.579695 0.075089 0.961390 0.227925 -0.084129 -1.419792 0.045634 -0.727549 -0.414323 -0.006171 0.819694 -0.225199 0.219067 0.325132 0.410953 0.111597 0.283179 0.293187 -0.368529 -0.404755 -0.291965 0.073203 -0.432840 0.221200 -0.368788 0.637270 -0.403112 0.436089 0.270955 -0.315486 -0.258077 -0.083402 -0.104176 -0.058873 -0.138668 -0.533861 -0.670456 -0.181618 0.372576 -0.504211 0.804814 -0.380675 0.402572 0.533535 0.563910 -0.288448
H178 -0.189031 0.009052 0.495224 0.566970 0.062504 -0.247610 0.330393 0.015568 -0.366959 -0.193467 -0.331224 0.194487 0.800743 -0.091957 -0.094381 0.940707 -0.557934 -0.048900 -0.450535 0.207822 0.170596 -0.154664 -0.095358 -0.527213 0.476749 0.581447 -0.252221 0.118389 0.181962 0.102188 0.052902 -0.423374 -0.426937 0.354545 0.001278 0.872423 -0.317594 0.395678 -0.595035 0.993193 0.392575 -0.013311 0.191667 -0.564883 0.442249 -0.301692 -0.757632 -0.213644 -0.105849 -0.402553 0.010373 -0.235416 0.530427 -0.140409 0.206571 -0.737010 0.253738 0.466280 1.494500 0.145564 0.440979 0.021760 -0.901478 -0.699506 0.187144 0.337245 1.176940 0.216606 0.122247 -0.865693 -0.526181 0.198496 0.899288 0.626446 0.243787 0.291015 -0.595328 -0.761397 0.148910 -0.184226 -0.078179 0.126961 0.245644 0.121168 0.442278 -0.150919 0.027181 -0.010032 0.033359 -0.560224 0.418199 0.017876 0.802269 -0.554738 0.970450 0.109301 -0.086363 -0.022021 -0.323556 1.130228 -1.093595 0.418340 0.224109 0.397720 -0.104339 0.804206 0.541047 0.021152 -0.501118 0.718420 -0.777806 -0.132612 0.201080 -0.172295 0.019654 0.213296 -0.175362 -0.158174 -0.456225 -0.324258 0.654659 -0.004751 0.795936 -0.416115 0.285294 0.127853 -1.013403 -0.680658
H15 0.071778 -0.436101 -0.049381 -0.290312 0.002846 -0.066728 0.575392 -0.250347 0.396807 -0.355684 -0.710557 -0.162237 0.725009 -0.606342 -0.924240 -0.000830 -0.232647 0.619790 -0.024537 0.184178 0.356559 -0.848018 0.252002 0.028558 0.350585 -0.018788 -0.280648 0.921191 -0.534501 0.598941 0.203040 -1.014944 0.570734 -0.065818 0.293974 -0.016094 -0.812334 0.419143 0.124326 1.550406 0.356504 -0.050679 0.895871 -0.157594 0.222501 0.371273 0.579945 -0.088571 0.406184 -0.669231 -0.303028 0.837706 0.103472 -0.295322 -0.233571 -0.592572 -0.187731 0.448902 1.187452 0.127760 0.450133 -0.366830 0.206397 -0.519461 -0.135206 1.129077 0.208116 0.165933 -0.007056 -0.489506 -0.060231 0.350539 0.667081 0.277721 0.661481 -0.792565 -0.872173 -0.450002 -0.289224 0.299500 -0.535036 0.666799 -0.111708 0.080003 0.491461 -0.152336 0.094563 -0.539385 0.114419 -0.160176 -0.410957 0.170903 0.677191 -0.568595 -0.110841 1.291110 -0.380220 0.029853 -0.273182 0.138057 -0.465815 0.354797 0.169655 0.175454 0.147360 0.656607 0.424310 -0.204048 -0.729593 0.138549 0.036851 -0.327137 -0.211286 0.470054 0.082647 1.139942 -0.915338 -0.231429 -0.849837 -0.141994 0.228016 -0.149875 0.824775 -0.678521 -0.237831 -0.109552 -0.091947 -0.317727
H132 -0.187206 -0.374085 0.545650 0.466080 -0.521867 0.318825 0.017131 0.058015 -0.247458 -0.637456 -0.294759 0.041716 0.542521 -0.442534 -0.267928 -0.115289 -0.111140 0.153369 -0.039846 -0.550313 -0.836261 -0.640398 -0.733504 -0.629870 -0.569123 0.460650 0.186876 0.650133 -0.273983 0.292903 -0.159760 -0.240520 -0.218127 -0.106287 1.011514 -0.281733 -0.657112 0.097733 -0.115112 -0.051292 0.053059 -0.013439 0.477299 -1.061888 -0.644502 0.108110 0.122136 0.629247 0.673662 -0.797796 0.203779 0.561088 -0.078780 0.231126 0.959573 -0.831036 0.369837 -0.182692 0.541623 0.860602 0.487955 -0.698976 -0.060738 -0.006337 0.033778 0.138445 0.525783 -0.439769 -0.157876 0.625324 0.623214 -0.572368 0.024843 0.424259 0.813012 -0.610483 -0.180098 -0.410092 -0.215600 0.519268 -0.310231 0.842883 0.374946 -0.519310 0.386735 0.698135 0.375002 -0.345594 -0.275133 0.300696 0.077373 0.172032 0.237011 0.018873 0.077478 -0.045333 -0.631053 0.417238 -0.186514 -0.250726 -0.881032 0.262088 -0.060599 -0.193677 0.032774 0.392327 -0.642020 0.404514 -0.670686 -0.684410 -0.202907 -0.118671 -0.120633 0.513113 -0.807004 0.839830 -1.271276 -0.561372 -0.280084 -0.767709 -0.115333 0.900290 0.804313 -0.127097 0.274533 0.671738 0.367996 0.080169
H3 -0.245837 0.410041 0.127963 0.156887 -0.219891 0.348838 0.307158 0.134651 -0.162982 -0.173908 -0.224549 0.395768 1.089361 -0.021934 0.173033 0.028506 -0.224793 0.685441 -0.058275 -0.901678 0.313429 -0.425734 -0.257452 -1.243498 0.509941 -0.076332 0.171772 0.782246 -0.684577 0.185378 -0.134064 -0.949473 0.100901 -0.258928 0.793162 0.076785 -0.381707 -0.024159 -0.357469 -0.149760 -0.144258 -0.001075 0.778444 -0.668445 -0.142273 -0.131685 -0.122747 0.850482 0.563521 0.074880 0.047704 -0.557273 -0.277676 0.489584 -0.032423 -0.322341 -0.183628 0.160255 0.708908 0.953237 0.412791 -0.304723 0.365638 -0.207751 -0.543720 -0.022422 0.627266 -0.820104 0.660809 -0.070628 0.292925 -0.262794 0.977438 0.802007 0.688147 -0.330616 -0.190599 -0.679990 -0.296953 -0.370862 0.552982 0.310591 0.313644 -0.369240 0.882643 0.617203 -0.137595 -1.016655 -0.054620 -0.349029 0.599162 -0.324303 1.514105 -0.030886 -0.465239 0.590669 -0.032001 -0.269648 0.083814 0.217429 -0.577175 0.493919 -0.766013 0.268111 -0.212718 0.489145 0.219644 0.325766 -0.104029 -0.031977 -0.308285 -0.392680 0.327796 0.494619 -0.552501 0.051530 -0.850909 0.275810 -0.458744 -0.237448 0.415389 -0.201706 0.583446 -0.684546 -0.360784 0.394681 -0.079368 -0.071805
H119 -0.174801 0.099313 -0.098305 0.063404 -0.397250 0.806716 0.920917 0.235287 -0.399604 0.285361 -0.284309 0.474101 0.945541 0.260920 -0.382796 0.192733 -0.943867 0.214483 -0.695901 0.054938 0.123511 -1.071989 -0.538217 -0.147112 -0.289592 0.258342 0.261280 0.933874 0.298465 0.402660 -0.401623 -0.582329 0.056796 -0.260227 0.284622 -0.535846 -0.537796 0.468404 0.015700 0.648008 0.483981 0.468616 0.281644 -0.527408 -0.222038 0.242693 0.905270 0.516197 -0.148041 -0.611175 0.635219 0.194800 0.015044 0.252374 0.051210 -0.504696 0.214239 0.801826 0.489260 0.293054 0.600665 0.226652 -0.429372 0.129100 0.423249 0.406676 1.338062 -0.622086 0.394868 -0.644470 -0.232429 -0.107764 0.712026 0.451258 0.653284 -0.204498 -0.777798 -0.145555 0.100614 -0.649739 0.407875 -0.100319 0.231063 -0.528553 0.402153 0.501951 0.518251 -0.524675 0.467961 -0.316691 -0.138236 -0.557844 0.541958 -0.249060 0.246152 0.637279 0.197821 -0.015705 0.326242 0.557808 -0.684133 0.722747 -0.188663 -0.321510 -0.092673 0.357542 0.607887 -0.339444 -0.250521 0.002766 -0.470402 -0.166037 0.644821 0.133134 -0.416473 0.560515 -1.420288 0.128020 -0.628063 -0.139627 -0.029974 0.250727 1.201728 -0.730328 0.259120 0.230269 -0.130228 -0.450866
H215 -0.215933 -0.312216 0.185276 0.188805 -0.528981 -0.094581 0.974315 0.380826 -0.848111 -0.486485 -0.209079 -0.057383 0.722052 -0.553640 0.132568 -0.166799 -0.065001 0.137584 -0.272593 -0.249236 -0.097202 -0.360377 -0.415523 0.168439 -0.274516 -0.178590 0.465985 0.315489 0.555065 -0.112618 0.293326 -0.280956 -0.237790 0.399141 0.576792 0.227096 -0.567038 0.233255 -0.264257 0.608684 -0.187880 0.284944 0.104206 -0.609812 -0.409335 -0.164785 -0.078969 0.455518 0.944084 -0.665295 -0.194417 -0.464968 0.570392 0.182711 0.063596 0.207262 -0.225020 0.153655 0.565148 0.208375 0.329462 0.248119 -0.623691 -0.076240 0.361320 0.415593 1.128774 -0.318656 -0.521466 0.283057 0.410394 0.420283 1.013530 0.222831 -0.050411 -0.234029 0.742140 -0.393193 0.411568 0.267689 0.176918 -0.176303 0.124860 -0.043365 -0.024165 0.265294 0.840758 -0.787270 0.607889 -0.443280 0.220874 0.314381 0.471549 -0.594984 -0.144702 -0.588182 -0.199723 -0.197354 -0.455859 0.002332 -0.526150 0.085853 -0.378883 -0.377958 -0.451604 0.245646 0.337838 -0.019433 -0.605283 0.117749 -0.364598 -0.641652 0.550175 1.135782 -0.659639 0.329735 -0.661605 -0.362741 -0.447755 -0.433705 0.751862 0.129329 0.143492 -0.173302 0.372253 0.610917 -0.604350 0.077315
H103 -0.016079 -0.030409 -0.186249 0.092473 0.071632 0.380842 0.562979 -0.037006 0.529605 -0.552643 -0.077531 0.230562 0.447869 0.012881 -0.313113 0.164119 0.289803 0.623400 -0.064351 -0.246708 -0.236751 0.201473 -0.203690 0.019426 0.148232 -0.067301 -0.825233 0.461364 0.157848 0.522545 -0.005996 -0.372625 -0.464605 0.135447 0.601840 0.361806 -0.577427 -0.090054 -0.182175 0.830657 0.412264 0.102391 0.485011 -0.902486 0.410182 -0.034566 -0.434454 -0.118898 0.997670 -0.454330 -0.117275 0.005405 -0.031730 -0.451866 -0.164632 -0.188742 -0.309711 0.665516 1.218018 0.889286 0.192505 -0.871477 -0.041463 -0.211710 0.494474 0.378908 0.672662 -0.669515 -0.241178 0.172890 0.489758 0.606408 0.747284 0.759481 0.773827 -1.138188 -0.657648 -0.357034 0.054722 -0.274289 -0.909788 0.795482 -0.148722 0.576435 0.024316 -0.215443 0.569198 -0.331403 0.320283 -0.321460 0.365515 0.592400 0.500106 -0.715625 0.205377 1.131092 0.145145 0.138123 -0.443194 0.934898 -0.804827 0.046128 -0.256492 -0.323876 0.219255 0.449183 -0.273425 0.293433 -0.843482 -0.135441 -0.095669 -0.575321 -0.222464 0.169883 0.064401 -0.051573 -0.450957 -0.644237 -0.076933 -0.811278 0.063651 -0.126710 0.886623 -0.320649 0.409902 0.207186 -0.013570 -0.555690
H63 0.123810 0.216370 0.882007 -0.036390 -0.410233 0.374820 0.696583 -0.088842 0.484653 -0.710199 0.455666 0.103261 1.172383 -0.099214 -0.211824 -0.698767 -0.718204 0.362136 -0.314625 -0.256416 0.084536 -0.565975 -0.462141 0.111612 0.965675 0.403598 -0.484235 1.129018 -0.278904 0.160018 1.181324 -0.524088 0.055363 -0.122259 0.707739 0.773135 -0.615772 -0.453731 -0.351448 0.014247 0.211059 -0.648981 0.772165 -0.429300 0.091245 0.037207 0.303864 -0.493757 0.522646 -0.533907 -0.287105 -0.171806 -0.255338 -0.007510 -0.098512 -0.629838 -0.373865 0.227704 0.978438 0.690658 0.085541 0.074151 0.218697 0.126869 -0.235405 0.840399 0.065931 -0.391158 -0.387275 -0.747562 0.098205 0.120905 0.395371 0.439839 -0.418807 -0.118496 -0.683025 -0.532318 -0.541225 0.014763 -0.006092 0.683783 0.397033 0.241237 0.849600 -0.072968 0.230791 -0.699104 0.393631 -0.133511 0.198855 -0.525680 0.686286 -0.025756 0.366998 0.539083 0.102936 -0.079502 -0.207111 0.523730 -0.639155 -0.064616 -0.110933 0.503833 -0.547910 0.593534 0.395644 0.197420 -0.181393 0.252610 -0.359064 -1.010691 0.070526 0.469811 -0.519057 0.692484 -0.789110 0.145068 -0.756252 -0.262008 0.449922 0.468875 0.344598 -0.642466 0.589846 0.274593 0.563537 -0.604532
H74 -0.018756 -0.283135 0.560098 -0.254859 -0.491887 0.985526 0.678797 -0.194512 0.438681 -0.078749 -0.374889 -0.047796 0.260296 -0.168352 0.015153 -0.597188 0.090391 -0.325535 -0.091218 0.041960 -0.354680 -0.335369 -0.711903 -0.966493 -0.053756 -0.383802 0.127887 0.511018 -0.069895 0.600860 0.280306 0.041800 -0.043055 -0.137870 1.044861 0.120589 -0.160132 0.448578 -0.563124 0.529277 -0.265395 0.307976 0.266460 -1.083304 -0.559536 -0.263786 0.502732 -0.143497 0.640293 -1.142813 0.571039 0.563748 0.337118 -0.294991 0.325186 -0.324293 0.362466 -0.167065 0.722875 0.478382 0.724965 -0.155857 0.070022 0.704639 0.531175 0.595410 0.904545 -0.256172 -0.926765 -0.152714 0.032817 -0.362827 0.625880 0.440812 -0.134732 -0.465164 -0.366233 -0.356285 0.064762 -0.000683 -0.225445 0.653219 0.034630 -0.523956 -0.107497 0.343693 0.439531 0.214937 -0.301107 -0.220869 -0.307493 0.275952 0.873182 -0.309292 -0.429256 -0.098884 0.230298 -0.151640 0.116106 -0.357812 -0.561039 0.671792 0.298595 -0.177443 -0.742739 0.904691 -0.285225 -0.221886 -0.481379 -0.652319 -0.102625 -0.964261 0.308038 0.012038 -0.494801 0.415979 -0.582188 -0.244766 -0.244252 -0.509116 0.216890 0.977632 0.683422 -0.183014 1.126159 0.316386 0.184477 0.322295
H152 0.103564 -0.474353 0.824817 0.414766 -0.339119 -0.189042 0.578382 0.712259 -0.709252 -0.518604 -0.092490 0.088198 0.690490 -0.098199 0.646553 -0.115264 -0.601976 0.409421 -0.236933 -0.475944 -0.197173 -0.894936 -0.314195 -0.475116 0.656746 0.954247 0.254496 0.479364 0.331439 -0.122062 0.102289 0.515868 0.509739 -0.077558 0.235856 0.053508 -0.540384 0.535440 -0.016924 0.196736 0.329246 -0.339934 0.340848 -0.612875 -0.045795 0.328439 -0.092282 0.914228 0.484107 -0.387626 -0.101467 0.582787 0.697253 0.096566 0.168798 -0.661035 0.324663 -0.035208 0.932557 -0.035783 0.404744 -0.643670 -0.953220 -0.281759 -0.076250 -0.263874 0.797131 -0.299234 0.632590 -0.325064 -0.026238 0.175350 0.124816 0.085472 0.611919 -0.157953 0.197707 -0.054705 0.269919 -0.083782 0.696241 0.516184 -0.010218 -0.873353 -0.394613 0.444387 0.266188 0.070332 0.457199 -0.493182 0.477799 -0.821861 0.687491 -0.581303 -0.062661 -0.115568 -0.436248 -0.164180 0.126166 -0.024461 -0.079268 0.528003 -0.225936 -0.552317 0.019405 0.346878 -0.275587 0.273427 -0.068154 -0.431931 0.139251 -0.253507 0.013727 0.226487 0.059654 0.139501 -0.277614 -0.063922 -0.903801 -0.183368 0.401331 -0.037056 -0.039763 -0.050917 0.133289 0.288039 -0.306558 -1.071830
H189 -0.054305 -0.268239 0.940016 0.069940 -0.199808 0.100345 0.684113 0.121979 -0.361692 -0.428860 -0.310273 0.123439 0.856004 -0.333048 0.113768 -0.065447 -0.176832 0.426215 -0.505158 -0.038079 -0.203990 -0.654292 -0.131042 -0.220118 0.427237 0.024637 -0.282573 0.559617 0.130683 0.400128 0.192111 -0.378990 -0.203808 -0.042809 0.697160 0.406324 -0.365919 0.621996 -0.483779 0.501098 0.120612 -0.131798 0.648730 -0.768463 0.086178 0.032098 0.080475 0.596311 0.683070 -0.880852 -0.006420 0.211206 0.234042 0.421191 0.428000 -0.566877 -0.036661 0.273781 0.794546 0.117221 0.728372 -0.356152 -0.458056 -0.211593 0.079841 0.150686 0.715278 -0.274677 0.226677 -0.146040 0.097605 -0.052328 0.685376 0.764659 0.311453 -0.575181 -0.253952 -0.373672 -0.114272 -0.175609 -0.257458 0.713995 0.114555 -0.308985 0.144522 0.450537 0.328816 -0.407708 0.177429 -0.341752 -0.011796 -0.191557 0.894836 -0.564249 0.041523 0.276926 0.049737 0.085546 -0.343344 0.277331 -0.460867 0.236742 -0.252709 -0.211504 -0.580417 0.622829 0.138081 0.038728 -0.705913 0.013976 -0.002559 -0.559178 0.307380 0.217885 -0.242863 0.548079 -0.210740 -0.500107 -0.844965 -0.406617 0.361861 0.271998 0.691901 0.021449 0.363743 0.799710 -0.275159 -0.564615
H184 -0.051906 -0.219765 0.826600 0.055325 -0.189069 0.094201 0.604463 0.105378 -0.305399 -0.371934 -0.266172 0.111975 0.750446 -0.309816 0.086780 -0.069331 -0.151937 0.369485 -0.445416 -0.014701 -0.172380 -0.566320 -0.132026 -0.191062 0.376973 0.015739 -0.245340 0.502179 0.110087 0.355702 0.174328 -0.350879 -0.188799 -0.041643 0.608126 0.358948 -0.319665 0.556056 -0.438267 0.445782 0.108408 -0.119250 0.564257 -0.660936 0.072783 0.033702 0.075090 0.499737 0.585873 -0.769501 0.000029 0.170129 0.224479 0.367236 0.387531 -0.489825 -0.024544 0.246957 0.687428 0.117769 0.657442 -0.302703 -0.402983 -0.174813 0.072864 0.148966 0.651672 -0.253915 0.216184 -0.142804 0.083742 -0.055264 0.613959 0.671327 0.285528 -0.520926 -0.225350 -0.337373 -0.097200 -0.138068 -0.221639 0.626870 0.114200 -0.269534 0.140029 0.404994 0.289818 -0.374119 0.159747 -0.303057 -0.015909 -0.163256 0.793128 -0.492429 0.044263 0.242952 0.056763 0.085081 -0.298456 0.251622 -0.404737 0.205358 -0.227321 -0.177267 -0.498774 0.555159 0.133059 0.039574 -0.618507 0.025715 -0.002086 -0.486650 0.258796 0.211080 -0.215618 0.485148 -0.184769 -0.437298 -0.738955 -0.346105 0.322009 0.228689 0.619872 -0.000590 0.323356 0.701181 -0.251533 -0.498799
H86 -0.302930 0.125148 0.591170 -0.439998 -0.058127 -0.054588 0.176127 0.040518 -0.070451 -0.378091 0.020221 0.030565 0.534688 0.001861 0.156569 0.057058 0.360703 0.299385 -0.265138 -0.015422 -0.411165 -0.004149 0.056698 0.538262 0.443053 -0.037698 -0.800031 0.413346 0.203239 0.310067 0.276757 -0.307861 -0.242842 -0.080321 -0.018512 0.256328 0.073841 0.277762 -0.088259 0.134281 0.392238 0.168555 0.435829 -0.180150 0.066420 0.046024 0.063224 0.217131 0.777877 -0.689304 -0.082605 0.167560 -0.199995 0.492470 0.491977 -0.455043 -0.148916 0.594234 0.362212 0.029970 -0.104889 -0.344674 0.023789 -0.192309 0.114924 -0.518167 0.155978 -0.221435 0.262584 0.081807 0.337359 -0.035376 -0.152801 0.181570 -0.367252 -0.614179 -0.006807 -0.089824 0.162777 -0.022175 -0.084583 0.619964 -0.186530 -0.105462 -0.150601 0.279529 -0.250885 -0.446149 0.344981 0.154807 -0.290383 0.214654 0.675559 -0.504851 0.003511 0.019675 0.483576 -0.239856 -0.242433 -0.268670 -0.086231 -0.314231 -0.369416 -0.384412 -0.341151 0.721443 0.132804 0.341933 -0.420561 0.112869 0.424995 -0.204160 0.123470 0.084458 -0.085441 -0.046035 0.341548 -0.753479 -0.633413 -0.027609 -0.066586 0.449626 -0.070915 0.509661 0.072275 0.437293 0.254393 0.203280
H112 -0.452939 -0.425124 0.918694 0.040129 -0.251256 0.514456 0.457453 0.753249 0.096168 -0.683418 0.145437 0.331288 0.180675 -0.274289 0.223877 -0.393618 -0.044992 -0.164829 -0.518946 0.033416 -0.244170 -0.404159 -0.193349 0.099274 0.057245 0.702597 0.583044 0.380301 0.064423 -0.315134 0.588552 0.334695 -0.162331 -0.016281 0.810254 0.374048 -0.257331 -0.310860 -0.593543 0.281148 0.008954 0.100747 0.112619 -0.767909 0.092027 0.347294 0.430026 0.276854 0.012006 -0.277792 0.089750 0.441218 0.039534 0.052382 0.636980 -0.392558 0.090410 0.110319 0.939981 0.567060 0.368369 -0.199443 0.347879 0.260458 -0.173093 0.553526 1.449246 -0.064950 -0.013403 0.394060 -0.209655 -0.110631 0.478850 0.700577 0.574493 -0.162908 -0.251049 0.048088 -0.201530 -0.222386 -0.446903 0.435747 0.586212 -0.266615 -0.125460 0.874434 0.325938 0.474369 -0.095815 -0.507835 0.184233 -0.653647 0.281224 -0.390312 0.345949 0.309944 0.453186 0.676727 -0.536262 0.002476 -0.597978 -0.188994 0.363835 -0.054887 -0.430597 0.083054 -0.274191 -0.277650 -0.586922 -0.394568 0.140121 -0.255226 0.236512 0.351331 -0.842174 0.270152 -0.743240 -0.359612 -0.294684 -0.455302 0.268215 -0.165228 0.415760 0.444510 0.340448 0.711346 -0.381899 -0.665125
H166 0.003729 -0.132190 0.992906 0.430288 -0.825660 0.408266 -0.038698 0.263338 -0.615112 -0.392713 0.208234 0.486054 0.387470 0.131776 0.267147 -0.423888 -0.467128 1.066646 -0.073463 -0.212196 -0.230917 -0.333113 -0.201142 0.002678 -0.260871 -0.216977 -0.122587 0.783281 -0.354124 0.779920 -0.077258 0.191869 -0.302503 -0.691487 0.668514 -0.301535 0.174038 1.109921 0.051214 0.457692 0.008138 -0.123071 -0.005573 -0.082140 0.044822 0.023341 0.553853 0.517973 0.188655 -0.519666 -0.048153 0.088843 0.040776 0.555268 0.179234 0.337247 -0.348006 0.076515 0.058343 -0.401644 0.524945 -0.286429 0.118911 0.433468 0.160361 0.396167 0.271491 -0.674559 -0.182324 -0.340177 0.153590 -0.044825 0.100804 0.410859 0.507723 -0.615675 -0.695375 -0.233036 -0.182887 -0.300079 -0.277647 0.434663 0.102491 -0.400285 -0.293487 0.232483 0.511687 -0.441462 -0.033104 0.161265 0.391957 -0.688028 0.273431 -0.628366 0.088106 0.426047 0.077130 0.196943 -0.655010 -0.106589 -0.591188 -0.010407 -0.791390 -0.530564 -0.190568 0.686031 0.271035 -0.098712 -0.766173 -0.156349 -0.073198 -0.498964 0.073753 0.388358 -0.531592 0.419400 -0.615463 -0.493535 -0.499563 -0.911371 -0.346161 0.146547 0.445890 -0.191423 0.238432 0.472211 0.284090 0.556960
H123 0.268496 0.175446 0.974579 -0.054731 0.525434 -0.467397 0.028056 0.128518 -0.952740 -0.152027 -0.393714 -0.150122 0.791054 -0.603014 0.419198 0.024605 0.085860 -0.083881 -0.416060 -0.095318 0.233153 -0.508902 0.018856 -0.360652 0.222379 0.027709 -0.205929 0.612450 -0.190044 0.059114 0.284695 -0.192079 0.057625 0.232992 0.684010 0.341934 0.230050 0.558966 0.071483 0.501202 0.457775 0.198615 0.418974 0.121899 0.014504 0.046581 0.241430 0.486251 0.390371 -0.226999 0.000198 0.307233 0.193834 0.720737 0.519227 -0.488173 -0.280805 -0.250231 0.382737 -0.410092 0.364656 -0.054405 -0.489567 -0.689596 -0.024982 0.001392 0.123453 0.473988 0.208216 -0.303437 -0.177541 -0.172159 0.508815 0.410009 0.082461 0.171503 -0.414241 -0.843556 0.105209 -0.095930 -0.213493 -0.139511 0.069857 -0.133571 0.046205 0.092731 0.100542 -0.213070 -0.233493 -0.226390 -0.061154 -0.564614 0.667251 -0.075293 -0.258909 -0.566213 0.115350 0.161572 0.228428 0.162763 -0.206478 0.146122 -0.155711 0.031687 -0.881810 0.494935 0.463088 -0.158884 -0.603428 0.365976 -0.407470 -0.276531 0.612699 -0.217445 0.189224 0.404638 0.039767 -0.086843 -0.888698 -0.321308 0.281237 0.086157 0.839221 -0.268287 -0.054980 0.403959 -0.102595 0.039949
P200 -0.062261 -0.172622 0.828112 -0.201587 0.039433 0.050907 0.070767 -0.042569 0.085013 -0.712459 0.326091 -0.160278 0.649325 0.178604 -0.064952 0.125202 -0.112762 0.610355 0.204196 -0.135130 -0.042800 -0.412326 0.019173 -0.857366 0.275987 0.335592 0.053566 0.607987 -0.233418 0.164121 0.355974 0.255685 -0.326630 0.012385 0.171491 0.217951 -0.642161 0.434866 -0.588164 0.144882 -0.248904 -0.446002 0.142798 -0.127717 -0.223189 -0.081460 -0.085326 0.153182 0.018844 -0.731427 -0.127563 -0.184497 0.333226 0.424635 0.292108 -0.314683 0.478903 0.133537 0.224505 0.485635 0.358452 -0.150824 0.455226 -0.029072 -0.105756 0.549182 0.342949 -0.017743 -0.193309 -0.234877 -0.142569 -0.078944 0.020190 0.441743 0.052856 -0.445895 -0.184759 -0.750805 -0.084924 0.156536 0.259937 0.725064 -0.274644 0.234518 0.199963 0.303020 0.358315 -0.185021 -0.073333 0.342828 0.225606 -0.123989 0.836372 -0.269413 -0.053241 0.105761 -0.239563 0.294270 -0.343000 -0.095595 -0.457021 0.709003 -0.220783 -0.004617 -0.218340 0.500862 0.013763 -0.127157 -0.370366 -0.144114 0.058404 0.040793 0.192677 0.744009 -0.478183 0.572726 -0.079648 -0.399273 -0.202427 0.093286 0.386977 0.329492 0.331469 -0.162776 0.444314 -0.091133 -0.666101 -0.343029
P964 -0.096857 -0.375087 0.523892 0.062437 -0.075201 -0.163844 0.828165 0.379175 -0.006728 -0.025808 -0.026233 -0.210388 0.693445 -0.436459 -0.513639 -0.453047 -0.077875 0.377421 -0.450688 -0.279161 -0.089577 -0.809698 0.024994 0.132205 0.163868 0.157500 -0.001030 -0.266653 -0.246296 0.101871 0.547781 -0.339071 0.503488 -0.006284 0.692631 0.470758 -0.467925 0.048609 -0.027902 -0.302172 0.158840 -0.452550 0.665156 -0.480000 0.087212 -0.037802 0.594552 0.133957 0.951839 -0.746461 -0.089616 -0.000591 -0.170754 0.294561 0.514485 -0.624062 0.276477 -0.345541 0.333827 0.097929 0.223900 -0.160236 -0.588308 0.172043 0.063182 0.152624 0.487476 -0.069128 0.258624 -0.161215 0.089025 0.270504 0.193301 0.443923 0.346787 -0.068809 -0.155185 0.342452 -0.731891 0.213542 -0.402836 0.488341 0.114551 -0.155391 0.393311 -0.061804 0.024492 -0.300412 0.774332 -0.433251 0.422808 -0.374511 0.172152 -0.154385 -0.410754 0.249522 -0.111102 0.322466 -0.534944 0.502443 0.192551 0.458425 -0.166758 -0.134773 -0.341444 -0.181016 0.216530 -0.175264 -0.516430 0.117273 0.490577 -0.491324 0.444405 0.021182 -0.556260 -0.020174 -0.498517 -0.096937 -0.152860 -0.287597 0.436751 -0.107431 0.355524 -0.300246 -0.173996 0.534693 -0.257870 -0.868009
H57 -0.533053 -0.043225 0.969282 -0.181046 -0.393906 0.439429 0.930497 0.724650 -0.362234 -0.529491 -0.008778 0.076190 0.761684 -0.578353 0.119772 -0.190659 0.381689 -0.150963 -0.512879 1.167451 0.005354 -0.692118 0.056850 -0.094958 -0.038554 -0.187216 -0.355732 0.440862 0.215402 0.259036 0.653696 -0.435401 0.038666 -0.103436 0.504783 -0.138189 -0.595512 0.244612 -0.594060 0.572673 0.075580 0.153321 0.107039 0.093167 -0.270797 0.061310 0.201919 -0.024533 0.389589 -0.672338 -0.002117 0.089830 0.653337 0.376750 0.098985 -0.346304 0.200746 0.688896 0.439728 -0.140957 0.962251 -0.018502 -0.428470 -0.089022 -0.067862 0.649103 0.838354 -0.346050 0.862547 -0.555166 -0.115566 -0.220257 0.179675 -0.053697 0.120342 -0.273496 0.035216 -0.362084 0.208989 -0.369723 -0.106097 0.085452 -0.007006 -0.318024 0.117954 0.713003 0.543451 -0.030822 0.611710 -0.531156 -0.454642 0.034611 0.983167 -0.355316 -0.339605 -0.354559 -0.310562 0.058107 -0.249083 0.397276 0.150286 -0.028213 -0.134107 -0.298137 -0.314182 0.201378 0.052685 -0.230964 0.061429 -0.223221 0.326460 -0.576366 -0.260139 0.412086 -0.472299 0.321469 -0.014271 -0.054732 -0.279765 0.397788 0.424661 -0.238773 0.016302 0.058678 0.387645 0.172975 -0.355133 -0.731744
H12 -0.035408 -0.201911 0.677094 0.066361 -0.187450 0.134047 0.533337 0.123668 -0.256042 -0.341282 -0.230535 0.074712 0.677248 -0.229958 0.079339 -0.038209 -0.162362 0.348338 -0.394103 0.003701 -0.179280 -0.524027 -0.120826 -0.213728 0.290649 0.027630 -0.198193 0.440957 0.063127 0.309080 0.174983 -0.288526 -0.139050 -0.039073 0.535563 0.278947 -0.301882 0.492387 -0.421079 0.398351 0.087189 -0.087368 0.463818 -0.620247 0.016568 0.027782 0.054202 0.427477 0.514912 -0.681928 -0.026561 0.180971 0.209592 0.291269 0.316754 -0.429926 -0.007191 0.231800 0.607176 0.130275 0.572614 -0.262313 -0.311506 -0.144220 0.064736 0.130261 0.596538 -0.238846 0.192617 -0.102941 0.063066 -0.031674 0.517909 0.596954 0.291160 -0.482569 -0.209958 -0.335186 -0.103529 -0.164212 -0.158266 0.583296 0.077227 -0.211112 0.127070 0.347883 0.261054 -0.344177 0.130229 -0.279107 -0.026159 -0.148258 0.701425 -0.417093 0.029249 0.229191 0.047631 0.077237 -0.276737 0.201076 -0.358216 0.210857 -0.224701 -0.196574 -0.404861 0.479717 0.115389 0.042371 -0.549551 -0.045434 0.007751 -0.424869 0.210549 0.225798 -0.231537 0.437975 -0.189736 -0.426738 -0.623607 -0.301048 0.297593 0.205387 0.554916 -0.008722 0.304652 0.570929 -0.202785 -0.421551
H14 -0.048473 -0.220748 0.823116 0.058910 -0.155097 0.090100 0.620820 0.108332 -0.309031 -0.386175 -0.272232 0.139090 0.767084 -0.286466 0.097063 -0.083350 -0.172239 0.370685 -0.446052 -0.049026 -0.194293 -0.592796 -0.120796 -0.177728 0.360300 0.044281 -0.261930 0.506291 0.121323 0.338389 0.197589 -0.345620 -0.185861 -0.032243 0.597822 0.338865 -0.335395 0.529273 -0.396911 0.460285 0.132096 -0.139877 0.588989 -0.675538 0.073906 0.013029 0.057224 0.525709 0.584983 -0.763162 -0.027098 0.183745 0.202659 0.371662 0.360910 -0.479781 -0.044691 0.223037 0.693032 0.114134 0.654433 -0.299995 -0.387476 -0.189511 0.057495 0.147594 0.600988 -0.280967 0.213454 -0.122613 0.098788 -0.040104 0.595599 0.647658 0.262457 -0.503746 -0.240591 -0.342139 -0.118891 -0.139779 -0.232820 0.633123 0.094788 -0.277787 0.133695 0.373978 0.280548 -0.362002 0.151572 -0.307597 0.003130 -0.175627 0.798819 -0.479860 0.042000 0.265002 0.028485 0.100103 -0.295031 0.237136 -0.413725 0.209318 -0.243536 -0.205339 -0.510479 0.544792 0.123184 0.014922 -0.606771 -0.003376 0.018862 -0.470737 0.279627 0.183502 -0.236304 0.489719 -0.174727 -0.455295 -0.737540 -0.354749 0.326874 0.224991 0.605057 -0.006799 0.334604 0.694868 -0.228081 -0.467959
H220 0.640709 -0.166252 0.442535 -0.038133 0.110278 0.109792 0.256646 -0.392369 -0.023176 -0.430303 -0.551668 0.365083 0.853240 -0.451500 0.474560 -0.050422 0.396212 0.013876 -0.130840 -0.505017 -0.394924 -0.322666 -0.325865 -0.784730 0.395557 0.198801 -0.637306 1.153759 -0.070349 0.095866 -0.252144 -0.475789 0.255401 -0.241931 0.660252 0.507302 0.101575 -0.222238 -0.437498 0.656544 -0.037515 0.040321 0.191445 -0.872049 0.145047 0.318817 0.055095 0.482305 0.117295 -0.169191 0.371806 0.634156 -0.256561 0.278154 0.145356 -0.240492 -0.450271 0.569556 0.748361 0.518709 0.219410 -0.499474 0.138517 -0.446075 -0.292156 0.148624 0.263045 0.191470 -0.056544 -0.188119 0.881804 -0.144692 0.986188 0.744465 -0.014433 -0.900329 -0.569022 -0.401644 0.016853 -0.306078 -0.437779 0.563131 -0.162070 -0.128634 0.566321 0.586661 0.117793 -0.701461 -0.514107 -0.453599 -0.577465 -0.299271 0.320932 0.230691 -0.648938 0.772176 -0.272337 -0.003912 0.829987 -0.216595 -0.452434 0.098861 -0.022173 0.644450 -0.467790 0.903645 -0.001868 0.309013 -0.768920 0.204362 -0.233025 -0.650425 0.090048 0.286539 0.330706 0.669739 -0.164156 -0.218192 -0.911558 -0.063188 -0.428002 0.842367 1.030841 -0.354549 0.114775 -0.113144 0.710769 -0.167402
H225 -0.057157 -0.180212 0.608012 0.066769 -0.113305 0.145491 0.448846 -0.003756 -0.164936 -0.323620 -0.245853 0.050253 0.668055 -0.188663 0.071928 0.010773 -0.192785 0.238063 -0.325949 0.016910 -0.120758 -0.479462 -0.131318 -0.285757 0.258016 0.030291 -0.190472 0.461282 0.061147 0.318519 0.147573 -0.257312 -0.154093 0.039221 0.437115 0.201723 -0.340999 0.493436 -0.363871 0.406977 0.082612 -0.053318 0.365643 -0.558534 -0.066798 -0.017517 0.023757 0.347273 0.448766 -0.705442 -0.019274 0.165964 0.211325 0.284007 0.302204 -0.455570 0.012340 0.174630 0.585767 0.161481 0.578015 -0.213092 -0.262885 -0.092555 0.079489 0.117626 0.585327 -0.223932 0.074004 -0.089591 0.058700 -0.091978 0.400916 0.563513 0.233984 -0.418969 -0.166333 -0.399535 -0.043554 -0.103299 -0.106436 0.546762 0.079019 -0.174484 0.176663 0.243367 0.246498 -0.255089 0.067225 -0.168859 -0.065944 -0.033619 0.658852 -0.364548 0.072813 0.181954 -0.017286 0.082623 -0.223464 0.209838 -0.462173 0.246655 -0.218541 -0.140035 -0.407032 0.488716 0.051436 0.045319 -0.520670 -0.051820 -0.001213 -0.362303 0.199153 0.213030 -0.218604 0.381158 -0.235524 -0.416914 -0.524455 -0.339602 0.314623 0.226550 0.556044 -0.105222 0.348812 0.466322 -0.198626 -0.336248
