1622 128
H79 0.114574 -0.017168 -0.207021 -0.143584 -0.087299 0.191956 -0.102902 -0.142431 -0.198066 -0.346700 0.256963 0.340372 0.052160 0.090985 0.349099 0.194625 0.419844 -0.123035 0.093895 0.441383 0.055463 0.171493 0.219333 0.354636 0.605137 0.116193 -0.179909 -0.047292 -0.187168 -0.383706 -0.676702 -0.156651 -0.003526 0.074736 0.081486 0.465675 0.090134 0.357532 0.042090 0.143191 0.030924 -0.154653 0.317706 -0.430188 0.212747 -0.180263 -0.328826 -0.035813 0.261901 0.283989 -0.194013 -0.087786 0.250857 0.375224 0.173939 0.421142 0.107021 0.375508 -0.170344 -0.783797 0.158651 0.015357 0.334845 -0.191914 0.199975 -0.119329 -0.179561 0.216480 -0.036392 0.128276 0.150242 0.852165 0.307988 0.062402 -0.081684 -0.082098 0.077045 0.051122 0.133726 -0.112964 -0.368719 0.097147 -0.172258 -0.084795 0.055901 0.065822 -0.154103 0.334261 -0.178900 0.215138 0.171184 -0.195541 0.199765 -0.409950 0.564006 -0.448617 0.216266 -0.107767 -0.017296 0.050410 0.107598 0.112864 -0.009227 0.162585 0.290026 0.432625 0.109404 -0.194979 -0.559282 0.359607 -0.164101 -0.207878 -0.206354 -0.502324 -0.037769 0.029150 0.062764 -0.034331 0.048678 0.080508 -0.462042 -0.309078 0.112411 0.207128 -0.416120 0.255634 -0.311307 0.499597
H95 0.032756 -0.279653 -0.366941 -0.293877 -0.228904 0.168512 -0.129728 -0.324689 0.062246 -0.382913 -0.015717 0.262338 0.030272 0.381471 -0.261698 0.563590 0.644238 0.246220 -0.010526 0.517429 -0.274534 0.257512 -0.068677 -0.177204 -0.139596 -0.257859 -0.371436 -0.159490 -0.386696 0.124533 -0.501870 -0.728412 0.192471 -0.025596 -0.287548 0.040355 0.057250 -0.152482 0.094700 0.014300 0.098898 -0.230775 0.192682 -0.791262 0.171903 -0.309707 -0.294944 0.480121 -0.156091 0.500340 0.308134 0.154468 -0.291607 0.225325 0.537616 0.050427 0.317705 0.401164 -0.445091 -0.000315 0.078638 -0.115830 0.226717 0.392313 -0.317915 -0.154429 -0.056282 -0.262794 0.196861 -0.007778 0.400688 0.327767 -0.294592 0.091533 -0.012049 -0.314894 -0.037535 0.075124 0.220580 -0.219667 0.103858 0.253509 -0.028519 -0.024311 0.206071 0.615927 -0.409811 -0.123397 0.466714 0.536179 0.067466 0.274890 0.265629 -0.141267 0.014866 0.195351 0.107832 0.178771 -0.531685 -0.183296 0.287154 0.006654 0.609793 0.048118 0.580838 0.166829 -0.043876 0.051933 -0.404789 0.111365 0.410930 -0.167985 -0.380029 -0.620722 -0.345479 0.162818 0.254996 -0.448864 0.020006 -0.104494 -0.409541 0.179672 0.207831 0.051807 -0.146275 0.046350 0.013586 0.147651
H209 0.124806 -0.268284 0.014095 -0.340230 -0.005777 0.081327 0.215597 0.024065 -0.101748 0.026229 0.139063 0.402597 -0.188962 0.126251 -0.179924 0.517254 -0.033963 0.150999 -0.094581 0.338346 0.543134 0.612004 0.150940 -0.766846 0.447332 -0.230737 -0.338661 -0.100013 -0.055985 0.263261 -0.163824 -0.431441 -0.158779 0.014145 0.189634 0.335727 0.171021 -0.076168 -0.050019 -0.363189 -0.070839 -0.034050 -0.403690 -0.799020 0.559396 -0.005299 0.148996 -0.014386 -0.335501 0.529171 -0.299184 0.102955 0.370696 -0.170518 0.694662 0.337527 -0.017751 0.392212 0.393245 0.117425 0.282745 -0.741868 0.813190 0.331511 -0.541140 0.400156 0.363086 0.180172 -0.372830 0.071728 0.373765 0.478414 0.382494 0.068926 -0.181811 -0.337056 -0.385396 -0.094298 -0.338329 -0.278931 0.081501 0.452538 -0.225405 -0.300561 0.424845 0.216614 -0.053053 0.259574 0.038337 -0.222729 0.407016 -0.355185 -0.012668 0.098363 -0.011838 0.238468 -0.022102 0.346805 -0.346971 0.293362 -0.625249 0.244707 0.326057 0.212125 0.175124 0.148430 1.061281 -0.175813 -0.481142 0.573214 -0.093853 -0.386993 -0.297007 -0.157090 0.076822 0.286488 -0.145845 -0.173929 -0.409918 0.232069 0.013236 -0.103414 0.631342 0.075436 -0.406272 0.007604 0.202034 0.249471
H191 -0.250499 -0.423061 -0.281411 -0.065411 -0.330428 -0.200281 -0.025131 -0.068019 0.003502 -0.113476 0.180540 0.546764 0.250129 0.187832 -0.714841 -0.144701 0.127618 -0.045307 0.881573 -0.330519 0.040877 -0.264411 -0.023076 -0.156250 -0.138212 0.207640 0.427750 0.077247 -0.518687 -0.104006 -0.605227 -0.371814 -0.015677 -0.196414 0.582285 0.164994 -0.260655 -0.116685 0.054847 -0.425898 0.010720 -0.673901 -0.018775 -0.679627 0.839750 -0.016353 0.224848 -0.009550 -0.116377 -0.095163 -0.341094 -0.156914 -0.035211 -0.523725 0.283519 0.765414 0.347534 0.040138 0.080588 -0.206866 -0.252529 -0.202965 0.386735 0.576206 -0.022600 0.378330 0.256471 0.040964 -0.531112 -0.381975 0.203240 0.671685 0.144833 -0.276965 -0.030226 0.122482 -0.243517 0.189061 0.223408 0.028101 -0.162764 0.496805 -0.275445 0.040082 -0.016299 0.206922 -0.021286 0.484984 0.632121 0.216788 -0.025860 -0.176549 0.247916 -0.022260 -0.100965 0.052053 0.314196 0.501578 0.316871 -0.022116 -0.027607 -0.056979 0.755399 0.146747 0.686390 0.181595 0.218463 0.002923 -0.072840 0.157505 0.259438 -0.276493 0.065245 -0.461414 -0.098426 0.392420 -0.598714 -0.054737 -0.070524 0.072162 -0.091032 -0.056620 0.085334 0.022140 -0.557240 0.267104 -0.167636 0.349221
H149 0.710321 -0.037941 -0.184156 -0.702439 -0.445815 0.150589 0.024341 -0.343356 0.214120 0.088296 -0.039416 0.299475 0.281569 0.000005 0.319633 0.541168 0.258853 0.198544 0.059977 -0.076136 -0.255464 -0.097745 0.118472 -0.213067 0.081149 -0.073468 -0.029264 -0.353052 -0.388240 0.367128 -0.181324 -0.175748 -0.376718 -0.340850 0.698553 -0.257093 0.077824 -0.324036 0.489800 -0.099696 -0.355912 -0.124992 0.052087 -0.403358 0.431559 0.356439 -0.256177 0.364415 0.169881 0.422333 -0.414519 0.103599 0.558776 -0.145218 0.544795 0.605004 0.296187 0.621148 -0.194969 -0.076067 0.066783 -0.406375 0.547282 0.241933 -0.092155 0.259503 -0.096728 -0.118072 -0.163677 0.471821 0.442665 0.089863 0.172426 -0.221412 0.013625 -0.146787 -0.414536 0.456338 -0.121382 0.102692 0.043837 -0.426365 -0.406194 0.119340 -0.035216 0.638456 0.048209 0.033360 -0.132732 0.219996 0.391313 0.194723 0.128698 0.402345 0.035491 -0.134720 0.197627 0.340131 0.055414 0.089071 0.479170 0.454930 0.486962 0.039982 0.422317 -0.234823 -0.066423 -0.742819 0.185662 0.164044 0.041254 -0.197380 -0.471034 -0.334548 0.364017 0.363611 -0.361818 0.205523 0.274493 0.741604 -0.776843 -0.075918 0.611000 -0.336423 -0.412016 0.266743 0.354392 0.261788
H87 0.200625 -0.380461 0.068816 -0.280741 -0.047212 0.487476 0.094351 -0.259400 -0.161049 -0.351565 -0.131309 -0.045273 -0.310936 0.050328 0.395152 0.174810 0.386670 -0.004196 0.252789 0.206934 -0.139464 0.521459 -0.264651 0.275310 0.267870 -0.312113 -0.215820 -0.268723 -0.580822 -0.233082 -0.406887 -0.122993 -0.151489 0.106253 0.386599 0.311240 -0.047075 -0.203445 -0.145801 0.179689 0.406292 -0.547706 -0.294130 -0.598709 0.415742 -0.333678 -0.722141 -0.021468 0.056284 0.392797 -0.361678 0.025732 0.719966 -0.127516 -0.026348 0.401810 0.038136 -0.136393 0.167824 -0.654152 0.382300 0.003835 0.517261 -0.034968 0.225738 -0.024321 0.097427 0.235942 -0.627880 0.071737 0.392233 0.500637 0.511518 0.281967 -0.354916 -0.105920 -0.002811 0.315590 0.467809 0.083327 -0.436905 0.048279 0.335567 0.065706 0.196062 0.065223 0.172630 0.384551 -0.215271 0.055923 0.080786 -0.011698 -0.183418 -0.135112 0.712934 -0.390199 0.261519 0.355787 0.122146 -0.325112 -0.061873 -0.078666 0.331721 0.155733 0.709055 0.413007 -0.091714 -0.503306 -0.284543 0.111305 0.218967 -0.476287 -0.452337 -0.365085 0.464586 0.296466 0.042025 -0.501459 -0.245076 -0.035468 -0.423772 -0.178279 -0.017304 0.100661 -0.404551 0.425061 -0.162918 0.604342
H89 0.338690 0.002806 -0.122698 -0.317210 0.226993 0.012184 -0.370065 -0.170262 -0.474517 -0.360277 0.173603 0.575729 0.237211 0.127085 0.447024 0.643276 0.106084 0.020541 0.244787 0.291967 0.211545 0.111905 0.140109 -0.322946 0.481158 0.371069 -0.065190 0.301718 -0.672812 -0.323879 -0.568684 -0.163840 0.316351 -0.109336 0.618175 0.208766 0.369711 0.353908 0.430707 -0.143715 0.096540 -0.099956 -0.032231 -0.039075 0.125164 -0.162003 0.055753 0.130066 0.080415 0.388321 0.056159 0.035765 0.264904 0.123143 0.379045 0.005841 -0.068607 0.306305 0.038185 -0.497833 0.240925 0.134934 0.051939 0.096347 0.126449 -0.070080 0.320205 0.127965 0.343833 -0.346513 0.065668 0.818686 0.224538 -0.263001 0.122088 0.318340 -0.360214 -0.381970 0.333136 0.147328 0.144300 -0.031594 -0.280526 -0.201486 0.272808 -0.007777 -0.338319 0.027672 -0.029476 0.144388 0.106561 -0.423913 0.417719 -0.432235 0.285997 -0.713876 0.330059 -0.141782 0.072576 -0.250012 0.182957 0.410036 0.168433 0.283919 0.412462 0.402583 0.277270 -0.581203 -0.393133 0.814771 -0.080867 -0.122952 0.047972 -0.762325 0.105133 0.285969 -0.099963 -0.199583 -0.085433 0.315561 -0.277538 -0.045120 0.419590 -0.403029 -0.554537 0.099998 -0.183117 0.645970
H106 0.346330 -0.022954 0.113704 -0.070883 -0.293800 -0.011923 -0.431317 -0.380046 0.302184 -0.109339 0.072650 -0.017834 0.041253 -0.012624 -0.374053 1.059121 0.048408 -0.404140 0.697921 0.372965 -0.242871 0.537211 -0.192921 -0.339999 0.466286 0.370944 -0.496768 0.188698 -0.502885 -0.287874 -0.941472 -0.267714 0.090022 0.008513 0.391107 0.031330 -0.400192 -0.152828 -0.282930 -0.283069 -0.290382 -0.258911 0.042136 -0.695482 0.361989 0.157227 0.018722 -0.536609 -0.534934 1.068780 -0.247934 -0.126511 -0.412953 -0.180531 0.222909 0.566365 -0.017440 0.755387 0.070549 -0.083757 0.127623 -0.241793 0.013114 0.350970 -0.288171 0.019819 0.016146 0.100199 -0.195364 -0.118941 0.756723 0.525013 -0.069536 0.231991 0.374534 -0.277401 -0.310223 0.175692 -0.210984 -0.171339 0.348553 -0.317546 -0.053979 -0.108071 -0.091351 0.244295 0.262572 -0.003551 0.127294 0.374250 -0.073205 -0.012218 0.048438 0.072954 0.640989 -0.016211 -0.126583 -0.064794 0.131285 0.417096 -0.192039 0.696791 1.026072 0.161529 0.497305 0.338744 0.164545 0.106856 -0.742469 0.679951 -0.044109 0.256817 -0.036844 0.023715 0.490919 0.777745 -0.354789 -0.476884 0.229237 0.625092 -0.202421 -0.023393 0.345409 -0.080594 0.047188 -0.400953 -0.031219 0.153715
H20 0.625991 -0.608585 -0.510637 -0.382698 -0.041040 -0.183633 0.221156 -0.601444 -0.080203 -0.328025 -0.074889 0.125500 0.616107 0.551203 0.263478 0.521753 -0.561952 0.042249 0.395726 0.070321 -0.288233 -0.326280 -0.343520 -1.048150 0.467087 -0.064685 -0.088666 -0.235483 -0.445765 0.012333 -0.667595 -0.097280 0.203117 -0.157229 0.104637 0.263117 -0.379385 0.009783 -0.135531 -0.383220 -0.921808 -0.891223 -0.232039 -0.517402 0.240667 -0.191004 -0.193656 0.519993 -0.629353 0.668676 -0.211651 0.191110 0.275785 -0.175487 0.266465 0.901664 0.282163 -0.058547 0.194113 0.011601 -0.358980 -0.047457 0.894731 0.244931 -0.401975 0.008961 -0.084026 0.202293 -0.152472 0.447330 -0.193354 0.729144 -0.057682 0.263699 -0.206195 -0.146686 0.221024 -0.023547 -0.150861 -0.111878 0.456152 0.223006 -0.880185 -0.735577 -0.217569 -0.026891 -0.120619 0.344709 0.224211 0.706832 0.465175 -0.447301 -0.339682 0.189539 0.514905 -0.106022 -0.106057 0.098504 0.151798 -0.121718 -0.294440 0.111852 0.836909 0.142509 0.314376 0.516972 -0.232509 0.238549 -0.356309 0.365289 -0.240586 -0.023602 -0.002451 -0.170008 0.309466 0.378304 -0.322109 0.071600 0.204184 0.552863 -0.368072 0.397490 0.026314 0.426202 -0.071314 0.366210 0.075320 0.220159
H1 -0.174600 -0.384937 -0.670010 -0.968951 -0.820827 -0.193184 -0.173415 -0.329715 -0.191487 0.576178 0.029221 0.403190 -0.029599 0.249645 0.329503 0.268827 -0.196205 -0.516036 -0.095263 0.028912 -0.319610 0.178102 -0.316081 -0.114269 0.159499 -0.262768 0.320188 -0.424227 -0.262023 0.203478 -0.598080 -0.258986 -0.508692 -0.436273 0.024403 0.330930 0.472883 0.523440 -0.043478 -0.284300 0.119503 -0.460406 -0.671822 -0.502846 0.747502 -0.049138 -0.174572 0.213592 -0.577428 0.655065 -0.384815 -0.049660 0.057141 0.152601 0.475548 0.356084 0.061963 0.835328 -0.165463 -0.519597 0.367636 -0.019644 0.104789 0.271503 -0.225768 0.360214 0.534398 0.339342 -0.132070 -0.082891 0.142971 0.460896 0.266243 -0.193112 -0.241838 0.110711 -0.610527 0.277450 0.148495 -0.171760 0.229924 -0.235511 -0.409125 0.248469 -0.283130 0.192198 0.442894 0.562367 0.557833 0.520875 0.114798 0.336415 0.429056 0.149321 0.589547 0.053912 0.301552 0.457601 -0.267932 -0.085707 -0.185228 0.363270 0.880423 0.019773 0.263465 0.445374 0.560937 -0.431183 -0.439048 0.469554 -0.079835 0.190754 -0.088021 -0.456251 0.255087 0.432391 0.508501 -0.047634 -0.378475 -0.242139 0.242627 0.358983 0.066432 -0.310149 -0.288512 0.055889 -0.073399 0.189007
H165 0.187049 -0.188629 0.191839 -0.060562 -0.879578 0.049846 -0.232289 0.305198 0.067664 -0.153145 0.221662 0.357072 -0.516331 0.780176 -0.336645 0.263337 0.043811 0.236939 0.578606 0.360035 0.266379 0.133899 -0.212837 -0.148806 -0.091493 -0.111857 0.307494 -0.039668 -1.068599 0.354478 -0.514162 0.183152 -0.261758 -0.331660 0.452659 0.038025 0.109853 0.591805 0.701219 0.205686 -0.010215 -0.155846 0.017921 -0.341447 -0.031338 -0.108608 0.036465 0.459619 0.076071 0.716586 -0.134746 0.373366 -0.126751 0.407881 0.264570 0.480935 -0.336104 0.097278 -0.289091 -0.163412 0.110696 -0.496295 0.592887 0.309836 0.127668 0.623284 -0.031394 -0.053423 -0.620567 -0.340025 0.500854 0.662039 -0.137946 -0.200484 0.126154 -0.692585 -0.393164 0.553719 0.324282 -0.176945 0.036510 0.192367 -0.061931 -0.341661 0.182274 0.139006 0.484413 -0.151539 -0.116128 0.459032 0.420575 -0.110766 0.064615 -0.200849 -0.023377 0.180433 0.163309 0.141119 -0.610274 -0.095434 -0.275957 0.652376 0.147045 -0.027993 0.760876 0.628888 0.450489 -0.719962 -0.333944 0.524858 0.176027 -0.163387 -0.105224 0.193870 -0.070522 0.602109 -0.531240 -0.528788 -0.259719 -0.172536 -0.361453 -0.037897 0.603274 -0.435994 -0.019076 0.247138 -0.263983 0.367324
H111 0.394732 -0.134633 -0.449012 -0.810610 -0.227865 0.570265 0.140083 -0.677888 -0.410450 -0.494996 -0.183200 0.123515 -0.047154 0.579923 -0.185679 -0.271809 0.167970 -0.037311 0.507229 -0.104659 0.417620 -0.134102 -0.307870 -0.464454 0.156773 -0.158147 -0.151088 0.135994 -0.627753 0.145476 -0.593084 -0.384643 0.520089 -0.473458 0.442186 -0.138386 -0.050183 0.612014 0.099491 -0.384834 -0.602129 -0.304445 0.116614 -0.472391 0.488528 -0.103765 -0.034101 0.024188 0.179519 0.173336 -0.547771 -0.133757 0.147331 0.050016 0.083738 0.482131 0.017381 0.003445 0.140300 -0.593503 0.507108 0.034474 0.165545 -0.167699 -0.478697 0.521005 0.314019 0.207365 -0.199950 0.513988 0.675233 0.212677 -0.175518 0.224345 0.096672 -0.489769 0.266023 -0.175891 0.234650 -0.352895 0.211539 0.504414 0.542908 -0.763663 0.512602 0.428935 -0.264055 -0.144547 0.181831 0.576423 0.184934 0.205803 0.109852 -0.453272 0.778174 -0.286393 0.624402 0.440644 -0.520006 -0.587187 -0.542274 0.120954 0.507875 -0.135679 1.056193 0.089973 0.505690 0.253482 0.176442 1.089474 0.062061 0.228965 -0.576491 -0.704285 -0.424253 0.714964 -0.409278 0.280742 0.074587 0.917259 -0.041099 -0.177565 -0.300599 0.214244 -0.454672 0.737225 0.080629 0.175344
H25 0.034872 -0.029012 0.458988 -0.503313 -0.266616 -0.297588 -0.443834 -0.058614 0.045097 -0.257452 0.422126 -0.094688 0.085054 0.320149 -0.030029 0.281667 0.692864 0.388674 0.142751 -0.308993 -0.017292 0.307760 0.137955 -0.644214 0.101914 -0.360383 -0.129032 -0.129308 -0.897165 0.226939 -0.277817 0.369745 -0.025825 -0.318788 -0.159913 0.490077 0.069037 -0.263337 0.153491 -0.388926 -0.594463 -0.667841 -0.085745 -0.388255 0.762343 -0.057298 -0.331105 0.107330 -0.301485 0.247536 -0.369987 -0.832598 0.403829 -0.041512 0.362177 0.759097 0.145565 0.030760 -0.226065 0.031511 -0.096424 -0.432971 0.386604 -0.174941 -0.110121 0.343757 0.146287 0.284338 -0.457079 -0.238650 0.233569 0.407827 -0.077314 0.069680 -0.316512 -0.065381 -0.217210 -0.190116 -0.090090 -0.145241 0.507509 -0.153509 -0.361621 0.012992 0.210602 0.471442 -0.122765 -0.248685 0.110704 0.798340 0.476108 -0.272478 0.178950 0.085509 0.088637 -0.286955 -0.180099 0.138081 -0.220581 -0.631270 0.146548 0.981865 0.391426 0.259109 0.346591 0.502697 0.309677 -0.461172 -0.153641 0.519296 0.094605 0.141619 -0.021570 -0.100982 -0.381190 0.239811 0.254458 -0.129322 -0.252712 0.732532 0.000735 0.093669 0.120794 0.218917 -0.410441 -0.153101 -0.623480 -0.032528
H211 -0.245897 -0.356716 -0.186149 -0.564203 -0.298058 0.282711 -0.084301 -0.090554 -0.299126 -0.598609 -0.158427 -0.008619 0.076163 0.683060 -0.439846 0.732108 0.345506 0.334343 0.070710 0.272259 -0.172034 0.394429 0.036534 -0.086848 0.090701 -0.034574 -0.448564 0.000252 -0.182313 0.469320 -0.476526 -0.739899 0.208286 -0.262946 -0.199805 0.068732 0.154290 -0.050771 0.225228 0.352708 0.047374 -0.434096 -0.436451 -0.563993 0.192986 -0.482395 0.174633 0.506647 -0.385650 0.258353 0.338699 0.271799 -0.110394 0.105663 0.334223 -0.105291 0.303966 0.310717 -0.266585 0.116952 -0.171234 -0.225531 0.599048 0.156726 -0.433074 0.109097 0.055671 0.028313 -0.057902 0.014413 0.302164 0.492190 -0.451732 -0.130064 -0.142912 -0.534118 -0.243868 0.038883 0.180616 0.029891 0.125582 -0.181106 -0.014761 -0.451282 0.143513 0.495825 -0.115058 -0.061922 0.753941 0.317745 -0.117576 0.210472 0.077182 -0.204612 0.086715 0.174551 0.260185 0.202299 -0.074345 -0.114112 -0.066571 0.160716 0.769017 -0.433748 0.344373 -0.111271 -0.112851 -0.064550 0.015949 0.605585 0.551209 0.083559 -0.430103 -0.713136 -0.216216 0.045362 0.233247 -0.334954 0.074925 0.395781 -0.745442 0.097902 0.223550 0.117257 0.008150 -0.381079 0.107992 0.240245
H200 0.520913 -0.224023 -0.400248 -0.088696 -0.198789 -0.219946 -0.317468 -0.319870 0.190523 -0.083570 0.129365 0.352622 -0.211676 0.689900 0.213755 0.799238 0.090656 -0.159863 0.831802 -0.278733 -0.082906 0.228543 -0.269348 -0.641150 -0.064525 0.612233 0.120367 -0.380721 -0.994814 0.064014 -0.459690 -0.275453 -0.360158 -0.135176 -0.343378 0.628207 -0.321213 0.010773 0.672697 0.084953 -0.340132 0.119216 -0.022873 -0.588447 0.707467 -0.087996 -0.942195 0.303044 -0.246842 0.607174 0.128850 -0.286031 -0.323049 -0.297610 0.240724 0.564453 0.428581 -0.052260 0.408601 0.132502 0.496387 -0.033172 -0.042069 0.017645 -0.577574 0.316631 0.077678 -0.031565 -0.549812 0.432881 0.534842 0.428086 0.465210 0.267493 -0.036191 0.472097 -0.196143 0.260486 0.238347 -0.407423 -0.319611 -0.074656 -0.190194 -0.059615 0.355764 0.655549 -0.240128 0.402963 -0.196747 0.076089 0.138306 0.501117 -0.045808 -0.239463 0.527185 0.343182 -0.027646 -0.179891 -0.379224 -0.044140 0.322739 0.308765 0.739574 0.346673 0.937166 0.302882 0.228348 -0.565930 -0.275621 0.871784 -0.448248 -0.199447 -0.065478 -0.530906 -0.458392 0.922745 -0.405258 0.171747 0.245050 0.569898 -0.041382 -0.262682 -0.433884 0.007938 -0.328970 0.410604 -0.187714 0.499313
H126 0.146049 -0.118703 -0.127846 -0.203724 -0.041882 0.032272 0.029579 -0.499912 -0.290632 -0.125194 -0.064633 0.403808 -0.147423 -0.134801 0.209099 0.272572 0.553664 -0.474355 -0.162096 0.142731 -0.369507 0.376189 0.166004 0.033346 -0.101546 0.066004 -0.494047 -0.195771 -0.601367 -0.013898 -0.392035 -0.254875 -0.125788 0.283223 -0.023859 0.320441 0.236647 0.010063 0.186941 0.481172 0.467024 -0.154142 0.062976 -0.805157 0.451930 -0.553856 -0.782924 -0.033745 0.174647 0.182333 0.066478 0.408978 0.248258 0.286164 0.341796 0.860211 -0.063464 0.258137 0.380923 -0.189334 -0.043691 -0.034486 0.171434 -0.249524 0.372743 0.295682 0.154985 0.691505 -0.642368 0.408479 0.424342 0.764764 0.566687 0.364934 -0.253149 -0.077815 -0.369740 0.078030 0.286953 0.036345 -0.801414 0.061578 -0.032674 0.133106 -0.078859 0.003472 -0.265237 0.327658 -0.342022 0.518001 0.304817 -0.058489 -0.219982 0.110965 0.447927 -0.414081 -0.088015 0.521830 0.291355 0.099250 -0.482785 -0.173023 0.328286 0.058516 0.423987 0.089506 -0.228670 -0.406897 -0.865554 0.116469 -0.076221 -0.421265 -0.201300 -0.827082 0.076985 0.473095 0.266579 -0.153883 0.173278 -0.240141 -0.665774 -0.339157 -0.095594 0.141832 -0.478932 0.140340 -0.453645 0.488540
H22 -0.158208 -0.165058 0.225103 -0.261922 -0.327227 0.166957 -0.427564 0.082010 0.030895 -0.018297 0.244912 -0.264995 0.155977 0.309916 0.158809 0.555596 0.774568 0.136132 0.081630 -0.175609 0.345819 0.366295 -0.020714 -0.666855 0.319984 -0.039446 0.045724 0.177317 -0.864631 -0.151196 -0.457705 0.394773 -0.398255 -0.094781 -0.109849 0.363159 0.114202 0.015620 0.002428 -0.662770 -0.176135 -0.644650 -0.124228 -0.532343 0.559913 -0.326675 -0.300721 0.347222 0.061843 0.028857 -0.369801 -0.747373 0.494331 -0.050357 0.572767 0.658823 -0.005964 0.215410 -0.384042 0.262432 -0.182912 -0.214894 0.498197 0.083196 -0.149135 0.279217 0.237537 0.327308 -0.259185 -0.379908 0.428298 0.541553 -0.215913 0.320242 -0.338271 -0.253237 -0.409213 -0.345406 0.138479 0.331200 0.407424 0.245570 -0.318984 -0.034878 -0.159680 0.223954 0.055367 -0.200427 0.208090 0.686326 0.332140 0.149227 -0.050631 0.249853 0.047722 -0.288324 -0.303521 0.346267 -0.436178 -0.262943 0.019889 0.939384 0.447405 0.339661 0.343979 0.442383 0.198151 -0.135848 0.054824 0.453914 0.141108 -0.032074 0.012081 0.058842 -0.029899 0.735951 0.630033 -0.205676 -0.231300 0.746270 -0.088952 0.309166 0.018014 0.301428 -0.423080 0.422333 -0.663529 -0.073084
H71 -0.148096 0.018230 -0.297679 -0.205618 -0.811729 -0.085610 -0.187374 -0.372050 0.239178 0.016524 0.557112 0.489613 -0.302199 0.646697 -0.403219 0.711790 -0.354738 -0.092353 0.793896 0.129243 -0.266749 0.275473 0.062534 -0.621993 0.657328 -0.479873 0.040765 0.125092 -0.591979 0.332168 -0.513031 -0.005837 -0.521212 -0.105867 0.642017 -0.263857 0.243563 0.326107 -0.054010 -0.620229 -0.166338 -0.619556 0.072863 -0.439923 0.185245 -0.681979 0.013375 0.802512 -0.425384 0.115650 -0.296196 0.004323 0.421577 -0.145710 0.900370 0.264638 0.124155 0.309184 -0.052057 0.115444 0.619221 -0.268451 0.257218 0.727499 0.163237 0.501468 0.385199 0.414153 -0.762774 0.290851 -0.198466 0.303892 0.331617 0.309716 -0.288206 -0.102133 -0.230036 -0.106163 0.376308 0.065639 -0.190791 0.132549 0.059515 -0.569258 -0.094474 0.630683 -0.298950 -0.290838 -0.420201 0.521825 0.505824 0.094485 0.669033 0.062638 0.614753 -0.492337 0.168364 0.596428 -0.051678 -0.405026 -0.507641 0.049562 0.455296 -0.285652 0.168149 -0.106884 -0.421311 0.082329 -0.311496 0.395621 -0.299409 -0.043723 -0.148339 -0.622162 0.048537 -0.174079 0.098136 -0.567252 0.440879 0.238956 -0.253607 -0.078226 -0.013926 0.107093 -0.256677 0.514367 -0.091292 0.838102
H33 -0.589412 -0.316329 -0.141365 -0.356002 -0.635272 -0.490657 -0.512660 -0.307024 0.065504 -0.579280 0.140994 0.170621 0.032455 0.083651 -0.200263 0.771900 0.443778 0.012865 -0.392235 0.052348 -0.464034 0.509574 0.695094 -0.078884 0.391509 -0.393337 0.226281 -0.467134 -0.087047 0.130083 -1.334714 -0.229719 0.459254 -0.130347 0.531144 0.113165 0.724407 0.208853 -0.228269 0.312971 -0.213059 -0.760094 -0.389269 -0.670122 0.745337 -0.718995 -0.067915 0.265926 0.190999 0.286836 -0.497152 -0.132774 0.039731 -0.304112 0.776117 1.060137 -0.162326 0.666864 -0.390797 -0.427397 -0.225872 -0.263341 0.708459 0.192958 0.198854 0.070479 0.656259 0.822238 0.075585 0.180813 0.785894 0.379363 0.237570 -0.375343 0.339268 -0.404777 -0.506547 0.859466 -0.570155 -0.174441 0.387621 0.659629 0.223644 -0.384907 0.061291 -0.116881 -0.095676 -0.258363 0.536690 0.190597 0.385657 -0.095411 -0.225587 -0.083652 0.605488 -0.288441 0.154630 0.646303 -0.152162 -0.108204 -0.252769 0.783248 0.355179 0.580591 0.573173 0.717218 0.410958 -0.128944 -0.422831 0.647939 0.780894 0.186655 -0.218258 -0.782949 0.521640 0.088818 -0.382707 -0.668465 -0.101253 -0.047569 -0.034116 0.072193 0.809458 -0.095008 -0.469586 -0.488511 -0.254246 -0.307802
H30 0.314128 -0.069398 0.132004 -0.166551 -0.054295 0.444271 -0.674381 -0.128722 -0.215321 -0.064296 0.130315 0.487482 -0.035465 0.252433 -0.031069 0.384317 0.562460 0.285004 0.190685 -0.280844 0.330262 0.491156 -0.113983 -0.710903 -0.026811 -0.091904 0.274302 -0.105673 -0.464091 0.036369 -0.889960 -0.045933 0.169128 0.100858 0.551768 0.521487 0.794665 0.538119 -0.082954 -0.127395 -0.116741 0.199327 -0.584216 -1.042905 0.148436 -0.279373 -0.474380 0.266059 0.085604 0.670605 0.110812 0.110315 0.015337 -0.315167 0.102076 0.808046 0.344676 -0.357873 0.387504 -0.014490 0.411810 -0.850780 0.450344 0.284335 0.140826 0.109189 0.599116 0.259333 -0.094070 -0.322297 0.977775 0.018651 -0.096988 -0.149493 -0.318600 0.216124 0.268551 0.044235 0.230406 -0.899779 0.121664 -0.071545 0.035070 -0.586322 -0.028699 0.776648 0.210130 0.485322 0.286322 -0.079615 0.765657 0.021507 0.495651 -0.377498 0.350352 -0.429864 -0.023573 0.616433 -0.539200 0.199086 0.285957 0.253143 0.486225 -0.263240 0.776938 0.206279 -0.181482 -0.122259 -0.048411 0.222249 -0.275080 -0.044331 -0.455010 -0.060164 -0.005556 0.253846 0.129973 -0.405747 0.440025 0.402077 -0.425172 0.220219 0.630350 0.142470 -0.296044 0.122842 0.109521 0.021821
H147 0.497935 -0.174985 -0.002513 -0.472376 -0.036498 0.372386 -0.050124 -0.442385 -0.636251 -0.286562 0.177829 0.195723 -0.584918 0.313897 -0.315085 0.337708 -0.203709 0.314135 0.069473 0.846276 -0.378463 -0.086805 -0.538305 -0.171792 -0.592277 0.261714 -0.372634 -0.436864 -0.426721 0.270414 -0.185343 -0.351325 0.203811 -0.286288 -0.216740 -0.025085 0.236992 0.700513 0.283141 -0.235264 -0.010200 -0.276128 0.060669 -0.754597 0.732903 0.225084 -0.279314 -0.330280 -0.676463 0.137141 -0.125110 0.727141 0.474772 0.364050 1.139778 0.587055 0.206294 0.393949 0.095391 -0.366700 0.053833 -0.314563 0.071680 -0.018980 0.422143 0.689622 0.139234 0.322055 -0.823878 -0.324872 -0.013739 0.748542 0.008221 0.166455 -0.619658 0.195094 -0.382099 -0.506070 0.168756 0.226564 -0.202864 0.322715 0.090590 -0.436114 0.116942 0.603291 -0.058207 0.304551 -0.107026 0.593676 0.354900 -0.173897 0.694442 -0.240722 0.232804 -0.266019 0.655786 0.420950 -0.151754 -0.115396 -0.065037 0.143889 1.477699 -0.470023 0.314342 -0.486962 0.350124 -0.526432 -0.394103 0.477656 -0.257339 -0.236682 -0.250883 0.298404 -0.422875 1.117483 -0.237204 -0.451019 0.007092 0.896863 -1.027303 0.368462 -0.124069 0.251025 -0.045971 0.441041 -0.133876 0.506298
H24 0.279312 0.006413 0.413557 -0.147319 -0.215016 -0.000639 -0.377444 -0.275030 0.057099 -0.095979 0.250383 0.139261 0.079174 0.504216 0.337165 0.512054 0.741456 0.230140 0.187689 -0.195836 0.161293 0.239904 -0.179690 -0.742171 0.175322 0.146492 0.069954 -0.269018 -0.758779 0.080414 -0.243471 -0.065120 0.125086 -0.031475 0.249940 0.610830 0.208990 0.023350 -0.122700 -0.676499 -0.466093 -0.859591 -0.159275 -0.247037 0.280890 -0.442847 -0.448116 0.369377 0.061854 0.000262 -0.044399 -0.782244 0.306190 0.134372 0.582507 0.725384 -0.015977 0.362457 -0.277045 0.365722 -0.026953 -0.075776 0.522714 -0.117861 0.111632 0.178739 0.360517 0.377711 -0.442606 -0.160920 0.668694 0.668812 0.014434 -0.060223 -0.330644 -0.195522 -0.320113 0.038091 0.082607 0.172487 -0.141310 0.206837 -0.185658 -0.035644 -0.109231 0.493774 0.221139 -0.159293 0.127533 0.806435 0.559275 0.130223 0.146744 0.217932 0.217382 -0.046725 -0.488888 0.362570 -0.386945 -0.188948 0.088514 0.873496 0.298684 0.441263 0.592613 -0.009946 0.215786 -0.276013 0.124067 0.308901 0.247262 0.074326 0.207271 0.045998 0.050432 0.750990 0.725205 -0.086573 0.093203 0.728237 -0.156068 0.023378 -0.276367 0.147991 -0.272904 0.373711 -0.714854 -0.193882
H210 -0.146557 -0.438043 -0.058888 -0.447019 -0.355800 0.067258 -0.074358 -0.212098 -0.126177 -0.640392 -0.379044 -0.157974 0.102915 0.568377 -0.350649 0.774466 0.310497 0.444572 0.312124 0.137842 -0.023143 0.545341 0.072264 0.263721 0.053035 0.416127 -0.241518 -0.080913 -0.210431 0.540178 -1.015646 -0.439996 0.304777 -0.251169 0.030075 0.336949 0.240486 0.138593 0.481619 -0.008810 -0.117022 -0.486524 -0.441463 -0.436657 0.319775 -0.431636 0.190613 0.475680 -0.403591 -0.011478 0.336773 0.261831 -0.025419 0.013748 0.331091 0.022240 0.355474 0.482349 -0.280180 0.025470 -0.211503 -0.078336 0.508063 -0.281273 -0.284040 0.247883 -0.184807 0.304848 -0.314026 -0.195369 0.374135 0.172593 -0.070093 -0.346167 -0.314103 -0.194398 -0.378575 0.248857 -0.038965 -0.016227 -0.343036 -0.375155 -0.356587 -0.342074 0.392937 0.454684 0.146143 0.341602 0.712851 0.082287 -0.228210 0.414479 0.221746 -0.482180 0.601487 0.004362 0.522820 0.499543 -0.114139 -0.163574 -0.179365 0.289694 1.039246 -0.076720 0.392931 -0.239454 0.272544 -0.049695 0.033776 0.738271 0.181682 0.065934 -0.211775 -0.477412 0.412766 0.289170 0.306017 0.144648 0.029937 0.857428 -0.781716 0.239856 0.480802 0.089467 0.254181 0.153094 -0.301255 -0.024142
H72 -0.143571 -0.233437 0.124920 -0.056400 -0.067431 0.401692 0.231979 -0.765331 0.099925 -0.396603 0.567484 0.517883 -0.171908 0.947929 -0.306767 0.700956 -0.262544 -0.030996 0.872176 0.398322 -0.392400 0.060582 -0.083599 -0.546611 -0.316011 -0.359973 -0.022867 0.330954 -0.217455 -0.194359 -0.120614 0.325256 -0.366185 -0.022072 0.193486 0.128640 0.104740 0.331885 -0.163767 0.050630 -0.127551 -0.708616 -0.160005 -0.952586 -0.134607 -0.964300 -0.414531 0.318793 -0.367766 0.317557 -0.029669 0.077246 0.243950 0.011765 0.602527 0.960913 0.264466 0.572100 0.133434 -0.092347 0.120229 -0.435673 0.658888 0.019568 -0.476021 -0.054003 -0.045734 0.032288 -0.566861 0.337399 0.663823 1.173923 -0.176406 -0.082407 -0.837107 -0.160992 0.037804 0.449639 0.245611 -0.349977 -0.152586 -0.046827 -0.616422 0.321439 -0.511735 0.403720 0.188078 0.475366 0.137530 0.625257 0.024882 -0.252837 0.496749 0.413664 0.283773 0.276913 0.005773 0.095661 0.256530 0.331891 -0.377944 0.520667 0.811416 -0.093083 0.336384 0.407453 0.503289 -0.979785 -0.620720 -0.182362 -0.209882 -0.001094 0.177960 -0.590050 0.361508 0.089801 0.284431 -0.872986 0.088074 -0.010638 -0.520581 0.825754 1.278387 -0.266828 -0.390611 0.073708 -0.181524 0.518505
H92 0.056834 0.056709 -0.006040 -0.361607 0.293683 -0.135242 -0.054856 -0.070294 -0.517272 -0.206531 -0.073674 0.170742 -0.090593 0.473216 -0.082345 0.546314 0.158436 0.136448 0.315354 0.077224 0.178682 0.321062 0.486375 0.186246 -0.110789 0.243848 -0.065769 -0.493921 -0.142780 -0.053902 -0.745293 -0.084790 -0.180739 -0.094364 0.071957 0.135260 -0.241531 0.434160 0.015019 -0.329875 -0.030186 -0.424722 -0.088309 -0.204469 0.467057 0.239363 -0.618911 -0.068699 0.022747 0.146759 -0.591612 0.151258 0.327426 0.445856 0.420902 0.759505 -0.272534 0.126704 -0.209782 -0.829574 0.596458 -0.339869 0.288339 -0.433780 -0.031392 0.418606 -0.040128 0.142406 0.267738 0.347248 0.306614 1.198277 -0.116722 -0.233476 0.288752 -0.263677 -0.128043 0.246981 0.328610 0.277248 -0.424786 0.340985 -0.592415 0.177789 -0.252602 0.172909 -0.299974 0.559133 0.167244 -0.120144 0.477813 -0.210156 -0.271832 -0.500925 0.169154 -0.166770 0.076185 0.289750 -0.784848 0.043466 0.171497 0.235953 0.095580 -0.329559 0.777372 -0.009722 0.057223 0.110862 -0.503842 0.589978 0.247645 -0.033490 -0.280249 -0.578766 -0.313512 0.146363 0.336488 -0.323346 0.055960 0.265795 -0.865399 -0.455855 0.257417 0.172126 -0.437910 0.412908 -0.639732 0.325731
H217 -0.113115 -0.528014 0.138594 -0.398873 -0.700014 -0.101678 0.031932 -0.239994 -0.068498 -0.440684 -0.104489 -0.001257 0.180981 0.565473 -0.210063 0.618252 -0.051943 0.208765 0.263570 0.076106 -0.278834 0.432483 -0.097581 0.085134 0.314862 0.569090 0.126433 0.041912 -0.354375 0.660076 -1.132941 -0.251812 0.149284 -0.379350 0.344264 0.422575 -0.082689 -0.195120 0.307369 -0.008735 -0.580748 -0.582769 -0.495900 -0.614726 0.444148 -0.680752 0.267662 0.411337 -0.457004 -0.077540 0.320800 0.262210 -0.068660 -0.062913 0.191404 0.230129 0.324702 0.251104 -0.112813 -0.112802 -0.262907 -0.213186 0.278252 -0.124092 -0.194199 0.451354 -0.388943 0.558383 -0.560584 -0.246946 0.497966 0.345421 0.150152 -0.546338 -0.493746 -0.032649 0.151733 0.330880 -0.233651 0.225653 -0.517792 -0.164205 -0.356568 -0.305566 0.313788 0.392400 0.044291 0.058925 0.322941 0.141292 0.047402 0.016062 0.418675 -0.626243 0.609464 -0.524265 0.664071 0.666887 -0.151287 -0.302194 -0.550996 0.398915 0.772988 0.379040 0.191182 0.316279 0.067175 0.128530 0.025977 0.898357 -0.182335 0.082676 -0.338393 -0.150370 0.161411 0.337592 0.225364 0.307161 0.052706 0.936848 -1.013523 0.505596 0.508495 0.084585 0.358513 -0.217480 -0.215042 -0.183084
H101 0.348463 0.237113 -0.298391 -0.407559 -0.081343 0.238127 -0.012846 -0.308664 -0.100247 -0.491531 0.284523 0.646323 0.110060 0.314040 -0.008221 0.457975 -0.000680 0.146608 0.050635 0.327063 0.007612 0.001955 0.301622 0.127500 0.871084 0.134093 -0.234672 0.142586 0.084251 -0.042906 -0.453903 -0.143326 -0.168998 -0.043129 0.292343 0.482902 0.564921 0.187597 -0.100599 0.429178 -0.156039 -0.312586 0.269608 -0.383511 0.497328 0.125426 -0.275844 -0.213279 -0.125598 0.412269 -0.075392 -0.419471 0.153569 0.047431 -0.221027 0.710982 0.224011 0.623010 0.067585 -0.539570 -0.025417 -0.146451 0.159453 -0.240956 0.308942 0.081192 0.074915 0.110062 -0.357455 -0.233769 -0.186962 0.831942 -0.045317 -0.116735 -0.341932 -0.023837 -0.321583 0.342225 0.467471 -0.008165 -0.208988 0.165997 -0.210952 -0.218499 0.121377 0.183402 0.150627 -0.148818 -0.033137 0.379110 0.313965 -0.172860 -0.090278 -0.597971 0.801706 -0.501108 0.283428 -0.222258 -0.312814 0.214229 -0.068872 -0.101365 -0.073156 0.143096 0.531215 0.214374 0.252249 -0.431415 -0.429354 0.668688 -0.326469 0.048820 -0.014274 -0.433027 0.194917 0.184777 0.103085 -0.045552 0.024233 -0.082951 -0.498342 -0.424571 -0.048723 0.419490 -0.317731 0.401944 -0.192548 0.230841
H56 -0.550883 -0.619192 0.413267 -0.295124 -0.557043 0.437064 0.549136 -0.044750 -0.429896 -0.342231 0.009904 0.293045 0.072851 0.266115 -0.391076 0.574922 -0.103637 -0.174148 0.478293 0.988958 0.010508 -0.394570 0.059110 -0.898430 -0.037746 0.096067 -0.159266 -0.234131 -0.916329 -0.061622 -0.454871 -0.301231 0.315073 0.005749 0.266923 -0.061460 -0.310522 0.161726 -0.525223 0.375874 -0.011962 -0.625712 -0.546072 -0.754558 0.182087 -0.812719 -0.121652 0.179906 0.087153 0.037563 -0.461575 -0.157549 0.685559 0.096071 0.236600 1.052522 0.617787 0.355266 0.498588 -0.438340 0.499497 -0.255966 0.128946 0.247945 0.040959 0.501126 0.569931 0.821442 0.163708 -0.258915 0.075941 0.554650 0.046088 -0.463741 -0.292240 0.261790 -0.127208 0.061859 -0.023699 -0.271108 0.172667 -0.092307 -0.197655 -0.379953 -0.108469 0.621062 0.705205 0.069187 0.549808 -0.078854 0.150571 -0.043091 0.094951 -0.518144 0.191751 -0.563572 -0.413094 0.347028 -0.403111 0.499280 -0.049521 0.370395 0.670674 0.174856 0.365095 1.101487 0.353014 -0.597488 -0.544966 0.354246 0.339812 -0.226360 -0.150499 0.230229 0.156940 0.842637 -0.111880 -0.808154 -0.242961 0.580214 -0.302566 -0.092429 -0.099828 0.144758 -0.126785 -0.239196 -0.395240 -0.239249
H13 0.074825 -0.007763 -0.148080 -0.888162 -0.608134 0.484177 0.004824 -0.868895 0.022152 -0.211831 0.060850 0.276365 0.086205 0.676813 0.308810 0.032621 0.184729 -0.119257 1.181328 0.000118 -1.125121 -0.153833 -0.164026 -0.048028 -0.616546 0.197265 0.360449 -0.176778 -1.043401 0.640212 -1.116516 0.146817 0.385175 -0.254223 0.432047 -0.327493 -0.289751 0.394925 -0.020895 -0.020230 -0.283710 -0.905184 -0.536744 -0.742934 1.015566 -0.005309 -0.425664 0.273044 0.628020 -0.066952 -0.811903 0.168737 0.382516 0.029644 0.374397 1.203799 0.492493 0.493800 -0.807702 -0.678232 0.026272 -0.299802 -0.393602 0.578468 0.656786 0.403885 0.463324 0.541376 0.107738 0.448622 0.397109 0.580698 -0.016527 -0.602727 0.461398 0.191283 -0.552545 0.967597 0.480493 0.381645 -0.148346 -0.215126 -0.080245 -0.318119 0.103858 -0.026278 0.451708 -0.174336 -0.038436 0.564492 -0.023199 0.595546 -0.243632 -0.160329 0.308712 -0.398717 0.572531 0.358348 0.009363 0.074947 0.078763 0.696683 0.731008 -0.123327 1.032840 0.586737 -0.440820 -0.604182 0.073553 0.182857 0.327298 0.435349 0.168285 -0.534387 0.103460 0.194281 -0.306531 -1.031157 0.906046 0.361361 -0.731541 0.172528 0.352183 0.004388 -0.238502 0.238704 -0.506177 0.529040
H208 -0.123428 -0.572892 -0.076663 -0.287524 -0.259070 -0.439214 0.116065 -0.037589 0.217946 -0.276808 0.341084 0.123385 -0.672043 0.901413 -0.192701 1.016479 0.071344 -0.145530 0.316510 0.103657 0.479328 0.310334 0.286538 -1.365327 0.394316 0.561981 0.040389 -0.315574 -0.420025 -0.288626 -0.475526 0.030891 -0.459895 -0.010795 0.272172 -0.130300 0.402273 -0.049048 -0.021625 0.482386 -0.559413 -0.274915 0.020814 -0.977733 0.299805 -1.074749 -0.203289 0.041577 0.031880 1.118317 0.215580 -0.336091 -0.016644 0.183604 0.274546 0.643596 -0.030148 -0.027234 0.439147 -0.015319 0.378207 0.090459 0.492424 -0.393684 -0.328360 0.072890 -0.298512 0.837259 -0.981246 -0.449524 0.549353 0.283308 -0.159950 0.118136 -0.339237 -0.925270 0.322960 -0.090392 0.327382 -0.319187 0.003575 0.133555 0.414900 0.090368 -0.349742 0.492635 -0.118013 0.221718 0.582930 0.477944 0.797783 -0.587649 0.143554 -0.121144 0.448809 -0.298746 0.208410 0.717034 -0.264976 -0.116096 0.222335 0.332974 0.971026 0.649285 0.262471 0.174736 -0.086356 0.072847 -0.538630 0.920764 -0.277645 -0.415007 -0.824966 -0.280458 0.196616 0.280887 -0.363699 0.175864 -0.372658 0.688595 -1.064181 0.206582 0.293080 -0.313453 -0.230991 -0.043882 -0.268330 0.135971
H97 0.417566 0.025615 -0.369677 -0.506310 -0.707034 -0.015020 -0.045047 0.084402 -0.015681 -0.495597 0.108294 0.509878 -0.129383 -0.049298 -0.074123 0.110792 0.674326 -0.075469 0.259901 0.710876 -0.428457 0.287790 -0.129333 0.231604 0.442494 -0.028995 -0.249415 -0.392725 0.128134 0.016828 -0.684348 -0.149037 -0.189990 0.085422 -0.157878 0.279577 0.051842 0.013513 -0.283908 -0.320917 -0.410712 -0.395371 0.202705 -0.727763 0.205968 -0.132605 -0.223349 0.404674 0.353550 0.345887 0.212212 -0.020833 -0.192588 0.143470 0.252074 0.046701 0.410009 0.720840 -0.431665 -0.552441 0.075887 -0.585696 0.521725 0.067497 -0.355026 -0.346482 -0.034992 0.263814 0.341582 0.321010 0.224107 0.516174 -0.028465 0.222947 0.001033 -0.394599 0.459237 0.592802 -0.245664 -0.064245 -0.118461 0.477041 0.326027 -0.445198 -0.060789 0.248069 -0.011216 -0.180537 0.128228 0.280280 0.237580 -0.391156 0.219462 -0.472858 -0.031985 -0.283722 0.333463 -0.020372 -0.449552 -0.290064 -0.060229 0.334939 0.367464 0.349753 0.320065 0.077165 0.228123 0.184083 -0.574997 0.259490 0.415173 -0.282424 -0.233643 -0.294109 -0.358016 -0.111719 -0.008707 -0.550382 -0.043439 0.246048 -0.726100 -0.116718 -0.245119 0.448012 -0.499642 0.356634 -0.037999 0.042793
H194 0.401304 -0.380110 -0.227018 -1.003709 -0.132031 0.353980 0.451685 -0.189927 0.092345 0.111570 0.096239 0.438195 0.279233 0.473157 -0.447551 -0.236742 -0.145623 -0.260089 0.413467 0.017076 0.047860 -0.065521 -0.423461 -0.144395 0.398775 0.463695 -0.026673 -0.015630 -1.066136 -0.005242 0.023958 -0.195761 0.009512 0.151829 0.454969 0.464546 -0.417341 0.237935 0.250754 -0.907641 -0.091970 -0.801881 -0.339340 -0.660533 0.214557 -0.241249 0.165829 -0.173323 0.193720 0.207104 -0.213833 -0.085305 0.065527 0.264886 0.617653 0.114219 0.611454 -0.177255 0.037463 -0.404411 -0.008272 -0.071532 0.344992 0.907480 -0.144323 0.468262 0.391286 0.405066 -0.478611 -0.271979 0.244420 0.690859 -0.466109 -0.200195 -0.511936 0.020906 -0.129272 -0.002122 0.025241 0.206322 -0.245545 -0.082842 -0.090642 -0.201256 0.150034 0.043213 0.081229 0.692020 0.847627 0.575583 0.679031 -0.253443 0.027898 -0.195323 -0.134636 -0.302562 0.404112 0.664544 -0.602769 0.098323 -0.234680 0.190254 0.896937 -0.168917 0.286453 0.046701 0.206283 -0.166064 -0.581238 0.198272 0.178066 -0.411444 0.044855 -0.324483 -0.496546 -0.048757 -0.210141 -0.156447 0.369436 0.192142 -0.221799 -0.096422 -0.069909 -0.433527 -0.503332 0.438384 -0.220911 0.257992
H177 0.146076 -0.443740 -0.485883 -0.517456 0.061563 -0.451037 0.264133 -0.610204 -0.483143 0.024890 -0.124864 0.411967 0.430047 -0.150084 -0.690415 0.957248 0.003148 -0.304725 1.372640 0.535654 -0.536717 -0.361716 -0.360583 -0.537071 0.284622 0.464827 0.006416 -0.176015 -0.977243 0.019124 -0.488649 0.162825 0.136568 0.284113 0.108106 -0.095872 -0.288811 0.296919 0.910089 0.612704 -0.138162 -1.092491 0.108173 -0.221942 0.237705 -0.509175 -0.714432 0.738735 0.361168 0.568282 0.146855 0.430283 0.344017 0.179141 0.090882 0.511971 0.349190 0.369568 0.085303 -0.120038 0.237718 0.140534 0.475412 0.365139 -0.308460 0.546959 -0.216348 0.925161 0.080133 -0.109393 0.593162 1.113334 0.484547 -0.412110 0.283570 0.053981 0.445781 0.190456 -0.046876 -0.420443 -0.631015 -0.613268 -0.463371 -0.627361 -0.224537 0.242792 -0.227551 0.315543 -0.092298 0.546443 -0.284657 -0.049998 0.646501 -0.413451 -0.236040 -0.298312 0.353786 0.465053 -0.408475 0.063729 0.096938 0.134036 1.441079 -0.145543 0.881145 0.115936 -0.597249 -0.258963 -1.031318 0.029533 -0.157997 -0.499441 -0.064588 -0.256378 0.311122 0.345972 0.326351 0.047104 0.002410 0.478535 -0.855230 -0.172254 0.046971 -0.378931 -0.053219 0.790879 -0.342245 0.341586
H192 0.034316 -0.326995 -0.365149 -0.590092 -0.094045 0.193162 0.569065 -0.361657 0.133675 -0.189849 0.093360 0.736674 0.010350 0.381592 -0.747004 0.007519 0.260104 -0.102985 0.728645 -0.253569 -0.118712 -0.171669 -0.131317 -0.051951 0.188437 0.405261 0.243443 0.100671 -0.801273 -0.241653 -0.318511 -0.208264 0.233598 0.177292 0.394427 0.102343 -0.418922 0.118212 0.032975 -0.961816 -0.136294 -0.630918 -0.208823 -0.604639 0.633645 -0.073182 0.358539 0.167847 0.189277 -0.187105 -0.654467 0.034493 0.153536 0.002966 0.627898 0.670507 0.365125 -0.158488 -0.161529 -0.508117 -0.417855 -0.132422 0.422790 0.497347 0.176011 0.551359 0.475617 0.244678 -0.488770 -0.221733 0.068450 0.627553 -0.098834 -0.563465 -0.409012 -0.136341 -0.392960 0.065655 0.193449 0.082500 -0.211884 0.095733 0.037766 -0.175758 -0.085517 0.326233 0.332269 0.555114 0.797824 0.459289 0.107732 -0.321948 0.181457 -0.075046 -0.258417 0.001169 0.380933 0.706771 -0.150734 0.358572 -0.074799 0.086427 0.697096 -0.084286 0.368890 -0.222388 0.238739 -0.102667 -0.331164 0.022459 0.157048 -0.575142 0.095546 -0.540847 -0.286553 -0.020525 -0.487064 -0.243272 0.208680 -0.046199 -0.226918 -0.274727 -0.038974 -0.187214 -0.487112 0.426836 0.174414 0.432485
H29 0.101775 -0.184253 -0.404236 -0.499606 -0.166719 0.293093 -0.295646 -0.632266 -0.637035 -0.289728 0.185615 0.975550 0.272916 0.046134 -0.271927 0.247566 0.285150 -0.005612 0.134036 -0.154875 -0.007325 0.531399 -0.241444 -1.030097 0.300897 -0.106541 0.278499 -0.024633 0.050627 0.000728 -1.007164 -0.035200 0.439194 0.261594 0.763085 0.401722 0.843044 0.756718 0.058738 0.247043 -0.321910 -0.187240 -0.266777 -1.104977 0.195866 -0.660972 -0.679058 0.188094 0.408332 0.748535 0.086033 0.074481 0.182149 -0.476174 -0.115190 1.096206 0.329441 0.000264 0.444483 0.081174 0.249955 -0.590504 0.564244 0.480481 0.212004 0.018507 0.381325 0.692536 0.035252 0.094504 0.972208 0.226868 0.381776 -0.253621 -0.150209 0.051233 0.613113 -0.077054 0.073123 -1.326051 0.068726 0.243463 0.148268 -1.038492 -0.237139 0.641617 0.004775 0.476848 0.242397 0.022393 0.630466 -0.002403 0.856335 -0.463340 0.483580 -0.549752 0.238110 0.765659 -0.284377 0.304551 -0.230091 -0.090289 0.732517 -0.312837 1.121444 0.153293 -0.478360 0.435192 -0.323734 0.072738 -0.553574 -0.219802 -0.501807 -0.377746 0.227410 0.056913 0.065643 -0.207058 0.148197 0.176978 -0.595458 0.129560 0.424711 0.192457 -0.058663 0.398407 0.058437 0.026170
H151 0.132121 -0.346657 -0.647191 -0.739116 -0.555229 0.124874 -0.456996 -0.141120 0.130778 -0.160360 0.103642 0.116534 -0.213567 -0.328260 0.424475 0.615149 0.078854 0.118878 -0.154815 -0.283102 -0.605994 0.259083 -0.192845 -0.229449 0.010636 -0.176831 -0.189109 -0.472423 -0.441069 0.144950 -0.316800 -0.600708 -0.195708 0.263930 0.874420 0.458143 0.115545 -0.231088 0.704031 -0.259712 -0.315228 -0.292781 0.224668 -0.559358 0.797289 0.227507 -0.200369 0.451861 0.515678 0.425258 -0.577860 -0.317404 0.532049 0.034638 0.065139 0.552057 0.107492 0.612228 -0.140550 -0.331882 -0.147516 -0.401744 0.337193 0.172902 -0.344495 -0.180837 0.019520 0.219369 -0.156498 0.260137 0.609912 0.300709 0.304297 -0.196401 -0.041008 -0.219204 -0.385421 0.624423 0.117067 -0.014962 0.025174 0.019964 0.075528 0.201607 0.320628 0.467386 0.124939 -0.548166 -0.119511 0.556989 -0.120842 0.171391 0.243785 0.171941 0.393752 -0.374371 0.292098 0.149666 0.137128 -0.098529 0.653607 1.090544 0.782555 -0.515616 0.462388 -0.252267 -0.035573 -0.904953 0.121720 0.501685 0.141890 0.332233 -0.194685 -0.474190 0.396370 0.584920 -0.347966 0.166446 0.400759 0.684281 -0.782674 -0.020307 0.368513 -0.152615 -0.449129 -0.057901 0.353994 0.086047
H218 0.026210 -0.708184 0.237517 0.389272 0.228376 0.598382 -0.287564 -0.111843 0.122909 -0.278787 0.036929 0.001869 -0.401487 0.754598 0.532903 0.476104 0.349824 0.307132 0.811986 0.952633 0.246095 0.134837 0.028036 -0.661556 0.623405 -0.155990 0.289137 -0.271925 -0.802299 0.051955 -0.448006 -0.050599 -0.694092 -0.508623 -0.136852 -0.246974 -0.426759 0.146726 0.004586 -0.240313 -0.094840 -0.849913 -0.196632 -0.928778 0.850399 -0.452473 -0.325523 0.272959 -0.328255 0.772744 -0.114454 0.115146 0.390852 0.509214 0.226970 0.958742 0.955741 0.570359 -0.404328 -0.058743 -0.325263 -0.328304 0.370758 0.290188 -0.420955 0.345622 -0.417813 0.026230 -0.593362 -0.094248 0.173470 1.274594 0.289109 -0.189633 0.469347 -0.541444 -0.312543 -0.183992 -0.048144 0.585316 0.163912 -0.455776 -0.391719 -0.257378 0.191302 0.463904 0.121565 -0.103553 0.185662 0.139249 0.778624 -0.098418 0.175206 -0.595293 -0.450595 -0.223617 0.871755 0.566420 -0.100180 0.008284 -0.156568 -0.006502 1.411954 0.675471 0.398842 0.091643 0.174742 -0.291265 -0.245580 0.477498 -0.623549 -0.101651 -0.595569 -0.200748 0.065529 -0.087748 0.087910 0.139830 0.508398 -0.056538 -0.213731 0.604035 0.365444 0.407298 -0.876533 0.187192 -0.411968 1.224738
H80 0.286265 -0.711570 -0.469297 -0.304142 0.333310 0.033518 -0.015614 -0.194385 0.212762 0.024396 -0.440545 0.368103 0.143686 1.052642 0.143865 0.182366 0.300699 -0.294309 0.227942 -0.274680 0.170770 -0.071352 -0.038738 -0.936046 -0.176477 -0.805701 -0.471221 -0.103525 -0.543103 0.403930 -1.167531 -0.355648 0.126082 -1.117476 -0.058585 0.817721 -0.097702 0.478680 -0.391343 -0.665373 -0.332028 0.128681 -0.163086 -1.167580 0.049021 -0.321367 -0.341739 0.161963 0.037850 0.278880 -0.095026 -0.150910 0.490002 -0.444226 -0.000795 0.552636 0.157588 0.023684 -0.536744 -0.638833 0.163589 -0.468634 0.372024 0.576744 -0.000612 -0.095230 0.022417 -0.423440 -0.755615 0.226711 0.190521 0.707673 -0.148232 -0.199267 -0.632320 -0.104834 -0.170371 0.204472 0.430986 0.303305 0.323347 0.171450 -0.655110 -0.308516 0.733059 0.956422 -0.103092 0.857172 0.729515 0.668525 0.062670 -0.124378 0.246920 0.015412 0.801346 0.082275 -0.304630 0.410422 -0.395581 0.227222 0.058057 0.559315 0.141166 -0.034748 0.484538 0.444180 0.930916 -0.353486 -0.483194 0.678396 -0.207061 0.252779 -0.176623 -0.599898 0.273378 0.415100 0.250777 -0.087269 -0.015895 0.798617 -0.708265 0.004157 0.251727 0.431634 -0.728954 0.101467 -0.072815 0.383205
H75 0.155872 -0.734470 -0.244423 -0.666830 0.386417 -0.029577 0.310543 -1.000584 -0.353039 -0.071589 -0.389840 0.120378 -0.372497 0.930391 -0.485514 0.865217 -0.578339 -0.035551 1.010382 0.503897 -0.013035 -0.556573 -0.069332 -1.949247 -0.228242 0.201148 -0.349362 -0.339622 -1.068838 0.082014 -0.505279 -0.229725 0.384835 0.269647 0.104330 -0.774750 -0.940913 0.806704 0.006160 -0.442287 -0.190421 -0.117171 -0.154133 -0.854753 0.019973 -0.276701 -0.545417 0.070448 0.476232 0.566523 0.155727 0.315649 0.328028 0.255945 0.615980 0.290695 0.162447 -0.045500 0.571487 0.141246 0.288175 -0.361006 0.031311 0.623599 -0.531761 0.066181 0.106592 0.525107 0.405753 0.625266 0.574432 0.626596 -0.384917 -0.308713 0.657067 -0.224859 0.182424 -0.391014 0.254421 -0.437322 0.608412 0.499871 0.116113 -0.761530 -0.273248 0.602976 -0.424954 0.264378 -0.092573 0.728307 0.462228 0.180118 -0.019929 -0.376575 -0.422214 -0.007050 0.014047 0.264246 -0.857577 0.383519 -0.321640 0.430483 1.454563 -0.263261 1.253662 0.107187 0.451841 -0.022365 -0.614293 0.428882 0.078570 0.018830 0.069949 -0.307913 0.041249 0.420454 -0.642412 -0.239459 0.316026 0.912042 -0.657161 0.094741 -0.001822 0.139832 -0.780924 0.455955 -0.219510 0.505475
H64 0.171898 0.155559 -0.377859 -0.374813 0.109763 -0.103718 0.131914 -0.130165 -0.573262 0.152961 0.109082 -0.280662 -0.604138 1.061971 0.093375 0.285938 -0.092424 -0.183220 1.132861 -0.163901 -0.201795 -0.316414 -0.613899 -0.456593 0.305031 0.128391 -0.406819 0.320535 -0.129840 0.152839 -1.035617 -0.393149 -0.247433 -0.150996 0.291095 -0.017704 -0.318591 -0.022049 -0.020928 -0.698751 0.263858 -0.269511 0.208288 -0.811882 0.491935 -0.076444 -0.238946 0.243742 -0.140791 0.448380 -0.030240 0.103033 0.365615 0.756995 0.693462 0.864271 0.361979 0.395374 -0.092340 -0.561491 0.471233 -0.492496 0.399851 0.294485 -0.376146 0.450282 0.285319 0.237177 -0.073927 -0.527066 0.688195 0.703645 -0.284343 -0.115095 -0.437479 -0.608959 0.121338 0.648450 0.749994 0.173076 0.477103 0.063347 0.342333 -0.103089 0.562184 -0.015097 0.022412 -0.464180 -0.470824 0.141915 -0.120415 0.032033 0.048569 0.144298 0.081165 0.420082 0.736211 0.364085 -0.099409 0.200157 -0.564759 0.181440 0.891084 0.345254 0.399253 0.067957 -0.074229 -0.333074 -0.784464 0.217713 -0.485724 0.502793 0.047176 -0.134991 -0.196437 -0.111896 0.276095 -0.371264 0.178106 0.534031 -0.913869 0.218757 0.713607 -0.112584 -0.219785 0.562990 -0.334574 0.221707
P433 0.228152 0.176945 -0.398501 -0.425046 -0.397321 0.096322 -0.194598 0.034829 -0.125359 -0.593482 0.185343 0.552455 0.119131 0.085350 0.121656 0.334222 0.589250 0.001758 0.101526 0.465603 -0.279474 0.289438 0.054508 0.315503 0.451141 0.039854 -0.360650 -0.313995 -0.127737 -0.086185 -0.574003 -0.379163 -0.058985 -0.030162 -0.098800 0.404313 0.178395 0.026734 -0.024650 -0.148458 0.023120 -0.164914 0.244582 -0.531301 0.162310 -0.081657 -0.326484 0.280394 0.172377 0.507227 0.276774 0.098604 -0.290240 0.190489 0.400874 -0.013338 0.158078 0.661933 -0.328017 -0.282338 -0.032786 -0.157505 0.473541 -0.019571 -0.150731 -0.503989 -0.161405 0.011391 0.259311 0.212758 0.358157 0.598916 -0.128714 0.160034 -0.064604 -0.168027 0.163132 0.193094 0.113597 -0.133653 0.010990 0.422217 -0.053235 -0.352114 -0.019887 0.167326 -0.326085 0.081220 0.155151 0.320362 -0.006393 -0.151205 0.331895 -0.515209 0.124550 -0.214051 0.256791 -0.222086 -0.367382 -0.273807 0.163135 -0.041875 0.219642 0.012256 0.303086 0.342558 0.051428 0.212607 -0.753233 0.267092 0.323931 -0.408252 -0.232864 -0.511940 -0.317788 0.019099 0.156942 -0.480902 -0.066049 0.058921 -0.714541 -0.061914 -0.237103 0.343434 -0.261245 0.336835 -0.074425 0.258942
H213 -0.239090 -0.672242 -0.643423 -0.425440 -0.513678 0.424428 -0.029375 -0.302961 -0.677804 0.298901 0.000882 -0.196084 0.210568 0.060588 0.259485 0.378712 0.375010 -0.318497 0.266696 0.058975 -0.260545 0.223037 0.037500 -1.114394 -0.538699 0.053626 0.155738 -0.172877 -0.740630 -0.263113 -0.155071 0.452724 0.135775 0.174967 -0.187316 0.124537 -0.145225 0.081234 0.346637 -0.144739 -0.511793 -0.396409 -0.293675 -1.108434 0.517608 0.150150 -0.217059 -0.325643 0.315971 0.160416 -0.345733 0.231891 0.651499 0.401239 0.209803 0.524124 0.333693 0.196850 -0.099585 -0.490325 0.154457 -0.178256 0.333088 0.752078 -0.290097 0.743435 0.519448 0.801903 -0.318841 0.460536 0.475590 1.006949 0.206759 -0.421902 0.338707 -0.716463 -0.368737 0.128581 -0.099423 0.151687 -0.046104 -0.072023 -0.313351 0.129641 0.655852 0.495491 -0.538577 0.112006 0.312948 0.664043 0.173501 0.038247 -0.076771 -0.037152 -0.343269 0.382149 0.126333 0.173929 -0.094131 0.147667 0.149141 -0.236942 0.589197 0.386337 0.840491 -0.087806 -0.131894 -1.043726 -0.339814 1.166730 0.296136 -0.047781 -0.139530 -0.355163 -0.205026 0.584403 0.284070 -0.150128 -0.208308 0.105908 0.165638 -0.186047 0.041716 0.576851 -0.576744 0.298555 0.376581 0.582050
H195 0.126965 -0.528730 -0.417937 -0.465306 -0.191836 0.219044 -0.042196 -0.048022 -0.086342 0.090200 -0.044200 0.779737 0.025578 0.612037 -0.753212 -0.231148 0.061300 -0.494586 0.371872 -0.393945 0.125420 -0.058642 0.035518 -0.019194 -0.111193 -0.095867 0.345306 0.187153 -0.472267 -0.135758 -0.594470 -0.575761 0.157202 -0.355426 0.477829 0.216774 -0.190010 0.098764 0.351923 0.282779 -0.022819 -0.817644 -0.067026 -0.519539 1.107513 -0.458901 0.109056 0.392890 -0.110238 0.016768 -0.336817 0.325701 0.250416 -0.599785 0.317343 0.746371 0.293863 -0.084216 -0.030283 -0.125931 0.037632 -0.175457 0.229226 -0.073918 0.164875 0.296237 0.605333 0.090007 -0.556602 -0.317746 -0.113207 0.468903 0.404241 -0.047440 -0.195248 0.185937 -0.083876 0.138988 0.588936 -0.385063 -0.058903 0.324046 -0.383924 -0.066026 0.084710 0.680126 0.071959 0.387685 0.429554 0.402311 0.347389 0.397349 0.579271 -0.336017 -0.147774 0.292562 0.358796 0.547184 0.527403 0.004197 -0.117474 0.261292 0.867045 0.519651 0.398367 0.179993 0.282591 0.158865 -0.064511 0.578030 0.261593 -0.422733 0.044892 -0.339905 0.111143 0.374301 -1.175290 -0.391263 -0.033318 0.219625 -0.011689 -0.139266 0.838706 -0.080074 -0.256865 0.018123 -0.299128 0.354218
H52 -0.212604 -0.271938 0.301480 -0.241749 -0.697344 0.546380 0.479234 0.027653 -0.307866 -0.149852 -0.119508 0.322504 0.049793 -0.091700 -0.764493 0.711504 0.057429 -0.298786 0.647349 0.971491 0.047203 -0.137400 0.165712 -0.893130 -0.359319 0.092737 -0.044817 -0.274765 -0.874504 0.068518 -0.157587 -0.230124 0.491539 0.432858 0.137979 -0.090798 -0.275964 0.017166 -0.330030 0.450437 0.199050 -0.238136 -0.316793 -0.964752 0.262730 -0.679464 -0.029630 0.207220 0.220184 0.336842 -0.328915 0.154091 0.632927 -0.009676 0.069804 0.770228 0.291261 0.182623 0.555190 -0.366453 0.603767 -0.372997 0.122041 0.395681 -0.227087 0.366474 0.709821 0.561054 -0.143641 -0.149478 0.148454 0.764009 0.025928 -0.265421 -0.157749 0.377281 0.117595 0.283298 0.068814 -0.336713 0.200728 -0.096116 0.087165 -0.258707 -0.266676 0.797846 0.405174 -0.075374 0.445926 0.180807 0.023564 -0.270751 0.268339 -0.326454 0.216726 -0.437128 -0.536162 0.387864 -0.483263 0.210133 0.451725 0.364604 0.781031 -0.002342 0.483330 0.498027 0.372147 -0.749172 -0.542279 0.292474 0.447380 -0.407032 -0.200821 0.212303 -0.352029 0.826756 0.179948 -0.955312 -0.156066 0.795051 -0.373039 -0.188144 -0.013343 -0.192463 -0.115439 -0.055618 -0.705375 -0.043231
H35 -0.278994 0.557203 0.059397 0.016917 0.015986 0.590742 0.115624 -0.769860 -0.201143 -0.035560 -0.128414 0.143989 -0.554606 0.772732 -0.263977 0.471617 0.116677 0.184431 0.370631 0.680783 0.139833 -0.105753 0.062778 0.317123 -0.550611 0.005262 -0.558322 -0.107505 -0.561548 -0.071488 -0.634317 -0.512149 0.026519 -0.231328 -0.067579 -0.455852 -0.492512 0.350018 0.171838 -0.309155 0.376485 -0.237068 -0.451713 -1.305448 1.137342 -0.135121 -0.138510 0.028149 -0.042601 0.414548 0.501908 0.200818 0.082346 -0.023685 0.693988 0.524681 0.434111 1.209156 0.010971 -0.153124 -0.101910 -0.390985 0.529053 -0.356201 0.373850 0.048951 0.463928 0.350516 -0.535960 0.039979 0.827979 0.483301 -0.083145 -0.105806 0.683708 0.088194 -0.186021 0.504749 0.687571 -0.188214 0.219285 0.059798 0.271144 -0.582495 0.484309 -0.038295 0.298264 0.004620 -0.087021 0.483713 -0.164977 0.019207 0.010487 -0.458535 0.606101 -0.341185 0.575056 0.195627 0.089161 0.234321 -0.579729 0.718248 1.004234 -0.161506 0.381555 0.274870 0.894804 -0.937456 -0.338817 0.357147 0.119681 0.108172 0.507064 -0.699801 0.455550 0.461656 -0.908687 0.484031 0.019948 0.324623 -0.628999 0.433564 0.331776 0.712877 -0.783529 0.458143 -0.055720 0.323980
H58 -0.246109 -0.426349 -0.176359 -0.405346 -0.169000 0.182671 0.048393 -0.696385 -0.648304 -0.150830 0.017333 -0.402368 -0.327653 0.863169 -0.683227 0.667105 -0.008587 -0.001568 0.709330 0.703891 -0.599057 0.143586 0.186783 -0.291230 -0.480324 -0.109469 -0.165562 -0.258532 -0.889957 -0.289296 -1.044177 0.221208 0.362333 0.140411 -0.126382 -0.354225 -0.612596 0.709156 0.207999 0.097994 -0.091030 -0.911801 -0.066501 -0.679581 0.336617 -0.834951 -0.505115 0.206945 -0.040555 0.228378 0.259625 0.528345 0.306841 0.166936 0.599580 0.404333 -0.003603 0.240501 -0.150089 -0.287590 -0.264597 0.018453 0.034926 0.314347 0.804499 -0.005285 0.163771 1.384306 -0.488425 -0.252768 0.344561 0.730328 -0.377883 -0.016113 0.176049 -0.481936 0.304568 0.215134 0.779175 -0.140206 0.396939 0.137124 0.004438 -0.349586 -0.641403 -0.079215 -0.086887 -0.206607 0.210337 1.000661 0.291656 -0.413984 0.084247 -0.687570 0.440708 -0.385334 0.035613 0.935194 -0.228503 -0.063895 -0.202206 0.581800 1.618282 -0.189587 0.586398 0.544975 -0.627593 0.102413 -0.882738 0.419015 0.286224 0.283083 0.416722 -0.443628 -0.003749 0.366550 0.185922 -1.093770 -0.034901 -0.080493 -0.665242 0.840368 0.256008 0.326747 -0.078931 0.478756 -1.085237 0.305214
H182 0.629010 -0.413937 0.021706 -0.580538 -0.304185 -0.371803 0.121951 -0.110210 0.101830 -0.366905 0.315317 1.061879 0.284107 0.826769 0.303170 0.051811 -0.272085 0.104084 0.176872 -0.050000 -0.660051 0.299814 -0.179608 -0.966125 0.112572 -0.025684 -0.015251 -0.945297 -0.014789 0.156771 -0.312710 -0.169541 0.417594 -0.238114 0.217632 0.980984 0.439807 -0.276691 -0.085823 -0.696961 -0.624430 -0.931609 -0.517098 -0.939607 0.413582 -0.858613 -0.744745 0.484475 -0.039347 0.372460 -0.579316 -0.639541 0.390576 -0.022662 0.419036 0.260201 0.034445 0.296779 0.299463 -0.115816 0.321439 -0.008226 0.333697 -0.229070 0.075039 0.252571 0.314634 0.028491 0.115344 0.363656 -0.187176 0.992048 0.664968 -0.339379 -0.380762 -0.088041 -0.459851 0.458375 -0.467140 -0.372728 -0.009216 -0.202035 -0.023244 -0.319349 0.186070 0.955781 -0.524614 -0.031346 0.465290 -0.022208 0.942711 -0.280519 0.364235 -0.250484 0.052623 0.027900 0.422857 0.166690 -0.174032 -0.443653 -0.259039 0.272151 0.418480 0.020269 0.989725 -0.049806 -0.152711 -0.143833 -0.055878 0.743855 0.248944 -0.439360 -0.489641 -0.506931 -0.227473 -0.497424 -0.363738 -0.916568 0.352007 0.338129 -0.745861 -0.147374 0.126266 -0.757169 -0.387306 -0.220300 -0.512848 0.084891
P829 0.235347 -0.243992 -0.632994 -0.661297 -0.390041 0.171584 -0.155736 -0.224203 0.261666 0.016741 0.305324 0.399108 -0.086261 -0.271863 0.356719 0.554541 -0.113530 0.137830 -0.201329 -0.230032 -0.536026 0.011886 -0.011870 -0.243341 -0.016390 0.113093 -0.071831 -0.586077 -0.328497 0.125262 -0.117779 -0.383287 -0.479987 0.109786 0.812103 0.260194 0.025492 -0.161523 0.742134 -0.266210 -0.333190 -0.111332 0.295104 -0.643085 0.771301 0.292196 -0.371229 0.483462 0.490224 0.429547 -0.386026 -0.219314 0.406402 0.132766 0.243406 0.424226 0.214469 0.623006 -0.118940 -0.080964 -0.096787 -0.427461 0.473736 0.419697 -0.245775 0.125014 -0.073126 0.123422 -0.357036 0.348017 0.507743 0.383554 0.447715 -0.384024 -0.160213 -0.217777 -0.468543 0.495568 -0.073526 0.068732 -0.153081 -0.227925 -0.192105 0.237657 0.160429 0.652593 0.127273 -0.369366 -0.119304 0.327801 0.024686 0.191243 0.286108 0.265304 -0.064764 -0.166777 0.375082 0.232512 0.223035 0.126478 0.490360 0.808750 0.738746 -0.414096 0.300375 -0.381925 -0.070339 -0.979107 0.048623 0.335647 0.071671 -0.032469 -0.170635 -0.415226 0.312862 0.403371 -0.363173 0.241571 0.342905 0.492516 -0.805337 0.006432 0.422658 -0.262276 -0.580699 0.125770 0.481351 0.292941
H31 0.107160 -0.239416 0.131495 -0.739361 -0.440140 -0.359328 -0.416079 -0.207919 -0.122849 -0.239110 0.271251 -0.277486 -0.363039 0.747361 0.122792 0.730906 0.633427 0.517631 0.497429 -0.231062 0.079755 -0.079227 0.238163 -0.386553 0.304882 -0.233215 0.199506 -0.046347 -0.481800 0.330390 -0.405875 0.333545 -0.094375 -0.180173 -0.351099 0.410316 0.163088 0.014564 0.086339 -0.203683 -0.801478 -0.237228 -0.127269 -0.618987 0.345327 -0.365078 -0.082899 -0.092012 -0.380606 -0.034088 -0.518943 -0.754675 0.386513 0.105506 0.153353 0.548130 0.458337 0.115012 -0.380126 -0.174724 -0.269812 -0.625224 0.719428 0.234636 0.081850 0.091990 0.085872 0.708639 -0.600064 0.071703 0.004149 0.347193 -0.056201 0.194282 -0.562414 -0.242739 0.035458 0.081492 -0.256225 -0.347205 0.786171 -0.061380 0.151458 -0.159914 0.290110 0.549700 -0.288554 0.097915 -0.277654 0.760308 0.608877 -0.585618 0.620632 -0.333084 0.088936 -0.140937 0.027321 0.126605 -0.053003 -0.655951 0.237476 1.041895 0.582457 0.066667 0.526026 0.603236 0.397949 -0.663340 -0.119410 0.248387 0.061241 0.175073 -0.210521 -0.597104 -0.256115 0.665181 -0.182281 -0.043342 -0.407392 0.764816 0.182575 0.264467 0.357412 0.279722 -0.327167 -0.115833 -0.471133 0.454654
H96 0.136704 -0.074949 -0.301354 -0.487977 -0.367684 0.143821 -0.315252 0.107883 -0.052493 -0.594470 0.529965 0.604624 -0.205275 0.187151 0.079278 0.204757 0.679929 -0.107073 0.371022 0.306824 -0.297908 0.101227 0.296532 0.252466 0.407256 0.194124 -0.175972 -0.557898 -0.222385 -0.110348 -0.382750 -0.297206 -0.220011 -0.204732 -0.103369 0.338982 0.030193 0.223638 -0.032702 -0.576710 -0.206804 -0.270989 -0.091040 -0.583054 0.244505 0.069025 -0.483826 0.056022 0.083146 0.529569 0.318615 0.110525 -0.223325 0.242244 0.648135 0.309877 0.182951 0.709232 -0.341368 -0.078092 -0.207247 -0.425093 0.496267 -0.141606 -0.494503 -0.335266 -0.161550 -0.085766 -0.110025 0.311932 0.872438 0.623921 -0.387174 0.339701 -0.180464 -0.181938 0.341664 0.281781 0.229690 -0.260573 0.168905 0.360021 -0.009575 -0.344276 0.006251 0.105657 -0.354113 0.220165 0.161187 0.396943 -0.057554 -0.255066 0.412419 -0.671386 -0.091151 -0.273529 0.294749 0.105266 -0.512292 -0.617144 0.123724 -0.176949 0.500842 0.028184 0.035472 0.244736 0.142475 0.284696 -0.926033 0.429495 0.232729 -0.394543 -0.279361 -0.510358 -0.252293 0.057906 -0.012188 -0.426564 -0.010129 0.232619 -0.673606 -0.095514 -0.406443 0.614235 -0.140019 0.541445 -0.262519 0.169408
P826 0.758260 -0.098044 -0.308871 -0.921630 -0.403472 0.273294 0.154189 -0.626618 0.250555 0.371387 0.006513 0.132132 0.330114 -0.128301 0.439277 0.544899 0.217505 0.223322 0.422979 0.209255 -0.134014 0.057126 0.252138 -0.218897 0.436795 -0.045279 0.038185 -0.184443 -0.127830 0.233881 -0.284066 -0.412098 -0.184639 -0.286274 0.720234 -0.367144 0.154799 -0.561788 0.322570 0.030027 0.025274 0.169136 0.207296 -0.537073 0.702882 0.209670 -0.035420 0.281486 0.211716 0.221835 -0.327443 0.223808 0.646769 -0.070843 0.460102 0.729111 0.026354 0.659292 -0.057048 -0.040027 -0.050150 -0.576608 0.459807 0.000336 -0.045127 0.566534 0.019007 0.099293 -0.500871 0.607187 0.392741 0.619820 -0.100996 -0.199991 -0.332348 -0.051817 -0.571824 0.301636 -0.149769 0.025849 0.132019 -0.478708 -0.429176 0.027174 0.275196 0.840483 -0.153030 -0.057712 -0.264078 0.205533 -0.042856 0.162790 0.170406 0.538223 0.118689 -0.145572 0.799369 0.346023 0.204272 -0.155439 0.330431 0.225705 0.645238 -0.067892 0.498536 -0.216466 0.091160 -0.569525 0.164645 0.378176 -0.149449 -0.296510 0.022636 -0.576974 0.183615 0.351038 -0.509422 0.376994 0.329162 0.765103 -0.781151 0.197735 0.866389 -0.065875 -0.356422 0.510825 0.346153 0.262450
H65 0.143554 0.140422 -0.331614 -0.434316 0.049682 -0.221999 0.080580 -0.132710 -0.528654 0.006616 -0.046625 -0.188119 -0.675917 0.975854 0.131299 0.330037 -0.175594 -0.125393 1.132574 0.033935 -0.262419 -0.364836 -0.456541 -0.528907 0.317775 0.145487 -0.230519 0.252299 -0.142903 0.114386 -1.164680 -0.293836 -0.175344 -0.097636 0.298384 -0.132954 -0.360064 0.108646 -0.025266 -0.630839 0.143405 -0.425454 0.202017 -0.829599 0.430788 -0.207987 -0.314513 0.315757 -0.089556 0.478595 -0.027888 0.241824 0.349923 0.785697 0.581512 0.840802 0.428099 0.276689 -0.210454 -0.518054 0.337217 -0.368878 0.299591 0.426472 -0.246584 0.501257 0.183481 0.258515 -0.019055 -0.440745 0.621704 0.645151 -0.304118 -0.150731 -0.218122 -0.586781 0.108376 0.755680 0.722451 0.241564 0.428490 0.022694 0.259652 -0.335695 0.364201 -0.180362 0.096529 -0.480392 -0.417135 0.097784 -0.013120 0.077441 -0.022384 -0.025726 0.133431 0.354519 0.685853 0.281252 -0.101037 0.246188 -0.575493 0.157176 0.918231 0.359347 0.507149 0.160954 -0.164978 -0.240808 -0.800589 0.123394 -0.472682 0.532581 0.009506 -0.157081 -0.125316 -0.107853 0.203124 -0.291198 0.293990 0.401943 -0.871591 0.354785 0.651486 0.059237 -0.198975 0.663527 -0.418788 0.355997
H18 0.190494 -0.725477 0.441710 -0.517077 -0.118723 0.109869 0.343085 -0.066876 -0.014139 -0.251918 0.298943 0.402825 0.192805 0.480255 0.642120 0.394904 0.196087 -0.195227 0.599528 0.358413 -0.527400 0.302346 -0.077759 -0.898921 0.393872 0.262345 -0.160646 0.018824 -0.545265 0.471381 -0.741807 -0.364953 0.519519 -0.133116 0.445915 -0.019651 -0.315815 0.296443 0.380587 0.105465 -0.685318 -0.806732 -0.435969 -0.241269 0.335049 -0.194988 -0.837158 0.257950 -0.023425 0.416670 -0.155073 0.031365 0.821546 0.266990 0.612529 0.231112 -0.169916 0.251147 -0.053206 0.014354 0.232079 -0.776487 -0.155521 0.238801 -0.086000 0.247195 0.177102 -0.764501 -0.242785 -0.004148 0.556706 0.673716 0.204895 0.406135 -0.452851 0.022325 0.481581 -0.064305 0.730704 -0.789717 -0.136236 0.500972 -0.191731 0.426578 0.362479 0.974914 0.101615 0.273667 0.668511 -0.025482 0.251828 0.124741 -0.108323 0.092890 0.154764 -0.258985 -0.210679 0.718254 -0.537202 0.501393 0.187825 0.653061 0.949141 0.074153 0.272370 0.250756 0.196634 -0.590148 -0.603760 0.841790 -0.146118 -0.143310 -0.235899 -0.163624 -0.327457 -0.337445 -0.033130 0.432040 0.175491 0.853434 -0.368882 0.384986 0.210423 0.284684 -0.256235 0.187364 -0.179002 0.980943
H203 0.422962 -1.060317 -0.490794 -0.652620 -1.202181 0.137651 -0.352464 -0.560596 -0.207195 0.042413 -0.273865 -0.088805 0.099258 0.356573 0.269763 0.356236 -0.734173 -0.771915 -0.002662 0.372067 -0.487175 0.438191 0.416677 -0.320655 -0.008793 -0.151282 -0.293795 -0.926812 -0.515262 0.178905 -0.696496 -0.490808 0.388675 0.363140 0.459238 0.312504 -0.323022 0.198582 -0.328038 -0.292122 -0.736066 -0.639299 -0.551095 -0.552372 0.520069 -0.380663 -0.119722 0.480108 -0.393736 0.283134 -0.519939 0.529040 0.142147 -0.036721 0.540863 0.425850 0.019420 0.267265 0.396011 -0.582737 0.313546 -0.151477 0.035891 0.516952 -0.802780 0.672545 -0.004353 0.066056 -0.357232 -0.052984 0.425417 0.464402 0.515067 -0.352659 -0.258248 -0.125441 0.093806 0.525814 -0.454060 -0.106935 -0.233422 0.283747 0.007027 -0.004334 0.293773 0.826217 -0.059717 0.170263 0.007156 -0.189466 0.502148 -0.479560 -0.272783 -0.389717 0.232058 -0.133083 -0.030030 0.355074 -0.268631 -0.097231 0.211048 0.552043 0.328764 -0.394967 0.320917 0.414453 0.777679 -0.149533 -0.162449 0.948690 0.899197 0.189710 0.214187 -0.638427 -0.416627 0.841483 -0.576843 0.025650 0.299968 0.926901 -0.203892 -0.418738 0.017950 -0.004000 -0.412240 0.234190 -0.056164 0.123136
H107 0.207716 0.054502 -0.881476 -0.758923 -0.599545 -0.144935 0.001882 -0.802195 -0.089524 0.295710 0.463402 1.007434 0.166324 0.921141 -0.610769 0.010924 -0.362954 -0.178212 0.378102 0.199725 -0.737449 0.320155 0.263886 -0.649053 0.157151 0.210717 0.185052 -0.447626 -0.728055 0.371135 -0.597685 -0.212748 -0.075002 -0.205707 -0.328284 0.131837 -0.279372 0.577992 0.983951 0.080321 -0.041393 -0.934668 0.043657 -0.492778 0.868835 -0.348206 -0.443839 0.607314 0.602113 0.405915 0.167454 0.198695 -0.290208 -0.149718 0.675816 0.053769 0.017052 1.283319 -0.553735 0.418366 -0.349901 -0.059181 0.424033 0.333141 0.676172 0.587543 -0.156507 1.018361 0.190598 0.538305 0.288351 0.946117 0.715589 -0.466206 0.704797 -0.716656 -0.623364 0.436370 -0.205820 -0.227642 -0.036752 0.378115 -0.188360 -0.647798 -0.309492 0.564561 -0.687148 -0.283052 -0.348899 0.989563 0.596701 0.461180 0.422465 -0.192560 -0.374757 0.650180 0.277825 0.344381 -0.270573 0.339504 -0.870153 0.491457 1.012882 -0.146569 1.047538 -0.073013 -0.004194 0.186238 -0.591028 0.459102 0.216982 -0.206622 0.158025 -0.887193 -0.256820 -0.063238 -0.219551 -0.124212 0.415804 -0.085347 -0.753927 0.033850 -0.090971 -0.526859 -0.149463 0.315902 -0.715263 0.439565
H82 0.758759 -0.613947 -0.654406 -0.971957 -0.691885 0.623886 0.293386 0.130915 -0.513896 -0.080424 0.340454 0.764528 -0.117102 0.275050 0.546979 0.352791 0.290496 0.362104 0.692001 0.444927 0.502768 -0.259337 0.013571 -0.771087 -0.063941 -0.755160 -0.257381 -0.534268 -0.060223 -0.556307 -0.699919 -0.542205 -0.174543 -0.091494 0.288141 0.331143 -0.032736 0.427419 -0.364994 -0.854754 -0.722010 -0.121977 0.001114 -0.866767 0.645060 -0.244261 0.161695 0.667122 -0.546474 0.845861 -0.979479 0.092463 0.817030 0.251411 0.747491 0.700474 0.202928 0.072164 -0.494889 -0.349266 -0.093713 -0.062202 0.353236 0.026996 -0.895062 -0.128382 0.765633 -0.291281 -0.283542 0.601717 -0.055045 1.146534 0.174867 -0.333152 -0.167326 0.140968 0.176369 0.544128 -0.089779 -0.829700 0.155439 0.177827 -0.415179 -0.225339 0.384798 0.515548 0.368808 0.454641 0.596917 0.303045 0.217450 -0.092595 -0.221342 -0.094563 0.179061 -0.077008 0.480365 -0.508512 -0.441219 -0.278941 0.576304 0.321097 0.537914 0.042486 0.966842 -0.182188 0.778727 -0.463349 -0.106310 0.725206 -0.155501 -0.122844 -0.089630 -0.458524 0.064522 0.771364 -0.409059 -0.319712 0.398307 0.487196 0.123101 0.196653 -0.249951 0.238738 -0.896225 0.433886 0.065583 0.438155
H175 0.437460 0.062010 -0.762759 -1.385856 -0.279966 -0.151930 -0.108901 -0.955282 -0.572440 0.199827 -0.158572 0.910681 0.747100 -0.143646 -0.374656 0.485748 0.528875 0.611205 -0.255874 0.200768 0.276917 0.094376 -0.155944 -1.239629 0.387139 0.069677 0.022896 -0.323544 -0.971320 0.206128 -0.243254 -0.707028 0.312030 0.121903 0.634925 0.036247 0.517903 0.153922 0.584208 -0.421263 -0.186244 -0.041423 -0.275796 -0.934691 0.629094 0.099249 0.106207 0.124117 0.490387 0.949870 0.184559 -0.190908 -0.314744 -0.206753 0.464406 0.372497 0.385374 0.869062 0.111725 0.175379 0.015336 -0.337935 0.459476 0.854782 -0.173550 0.152715 0.465161 0.991349 0.423453 -0.197564 0.510268 0.242983 0.043105 -0.804127 0.858012 -0.418023 -0.792680 -0.350986 -0.118795 -0.129104 0.750920 -0.012906 -0.064975 -1.228579 -0.385517 0.489937 -0.207586 -0.089810 0.182165 0.836370 0.524697 -0.079353 0.469522 -0.405406 -0.231785 -0.374329 0.274920 0.393167 -0.716123 0.006934 -0.017023 0.466898 0.676846 -0.147592 1.037201 -0.183876 0.267676 -0.031101 0.103334 0.460114 0.306782 -0.284084 -0.366313 -0.614320 -0.220669 0.450401 0.238812 0.376364 0.055247 0.420708 -0.497941 -0.220605 -0.260183 -0.266625 -0.778693 0.467452 0.217247 -0.015740
H55 0.122552 0.232214 -0.436057 -0.810147 -0.383189 -0.882021 -0.288173 -0.594955 -0.550839 0.056746 0.206473 0.428237 -0.142812 0.156524 -0.490347 0.324764 0.205615 0.114559 0.358218 0.308442 -0.394200 -0.129219 0.007081 -0.087207 0.506389 -0.137187 -0.292226 -0.053656 -0.583445 0.465702 -0.880576 -0.320422 0.054369 -0.222154 0.170225 0.234505 0.242065 0.141422 0.344342 0.034771 -0.030932 -0.363612 0.288665 -0.645948 1.352780 -0.105373 -0.356581 -0.228357 -0.397137 0.494499 -0.414180 0.138236 -0.190058 -0.249949 0.227687 0.844660 -0.250026 0.857208 0.360116 -0.358957 -0.456353 -0.454858 0.690865 -0.627322 0.100860 0.393650 -0.285243 1.513700 -0.128781 -0.515220 0.269096 0.682055 0.459793 -0.194878 -0.036809 0.013152 -0.523781 -0.214851 -0.110482 -0.522166 0.355213 0.376749 -0.245950 -0.249862 -0.159430 -0.344990 -0.232447 0.320779 -0.627062 0.499013 -0.271577 -0.621222 0.678355 -0.179094 0.346107 -0.538294 0.361560 0.055906 0.027975 -0.380210 -0.576860 0.878971 1.253936 -0.054667 0.556277 0.913765 0.781500 0.221509 -0.799024 -0.401333 0.188019 0.002863 -0.005668 -0.971155 -0.341433 1.221547 -0.298155 -0.206709 -0.899936 0.179046 -0.085848 0.253821 0.322278 -0.332474 -0.115751 -0.020207 -0.432544 0.214345
H84 -0.043019 0.082224 -0.287863 0.015801 -0.137122 0.358592 0.022925 -0.121264 0.013319 -0.088182 0.563418 0.404513 -0.072050 0.293607 0.178995 0.089683 0.717335 -0.242276 0.128333 0.542495 -0.233537 -0.050844 0.190791 0.297242 0.598825 0.066954 -0.179051 -0.015587 -0.572156 -0.078309 -0.425272 -0.028401 0.026328 -0.125430 -0.023750 0.408619 -0.010831 0.376622 -0.119675 -0.378515 0.066954 0.292519 0.052107 -0.438914 0.254300 0.147051 -0.395926 -0.024636 0.318140 0.109443 -0.415070 -0.332036 0.172377 0.331855 0.136087 0.548588 0.088956 0.623459 -0.145822 -0.815600 -0.035415 -0.250018 0.723575 -0.514747 0.308661 -0.126725 0.047622 0.063438 -0.168325 -0.306407 0.176946 0.911977 0.259875 0.222863 0.010386 -0.417217 -0.162649 0.120287 -0.135367 -0.408539 -0.527613 -0.128712 -0.248856 0.058906 0.201620 -0.167832 -0.231621 0.211261 0.285930 0.459656 0.622340 -0.400509 0.506785 -0.271104 0.559880 -0.465909 0.482501 0.275846 -0.054102 -0.323036 0.393127 0.162297 0.285058 0.214796 0.256509 0.420451 0.250906 -0.239580 -0.273764 0.801419 -0.423178 -0.495271 -0.460856 -0.752699 0.279224 0.233233 -0.095584 0.087469 -0.142135 0.222185 -0.227962 -0.167416 0.142450 0.242980 -0.110446 0.436540 0.047114 0.522916
H178 0.232948 -0.266066 0.339933 -0.269638 -0.189188 -0.233928 0.190967 -0.217075 -0.084188 -0.155325 0.305861 0.910441 0.072014 0.948708 0.219248 0.002044 -0.363556 0.182097 0.161543 0.168497 -0.754325 0.635206 0.068478 -1.182760 0.105794 0.018569 -0.119642 -0.946821 -0.346352 -0.086940 -0.338321 0.078571 0.620106 -0.049796 0.064192 1.002944 0.142676 0.201450 -0.421652 -0.379501 -0.400693 -0.683212 -0.666102 -0.874025 0.467461 -0.764744 -0.810125 0.387834 0.272846 0.284805 -0.497558 -0.168097 0.342047 0.193955 0.261578 0.144971 0.149776 0.355013 0.328463 -0.142330 0.651817 -0.026008 0.258365 -0.011598 0.385412 0.449629 0.546562 0.398256 0.025429 0.358849 0.036376 1.155415 0.739364 -0.508021 -0.231114 0.127815 -0.398824 0.601748 -0.590969 -0.398736 -0.018992 0.078779 0.102981 -0.369910 0.317705 0.715185 -0.399582 0.106451 -0.091341 -0.153693 0.920011 -0.429364 0.003984 -0.306561 -0.089988 0.078276 0.227901 0.167681 -0.471827 -0.044818 -0.275114 0.377228 0.252610 0.179087 1.011484 0.230192 0.091712 -0.313292 -0.579637 0.672769 0.229305 -0.489939 -0.035277 -0.511694 -0.173846 -0.419787 -0.296324 -1.136424 0.071578 0.028381 -0.655734 -0.013162 -0.008817 -0.556725 -0.383825 -0.467735 -0.475913 0.281109
H15 0.353385 -0.564121 -0.404931 -0.820543 -0.583311 0.801567 -0.018245 -0.049099 0.410812 0.271512 -0.653478 0.040322 -0.589188 0.531071 0.066040 0.475183 -0.803250 -0.092336 0.682715 0.645839 -0.184086 -0.250278 0.585134 -0.423379 0.182223 -0.050406 0.665226 -0.418796 -0.144491 0.264880 -0.203308 -0.000172 -0.061275 -0.542832 0.248585 -0.430448 -0.397814 0.768803 -0.226610 -0.058689 -0.580025 -0.119280 -0.069102 -1.438852 0.473676 -0.368043 0.253270 0.084448 -0.125536 0.439776 -0.385285 0.533571 0.336346 0.266181 0.315533 0.713033 0.267063 0.205361 0.242392 -0.631440 0.753807 -0.082136 0.654349 -0.093264 -0.725412 -0.343015 0.299176 0.080949 -0.543706 0.084288 0.461874 0.726145 -0.330023 -0.593320 -0.454220 -0.243444 0.181080 0.637836 -0.046082 0.318100 0.455864 0.026818 -0.258473 -0.241302 -0.132565 -0.009935 0.269062 0.390390 0.543649 0.263390 0.403035 0.252967 0.135915 -0.647473 0.221931 0.190019 0.239667 0.232851 -0.228273 -0.388355 0.442820 0.298857 0.990487 0.795608 0.193486 0.567904 0.208570 -0.480354 -0.464623 0.693056 -0.097476 0.186965 -0.188144 -0.350824 0.049973 0.706822 -0.682348 -0.570623 0.252188 0.853458 -0.744995 0.426049 0.370371 0.311763 -0.486813 0.169630 -0.378911 -0.057855
H132 -0.165315 0.089704 -0.077024 -0.716991 -0.442351 0.251744 -0.189859 -0.766248 -0.623799 0.612547 0.322201 0.166711 0.138587 -0.385642 -0.117845 0.525011 0.131740 -0.469032 0.215927 0.074771 -0.237507 0.819634 -0.353726 -0.695463 0.531263 0.353626 0.029330 0.420084 -0.352806 -0.057488 -1.072086 -0.399430 -0.239442 0.043125 1.151148 0.284546 0.342970 0.028320 0.440112 -0.235255 0.313628 -0.503957 -0.095941 -0.401398 1.106559 0.348777 -0.421206 -0.041458 0.526710 0.798707 -0.377859 -0.151124 0.396445 -0.369495 0.714567 0.282077 0.092090 1.069357 0.109439 0.332565 0.288153 -0.873262 0.301693 0.256914 0.122161 0.465867 -0.048704 0.657342 0.480900 -0.212382 1.607020 0.389719 0.610550 -0.826056 0.221730 -0.104440 -0.752029 0.498050 0.165726 0.041436 -0.457281 0.310775 -0.211107 -0.117850 0.053546 0.198439 0.293938 -0.129712 -0.488394 0.144166 0.053725 0.467719 0.122318 0.501658 0.241855 -0.100788 -0.151118 0.460185 -0.625896 0.990656 -1.078037 0.587124 0.899858 0.169648 0.816165 0.143848 0.472240 -0.250793 -0.328718 0.494977 -0.369966 0.031465 0.008535 -0.056826 0.672838 0.423532 0.131972 -0.032450 -0.140675 0.099132 -0.537681 0.156707 1.533388 -0.217486 -0.458009 0.714470 -0.101895 0.395578
H3 0.536913 0.003303 -0.196784 -0.966620 0.026342 -0.266392 0.297330 -0.909488 -0.133396 0.455198 -0.138574 -0.150077 -0.308815 0.626236 0.609093 0.669649 -0.695852 0.090073 -0.020395 0.558893 -0.889821 0.206999 0.190021 -0.963392 0.025742 -0.109703 -0.296203 -1.047718 -0.411137 0.265480 -0.436886 0.237023 -0.055161 0.228625 0.162503 -0.303207 -0.264533 0.505633 -0.126638 -0.187678 -0.554020 -0.813438 -0.328428 -0.807623 0.292856 -0.176709 -1.193248 0.290848 0.491094 1.074934 -0.146466 0.340533 0.678061 0.355007 0.552735 0.571351 -0.261517 0.743915 0.032464 -0.109134 -0.129220 -0.597905 0.599953 0.615026 0.553440 0.111508 -0.078344 0.849322 0.075629 0.990531 0.598743 0.790053 0.476197 0.073148 0.529203 -0.457015 0.026318 0.688177 -0.260494 0.046564 0.242890 0.166328 0.178900 -0.556861 -0.215270 -0.162729 -0.104530 0.015879 -0.549155 0.464622 1.171939 -0.399648 -0.336751 0.116025 0.291454 0.048495 0.210269 0.250376 -0.588532 0.159207 -0.456479 0.649793 0.583889 -0.471364 0.626427 -0.066383 -0.269006 -0.297756 -0.812399 0.080718 0.170597 -0.007636 0.170732 -0.056115 0.409020 -0.277817 -0.134164 -0.638995 0.623239 0.182552 -1.182525 0.215218 0.199569 0.057560 -0.271613 0.654737 -0.374200 0.559927
H119 0.419736 -0.368309 -0.182969 -0.708466 -0.133845 0.435254 0.066912 -0.358335 -0.084146 -0.360219 0.157747 0.516510 0.368377 0.493400 0.047649 0.431716 0.106459 -0.075461 0.373765 0.082981 0.071428 0.188340 -0.003294 -0.484476 0.401187 0.111868 -0.223693 -0.220654 -0.432969 0.013367 -0.684164 -0.105513 -0.238476 -0.153089 0.263889 0.395619 -0.192531 0.123793 -0.002600 -0.224678 -0.155295 -0.531522 -0.084394 -0.865490 0.514504 -0.158447 -0.258034 0.400383 -0.191111 0.395706 -0.262633 -0.138100 0.394213 0.016527 0.520349 0.602018 0.218417 0.521558 0.070304 -0.223815 -0.019342 -0.200288 0.578569 0.102818 -0.065622 0.249247 0.187929 0.180203 -0.260054 0.378066 0.361458 0.828321 0.170411 0.089458 -0.508255 -0.019640 -0.163961 -0.004921 0.005986 -0.330820 0.212410 0.066221 -0.302367 -0.264602 0.102169 0.603041 0.109862 0.197127 0.449972 0.539005 0.435012 -0.143751 -0.023059 -0.107817 0.596456 -0.031263 0.255933 0.245456 -0.031540 0.004761 -0.272451 0.256228 0.709451 0.047845 0.680789 0.478665 0.324472 -0.355562 -0.536300 0.794667 -0.179283 -0.205098 -0.289144 -0.383683 0.191046 0.421758 -0.293554 -0.206854 0.002379 0.649733 -0.616568 0.134703 0.378379 0.170861 -0.521020 0.437499 -0.192718 0.431834
H215 -0.315818 0.228865 -0.130468 -0.181277 0.006400 -0.226546 0.364242 -0.322881 -0.634515 -0.040021 0.099866 0.422230 -0.455135 0.077425 -1.003927 0.772211 0.056188 -0.166560 0.527827 0.432084 0.027410 0.491751 0.261877 -0.421269 0.108267 0.471615 -0.194898 -0.207121 -0.551384 0.140453 -0.898803 -0.974680 0.109019 0.568971 0.246233 -0.228218 -0.547509 -0.359224 0.538300 0.579957 1.049184 0.169475 0.085067 -1.114753 1.218686 -0.419859 -0.184275 -0.071542 0.500112 0.304598 -0.070489 -0.123847 0.374133 -0.488646 0.830970 0.809268 0.208099 0.669151 0.476072 0.179297 -0.157985 -0.670377 0.043227 0.759720 0.851167 0.675434 0.457248 1.062161 -0.279614 -0.230126 0.790819 1.011772 0.919886 -0.537557 0.390500 0.245045 -0.669656 -0.087681 0.255292 0.094432 0.161776 0.094741 0.365829 -0.428485 0.397107 0.227919 0.024851 -0.513788 -0.381949 -0.200246 0.185910 0.310728 0.318784 -0.337313 -0.421871 -0.166918 0.083324 0.416008 -0.104540 0.784896 -0.563644 0.336273 0.936192 0.204884 0.497952 0.287682 0.467203 -0.293064 -0.790529 0.545893 -0.287343 -0.542606 0.199744 0.000151 -0.188984 0.489859 -0.715075 -0.458459 0.014746 0.145620 -0.678664 -0.473061 0.391354 -0.148424 -0.286181 0.038428 -0.773941 0.910606
H103 0.264035 -0.389842 -0.312885 -0.648331 -0.267342 0.156250 0.070095 -0.527643 -0.195392 -0.214381 0.036673 0.327431 -0.050430 0.627660 -0.107211 0.594717 -0.004207 0.008424 0.504007 0.343741 -0.278835 0.132563 0.008544 -0.652737 0.145657 -0.011665 -0.063358 -0.230437 -0.684645 0.143254 -0.793175 -0.321773 0.091161 -0.126739 0.330708 0.101763 -0.103251 0.217686 0.170380 -0.172677 -0.220589 -0.506349 -0.240076 -0.926039 0.612285 -0.389447 -0.285976 0.297478 -0.028764 0.597732 -0.277320 0.117692 0.289916 -0.014041 0.591433 0.726933 0.233896 0.447616 0.033247 -0.272974 0.168244 -0.443268 0.464098 0.400137 -0.054548 0.292232 0.244113 0.391894 -0.303528 0.210097 0.567930 0.828532 0.220231 -0.181201 -0.004335 -0.226661 -0.215393 0.294455 0.156687 -0.176353 0.073064 0.162842 -0.170925 -0.330580 0.082842 0.442310 -0.061541 0.154778 0.183516 0.485979 0.425231 -0.044358 0.124210 -0.264431 0.318291 -0.099715 0.251868 0.443856 -0.255471 0.084783 -0.178571 0.427760 0.993551 0.067387 0.706521 0.377270 0.234061 -0.356288 -0.513320 0.638751 0.021991 -0.087947 -0.191098 -0.537327 0.068313 0.415736 -0.247894 -0.366778 0.143343 0.494815 -0.558985 0.138938 0.373420 0.021429 -0.414904 0.289478 -0.206304 0.452706
H63 0.024630 -0.289710 -0.268006 -0.624582 -0.103038 0.127268 0.271150 -0.608315 -0.361385 -0.168778 0.074520 0.257187 -0.058236 0.489095 -0.359086 0.605963 -0.198772 -0.008289 0.379826 0.629915 -0.195471 0.158099 -0.005035 -0.535614 0.292171 0.026634 -0.302023 -0.141505 -0.598648 0.059941 -0.635674 -0.321240 0.088094 0.142423 0.164054 -0.095252 -0.220894 0.207197 0.117705 -0.049308 0.102784 -0.694346 -0.215176 -0.867251 0.394532 -0.490346 -0.228524 0.209903 0.035135 0.625279 -0.035662 0.360962 0.370669 0.088429 0.573619 0.520988 0.067665 0.575102 0.020823 -0.155403 -0.014731 -0.376353 0.528229 0.404053 0.195948 0.327156 0.094054 0.696316 -0.116684 -0.023371 0.476758 0.894924 0.188717 -0.210832 0.125314 -0.362502 -0.197891 0.096998 0.197427 -0.128653 0.159180 0.184820 -0.039160 -0.361679 -0.051703 0.176991 -0.076306 0.075369 0.018255 0.559114 0.366583 -0.187585 0.124225 -0.177127 0.149783 -0.048396 0.256608 0.447997 -0.264260 0.170307 -0.438949 0.198955 0.994421 -0.032488 0.559573 0.267430 0.080844 -0.131892 -0.734506 0.377728 0.021232 -0.240594 -0.014324 -0.389454 0.202048 0.215874 -0.063247 -0.390757 -0.028908 0.201047 -0.678276 0.184401 0.386688 0.040401 -0.204735 0.340351 -0.228870 0.457388
H74 0.111925 -0.258707 -0.195408 -0.584710 -0.394327 0.157568 -0.031329 -0.443543 -0.175981 -0.201554 0.134568 0.322545 -0.128430 0.452937 -0.106788 0.522672 0.250147 -0.078310 0.425327 0.254378 -0.138301 0.246526 -0.001499 -0.494235 0.198318 0.028471 -0.081825 -0.248379 -0.682115 0.089962 -0.789950 -0.300941 0.090548 -0.137781 0.286157 0.238308 0.052629 0.233879 0.114902 -0.054384 -0.177918 -0.479698 -0.166436 -0.899144 0.663160 -0.408920 -0.298140 0.174163 0.056534 0.484388 -0.206137 0.044048 0.241861 -0.031470 0.533560 0.746516 0.222149 0.470670 0.029357 -0.283557 0.155810 -0.317496 0.437353 0.218924 0.048815 0.327007 0.239699 0.503769 -0.327826 0.049551 0.579415 0.767253 0.231332 -0.188186 -0.110292 -0.190807 -0.274859 0.264720 0.109352 -0.175451 0.044657 0.167467 -0.040809 -0.328132 0.096396 0.387322 -0.018318 0.093007 0.082710 0.425026 0.345590 -0.019406 0.200282 -0.291028 0.341808 -0.250937 0.308292 0.367314 -0.274499 -0.026545 -0.182897 0.512902 0.840406 0.107205 0.727450 0.421525 0.305148 -0.389639 -0.463164 0.677170 0.074631 -0.143979 -0.179773 -0.541201 0.027196 0.480900 -0.178952 -0.334499 0.030941 0.428114 -0.539718 0.054542 0.340287 0.035194 -0.401848 0.197254 -0.302094 0.447507
H152 0.238300 -0.318551 -0.301100 -0.647548 -0.366336 0.194750 -0.040496 -0.449381 -0.226718 -0.264885 0.136686 0.411907 -0.043165 0.562508 0.027365 0.620079 0.181453 -0.021869 0.434107 0.292499 -0.137012 0.219733 -0.002635 -0.559452 0.284888 0.072846 -0.113112 -0.260375 -0.728930 0.055792 -0.852711 -0.313472 0.057473 -0.148069 0.310665 0.256250 0.004323 0.262166 0.182531 -0.153222 -0.204508 -0.536834 -0.170970 -0.978910 0.717534 -0.335862 -0.395095 0.269972 -0.020674 0.603935 -0.290754 0.044454 0.371745 0.035287 0.617480 0.786198 0.269089 0.512256 0.010336 -0.346639 0.151751 -0.383050 0.530896 0.218463 -0.046685 0.294120 0.250983 0.413458 -0.320793 0.121526 0.608338 0.912552 0.186007 -0.151511 -0.106677 -0.190864 -0.251480 0.247335 0.170954 -0.190497 0.058039 0.175746 -0.157843 -0.343775 0.122615 0.467049 -0.085699 0.182942 0.140498 0.502798 0.458175 -0.067726 0.204664 -0.235667 0.446282 -0.226338 0.293849 0.419356 -0.260719 -0.011493 -0.132414 0.510800 0.899687 0.106915 0.821791 0.395854 0.280617 -0.411271 -0.515829 0.733756 0.028959 -0.142786 -0.267745 -0.595235 0.053916 0.499830 -0.198181 -0.296152 0.057738 0.512657 -0.644190 0.031766 0.331089 0.047602 -0.505638 0.295379 -0.268014 0.493350
H189 -0.167853 -0.536812 0.463551 -0.653187 0.147964 -0.296263 -0.148521 -0.266907 -0.459454 0.063200 -0.143062 -0.081706 -0.999753 0.616503 -0.661645 0.455663 0.330050 -0.053075 0.187103 0.112250 -0.241143 0.758322 0.470822 -0.386837 -0.056856 0.267644 0.023049 -0.539804 -0.780741 0.023440 -0.720532 -0.289321 0.750041 0.078824 0.089272 0.266993 0.256142 0.488296 0.301235 -0.237369 0.153707 -0.025381 -0.040569 -0.764620 0.883161 -0.821793 -0.262453 0.342017 0.819280 0.188019 -0.157869 -0.072295 0.222265 0.183634 0.755382 -0.031791 0.076298 -0.047419 -0.037304 -0.508145 0.248477 -0.797162 -0.681457 -0.273747 0.310054 0.104040 0.439347 0.884288 -0.027631 -0.186889 0.901987 0.528181 0.345371 -0.068974 -0.035370 0.040126 -0.112778 0.748953 0.194234 -0.245034 -0.200595 0.063907 1.011306 -0.472261 0.496338 0.511312 -0.312739 -0.423406 -0.280563 -0.046348 0.654355 0.035511 0.321303 -0.741418 -0.235446 0.015231 0.136898 0.345794 -0.898953 0.081751 -0.131097 0.941517 0.988223 0.260863 0.560414 -0.129095 0.562995 -0.450121 -0.385650 1.231562 0.275535 0.237216 0.287980 -0.405617 0.039404 0.318195 -0.064113 -0.740061 -0.015596 0.910305 -0.582196 -0.162346 0.428821 0.081504 -0.657792 0.275293 -0.809504 0.082833
H184 -0.394555 -0.498794 -0.166000 -0.112177 -0.094423 0.180720 0.218896 -0.520995 -0.150130 -0.444158 0.349661 -0.075580 -0.799801 0.619831 -0.501145 0.455428 -0.172684 -0.174560 0.414275 0.613506 0.208084 0.873695 -0.054677 -0.072291 -0.224958 0.363169 0.683227 -0.273580 -0.438406 -0.403520 -0.614482 -0.259870 0.393268 0.197228 -0.797855 0.610488 0.062477 0.540313 -0.276988 0.275448 -0.237448 -0.504375 -0.911215 -0.947482 0.395851 -0.890609 -0.156257 -0.465785 -0.524195 0.582578 0.334627 -0.488879 0.246229 -0.340436 0.695422 0.513532 0.905381 0.120664 0.030369 -0.212008 0.091832 -0.350800 0.031607 0.620577 0.802767 -0.076630 0.629544 0.218953 -0.353560 -0.008762 0.653181 0.502156 0.453945 -0.050351 0.131055 -0.102616 -0.046110 0.509395 0.124415 0.039680 -0.122197 0.463116 0.414435 -0.324867 -0.015914 -0.001489 -0.146649 0.010436 0.245245 0.458950 1.018931 -0.298065 -0.036711 -0.870250 0.605479 -0.041398 0.298555 0.344357 -0.197562 0.399719 -0.067809 0.350030 0.866751 0.437877 0.938459 0.539878 0.653050 -0.304803 -0.353985 1.532800 0.038711 -0.012258 0.014635 -0.413495 0.472809 0.057333 0.058351 -0.543591 0.140796 -0.004928 -0.646505 -0.318299 0.488505 0.197907 -0.539689 -0.302410 -1.140953 0.125034
H86 0.216785 0.362149 -0.363589 -0.335397 -0.395526 0.413676 -0.048376 -0.004969 -0.023402 -0.582751 0.337582 0.763844 0.261879 0.065673 0.280000 0.327857 0.508758 -0.183958 0.161826 0.508549 -0.583469 0.304602 0.036602 0.311732 0.760766 0.022694 -0.440607 -0.032242 -0.201831 -0.054450 -0.477337 -0.338762 -0.052991 -0.067010 0.022097 0.376349 0.335797 0.003253 -0.098839 0.015168 0.179600 -0.075229 0.283353 -0.742373 0.229675 -0.316342 -0.375059 0.169481 0.333502 0.627315 0.355356 0.228645 -0.247172 0.245814 0.507747 0.107214 0.300867 0.953030 -0.086454 -0.172713 -0.184980 -0.209372 0.473049 0.165094 0.223230 -0.714653 0.001740 -0.022477 -0.064963 0.231683 0.496457 0.797816 -0.024157 0.196711 -0.377426 -0.099729 0.048614 0.299122 0.241572 -0.204411 -0.025910 0.328897 -0.126271 -0.443300 -0.053517 0.337624 -0.355464 -0.114809 0.202166 0.394039 0.039455 -0.130483 0.449960 -0.527836 0.161766 -0.463189 0.422025 -0.283135 0.050767 -0.045379 -0.020467 -0.263397 0.202097 0.001387 0.206819 0.537534 -0.067844 0.011419 -0.932926 0.366934 0.128875 -0.524720 -0.184897 -0.593751 -0.111585 -0.181309 0.083970 -0.662166 0.113095 -0.049827 -0.865058 0.065869 -0.148245 0.369593 -0.464988 0.222109 0.061173 0.598184
H112 -0.275113 0.223886 0.257892 -1.057113 -0.244926 -0.186486 -0.262274 -1.115637 -0.038092 -0.264899 0.375609 0.424808 0.035537 0.739643 -0.684119 0.667752 0.292539 -0.075818 0.381197 -0.002613 -0.844431 0.374913 -0.280519 -0.847747 -0.039958 0.244147 -0.125330 0.357270 -0.854774 0.245720 -0.448576 -0.144374 0.637431 -0.405951 0.264127 0.366362 0.576897 -0.219834 -0.028007 0.418403 -0.073575 -0.835716 -0.249947 -0.494892 0.696221 -0.925475 -0.631717 -0.039294 -0.085147 0.540057 -0.219203 -0.531646 0.004488 -0.481634 0.460298 0.462159 0.278643 0.671892 0.236493 0.331251 0.346293 0.149253 0.029366 0.015359 0.220830 0.479356 0.372047 0.853941 0.178964 -0.084110 0.686883 0.043411 0.490809 -0.336771 0.020060 0.242861 -0.775403 0.285716 0.170924 -0.595689 -0.018291 -0.440101 0.593447 0.052493 -0.266315 0.992869 -0.231315 -0.136523 -0.109173 0.488963 0.157951 0.743154 0.557489 -0.039908 0.770896 0.043773 0.274852 0.518751 -0.427080 0.044733 -0.428019 1.023145 1.400824 -0.241407 1.172379 0.100165 -0.012372 -0.395064 0.005817 0.127655 0.237701 0.394480 -0.062015 -0.550198 -0.114216 -0.011734 0.215656 -0.808691 0.030103 0.633191 -0.505845 0.018020 0.383506 -0.773372 0.091462 -0.397243 -0.591817 -0.243732
H123 0.331813 -0.005051 -0.284910 -0.320857 0.063496 0.125446 -0.372164 -0.158206 -0.517002 -0.335651 0.166449 0.670179 0.306354 0.021358 0.448834 0.893148 0.002847 -0.011515 0.195380 0.000086 0.213163 0.074719 0.073540 -0.538705 0.432227 0.341563 -0.097580 0.290753 -0.560663 -0.032559 -0.757106 -0.130596 0.200522 0.016968 0.474258 0.127098 0.575738 0.535414 0.358415 0.072934 -0.064611 -0.042611 0.014893 -0.086520 0.295377 -0.413322 0.045895 0.112980 -0.074330 0.545616 0.293558 0.252542 0.270428 0.106140 0.502694 0.253252 -0.178180 0.445314 0.241004 -0.361279 0.156748 0.237827 -0.265390 -0.030559 -0.011248 0.126158 0.571661 0.043996 0.236138 -0.067323 0.125138 1.056246 0.006534 -0.008924 -0.053395 0.467783 -0.313107 -0.284298 0.404831 0.066798 0.127708 -0.086846 -0.568720 -0.049689 -0.015432 0.229467 -0.139115 0.072453 -0.058170 0.231705 0.056333 -0.478980 0.284447 -0.278850 0.384087 -0.756800 0.106498 -0.280993 0.211421 -0.025903 -0.133760 0.416585 0.126944 0.223601 0.171665 0.213931 0.386292 -0.620925 -0.347971 0.807199 -0.061498 0.160512 0.040967 -0.816497 -0.006007 0.367343 -0.071796 -0.283604 -0.024341 0.314292 -0.346616 0.097506 0.667307 -0.316424 -0.945253 -0.259643 -0.229289 0.676848
P200 0.141993 -0.040820 0.421257 -0.315820 -0.244323 -0.178631 -0.443877 -0.056220 0.062706 -0.136041 0.346389 0.020805 0.135553 0.450742 0.215146 0.387350 0.787612 0.321716 0.147761 -0.318538 0.146172 0.276785 -0.037709 -0.764147 0.165719 -0.093623 0.017539 -0.203171 -0.816131 0.106067 -0.262480 0.218690 -0.032550 -0.166441 -0.014632 0.660270 0.154769 -0.119002 0.014351 -0.613621 -0.556470 -0.732777 -0.141663 -0.366374 0.498574 -0.255267 -0.389808 0.235208 -0.087507 0.126593 -0.269289 -0.895232 0.328412 0.091315 0.403363 0.738902 0.046485 0.134551 -0.287295 0.231227 -0.108631 -0.252550 0.532692 -0.154101 -0.037289 0.250695 0.226862 0.338440 -0.412797 -0.238001 0.381130 0.570939 -0.036882 0.036136 -0.343941 -0.184386 -0.301988 -0.133747 -0.035313 0.024997 0.235570 0.021207 -0.351050 0.016084 0.004288 0.474106 0.026156 -0.170808 0.150723 0.806508 0.567575 -0.111951 0.179066 0.137604 0.077705 -0.130267 -0.353078 0.242589 -0.356494 -0.433111 0.137043 0.975957 0.289892 0.332216 0.483069 0.289425 0.231464 -0.303297 -0.004215 0.391601 0.155743 0.077772 0.053213 0.006044 -0.199811 0.549774 0.598663 -0.097843 -0.140404 0.719845 -0.063795 0.090169 -0.099400 0.192163 -0.345887 0.122096 -0.668244 -0.126230
H38 0.249016 -0.459848 0.067919 -0.307841 -0.231999 0.584248 -0.201723 -0.119952 -0.249023 -0.315016 -0.166685 0.384857 -0.198635 0.628134 0.311924 0.194434 0.313657 -0.139444 -0.135626 -0.070549 -0.088962 0.065878 0.211569 -1.088773 -0.023084 -0.115925 0.356470 -0.372156 -0.001509 0.042026 -0.924765 -0.127210 0.274459 -0.070124 0.589953 0.489588 0.518174 0.800192 -0.099503 -0.457900 -0.639075 0.088615 -0.773823 -1.154489 -0.217264 -0.456297 -0.438840 0.174580 -0.036669 0.543293 -0.080104 0.201739 0.253853 -0.135818 0.408849 1.129132 0.446728 -0.279372 0.182931 -0.088471 0.428272 -0.861834 0.263134 0.370872 -0.183008 0.421548 0.691163 0.106733 0.059399 0.230598 0.743689 0.133117 -0.461820 -0.401568 -0.226475 -0.054050 0.365968 0.283516 0.161723 -0.734270 0.201352 0.007902 -0.309404 -0.754641 -0.025069 0.575208 0.324717 0.414297 0.179838 -0.010574 1.095826 -0.146174 0.237617 -0.637379 0.288659 -0.354214 0.126138 0.621469 -0.361941 0.166418 0.308202 0.568498 0.305422 -0.253462 0.572042 0.164524 -0.372229 -0.009041 -0.013260 0.528733 -0.208053 0.347408 -0.298999 0.128692 0.251633 0.176435 0.056804 -0.476734 0.562767 0.723999 -0.359672 0.352676 0.504697 0.390106 -0.315697 0.274290 0.209753 0.062461
H127 0.229775 -0.320201 0.006996 -0.054681 -0.010068 -0.028981 -0.061827 -0.078334 -0.284567 -0.731097 0.119788 0.517230 -0.036323 0.032476 0.360196 0.398729 0.130813 -0.004358 0.035881 0.373403 0.146387 0.085443 0.391507 -0.064181 0.166763 0.471450 0.221736 0.088695 -0.474886 -0.309928 -0.538784 -0.558604 0.350514 -0.406971 0.329571 0.431199 0.523896 0.654661 0.449182 -0.303990 -0.064855 0.056864 -0.270896 -0.748540 -0.289135 0.144045 -0.000867 0.192143 -0.052263 0.342648 0.182558 0.364038 0.497823 0.467706 0.299586 0.067195 -0.127775 0.818514 0.439000 -0.600754 0.389004 -0.079080 -0.141545 0.446387 -0.168804 0.366498 0.504613 0.242376 -0.066499 -0.063513 0.512740 0.557247 0.015830 -0.001722 0.136985 0.540069 -0.211034 -0.401577 0.672332 -0.105633 0.198125 -0.197200 0.135952 -0.020217 0.468332 0.213780 0.172125 0.214958 0.326033 0.117851 0.119091 -0.211864 0.337125 0.078726 0.539749 -0.698079 0.638739 0.086505 0.366833 -0.210859 0.159136 0.558952 0.555694 0.367040 0.453740 0.575189 0.627629 -0.466285 -0.411794 1.175206 -0.210411 -0.008470 0.270047 -1.011031 -0.208480 0.392924 -0.126225 -0.360756 0.164415 0.409819 0.019506 -0.296551 0.326047 -0.353375 -0.549399 -0.166899 0.145878 0.618430
H57 -0.548081 -0.775829 0.381617 -0.237219 -0.260834 -0.027192 0.375880 0.135157 -0.703134 -0.442675 0.096819 0.061453 0.168355 0.137755 -0.440175 0.528335 -0.233174 -0.338961 0.380224 0.814577 -0.334095 -0.677323 0.052402 -0.929012 0.073631 -0.069948 -0.172365 -0.042712 -0.725753 -0.082744 -0.284092 -0.222622 0.178447 -0.151818 0.387965 0.301035 -0.512097 0.224134 -0.322536 0.417552 -0.437449 -0.637675 -0.653593 -0.323989 0.270431 -1.225465 -0.336972 0.109133 -0.122254 0.267224 -0.380075 -0.349982 0.471175 0.041341 0.512019 0.909390 0.783413 0.237641 0.125105 -0.389140 0.514313 -0.214977 0.117181 0.553698 -0.075558 0.521341 0.304121 0.772676 0.415270 -0.185486 0.334502 0.840288 0.149720 -0.655391 -0.449203 0.060315 0.035817 0.124314 -0.269335 -0.408027 -0.059077 -0.182852 -0.200095 -0.426061 -0.072025 0.437751 0.512948 -0.157178 0.471545 0.186606 0.345424 0.431918 0.260899 -0.414587 -0.034838 -0.542133 -0.445151 0.443206 -0.309282 0.450872 -0.191611 0.506282 0.791850 0.412150 0.341210 1.077242 0.083429 -0.386494 -0.817957 0.649512 0.078124 0.151704 -0.031313 0.174456 0.123384 0.416622 -0.309875 -0.683995 -0.038852 0.408881 -0.231662 -0.174717 0.026123 -0.115776 -0.102346 -0.111971 -0.269288 -0.211073
H166 0.189250 -0.311057 0.333829 0.164575 -0.962195 0.374162 -0.298110 0.327608 -0.309288 -0.620661 0.358815 0.271480 -0.449671 0.863283 -0.247849 0.267000 -0.103315 0.613066 0.912789 0.377917 0.025793 0.134765 -0.089116 -0.197035 -0.211739 -0.058535 0.123833 0.103929 -0.732580 0.544763 -0.815344 0.149320 0.256728 -0.605522 0.701555 -0.572155 -0.079298 0.708729 0.434716 0.205116 -0.518017 -0.314755 0.047275 -0.230846 0.197898 -0.311145 0.565828 0.513394 -0.053188 0.337756 -0.198805 0.212383 0.184198 0.512460 0.370283 0.769562 -0.355417 -0.033659 -0.382112 -0.473662 0.036858 -0.510953 0.392538 0.384717 0.154243 0.509677 0.168603 -0.318194 -0.672959 -0.276057 0.578845 0.684437 -0.258736 0.010605 0.307663 -0.845943 -0.300769 0.697386 0.251012 -0.032193 0.071248 0.188666 0.368178 -0.682750 0.014741 0.015712 0.366540 -0.463414 -0.011137 0.490113 0.585076 -0.612454 -0.245071 -0.491215 0.230022 -0.142881 0.346882 0.287993 -0.491504 -0.144173 -0.445591 0.514574 0.281185 -0.093911 0.587546 0.423469 0.279765 -0.417454 -0.335253 0.527435 0.176901 -0.113392 -0.174588 0.165729 -0.168729 0.470563 -0.847571 -0.504470 0.076487 0.209929 -0.762948 0.135733 0.527009 -0.175738 -0.047807 0.131757 -0.389976 0.551033
P964 0.281115 -0.404672 -0.311105 -0.782445 -0.129610 0.280193 0.491944 -0.199903 0.131469 0.015629 0.072065 0.578006 0.183052 0.453133 -0.518099 -0.188820 0.006531 -0.219855 0.586020 -0.152859 -0.050061 -0.184242 -0.306445 -0.091784 0.247831 0.455291 0.156448 0.005394 -0.913106 -0.100604 -0.103218 -0.189230 0.049428 0.095581 0.416907 0.296944 -0.458617 0.141726 0.158273 -0.985309 -0.156661 -0.735160 -0.295268 -0.633904 0.425646 -0.112361 0.231714 0.005696 0.152816 0.009311 -0.405405 -0.013522 0.095465 0.140082 0.631791 0.367388 0.560041 -0.183118 -0.049957 -0.462675 -0.176151 -0.091059 0.338630 0.736621 -0.053630 0.495255 0.428511 0.242202 -0.526348 -0.223234 0.094174 0.674272 -0.330445 -0.340778 -0.507806 0.025053 -0.189695 0.036593 0.126454 0.187275 -0.211312 -0.019195 -0.133079 -0.128607 0.047338 0.209532 0.205587 0.692317 0.855938 0.498343 0.414531 -0.253023 0.096107 -0.120401 -0.259303 -0.127357 0.414188 0.664433 -0.335199 0.170536 -0.099934 0.094049 0.839271 -0.077822 0.260505 -0.075435 0.218320 -0.141711 -0.422332 0.122615 0.145526 -0.482674 0.086876 -0.377829 -0.438412 -0.028149 -0.371261 -0.166225 0.333073 0.125239 -0.196458 -0.140645 -0.075784 -0.284963 -0.510482 0.468213 -0.034825 0.342641
H12 0.272594 -0.345587 -0.314413 -0.693251 -0.383052 0.206295 -0.017539 -0.494453 -0.233834 -0.296266 0.127224 0.424193 -0.025521 0.617012 0.017015 0.665139 0.195402 -0.017631 0.492380 0.320076 -0.169146 0.212683 0.000335 -0.610422 0.274574 0.054002 -0.122769 -0.298369 -0.787360 0.084950 -0.908654 -0.342230 0.045682 -0.157571 0.338785 0.270084 -0.009436 0.262633 0.152527 -0.157837 -0.279993 -0.593133 -0.192438 -1.033433 0.729893 -0.391377 -0.418440 0.306408 -0.030932 0.636963 -0.287576 0.034689 0.373589 0.047832 0.627965 0.867300 0.291769 0.541979 -0.009363 -0.367438 0.157602 -0.382445 0.604168 0.217481 -0.074754 0.301270 0.226130 0.445037 -0.332578 0.170404 0.627663 0.974082 0.199081 -0.134705 -0.127894 -0.234630 -0.231921 0.266684 0.154963 -0.207330 0.047271 0.174984 -0.195013 -0.344824 0.126349 0.502706 -0.076812 0.158855 0.160355 0.541742 0.464672 -0.073544 0.186648 -0.245607 0.449821 -0.229842 0.314770 0.434937 -0.293673 -0.021196 -0.145331 0.502471 0.958725 0.129276 0.848952 0.419343 0.301112 -0.436391 -0.562829 0.773886 0.028227 -0.158914 -0.266438 -0.604012 0.040886 0.535194 -0.177029 -0.322932 0.085542 0.575404 -0.702450 0.064946 0.360960 0.094892 -0.526164 0.335956 -0.297375 0.531847
H14 -0.013022 -0.233233 -0.206104 -1.291963 -0.251557 0.420810 0.103009 -0.954821 -0.275183 0.180313 0.054797 0.261128 -0.234082 0.272287 -0.331482 0.456056 -0.126156 0.041948 -0.201406 0.433152 -0.565859 0.020187 0.242700 -0.258093 -0.184960 -0.067305 -0.190988 0.062680 -0.901762 0.260595 -0.311151 -0.248863 0.081734 0.182742 0.247128 -0.689605 0.375024 0.535042 0.941706 0.744416 0.409672 -0.600557 -0.030632 -0.759202 0.557081 -0.858016 0.144521 0.262658 0.149765 0.397325 -0.217257 0.360998 0.468475 0.153148 0.866945 0.483139 -0.221680 0.689560 -0.274790 0.128272 -0.104013 -0.354045 -0.040745 0.455155 0.389535 0.457172 0.369843 0.898463 -0.161917 0.091007 1.062722 0.292407 0.182912 -0.934501 -0.054555 -0.257986 -0.941163 0.311600 -0.240840 0.011296 0.253553 -0.122989 0.301580 -0.383103 0.070175 0.051119 -0.030189 -0.738373 -0.287580 0.683247 0.507944 0.240726 0.555112 0.083746 0.014082 -0.006345 0.204708 0.708820 -0.289111 0.259126 -0.613794 1.119040 1.113124 -0.151559 0.246949 -0.086247 0.644872 -1.283691 -0.020476 0.217530 0.472584 0.618832 0.346105 -0.430493 0.239636 0.595010 -0.080607 -0.615968 -0.000541 0.342150 -0.213572 0.454970 0.999420 -0.759879 -0.323996 -0.152072 -0.278171 0.425064
