1622 128
H79 0.196021 0.192597 -0.002516 0.450468 0.193008 0.085532 -0.080643 -0.098777 0.227461 0.006497 0.045842 0.010148 0.001616 0.184430 0.289224 -0.286645 0.280895 0.178340 -0.105726 0.188231 0.350895 0.129222 0.143602 0.111694 0.174999 -0.006132 -0.000821 0.115600 -0.246888 -0.091633 0.099171 0.184932 -0.308191 -0.294549 -0.266318 0.088064 -0.154300 0.058064 -0.194900 -0.149159 0.495648 -0.158925 0.584953 0.056109 0.137086 -0.273730 -0.422723 -0.385333 0.179017 -0.101655 -0.121842 -0.123203 0.054120 0.181166 -0.363131 -0.069733 -0.048166 -0.390177 -0.428185 -0.142907 -0.095318 0.012503 -0.179748 -0.343852 0.385302 -0.192644 -0.833219 -0.111932 -0.146467 -0.075969 -0.094449 0.383201 0.314923 -0.011855 -0.074153 -0.112349 -0.045695 -0.578161 -0.282435 0.242632 -0.016361 0.002619 -0.131905 0.335690 0.381818 0.066663 -0.101278 0.148212 0.231656 -0.315688 0.416571 0.147252 0.550078 -0.379718 0.324677 -0.479083 0.217939 0.278908 -0.023767 0.403045 -0.487303 -0.754658 -0.295091 0.336629 -0.317434 -0.044972 0.206943 0.203986 0.118046 -0.134607 -0.135634 -0.111456 -0.369652 -0.060805 0.531157 -0.314692 0.676094 0.379131 0.286535 -0.330365 -0.125539 -0.212995 -0.445016 0.122138 -0.178836 0.152054 -0.316590 0.320445
H95 -0.445397 0.099818 -0.130189 0.195409 0.408839 0.157263 -0.156783 0.238075 -0.017747 0.070775 0.197364 -0.113602 0.100479 0.329275 -0.061898 -0.023314 0.304857 0.331816 -0.338930 0.163005 0.163807 -0.267839 0.331453 0.077067 0.438807 -0.215291 -0.217196 -0.051667 -0.012431 0.121291 0.385056 -0.262106 -0.565285 -0.556599 -0.713052 -0.180650 0.008429 0.023934 -0.241384 0.024338 0.461311 -0.213056 0.010640 -0.061698 0.490501 -0.100436 -0.026350 0.294884 -0.143905 -0.124010 0.051609 -0.360651 -0.010830 -0.083053 -0.182789 -0.449453 0.448636 0.264124 -0.295438 0.132792 -0.043791 -0.192166 0.034498 0.151855 -0.065239 -0.348689 -0.111019 -0.170258 -0.156260 0.237473 -0.316314 0.370937 -0.187693 0.185256 0.279765 -0.648794 -0.510111 -0.242299 -0.206421 0.680562 0.244332 -0.026082 0.302949 -0.249945 0.230138 0.495132 -0.333439 -0.430732 0.661538 0.139248 -0.003505 0.433237 0.346417 -0.354704 -0.088520 -0.062385 0.427696 0.047228 0.062827 0.048459 0.203268 -0.226216 0.119886 -0.032382 -0.109381 -0.416554 -0.063056 0.435537 0.521200 0.070106 0.237698 0.181230 -0.411883 -0.434906 0.052559 -0.596876 0.558609 0.125435 0.323507 -0.112896 0.120616 -0.048925 -0.492370 0.384218 -0.566209 -0.183351 -0.027200 0.509740
H209 -0.184380 -0.202009 0.405763 0.876729 0.650161 0.443542 0.050400 0.171986 0.099590 0.492097 -0.017398 -0.094319 -0.515159 0.276198 0.038691 -0.238007 -0.175935 0.133367 -0.299313 0.240429 0.394760 -0.035316 0.123553 -0.547752 0.308047 -0.341469 0.102013 -0.026945 -0.429074 0.092535 0.405201 -0.019858 -0.449589 -0.613413 -0.158975 0.055985 0.111450 0.307855 -0.642800 -0.472179 0.268783 -0.000836 -0.300056 -0.536187 0.324029 0.020778 0.005888 0.006445 -0.211140 0.157193 -0.454349 -0.115498 0.553009 0.139387 0.189793 -0.028210 0.086188 0.085813 -0.313314 0.484650 0.209308 -0.352024 0.076727 0.182935 -0.085231 0.133168 -0.347043 0.112142 -0.264317 -0.107666 -0.279947 0.118351 0.539926 -0.106517 0.421716 -0.609677 -0.379210 -0.541655 -0.414358 0.531018 0.376001 0.287608 0.064082 -0.160474 0.552071 0.142690 -0.169853 -0.400445 -0.454959 -0.206685 0.461403 -0.262943 0.031461 -0.226057 -0.709527 0.426898 0.465476 0.704088 -0.556242 0.061272 -0.676500 0.199741 0.128895 0.496480 -0.255567 -0.087374 0.742922 0.342519 -0.031398 0.089102 -0.351815 -0.131150 -0.288856 0.110386 0.029536 -0.070203 0.124212 0.361506 -0.158953 0.070738 0.398970 -0.108494 0.257019 0.106927 -0.476536 -0.080364 0.032676 0.276728
H191 -0.081106 -0.314459 -0.009210 0.425263 0.476543 -0.068341 0.091208 0.034688 0.524986 -0.226086 -0.046179 0.341268 -0.152334 0.650773 -0.307166 -0.321415 0.470646 0.123394 0.385074 -0.122323 -0.062022 -0.389098 0.373805 -0.011227 -0.423894 -0.178538 0.612153 0.205871 -0.492218 -0.078339 0.252738 0.015433 0.248655 -0.351910 -0.071458 -0.368902 -0.280453 0.150690 -0.097794 -0.580703 -0.103506 -0.193973 0.076044 -0.054001 0.898966 -0.001149 0.084831 0.078080 -0.036044 -0.056779 -0.708880 -0.330710 -0.223174 -0.185639 -0.314516 0.525283 0.184307 -0.249009 -0.665754 0.154886 -0.328071 -0.109521 -0.189936 -0.240306 0.064806 0.488770 -0.101308 -0.136055 -0.449047 -0.171193 -0.335806 0.475210 0.528650 -0.068424 0.281270 -0.013118 -0.554997 -0.137504 -0.035848 0.275978 -0.311743 -0.001800 0.108851 0.072540 0.314077 0.420577 0.288685 -0.080290 0.717455 0.038729 -0.090602 -0.093037 0.214349 -0.040678 -0.548926 0.420186 0.161281 0.812771 0.026210 0.112629 -0.118883 -0.218323 0.040046 0.314305 -0.030794 -0.422626 0.192846 0.250248 0.098745 -0.095602 -0.192794 -0.305911 0.187575 -0.476222 0.056960 -0.352634 -0.254346 0.336973 0.487590 -0.371225 0.640804 -0.084840 -0.222512 -0.107495 -0.371506 0.203260 0.444068 0.106760
H149 0.056716 -0.345674 -0.034925 0.083160 0.008391 0.319377 -0.176436 -0.109590 0.617392 0.338496 0.283913 -0.302248 -0.030039 -0.320027 0.683092 -0.185944 0.223408 0.321888 -0.188099 0.129224 -0.382243 -0.069605 0.253830 0.015636 0.138749 -0.279237 0.395065 -0.193710 -0.479945 0.242657 0.431570 0.381107 -0.421275 -0.627220 -0.046742 -0.018295 -0.131643 -0.388831 -0.009006 -0.297551 -0.001044 0.047224 0.321894 -0.030357 0.453687 -0.103019 -0.333616 0.229758 0.313190 -0.131726 -0.721064 -0.552961 0.533354 0.152876 -0.241404 0.205426 0.189637 0.125943 -0.781418 0.186527 -0.204620 -0.166361 -0.150262 -0.018611 0.229517 0.210303 -0.437333 -0.203490 -0.153763 0.371475 0.026422 0.230901 0.403869 -0.082562 0.138923 -0.329434 -0.700531 -0.118343 -0.247187 0.717439 0.098271 -0.340918 -0.146738 0.431790 0.397561 0.732256 -0.100942 -0.642423 -0.616775 0.123496 0.133819 0.004090 0.403436 0.034269 -0.555606 -0.196482 0.540205 0.442359 0.168465 -0.095680 0.174268 0.215025 0.222156 0.022749 -0.134720 -0.512099 -0.017077 -0.297339 0.698303 0.019497 -0.276629 0.155881 -0.189923 0.115002 0.500415 -0.374130 0.133803 0.851223 0.220748 0.218570 -0.335116 0.209696 0.476833 -0.207069 -0.622408 0.126013 0.334376 0.016062
H87 0.384149 -0.453477 0.359841 0.422814 0.460983 0.426014 -0.086111 -0.195237 0.402854 -0.284061 -0.485720 -0.296207 -0.496104 0.019456 0.624843 -0.787927 0.388483 0.179211 -0.071775 0.071359 0.144682 0.128124 -0.063230 0.072021 0.232962 -0.464992 -0.184185 -0.109237 -0.528200 0.189519 0.063463 0.342399 -0.591112 -0.291930 -0.006522 -0.198354 -0.040333 0.059122 -0.328401 0.057255 0.217700 -0.237865 -0.088325 -0.149031 0.039585 -0.385106 -0.538169 -0.286562 -0.054643 -0.026078 -0.077068 -0.096707 0.295774 0.041604 -0.429786 0.356613 0.036931 -0.563979 -0.165678 -0.289803 -0.314029 -0.177301 -0.106131 -0.078177 0.158996 0.041821 -0.355858 -0.089911 -0.640065 0.114967 0.021193 0.269236 0.441726 0.312968 -0.028326 -0.246408 -0.210456 -0.341759 -0.113219 0.670794 -0.364658 -0.201910 -0.041028 0.154488 0.209291 -0.085978 0.312914 -0.003366 0.014660 -0.045982 0.234604 0.295718 -0.215121 -0.224866 0.165156 -0.650468 0.178349 0.610208 0.106788 -0.145208 -0.356372 -0.409564 0.101028 0.472619 -0.018478 -0.216615 -0.003087 -0.007996 0.101116 -0.450266 0.071172 -0.277220 -0.518520 0.047701 0.769508 0.187049 0.576346 0.370460 0.373610 -0.470943 0.239473 -0.045097 -0.777660 0.333666 -0.147491 0.412323 -0.083413 0.584160
H89 0.098606 0.098942 0.222500 0.424106 0.581060 -0.169547 -0.493422 -0.097093 0.031591 0.036399 -0.282425 -0.040708 0.068969 0.118877 0.540026 0.134410 0.353900 -0.012829 0.102622 0.245283 0.624287 -0.216871 0.251285 -0.602861 0.028208 0.196155 0.355490 0.442070 -0.782805 -0.104030 0.070199 0.249805 -0.073483 -0.398304 0.120743 -0.438044 0.137733 0.356316 0.030705 -0.487455 0.387466 0.108171 0.208000 0.369573 0.188995 -0.352681 -0.322147 -0.201412 0.036468 0.136173 -0.062960 -0.209496 0.136161 0.275200 -0.304891 0.039821 -0.174623 -0.481748 -0.639589 -0.094642 -0.009458 -0.131801 -0.371804 -0.296872 0.194561 -0.399206 -0.503340 0.149235 -0.188669 -0.583337 0.091631 0.148800 0.301388 -0.093259 0.128466 0.207023 -0.488723 -0.724943 -0.058405 0.726750 0.197680 -0.214128 0.267173 0.232236 0.397131 -0.119653 -0.216508 -0.245981 0.189625 -0.197249 -0.081224 -0.195733 0.871614 -0.395998 -0.080018 -0.602867 0.205148 0.272474 0.097158 0.317260 0.041906 -0.260956 0.008707 0.446109 -0.346033 0.353204 0.561874 -0.027580 0.115101 -0.064333 -0.395972 0.078759 -0.026132 -0.270181 0.720029 -0.058497 0.705761 0.242995 -0.005647 -0.343084 -0.011566 0.153276 0.058259 -0.420252 -0.476801 0.174880 -0.149066 0.779187
H106 -0.021027 -0.295151 0.406532 0.706134 0.292104 0.184811 -0.766805 -0.312375 0.591019 -0.163805 -0.324505 -0.205427 -0.277608 0.153357 -0.317814 0.251431 0.219775 0.028113 0.283125 0.479182 -0.239676 -0.035353 0.033044 0.072020 0.544364 -0.101185 0.085321 0.260576 -0.608995 0.053178 0.207968 0.353673 -0.259667 -0.599133 0.012941 -0.613784 -0.537232 -0.053224 -0.510951 -0.640821 -0.294459 -0.323323 0.017472 -0.024004 0.491668 0.285083 -0.081113 -0.368635 -0.419303 0.186997 -0.396148 -0.164336 -0.123344 -0.065455 -0.307759 0.150634 -0.018750 0.262909 -0.661633 0.391303 -0.476982 0.141512 -0.643794 0.249391 -0.634765 -0.099516 -0.522775 -0.534053 -0.193312 0.032576 -0.121658 0.292080 -0.008727 0.404591 1.152756 -0.781165 -0.350406 -0.075578 -0.352970 0.903989 0.537668 -0.342736 0.291892 -0.116403 0.366777 0.493107 0.131415 -0.770826 0.256714 0.093737 0.286502 0.570197 0.060741 -0.245456 -0.284509 -0.106103 0.477210 0.273897 0.355179 0.321802 -0.531520 0.256099 0.588596 0.318586 0.087030 0.034817 0.075638 0.535266 0.604709 0.564832 -0.284881 0.706176 -0.268074 0.345731 0.365331 -0.083373 -0.169771 -0.082604 0.890659 0.241889 0.636869 0.077051 0.099405 -0.028977 -0.194699 -0.029796 0.366973 -0.015979
H20 -0.471402 -0.300484 -0.285824 0.829943 0.653639 0.161933 0.015011 -0.537776 0.470271 -0.423056 -0.369854 -0.015038 0.216515 0.465709 0.188464 -0.447524 -0.404706 0.378892 -0.062841 0.123312 -0.007824 -0.813726 0.155118 -0.587202 0.289718 -0.748222 0.419684 -0.177957 -0.069297 0.048171 -0.302592 -0.182151 0.332243 -0.672049 -0.575680 -0.550767 0.027516 0.112515 -0.901844 -0.508320 -0.420273 -0.482333 -0.118250 -0.139541 0.023914 -0.327656 0.079495 -0.049384 -0.216509 -0.137812 -0.007039 0.216606 0.001896 0.189807 -0.262598 0.312179 0.496605 -0.543871 -0.450940 0.326884 -0.442617 0.236264 0.315594 0.056135 -0.230821 -0.429605 -0.521605 -0.080854 -0.317077 0.507405 -0.450193 0.401115 0.128013 -0.039391 0.494140 -0.113646 -0.055629 -0.149861 -0.420538 0.702600 0.322127 -0.230493 -0.247779 -0.467575 0.641091 -0.439957 -0.396965 -0.166029 0.168353 0.230189 0.347833 -0.180003 0.016833 -0.227031 0.224244 0.028630 0.182128 0.571725 0.151772 0.279288 -0.567603 0.024514 0.123289 0.460843 -0.318835 -0.039104 0.031104 0.148416 0.481597 -0.192634 -0.293781 0.135733 -0.201294 -0.224572 0.761770 -0.833662 -0.146540 0.514044 0.692466 -0.218846 -0.006993 0.337976 -0.031691 0.463543 -0.578946 0.046588 0.054147 0.019262
H1 -0.317153 -0.220682 -0.135792 0.323345 0.097315 -0.298345 -0.270920 0.257724 0.293171 0.604077 -0.257871 -0.027365 -0.317881 0.312319 0.721845 -0.587284 -0.057931 -0.123490 -0.473116 0.095404 -0.227903 0.111481 -0.210970 0.011811 0.064322 -0.550071 0.518804 0.279710 -0.416128 0.239349 0.547734 0.434720 -0.511042 -1.116446 -0.838996 0.074557 0.440089 0.372495 -0.288776 -0.296856 0.144552 -0.593976 -0.382379 0.134548 0.724735 -0.252763 -0.651425 0.048326 -0.289079 0.442657 -0.373738 -0.433022 0.018865 0.201012 -0.666069 0.159455 0.137736 0.270599 -0.793548 -0.287976 0.141509 0.102149 -0.495287 0.057953 -0.127965 -0.106010 -0.181851 -0.097481 -0.074455 -0.072886 -0.401946 0.412997 0.687514 0.498283 0.655630 -0.179103 -0.783700 0.131314 -0.089223 0.156392 0.263117 -0.367554 -0.189186 0.501606 0.242076 -0.078476 0.251032 0.021672 0.251829 0.107613 0.179966 0.357083 -0.012552 -0.157638 -0.040958 0.107039 0.584825 0.531950 -0.031664 -0.286951 -0.224667 0.329590 0.466373 0.171460 -0.322290 0.050702 0.379827 0.422073 0.341996 0.054487 -0.398716 0.346821 -0.217143 -0.284353 0.694074 -0.330347 0.717207 0.272898 -0.210955 -0.374667 0.955996 0.582691 -0.063546 -0.118246 -0.460068 0.104052 -0.175381 0.015268
H165 0.158735 -0.230905 0.197293 0.981184 -0.088225 0.636643 -0.391801 0.350795 0.186524 -0.143384 -0.011032 0.102024 -0.357496 0.596831 0.220164 -0.450582 -0.066765 0.842934 0.325490 0.367223 0.357253 -0.298877 -0.061718 0.000407 -0.009566 -0.322587 0.601154 0.279313 -0.553851 0.273375 0.409378 0.396293 -0.513628 -1.157358 -0.408369 -0.504308 -0.121552 0.604343 -0.057586 0.002386 0.172589 -0.195259 0.222394 0.255070 -0.064477 -0.161467 0.070939 0.352516 -0.108994 0.427274 -0.144189 0.215308 -0.128705 0.746275 -0.699359 0.261246 0.135016 -0.240996 -0.965124 -0.228397 0.074572 -0.245311 -0.004181 0.172974 0.172136 0.170058 -0.802451 -0.910116 -0.302568 -0.303580 -0.235832 0.524250 -0.051855 0.066925 0.449823 -0.644628 -0.419507 0.167471 0.267295 0.437923 -0.125679 -0.174976 0.400612 -0.086692 0.413905 0.534294 0.365427 -0.527558 -0.069379 0.241567 0.606480 -0.048992 0.150404 -0.854932 -0.452060 -0.045610 0.601823 -0.065269 -0.318824 -0.223240 0.133916 0.077616 -0.205318 -0.107078 0.319629 -0.368648 0.275907 -0.085740 0.659195 0.365421 -0.302226 -0.118984 -0.569825 0.226270 -0.195372 -0.017941 -0.017282 0.100403 0.016710 -0.489754 0.150715 -0.102204 -0.341873 -0.108668 -0.400426 0.001908 -0.103035 0.632317
H111 -0.067759 -0.094628 -0.133299 -0.103052 0.252218 0.758477 -0.020068 -0.396754 -0.008262 -0.343497 -0.243647 -0.187314 -0.377007 0.084477 0.176441 -0.848749 0.237158 -0.004565 -0.113755 -0.214485 0.718778 -0.193192 -0.056796 -0.181533 0.399349 -0.096950 0.180325 0.341982 -0.605840 -0.110355 0.416148 0.025382 0.202310 -0.627283 -0.429143 -0.147498 -0.219316 0.571580 -0.498868 -0.377263 -0.206699 -0.120679 0.004584 0.299881 0.597763 -0.062956 -0.014107 -0.194313 0.401755 -0.147978 -0.692737 -0.300028 -0.067307 0.174383 -0.565160 0.290747 -0.252679 -0.495973 -0.356358 -0.178079 0.009524 0.269211 -0.521904 -0.519255 -0.289267 0.340250 -0.017482 -0.123996 0.025152 0.318992 0.057809 -0.133693 0.372784 0.246545 0.597376 -0.229372 0.137015 -0.670012 -0.264538 0.551775 0.333078 0.289624 0.354678 -0.579332 0.713634 0.061089 -0.468833 -0.665578 0.272982 -0.057735 -0.164448 0.410279 0.372566 -0.559883 -0.121869 -0.342690 0.956928 0.746464 0.044145 -0.279084 -0.290716 -0.097373 0.273005 0.269008 0.463431 -0.602404 0.757709 0.643484 0.798492 0.706421 0.059979 0.250091 -0.787222 -0.696779 0.291907 0.053941 -0.049512 0.859526 0.072107 0.189218 0.705193 -0.078907 -0.500214 0.083018 -0.484947 0.654249 -0.053951 0.302831
H25 -0.061186 -0.181727 0.294165 0.094787 0.521207 0.015227 -0.431561 -0.129328 -0.121236 -0.187917 -0.134563 -0.299614 0.003393 0.127465 -0.062239 -0.366515 0.391060 0.461029 0.099557 -0.097109 0.221711 -0.181242 0.032259 -0.347842 -0.139627 -0.483450 0.470364 -0.122893 -0.923098 0.289426 0.473916 0.420658 -0.303861 -0.732427 -0.671323 -0.044770 -0.490483 -0.058301 -0.238218 0.117860 -0.506315 -0.684405 0.274631 0.275459 0.526929 0.065114 0.020121 -0.363119 -0.203489 0.105535 -0.158300 -0.557263 0.065408 0.151822 -0.544064 0.591106 0.583298 -0.561697 -0.739788 -0.001829 -0.222869 -0.271461 -0.149904 -0.174568 -0.055123 0.004587 -0.497678 0.362483 -0.372408 0.198022 -0.349509 -0.053324 -0.164701 -0.420173 0.307166 0.352303 -0.002804 -0.475887 -0.551412 0.240878 0.402502 -0.283359 -0.134154 0.125714 0.617658 0.193566 0.283878 -0.410609 0.242531 0.439239 0.442384 -0.160784 0.138692 -0.438858 -0.289419 -0.195354 0.248457 0.408195 -0.018676 -0.541791 0.311477 0.404397 0.239902 0.623636 -0.231284 0.112561 0.171319 -0.015102 0.261094 0.064093 -0.309303 0.434036 -0.172051 0.325184 -0.120254 -0.355311 0.335547 0.504099 0.041544 0.181467 0.773536 0.099450 -0.357120 0.442791 -0.176426 -0.529377 -0.166436 0.018392
H211 -0.307291 -0.028865 0.250472 0.172990 0.317172 0.003499 -0.098905 0.567639 -0.390037 0.197553 0.125426 -0.329328 -0.052172 0.293446 0.040133 -0.289464 0.138895 0.044947 -0.068256 -0.057650 0.048544 -0.265216 0.308591 -0.127584 0.551790 -0.219618 -0.076436 -0.049144 -0.030081 0.350285 0.281409 -0.071214 -0.350341 -0.701509 -0.533465 -0.164216 0.347953 0.287036 -0.442958 0.118612 0.201093 -0.388168 -0.345766 0.168508 0.651573 0.095093 0.245489 0.016525 -0.247827 -0.075368 -0.245338 -0.382923 0.309703 -0.127237 -0.625415 -0.151130 0.241368 -0.268352 -0.223392 0.029641 0.023905 -0.407624 0.025307 0.181333 0.132690 -0.020433 -0.090515 0.007722 -0.392014 -0.004678 -0.558782 0.485945 -0.032629 0.159199 0.403735 -0.419541 -0.604185 -0.099997 -0.208946 0.893685 0.275344 -0.277283 0.361459 -0.607438 0.121789 0.416892 -0.121731 -0.226034 0.479696 0.207651 -0.205369 0.218137 0.537752 -0.081732 -0.446475 -0.266054 0.183393 0.005985 0.128866 0.349141 0.139571 0.023954 0.296682 -0.400224 -0.388584 -0.509251 0.036587 0.322329 0.748301 0.442547 0.019904 0.369389 -0.451733 -0.154113 0.026779 -0.501126 0.279672 -0.040290 0.419571 0.032072 -0.246870 -0.292385 -0.546908 0.268095 -0.776486 -0.223850 0.044173 0.724589
H200 -0.047147 -0.281076 -0.300034 0.903258 0.189681 -0.083711 -0.528119 -0.207821 0.793141 0.233151 -0.154033 0.108052 -0.598884 0.556024 0.327004 0.090584 0.329585 0.040062 0.388114 -0.228735 0.012539 0.060977 0.424907 -0.668927 0.206147 0.332187 0.765720 -0.265517 -0.602131 0.269148 -0.025217 -0.036095 -0.583641 -0.832435 -0.700396 0.138096 -0.159524 0.198094 0.181331 -0.165118 -0.048134 0.436560 0.089625 0.099899 0.578084 -0.475628 -0.905735 0.102647 -0.107399 -0.004748 -0.256105 -0.726918 -0.278216 -0.393513 -0.233198 0.170255 0.275219 -0.414944 -0.279732 0.258793 0.065273 0.033984 -0.743736 0.120743 -0.418380 -0.148612 -0.058083 -0.287331 -0.591588 0.597314 0.064398 0.058881 0.950468 0.124811 0.429827 0.203472 -0.355113 0.143687 -0.088933 0.470514 -0.111716 0.205128 0.270248 -0.144112 0.782596 0.544865 -0.531708 -0.065301 -0.216899 -0.248999 0.453595 0.798269 0.079754 -0.868858 0.142450 0.225723 0.142247 0.223231 -0.091567 0.435567 0.125269 0.001210 0.008091 0.686250 0.174290 -0.146747 0.115004 -0.101368 0.428520 0.432755 -0.625657 0.228561 -0.099874 -0.301040 0.182924 -0.018625 0.017223 0.588335 0.630152 0.081528 0.698151 -0.223568 -0.502594 0.126210 -1.102352 0.278601 -0.230020 0.469448
H126 0.536190 -0.214254 0.283242 0.671327 0.512655 -0.038559 -0.266306 -0.117082 0.510611 -0.145351 -0.186353 0.027852 -0.250752 0.016642 0.305084 -0.656154 0.511904 -0.197226 -0.341659 0.063453 -0.189846 -0.094156 -0.005244 -0.132245 -0.124006 -0.251385 -0.448006 0.137041 -0.392189 0.292540 0.143756 0.137055 -0.271161 -0.329920 -0.527114 -0.073143 0.098068 0.232605 -0.305925 -0.095067 0.046876 0.094599 0.369103 -0.048708 0.145124 -0.236233 -0.569730 -0.123178 0.081573 -0.330049 -0.130428 0.056850 0.051043 0.625363 -0.336875 0.437606 -0.358828 -0.090862 -0.214205 0.008559 -0.728925 -0.117198 -0.495971 -0.568869 0.323040 0.294234 -0.279127 0.006345 -0.511097 0.229598 -0.279720 0.411065 0.282079 0.429066 0.076015 -0.363714 -0.497004 -0.681044 -0.014419 0.740073 -0.372748 -0.588768 -0.370574 0.144653 0.107464 -0.170687 -0.044886 -0.085913 -0.017067 0.290768 0.731170 0.181877 -0.171227 -0.254076 -0.309669 -0.586521 -0.034462 0.468024 -0.061212 0.046047 -0.863429 -0.216746 -0.020104 0.352518 -0.183410 -0.613471 0.055053 0.335494 -0.087908 -0.113214 -0.151739 0.255627 -0.420196 -0.300317 0.364815 0.085153 0.678743 0.335276 0.569650 -0.545097 0.013418 -0.153465 -0.647801 0.192868 -0.198086 -0.212498 -0.427928 0.340967
H22 -0.363047 -0.260909 0.160549 0.101461 0.412557 0.329582 -0.243710 0.021407 -0.158385 -0.104775 -0.061202 -0.327160 0.414515 0.443635 0.033984 -0.537734 0.565279 0.294596 0.141422 -0.094000 0.393176 0.002586 0.105719 -0.788972 -0.115127 -0.391194 0.628053 -0.137554 -1.035759 0.064713 0.106422 0.566977 -0.064505 -0.380856 -0.734714 -0.000951 -0.632656 0.157168 -0.176224 -0.166285 -0.298591 -0.686812 0.161105 0.088000 0.661815 -0.205155 -0.215445 -0.025695 0.251897 -0.053690 -0.208665 -0.785498 0.432561 -0.023667 -0.150946 0.413819 0.420159 -0.643991 -0.900514 0.286761 -0.163209 -0.164246 -0.087410 0.033355 0.107574 -0.102197 -0.471265 0.214118 -0.255925 0.104212 -0.182399 0.118968 -0.222796 -0.388223 0.143150 0.223627 -0.342039 -0.718677 -0.291162 0.464002 0.375542 -0.023114 -0.251716 0.081842 0.265849 0.499107 -0.002925 -0.132052 0.486059 0.506807 0.504013 0.358362 0.163755 -0.308204 -0.359531 -0.056759 -0.092388 0.486078 -0.666525 -0.092996 0.302814 0.552473 0.300793 0.512498 0.010514 0.331586 0.214749 0.121078 0.407020 0.185906 -0.184802 0.155321 -0.073554 0.231464 -0.430994 -0.290196 0.291799 0.289239 -0.006217 0.370133 0.446701 0.261555 -0.385153 0.410058 -0.214067 -0.126588 -0.242923 0.114156
H71 -0.295473 -0.248353 -0.090293 0.701398 0.014328 -0.007167 -0.259605 -0.465482 1.012210 0.302222 0.369792 -0.242842 -0.057505 0.174890 0.143835 -0.652382 -0.144063 -0.103532 0.462258 0.167215 -0.131597 0.044696 0.461186 0.238688 0.453773 -0.868191 0.581635 -0.126205 -0.791325 0.101887 0.330091 0.227567 -0.468615 -0.242677 -0.346408 -0.655316 0.066967 0.838821 -0.603769 -0.345504 -0.080699 -0.120644 0.313400 0.446201 -0.066556 -0.533266 -0.024184 0.302476 -0.121860 -0.410320 -0.519512 -0.201104 0.542160 -0.114410 0.215831 0.017058 0.178927 0.004216 -0.519436 0.192248 -0.029493 0.612385 -0.726362 0.481867 0.509841 0.210048 0.082002 0.211052 -0.238774 0.458381 -0.510676 -0.293124 0.459520 0.095713 0.441970 0.102858 -0.386596 -0.524509 -0.026286 0.766953 -0.036172 -0.253851 0.103259 -0.449876 0.185556 0.541293 -0.591784 -0.315162 -0.492198 0.341010 0.496743 0.383553 0.829280 -0.121753 0.005246 -0.541410 0.156610 0.351246 -0.303517 -0.343444 -0.496609 -0.158146 0.081048 -0.022449 -0.369086 -0.263362 0.039373 0.413170 0.167592 -0.063215 -0.666042 0.133600 -0.324044 0.060807 0.152064 -0.575685 0.097184 -0.042428 0.742267 -0.428324 0.697802 0.188624 -0.437173 0.505996 -0.549028 0.263278 0.350207 1.067708
H33 -0.811204 -0.497847 0.087957 0.338770 0.527436 -0.211875 -0.361871 -0.527270 0.401279 -0.066000 -0.232063 -0.234256 0.008766 -0.180508 -0.301881 -0.361853 -0.070722 -0.085376 -0.557681 0.319672 -0.104231 0.107806 0.809786 -0.198053 0.516006 -0.398221 0.610580 -0.247872 -0.542139 0.167386 -0.203687 -0.105203 0.074290 -0.644529 -0.213387 -0.264890 0.240972 0.633385 -0.686505 0.370311 0.462418 -0.542553 0.000772 0.170936 0.419516 -0.610859 -0.282623 -0.255529 0.631044 -0.192903 -0.351110 -0.117090 -0.031754 -0.350951 -0.319214 0.518189 -0.082067 -0.198235 -1.045319 0.110630 -0.421930 -0.064903 -0.482477 0.575565 0.471150 0.040552 -0.505054 0.510028 -0.017498 0.251013 0.474270 0.045666 0.347543 -0.588529 0.900832 -0.325565 -0.793164 -0.175679 -0.845787 0.928087 0.258162 0.159043 0.304957 -0.056187 0.095041 0.049327 -0.033721 -0.608198 0.459786 -0.023955 0.434014 0.662229 0.363297 -0.492819 -0.233336 -0.339655 -0.049213 1.181060 -0.524958 0.523410 -0.223313 0.220181 0.137359 0.517178 0.073027 0.222624 0.413070 0.780479 -0.105609 0.310197 0.382203 0.347146 -0.246441 -0.120828 0.899892 -0.680174 0.634875 -0.144779 0.317117 -0.224448 0.444355 -0.032206 0.102834 -0.149806 -0.183177 -0.673730 -0.190395 0.000363
H24 -0.061686 -0.349853 0.387986 0.340747 0.464113 0.324853 -0.462099 -0.275303 0.096828 -0.113975 -0.114156 -0.134557 0.328072 0.556621 0.249117 -0.650504 0.684183 0.284931 0.488374 0.101706 0.459810 -0.061969 -0.268141 -0.578743 0.253612 -0.408999 0.506634 -0.321524 -1.020700 -0.031967 0.162533 0.277640 -0.048078 -0.206936 -0.186187 0.225745 -0.559071 0.113345 -0.696721 -0.489770 -0.283780 -0.859530 0.249091 0.142623 0.233505 -0.312200 -0.144892 -0.138365 0.219977 -0.047137 -0.127083 -0.954556 0.355603 0.029635 -0.214029 0.568689 0.450900 -0.209238 -0.895574 0.225092 -0.323842 0.137991 0.013491 -0.078092 -0.146552 -0.204088 -0.428171 0.147268 -0.251389 0.087412 -0.057781 0.310611 0.020310 -0.465571 0.267898 0.030143 -0.166677 -0.440745 -0.206571 0.491334 0.252833 -0.061437 -0.077132 0.049969 0.246249 0.676243 0.165060 -0.026860 0.099000 0.531684 0.532995 0.343003 0.346829 0.016172 -0.082303 0.062979 -0.272880 0.355978 -0.380393 -0.059310 0.217491 0.712500 0.307201 0.444320 0.117389 0.191707 0.343034 0.119199 0.535542 -0.134295 -0.268631 0.284823 -0.031588 0.521702 -0.190821 0.187921 0.539582 0.357133 0.374640 0.491518 0.488984 0.066694 -0.548336 0.421238 -0.144166 0.158169 -0.161692 -0.015017
H147 -0.081713 -0.487569 0.265762 0.739959 0.337599 0.080925 -0.476162 -0.523802 0.004689 0.111119 -0.143091 -0.342413 -0.866854 -0.026759 0.202806 0.057532 -0.249326 0.632660 -0.258215 1.024826 -0.709392 -0.191340 0.086686 0.463549 -0.304046 -0.225434 0.460739 -0.287042 -0.148577 0.169220 0.709908 -0.116942 -0.042779 -0.609792 -0.686028 -0.314158 0.002952 0.521176 -0.354012 -0.355843 -0.112856 -0.220520 0.182636 0.100256 0.774296 -0.246003 -0.570909 -0.695219 -0.495732 -0.373204 -0.445951 0.265743 0.050951 0.195866 0.529156 0.265492 0.463861 0.032382 -0.760690 -0.214142 -0.583557 0.068969 -0.886370 -0.062382 0.594435 0.291126 -0.533250 0.142756 -0.600956 -0.304406 -0.589981 0.313315 0.788728 0.234749 0.527079 0.466160 -0.530960 -0.447025 -0.870569 1.000147 -0.335463 0.168918 0.353953 0.047305 0.178833 0.467610 0.083945 -0.089535 -0.191547 -0.177438 0.397618 0.355307 0.669736 -0.422407 -0.167904 0.137869 0.757674 0.708335 0.380073 0.388449 -0.028569 -0.509794 1.184626 0.300846 -0.754961 -0.567212 0.422056 0.185504 0.459706 -0.150983 -0.312349 0.201191 -0.017809 0.649686 0.325109 0.256917 -0.063978 0.149276 0.482553 0.060777 -0.120548 0.575427 -0.214744 0.427532 -0.009809 0.211460 -0.013338 0.440380
H30 -0.135375 -0.278970 0.407649 0.971632 0.720378 0.899652 -0.516144 0.045995 -0.218778 0.225251 -0.068911 0.059293 -0.219318 0.175022 0.152309 -0.203263 0.359447 0.671024 -0.643676 0.023663 0.088087 0.400207 0.437742 -0.753940 -0.288370 -0.306225 0.641727 -0.244235 0.077149 0.212043 0.317696 0.775540 -0.151631 -0.405942 0.018628 -0.508352 0.089462 0.392851 -0.307600 -0.497145 -0.279739 0.234780 0.167038 -0.504195 0.372100 -0.163162 -0.379473 -0.147245 0.225260 0.183980 0.052229 -0.161171 0.409108 -0.076734 -0.567945 0.845654 0.311435 -0.248525 -0.581136 0.567100 -0.154885 -0.496805 -0.038232 0.219322 0.251453 -0.693582 -0.222122 -0.233234 -0.492631 -0.103064 0.283949 0.188070 -0.259179 0.022988 0.684632 -0.252877 0.258064 -0.421913 -0.015238 0.379586 0.235014 -0.203185 0.293072 -0.202899 0.049526 0.642896 0.390924 -0.101375 0.358674 -0.012636 0.544849 -0.022610 0.502700 -0.582985 -0.701321 -0.464224 0.440574 0.777496 -0.256186 0.405771 -0.066857 -0.220324 -0.103931 -0.250298 0.319300 -0.664515 -0.105898 0.534754 0.726836 -0.579180 -0.269594 0.154160 0.031438 -0.220256 0.054937 -0.545948 -0.055668 0.541674 0.369417 -0.673851 -0.009295 0.189831 0.384625 0.437605 -0.373980 0.407809 -0.292946 0.246186
H210 -0.302490 -0.250271 0.464553 0.697631 0.123649 0.036187 -0.047251 0.724121 -0.229413 -0.088165 -0.094297 -0.469494 -0.105377 0.538856 -0.217452 0.059895 0.299085 0.209061 0.049150 -0.356003 0.417153 -0.002627 0.242677 -0.108891 0.233981 0.297088 0.109329 0.302362 -0.206936 0.624273 -0.231024 0.068873 -0.059068 -0.832961 -0.508872 -0.024697 0.459875 0.258061 -0.052061 0.014820 0.061031 -0.137041 -0.334914 0.148160 0.533513 -0.167961 0.589233 0.059028 -0.311187 -0.524087 -0.096788 -0.178876 0.482798 -0.209337 -0.686076 -0.101074 0.185935 -0.569544 -0.470010 0.366602 -0.057803 -0.344134 0.211128 -0.005381 0.057233 0.436611 -0.518031 0.041326 -0.869760 -0.320744 -0.312580 0.357221 0.307499 -0.350605 0.151557 -0.554651 -0.657519 -0.210359 -0.285141 1.126565 -0.194337 -0.514591 0.083314 -0.435967 0.698195 0.488109 -0.121096 -0.075002 0.338399 -0.030779 -0.203333 0.192367 0.675122 -0.487232 -0.238635 -0.149422 0.114289 0.297113 -0.217696 0.265718 -0.163948 -0.080890 0.223969 -0.182928 -0.401765 -0.713058 0.250815 0.252708 0.841087 0.644215 -0.258931 0.406045 -0.303850 0.018387 0.011225 -0.298067 0.418059 0.496214 0.499807 0.361492 -0.385216 -0.466274 0.042065 0.104130 -0.465274 -0.190735 -0.007903 0.419788
H72 -0.289881 -0.210371 0.739726 0.992499 0.406165 0.990945 -0.137445 -0.570360 0.195601 -0.449191 0.308484 -0.153510 -0.046886 0.466243 -0.372681 -0.618101 -0.119574 -0.172776 0.252649 0.142350 -0.119871 -0.257720 0.539770 0.342969 0.157842 -0.344490 0.339344 0.320149 -0.383814 0.092260 0.686479 0.511637 -0.509689 -0.221770 -0.685276 -0.160239 0.201963 0.515737 -1.219816 -0.078790 -0.089383 -0.699403 0.118903 -0.647182 -0.403733 -0.874650 -0.185645 -0.331361 0.035741 -0.823618 -0.411233 -0.357263 0.060156 0.079660 -0.252779 0.406359 -0.057429 -0.295371 -0.485122 0.037867 -0.211594 -0.006156 -0.326652 -0.020924 -0.497997 0.109513 -0.687505 -0.393727 -0.718117 0.833675 0.203591 0.649355 0.003590 0.220286 0.161702 -0.384472 -0.070426 -0.163202 -0.395740 0.846905 -0.012961 0.127302 0.109103 0.200164 0.038329 0.898928 -0.179454 -0.339375 0.152437 0.120213 -0.171633 -0.021890 0.806784 -0.061111 -0.399097 0.142366 0.206117 0.349002 -0.072775 0.351448 -0.461895 0.028552 -0.012890 -0.086234 0.091271 -0.501534 0.802086 -0.314637 0.523829 -0.320241 0.008926 0.413523 -0.382489 -0.305898 0.041710 -0.361954 0.630643 -0.141104 0.828562 -0.048615 0.023426 0.310695 0.369232 -0.281894 -0.744875 -0.101031 0.283367 0.307949
H217 -0.390227 -0.320920 0.487596 0.624412 -0.143247 -0.254595 -0.065422 0.364916 0.137635 -0.179910 0.036445 -0.226253 -0.051645 0.660813 -0.182966 0.175484 0.054088 0.091680 -0.271726 -0.376876 -0.025017 -0.025182 -0.050832 0.162525 0.501129 0.330212 0.418467 0.383841 -0.281201 0.622042 -0.256413 0.108605 -0.384463 -1.161436 -0.235404 -0.054891 0.120874 -0.129309 -0.082896 0.044912 -0.202318 -0.380338 -0.377807 0.111035 0.765922 -0.389449 0.369809 -0.027984 -0.596523 -0.313307 -0.015303 0.042327 0.131842 -0.016914 -0.615232 0.209999 0.273068 -0.536220 -0.638266 0.148755 -0.340989 -0.171337 0.058110 0.143231 -0.138103 0.708530 -0.698500 0.292889 -1.017153 -0.373800 -0.085699 0.559684 0.262102 -0.452189 0.147385 -0.492826 -0.411067 0.057334 -0.384181 1.062931 -0.342789 -0.487690 -0.122075 -0.062724 0.677184 0.369302 -0.018554 -0.207233 0.179685 0.052832 0.006901 0.012682 0.494996 -0.448892 -0.049808 -0.439484 0.313289 0.752630 -0.203131 0.040152 -0.625734 0.232319 0.142011 0.269763 -0.372559 -0.230149 -0.007894 0.547248 0.749431 0.757484 -0.473915 0.345880 -0.607938 0.156736 0.047697 -0.160795 0.543979 0.708854 0.433200 0.134682 -0.346969 -0.032260 0.069997 0.049902 -0.272215 -0.492444 0.304737 0.142001
H92 -0.190065 -0.015423 0.137506 0.295500 0.714155 -0.319701 -0.280772 -0.571107 0.314253 -0.082342 -0.315394 -0.216496 0.073450 0.287227 0.154404 -0.303139 0.438835 0.059626 -0.232240 0.182516 -0.068226 0.222681 0.624247 0.519545 -0.037563 -0.022403 0.117186 -0.272595 -0.253653 -0.075368 0.115624 0.299491 -0.112387 -0.159140 -0.399942 -0.140114 -0.701315 0.155001 -0.314008 -0.761471 0.196676 -0.407115 0.392934 0.379077 0.475077 -0.160514 -0.626684 -0.437915 0.243065 -0.553388 -0.276794 -0.210589 0.158510 0.141997 -0.309781 0.035050 -0.146529 -0.246384 -0.773359 -0.261440 -0.100549 0.303594 -0.913265 -0.860838 0.095076 -0.279648 -0.613178 0.036814 0.320075 0.387846 0.072409 0.232144 0.326243 -0.032102 0.734850 0.282171 0.152250 -0.479795 -0.379396 0.628231 0.047825 -0.062469 -0.503835 0.607861 0.086500 0.333722 -0.626303 0.280464 0.350291 -0.355333 0.346664 0.313917 0.247431 -0.159746 0.148271 -0.306046 0.402419 0.755439 0.162374 0.150412 -0.190378 -0.516533 -0.145669 0.147046 -0.408459 -0.288280 0.037799 0.538634 0.396742 -0.271650 -0.047369 0.435239 0.110676 -0.206586 0.488971 -0.551415 0.653486 0.466207 0.773758 0.037616 0.192325 -0.072053 0.017813 0.242324 -0.345449 0.400031 -0.100644 0.022289
H101 0.302776 0.163847 0.020331 0.452337 0.547466 0.190496 0.095001 -0.239216 0.099639 0.020410 0.012457 0.131661 -0.158964 0.502707 0.178652 -0.024274 -0.189375 0.323550 -0.136600 0.157365 0.322512 -0.002584 0.285695 -0.023638 0.594907 -0.108389 0.120242 0.428496 -0.074187 0.165950 0.344616 0.171584 -0.352356 -0.412547 -0.283529 0.353749 -0.027465 0.298348 -0.393294 -0.066525 0.218886 -0.282990 0.805206 0.013601 0.478923 -0.093546 -0.757868 -0.700280 0.120599 0.171220 -0.392874 -0.349013 0.249587 0.076489 -0.553309 0.206590 0.155283 -0.312832 -0.489341 -0.147346 -0.136109 0.023513 -0.175257 -0.260320 0.704935 0.004104 -0.825958 -0.156655 -0.329503 -0.271594 -0.505828 0.477282 0.213515 -0.428772 -0.122338 -0.057682 -0.204048 -0.215729 0.100199 0.401541 0.085984 0.071901 -0.486862 0.261105 0.526478 0.103824 0.060621 0.059738 0.140015 -0.267534 0.315877 0.151288 0.300272 -0.577178 0.347089 -0.516749 0.239607 -0.014672 -0.344907 0.530011 -0.306313 -0.554591 -0.176175 0.457761 -0.080706 -0.122397 0.386140 -0.048378 -0.036608 0.333412 -0.465694 -0.001166 0.047745 -0.310587 0.749212 -0.366808 0.612451 0.278146 0.190499 -0.147501 -0.292344 -0.220549 -0.155563 0.426812 -0.160161 0.371556 -0.237357 0.129250
H56 -0.443717 -0.945072 0.593064 0.638686 0.568798 0.626231 0.088815 -0.434619 0.287185 -0.101066 -0.172399 0.164559 -0.061321 -0.458460 -0.011558 -0.224231 0.128266 0.526965 0.145549 0.720124 -0.230102 -0.826278 0.184289 -0.570654 -0.103765 0.040971 0.458076 -0.235230 -0.929332 0.036223 0.152325 -0.567625 0.068856 -0.582711 -0.379313 -0.659436 -0.231018 -0.226373 -0.804326 0.377564 0.191877 -0.523026 -0.017157 -0.228657 0.054162 -0.230859 -0.351753 -0.065679 0.354465 -0.868660 -0.455828 -0.196023 0.854989 0.142825 -0.494059 0.289546 0.423441 0.218698 -0.288944 0.076584 -0.341047 -0.231163 -0.402447 0.138026 -0.249471 0.469957 0.150819 0.180027 -0.107608 -0.072058 0.036510 0.096824 -0.092407 -0.214656 0.491282 -0.727393 -0.457722 -0.292434 -0.639456 0.889433 -0.069825 -0.627636 0.034226 -0.441809 0.427272 0.683203 0.099256 -0.738948 0.391310 -0.225215 -0.014519 0.010893 -0.077077 -1.018526 -0.881309 -0.167338 0.342758 0.533781 0.074933 0.196105 -0.048214 -0.388868 0.699158 0.494481 -0.311749 -0.626681 0.208136 -0.286211 0.426881 -0.435981 -0.039957 -0.229531 -0.344901 0.371150 0.345559 0.035234 -0.059537 0.529678 0.371428 0.089710 0.440045 -0.362284 -0.204325 0.545061 -0.788507 -0.269966 0.226965 0.128490
H13 -0.456135 -0.672711 -0.176226 0.485681 0.641375 0.913243 0.234935 -0.903922 0.666595 -0.506628 -0.201702 0.274681 -0.211688 0.838663 0.086978 -1.366116 0.217808 0.307898 0.903149 0.743632 -0.033887 0.062646 -0.208982 -0.181413 -0.100916 -0.101305 0.318038 0.252362 -1.027295 0.403496 0.672466 0.483758 -0.102044 -0.527810 -0.755383 -0.409951 -0.486350 0.351635 -0.903152 0.017909 -0.440344 -0.264275 -0.048256 -0.317929 0.374780 -0.011345 -0.110735 -0.312501 0.522544 -0.052119 0.000479 0.111292 -0.328136 0.442191 -0.938197 0.197076 0.463229 0.049975 -1.112535 -0.380789 -0.522124 0.295755 -1.087146 0.091687 -0.377254 -0.178291 -0.579288 -0.100673 -0.019831 0.261044 0.013836 -0.138074 -0.210318 0.375015 1.393154 -0.386415 0.121476 -0.208890 -0.025289 0.300651 -0.097994 0.062281 -0.328548 0.297382 0.762376 0.108843 0.234305 0.207321 0.679129 0.406690 0.436178 0.605624 -0.041485 -0.829318 -0.303221 0.240859 0.912996 0.560986 -0.371450 -0.065879 0.030614 -0.329742 -0.157982 0.666249 0.501172 0.160537 0.407738 0.856109 0.508304 -0.350159 -0.055799 0.020072 -0.540318 0.015925 -0.482688 -0.364794 0.406664 0.170014 0.626633 -0.537517 1.305051 0.323478 -0.616636 0.252027 0.033805 0.111526 0.008906 0.015515
H208 -0.068750 -0.869416 0.566615 1.192868 0.576899 0.067157 -0.316997 0.151007 0.051985 -0.437363 -0.455064 -0.428109 -0.866915 0.880620 -0.404838 -0.265200 0.504413 -0.128199 0.583420 0.633975 0.633453 -0.285682 0.538078 0.080613 -0.015454 0.470243 0.438692 0.106796 -0.728050 -0.092543 0.812572 0.441518 -0.632880 0.014025 -0.446807 -0.690121 -0.525637 0.595086 -0.234352 0.459342 -0.007907 -0.149037 0.059454 0.143101 0.127977 -0.760850 0.329279 -0.388324 -0.319341 -0.134084 0.367046 0.082630 -0.452797 0.129638 -0.826839 -0.262583 0.130831 -0.503818 -0.388388 -0.185272 -0.496213 -0.019693 -0.841937 -0.036845 0.269194 0.060402 -0.777901 0.563818 -1.116316 -0.612158 -0.123143 0.048094 -0.050462 0.004388 0.575518 -0.523733 -0.194910 -0.457080 -0.344373 1.134561 -0.089542 -0.056842 0.837775 0.319521 -0.042659 1.023838 0.303879 0.027373 1.033900 0.380848 0.430064 0.181643 0.598408 -1.056877 -0.379015 -0.190013 0.200901 0.701007 -0.176105 0.164021 0.127509 -0.510634 0.428555 0.474676 -0.453313 -0.276600 0.206424 0.443501 0.195087 0.405452 -0.220721 0.164871 -0.574223 0.161171 -0.328572 -0.091896 0.365460 0.017254 0.416938 -0.621159 0.879852 -0.095568 -1.121155 0.162001 0.149854 -0.332007 -0.091174 0.683770
H97 0.016301 -0.055161 -0.079315 0.192544 0.037455 -0.040508 -0.198689 0.347948 0.378507 -0.093973 0.381863 0.338207 -0.232626 0.158215 0.213302 -0.526680 0.412022 0.232568 0.103270 0.422960 -0.086583 -0.162057 0.504769 0.132907 0.561155 -0.156293 0.174333 -0.116016 -0.163637 -0.106091 0.456509 -0.013999 -0.679628 -0.731711 -0.366548 0.146221 0.024650 0.108967 -0.567213 -0.908427 0.024294 -0.251864 0.197964 -0.278767 0.214477 -0.298382 -0.227235 -0.106842 0.288259 -0.000373 -0.055572 0.024653 -0.071904 -0.224287 -0.218912 -0.421563 0.375756 0.151695 -0.792694 -0.055054 -0.404769 -0.531698 -0.177243 0.073921 0.011236 -0.475212 -0.322508 -0.029274 -0.043017 0.310853 0.027571 0.264071 -0.215352 0.180718 -0.222725 -0.207324 0.015923 0.009458 -0.205621 0.364496 0.158054 0.405523 0.174272 -0.209711 0.184307 0.253754 -0.070964 0.007406 0.469187 -0.071859 0.196303 -0.041277 0.826633 -0.637776 -0.408312 -0.542844 0.648170 0.388378 -0.147294 -0.404924 -0.216188 -0.489032 -0.020801 0.206842 -0.436970 -0.215526 0.290054 0.694501 0.164988 0.158299 0.243958 -0.149163 -0.332858 0.028272 0.261690 -0.568712 0.566701 -0.168586 0.191467 0.141266 -0.328596 0.081808 -0.737000 0.555960 -0.487259 0.445989 -0.095835 0.168552
H177 0.295025 -0.630869 -0.138440 0.132066 0.965145 0.074823 0.077126 -0.719334 -0.135145 0.469264 -0.689700 -0.025320 0.338311 0.063397 -0.123071 -0.479290 -0.314615 -0.007711 0.355649 0.245183 0.221177 -0.617087 -0.033868 -0.596509 0.490027 0.058697 0.305881 0.300139 -0.898861 0.164917 0.539871 0.071886 -0.217286 -0.827516 -0.211209 -0.649853 -0.685489 0.409458 -0.158612 0.092790 0.108136 -0.562663 0.395488 0.401585 0.197071 0.072958 -0.185897 0.028719 0.188445 0.149792 -0.030775 0.710895 0.177761 0.225734 -0.740972 0.075389 0.425684 -0.288486 -0.359822 0.359773 -0.363495 0.047433 -0.284030 0.490363 -0.044782 0.539087 -1.342171 0.272996 -0.239113 0.080571 -0.191366 0.585874 0.133529 -0.286925 0.943245 -0.419479 -0.176949 -0.861768 -0.521842 0.683324 -0.083166 -0.521383 -0.330555 -0.313261 -0.027764 0.497883 0.145065 -0.125407 0.040975 -0.024252 0.049025 0.445350 0.513718 -0.437492 -0.711401 -0.001090 0.266706 0.911505 -0.336893 0.096506 -0.033508 -0.607526 0.732366 0.060167 0.250688 -0.493892 -0.039230 0.961621 0.104421 -0.012486 -0.417634 -0.010459 -0.133681 0.362704 0.581798 -0.325977 0.523447 0.749879 0.653284 0.099977 0.091854 0.050093 -0.293705 -0.091886 0.106168 0.399186 0.026325 0.530729
H194 0.024961 -0.270252 0.183892 0.071554 0.636503 0.266857 0.069136 -0.191711 0.528844 0.144406 -0.287205 -0.073701 -0.493211 0.679210 0.194565 0.000687 0.322250 -0.504993 -0.060006 -0.072435 -0.500048 -0.055774 0.117186 -0.045164 0.350201 0.461880 0.558984 -0.019435 -0.851146 -0.162854 0.365950 0.257521 0.082390 0.177990 -0.516587 -0.075145 -0.566722 0.496754 -0.118665 -1.003858 -0.091444 -0.367726 -0.162554 0.227251 0.436684 -0.174874 0.007172 -0.103698 0.491996 -0.313697 -0.743507 -0.310670 0.184640 0.409741 0.324202 0.253617 0.474864 -0.528799 -0.908568 0.043562 -0.371841 0.071695 -0.265388 0.126357 0.185796 0.063863 -0.088602 0.458409 -0.209618 0.090201 -0.171092 0.084325 0.298776 -0.137627 -0.112063 -0.134868 -0.538234 -0.004555 -0.499199 0.609782 -0.219294 -0.253538 0.615019 -0.206099 0.516867 0.390816 0.131296 -0.361457 0.481529 0.029453 0.351095 0.220366 0.361626 -0.321038 -0.593796 0.131130 0.469579 0.884854 -0.443083 0.676814 -0.112840 -0.167379 0.242865 0.865971 -0.441750 -0.404160 -0.293547 -0.039382 -0.211956 0.246365 -0.059871 -0.054290 0.209377 -0.238827 0.164131 -0.860189 -0.135148 0.238668 1.031407 -0.235087 0.372292 -0.246944 -0.126860 -0.146828 -0.480749 0.206087 0.460037 0.168053
H29 -0.438419 -0.153216 0.464429 0.824401 0.424234 0.716162 -0.291928 -0.379997 0.022733 0.256789 -0.158579 -0.059147 -0.368922 0.236496 -0.001160 -0.180170 0.311555 0.090910 -0.548024 0.400567 -0.048077 0.533915 0.401320 -0.398161 -0.491626 0.053870 0.538760 -0.244189 -0.219515 0.161946 0.425271 0.669661 -0.150854 -0.374953 0.086787 -0.991067 -0.410730 0.505431 -0.374463 -0.501007 -0.389728 0.223234 0.729749 -0.402382 0.343012 -0.098808 -0.189039 -0.584321 0.481400 -0.250170 -0.086299 -0.173608 0.465114 -0.083199 -0.415961 0.615788 0.219146 0.243461 -0.814722 0.643144 -0.374297 0.028279 -0.684404 0.450342 0.047650 -0.698973 -0.291606 0.049465 -0.731854 0.139212 0.065267 -0.052920 -0.471569 -0.037185 0.845412 -0.213775 0.154298 -0.519543 -0.122315 0.820620 0.369952 0.124505 0.279687 0.168656 -0.103442 0.289980 0.274126 -0.140361 0.502038 0.139754 0.268051 0.196477 0.497382 -0.421506 -0.483332 -0.435834 0.366844 0.811282 -0.330542 0.472014 -0.543088 -0.138357 0.195344 0.095108 0.208991 -0.477124 0.381347 0.810795 0.230168 -0.565217 -0.014237 0.215416 0.255550 -0.475218 -0.017578 -0.309934 -0.167599 0.471413 0.234950 -0.709631 0.317992 0.159100 0.025268 0.286229 0.075835 0.304715 -0.662463 0.501105
H218 -0.041876 0.122011 0.742667 0.541475 0.088313 0.599270 -0.167458 0.045182 0.515801 -0.210733 0.350493 -0.444636 -0.302718 0.530711 0.549281 -0.706212 0.523151 0.121619 0.358246 0.807055 0.403416 -0.406834 0.273109 0.702480 0.666670 -0.196907 0.585077 -0.582230 -0.336492 -0.042747 0.333890 0.636873 -0.886757 -0.524586 -0.459034 -0.898166 -0.024994 0.049770 -0.299617 -0.375748 -0.180918 -0.356041 -0.199457 -0.307313 0.627200 -0.147484 0.243708 -0.007854 -0.360204 0.144161 -0.253734 -0.358554 0.161530 0.543042 0.020787 0.388303 0.945404 0.455528 -0.356327 -0.167604 -0.660718 0.347212 -0.257698 -0.448495 0.144806 0.238962 -0.322344 0.475365 -0.252458 -0.376670 -0.472767 0.267994 -0.114942 -0.216324 0.548439 -0.299753 -0.297709 -0.246291 -0.632188 0.420545 0.502837 -0.717668 -0.065562 0.129722 -0.327704 0.200598 0.240486 0.049923 0.172608 -0.092833 0.574450 -0.244310 0.265986 -0.239216 -0.693511 -0.328949 0.864408 0.142146 -0.067767 -0.097548 -0.541508 -0.391545 0.755114 0.848413 -0.170485 -0.239791 0.493683 -0.128035 0.546199 0.018993 -0.500037 0.047937 -0.784417 0.257868 0.037590 -0.574373 0.005042 0.173556 0.416384 -0.821741 0.597968 0.612177 0.162637 0.269168 -0.775317 0.416192 -0.178714 0.622703
H80 -0.437940 -0.519533 -0.111156 0.726274 0.769173 0.234310 -0.486228 -0.327503 0.654599 0.145273 -0.197338 -0.142383 0.398907 0.256155 -0.012990 -1.104730 0.448499 -0.255075 -0.546272 -0.149966 -0.302407 -0.093439 0.298036 0.110870 0.039970 -1.059792 -0.415426 -0.257571 -0.985997 0.501316 -0.451801 0.049550 0.207232 -1.407551 -0.981043 0.325808 0.456526 0.864048 -0.764404 -0.219400 0.362638 0.130590 0.268581 -0.253337 -0.043631 0.077581 -0.481273 -0.586991 0.668056 -0.470514 -0.127793 -0.393168 0.765121 -0.176967 -0.752311 0.059714 0.043049 -0.580777 -1.031759 -0.218607 -0.756614 0.384719 -1.034286 0.477037 0.496213 -0.042779 -0.292874 -0.245292 0.111216 0.100181 -0.101245 -0.082554 0.427397 -0.780781 0.121269 -0.202232 -0.641456 -0.565208 -0.263083 0.809935 0.064001 -0.636077 -0.068757 -0.536816 0.804274 0.442796 -0.591016 0.041305 0.121229 0.341211 -0.334309 0.169102 0.749790 -0.331977 -0.056204 -0.228978 -0.472533 0.419324 -0.841788 0.709073 -0.149835 0.525236 -0.117407 -0.303384 0.178633 -0.154460 0.721379 0.266937 -0.006012 -0.257035 0.051285 0.359113 -0.752754 0.200123 0.366992 -0.411051 0.752636 0.366850 0.595612 -0.288480 -0.492329 -0.103846 -0.396622 0.211468 -0.804747 0.379884 0.344433 0.714817
H75 -0.726297 -0.421123 -0.244930 0.919820 0.017197 0.077417 -0.292902 -0.585767 0.591382 -0.368061 -0.298643 0.334965 -0.552477 1.277432 -0.276285 -0.551859 -0.251331 0.636122 0.585868 0.277212 -0.110868 -0.825883 0.276126 -0.199395 -0.180573 0.009775 1.313729 -0.155667 -0.655180 0.323415 0.009272 0.056428 0.251564 -0.597507 -0.294956 -0.624566 -0.978608 1.218153 -0.434692 -0.649886 0.284240 0.073504 0.724185 -0.030873 -0.053712 -0.300383 -0.158282 -0.103143 0.752817 -0.573754 -0.006407 0.469324 -0.488128 0.508882 -0.208118 -0.272548 0.377752 -0.629211 -0.973230 0.051099 -0.912642 -0.000770 -0.612713 0.025208 0.634326 -0.521755 -1.434368 -0.206140 -0.121984 0.350473 0.000959 0.132128 -0.051555 -0.671378 0.830745 0.221963 -0.200251 -0.009145 -0.234339 0.577579 0.264380 0.693698 0.194819 0.022758 0.450875 0.467446 -0.512945 0.484911 0.234919 0.515740 0.584274 0.415887 1.370847 -1.127024 -0.387820 0.249426 0.558876 0.412823 -0.442931 0.638356 -0.232214 -0.168718 -0.139477 0.048411 0.331927 -0.090904 0.857879 0.205894 0.466126 -0.011776 -0.314380 0.378832 0.036658 0.015035 0.591930 -0.757900 -0.585613 0.493412 0.793391 -0.635001 -0.228307 0.155633 -0.004279 -0.193796 -0.769910 -0.152757 -0.125524 0.229213
H192 -0.122777 -0.113960 0.080220 0.380417 0.726133 0.356265 0.086571 -0.208226 0.531953 -0.448437 -0.092323 0.311528 -0.670755 0.815328 -0.052252 0.120692 0.659416 -0.094373 0.494205 -0.168715 -0.241338 -0.110644 0.229865 -0.173471 0.149457 0.108309 0.500696 0.412601 -0.593416 -0.276632 0.083536 0.265747 0.177025 -0.121341 -0.529751 -0.421687 -0.240487 0.417154 -0.446301 -0.720154 -0.167543 -0.139389 -0.102022 0.151904 0.583967 -0.037980 0.190718 0.298117 0.069111 -0.141739 -0.736656 -0.188033 0.094543 0.466113 -0.018492 0.722628 0.130431 -0.273414 -0.732121 -0.112963 -0.391327 -0.140690 -0.046352 -0.165210 0.119632 0.287892 -0.022925 0.023389 -0.321578 0.179286 -0.209990 0.412544 0.367647 -0.211312 -0.123922 -0.509209 -0.641597 -0.099264 0.151524 0.317826 -0.151307 -0.154117 0.511131 -0.298786 0.322950 0.478608 0.433719 -0.530209 0.436332 0.052927 -0.167360 0.009760 0.373472 -0.294630 -0.577354 0.407171 0.369259 0.739064 -0.159082 0.473581 -0.244852 -0.304814 -0.132103 0.627846 -0.096876 -0.460172 -0.088675 0.092298 -0.060026 0.267364 -0.287174 -0.229157 -0.023333 -0.488515 0.096202 -0.584732 0.047297 0.000880 0.690049 -0.428488 0.380174 -0.276231 -0.176589 0.034953 -0.383401 0.128327 0.630715 0.458592
H195 -0.079712 -0.589189 -0.135979 0.219448 0.735019 0.534194 -0.372241 0.072984 0.412107 0.359411 -0.103069 0.331412 -0.006512 0.600512 -0.200284 -0.747143 0.272178 -0.097322 0.116700 -0.153238 0.426878 -0.458285 0.431039 0.268545 -0.186126 -0.344089 0.696530 0.472776 -0.374055 -0.031191 0.637257 -0.456265 0.160382 -0.729115 0.171688 -0.211494 -0.274060 0.248078 -0.352440 -0.027348 0.002636 -0.264512 0.118404 0.222252 0.892766 0.094998 0.286963 -0.057775 -0.148199 -0.238122 -0.504065 -0.072375 0.008974 -0.423072 -0.317256 0.350911 0.277908 -0.311130 -0.701698 0.158464 -0.193665 -0.073305 -0.227712 -0.302775 0.053512 0.063180 0.114002 -0.416072 -0.668443 -0.175433 -0.618559 0.446190 0.328065 0.185392 0.087442 -0.136558 -0.369073 -0.227095 0.450504 0.591346 -0.294981 -0.065039 0.015663 0.195522 0.337075 0.511179 0.446138 0.142273 0.423798 0.177335 0.340870 0.643497 0.593901 -0.426557 -0.699768 0.387030 0.353561 0.807835 0.400770 0.320132 -0.182061 -0.382110 -0.175452 0.421207 -0.255367 -0.436881 0.199104 0.456134 0.220360 -0.018005 -0.167953 -0.369408 0.277352 -0.005395 0.353318 -0.299449 -0.488617 0.034089 0.683309 -0.189144 0.661097 -0.144204 0.329012 -0.047640 -0.335922 -0.049010 0.170364 0.163021
H64 -0.219260 -0.237497 -0.772599 0.016443 0.342765 0.352666 0.450052 -0.130036 -0.348039 0.121112 -0.012097 -0.213971 -0.235390 0.989499 1.125611 -1.215827 -0.120394 0.315100 0.564530 -0.201021 -0.073524 -0.926345 0.162426 -0.675033 -0.170327 -0.054952 0.801324 -0.205078 -0.131485 0.061317 0.340776 -0.066879 -0.112361 -0.777010 -0.702554 -0.075943 -0.393340 0.306224 -0.430697 -0.383292 0.019996 -0.070942 0.344454 0.098503 0.481207 -0.365852 0.077188 0.404257 0.301217 -0.404719 0.015636 0.031559 0.092495 0.664381 -0.722679 0.441212 0.933005 -0.535530 -0.830729 -0.575878 -0.138711 -0.293542 -0.180467 -0.009289 0.670660 -0.057300 -0.586417 0.101760 -0.596927 0.265043 -0.202381 0.494664 -0.015337 -0.599753 -0.161615 0.306105 -0.228499 0.055935 0.220268 0.887983 -0.180532 0.079179 -0.047420 0.507392 0.485467 0.481465 -0.178458 -0.061141 0.323757 0.260776 0.038331 0.049866 0.491650 -0.224245 -0.237693 0.051787 0.638527 0.532853 -0.223651 0.028483 0.408073 -0.552662 -0.101291 0.074797 -0.182870 -0.967730 0.001341 -0.049496 0.377680 -0.258396 -0.463284 0.219164 -0.157924 -0.586426 -0.186844 -1.066145 0.687372 1.054040 0.627014 -0.633396 -0.393416 0.381868 -0.614006 0.202381 -0.759761 0.129211 -0.201537 0.915571
P433 -0.260569 0.218672 0.041069 0.166921 0.312918 -0.082936 -0.106515 0.268081 0.210540 -0.068127 0.422523 0.155679 0.019508 0.361029 0.181567 -0.250428 0.432384 0.330556 -0.189584 0.170190 0.069605 -0.152561 0.495551 0.153564 0.488793 -0.180622 -0.060237 -0.116311 -0.082522 -0.008962 0.444306 0.027358 -0.719409 -0.620824 -0.429096 0.062041 0.013039 0.038988 -0.259043 -0.438886 0.467818 -0.162899 0.171874 -0.022049 0.314119 -0.314111 -0.323518 -0.106929 0.170624 -0.151654 -0.034721 -0.245542 -0.015566 -0.072392 -0.125570 -0.408209 0.202393 0.143843 -0.440716 0.052673 -0.299426 -0.336807 -0.020440 -0.138856 0.173623 -0.469226 -0.271452 -0.057112 -0.257751 0.230142 0.003810 0.288311 -0.182256 0.114107 -0.196103 -0.207678 -0.180418 -0.316016 -0.179652 0.290946 0.133126 0.135537 0.020470 -0.079954 0.174847 0.161740 -0.333929 0.004329 0.615832 -0.077670 0.061304 0.146623 0.635771 -0.408686 -0.072539 -0.450633 0.454415 0.203442 -0.024552 -0.162499 -0.032897 -0.654671 -0.156200 0.026457 -0.461427 -0.164922 0.106902 0.543950 0.209905 -0.008189 0.172772 -0.116986 -0.330741 -0.194523 0.303515 -0.585732 0.816828 -0.016457 0.181475 -0.115372 -0.104049 -0.019514 -0.748391 0.512368 -0.356793 0.246557 -0.153444 0.423568
H213 -0.958191 -0.416910 0.063842 1.014288 0.159432 0.297063 -0.193315 0.069377 -0.244365 0.310391 0.110290 -0.787682 -0.006508 -0.156969 0.118311 -0.202207 0.574592 -0.113817 -0.102183 -0.001776 0.072352 0.238202 0.474404 -0.657115 -0.307760 -0.086966 0.616697 0.033046 -0.834537 -0.389827 0.467177 0.724960 -0.195769 -0.014109 -1.169654 0.168796 -0.207717 -0.101063 -0.412427 -0.606349 -0.206735 -0.616809 -0.228108 -0.494056 0.189119 -0.271583 -0.531168 -0.881727 0.081042 -0.275225 -0.640795 -0.009533 0.580907 0.367262 -0.445575 0.169589 0.234694 -0.685847 -0.717291 -0.045272 -0.272613 0.301715 -0.333636 0.636410 0.258271 0.233741 0.075157 0.459727 -0.265898 0.675941 -0.390831 0.904426 0.371152 -0.015416 0.800037 -0.768313 -0.502813 -0.272858 -0.507907 0.848902 0.118819 -0.087348 -0.114210 0.275463 0.870320 0.089962 -0.535214 -0.381539 0.363007 0.005709 0.449893 0.019287 0.116666 -0.303512 -0.766065 0.122779 0.082346 0.360248 0.020909 0.192564 -0.180225 -0.692877 0.034523 0.751366 0.046760 -0.198207 -0.228346 -0.305722 0.341731 0.420807 0.294015 0.078322 -0.110161 -0.357152 0.223430 -0.367483 0.767389 -0.009444 0.262699 -0.483112 0.856150 -0.019528 -0.332712 0.957475 -0.771727 0.197840 0.224319 0.640641
H151 -0.529981 -0.715302 -0.272836 0.506341 0.222610 0.251073 -0.429520 -0.008084 0.483680 -0.167714 0.134643 -0.110199 -0.580516 -0.521598 0.589407 -0.318787 -0.240495 0.404609 -0.177717 0.188200 -0.254073 -0.033051 -0.335647 -0.255289 0.186355 -0.557953 0.371416 -0.317701 -0.534729 0.078682 0.514673 -0.141787 -0.274531 -0.091472 0.156311 0.323314 0.009382 -0.228378 0.015537 -0.574637 0.237957 -0.483354 0.459525 -0.161343 0.552749 -0.193511 -0.104915 0.164834 0.482945 -0.155497 -0.591974 -0.473359 0.542325 0.294919 -0.680923 0.253072 0.018766 -0.003298 -0.595973 0.002351 -0.585320 0.064967 -0.302453 0.060208 -0.349408 -0.251600 -0.521262 -0.072934 -0.135706 0.148405 -0.131665 0.441560 0.711344 -0.193292 0.385148 -0.130383 -0.509898 -0.163711 -0.027931 0.685952 -0.256475 0.076208 0.182170 0.150944 0.560784 -0.073630 -0.136587 -0.991974 -0.560194 0.477691 -0.098548 -0.140360 0.585796 -0.233718 -0.192596 -0.309284 0.473538 0.387151 0.141500 -0.025606 -0.099660 0.485048 0.369581 -0.214827 -0.209140 -0.571143 0.157641 -0.268310 0.590222 -0.102767 -0.495390 0.416153 -0.230049 0.201079 0.603512 -0.222362 0.038098 0.810284 0.364348 -0.539460 -0.207495 0.012319 0.121910 -0.169447 -0.770653 -0.109265 0.248893 -0.053620
H52 -0.066648 -0.790687 0.504689 1.060201 0.335932 0.975294 0.256547 -0.250863 0.369693 0.371517 -0.412973 0.159643 -0.017431 -0.200014 -0.114690 -0.480478 0.331144 -0.165119 0.245495 1.126774 -0.170427 -0.846466 0.324090 -0.462250 -0.371246 0.167082 0.419695 -0.333325 -0.890214 0.214254 0.316739 -0.231492 0.298285 -0.314199 -0.311888 -0.617753 -0.416326 0.076747 -0.751694 0.368108 0.530235 -0.005143 -0.020120 -0.441977 -0.033835 -0.184769 0.021476 0.227947 0.493969 -0.888785 -0.266195 0.108047 1.020657 0.118984 -0.885229 0.164613 0.187163 0.243172 -0.299908 -0.154919 -0.110116 -0.097245 -0.761432 0.116344 -0.044784 0.337854 0.087879 0.113473 -0.304561 -0.294454 -0.069831 0.261259 0.201019 -0.272922 0.435834 -0.485530 -0.130313 0.026763 -0.378182 0.946258 0.036593 -0.533773 0.160721 -0.158564 0.249586 1.148599 0.060044 -0.528901 0.564477 -0.130267 -0.119259 -0.293058 0.316281 -0.988684 -0.874917 -0.213143 0.115936 0.470885 -0.070181 0.515747 0.118265 -0.499345 0.452223 0.344357 -0.184424 -0.839296 0.539464 -0.319258 0.387691 -0.616221 0.066126 -0.217314 -0.302860 0.289218 0.098833 -0.009075 0.309951 0.608331 0.437821 -0.111564 0.503212 -0.454319 -0.254080 0.155345 -0.693042 -0.039088 -0.048357 0.268015
H35 -0.627133 -0.146992 0.594931 0.911820 0.495397 0.504150 -0.061093 -0.268962 0.238494 0.382411 0.088565 0.091809 0.776173 0.495943 0.160558 -0.704836 0.365415 0.315021 -0.605265 0.961524 0.265001 -0.353872 0.549685 0.258524 -0.017058 -0.787940 -0.239315 -0.231087 -0.696857 0.865907 -0.214120 -0.064883 -0.407982 -1.276357 -0.561680 0.092967 0.137945 0.102125 -1.019188 0.562979 0.461947 -0.248321 -0.371016 -0.668945 0.136941 -0.211689 -0.161009 -0.249618 0.249156 -0.362346 0.282182 -0.703568 0.710420 0.004057 -0.700669 -0.067286 0.579810 0.279003 -0.950518 -0.385490 0.174194 -0.087692 -0.163762 -0.253028 0.391055 -0.214880 -0.526574 0.290461 -0.222617 -0.658583 -0.087371 -0.196368 -0.276957 -0.408891 0.358071 -0.362970 -0.250814 -0.307866 -0.526729 0.703917 0.367659 -1.122979 -0.677981 0.102498 0.839534 0.534671 0.137311 0.326766 0.275429 0.172712 0.654389 0.116691 0.407013 -0.918432 0.143157 -0.474733 0.425947 0.608491 -0.412468 0.491218 -0.168553 0.118686 0.134240 0.534253 -0.707684 0.504670 0.880130 -0.160148 0.774692 -0.289107 -0.394538 -0.012214 -0.637164 0.511412 0.515296 -0.314175 0.648472 0.544132 0.081137 0.285712 -0.082717 0.463658 0.566545 0.629249 -0.692189 -0.189340 0.245448 -0.166384
H58 -0.616855 -0.836619 -0.258960 0.955491 0.309649 1.439481 0.559496 -0.140124 0.159194 0.404838 0.145463 -0.384861 0.212746 0.768638 0.139044 -0.795149 -0.299194 0.648848 0.333220 0.854218 0.125768 -0.282562 0.855705 0.116545 -0.223907 -0.832271 0.853496 -0.661919 -0.682343 -0.002544 0.432133 0.442861 0.055091 -0.972523 -0.136888 0.043159 -0.592992 0.662071 -0.319312 -0.319390 0.074087 -0.099655 0.172732 -0.285222 0.162684 0.114833 0.294146 0.038064 0.766934 -0.515739 -0.508215 -0.101301 0.564274 -0.297697 -0.620589 -0.375264 0.522324 -0.104035 -1.067341 -0.174894 0.234399 -0.105056 -0.412882 0.914636 0.920273 0.119747 -0.852021 0.009827 -0.443484 -0.444966 -0.010588 0.209888 0.387960 -0.936422 0.619498 -0.847896 -0.549859 0.216838 -0.436487 0.402173 0.129868 0.151604 0.070271 0.221696 0.362421 0.991098 -0.060081 -0.223469 0.162875 -0.082062 -0.184372 -0.340130 0.628322 -0.929811 -0.634325 0.522744 0.479762 0.843633 -0.884595 0.762424 0.603700 0.035599 0.246745 -0.168561 0.120739 -0.159753 0.621809 -0.267635 0.528480 0.289771 -0.216226 -0.309666 -0.186919 -0.000113 -0.289422 -0.752952 -0.001598 0.316963 -0.142714 -0.791287 0.350374 0.354659 0.105617 -0.018457 -0.734666 0.417232 0.733741 0.349160
H182 0.280803 -0.778853 0.116531 0.320569 0.216425 0.551969 -0.519572 -0.776914 -0.161150 -0.335948 -0.186633 0.431065 0.304449 0.557948 0.244638 -0.550332 0.516412 0.705495 0.389719 0.566219 -0.400258 0.378509 0.487626 -0.500731 0.036454 -0.134417 -0.098840 -0.755482 -0.578748 0.170544 -0.054482 0.185503 0.088506 -0.751461 -0.051094 0.363102 -0.251419 0.280325 -0.407920 0.113244 -0.068150 -0.291464 0.032402 -0.597574 0.833791 -0.422107 -0.528801 0.040448 0.499844 -0.005253 -0.278528 -0.137809 0.320782 -0.025084 -0.584804 0.032200 0.238489 0.421766 -0.650634 -0.322078 0.020535 0.104308 -0.419126 -0.091495 0.459088 0.211037 -0.277827 0.035628 -0.445475 0.356289 0.370193 0.720499 0.790004 -0.497872 0.512747 0.011033 -0.325558 0.241151 -0.745147 0.652401 -0.002360 -0.093465 0.290525 -0.252448 0.557186 1.037636 -0.619068 -0.115966 0.397403 0.187862 0.743965 0.164420 0.755343 -1.013642 -0.374831 -0.411257 0.423082 0.330838 -0.028967 0.477710 0.181407 -0.202911 0.464359 0.540519 1.056349 -0.200468 0.150175 0.071644 0.065160 0.374211 0.164895 0.048446 -0.225500 -0.737281 -0.151481 -0.285461 0.181858 0.075062 0.660818 -0.128848 -0.293637 -0.036093 -0.537865 -0.165329 -0.879324 -0.269910 -0.271191 0.872414
H96 -0.311592 -0.026635 -0.046822 0.063088 0.489557 -0.099167 -0.188133 0.183194 0.316480 -0.183181 0.616347 0.396140 0.021773 0.482591 0.192025 -0.682085 0.226400 0.413735 -0.175511 -0.086924 0.195079 -0.274964 0.567660 -0.159852 0.438250 -0.128740 0.235130 -0.134574 -0.157973 -0.018211 0.589688 -0.062488 -0.526666 -0.937529 -0.423562 0.263149 0.186918 0.250993 -0.166806 -0.518757 0.396692 -0.229663 0.015486 0.069367 0.338940 -0.336761 -0.333910 -0.239593 0.299639 -0.162553 -0.034711 -0.190534 0.084910 -0.027320 -0.046369 -0.245837 0.028360 0.106684 -0.537136 0.325400 -0.597155 -0.283343 -0.251424 -0.108289 0.135616 -0.288605 -0.253212 -0.036947 -0.406316 0.370910 0.189550 0.143568 -0.222468 -0.169473 -0.358390 0.092542 -0.310038 -0.497895 -0.016447 0.125360 0.304859 0.187792 -0.062772 -0.150401 0.362313 -0.017290 -0.576932 0.118313 0.433710 0.045895 -0.010097 0.078753 0.775998 -0.692163 -0.290193 -0.352324 0.441783 0.342921 -0.351157 -0.391338 -0.229473 -0.688285 -0.246342 -0.006655 -0.464244 -0.315516 0.405324 0.578168 -0.094415 0.053699 0.044788 -0.079679 -0.363565 -0.231421 0.233179 -0.693348 0.812281 0.085075 0.033537 -0.225638 0.013067 0.063212 -0.740683 0.460396 -0.298308 0.230838 -0.343027 0.327552
H84 -0.201013 0.387377 -0.074162 0.802286 0.334774 0.312590 -0.015827 -0.145443 0.344949 0.239794 0.213252 -0.179709 -0.386306 0.323243 0.292171 -0.321417 0.514763 -0.259294 -0.113567 0.500368 0.157208 -0.261025 0.319971 0.238223 0.245109 -0.096269 0.065041 0.318191 -0.380890 -0.039165 0.458053 0.269645 -0.319526 -0.253526 -0.478087 -0.009952 -0.463256 0.137848 -0.317349 -0.492776 0.599075 0.294964 0.615503 -0.025383 0.043139 -0.080938 -0.392052 -0.495670 0.225241 -0.289381 -0.519018 -0.366283 -0.038416 0.477720 -0.513707 0.122008 0.007250 -0.223924 -0.296103 -0.317909 -0.182006 -0.102979 0.250582 -0.657796 0.291063 -0.384164 -0.622075 -0.129497 -0.265086 -0.249328 -0.456102 0.146000 0.386864 0.165866 0.368883 -0.287062 0.174500 -0.513433 -0.151843 -0.054495 -0.392509 -0.368921 -0.224515 0.436192 0.605477 -0.450221 -0.103073 -0.075074 0.071281 -0.025973 0.659322 0.050401 0.497032 -0.080356 0.228366 -0.330486 0.297932 0.405760 0.095323 -0.095242 0.050450 -0.503945 -0.033330 0.372758 -0.699289 0.138140 0.000829 0.159180 0.347988 0.205863 -0.632776 -0.266715 -0.232830 -0.201114 0.782031 -0.208482 0.373191 0.540042 0.169909 -0.260527 0.186893 -0.351145 -0.194277 0.378479 0.056746 0.283659 0.050291 0.316698
H31 -0.069100 -0.339811 0.139657 -0.024395 0.542464 -0.044801 -0.615426 -0.216123 -0.113321 -0.105379 -0.155723 -0.685343 0.015772 0.379489 -0.129351 -0.049503 0.537780 0.508963 0.225126 -0.202953 0.761674 -0.231981 0.558989 -0.250503 0.567568 -0.237390 0.705223 0.185799 -0.586025 0.348678 0.315238 0.418730 -0.430312 -0.754347 -0.667566 -0.087445 -0.236827 0.016229 -0.486943 0.101713 -0.592416 -0.317912 0.377726 0.166736 0.421084 0.082208 0.188245 -0.686297 -0.410232 -0.207982 -0.382682 -0.766544 0.252554 0.096332 -0.710656 0.258321 0.752544 -0.394240 -0.833315 0.253154 -0.427001 -0.477835 0.096772 0.306335 -0.154849 -0.272473 -0.830148 0.596475 -0.552509 0.189527 -0.567822 -0.091826 -0.311979 -0.369627 0.319777 -0.071265 0.095361 -0.747460 -0.860775 0.435610 0.815002 -0.168664 0.205580 -0.089634 0.740204 0.462931 -0.050890 -0.155799 0.014816 0.289225 0.614956 -0.208265 0.682801 -0.615911 -0.365871 -0.108121 0.307381 0.619907 0.097306 -0.422169 0.341838 0.378881 0.232956 0.538146 -0.113132 0.237694 0.412841 0.278662 0.533761 0.024612 -0.527805 0.425178 -0.368809 0.100553 -0.018482 -0.094625 0.367188 0.812152 0.037712 0.652549 1.025759 0.216948 0.181544 0.764472 -0.136674 -0.454298 -0.098134 0.586457
P829 -0.496094 -0.596832 -0.295528 0.344083 0.178726 0.302980 -0.301280 0.008319 0.631100 0.031105 0.365476 -0.226895 -0.492911 -0.392351 0.752037 -0.130100 0.001148 0.387726 -0.291486 0.152744 -0.374738 -0.156315 -0.127881 -0.140296 0.088479 -0.287113 0.424245 -0.368647 -0.574269 0.074760 0.482709 0.104194 -0.361412 -0.300970 0.146489 0.314535 -0.118682 -0.238753 0.083575 -0.591029 -0.012319 -0.204754 0.540297 -0.099637 0.643688 -0.070877 -0.239008 0.338491 0.453958 -0.124320 -0.504966 -0.796835 0.374695 0.319610 -0.653101 0.123670 0.131049 -0.057019 -0.863655 0.060270 -0.404512 0.004413 -0.317402 0.069625 -0.083133 -0.203156 -0.464510 -0.096598 -0.249481 0.183111 -0.048860 0.332502 0.548277 -0.205226 0.125244 -0.209154 -0.637132 -0.030165 0.004230 0.816276 -0.125633 -0.132518 0.040299 0.328192 0.586684 0.354582 -0.034278 -0.985928 -0.455266 0.442358 -0.194544 -0.026858 0.587536 -0.092797 -0.268532 -0.344729 0.519810 0.425244 0.151945 0.058586 0.098032 0.497376 0.354675 -0.231284 -0.289713 -0.415680 0.050350 -0.351636 0.755706 0.073713 -0.465170 0.411648 0.046379 0.204047 0.580830 -0.350055 0.109151 0.802834 0.253289 -0.402609 -0.304225 0.278347 0.291812 -0.239881 -0.804582 0.059822 0.338075 -0.104294
P826 0.070978 -0.572527 0.144380 0.013123 0.229579 0.222565 0.022252 -0.439199 0.793211 0.638279 0.204765 -0.573030 -0.021140 -0.389612 0.757538 -0.152810 -0.026330 0.398034 -0.025296 0.302131 -0.213395 -0.064336 0.368942 -0.212085 0.494888 -0.306065 0.660112 -0.063523 -0.343011 0.110780 0.608525 0.210666 -0.239922 -0.671403 -0.144542 -0.280581 0.029848 -0.507491 -0.309342 -0.155843 0.036899 0.285904 0.414192 0.102292 0.502184 -0.109491 -0.235780 0.203435 0.255452 -0.289714 -0.542518 -0.455212 0.544293 0.069390 -0.488381 0.340756 -0.223574 -0.211766 -0.481229 0.319813 -0.354956 -0.376622 -0.341219 -0.348699 0.326731 0.251576 -0.476022 -0.216845 -0.349061 0.268553 -0.292470 0.604951 0.001086 0.205035 -0.050737 -0.123481 -0.883584 -0.265203 -0.453457 0.780500 0.210199 -0.513304 -0.398288 0.334990 0.486443 0.627920 -0.276383 -0.682928 -0.346765 0.038739 -0.178454 0.061687 0.227390 0.154251 -0.410694 -0.260665 0.561901 0.579809 0.042975 -0.120461 0.190209 0.139500 0.181650 0.100887 -0.190095 -0.162364 0.139704 0.052305 0.834872 0.210852 -0.457420 0.043930 0.209491 0.061808 0.523853 -0.327039 0.033839 0.822254 0.097124 0.267472 -0.374626 0.667169 0.641506 -0.031576 -0.453500 0.075132 0.157261 -0.136120
H65 -0.301462 -0.205311 -0.709938 -0.017012 0.210977 0.207832 0.315424 -0.226002 -0.439732 0.176558 -0.122912 -0.225296 -0.263725 0.826519 1.104873 -1.085298 -0.299847 0.254712 0.501845 0.090765 -0.107327 -0.911124 0.126039 -0.757939 -0.213767 0.110402 0.904532 -0.136272 -0.190799 0.013589 0.381371 -0.036199 -0.052588 -0.757429 -0.738625 -0.035513 -0.425496 0.314310 -0.366939 -0.395247 -0.082815 -0.143567 0.266238 0.090618 0.355425 -0.357672 -0.062275 0.321809 0.273992 -0.290826 0.113749 0.108346 0.011780 0.685528 -0.678330 0.325869 0.910919 -0.376463 -0.910242 -0.529586 -0.039603 -0.165439 -0.483443 0.116568 0.552028 -0.159253 -0.619888 0.036978 -0.424373 0.203072 -0.088122 0.332301 -0.098999 -0.497690 0.172938 0.307519 -0.163429 0.223297 0.201388 0.814002 -0.013486 0.111540 -0.105762 0.565658 0.372949 0.345328 -0.210273 -0.126689 0.277279 0.162558 0.079768 0.119730 0.470349 -0.325462 -0.226451 0.138678 0.668792 0.372000 -0.228054 0.048757 0.414785 -0.386742 0.083630 0.092999 -0.124869 -0.695803 0.149949 -0.029466 0.378780 -0.183272 -0.524632 0.415741 -0.122854 -0.472162 -0.185801 -0.876426 0.673986 1.019085 0.437866 -0.514318 -0.150551 0.592769 -0.452578 0.165840 -0.614619 0.172669 -0.305847 0.738021
H18 -0.257288 -0.868936 0.377501 0.478696 0.683266 0.409007 -0.143267 -0.112116 0.152386 -0.019659 0.193161 -0.471906 -0.217464 0.441025 0.769815 -0.711712 -0.158484 0.567947 0.064451 0.609794 0.011949 0.289628 0.403064 -0.642616 0.458047 -0.046378 0.289193 -0.006802 -0.451125 0.382736 0.374540 -0.222158 -0.206306 -0.222989 -0.925500 0.130921 -0.632855 -0.039804 -0.133644 0.263680 0.094746 -0.394908 -0.114265 0.250071 0.822486 -0.193505 -0.935145 -0.168446 -0.101967 -0.107996 0.222690 -0.165576 0.514099 0.335428 -0.493854 -0.738750 -0.053096 -0.014671 -0.430981 0.681396 -0.373758 -0.596378 -0.713590 -0.233146 -0.170207 -0.310073 -0.773250 -0.804806 -0.113293 0.012634 0.046980 0.368500 0.634529 0.527369 0.599255 0.248328 0.210779 -0.454816 0.084072 0.144372 -0.092209 0.457146 0.101710 0.766216 0.784672 0.369201 -0.559616 -0.099419 0.170132 -0.307174 0.264319 0.186366 0.285494 -0.944292 -0.446231 -0.324012 0.427474 0.744411 -0.106784 0.281583 0.225352 0.583297 0.634976 0.000217 -0.245759 -0.468033 0.647993 0.000163 0.277185 -0.135063 -0.255978 0.329372 -0.404909 -0.041831 0.013079 -0.705612 0.165553 1.375897 -0.276214 0.183182 0.261106 0.641633 -0.112205 0.404201 -0.697715 -0.398338 -0.439052 0.854672
H203 -0.023200 -0.604698 0.164894 0.969924 0.084532 0.335882 -1.168123 -0.305942 0.153888 0.130359 -0.354079 -0.631398 -0.451133 0.166101 0.470447 -0.703439 -0.824868 -0.570909 -0.191144 0.156913 -0.292388 0.252769 0.364259 -0.082914 0.305443 -0.689408 0.168849 -0.265439 -0.504496 -0.187859 0.509789 0.159190 0.019021 -0.318489 -0.401097 0.033918 -0.089652 0.156733 -1.001377 -0.303816 0.040448 -0.856008 -0.114497 0.351138 0.527091 -0.408381 -0.520887 -0.073352 -0.737694 -0.105921 -0.772295 0.204853 0.081422 0.414798 -0.657112 0.370034 0.057951 -0.311397 -0.106284 0.186210 -0.332091 0.176555 -0.318367 0.312299 -0.501359 0.126492 -0.964337 -0.854471 -0.303855 -0.313461 -0.102749 0.583909 0.893146 -0.160599 0.181070 -0.334697 -0.196476 -0.246694 -0.805955 0.823613 0.041389 -0.462001 0.410475 -0.032348 0.689276 0.415069 0.063008 -0.434656 -0.362949 -0.664209 0.661779 -0.217709 0.151296 -0.866839 -0.586012 -0.077545 0.191957 0.406466 0.507079 0.204849 0.076289 -0.127475 -0.275740 -0.420598 -0.417134 -0.105703 0.353947 0.305299 0.406380 0.353890 0.199965 0.436156 0.236177 -0.016211 0.322345 -0.370892 0.081257 0.434517 0.722880 0.147836 0.618207 -0.247475 -0.267495 0.225480 -0.814604 -0.166911 -0.353783 0.564321
H55 0.235151 -1.587286 -0.083563 0.271429 -0.060468 1.076968 -0.041660 -0.264551 0.398256 0.536153 -0.529952 -0.359486 -0.460148 0.640253 -0.047859 -1.215019 0.004063 -0.018609 0.150843 0.640802 -0.543400 -0.873074 -0.387962 0.214921 -0.152636 -0.177681 0.748682 -0.102884 -0.175350 0.806940 0.506472 0.543438 0.410595 -0.610147 -0.321031 -0.609337 -0.083297 0.784823 -0.521188 -0.095252 -0.559283 -0.173847 0.129850 -0.274455 0.361410 -0.105555 0.370147 0.051453 -0.025085 -0.479910 -0.335859 0.688603 0.576757 0.203039 -0.535512 0.184329 0.529369 -0.320445 -0.974237 0.151988 -0.770162 -0.371312 -0.759549 -0.263856 0.754932 0.377352 -0.588282 0.174187 -0.684329 0.387315 -0.054501 0.373201 0.522411 -0.442741 0.437441 -0.268758 -0.323955 -0.225393 -0.214109 0.915239 -0.239301 0.131608 0.040112 0.150599 0.480777 0.809173 -0.075626 -0.055099 -0.402930 0.929396 0.119016 0.308944 0.730998 -0.136176 -0.927770 0.079174 0.345732 0.641122 -0.453519 0.402967 -0.150217 0.629813 0.396941 -0.348610 -0.170083 -0.932036 0.399892 0.444061 0.518496 -0.095367 0.158869 0.706791 -0.312465 0.016068 -0.108561 -0.131511 -0.070623 0.569226 0.700034 -0.443437 -0.002539 -0.130776 0.356294 -0.449484 -0.095418 -0.049664 0.186966 0.189755
H107 -0.165910 -0.473286 0.140841 0.910236 0.657061 0.431417 -0.321878 -0.166208 0.415741 0.116209 -0.181088 -0.162849 -0.300925 0.494271 0.357383 -0.628424 0.267895 0.269331 -0.145673 0.341080 0.166204 -0.207146 0.350757 -0.221125 0.286843 -0.298800 0.447105 0.039292 -0.722770 0.193363 0.442512 0.234647 -0.406604 -0.994832 -0.616580 -0.241965 -0.199978 0.398682 -0.556099 -0.392949 0.224022 -0.245967 0.160344 -0.063123 0.583447 -0.289067 -0.332999 -0.225382 0.067832 -0.169586 -0.407873 -0.289103 0.245508 0.121048 -0.612294 0.085834 0.248847 -0.304102 -0.933863 0.034377 -0.314449 -0.147051 -0.544341 -0.047929 0.194971 -0.092587 -0.755290 -0.107840 -0.495372 0.013770 -0.274108 0.410775 0.473219 -0.025892 0.636961 -0.457541 -0.559046 -0.472027 -0.445192 1.042618 0.173055 -0.150584 0.114426 0.065498 0.677835 0.523377 -0.191434 -0.313504 0.268100 0.041733 0.427821 0.256059 0.595067 -0.711156 -0.362789 -0.203286 0.588908 0.784003 -0.135631 0.321842 -0.312326 -0.176225 0.223778 0.452350 -0.230304 -0.356689 0.480232 0.377710 0.568062 0.114358 -0.309555 0.196581 -0.457311 -0.153700 0.533487 -0.488008 0.440474 0.663716 0.544346 -0.288458 0.313196 0.066394 -0.331169 0.123537 -0.731675 0.075590 -0.029190 0.506528
H82 -0.206443 -0.934518 -0.011560 0.857962 0.676593 -0.235019 -0.348004 -0.455005 0.999177 0.141444 -0.259487 0.284639 0.257034 0.771143 0.506069 -0.493326 0.402795 0.202118 0.455380 0.774076 -0.587299 -0.413957 0.597059 0.113788 0.070119 -0.551152 0.554909 -0.834855 -0.703335 0.456082 -0.399659 0.216363 -0.421815 -0.665936 0.087427 -0.326296 -0.402885 -0.052253 -0.461787 -0.266220 0.015445 -0.264045 0.584103 -0.171832 0.115029 -0.679729 -0.199759 0.310161 0.041277 -0.308739 0.392109 -0.513695 0.346235 -0.439127 -0.745644 -0.208204 0.906045 -0.098801 -1.108773 0.143227 -0.888782 0.060854 -0.738658 0.166036 0.215331 -0.912734 -0.961596 0.218149 -0.818149 -0.035218 -0.018360 0.355971 0.078396 -0.741774 0.160388 0.165824 -0.543408 0.324511 -0.570290 0.602380 -0.126536 -0.703620 -0.283120 0.768733 0.266596 0.900290 0.326258 0.462195 0.565652 0.271585 0.089239 0.288386 0.816813 -0.468992 0.224322 -0.321761 -0.088173 0.391286 -0.087047 0.722711 0.425235 0.160729 0.310898 0.184711 -0.497648 0.253644 0.045056 -0.003331 0.267221 -0.832425 -0.541168 0.409869 0.314061 0.398609 0.833289 -1.078418 0.525540 0.230802 1.334232 -0.596632 -0.045167 0.423579 -0.228844 -0.266770 -0.542155 -0.216874 0.199073 0.019501
H175 -0.010294 -0.595807 0.772032 0.372750 0.315232 -0.036714 -0.325413 -0.514015 -0.257740 0.244171 -0.981585 -0.373951 0.499746 0.228216 0.145952 -0.620633 0.399686 0.412772 0.157086 0.305823 -0.001279 0.144424 0.351082 -0.317812 -0.124275 -0.231952 0.390781 -0.013509 -0.424831 0.403194 0.198526 0.276595 0.237430 -0.525820 -0.400549 -0.451838 -0.228526 0.478629 -0.339799 0.164555 0.171855 0.031371 0.167117 -0.582378 -0.189798 -0.228718 -0.257709 -0.636128 -0.299932 -0.010501 -0.121476 0.593636 -0.118047 0.421115 -0.052002 0.126009 -0.235891 -0.291649 -0.771545 -0.212413 -0.037484 0.080838 -0.850440 -0.165849 -0.383738 -0.656053 -0.494568 0.020363 -0.810525 0.047641 -0.404751 0.257316 0.354067 0.127316 1.684203 -0.561588 -0.781719 0.007103 -0.360839 0.753119 0.570924 -0.233253 0.047259 0.115709 0.343444 0.446416 0.263017 0.053602 -0.618279 0.549921 0.506882 0.098433 0.114033 -0.688158 0.267864 0.294394 0.461819 0.489928 -0.086997 -0.192632 -0.008885 0.223942 -0.231862 0.582685 0.033672 -0.208297 0.616067 -0.310965 -0.017260 0.479518 -0.477771 0.007046 -0.559555 0.184215 -0.162343 -0.424869 0.325302 0.589741 0.774646 0.219714 0.158828 0.286913 0.214443 0.506797 -0.985534 -0.168573 -0.180832 0.686514
H178 -0.005439 -0.619518 0.042374 0.413471 0.156497 0.526951 -0.292136 -0.691655 0.087816 -0.437288 0.132411 0.456351 0.396941 0.592300 0.536447 -0.777684 0.425084 1.002812 0.085209 0.601334 -0.669057 0.230096 0.608349 -0.143844 0.010530 -0.311966 0.170464 -0.508848 -0.639087 -0.092421 0.177474 0.383691 0.228485 -0.670103 -0.331645 0.117816 -0.282663 0.501408 -0.515631 0.251904 0.049753 -0.281627 0.128338 -0.060234 0.833045 -0.394321 -0.326714 0.276843 0.601596 -0.339381 -0.368961 0.060845 0.058204 0.350629 -0.841975 -0.112017 0.355895 0.306619 -0.898352 -0.503380 0.051820 0.169207 -0.305451 -0.176430 0.664456 0.188771 -0.186712 -0.109262 -0.367910 0.327627 0.197742 0.992772 0.628869 -0.321428 0.397857 0.116767 -0.483458 0.472379 -0.696249 0.625536 -0.091831 -0.205618 0.103200 0.147803 0.506585 0.726829 -0.421118 -0.009262 0.279278 0.393045 0.423847 0.040359 0.621645 -0.739687 -0.299598 -0.331119 0.345069 0.120645 0.251091 0.597541 0.578571 -0.201309 0.212689 0.434136 0.716752 -0.181865 0.057727 -0.283619 0.241992 0.004724 0.201467 0.009121 0.008589 -1.014146 0.274610 -0.456085 0.234980 0.141493 0.362115 -0.590048 -0.237444 0.229982 -0.695725 -0.206787 -0.931037 -0.503206 0.083880 0.890551
H123 0.173677 -0.025245 0.211473 0.351016 0.704255 0.123989 -0.554549 0.088078 -0.252098 0.086884 -0.244159 -0.055255 -0.068586 0.060028 0.460019 0.124950 0.695011 -0.026563 -0.017781 0.104292 1.060802 -0.184857 0.489238 -0.599294 0.110114 0.311461 0.299017 0.496091 -0.797778 0.055426 0.240494 0.192390 -0.200232 -0.332802 0.179807 -0.354901 0.057644 0.501998 0.126567 -0.200796 0.546624 0.379685 0.170584 0.488721 0.334184 -0.482650 -0.162664 -0.098902 0.149918 -0.033807 -0.117559 -0.236517 0.148502 0.056028 -0.455021 -0.048961 -0.299372 -0.572254 -0.614487 -0.123107 0.066529 -0.249347 -0.482045 -0.402600 0.330487 -0.208929 -0.310798 0.127900 -0.396024 -0.525592 0.138223 0.265369 0.260865 0.017782 0.282390 -0.012970 -0.423981 -0.743813 0.058651 0.949173 0.005352 -0.120091 0.421853 0.372859 0.297529 0.124611 -0.186569 -0.350591 0.154250 -0.078140 0.168049 -0.021004 0.893273 -0.656177 -0.397130 -0.704062 0.357948 0.462128 0.127297 0.133881 0.217264 -0.406730 -0.117101 0.529018 -0.219142 0.109985 0.462365 0.144183 0.331540 0.205715 -0.226943 0.047115 -0.086213 -0.477778 0.654711 -0.006411 0.772872 0.105192 -0.058087 -0.330612 0.179948 -0.136645 0.097631 -0.453405 -0.636519 -0.041362 -0.232031 0.938242
H15 0.189277 -0.499887 0.091347 0.540220 0.497300 1.015715 -0.380398 -0.307568 0.518135 -0.241812 -0.333149 -0.151803 -0.229503 0.221515 -0.408734 -0.034341 -0.155515 0.725532 0.684283 0.505885 0.609064 -0.541429 0.966998 -0.572368 0.651806 0.115687 0.560762 0.140289 -0.532268 0.102103 0.522227 -0.095164 -0.025880 -0.541569 -0.202506 -0.609209 -0.771686 0.291350 -0.378698 -0.004390 0.169804 0.224491 0.773897 -0.570286 0.356685 -0.177473 0.273709 -0.330504 0.346384 -0.342326 -0.562940 0.321040 0.224644 0.121785 -0.222553 -0.094143 -0.092848 -0.611849 -0.267242 0.664500 -0.410154 -0.036160 0.256766 -0.111229 -0.217384 -0.157726 -0.814577 -0.299390 -0.725993 0.120670 -0.079267 0.505682 0.060554 -0.561006 0.344349 -0.501034 -0.121407 -0.706551 -0.330677 1.435479 0.040808 0.207884 0.314418 -0.365311 0.521513 0.284687 -0.821973 -0.612078 -0.059580 0.189533 0.380862 0.313159 0.913862 -0.828135 -0.919046 0.274551 0.070365 0.459604 -0.057593 0.186453 0.204487 -0.338138 0.082358 0.707698 -0.044441 -0.291907 0.033900 0.042217 0.486310 0.216384 -0.315617 -0.050582 -0.344900 -0.053261 -0.370758 -0.188573 -0.409803 0.152911 0.708962 0.243142 -0.691851 -0.308349 -0.204799 0.189793 -0.894865 -0.158516 -0.099208 0.464027
H132 -0.525836 -0.635309 -0.185520 0.397010 0.237926 0.293518 0.001093 -0.551275 0.340487 -0.051340 0.176157 -0.052473 -0.087898 0.690111 -0.252960 -0.844433 0.275335 0.040875 0.309779 0.468760 -0.531221 -0.531203 0.593125 -0.314232 -0.220986 0.005979 0.192506 -0.421563 -0.444829 0.291821 0.210681 0.098445 0.340344 -0.890472 -0.722602 -0.040717 -0.333319 0.352363 -0.928212 -0.715384 -0.787045 0.192938 -0.048153 -0.349198 0.630277 0.235101 0.256909 0.155221 0.266920 -0.114131 -0.303928 -0.469231 -0.152968 -0.142489 -0.124573 -0.429611 0.601993 0.550439 -0.788492 0.496512 -0.461554 0.278594 -1.219416 -0.119856 0.018272 -0.149993 -0.230115 0.042397 0.110679 0.747343 0.152831 -0.230831 0.076859 -0.483612 0.882149 0.093045 -0.233740 0.355133 -0.572420 0.849236 1.074428 0.368717 -0.031779 -0.139464 0.822652 1.269907 -0.687166 -0.344772 0.629952 0.581143 0.212620 0.108996 0.539401 -0.637178 -0.508994 0.179082 0.521652 0.820250 -0.814194 0.166902 -0.621986 0.561872 0.416834 0.130992 0.621386 -0.274194 0.874889 0.568224 0.324052 0.615192 -0.335964 0.901886 -0.343595 -0.482475 -0.579312 -0.783458 -0.539818 0.650976 0.325970 0.216814 0.596997 0.813365 -0.183723 0.209829 -0.877205 0.311524 0.184050 0.067186
H3 -0.981701 -0.715324 -0.075887 0.647132 0.615143 0.351617 0.154562 0.066215 -0.053307 0.376087 -0.704198 -0.289751 -0.701234 0.886531 -0.211737 -1.258558 -0.353100 0.004136 -0.052908 -0.171408 0.217565 -0.815622 0.226061 -0.164302 -0.322192 -0.420960 0.617848 -0.131403 -0.632245 0.139254 0.399001 -0.329263 -0.010655 -0.838773 -0.766191 -0.563549 -0.045217 1.085223 -0.925757 0.168783 -0.060508 -0.463437 -0.696531 -0.347425 0.030124 -0.546658 0.040292 0.152555 -0.244665 -0.093317 0.402627 0.288697 -0.036084 -0.058088 -0.594752 0.246366 0.473726 -0.131932 0.064182 0.102237 -0.429841 -0.116850 -0.358979 0.944532 -0.148939 0.233356 -0.133707 0.046520 -0.403670 0.417792 -0.204254 0.160751 0.522835 0.226991 1.055413 -0.266415 -0.128058 -0.221958 -0.315210 0.658546 0.322579 0.353904 0.360697 -0.458367 0.105840 0.235183 -0.017578 0.207393 0.604909 0.175891 0.348050 0.408685 0.417660 -0.746964 -0.558107 1.032663 0.546175 0.852725 -0.500800 -0.201722 -0.438275 0.182402 0.216428 -0.294736 0.260150 -0.637861 0.698956 0.775384 0.282741 -0.288968 0.253391 -0.061885 -0.362677 -0.179568 -0.415410 -0.421822 -0.090517 0.374396 0.456258 -0.731976 0.857416 0.047923 -0.825093 0.273291 -0.766243 0.243544 -0.286631 0.724225
H119 -0.500394 -0.698895 -0.095962 1.027686 0.501572 0.290767 -0.192710 -0.000312 0.614932 0.397243 0.084647 0.102472 0.330631 1.232985 0.064346 -0.921516 -0.044205 0.126844 0.078698 -0.295558 -0.318443 -0.315757 0.751708 -0.291989 -0.470463 -0.294978 1.081779 -0.267338 -0.450347 0.652786 -0.063711 0.785775 -0.438249 -1.259139 -1.257232 -0.006147 -0.036707 0.785553 -0.327720 0.205522 0.180135 0.026811 0.235169 0.020729 0.105465 -0.513257 -0.205082 0.288564 0.058899 -0.441583 0.074998 -0.637359 0.189434 -0.128743 -0.720095 0.076430 0.666099 -0.521023 -1.180950 0.188660 -0.246743 0.109032 -0.415879 0.427315 1.061363 -0.179234 -0.460842 0.008145 -0.314494 0.459955 -0.487181 0.452811 0.801788 -0.405179 0.133532 0.642054 -0.681794 0.124706 -0.133682 0.235020 0.180774 -0.331449 -0.106936 0.372290 0.560381 0.972458 -0.048015 0.345051 0.256976 0.676748 0.692994 -0.210018 0.510279 -0.564281 -0.131327 0.828634 -0.309322 0.220979 -0.574329 0.498435 0.065584 0.339705 -0.644198 -0.105350 -0.188649 0.212894 0.381231 -0.343140 0.213753 0.054283 -0.702742 0.092214 0.151461 0.268822 0.198333 -0.881742 -0.225229 0.351083 0.260823 -0.351912 -0.012323 0.248179 0.203721 0.261055 -1.116945 -0.053696 -0.221166 0.476471
H215 -0.184154 -0.829428 0.122929 0.001923 0.155758 -0.144948 0.236132 -0.133290 0.403989 -0.036311 -0.115461 -0.450969 -0.500230 0.371474 0.104627 -0.714353 0.327064 -0.216304 0.463140 0.795119 -0.039906 -0.243226 0.028723 0.938156 0.395883 0.191557 -0.326860 0.213348 -0.945314 0.323867 0.486217 -0.283299 -0.486605 -0.553337 -0.059250 0.341273 -0.219836 0.283962 -0.596095 0.248521 0.516852 0.068872 -0.619731 0.131167 0.526941 -0.228774 0.000763 0.005670 0.190525 -0.624243 -0.315750 -0.468749 0.391198 -0.055386 -0.372239 -0.817275 0.034911 0.392529 -0.614012 -0.567272 -0.508045 0.054179 -1.287104 -0.042884 0.457382 0.711057 -0.380438 0.293454 -0.555510 -0.405902 0.011253 0.106462 0.836388 -0.202238 0.058165 -0.499355 -0.892821 -0.023949 -0.218513 1.418004 0.250476 -0.204443 0.011290 0.780085 0.639172 0.614543 -0.127427 -0.282347 0.636135 -0.102856 -0.090222 0.795620 0.682058 -0.759307 -0.416942 -0.545287 0.804644 0.726122 -0.334534 0.062063 -0.468384 -0.024683 0.702538 0.497270 -0.436328 0.157609 1.223643 0.296076 0.144825 0.800234 -0.174285 0.301644 -0.626913 0.511967 0.171072 -0.125489 0.636245 0.138579 0.246215 0.118889 0.475522 0.204530 -0.521403 -0.441782 -0.359706 -0.172993 0.347132 0.500512
H103 0.384354 -0.640651 -0.117790 0.482875 0.839422 0.595329 -0.283801 -0.673385 -0.155663 -0.141178 -0.579363 -0.668426 0.061843 0.591722 0.110529 -0.745153 -0.191914 0.873589 -0.053388 0.775147 -0.196817 -0.247999 0.365618 -0.790319 -0.143972 -0.348130 0.547837 0.212136 -0.101051 0.205565 0.348594 -0.094689 0.140904 -0.558425 -0.472192 -0.320439 -0.459629 -0.100295 0.041570 -0.332588 0.476899 0.372606 -0.137192 0.260494 -0.199910 -0.350900 0.142885 -0.207047 0.285883 -0.026286 -0.100845 -0.393141 -0.118576 0.022124 -0.222564 -0.526271 -0.418554 -0.232580 -0.559283 0.291142 0.232720 -0.766272 -0.452674 0.676385 0.383619 0.014439 -0.794267 -0.508811 -0.482623 0.588022 0.008788 0.522811 0.863557 -0.116525 1.130671 -0.882706 -0.140278 -0.450529 -0.081563 0.967276 -0.252985 0.164216 -0.168786 -0.042623 0.102657 0.092188 -0.720073 -0.227952 -0.115131 0.219718 0.788605 0.064576 0.061240 -1.556524 -0.682019 0.172038 0.245439 0.206704 -0.338407 0.434345 0.126839 -0.364335 0.437565 0.191918 -0.051098 -0.134491 0.037958 0.302711 0.246601 -0.041936 -0.364236 0.238435 -0.136747 -0.023591 -0.073340 -0.311706 0.595165 0.647026 0.302851 0.317190 0.254839 0.204548 -0.601373 0.092941 -0.272339 -0.053413 -0.234359 0.257460
H63 -0.218971 -0.540466 -0.474656 0.393886 0.145709 0.368782 0.299898 -0.421001 0.515264 0.615815 -0.227117 -0.100325 -0.803470 0.546911 0.830768 -1.001320 -0.987236 -0.225117 -0.252191 0.614939 0.083521 -0.665376 0.278481 0.561576 0.646555 0.195671 0.192676 0.100057 -0.196311 0.391922 0.377204 -0.576203 -0.354138 -0.816292 -0.219535 -0.171164 0.005517 0.436179 -0.481021 -0.299643 0.901691 0.203579 -0.492528 -0.235016 0.135778 -0.363141 -0.232832 0.325942 0.106998 -0.417426 -0.281920 0.477194 0.105305 -0.226681 -0.465109 -0.757695 -0.161666 0.110951 -0.249946 -0.386729 -0.019480 -0.002825 -1.038224 0.003444 0.279295 0.361171 -0.555961 -0.424104 -0.114476 -0.126942 0.107947 0.297646 1.099515 0.025010 0.853988 -0.308049 -0.337151 0.117267 -0.150162 1.059169 0.103320 0.288127 0.148879 0.389859 0.518641 0.319801 -0.753998 -0.058817 -0.312949 -0.398529 -0.335086 0.479504 0.493531 -0.546166 -0.056510 0.164598 0.868004 0.528885 -0.011999 0.465404 -0.572283 -0.740221 0.264333 0.052481 -0.311512 -0.821051 0.805273 0.519813 0.530721 0.234613 -0.302659 0.095641 -0.490483 -0.483478 1.028603 -0.347751 0.070477 1.028046 0.519548 -0.379141 -0.004225 0.104083 -0.099557 -0.639647 -0.863635 0.603168 0.355470 0.460752
H74 -0.293563 -0.108301 -0.308390 0.676855 0.230285 0.628600 -0.112387 -0.672346 0.625776 0.160834 -0.084004 0.025641 -0.050457 0.265401 0.122741 -0.615568 0.066856 0.224666 0.145381 0.264110 0.082404 -0.845854 0.331886 -0.142850 0.253487 -0.120829 0.068684 -0.373727 0.020113 0.458785 0.050546 -0.517467 0.593525 -1.745376 -0.202555 -0.204202 0.039092 0.308247 -0.590698 0.065149 -0.031113 0.622252 0.748997 0.095909 0.203231 -0.113929 0.261780 -0.314531 0.381104 -0.680604 -0.008790 0.037530 -0.292113 -0.303048 -0.844301 -0.093282 0.290682 -0.027925 -0.345485 0.103345 -0.254046 0.413782 -0.765171 -0.247008 0.363091 0.293383 -0.625440 -0.563509 -0.335658 -0.288192 -0.168892 0.125696 0.541293 -0.516753 0.471717 0.064117 -0.402519 -0.174263 -0.351535 1.063713 0.319102 -0.143772 0.063168 -0.709576 0.529188 0.632881 -0.673894 -0.164892 -0.290980 -0.227827 -0.427831 0.132687 0.826292 -0.988563 -0.198828 -0.063777 0.840897 -0.313257 0.139653 0.584234 -0.008534 0.226798 0.485751 -0.711124 0.009271 -0.620845 0.707745 0.179926 0.991862 0.074948 -0.638687 0.296568 -0.370454 -0.437002 0.054098 -0.516619 -0.304201 1.231891 0.682071 0.105265 -0.708619 0.194444 0.071799 -0.017952 -0.665459 0.103992 0.118797 0.620986
H152 0.215963 -0.775263 -0.368536 0.707651 0.346560 0.309190 -0.588824 0.219418 0.199076 -0.055774 -0.141890 -0.180037 -0.019401 0.472968 0.564409 -0.697870 -0.595939 0.276532 -0.404652 -0.326622 0.097334 -0.304968 -0.225762 -0.242663 0.680305 0.455619 0.333105 0.315246 -0.723198 -0.078284 0.153075 0.503066 0.242649 -1.031113 -0.683455 -0.130180 -0.453405 0.331731 0.020298 -0.220456 0.745478 -0.393451 0.150669 -0.164105 0.461221 0.258486 -0.453553 -0.257419 -0.002004 0.219898 -0.609768 0.464910 0.718581 -0.247855 -0.249271 -0.274474 0.139081 -0.520967 -0.459272 0.118434 -0.921644 -0.364048 -0.792414 0.130214 0.052463 -0.000395 -0.221731 -0.327056 0.014747 -0.287323 -0.188079 0.349889 0.120872 -0.527072 0.910056 -0.227945 -0.728570 -0.747792 -0.168284 0.601934 0.640491 0.002597 0.148914 -0.431794 0.440897 0.096864 -0.275537 -0.249499 -0.297768 0.026922 0.810115 -0.057711 0.490258 -0.634725 -0.175149 0.041074 0.249812 0.442822 0.205899 -0.233028 -0.142055 0.648699 0.133337 0.120850 0.403882 -0.305852 -0.028435 0.758909 0.597797 -0.284596 -0.187230 0.245993 -0.801399 0.209018 0.706582 -0.347376 -0.275195 0.580764 0.179671 -0.066763 0.277247 -0.236870 -0.584841 -0.307454 -0.398770 -0.787053 0.651994 0.035681
H189 -0.692808 -0.662242 0.207395 1.771530 0.634389 -0.319876 0.020173 0.068552 -0.032311 0.121764 -0.475427 -0.210351 -0.481945 0.769429 -0.514308 -0.282535 0.026576 0.221574 0.013773 0.379223 -0.230101 -0.152905 0.425744 -0.133934 0.106327 -0.338374 0.320830 -0.486252 -0.480412 0.357799 -0.231862 -0.065884 0.034034 -0.985299 -1.302207 -0.202364 0.685695 1.024516 -0.427776 0.066550 0.349710 0.327876 -0.010432 -0.352287 0.088413 -0.533815 -0.139060 -0.055569 -0.129179 -0.301761 0.364992 0.130042 0.047197 0.106912 -0.439672 -0.233699 0.232491 -0.384293 -0.467097 -0.554472 -0.548599 -0.199092 -1.128903 0.524487 0.293847 -0.317362 -0.489344 0.069101 -0.286257 -0.272015 -0.218100 0.418780 0.528304 -0.149851 0.668968 -0.233473 -0.613417 0.288916 -0.430605 0.567302 -0.399354 -0.250986 0.461065 -0.593744 0.468024 0.457435 -0.369204 0.360528 0.528334 -0.121374 0.357860 -0.182200 0.279941 -1.073277 -0.201551 0.387702 -0.361432 0.085635 -1.019740 0.870574 0.009221 -0.235882 0.183271 0.050898 -0.196046 -0.360058 0.625214 0.170968 0.073504 0.006694 -0.181071 0.213590 -0.197060 -0.067881 -0.167846 -0.067665 0.809087 0.010596 0.302204 -0.880757 0.528167 -0.268155 -0.863979 0.855991 -0.737668 0.118928 -0.234490 0.842588
H184 -0.328454 -0.563044 -0.090815 0.877002 0.486731 0.482429 -0.112097 -0.390467 0.318373 0.431059 -0.347749 -0.162459 -0.291407 0.167199 0.604708 -0.826491 0.076066 -0.343630 -0.442869 0.533423 0.097580 0.084696 0.058112 -0.243222 0.211077 -0.354783 0.209020 -0.560524 -0.122618 0.133574 -0.069984 -0.109160 -0.239083 -0.914808 0.203572 -0.234336 0.677900 0.462303 -0.892744 -0.614667 -0.051851 0.056635 -0.851111 -0.769298 0.045342 -0.783182 -0.214881 -0.225029 -0.379162 -0.046933 0.423187 -0.393932 0.606162 -0.892492 0.029411 -0.094522 0.790386 -0.083095 -0.287269 0.136838 0.235344 0.326904 -0.717407 0.714832 -0.144973 -0.682004 0.239853 0.321172 -0.680983 -0.184766 0.467639 -0.062308 0.784009 0.005124 0.610387 -0.420287 -0.185596 -0.064454 -0.318208 1.513854 0.591103 -0.103207 0.128054 -0.160919 0.261707 0.151381 -0.455657 0.060267 0.022080 -0.241503 0.200288 0.526954 0.726369 -0.439493 0.308142 -0.442850 0.749648 0.974823 -0.073705 0.563157 -0.918454 -0.401154 0.724021 0.645499 -0.064024 -0.049940 0.550225 0.629525 0.606042 -0.062188 -0.195120 0.486500 -0.275449 -0.243695 1.000073 -0.532882 0.769996 0.283530 0.725616 -0.403914 -0.208849 0.422248 0.063544 -0.136622 -0.810024 0.832240 -0.427166 0.210527
H86 -0.405305 0.252122 0.121193 0.458286 0.577106 -0.009124 -0.196986 0.023446 0.362780 -0.115912 0.290210 -0.089396 0.092785 0.244743 0.187376 -0.026922 0.292063 0.443685 -0.247690 0.222455 0.052732 0.127376 0.393470 0.100615 0.810926 -0.324695 -0.056945 0.224498 -0.233032 -0.050690 0.595225 0.140387 -0.777571 -0.523136 -0.555277 -0.210065 -0.236675 0.053172 -0.325124 -0.494148 0.629102 -0.010177 0.444722 0.100760 0.280013 -0.357896 -0.411621 -0.498989 0.246562 -0.013373 -0.236054 -0.139279 -0.203485 0.243548 -0.026173 -0.496802 0.059660 0.211840 -0.352979 0.246136 -0.566656 -0.366690 0.047355 -0.003891 0.221860 -0.777245 -0.307889 -0.356380 -0.315822 0.139905 0.013222 0.331777 -0.082742 0.284101 -0.079093 -0.307377 -0.187340 -0.387055 -0.098240 0.256650 0.131110 0.247701 -0.115948 -0.055494 0.239683 0.033215 -0.431330 -0.178145 0.558131 -0.119684 0.359537 0.319786 0.477026 -0.342108 -0.038117 -0.610357 0.514000 0.209129 0.269896 -0.068012 -0.203869 -0.582878 -0.193456 0.102581 -0.278713 0.255590 0.164456 0.661952 0.200554 0.060882 0.177545 -0.207074 -0.202649 -0.028480 0.626310 -0.540034 0.791569 -0.109785 0.090501 -0.081201 0.193706 0.133919 -0.811061 0.568211 -0.311248 0.277825 -0.137469 0.728680
H112 -0.230691 -0.543272 0.095236 0.988424 0.186214 0.765522 -0.468095 -0.317490 0.625009 0.459549 -0.352146 0.031187 -0.716250 0.382595 0.491355 -1.146474 -0.163783 -0.621296 0.021867 0.710655 -0.189938 -0.209582 0.470255 -0.255940 -0.171431 0.489571 1.278607 0.417602 -1.003203 -0.205246 0.921995 0.680508 0.183957 -0.940038 -0.268541 -0.163315 -0.400181 0.462232 -0.441772 -0.095247 -0.047820 0.209291 0.118630 0.238352 0.136752 -0.089108 -0.418825 -0.096108 0.296383 0.010157 -0.415751 0.271997 -0.007356 0.290269 -0.354370 -0.067195 -0.088608 -0.089775 -0.496515 -0.127393 0.210104 0.136795 -0.788832 -0.097392 0.019235 0.301612 -0.277717 -0.082841 0.060170 0.194799 0.163627 0.127282 1.011518 0.145448 1.289806 0.352769 -0.412663 0.139089 -0.258633 0.169683 -0.086740 -0.021551 0.310946 0.858150 0.232489 1.021728 -0.292803 0.478726 -0.517301 -0.282648 0.467757 -0.042595 0.379903 -0.823689 -0.154498 0.355524 0.857031 0.954204 -0.669068 0.261335 -0.352007 0.140086 0.432687 0.133667 -0.022664 -0.198604 0.788221 0.162126 0.251309 0.181831 -0.641047 0.458589 -0.142987 0.035317 0.175212 -0.284117 -0.592992 0.495682 0.276982 -0.153904 0.535826 0.029287 0.217980 -0.177182 -0.505394 0.325582 -0.033713 0.124832
P200 -0.130290 -0.324586 0.315846 0.212650 0.447604 0.140148 -0.462927 -0.211238 0.015329 -0.130333 -0.120410 -0.298861 0.260130 0.379227 0.115585 -0.492578 0.582321 0.347857 0.294607 -0.006099 0.295230 -0.018438 -0.096425 -0.511071 0.076957 -0.420796 0.506407 -0.249334 -1.005959 0.159289 0.191064 0.442909 -0.190379 -0.419662 -0.512635 0.133670 -0.557407 0.009146 -0.424159 -0.180119 -0.443498 -0.782588 0.269040 0.176019 0.348892 -0.162764 -0.123216 -0.285294 0.049224 0.009135 -0.130117 -0.850339 0.274678 0.084437 -0.371400 0.553876 0.563596 -0.398667 -0.901741 0.148123 -0.302908 -0.031089 -0.102385 -0.013715 -0.085296 -0.157554 -0.509517 0.329725 -0.263543 0.206964 -0.168797 0.098978 -0.100752 -0.482242 0.274978 0.178413 -0.113317 -0.467180 -0.407868 0.363626 0.331723 -0.201337 -0.181274 0.128596 0.418915 0.486420 0.211865 -0.147302 0.188613 0.510699 0.538944 0.177925 0.231666 -0.228208 -0.146445 -0.088801 -0.082086 0.389308 -0.347242 -0.259266 0.280268 0.637802 0.261935 0.510922 -0.024817 0.260838 0.230701 0.062477 0.400678 -0.016289 -0.300697 0.401796 -0.074805 0.493147 -0.199391 -0.045221 0.534255 0.437749 0.179778 0.435618 0.610689 0.152031 -0.409292 0.518675 -0.122879 -0.149711 -0.158289 0.011910
H57 -0.272168 -1.001514 0.267551 0.612332 0.464391 0.480866 0.100400 -0.477156 0.273582 -0.079577 -0.488508 0.238143 0.148036 -0.415866 0.485679 -0.683317 -0.167685 0.250657 -0.000530 0.949529 -0.389525 -1.234472 -0.066432 -0.370324 -0.252722 -0.302047 0.005926 -0.151891 -0.923182 0.142168 0.038192 -0.683919 0.175646 -1.151851 -0.354822 -0.517523 -0.281878 -0.049768 -0.840506 0.239080 0.044762 -0.438569 -0.215185 -0.023082 -0.078878 -0.140749 -0.525615 -0.044034 0.055492 -0.682312 -0.240565 -0.055943 0.858430 0.329661 -0.526778 -0.025777 0.603161 0.356089 -0.382980 -0.376247 -0.187245 0.107673 -0.712992 0.137730 -0.318159 0.370554 0.141510 -0.110780 0.380844 -0.227043 -0.096557 0.078373 0.105242 -0.246231 0.550060 -0.606736 -0.365224 -0.105649 -0.575833 0.686358 -0.049077 -0.861647 -0.276903 -0.387022 0.598893 0.318510 -0.022851 -0.452119 0.182494 -0.159388 -0.066832 0.194058 -0.161913 -0.948834 -0.445953 -0.139734 0.364233 0.376994 0.170056 0.161258 -0.260795 -0.237075 0.689140 0.410097 -0.441012 -0.309672 0.373753 -0.327537 0.409640 -0.303639 -0.293746 0.054715 -0.457659 0.513544 0.549175 0.051410 -0.175883 0.737365 0.430684 0.050336 0.341281 -0.137637 -0.289660 0.414556 -0.884699 0.239628 0.312075 0.101447
H38 -0.223125 -0.538272 0.300615 0.596206 0.566898 0.730763 -0.444942 -0.023993 -0.046105 0.074207 -0.278534 0.136207 -0.165927 0.399018 0.189060 -0.648410 0.617524 -0.073167 -0.733126 -0.145163 -0.288444 0.110817 0.290881 -0.615255 -0.071186 -0.420722 0.406357 -0.085496 0.123301 0.376211 0.050807 0.534649 -0.072252 -0.502449 0.049380 -0.221503 0.256559 0.457429 -0.473201 -0.566895 -0.471506 0.248442 -0.211566 -0.446136 0.024341 -0.192282 -0.199998 -0.042992 0.093296 0.107118 0.176810 -0.292269 0.330056 -0.238930 -0.763449 0.880406 0.330472 -0.146741 -0.695922 0.355931 -0.214502 -0.280550 -0.457135 0.307996 0.093928 -0.378006 -0.123103 -0.256999 -0.235969 -0.001145 0.377191 -0.068286 -0.430957 -0.047022 0.716880 -0.486058 0.133916 -0.132024 0.161257 0.448967 0.353968 -0.585246 0.040772 -0.195810 0.013837 0.825258 0.411404 -0.039390 0.392014 0.196571 0.394229 0.215650 0.577363 -0.483058 -0.557096 -0.662201 0.449439 0.669643 -0.148009 0.419668 -0.091280 0.126237 -0.170977 -0.602405 0.396317 -0.543643 -0.251026 0.838120 0.762569 -0.333894 -0.271261 0.719617 -0.165604 -0.052837 0.328607 -0.660001 0.267562 0.440797 0.689193 -0.507335 0.106543 0.367542 0.354508 0.086062 -0.340624 0.403514 0.047524 0.067539
H166 0.100088 -0.304668 0.346202 1.200634 -0.118768 0.924549 -0.767453 -0.084618 -0.058996 -0.077540 -0.085539 0.142847 -0.600930 0.317469 0.136592 -0.202962 -0.350865 0.824267 0.449694 0.518961 0.207480 0.016146 0.100558 0.257899 0.066578 0.067402 0.665003 0.405497 -0.514299 0.322544 0.388082 0.187080 -0.306790 -1.304246 -0.049872 -0.803654 -0.551137 0.905245 -0.284314 0.067971 0.280775 0.081973 0.439781 0.512510 0.187430 -0.277395 0.289618 0.060096 -0.142310 0.099001 -0.183926 0.218513 -0.089742 0.482081 -0.682597 0.166918 -0.106160 -0.085108 -0.890961 -0.360679 0.000319 -0.001458 -0.645530 0.399961 0.287727 -0.117709 -0.921022 -0.949512 -0.300659 -0.377358 -0.090089 0.287624 0.165003 0.255328 1.047289 -0.475532 -0.367055 0.153337 -0.099339 0.599133 0.030960 -0.077854 0.792867 0.083853 -0.046386 0.430872 0.498398 -0.659570 -0.338572 0.143375 0.921733 0.059365 0.247445 -1.111317 -0.034128 -0.065882 0.595577 0.145914 -0.183044 0.029839 -0.227315 -0.112287 0.014247 -0.221437 0.167329 -0.120959 0.513685 0.258086 0.280924 0.512493 -0.535147 0.003960 -0.469013 0.456246 0.142469 0.087609 -0.461839 0.085550 0.369896 -0.271676 0.122646 0.061305 -0.130114 -0.234342 -0.206454 -0.071639 -0.373327 0.752907
H127 0.050062 -0.043550 -0.066440 0.761114 0.577301 0.093631 -0.355985 -0.260305 0.215058 0.114759 -0.043233 0.320367 0.362894 0.221856 0.317053 -0.120586 0.280788 -0.022152 -0.164039 0.517110 0.589583 -0.415042 0.337500 -0.467578 -0.422371 0.290711 0.494847 0.389212 -0.638675 0.059048 -0.052507 0.058587 0.404091 -0.576885 -0.255515 -0.334379 0.254559 0.762481 0.031958 -0.502305 0.137773 0.376029 0.233956 0.218694 -0.201325 -0.107333 -0.107482 -0.090117 0.280673 -0.259353 0.054720 -0.154600 0.332709 0.303562 -0.253109 -0.193094 -0.047156 -0.282416 -0.850574 -0.073605 -0.067345 0.031182 -0.855287 -0.061692 0.439256 -0.328331 -0.256338 0.238024 0.057629 -0.556264 0.027571 -0.060038 0.073268 -0.240779 0.243769 0.392162 -0.350553 -0.649542 0.065978 0.578034 0.349138 -0.266800 0.343432 0.166165 0.588566 0.155184 -0.343616 -0.003812 0.139559 -0.016168 0.181172 -0.214670 1.054027 -0.559993 -0.199659 -0.367472 0.386311 0.290737 0.005662 0.808351 -0.274673 -0.053139 -0.066696 0.466133 -0.068342 0.361924 0.801812 -0.046667 0.224675 -0.156764 -0.417646 0.308358 0.125355 -0.356824 0.285625 -0.325023 0.158117 0.024147 0.134954 -0.506005 0.012580 0.154415 0.367857 -0.708524 -0.491458 -0.044165 -0.052478 0.501829
P755 0.107025 -0.333156 -0.018745 0.293887 0.312473 -0.120007 -0.699120 -0.298145 0.064714 0.148137 -0.280980 -0.069594 -0.070331 0.164092 0.770397 -0.050548 0.231760 0.069250 0.189454 0.423867 0.652498 -0.061839 0.191259 -0.282564 0.045613 0.475546 0.581625 0.591999 -1.058015 -0.376079 0.380866 0.137775 -0.189218 -0.518810 0.170652 -0.164310 -0.199943 0.220158 0.225215 -0.190422 0.569542 -0.122258 0.234109 0.419795 0.247702 -0.412766 -0.174103 -0.205959 0.146477 0.198535 -0.359591 -0.325707 -0.256078 0.178440 -0.549941 -0.327146 -0.214046 -0.644332 -0.745309 -0.299904 0.104785 -0.213325 -0.399266 -0.213380 0.257712 -0.098048 -0.684938 0.080811 -0.116992 -0.693107 -0.184185 0.208115 0.733200 0.023673 0.405871 0.140454 -0.760882 -0.692736 -0.191128 0.705029 0.312251 -0.102881 0.500137 0.336008 0.648000 -0.035199 -0.207112 -0.357715 0.142153 -0.259350 0.015192 0.118161 1.036384 -0.572644 0.102131 -0.207096 0.366493 -0.056422 0.261597 0.226362 0.349510 -0.086410 0.316992 0.557492 -0.255993 0.410852 0.477580 -0.205147 0.195913 0.346190 -0.418125 -0.055232 -0.147341 -0.164349 0.610697 0.191523 0.348985 0.327901 0.146268 -0.142378 -0.026156 0.076842 -0.115267 -0.659906 -0.294184 -0.001071 -0.057866 0.536524
P964 -0.081154 -0.187526 0.135426 0.275103 0.646277 0.330835 0.107672 -0.209246 0.508188 -0.162117 -0.211811 0.126139 -0.618918 0.789421 0.016737 0.092293 0.462970 -0.318390 0.232350 -0.120994 -0.442379 -0.064052 0.166255 -0.067536 0.215799 0.366695 0.549038 0.202814 -0.697262 -0.224861 0.239819 0.291550 0.158415 0.129426 -0.517186 -0.288810 -0.433943 0.508631 -0.244174 -0.912806 -0.164972 -0.240951 -0.149195 0.176297 0.459887 -0.123555 0.113065 0.100375 0.327661 -0.231973 -0.755216 -0.225127 0.070807 0.466669 0.180448 0.483263 0.324737 -0.421229 -0.835829 -0.080783 -0.376587 0.018036 -0.215448 0.016760 0.134855 0.177014 -0.060192 0.255045 -0.240794 0.134368 -0.141702 0.213028 0.275132 -0.189117 -0.072458 -0.321564 -0.553221 0.019262 -0.191868 0.469007 -0.199948 -0.188130 0.632191 -0.282996 0.407720 0.465257 0.284145 -0.442287 0.531665 0.024201 0.087722 0.111703 0.363084 -0.295830 -0.586223 0.293762 0.452040 0.821951 -0.336018 0.612396 -0.161352 -0.242884 0.070008 0.700669 -0.249448 -0.471851 -0.222923 0.032925 -0.104367 0.264019 -0.155908 -0.112703 0.121169 -0.388609 0.077836 -0.747276 -0.098256 0.108971 0.928525 -0.363979 0.376505 -0.246574 -0.140181 -0.110546 -0.408583 0.218949 0.583147 0.248521
