1622 128
H79 0.221590 0.057450 -0.215151 0.041578 -0.076625 0.133306 0.348675 0.146867 -0.223397 -0.433960 0.032047 0.045793 0.024871 -0.291222 0.434708 -0.046811 0.042893 -0.083795 -0.216286 0.559849 -0.147674 -0.027796 -0.260780 -0.076366 0.296055 0.018867 -0.096241 0.033507 0.360450 -0.314374 -0.093806 -0.049611 -0.331789 -0.270679 0.302096 0.199893 0.143751 -0.166163 0.025359 0.161390 0.268378 0.097536 0.182958 0.001455 0.203126 -0.530470 -0.105417 0.280442 0.416222 0.248078 -0.268878 0.388389 -0.310923 0.541247 0.029579 -0.138433 0.225699 0.184376 0.227425 -0.627555 0.447854 0.122800 0.187238 -0.865747 0.098028 -0.130974 -0.222370 0.020264 0.388026 0.404165 0.020277 0.515759 0.574462 0.278149 0.040680 -0.329923 0.097571 -0.430480 0.336954 -0.306768 -0.245595 0.264849 -0.266264 0.044964 0.124790 -0.269801 -0.161392 -0.023891 -0.393912 -0.291402 -0.611715 -0.298261 0.030271 -0.388145 0.295320 -0.111147 0.183256 -0.268204 -0.079707 0.273216 0.072547 -0.264895 -0.030579 0.111126 -0.348009 0.230515 -0.213472 -0.155006 -0.305664 0.048849 -0.001336 -0.371855 0.006476 -0.139892 -0.048569 -0.149345 0.555400 0.003905 -0.028066 -0.225568 -0.167579 -0.005228 -0.037704 0.143850 0.124835 0.221919 -0.172160 0.103881
H95 -0.560023 -0.123416 -0.197174 -0.033173 0.034980 0.025574 0.183379 0.205188 -0.376410 0.019914 -0.246970 0.028616 -0.110867 -0.074672 -0.378650 0.606688 0.055183 0.192177 -0.170112 0.337611 -0.291571 0.200665 0.008576 0.044527 0.350392 0.159051 -0.271224 0.075679 0.200696 -0.049658 0.082346 -0.354024 -0.226495 -0.510120 -0.107886 0.016495 0.540436 -0.223451 -0.087184 -0.116409 0.152842 0.157586 0.043664 -0.134591 -0.087672 -0.368313 0.341644 0.517262 0.134895 0.179659 0.323882 0.311749 -0.581246 0.135955 0.311243 -0.760089 0.592438 0.373367 0.036338 -0.086289 0.178295 -0.381109 0.254401 -0.211755 -0.076684 -0.347111 -0.003827 -0.085471 0.348101 0.262293 0.195494 0.406320 0.004489 0.109325 0.196069 -0.690580 -0.183756 0.134564 0.371452 0.187191 -0.100087 0.313007 0.085725 -0.622253 0.537128 -0.000941 -0.218920 -0.117388 0.096369 -0.262992 -0.404782 0.088876 0.128933 -0.615910 -0.036588 0.040898 0.028255 -0.431234 -0.551814 -0.102115 0.473053 -0.094697 0.231067 -0.234071 -0.211891 -0.060565 -0.437769 0.168440 0.203031 0.274951 0.298465 -0.048244 0.104419 -0.150596 -0.543209 -0.308894 0.344416 -0.449098 0.223900 0.032881 -0.444034 0.326963 -0.361483 0.173137 0.148626 0.300306 0.339049 0.204439
H209 -0.198762 0.036238 -0.039140 0.144660 0.437463 0.070015 0.375992 0.350296 -0.372543 0.580978 0.016043 0.072631 -0.291830 -0.099449 -0.400945 0.378676 -0.429029 0.118520 -0.251195 0.204045 0.218032 0.356824 0.012479 -0.693227 0.367799 -0.207336 -0.426124 0.198307 -0.386338 0.076915 0.574614 0.186154 -0.328322 -0.181145 0.005179 0.183872 0.278278 -0.180626 -0.178823 -0.003966 0.284619 0.493167 -0.590326 -0.149935 -0.066206 -0.219879 -0.027334 0.237946 0.154064 0.693942 -0.196698 -0.002143 0.220366 -0.172241 0.251408 -0.437330 -0.059623 0.116702 0.334386 0.217429 0.649709 -0.280575 0.506805 -0.116306 -0.103755 0.179481 -0.055877 0.618559 0.330699 0.001094 0.058623 0.294312 0.464481 0.437609 0.416006 -0.356569 -0.003594 -0.251222 0.207862 -0.325198 0.265961 0.281329 -0.687940 -0.474390 0.569454 -0.573892 -0.024609 -0.394277 -0.504875 -0.396175 0.048908 -0.238636 -0.355234 -0.096840 -0.404585 0.583786 0.109653 0.067331 -0.830559 0.525019 -0.003374 0.047283 0.155545 -0.164180 -0.701052 -0.169191 0.197038 0.252031 -0.017606 0.378248 -0.264001 -0.669421 -0.214805 0.327870 0.258499 -0.401600 0.024924 -0.021663 -0.308734 -0.022504 0.187888 -0.029026 0.338077 0.064957 0.334621 0.359532 0.250549 0.019751
H191 -0.065995 0.040612 -0.265192 0.382711 0.216999 -0.219230 0.481017 0.497951 -0.186371 0.299120 -0.092092 0.216307 0.016113 0.097023 -0.254470 -0.212082 -0.004474 -0.051127 0.161198 -0.023794 0.164183 -0.577889 -0.379080 -0.102941 -0.126864 -0.142200 0.317959 0.689006 -0.233673 -0.061687 0.415461 0.020848 -0.089413 -0.712260 0.657106 -0.154138 0.248979 -0.504232 0.134952 -0.308930 0.253176 0.189846 -0.034571 -0.028366 0.345478 -0.116631 0.542293 0.747319 -0.038030 0.030044 -0.190867 0.292203 -0.625165 -0.081722 0.209742 -0.104206 0.244074 0.012145 0.113262 -0.001180 0.071615 0.017022 0.075035 -0.416569 0.253684 0.424271 -0.268228 -0.033074 0.097305 0.003405 0.291132 0.618998 0.312717 0.161617 0.434549 0.089775 -0.006784 0.034401 0.622642 -0.027799 -0.026294 0.313573 -0.618237 -0.139353 0.607500 -0.395279 -0.058676 0.245758 0.338410 -0.622184 -0.645515 -0.118272 -0.330629 0.198537 -0.449598 0.332071 0.349480 0.359334 -0.434801 0.205993 0.303142 -0.458594 0.317608 -0.120371 -0.266573 -0.773662 -0.151188 0.159275 0.231914 -0.019264 0.089939 -0.789764 0.358997 -0.358529 -0.541901 -0.135091 -0.306132 0.137204 0.345036 -0.422237 0.340202 -0.057379 -0.080766 -0.227959 0.022216 0.595396 0.382252 -0.348284
H149 0.295761 0.073599 0.016622 -0.383893 -0.252393 0.407552 0.336111 0.231666 -0.142588 0.003295 0.031504 0.236979 0.010304 -0.252241 0.465144 0.164345 -0.116291 0.172262 -0.378329 -0.073105 -0.349939 -0.001976 -0.202050 0.121502 0.050833 -0.040700 -0.369139 0.242923 -0.046196 -0.039163 0.440595 0.338078 -0.336762 -0.587347 0.671303 -0.135281 0.431061 -0.404448 0.366065 -0.199311 -0.448969 0.069520 0.049717 0.467282 0.022355 -0.013888 -0.165141 0.841106 0.656289 0.531849 -0.005118 0.262179 -0.019539 0.543003 0.694473 -0.301909 0.324633 0.435472 0.101651 0.339132 0.575240 -0.330966 0.382600 -0.177145 0.323316 0.283904 -0.132811 -0.478474 0.537946 0.289405 0.276092 -0.294398 0.379089 0.083952 0.533225 -0.355053 -0.194864 0.213391 0.281051 0.099845 0.231925 -0.262470 -0.808451 -0.290830 0.243907 0.186124 0.320921 -0.279241 -0.339042 -0.420688 -0.164676 0.051831 0.051027 0.047281 -0.683965 -0.120103 0.279504 0.318415 -0.500201 -0.066816 0.686410 0.207187 0.014923 -0.277467 -0.480156 -0.312159 -0.360097 -0.581103 0.455982 -0.088569 0.007044 -0.306043 -0.232218 0.021201 0.288060 -0.239190 -0.461424 0.087625 0.399147 0.220674 -0.369922 0.057853 0.232039 -0.019123 -0.002517 0.520107 0.388244 -0.047926
H87 0.474382 -0.369531 -0.010523 -0.075744 0.084898 0.215184 0.251127 0.216011 -0.345740 -0.104616 -0.572714 -0.280704 -0.559742 -0.414581 0.306693 -0.066102 0.460566 -0.053061 -0.066319 0.390078 -0.248458 0.301948 -0.632276 -0.000115 0.156723 -0.259429 -0.479362 0.172279 -0.220090 -0.062485 0.337116 0.140637 -0.697219 -0.250140 0.723144 -0.120048 0.123062 -0.255454 -0.133369 0.453019 0.397194 0.065863 -0.043789 0.128348 0.161051 -0.448555 -0.311806 0.644597 0.068775 0.124927 -0.095464 0.622234 -0.082697 0.236987 0.074600 -0.040587 0.065739 -0.079437 0.320460 -0.507970 0.316277 0.031909 0.260479 -0.693686 0.195518 0.079095 -0.184669 0.129545 -0.206820 0.159033 0.176685 0.280518 0.699929 0.523325 0.086685 -0.471415 0.063348 -0.239234 0.619037 0.019979 0.011330 -0.076216 -0.583776 -0.229327 0.324370 -0.425923 0.322290 0.050824 -0.189448 0.046859 -0.353881 0.152704 -0.428446 -0.142874 0.153564 -0.279581 -0.194867 -0.225299 -0.260143 -0.456649 0.311399 -0.339165 0.180300 -0.168910 -0.240480 0.036194 -0.373247 -0.403464 -0.226997 -0.316437 0.246529 -0.540426 -0.068268 0.288957 0.240978 0.425237 0.683247 -0.163678 -0.094606 -0.384620 0.058655 -0.184009 -0.403870 0.299801 0.459545 0.653568 0.033697 0.127764
H89 0.256872 0.035611 -0.252954 0.043845 0.105924 -0.030452 0.217363 0.119209 -0.548892 -0.408422 0.192546 0.257929 0.054654 -0.311970 0.594429 0.438626 0.006648 -0.071749 -0.164290 0.354247 -0.032869 -0.379008 -0.289586 -0.541247 0.431878 0.367112 0.279839 0.581153 -0.241123 -0.220859 0.001202 0.009592 0.042786 -0.350796 0.707773 -0.044757 0.480725 0.190779 0.084867 0.087636 0.075186 0.387873 -0.057867 0.376839 -0.240812 -0.582186 0.130887 0.506982 0.306832 0.332859 0.116228 0.579469 -0.339275 0.565305 0.018187 -0.149614 -0.122699 0.336577 0.442143 -0.412241 0.400443 0.336536 0.183051 -0.579738 0.059333 -0.138181 -0.085597 0.119992 0.663097 -0.086378 0.224166 0.466068 0.495522 0.170256 0.229019 0.226836 -0.011773 -0.854923 0.602782 -0.404540 0.154705 0.166559 -0.265197 0.024018 0.136221 -0.464257 -0.464424 -0.281113 -0.459989 -0.377849 -0.632793 -0.402099 0.588824 -0.348033 0.021894 -0.281465 0.496169 -0.283541 0.038423 -0.044685 0.289471 -0.192303 -0.060721 0.393989 -0.601842 0.144918 0.064376 -0.301806 -0.118250 0.335134 -0.136924 -0.414026 0.259882 -0.261902 0.095678 0.132627 0.393691 -0.289017 -0.101695 -0.052046 0.042024 0.142106 0.460133 -0.272728 -0.040157 0.164855 0.061068 0.295194
H106 0.080787 0.198442 -0.223330 0.151495 0.072915 -0.412475 0.042089 -0.145381 -0.039731 0.326483 -0.370110 -0.039342 0.236967 -0.511707 -0.457443 0.932138 0.352835 -0.614105 0.105447 0.367704 -0.545595 0.305740 -0.508655 -0.198625 0.719439 0.091515 -0.532272 0.594476 0.086232 -0.483566 -0.118905 0.068479 -0.138221 -0.705368 0.593694 -0.060158 0.176879 -0.681405 -0.301477 -0.372331 -0.130535 0.213262 -0.089707 0.574306 0.211995 -0.251388 -0.341781 0.297055 -0.147518 0.599666 -0.611421 0.271186 -0.715685 -0.292076 0.210665 0.096187 -0.228868 0.172048 -0.186602 -0.217900 0.593895 0.187385 0.182532 -0.234969 -0.237718 0.285179 -0.399669 0.141410 0.629895 0.037642 0.760370 0.420235 0.279976 0.421448 0.833020 -0.427755 -0.184780 -0.191045 0.196252 -0.097110 0.500561 -0.376840 -0.632472 -0.446434 0.264030 -0.761622 -0.089314 -0.424944 -0.093876 -0.233193 -0.714968 0.215600 -0.122454 0.334726 0.241310 -0.152685 -0.318338 -0.429379 -0.212384 0.627035 0.137139 0.210882 0.475952 -0.013775 -0.523693 0.028410 -0.893018 0.266786 0.112174 0.451516 0.025602 0.006753 0.091803 0.201177 0.242645 -0.109849 0.413977 -0.271854 0.312276 0.298714 -0.121697 -0.053227 0.160420 -0.491736 0.513302 0.149636 0.428649 -0.346058
H20 -0.348136 -0.197041 -0.267936 0.540111 0.186366 -0.144526 0.580535 -0.149632 0.117065 -0.117431 -0.277038 0.040026 0.047595 -0.050161 0.164775 0.322927 -0.663067 0.412245 0.007388 0.113322 -0.687645 -0.695645 -0.443476 -0.686489 0.135683 -0.443039 -0.164033 0.253655 0.295598 0.056550 0.030509 0.002097 0.280394 -0.714487 -0.008519 -0.413706 0.369681 -0.443246 -0.347016 -0.106116 -0.452880 -0.116072 -0.458161 0.224174 -0.060753 -0.689323 0.001542 0.920456 0.123822 0.575231 0.318540 0.668872 -0.321526 0.317605 0.141730 -0.008733 0.460690 0.022716 0.341870 0.337416 0.076966 0.178889 0.749693 -0.444088 -0.042657 -0.354673 -0.084338 0.046290 0.401369 0.682362 -0.358477 0.626556 0.098088 0.545093 0.739339 -0.383893 -0.087549 0.125078 0.344267 0.097454 0.591748 0.180161 -1.056561 -0.604138 0.444592 -0.748624 -0.061235 -0.227314 -0.034509 -0.252520 0.041855 -0.241446 -0.597616 -0.126926 -0.071304 0.004919 -0.215685 0.051476 -0.096212 -0.051853 -0.054795 -0.028311 0.052206 0.390029 -0.630295 0.186330 -0.458817 -0.251742 0.039926 -0.055006 0.141140 -0.306165 0.339617 -0.194150 0.549731 -0.172575 -0.275599 0.118668 0.388332 -0.257361 0.214491 0.609294 0.056837 0.243946 -0.125076 0.366306 0.362063 -0.109517
H1 -0.145202 0.153684 -0.339334 -0.033290 -0.129327 -0.257708 0.207317 0.402289 -0.527895 0.723820 -0.194414 -0.005120 -0.574422 0.139184 0.227507 0.034674 -0.686341 -0.121362 -0.370128 0.663226 -0.544808 -0.030216 -0.600903 -0.074380 -0.219252 0.037698 0.209058 0.166009 0.297538 -0.026526 0.558963 0.383606 -0.445802 -1.073537 0.046265 0.009607 0.665529 0.318494 -0.052869 -0.101676 -0.107441 0.184430 -0.724260 0.413468 0.234895 -0.158491 -0.194033 0.723002 0.039838 0.771435 -0.082084 0.082020 -0.484254 0.179739 0.005616 -0.450982 0.223121 0.470636 -0.136337 -0.670010 0.449280 0.298525 -0.204280 -0.164427 0.276026 0.334957 0.237200 0.099105 0.430631 -0.239351 -0.410388 0.281169 0.403435 0.350244 0.617832 -0.300602 -0.247280 0.161229 0.447070 -0.471400 0.339875 -0.508022 -0.398344 -0.364803 0.227697 -0.334337 0.231049 0.240544 0.130087 -0.021790 -0.469568 0.026507 -0.122836 -0.152570 0.164518 0.246371 0.439734 0.149296 -0.347526 -0.027821 0.223039 0.401331 0.453670 -0.359023 -0.598430 0.212184 0.225715 -0.403347 0.376823 0.147125 -0.268801 -0.304710 0.254424 0.010691 -0.082609 -0.103337 0.521499 -0.113198 -0.332313 -0.083305 0.310674 0.558057 -0.339749 -0.387612 0.459437 0.464127 0.591535 -0.086093
H165 0.407095 -0.170910 -0.105257 0.029544 -0.385582 0.293795 0.215049 0.612044 -0.542511 0.084161 -0.139807 0.197849 -0.138320 0.626867 -0.285182 0.260891 -0.173885 0.432140 0.300335 0.453979 0.216615 -0.065206 -0.295234 -0.173554 0.092994 0.024851 -0.039299 0.454063 -0.668767 -0.181992 0.115836 0.064860 0.000178 -1.018437 0.348452 -0.102691 0.034456 0.092103 0.296947 0.174975 -0.121507 0.297444 -0.009475 0.411334 -0.398380 -0.580480 0.399666 0.668138 0.204478 1.011560 -0.215911 0.701605 -0.748315 0.336690 0.164041 0.257681 -0.119995 -0.423936 -0.231330 -0.474784 0.352445 -0.029776 0.716050 -0.070906 0.017005 0.564269 -0.666907 -0.380611 0.136611 -0.101298 0.273064 0.681032 0.040929 -0.258181 0.602921 -0.599670 0.178411 0.311807 0.390675 -0.588949 0.033102 0.366060 -0.546889 -0.682297 0.509279 -0.272084 0.194792 -0.721251 -0.383606 -0.253593 -0.224145 -0.310032 -0.159292 -0.325294 -0.109970 0.163946 -0.029874 -0.207948 -1.019656 0.380742 0.577663 0.035447 -0.404982 -0.118334 0.077335 -0.136171 -0.233548 -0.469413 -0.176065 0.456865 0.016692 -0.455090 -0.328106 0.661884 -0.415177 0.037049 0.170500 -0.200197 -0.136702 -0.379758 -0.646076 -0.458836 0.020305 -0.144124 0.278581 0.157644 0.330607 0.401569
H111 -0.041648 0.290795 -0.118874 -0.136532 0.455723 0.219343 0.331152 -0.205544 -0.817421 -0.203698 -0.424167 -0.100968 -0.466036 -0.317498 -0.030611 -0.457458 -0.341715 0.050263 -0.212302 0.088666 0.057894 -0.093204 -0.366205 -0.470601 -0.395516 -0.187932 -0.341454 0.326918 -0.424466 -0.048420 0.476081 -0.025717 0.593527 -0.611247 0.222415 -0.036580 0.295935 0.324647 -0.196527 -0.259064 -0.265179 0.514266 -0.335160 0.579103 -0.040589 -0.384051 0.306462 0.531148 0.819833 0.419940 0.161240 0.452827 -0.650181 0.042357 0.267672 -0.348270 -0.347279 -0.353646 0.206361 -0.103316 0.345031 0.489569 0.135831 -0.478103 0.014983 0.449309 -0.086259 0.152116 0.597552 0.409648 0.288250 -0.143026 -0.036784 0.551096 0.982095 -0.009295 0.409181 -0.310041 0.507332 -0.218982 0.630573 0.294565 -0.062710 -1.223473 0.596399 -0.656442 -0.112269 -0.330735 -0.090460 -0.118871 -0.349398 0.091041 -0.088895 -0.465005 0.040369 -0.252110 0.397984 0.353426 -0.577983 -0.825460 0.295800 -0.215240 0.055422 -0.466406 -0.244154 -0.300362 -0.095666 0.200684 0.596815 0.519122 0.002035 -0.371464 0.000486 -0.017696 -0.266551 -0.231655 -0.154038 0.140491 0.149148 0.161210 0.115763 0.167726 -0.830731 0.475536 0.098562 0.952519 0.203485 -0.219851
H25 -0.249677 0.048601 0.366301 -0.077189 0.105777 -0.493130 0.045356 -0.019542 -0.560001 -0.095407 0.201222 0.117497 -0.388585 -0.419314 -0.273461 0.179863 0.181227 0.423036 0.340241 0.058081 0.163511 0.090500 -0.188684 -0.611173 0.174468 -0.283310 -0.155642 0.094368 -0.125946 -0.277613 0.445430 0.440762 -0.599344 -0.691294 -0.015101 0.092609 0.069604 -0.676319 0.346562 -0.152842 -0.322414 -0.356086 0.255533 0.843291 0.657730 0.063359 0.078677 0.608913 0.052352 0.738750 0.222974 -0.090841 -0.734399 0.293237 0.522240 0.120669 0.705424 -0.158247 0.044986 -0.180523 0.296945 -0.293819 0.415516 -0.829056 0.062689 0.358668 -0.249636 0.246803 0.183323 -0.053617 0.163755 0.138337 0.251966 -0.196442 0.674732 0.287969 -0.051224 -0.240777 0.541383 -0.291205 0.504982 -0.104291 -0.614982 -0.581757 0.591989 -0.208506 0.164871 -0.033132 -0.272959 0.182813 -0.150029 -0.336490 -0.028467 -0.438335 -0.086375 0.044790 -0.449840 -0.147880 -0.530264 -0.261591 0.611796 0.492817 0.373782 0.014679 -0.550667 -0.048747 -0.298996 -0.371003 0.001374 0.414175 0.079742 -0.144116 0.399490 0.080864 -0.279112 -0.487144 0.496814 0.292628 0.092514 -0.123329 0.376962 0.069608 -0.318566 -0.008119 0.421481 -0.034753 -0.142199 -0.175278
H211 -0.530348 -0.118800 -0.129065 -0.090658 -0.247217 -0.019741 0.391682 0.522175 -0.563132 0.137327 -0.182284 -0.292411 -0.234597 0.041475 -0.346163 0.656223 0.003708 -0.133508 -0.089791 -0.064371 -0.229686 0.167592 0.090584 -0.047622 0.525882 0.403361 -0.133318 0.262337 0.121823 0.263765 0.225468 -0.361225 -0.219877 -0.676927 0.285047 -0.018292 0.434016 -0.475360 -0.023715 0.390567 -0.062506 0.171215 -0.496997 0.382119 0.132418 -0.580114 0.573126 0.493816 0.040266 0.046495 0.200114 0.373645 -0.441392 -0.083651 0.026900 -0.705858 0.462721 0.062381 0.305063 0.088299 0.168228 -0.375701 0.518611 -0.212899 -0.166185 0.286126 -0.051017 0.428470 -0.101838 0.160850 0.141903 0.307335 0.093278 -0.008745 0.164364 -0.830458 -0.291677 0.265536 0.407380 0.485911 -0.086022 0.140963 -0.177249 -0.645945 0.417000 -0.251287 -0.133201 -0.198954 0.112745 -0.362932 -0.678931 0.170716 0.059602 -0.469851 -0.169911 -0.337806 0.171071 -0.233367 -0.364633 -0.174651 0.492342 -0.100117 0.158352 -0.338446 -0.539979 0.150946 -0.516331 0.034611 0.581148 0.596512 0.209653 0.034961 -0.204646 -0.126445 -0.291994 -0.265566 0.417201 0.037474 0.151713 0.392274 -0.536304 0.154235 -0.352785 0.156906 0.146742 -0.100542 0.322510 0.293038
H200 0.355312 -0.032474 -0.512397 0.561019 -0.136471 -0.080658 0.103012 0.023553 0.181628 0.252246 -0.372360 0.101183 -0.655140 -0.217051 -0.012562 0.780687 0.038786 -0.084028 0.122303 0.050402 -0.446977 0.287463 -0.502829 -0.359916 -0.172759 0.352674 0.102999 -0.124355 -0.640263 0.025375 0.076433 -0.241629 -0.346147 -0.684679 -0.049355 0.116973 0.505979 -0.283443 0.122398 0.143413 -0.266210 0.781480 -0.401767 0.289222 -0.029344 -0.722486 -0.521002 0.504978 0.469396 0.737523 0.295209 0.026093 -0.771092 -0.227229 0.381735 -0.222622 0.392292 -0.009900 0.591815 0.222942 0.797618 -0.052747 -0.085099 -0.292707 -0.171259 0.154634 0.298104 0.190152 0.250190 0.593520 0.460199 0.198011 0.923510 0.531822 0.742665 0.226225 0.029829 0.399250 0.583773 -0.236859 -0.165508 0.400194 -0.535357 -0.553288 0.931689 -0.419668 -0.285999 -0.222232 -0.577796 -0.844948 -0.307254 0.394871 -0.367123 -0.823919 0.122812 0.028669 -0.138483 -0.312941 -0.629555 0.162809 0.836936 0.244277 0.289076 0.394205 -0.371004 0.275010 -0.216141 -0.469125 0.251866 0.610310 -0.342690 -0.295338 -0.125615 0.026604 -0.058279 0.530243 -0.508353 0.131240 0.204934 0.199085 0.488510 -0.098450 -0.362167 0.262911 0.122393 0.455196 -0.038570 0.229195
H22 -0.342029 -0.109575 0.361823 0.070982 -0.145460 -0.202421 -0.025560 0.234155 -0.359391 -0.045209 0.263711 0.268992 -0.362547 -0.052391 -0.114369 0.104781 0.467992 0.203022 0.481355 -0.112001 0.308784 0.281454 -0.324523 -0.783779 0.496563 -0.073230 0.149924 0.401606 -0.303935 -0.450854 0.467873 0.629162 -0.676086 -0.499714 0.242892 0.187365 0.022996 -0.366910 0.202069 -0.358618 -0.123038 -0.127310 0.292805 0.700085 0.467841 -0.394676 0.016968 0.828296 0.488381 0.375584 0.033598 -0.178998 -0.536580 0.217925 0.599750 -0.021984 0.440728 -0.180498 -0.150258 -0.159327 0.181251 -0.267679 0.375536 -0.710963 0.329242 0.371033 -0.333588 0.072805 0.191316 -0.189491 0.226540 0.452948 0.310107 -0.220168 0.506151 0.262124 -0.334594 -0.223248 0.789145 0.052980 0.475168 0.223959 -0.666303 -0.509599 0.033764 -0.074944 0.120709 0.126786 -0.241083 0.121697 -0.098895 -0.039593 0.035854 -0.499828 -0.056365 0.100759 -0.487941 0.103154 -0.781497 0.018428 0.397150 0.587320 0.264309 -0.010536 -0.414867 0.010402 -0.224744 -0.114340 0.473788 0.598246 0.154367 -0.316900 0.378477 0.388920 -0.220413 -0.224204 0.826634 0.009815 0.135894 0.071939 -0.030706 0.188405 -0.336617 0.000054 0.520446 0.346926 -0.321376 -0.211199
H126 0.723821 -0.065165 0.041120 0.057901 0.272588 -0.123969 0.130174 0.150534 -0.375977 -0.305837 -0.431698 -0.106220 -0.436228 -0.274976 0.132111 0.116602 0.371343 -0.224833 -0.270398 0.315307 -0.407999 -0.004882 -0.482541 -0.344842 -0.192585 -0.135637 -0.618656 0.488272 -0.032914 0.142401 0.278539 0.274723 -0.452577 -0.292739 0.131580 -0.031418 0.500510 -0.116975 -0.043305 0.517720 -0.014189 0.443762 0.320420 0.006997 0.127529 -0.455850 -0.349346 0.709372 0.414481 -0.086267 0.181793 0.785014 -0.478399 0.681968 0.144839 0.127579 -0.304108 0.157441 0.597292 0.014941 0.053857 0.057087 0.139430 -0.957564 0.133255 0.317782 -0.353983 0.097999 -0.270411 0.282789 0.054287 0.726031 0.425485 0.590392 0.250748 -0.596783 -0.105649 -0.412076 0.565790 0.040795 -0.209181 -0.229888 -0.888629 -0.140658 0.019731 -0.327863 -0.131914 -0.119654 -0.084994 0.179310 -0.091053 -0.092793 -0.308767 -0.204657 -0.271153 -0.317614 -0.173336 -0.320690 -0.288260 -0.038494 0.058548 -0.413577 -0.005191 -0.122805 -0.544935 -0.183151 -0.350019 0.163304 -0.292947 0.041561 -0.169797 -0.358495 0.135917 0.030232 -0.062658 0.263832 0.492498 -0.229084 0.247225 -0.338417 -0.424528 -0.187796 -0.472633 0.163841 0.446860 0.057436 -0.215245 -0.247006
H71 -0.609420 0.489733 -0.299401 0.328406 0.023583 -0.196758 0.424178 -0.100717 0.066770 0.178662 0.292014 0.110529 -0.262722 -0.133448 -0.521091 0.308921 -0.597194 -0.155881 0.364788 0.388551 -0.448533 0.087515 0.008842 -0.039411 0.499172 -0.808273 -0.063690 0.778015 0.075081 -0.356535 0.544677 0.066461 -0.547852 -0.438642 0.880125 -0.626940 0.334923 0.029675 -0.484882 -0.240257 0.219091 0.235100 0.203610 0.684911 0.107918 -0.828936 0.362624 1.213310 0.222528 -0.035698 -0.303231 0.550091 -0.276848 -0.069005 0.748443 -0.388194 0.299085 0.242182 0.337767 0.049121 0.938075 0.296197 0.144129 -0.102297 0.496348 0.169948 -0.284737 0.065751 -0.180734 0.551375 -0.562794 0.019581 0.756693 0.461479 0.763917 -0.224915 0.084499 -0.388124 0.912967 0.304348 0.290189 0.290758 -0.275097 -0.758270 0.242833 -0.284760 -0.165582 -0.507293 -0.600408 -0.302953 -0.127400 0.194868 0.691900 -0.107752 0.510441 -0.230185 0.076056 0.360606 -0.399199 -0.182317 -0.216582 -0.363198 0.075309 -0.660486 -1.078987 -0.086400 -0.556571 0.119319 0.152380 0.152048 -0.444409 -0.363210 0.154082 0.081922 0.055181 -0.333702 0.045742 -0.278958 0.514121 -0.229620 0.375415 0.140907 -0.304756 0.350097 0.573064 0.413052 0.394348 0.576245
H33 -0.652210 -0.404858 -0.407628 -0.311563 -0.188966 -0.323666 0.194879 -0.036694 -0.751519 -0.355808 -0.701314 0.142940 -0.321392 -0.408867 -0.179012 0.183174 -0.481670 0.242312 -0.379870 0.214599 -0.479349 0.357224 0.334598 -0.348982 0.053809 -0.003910 0.234490 0.085608 -0.248650 -0.160064 0.121340 -0.017907 0.074160 -0.464794 1.231271 -0.044653 0.670978 -0.030644 0.196345 0.999000 0.108879 0.229795 -0.529801 0.243338 0.164828 -1.079550 0.202141 0.814030 1.340573 0.536967 0.211986 0.707873 -0.618084 -0.000681 0.285512 -0.254725 0.125788 0.276506 0.151246 -0.223504 -0.049919 -0.061606 0.250327 -0.121792 0.455758 0.173109 -0.326978 0.809636 1.030985 0.217997 0.493509 0.318343 0.588702 -0.252469 1.285012 -0.571527 -0.460479 0.324379 0.330378 -0.164849 0.436347 0.495836 -0.406683 -0.466768 -0.101168 -0.866634 0.392886 -0.374797 0.375224 -0.386296 -0.198230 0.225473 -0.250358 -0.689923 0.073753 0.137781 -0.131173 0.395189 -1.117488 0.078339 0.657188 0.326823 -0.067938 0.009347 -0.226166 0.367342 -0.152273 0.158240 -0.095578 0.123082 0.639527 -0.696372 0.297587 0.101062 0.511903 -0.403266 0.391097 -0.535110 0.081139 -0.484871 -0.134915 0.436145 0.355858 0.050261 0.677722 0.070444 0.029081 -0.495959
H30 -0.176739 0.312515 -0.042664 0.211842 0.472412 0.058253 0.105442 0.176039 -0.338634 0.295684 -0.141850 0.532331 0.019493 -0.321277 -0.181389 0.094005 0.151261 0.175792 0.111895 -0.108415 0.338274 0.098775 -0.249034 -0.436234 0.351303 -0.571797 0.046719 0.314958 0.690792 -0.188629 0.026500 0.131452 -0.120117 -0.392466 0.502344 0.242374 1.146786 -0.115819 -0.362859 -0.016485 0.005475 0.409870 -0.635701 -0.011399 -0.078464 -0.799961 -0.047736 0.982471 0.495764 0.359331 0.402853 0.293822 -0.392249 0.230764 -0.112463 0.313711 -0.025900 -0.350654 0.510035 0.009828 0.742299 -0.537376 0.648906 -0.655247 0.593366 0.177380 0.010994 0.482856 0.735075 -0.431264 0.738517 0.143282 0.387616 0.201990 0.157981 0.322975 0.639209 0.331126 0.527682 -0.513951 0.077738 -0.282340 -0.650987 -0.830200 0.353364 -0.055594 0.050246 0.569057 0.047782 -0.644195 0.073710 -0.032211 0.195673 -0.394022 0.128003 -0.016884 -0.430188 0.277870 -0.856834 0.310783 0.433274 -0.523990 -0.167061 -0.276491 -0.522902 -0.218127 -0.942882 -0.079180 0.359961 0.103424 -0.000324 -0.239150 0.036379 0.135396 0.239647 -0.631248 0.283826 -0.082514 0.543467 -0.318514 -0.085584 0.139080 0.435462 0.224994 0.097026 1.103148 0.151118 -0.479219
H24 -0.075182 0.138164 0.400697 0.377888 0.048989 -0.285494 0.218420 0.042517 -0.246959 0.273265 0.343350 0.245674 -0.479803 -0.098124 -0.066985 0.277132 0.389428 0.150113 0.429709 0.147437 0.177248 0.148132 -0.467737 -0.701079 0.540529 0.161524 -0.091077 0.080992 -0.300402 -0.496662 0.607927 0.171901 -0.485056 -0.357123 0.293231 0.173071 0.072717 -0.033589 0.123915 -0.584508 0.000388 -0.192199 -0.030858 1.032590 0.166798 -0.445315 0.022310 0.611938 0.481151 0.640005 0.082263 -0.334015 -0.795889 0.323035 0.752052 -0.059018 0.503385 0.157661 -0.223051 0.018385 0.257486 0.183894 0.626433 -0.647900 0.443089 0.413987 -0.113028 0.364039 0.039376 -0.072462 0.372223 0.624931 0.506110 -0.297044 0.626383 0.092705 -0.353973 0.132400 0.695152 -0.146038 0.005649 0.214679 -0.322020 -0.737440 0.197779 -0.123568 0.271980 0.158668 -0.270989 0.283132 -0.020645 -0.175163 0.213536 -0.283189 -0.073177 0.309118 -0.367283 0.230039 -0.748305 0.368735 0.354345 0.612807 0.355267 0.006987 -0.339392 -0.376462 -0.113138 -0.199177 0.501949 0.331049 0.170875 -0.245886 0.473951 0.216711 0.033915 -0.098852 0.706303 0.430527 0.207401 0.040306 0.097247 -0.116034 -0.801326 -0.132733 0.390881 0.436061 -0.229877 -0.189118
H147 -0.030321 0.033751 -0.025582 0.555981 -0.076972 0.270598 0.243770 0.279937 -0.945914 0.085464 -0.032428 -0.387071 -0.543309 -0.313240 -0.132342 0.638400 -0.580138 0.593555 -0.679916 1.100839 -0.645306 0.153587 -0.390153 0.094143 -0.508188 -0.119177 -0.275147 0.030405 0.431855 -0.017958 0.404272 0.038754 -0.065349 -0.788739 0.335824 -0.056938 0.749481 -0.232190 0.140608 -0.174435 0.024667 0.367990 -0.296467 0.356747 0.333271 -0.196899 -0.198377 0.239944 -0.375999 0.393157 -0.030665 1.048701 -0.222580 0.279749 1.192003 0.045239 0.210560 0.045005 0.226688 -0.118847 -0.052009 -0.075860 0.161630 -0.461652 0.773550 0.561617 -0.158764 0.168845 0.063978 -0.134447 0.040379 0.489249 0.530977 0.060362 0.565265 0.314884 -0.236309 -0.440488 0.075633 0.033711 -0.188946 0.348383 -0.243462 -0.779351 0.387275 -0.460290 0.019212 -0.189883 -0.414741 -1.043621 -0.400914 -0.370347 -0.139455 0.007209 -0.002011 0.248264 0.315697 0.080278 -0.228999 0.311397 0.487005 -0.422943 0.931952 -0.445964 -0.846770 -0.858527 -0.304451 -0.178548 0.325158 0.128663 0.015286 -0.285132 0.020496 0.683703 -0.268081 0.538376 -0.244276 -0.392754 0.074320 0.098490 -0.440777 0.233607 -0.077910 0.493043 0.736753 0.363678 0.542325 -0.238275
H210 -0.480062 -0.443253 0.060900 -0.098401 -0.378376 0.080582 0.509665 0.123511 -0.249299 0.025383 -0.179027 0.071365 -0.402268 0.260316 -0.347115 0.657499 -0.258504 0.188250 -0.097110 0.048391 -0.140057 0.232068 -0.203822 0.010587 0.334899 0.490631 -0.006146 0.358125 0.120682 0.537596 -0.015110 -0.084406 -0.149141 -0.810669 0.353825 0.198791 0.327646 -0.568262 0.248838 0.063785 -0.146965 0.405259 -0.500054 0.235683 0.027023 -0.819424 0.473514 0.726266 -0.027557 0.042158 0.607818 0.684122 -0.302505 -0.037889 0.154910 -0.785450 0.406890 0.018435 0.158239 0.046448 0.087120 -0.162675 0.410506 -0.444234 0.086488 0.477465 -0.334513 0.260413 -0.210117 -0.216186 0.353908 -0.018709 0.345396 -0.449385 -0.111699 -0.581042 -0.017931 0.273729 0.300956 0.402984 -0.268405 0.070605 -0.725686 -0.256012 0.626804 -0.192210 -0.076201 -0.180602 -0.090979 -0.305578 -0.505126 0.049854 0.172047 -0.694683 0.023428 -0.168956 0.540325 0.286654 -0.515010 -0.408858 -0.040777 -0.185058 0.256404 -0.027451 -0.638296 0.147105 -0.150714 0.150940 0.642042 0.444614 -0.244215 -0.233875 -0.217408 0.277347 0.019753 -0.287929 0.443097 0.397475 -0.094751 0.191967 -0.628542 0.614822 0.192424 -0.157422 0.683703 0.144839 0.383870 -0.039517
H101 0.444022 0.187665 -0.624671 -0.143097 -0.073659 0.167799 0.414117 0.165417 -0.197446 -0.284594 0.217355 0.216775 0.147605 -0.309006 0.208918 0.198429 -0.404565 0.185386 -0.341240 0.472469 -0.420082 -0.084533 -0.286932 0.177559 0.609843 -0.173009 -0.397968 0.307841 0.665649 -0.136811 0.236567 -0.027871 -0.473568 -0.511825 0.423482 0.306540 0.405388 -0.390929 -0.068970 0.584655 0.043114 0.130623 0.470873 0.161875 0.453195 -0.387035 -0.336266 0.076802 0.299662 0.455763 -0.397831 -0.042729 -0.299268 0.042713 -0.101728 0.010006 0.394249 0.456448 0.319427 -0.418110 0.310505 0.130606 0.124503 -0.631350 0.545492 0.049776 -0.263189 -0.045099 0.228214 0.025642 -0.224301 0.462905 0.504362 -0.043982 -0.200514 0.079100 0.064888 -0.176494 0.571998 -0.267879 -0.037089 0.231069 -0.700127 -0.010065 0.235251 -0.418351 0.103295 -0.209802 -0.359851 -0.276752 -0.608389 -0.068202 -0.085547 -0.518896 0.467208 -0.118396 0.256175 -0.541677 -0.390660 0.608706 0.132057 -0.426423 -0.000729 -0.011136 -0.203060 0.065485 -0.108852 -0.346774 -0.448490 0.056978 -0.223409 -0.418745 0.161221 0.009290 0.186823 -0.141023 0.521049 -0.085474 -0.086592 -0.280663 -0.143935 -0.202794 -0.154094 0.364584 0.250456 0.406168 -0.040141 0.047920
H72 -0.450933 -0.183007 0.293858 0.406764 0.282726 0.294272 0.791287 -0.578651 -0.515084 -0.021351 0.090350 0.204182 -0.577565 -0.002999 -0.653108 0.313459 -0.796033 0.293904 0.355145 0.473025 -0.488767 -0.315293 -0.216486 -0.453124 -0.437531 -0.187095 -0.114833 0.687953 -0.685993 -0.174754 1.760468 0.512125 -0.328812 -0.716673 0.155638 0.008600 0.420754 0.154617 0.080507 0.458787 0.072921 0.367166 -0.084494 0.266185 -0.690842 -0.919695 0.134122 0.588826 0.369726 0.041037 -0.045926 0.071056 -0.469157 0.263379 0.733095 -0.201949 0.349479 0.008580 0.408805 -0.394683 0.290065 -0.236884 0.248378 -0.451973 -0.046326 -0.022973 -0.201075 -0.398863 -0.071333 0.816029 0.403483 0.454992 0.158755 0.290946 0.282608 0.139187 -0.258814 0.389001 0.451452 -0.053132 -0.302155 0.100946 -0.899433 -0.262389 0.378985 -0.345429 0.527889 -0.093509 -0.024666 0.175698 -0.377714 -0.029333 -0.031726 -0.231979 -0.098735 0.522455 -0.125253 -0.082695 -0.632063 0.165585 0.635094 0.120597 0.354877 -0.442546 -0.602264 -0.316368 0.219658 -0.879323 0.249389 -0.275093 0.327977 -0.728185 0.301594 -0.116649 -0.026533 -0.423821 0.273436 -0.527525 0.313283 -0.288866 0.099256 0.671560 0.208117 -0.108508 0.584445 0.335349 0.569025 -0.295502
H217 -0.370863 -0.253692 0.113572 -0.054251 -0.385142 0.115825 0.591333 0.011901 -0.145155 0.052376 0.015103 0.255499 -0.344329 0.226149 -0.317631 0.803681 -0.400731 -0.126317 -0.342968 0.089620 -0.387041 0.123901 -0.312742 -0.228948 0.526569 0.304082 0.042654 0.608710 -0.049423 0.173406 0.163002 0.070772 -0.405027 -0.979839 0.870644 0.074903 -0.120319 -0.957595 -0.161499 0.088982 -0.269610 0.491280 -0.187238 0.137779 0.341541 -0.696718 0.108759 0.660189 0.035012 0.304645 0.410999 0.595767 -0.489332 0.127127 0.030413 -0.390606 0.270218 -0.112267 0.135510 -0.175832 0.147153 -0.028993 0.245321 -0.371974 0.022299 0.634189 -0.470864 0.403969 -0.255587 -0.317287 0.624989 0.301759 0.102023 -0.461595 0.129939 -0.633628 0.212778 0.203423 0.469441 0.379566 -0.023681 0.112743 -0.802963 -0.050711 0.446705 -0.036810 -0.128056 -0.362978 -0.045611 -0.209603 -0.612180 -0.385870 0.149639 -0.433091 -0.123152 -0.368560 0.283323 0.370969 -0.740793 -0.034241 -0.261668 -0.000311 -0.003882 0.179013 -0.564935 0.640519 -0.453021 0.179399 0.513237 0.492225 -0.434711 -0.443686 -0.474492 0.313858 -0.234467 -0.134458 0.421436 0.546725 0.025666 -0.168777 -0.697101 0.672248 0.101442 -0.260611 0.513989 -0.029352 0.695088 -0.362008
H92 -0.135037 0.068180 -0.041223 0.094751 0.288365 0.087011 0.240615 0.239615 -0.336446 -0.213515 -0.216512 -0.177292 -0.353935 0.128655 0.102166 0.388081 -0.364351 0.373444 -0.256606 0.485657 -0.016973 0.044884 0.250114 0.390703 -0.148136 0.051187 -0.171934 -0.344007 0.431139 -0.344645 -0.004390 0.203402 -0.151499 -0.367781 0.312955 -0.168417 -0.044953 -0.111672 0.040650 -0.382025 0.375728 -0.048794 -0.433140 0.466838 0.069892 -0.474844 -0.240845 0.604521 0.300195 0.089454 -0.492524 0.379498 -0.326858 0.321548 0.245631 -0.102075 -0.105681 -0.036544 -0.034660 -0.935597 1.004587 0.137718 -0.049491 -1.179847 0.272418 0.116173 -0.289977 -0.150065 0.853538 0.664382 0.104350 0.739882 0.395362 -0.195918 0.497719 -0.157595 0.555419 -0.135443 0.637641 0.001270 -0.035268 0.498861 -0.678551 0.091071 -0.019629 -0.425255 -0.346363 0.198929 -0.256746 -0.688632 -0.099530 -0.106410 -0.448251 -0.428272 0.018704 0.077641 0.218546 0.244969 -0.617223 0.150064 0.175778 -0.190931 -0.357033 -0.474228 -0.252088 0.115638 -0.238096 0.054727 0.142236 0.222422 0.191872 -0.338281 0.003020 -0.039850 -0.076091 -0.433390 0.672618 0.144140 0.081804 -0.148836 -0.139988 -0.307181 0.326089 0.450472 0.089068 0.350370 -0.316728 -0.073621
H56 -0.574526 0.275159 0.281239 0.140049 0.122805 0.197908 1.018570 0.154048 -0.487373 -0.136003 0.073402 0.226391 -0.162369 -0.125088 -0.099174 0.191581 0.002239 0.127808 0.231616 0.830366 0.268691 -0.217200 -0.187654 -0.415452 -0.176512 -0.149213 -0.645229 0.231704 -0.144348 -0.255833 0.619221 -0.385911 -0.016410 -0.485312 0.149741 -0.654692 0.014339 -0.533073 -0.298091 0.170428 0.656193 0.126486 -0.177775 0.436989 -0.372544 -0.375095 0.411754 0.514571 0.746896 0.207643 0.016822 -0.061230 -0.046997 0.346577 -0.248151 0.156578 0.213407 0.376546 0.517933 -0.274531 0.603622 0.238973 0.247606 -0.469262 0.145559 0.678202 -0.065376 0.201743 0.560506 -0.361248 -0.367271 -0.091894 0.230873 -0.007831 0.453653 0.071498 0.083163 0.105471 0.631546 0.075010 0.617671 -0.285324 -1.020998 -0.598141 0.216557 0.013209 0.541146 -0.052781 0.577513 -0.873207 -0.778786 -0.420417 -0.141737 -0.575571 -0.225521 -0.126343 -0.144671 -0.331727 -0.574898 0.437799 0.639131 -0.529703 0.295104 -0.030444 -0.308060 0.158498 -0.022128 -0.415186 0.527036 -0.063341 0.295643 -0.894490 -0.226032 0.257832 0.395806 -0.257251 0.198618 0.180903 -0.247393 0.215410 -0.064346 0.226171 -0.643122 0.509032 0.279347 -0.002150 0.004733 -0.497469
H97 0.198993 -0.310125 -0.374978 0.002686 -0.519137 -0.089743 0.417294 0.402421 -0.133516 -0.105195 -0.279634 0.336842 -0.330286 -0.426884 -0.114269 0.023922 0.163953 -0.390493 0.234767 0.817751 -0.368295 0.152704 -0.318340 -0.035009 0.558960 -0.053771 -0.266392 -0.137300 0.128456 -0.257709 -0.308111 -0.051279 -0.420016 -0.309002 0.193176 0.027754 0.111029 -0.183941 -0.613812 -0.419906 -0.235490 0.146803 0.028461 -0.485244 -0.059389 -0.529567 0.151517 0.717543 0.578162 0.224868 0.226303 0.453346 -0.498825 -0.116188 0.035054 -0.674456 0.727910 0.360308 -0.140437 -0.590327 0.459639 -0.283630 0.342854 -0.292995 -0.142959 -0.357213 -0.241598 0.023137 0.560780 0.391364 0.111788 0.166196 0.207329 0.315303 0.154748 -0.221701 0.471950 0.248932 0.160728 -0.155249 0.091109 0.538522 -0.163903 -0.536595 0.209172 -0.271086 0.120433 0.021550 -0.154125 -0.410354 -0.433375 -0.396641 0.355282 -0.659020 -0.107058 -0.200913 0.211255 0.005561 -0.589239 -0.145519 0.093373 0.283896 0.231655 0.091947 -0.416867 0.001795 -0.034096 0.496652 -0.199000 0.059224 0.380260 -0.432724 0.013598 0.217258 -0.151450 -0.230151 0.203169 -0.445148 0.042862 0.283153 -0.559121 0.092819 -0.481633 0.163692 0.055729 0.427882 0.103712 -0.111627
H13 0.245135 0.224453 -0.307231 -0.240664 0.717163 0.728222 0.641305 -0.153119 -0.460938 0.532798 0.049382 0.135446 -0.534058 0.273435 0.125553 0.574289 0.143769 -0.560428 0.276832 0.808686 -0.350739 0.329657 -0.647506 -0.225086 0.049207 0.640093 -0.665758 0.880124 -0.354456 0.200228 0.675922 0.276631 0.064307 -0.396133 0.301881 -0.138940 0.551272 -0.131432 -0.394232 -0.026803 0.058529 1.340364 -0.732110 0.132676 -0.509104 -0.240978 0.122687 -0.014307 0.121687 0.111860 -0.326362 0.691193 -0.530823 0.460130 0.251224 -0.382348 -0.177043 -0.256509 0.176806 -0.982374 0.853243 0.203572 -0.142719 -0.254112 0.457077 0.518580 -0.170593 0.366670 0.090401 -0.172711 0.080780 0.053363 0.061398 0.393455 0.285120 -0.044787 0.400158 -0.296129 0.831332 -0.268254 -0.362849 -0.252848 -0.321801 -0.495438 0.433847 -0.757319 0.474558 0.168222 -0.330355 -0.761351 -0.638033 0.099716 -0.075570 -0.233339 0.160007 -0.234563 1.016085 -0.372474 -0.155897 0.649306 0.682234 -0.895062 0.098151 -0.172508 -0.438387 0.063729 -0.914156 -0.088457 0.611206 0.084402 -0.397993 -0.485757 -0.299657 0.330422 -0.515617 -0.074228 0.639097 -0.633351 0.289104 -0.134149 -0.573009 0.323324 -0.128783 -0.139358 1.067308 0.629534 0.755909 0.117716
H208 -0.540192 0.122173 -0.005752 0.295940 0.144827 0.059441 0.382093 -0.396174 -0.430353 0.111645 0.149035 0.024574 -0.796327 0.074660 -0.359662 1.160761 -0.950257 0.314200 -0.145008 0.648426 -0.675366 0.068390 0.317016 -1.088084 0.609637 0.121014 -0.279508 0.212990 0.162767 -0.278749 0.286338 0.628757 0.144498 -0.606479 -0.102479 -0.390790 0.649654 0.070450 -0.272549 0.125209 -0.670014 1.136856 -0.331318 0.625679 -0.791253 -0.895397 0.053642 0.584262 0.830787 1.223204 0.739840 0.517803 -0.645175 0.554208 0.112158 -0.770719 0.321541 0.326762 0.305826 -0.075395 0.710321 0.078224 0.428424 -0.200767 0.445152 -0.232664 -0.742020 0.537109 0.256789 0.330329 0.122914 -0.494827 -0.249623 -0.053425 0.981417 -0.563598 0.104274 -0.166122 0.150475 -0.271587 0.775839 -0.478093 -0.390302 -1.374191 -0.004612 -0.107572 0.039133 -0.500169 -0.326503 -0.328640 0.033390 -0.521685 0.373690 -1.135392 0.367623 -0.191870 0.051721 -0.278538 -0.659045 0.373918 0.503628 0.294821 0.091876 -0.407198 -0.781505 0.340594 -0.695552 -0.296285 0.441142 0.988271 -0.632615 -0.051182 -0.129248 0.687968 0.604667 -0.407145 0.277128 -0.031923 0.133994 0.305279 -0.777743 1.107477 -0.037484 0.218152 0.869175 -0.112589 0.657503 -0.056363
H177 0.433224 -0.084327 -0.562035 -0.454625 0.400501 -0.375313 0.555813 -0.388878 -0.698364 0.606057 -0.563277 0.204065 0.262050 -0.292974 -0.597409 0.413495 -0.823236 0.003322 0.620974 0.392460 -0.170382 -0.677640 -0.490199 -0.875525 0.314593 0.394904 -0.173678 0.185589 -0.165728 -0.129366 0.625921 -0.081923 -0.202728 -0.041902 0.505005 -0.449172 -0.065027 0.131203 0.463293 0.482739 0.123603 -0.133811 -0.047035 0.572379 -0.310070 -0.042079 -0.066920 0.700652 0.706044 0.626338 0.273382 0.767308 -0.491602 0.108130 -0.060147 -0.378135 0.539131 0.132308 0.668732 0.208899 0.626702 0.164396 0.093458 -0.002892 -0.084951 0.302426 -0.511065 0.592095 0.578723 0.117321 -0.025618 0.424952 0.062102 -0.099916 0.902727 0.072374 0.530759 -0.621707 0.355363 -0.373654 -0.194388 0.124227 -0.812178 -0.955830 -0.079945 -0.432636 0.109201 0.639465 -0.404834 -0.244305 -0.463730 0.491107 0.012507 -0.434497 -0.133875 0.217407 -0.268753 -0.074456 -0.841052 0.461889 0.583525 -0.392237 0.715400 -0.474864 -0.169626 -0.176837 -0.774167 0.126444 -0.271435 -0.285947 -0.219065 -0.491324 0.471719 0.446644 0.061492 -0.006790 0.321650 0.060509 0.457582 0.232536 -0.178302 -0.075565 -0.384742 -0.086023 0.695502 0.990769 0.100102 0.163424
H194 0.446532 -0.203666 -0.360940 -0.330576 -0.082685 -0.245073 0.464244 0.407284 0.060724 0.904544 -0.052174 -0.165656 0.315477 -0.194035 0.106278 -0.406832 -0.314738 -0.641290 -0.363482 0.068170 -0.332345 -0.469904 -0.648094 0.140558 0.294932 0.092199 -0.250317 0.162531 -0.620539 0.095081 0.857643 0.085001 -0.420332 -0.643824 0.251523 0.273568 0.015251 -0.297304 0.278683 -0.459701 0.016220 -0.020978 -0.382144 0.583925 -0.061315 -0.649291 0.048268 0.321860 0.373075 0.081639 -0.264499 0.037705 -0.777883 0.198708 0.544590 -0.734136 0.466991 -0.388891 -0.116908 -0.187298 0.414213 0.649000 0.211304 -0.293569 0.052355 0.364044 -0.260204 0.225716 0.265594 0.178664 0.085260 0.376189 0.072964 0.530959 0.336924 0.212854 0.037876 0.088358 0.187479 0.152287 -0.124020 0.047618 -0.809844 -0.281155 0.847416 -0.939176 -0.365199 0.158620 0.168933 -0.294547 -0.250469 -0.024938 -0.619920 -0.128939 -0.277119 -0.178467 0.371179 0.194774 -0.760842 0.226766 0.535249 -0.242047 0.354344 -0.106479 -0.905559 -0.451494 -0.748596 -0.276124 0.128543 0.203842 0.305814 -0.721628 0.108133 -0.162446 -0.572936 -0.741422 0.041803 0.285323 0.538383 -0.250964 0.197276 0.046632 -0.614101 -0.401983 0.102372 0.586567 0.056261 -0.339782
H29 0.024449 0.507414 -0.099409 0.354254 0.151985 0.430023 -0.169989 0.318061 -0.658031 0.426784 -0.096402 0.350384 -0.330317 -0.205411 -0.152502 0.575885 -0.066305 0.308740 -0.122407 0.016360 -0.079626 0.476387 -0.247551 -0.565759 -0.143327 -0.008366 0.451103 0.068160 0.554394 -0.013480 0.223444 0.695090 -0.131142 -0.398601 0.838412 -0.105142 1.085896 -0.005126 -0.079144 0.061588 -0.587972 1.097452 -0.525659 -0.246463 -0.395069 -0.599039 0.084224 0.880296 0.520999 0.554365 0.424244 0.338798 -0.556972 0.402941 -0.054049 0.297913 -0.089875 -0.193278 0.811095 0.194007 0.596095 -0.376391 0.391999 -0.299292 0.579483 -0.138638 -0.117604 0.148934 0.554803 -0.012980 0.685754 0.136449 0.098815 0.018424 0.511824 0.169591 0.577916 0.211410 0.328228 -0.654613 0.265924 -0.374839 -0.402701 -0.941852 -0.064695 -0.137037 0.167223 0.299585 0.121043 -0.806135 0.190202 -0.083799 -0.011013 -0.779219 0.126167 -0.326881 -0.018014 0.104906 -0.650024 0.363371 0.448204 -0.635626 -0.085907 -0.423403 -0.142226 -0.475259 -0.874389 -0.178732 0.446417 0.070156 -0.465461 -0.291444 0.086076 0.222909 -0.182257 -0.407452 0.101108 -0.219961 0.608396 -0.591697 -0.287613 0.275367 0.481967 0.188045 0.607756 0.949974 0.002165 -0.350358
H192 0.040307 -0.050481 -0.613823 0.011688 -0.055354 -0.186290 0.579924 0.404209 0.022889 0.562240 -0.112938 0.118172 0.003892 0.164932 -0.167970 -0.343512 -0.284441 -0.486952 -0.049140 -0.087798 -0.391952 -0.466382 -0.254694 0.141091 0.099490 0.170172 0.371645 0.226736 -0.571721 -0.086332 0.513315 -0.032493 0.043446 -0.444279 0.426909 0.064571 -0.079355 -0.183583 0.226810 -0.397855 0.130405 0.155270 -0.385706 0.233107 0.031828 -0.588176 0.516287 0.484010 0.393344 0.055547 -0.405688 0.195979 -0.783156 0.037230 0.495542 -0.404535 0.422645 -0.270441 0.044822 -0.247873 -0.036699 0.394293 0.112897 -0.062031 0.343805 0.442779 -0.128760 0.397349 0.335263 0.405405 0.299869 0.615333 0.250122 0.073887 0.331547 -0.042788 -0.052684 0.326129 0.359790 -0.114475 -0.042081 0.351644 -0.528573 -0.240257 0.522947 -0.887491 -0.157409 0.002426 0.465270 -0.700386 -0.485714 -0.036025 -0.678935 -0.032107 -0.189075 0.318166 0.631660 0.488332 -0.738909 0.498353 0.388643 -0.527568 0.297346 -0.086201 -0.665197 -0.638504 -0.579804 0.098986 -0.003354 0.287263 0.088606 -0.913716 0.290482 -0.309980 -0.594745 -0.877452 -0.213214 0.202608 0.657419 -0.586865 0.259729 0.026624 -0.273969 -0.229308 0.045208 0.477086 0.502878 -0.324290
H195 0.034031 -0.148308 -0.389991 -0.076549 0.386838 0.158823 0.081861 0.395561 -0.714798 0.641046 -0.256701 0.285678 0.015379 0.099021 -0.591630 -0.273085 -0.119240 -0.414310 -0.068931 -0.017046 0.474097 -0.253549 -0.342925 0.030360 0.017358 -0.065229 0.311006 0.876479 0.101354 -0.357030 0.828394 -0.547724 0.087024 -0.894222 0.666693 -0.088488 0.162876 -0.344748 -0.007867 0.248694 0.231616 0.100113 -0.113578 0.471713 0.457536 -0.222246 0.650910 0.643133 0.001483 0.323666 0.019162 0.631262 -0.758050 -0.437321 0.246285 -0.093576 0.224563 -0.002223 0.260191 -0.089594 0.204490 -0.073255 0.162996 -0.911028 0.122988 0.168733 0.060472 -0.317811 0.214708 -0.070580 -0.128340 0.567541 0.314244 0.347765 0.486724 0.088898 0.282029 -0.055327 1.293286 -0.446729 0.133336 0.541249 -0.687313 -0.301572 0.399446 -0.458135 0.266624 0.214475 0.200009 -0.433067 -0.348098 0.529231 -0.178121 -0.375821 -0.312675 0.462309 0.252620 0.193779 -0.256696 0.274114 0.487833 -0.304735 0.140133 0.071691 -0.678275 -0.538418 -0.111328 0.332133 0.250072 0.200141 0.094198 -0.951324 0.457586 -0.109173 -0.237710 -0.073997 -0.472087 -0.163678 0.320527 -0.186329 0.445356 -0.053395 0.252541 0.000392 0.440034 0.361617 0.080125 -0.123733
H218 0.000303 -0.327521 0.204868 0.764988 0.732166 0.183081 -0.030992 0.112492 -0.461063 0.904810 -0.432519 -0.308575 -0.630291 0.024067 -0.297920 0.438674 -0.035809 0.283464 0.300759 0.704894 -0.196320 -0.525547 -0.440015 -0.525343 0.349692 -0.074060 0.000865 0.631762 -0.969632 0.145334 1.378841 0.694129 -0.261120 -1.359566 -0.217266 -0.700910 0.214749 -0.391380 -0.047722 -0.466491 -0.349822 0.431860 -0.524884 0.492962 0.025459 -0.444955 0.051804 0.613354 -0.321936 0.617880 0.155455 0.609679 -0.392105 0.331711 0.272708 -0.273937 0.579209 -0.200420 0.030109 0.093807 -0.088855 -0.112539 -0.075028 -0.146831 0.212105 0.399375 -0.665574 0.194078 -0.329428 -0.074347 -0.122345 0.546472 0.096949 0.327751 1.243641 -0.166711 -0.056508 -0.271445 0.337850 0.617184 0.575967 -0.634388 -0.752443 -0.923313 0.960273 -0.261121 0.076716 -0.447027 -0.090543 -0.302116 0.172165 -0.048783 -0.113203 -0.739459 -0.445619 -0.390486 0.495639 0.211516 -0.471954 -0.022781 0.321543 -0.357682 0.954672 0.010445 -0.770731 -0.820319 -0.564684 -0.146222 0.880739 0.329834 -0.432683 -0.169505 0.003794 0.821101 0.054556 -0.452997 0.218639 0.109220 0.720722 -0.382132 0.394315 0.772589 -0.156101 0.209842 0.080213 0.745656 0.591249 0.353757
H80 -0.269946 -0.097585 -0.562631 0.211835 0.509540 -0.465913 0.552518 0.100938 -0.537233 0.482261 -0.653420 0.408349 -0.036448 -0.277225 -0.297169 0.092868 0.219656 -0.406235 -0.414215 -0.038106 -0.224140 0.054362 -0.332502 -0.423676 0.026607 -0.388411 -0.962144 0.618022 -0.235018 0.087089 0.016346 0.039502 -0.098805 -1.426747 0.064937 0.626286 0.551086 -0.194095 0.162810 -0.243351 0.164014 0.649135 0.094002 0.450523 0.058753 -0.700883 -0.376754 0.500421 1.156560 0.036070 -0.075149 0.110837 -0.237872 -0.117863 -0.129595 -0.830950 -0.136657 -0.083181 -0.343400 -0.680370 0.603026 -0.078470 -0.125829 -0.398291 0.989593 0.292071 -0.560695 -0.072142 0.647672 -0.012983 0.367577 0.200941 0.830690 -0.043086 0.515168 0.116950 -0.430988 -0.331425 0.584579 0.274923 0.116828 0.016544 -0.816065 -0.462573 1.125795 -0.133111 -0.317543 0.238259 0.025825 -0.075649 -1.030825 0.174204 0.594306 -0.453723 0.286341 0.049201 -0.419406 0.236095 -1.232647 0.830241 0.598100 0.352342 -0.133957 -0.706868 -0.562861 -0.228828 0.028585 0.130666 0.132987 0.168045 0.321419 -0.213381 -0.042190 -0.046749 0.368915 -0.364804 0.655558 0.236779 0.253273 0.009491 -0.717133 -0.295029 -0.332855 -0.221409 0.283490 0.550881 0.159351 -0.213975
H75 -0.181383 -0.100357 -0.172672 0.361367 0.154244 -0.292017 0.102084 -0.175269 -0.725301 0.033880 -0.582090 -0.157174 -0.768565 0.180988 -0.777482 0.453009 -0.371000 0.190729 0.399334 1.050169 -0.531392 -0.370387 -0.337709 -0.716330 0.067370 -0.062261 0.049757 -0.121492 0.041971 -0.307025 0.100343 0.298358 -0.006885 -0.619189 0.074654 -0.372469 -0.049535 -0.332287 -0.370490 0.433819 0.501119 0.760054 -0.247494 0.009607 0.063855 -0.079710 0.115034 -0.012100 -0.081356 0.724717 -0.486320 0.691556 -1.310783 0.219322 0.332349 0.170662 0.483310 0.014571 0.584104 -0.771952 -0.100032 -0.092073 0.284162 -0.842604 0.377839 0.211800 -0.996929 0.373888 0.406995 0.485503 0.062764 1.142700 0.061029 -0.302688 0.951353 0.137262 -0.165317 -0.297547 0.269349 -0.693023 0.503475 0.304924 -0.399970 -0.988548 -0.395136 -1.129376 0.318464 0.204377 0.007754 -0.544334 -0.184314 -0.062074 -0.725264 -0.960495 0.247344 0.736026 0.085640 -0.765549 -0.441486 1.346627 0.311471 -0.246291 0.722195 -0.279505 0.044714 -0.426933 -0.186771 0.091123 -0.150618 0.322020 -0.090974 -0.660148 0.368803 0.720979 0.151723 -0.140704 0.365983 -0.357324 0.362410 -0.369641 -0.115130 0.231848 -0.031489 0.520219 1.003230 -0.438567 -0.041569 -0.304701
H64 0.140969 0.466616 0.054320 -0.487251 0.379443 -0.369171 0.376667 -0.030801 -0.937783 0.524486 -0.132318 0.226111 -0.895061 0.344367 0.025161 0.631155 -1.086769 0.067701 0.166664 0.294392 -0.282158 -0.436067 -0.604447 -1.038986 0.148859 0.526734 0.227886 0.554602 0.155377 -0.283665 0.417983 -0.285623 -0.230329 -0.500929 0.482358 0.183590 0.021629 -0.283930 -0.398811 -0.686655 0.171036 0.478140 -0.122108 0.334260 -0.110722 -0.227634 0.419619 0.663464 0.168243 0.791802 0.204918 0.524905 -0.372302 0.695142 0.829232 0.082261 0.700773 -0.122211 0.123626 -0.141565 0.800014 -0.364573 0.120395 0.245977 0.153787 0.372143 0.033663 -0.267352 0.338774 0.045548 0.296003 0.438253 -0.324476 -0.450093 0.392208 0.046501 0.132798 0.754027 0.891923 0.409711 0.378538 0.217044 -0.520305 -0.717645 0.593961 -0.765822 0.502065 -0.587542 -0.355814 -0.596199 -0.164572 -0.093297 -0.338627 0.182663 -0.276501 0.475707 0.234605 -0.050147 -0.752065 0.585820 0.012011 0.012647 0.194578 0.174433 -0.632663 -0.391286 -0.306533 -0.415947 -0.211415 0.510467 -0.581918 0.060546 0.278770 0.192964 -0.347155 -0.588778 -0.029813 -0.230733 0.595394 0.209990 -0.481128 0.395648 -0.026212 0.192530 0.655407 0.264052 -0.094113 -0.002807
H213 -0.732645 -0.379794 -0.291315 0.570181 -0.191230 0.420157 0.317304 0.121379 -0.839345 0.316755 -0.032037 -0.513063 -0.013083 -0.428587 -0.204255 0.241480 0.393282 -0.262448 0.273440 0.446619 -0.505919 0.052591 -0.003525 -0.897751 -0.298062 -0.062695 0.142984 0.295947 -0.611897 -0.699729 0.686923 0.711129 0.279765 -0.406862 -0.002728 0.101555 -0.265976 -0.438502 -0.339428 0.040225 -0.179375 0.267676 -0.346001 -0.007147 -0.143770 -0.218497 0.119724 0.073091 0.855185 0.067481 -0.371523 0.950041 -0.349109 0.434931 -0.012668 -0.167512 0.196260 -0.386788 0.033779 -0.579071 0.029611 0.259209 -0.021355 0.045934 0.473922 0.570645 -0.037338 0.282734 0.509822 0.492644 0.172516 0.717376 0.404527 -0.171687 1.042061 -0.316703 -0.093002 -0.086746 0.523075 -0.026554 0.251424 0.176942 -0.680499 -0.394232 0.465796 -0.229120 -0.179556 -0.633517 -0.145138 -0.112369 -0.495662 -0.224185 -0.094556 -0.481783 -0.663080 0.218169 -0.213989 -0.181667 -0.502912 0.350350 0.764471 -0.569991 -0.227461 -0.150948 -0.221966 -0.197147 -0.984906 -0.476464 0.233671 0.584838 0.413789 -0.521697 0.224675 0.547975 -0.231133 -0.221861 0.764144 -0.542784 0.194238 -0.527989 0.400469 0.026334 -0.272821 0.760208 0.402393 0.327115 0.701264 0.128041
P433 0.116501 -0.144519 -0.242586 -0.068631 -0.427849 0.104663 0.296201 0.453036 -0.271383 -0.268126 -0.150279 0.186469 -0.239398 -0.189232 0.080556 0.096798 0.239225 -0.283970 -0.039980 0.532895 -0.318168 0.172907 -0.194083 0.028622 0.485550 0.142241 -0.194120 -0.156643 0.304835 -0.109386 -0.198880 -0.180842 -0.358730 -0.332517 0.050495 0.154217 0.335943 -0.153469 -0.383575 -0.074963 0.062427 0.112384 -0.013410 -0.396441 0.078201 -0.501847 0.143077 0.453791 0.435841 0.122427 0.061180 0.412029 -0.500417 0.137813 0.040599 -0.613858 0.469383 0.498854 0.087204 -0.415476 0.323280 -0.307466 0.387370 -0.653547 -0.071199 -0.401675 -0.010410 -0.093283 0.347887 0.426607 0.223797 0.471514 0.277825 0.268262 -0.090613 -0.425475 0.178235 0.095607 0.315186 -0.238634 -0.147023 0.557093 0.044057 -0.410084 0.158442 -0.180616 -0.144567 0.028063 -0.119964 -0.331662 -0.500283 -0.194599 0.288750 -0.579130 -0.088364 -0.088512 0.336021 -0.370058 -0.236478 -0.155974 0.215854 -0.042478 0.068278 -0.178040 -0.229671 0.109640 -0.094031 0.397685 -0.118901 0.083963 0.304138 -0.411441 -0.054439 -0.062837 -0.339203 -0.154930 0.327890 -0.453046 -0.095925 0.154286 -0.492694 0.028027 -0.426876 0.161132 0.112592 0.217121 -0.019360 0.205737
H52 -0.232961 0.490823 0.248463 0.327056 -0.147797 0.246868 0.882286 0.303562 -0.227402 0.090380 -0.212606 0.119069 0.038679 -0.537994 -0.382226 0.324891 0.090173 -0.171087 0.332985 0.854669 0.122741 -0.091137 -0.005345 -0.727980 -0.190482 -0.297148 -0.481762 0.166171 0.129427 -0.208981 0.838296 -0.132412 0.344247 -0.151617 0.081979 -0.538896 -0.118795 -0.669556 -0.362812 0.497542 0.333203 0.467135 -0.049355 0.319711 -0.059829 -0.458371 0.583198 0.809362 0.627151 0.643052 0.188500 0.255179 -0.095859 0.132928 -0.332947 0.116207 -0.021447 0.249553 0.543586 -0.125158 0.582897 0.156560 0.365271 -0.650029 -0.131436 0.318156 0.091077 -0.005202 0.347302 -0.103832 -0.471997 0.386373 0.395728 0.176842 0.574783 0.121481 0.332998 0.430800 0.711933 -0.083933 1.000721 -0.199087 -1.130813 -0.589149 0.087614 0.083593 0.329487 -0.258043 0.391804 -0.327540 -0.794756 -0.603386 -0.150636 -0.198584 0.004597 -0.106603 -0.558344 -0.376863 -0.358162 0.259991 1.097107 -0.055449 0.174374 -0.038880 -0.503179 -0.022963 -0.079990 -0.659540 0.543124 -0.064375 0.320587 -0.872528 0.062822 0.453188 0.120893 -0.201389 0.537751 0.150636 -0.204968 0.578662 0.280841 0.411838 -0.305337 0.340172 0.581218 0.136361 -0.244926 -0.446035
H35 -0.590526 0.410989 -0.069989 0.148512 0.124642 0.433893 0.360336 -0.450646 -0.605449 -0.042824 -0.267394 0.060889 -0.623167 -0.191077 -0.424514 0.714175 -0.019726 -0.040258 0.333929 0.669273 0.055779 -0.113689 -0.249390 0.157516 0.184518 0.033883 -0.527488 0.621030 -0.093597 -0.295090 -0.294770 -0.133976 -0.290542 -0.651213 0.434352 -0.472927 -0.088717 -0.001192 0.360903 -0.043026 0.319904 0.091251 -0.143019 -0.019235 0.918759 -0.429997 0.123242 0.549253 0.409410 0.671892 0.530464 0.792048 -0.299118 0.311634 0.784998 0.147861 0.565363 0.872978 -0.016317 -0.209940 0.370997 -0.272601 0.624781 -0.486466 0.524379 0.303783 0.121073 0.417726 0.118669 0.053693 0.862482 0.553934 0.319948 0.355630 1.064861 -0.063396 -0.084631 0.188792 1.178108 0.104457 0.472413 0.313633 -0.454193 -0.746613 0.713461 -0.685734 0.289910 -0.048222 -0.699416 -0.090818 -0.677223 -0.022854 0.080641 -0.519395 0.115202 -0.221344 0.174344 0.259502 -0.483876 0.606714 -0.143157 0.472176 0.919100 -0.113412 -0.667818 0.137920 0.110472 -0.720894 -0.104102 0.337586 0.016756 -0.188218 0.534270 -0.439335 0.576154 0.152526 -0.601388 0.646970 0.113962 -0.210716 -0.140562 0.551966 0.525472 0.442426 0.010852 0.897849 0.188032 0.112106
H58 0.203602 0.013346 -0.463480 0.086447 0.035420 0.095319 0.334444 0.590507 -0.632156 0.266734 -0.040608 -0.429907 -0.269103 0.031461 -0.261154 0.746748 0.039273 0.298517 0.095676 0.492893 -0.160453 0.218175 -0.163569 0.042612 -0.087806 -0.180180 -0.681368 0.250391 0.166467 -0.789311 0.294793 0.443619 0.055577 -0.607618 0.627288 -0.042893 0.008579 -0.045847 0.646612 -0.528138 -0.766823 0.803851 0.042628 0.380958 -0.043185 -0.226223 0.091125 0.627202 0.376534 0.226712 0.366077 0.570057 -0.243176 -0.103272 0.662384 -0.668543 0.076365 0.062282 0.295813 -0.366078 -0.136091 0.057605 0.181964 0.480128 0.393122 0.006292 -0.558298 0.936999 -0.112376 0.176352 0.263057 -0.139872 -0.006837 0.557558 0.685170 -0.744587 -0.237250 -0.075352 0.630046 -0.285187 0.548427 -0.017752 -1.290819 -0.475274 -0.070373 -0.677515 0.088832 -0.296156 0.404665 -0.786119 -0.734835 -0.607031 -0.606167 -0.864620 -0.157581 0.032348 -0.020354 0.571925 -0.583756 0.955596 0.581890 0.106156 0.676273 0.045139 -0.759087 -0.237850 -0.548765 0.126194 0.016633 1.006395 0.049024 -0.160830 0.503043 -0.195428 -0.294173 0.294639 0.511525 -0.177314 0.091287 -0.313742 0.164855 0.812010 0.286022 -0.076546 0.172553 0.534498 0.233115 -0.670376
H151 -0.169683 -0.237281 -0.490634 -0.193700 -0.412344 0.254511 0.358712 0.172683 -0.242890 0.051711 0.108124 0.311238 -0.241048 -0.757238 0.362302 0.344613 -0.152389 -0.300114 -0.117040 0.264058 -0.755119 -0.144477 -0.722574 -0.032942 0.256459 0.213867 -0.435981 0.548889 -0.439254 -0.000196 0.938918 -0.015799 -0.107409 -0.252639 0.817762 -0.027887 -0.018464 -0.764594 0.269287 -0.694176 -0.084873 -0.132936 0.120984 0.622966 0.024544 0.124008 0.305650 0.869831 0.537221 0.545533 -0.490077 0.293477 -0.189790 0.633478 0.238450 -0.553583 0.298594 0.784158 0.156976 -0.194341 0.392266 0.084592 -0.118639 -0.310903 -0.145809 -0.027249 -0.183504 -0.506849 0.662313 0.116715 0.093621 0.004557 0.489340 0.158155 0.706289 -0.266979 -0.250436 0.118881 0.399133 0.293976 0.269628 -0.106297 -0.602150 -0.244309 0.640169 -0.039307 0.213989 -0.618592 -0.458201 -0.020138 -0.968004 -0.193310 0.139878 -0.052402 -0.456841 -0.381852 0.739249 -0.281887 0.150715 -0.409437 0.628971 0.209829 0.636712 -0.642794 -0.416002 -0.701487 -0.540659 -0.853704 0.614374 -0.236259 -0.042198 -0.259221 -0.194764 0.024791 0.352876 -0.203892 -0.344671 0.259838 0.474737 0.103097 -0.316110 0.333965 -0.090875 -0.197340 -0.029263 0.301703 0.823445 -0.086943
H182 0.141250 0.119556 0.032005 -0.451241 0.340178 -0.317059 0.517674 -0.401272 -0.608955 0.042936 0.304451 0.819993 0.028571 0.231258 -0.223722 0.352449 -0.296857 -0.232405 0.021837 0.605981 -0.412780 0.052393 -0.607669 -0.887119 -0.023300 -0.055806 -0.803834 -0.109003 -0.258222 0.199062 -0.081932 -0.268973 0.024560 -0.842620 0.493989 0.322247 0.555273 -0.776635 0.197037 -0.386972 -0.136428 -0.332000 -0.527572 -0.356177 0.356813 -0.846962 -0.072567 0.812840 0.123521 1.079863 -0.340000 0.276020 -0.329188 0.040919 0.376095 0.449680 0.014965 0.651396 0.295225 -0.301474 0.718348 -0.077847 0.289730 -0.606711 0.149644 0.390492 -0.210247 0.309077 0.291942 0.277224 0.193011 1.061203 0.626322 0.165868 0.391963 0.039835 -0.028192 0.160777 0.403921 -0.346633 0.310919 -0.523057 -0.733005 -0.771931 0.636168 0.325371 -0.120756 -0.152172 0.426524 -0.107612 0.144462 -0.307989 0.191707 -0.412464 0.344473 0.091463 0.651213 -0.044355 -0.367598 -0.307174 0.080042 -0.255498 1.109994 -0.397323 -0.010913 -0.334769 -0.530961 -0.358847 0.177757 0.468268 -0.259492 -0.587606 -0.450473 -0.386006 -0.294861 -0.371253 -0.463941 -0.156361 0.586273 0.063545 -0.733452 0.149192 -0.118383 -0.400339 0.254059 0.452932 -0.073960 -0.078096
H84 -0.095516 0.092873 -0.261978 0.433140 -0.356334 0.195682 0.522122 0.331033 -0.082840 -0.165331 0.407593 -0.136175 -0.108348 -0.085244 0.109542 -0.003958 0.459454 -0.235676 -0.297453 0.643949 -0.409071 -0.229401 -0.094260 0.263328 0.300225 0.008820 -0.093613 0.069348 -0.026226 -0.147075 0.007646 0.026986 -0.397331 -0.473314 0.097525 0.144513 0.162372 -0.080603 0.062757 -0.121067 0.482652 0.414514 0.123452 -0.073707 0.146100 -0.480641 -0.156057 0.324838 0.755082 0.007760 -0.542382 0.250832 -0.510888 0.683424 0.134639 -0.056668 0.365334 0.486520 0.154980 -0.559350 0.299438 -0.129860 0.689766 -0.979693 0.408864 0.097929 -0.294605 -0.021071 0.383316 0.120533 -0.012651 0.627150 0.838325 0.252717 0.509475 -0.454020 0.103829 -0.340108 0.077552 -0.562606 -0.538479 -0.037714 -0.401309 0.118197 0.271877 -0.723743 -0.434723 -0.101144 -0.263843 -0.208714 -0.232350 -0.329430 0.362357 -0.060283 0.162979 -0.149007 0.292577 0.080679 -0.405014 0.044651 0.657346 -0.165233 0.040934 -0.089587 -0.605717 0.448288 -0.182929 0.037356 -0.011381 0.086954 -0.380040 -0.578854 -0.298279 -0.305778 0.255210 -0.038171 0.379337 0.380171 -0.119555 -0.511792 -0.083117 -0.500644 -0.109834 0.205165 0.579305 0.231233 0.029720 0.461972
P829 0.229977 -0.047176 -0.329727 -0.230863 -0.266076 0.352369 0.464844 0.129844 -0.116338 0.233121 0.086463 0.243944 -0.061456 -0.544131 0.535226 0.391862 0.041737 -0.282895 -0.171868 0.132742 -0.789233 -0.231197 -0.731206 -0.056724 0.303916 0.200859 -0.507047 0.538992 -0.257894 -0.044408 0.520861 0.185050 -0.213525 -0.494801 0.866679 -0.072172 0.029555 -0.569910 0.202674 -0.583200 -0.460916 0.189715 0.183060 0.524815 -0.068872 -0.041429 -0.072914 0.941108 0.551213 0.485149 -0.116253 0.362829 -0.050821 0.744869 0.365526 -0.435105 0.127315 0.397676 0.068631 0.102102 0.531371 -0.078519 0.190709 -0.043873 0.279987 0.279272 -0.181268 -0.400714 0.325196 0.094560 0.141345 -0.172344 0.390625 0.119102 0.344233 -0.218050 -0.229230 0.093926 0.402990 0.396197 0.246230 -0.459192 -0.847839 -0.298288 0.605485 0.265380 0.343568 -0.550757 -0.530498 -0.115263 -0.709213 -0.122824 0.112137 0.161545 -0.487625 -0.558629 0.477598 -0.044479 0.018778 -0.219758 0.571691 0.184567 0.359993 -0.469306 -0.670549 -0.536233 -0.844121 -0.825250 0.457939 -0.179274 -0.056075 -0.158956 -0.090217 0.129106 0.411181 -0.086678 -0.282536 0.263889 0.499242 0.108593 -0.506662 0.434514 0.041029 -0.097762 0.075915 0.450426 0.774013 -0.036613
H31 -0.090965 -0.027865 -0.056031 -0.257096 0.052016 -0.457881 0.449265 0.086138 -0.767951 0.077794 0.148711 -0.059167 -0.857678 -0.201739 -0.293467 0.184782 0.071470 0.392544 0.401394 0.092268 0.184579 -0.278511 -0.272646 -0.561146 0.419530 -0.351334 -0.030432 0.430406 0.063605 -0.139041 0.535099 0.608790 -0.638464 -0.786300 -0.174216 0.046032 0.332941 -0.552223 0.255661 -0.072057 -0.495351 0.212108 0.241300 0.715834 0.341297 -0.388837 0.369370 0.731887 0.092562 0.451872 0.149064 -0.114550 -0.655442 0.510379 0.303355 -0.086781 1.039763 -0.388865 0.023939 -0.330936 0.147150 -0.406842 0.779362 -0.562392 0.416364 0.477204 -0.406594 0.630463 -0.041008 0.218455 -0.138288 0.122181 0.193225 0.018808 0.164685 0.484076 0.255662 -0.095266 0.510053 -0.293089 0.790203 0.200224 -0.541784 -0.827559 0.627626 -0.235800 0.042787 0.437528 -0.580018 0.047570 0.059601 -0.631210 0.144806 -0.644826 -0.021467 0.018260 -0.270046 0.233263 -0.594275 -0.458413 0.755164 0.187536 0.256142 -0.170028 -0.531704 -0.040601 -0.218393 -0.510615 0.106260 0.024592 -0.092310 -0.525425 0.201484 0.009087 -0.203247 -0.179324 0.438106 0.708394 0.029148 -0.210712 0.577083 0.238396 -0.373943 0.531133 0.577875 0.161332 -0.138931 0.272598
H96 0.220524 -0.246056 -0.266253 -0.245917 -0.596555 0.106223 0.213418 0.569590 -0.401134 -0.413673 0.072609 0.147395 -0.286185 -0.202301 0.085395 0.051098 -0.091374 -0.274302 0.005561 0.790857 -0.438026 -0.197087 -0.152523 0.155576 0.620274 0.492298 -0.074617 -0.214740 0.400003 -0.319687 -0.057531 -0.361349 -0.222130 -0.525764 0.331319 -0.164664 0.042734 -0.286263 -0.530315 -0.158843 -0.035524 -0.118732 -0.288675 -0.190699 0.284169 -0.290231 0.316337 0.370153 0.245779 0.485202 -0.112274 0.629112 -0.785595 0.125918 0.275272 -0.391068 0.622947 0.773952 0.016972 -0.313663 0.212443 -0.166080 0.351372 -0.786913 -0.408397 -0.113654 -0.149509 -0.116401 0.608409 0.570449 0.259790 0.558709 -0.022387 0.262198 0.271112 -0.439468 0.265161 0.124773 0.341821 -0.344422 0.310702 0.677152 -0.032445 -0.453874 -0.042294 -0.607647 -0.076973 -0.332019 -0.195955 -0.544321 -0.629204 -0.265550 -0.023847 -0.513418 -0.424693 -0.226507 0.656280 -0.306955 -0.230485 -0.323020 0.035747 -0.130914 0.273499 -0.025025 -0.362786 -0.028962 -0.076845 0.527373 -0.262333 0.259028 0.262456 -0.522126 0.006255 0.072483 -0.417487 -0.293435 0.032076 -0.444619 -0.015440 0.302313 -0.555551 0.025810 -0.566728 0.294466 0.064246 0.042337 -0.020645 -0.067907
H65 0.189347 0.420857 0.082033 -0.396343 0.418680 -0.371850 0.261188 -0.216710 -0.798850 0.500463 -0.221210 0.148736 -0.969371 0.230008 -0.041848 0.778319 -0.833272 -0.007356 0.323398 0.440188 -0.457831 -0.335024 -0.598560 -1.036673 0.209220 0.547329 0.042837 0.564008 -0.097142 -0.290804 0.469217 -0.096512 -0.094866 -0.468425 0.390310 0.087643 -0.179055 -0.374078 -0.403690 -0.710123 -0.068571 0.564805 -0.158703 0.456101 -0.225175 -0.180752 0.215538 0.559345 0.007229 0.743192 0.232030 0.587900 -0.377455 0.511773 0.829955 -0.092891 0.665362 -0.240414 0.148354 -0.090643 0.689287 -0.179888 -0.048710 0.399103 0.166270 0.437227 -0.157143 -0.092659 0.186254 0.148520 0.247694 0.140214 -0.318039 -0.323920 0.556686 0.105646 0.103574 0.613842 0.773059 0.454674 0.479542 -0.002143 -0.478127 -0.853887 0.516117 -0.658072 0.426573 -0.623205 -0.394909 -0.581508 -0.150917 -0.050184 -0.316659 -0.052189 -0.063899 0.209031 0.163316 -0.125348 -0.571967 0.469614 0.041298 0.002073 0.476154 0.153966 -0.558022 -0.316779 -0.516927 -0.377825 -0.074330 0.491027 -0.639536 0.224654 0.208511 0.351952 -0.269105 -0.392079 0.047269 -0.102653 0.625351 0.288600 -0.375519 0.600763 -0.200253 0.302148 0.714687 0.309536 0.003422 0.017220
H203 0.009718 -0.494296 -0.322112 0.119618 -0.007999 0.418104 -0.019710 -0.662291 -0.415158 0.207659 -0.934038 -0.040777 -0.833288 0.032536 0.115574 0.597397 -0.435921 0.007032 -0.324880 0.320568 -0.827841 0.559611 -0.520708 -0.252119 0.078175 0.296964 -0.028367 0.080275 0.270904 0.313216 0.201557 0.762654 -0.133332 -0.913054 0.478759 0.236427 0.649710 -0.922428 0.342533 1.048584 -0.192426 0.777803 -0.558629 0.080341 0.265121 -0.264452 -0.449919 0.662391 -0.144684 0.722920 -0.404985 0.820711 -0.892220 0.256977 -0.228023 -0.373689 0.251541 0.398898 0.772499 -0.441162 0.496708 -0.484703 -0.282596 -1.000142 0.368438 0.247058 -0.690269 -0.223867 0.087175 0.625662 0.486209 0.661309 1.082383 -0.347836 0.635861 -1.005538 -0.638893 0.291102 0.363860 -0.259040 0.048791 -0.453245 -0.825511 -0.093145 0.293441 -0.071793 0.261191 0.313872 -0.165754 -0.236941 -0.335977 0.463579 -0.897701 -1.067236 0.463542 0.522952 0.036522 -0.648036 -0.203912 0.439346 0.624923 0.091092 0.008514 -0.761476 0.163439 0.320857 -0.343303 -0.543778 0.544165 0.324427 -0.230820 -0.113976 -0.073466 -0.225778 0.450654 0.286758 0.666055 0.465812 0.369503 -0.494825 -0.085928 0.162739 0.566557 -0.045353 1.241670 0.216358 0.521546 -0.088177
H55 0.125691 -0.642309 -0.761122 -0.569347 -0.249287 0.302235 0.174509 0.105046 -0.408247 0.997397 -0.392213 0.228882 -0.456304 0.436987 -0.277839 0.576145 -0.213079 -0.007963 0.293801 0.623420 -0.661806 -0.560221 -0.750719 -0.739112 0.524266 -0.056177 0.265478 0.188306 0.164354 0.100401 0.164769 0.492657 0.008971 -0.302145 0.039940 -0.218472 0.548327 -0.421126 0.153054 0.054180 -0.337452 0.489875 -0.316973 0.215392 0.285013 -0.766500 -0.218054 0.879994 -0.373512 0.626066 0.051415 0.770849 -0.145962 -0.198473 0.347917 -0.335429 0.679606 -0.245472 -0.144907 -0.092075 0.080276 -0.348710 0.599855 -0.572425 0.299962 0.113946 -0.194138 0.591674 0.024299 0.619950 0.489337 0.473826 0.623955 -0.591783 0.208202 0.077957 0.081126 0.046578 0.628374 -0.576503 0.255215 0.575125 -0.562767 -0.660530 0.405758 -0.446295 -0.445910 -0.551209 -0.847765 -0.107910 -0.541897 0.072191 -0.593855 0.165832 -0.050479 0.008713 0.005479 -0.011329 -0.473014 0.768921 0.660991 0.410872 0.198867 0.296958 -0.428852 -0.504809 -0.878915 -0.173321 -0.003983 0.012692 0.106574 -0.065116 0.197210 -0.497828 -0.124793 0.283757 1.223253 0.047710 0.053733 -0.253295 0.080302 -0.023682 0.319541 -0.209605 0.685755 0.144206 0.586160 0.099379
H107 0.061919 -0.594576 -0.279154 0.327654 0.265652 0.552609 0.264400 0.579349 -0.654456 0.564395 0.143306 -0.068662 -1.148219 -0.237152 0.099736 0.118433 -0.304605 0.357123 -0.441986 0.622353 -0.658910 -0.174721 -0.240182 -1.044457 -0.351282 -0.314757 0.176047 0.090452 -0.328792 -0.190925 1.075273 0.516765 -0.161784 -0.488117 0.083587 -0.050923 0.176741 0.062565 0.068144 0.086852 0.031200 0.623663 -0.952582 0.218415 -0.542977 -0.346990 0.547249 0.734483 0.433671 0.294746 0.664874 0.987754 -0.383808 0.085858 0.521263 -0.942954 0.240007 -0.041113 0.265725 -0.647017 0.203676 -0.309960 0.057790 -0.423868 0.859326 0.119094 -0.275976 0.507720 0.434756 0.018361 -0.825064 -0.071461 0.217417 0.468435 0.597735 -0.121649 0.529675 0.291953 0.302983 0.015710 0.577068 0.392036 -0.538662 -0.808914 0.283672 -0.045027 -0.133867 -0.062314 -0.231979 -0.321955 0.173186 -0.551126 -0.605149 -0.775162 -0.512866 -0.067961 -0.317968 0.276813 -0.441700 0.205929 0.866282 -0.212686 0.078602 0.193228 -1.001499 -0.504979 -0.195903 -0.798174 -0.397063 0.035687 0.388841 -0.613341 0.190975 0.355867 0.240559 -0.077575 -0.033633 0.066724 0.251873 -0.190400 -0.452545 0.667581 -0.780958 0.130193 0.247680 -0.114427 0.310608 -0.495927
H82 -0.104758 0.000812 -0.146926 0.355054 -0.205720 -0.253726 0.110248 0.625475 -0.454942 0.158150 -0.105864 0.128402 -0.736529 -0.223268 0.241842 0.625047 0.271547 0.178723 0.565852 0.063559 0.211645 0.267672 -0.177508 -0.838961 0.430590 -0.068991 0.149826 0.242667 -0.457985 -0.703318 0.054957 0.406028 -0.607515 -0.937374 0.830637 0.047964 -0.268548 -0.943995 -0.167997 0.280115 -0.128863 0.348250 -0.374042 0.023120 0.440278 0.178948 0.393172 1.212297 -0.355373 1.405568 -0.765335 0.551547 -0.381028 0.268121 -0.395244 0.212647 0.375155 0.106932 0.446366 -0.249012 0.287828 -0.115180 0.331597 -0.390850 -0.275154 0.384803 -0.549277 0.240629 0.519058 0.381200 0.062130 0.811675 0.641796 -0.012821 1.120498 -1.208085 -0.145683 0.476948 0.461589 -0.764785 1.089203 -0.481437 -1.051590 -0.076842 0.616945 -0.241796 0.438667 -0.380778 0.050872 -0.829361 -0.431717 -0.331797 -1.056918 -0.424185 -0.080761 0.093415 0.035509 -0.258010 -0.427297 -0.586572 0.620963 0.053100 0.271796 -0.224204 0.448326 0.065132 -0.271879 -0.554844 -0.023571 0.447798 -0.516979 -0.366790 -0.113977 0.108051 0.284163 -0.377434 0.250247 0.340724 0.231328 -0.581203 0.590356 0.324352 0.190350 0.038825 0.246465 0.083966 0.318097 0.298147
H175 -0.222413 0.331480 -0.084724 -0.300214 -0.065532 -0.558754 0.553681 -0.388286 -0.349909 0.263119 -0.118236 0.549906 1.004147 -0.170075 -0.669060 0.456641 -0.048294 0.236112 0.461303 0.409851 -0.587638 -0.222748 0.339603 -0.173643 0.480786 0.133458 0.195566 0.390981 0.368516 -0.336312 -0.049559 0.090309 0.376439 -0.787747 0.572988 -0.450901 -0.048776 -0.614984 0.357821 -0.376975 -0.402639 0.774833 0.039563 0.137732 -0.159927 -0.521228 0.455655 0.561294 0.616581 0.483534 0.157075 0.679268 -1.073200 0.276837 0.733952 -0.336279 0.209060 0.526993 -0.092364 -0.231716 0.557921 0.008029 -0.041965 -0.601890 0.085475 -0.144712 -0.454335 0.272076 0.477539 0.130656 0.138228 0.238507 -0.061318 -0.429549 1.312721 0.188905 -0.139417 0.383575 0.273259 -0.297294 0.879842 -0.147425 -0.719435 -0.623855 0.018413 -0.107817 -0.019352 -0.104475 -0.192817 -0.386982 -0.622850 -0.437149 0.326777 -0.947314 0.427590 0.035438 0.573412 0.080416 -0.559188 0.568988 0.564362 0.035827 -0.253481 0.072541 -0.801700 -0.418470 -0.754844 -0.150606 0.190804 0.754977 -0.085462 -0.522674 0.179688 -0.090821 -0.341862 -1.062697 -0.032556 0.570873 1.288900 0.248419 -0.534573 0.645128 0.508216 0.285278 -0.137945 0.258422 0.368806 -0.414402
P826 0.175987 -0.005665 0.332679 -0.442404 -0.069617 0.244046 0.499671 -0.173265 -0.222722 0.381604 -0.128135 -0.082309 0.185312 -0.556047 0.272052 0.281896 -0.188268 -0.006803 -0.166760 0.418802 -0.438927 -0.039134 -0.027972 -0.148519 0.241114 -0.141186 -0.516650 0.321936 -0.274173 -0.176148 0.674385 0.331675 0.062503 -0.677656 0.606767 -0.429959 0.280682 -0.809785 -0.003673 -0.053693 -0.401223 0.217014 0.033100 0.585377 0.008762 -0.073909 0.007104 0.704487 0.696936 0.459763 -0.036002 0.495842 0.166198 0.501762 0.807627 -0.179705 0.124639 0.378034 0.136779 0.620458 0.141157 -0.353181 0.475754 -0.293782 0.597749 0.719022 -0.327097 -0.102381 0.483011 0.412997 0.053142 -0.031141 -0.124313 0.187123 0.756345 -0.073320 -0.626072 0.141578 0.084149 0.494367 0.759258 -0.549952 -1.130227 -0.450451 0.336544 0.188651 0.359287 -0.618242 -0.341415 -0.415159 -0.077431 -0.073791 -0.307443 0.195729 -1.008640 -0.331225 0.333203 0.285804 -0.476824 -0.043808 0.706959 0.170612 0.350590 -0.292369 -0.716859 -0.530221 -0.451184 -0.394184 0.586042 0.083892 0.162642 -0.386685 0.091537 0.221217 0.465823 -0.323151 -0.721191 0.201266 0.388896 0.449025 -0.445073 0.497375 0.187268 0.275809 0.342492 0.316573 0.329612 -0.428269
H18 -0.215625 -0.246226 0.364898 0.592825 0.808734 -0.041062 0.548304 -0.324729 -0.627691 0.436712 -0.357950 -0.110943 -0.758554 0.087758 -0.495930 0.611170 -0.145693 -0.109387 0.685301 1.128183 -0.777515 0.352551 -0.430509 -1.099980 0.155756 -0.308466 -0.596451 0.330776 0.215595 0.041518 0.392028 -0.020719 0.223140 -0.545367 -0.282892 0.034835 0.029446 -0.529261 -0.690840 -0.098303 -0.096849 0.663525 -0.663169 0.209198 -0.323284 -0.308078 -0.300443 0.705387 -0.454365 0.306027 0.547745 1.059719 -0.043633 0.121240 0.140839 -0.482083 0.132698 -0.430222 0.658422 0.039625 0.308024 -0.628087 -0.086086 -0.510197 0.362841 0.204718 -0.442081 -0.042414 -0.139229 0.241594 0.129695 0.244912 0.481115 0.377156 0.159609 0.209715 0.754381 -0.069451 0.752688 -0.471584 0.295702 -0.114219 -0.422490 -0.715888 0.549355 -0.037273 0.094413 0.361586 0.287756 -0.721927 -0.322578 -0.084651 -0.277282 -0.932940 0.414804 -0.116651 -0.626568 -0.198051 -0.298460 0.266778 0.467148 -0.376143 0.835665 -0.748721 -0.626553 -0.511576 -0.862901 0.146474 0.124769 0.166586 -0.154831 -0.240258 0.238821 0.600943 -0.134938 -0.341610 0.574827 0.245055 0.338009 0.153168 -0.138745 0.711084 -0.837079 0.774006 1.010670 0.363121 0.518263 0.113680
H178 0.030069 0.102868 0.167078 -0.513855 0.424993 -0.213231 0.420901 -0.428604 -0.803493 0.149723 0.250711 0.800143 -0.024845 0.391953 -0.053930 0.120149 -0.310052 0.162967 -0.187500 0.577466 -0.626255 0.455896 -0.386208 -1.038592 0.103988 -0.204245 -0.693856 -0.341793 -0.676894 -0.133856 -0.045657 0.123985 0.199162 -0.660291 0.590167 0.588666 0.485542 -0.162055 0.014018 -0.095922 -0.059287 -0.196736 -0.719205 -0.150612 0.437123 -0.652698 -0.040047 0.942869 0.411226 0.865583 -0.242929 0.751383 -0.296067 0.432050 0.308968 0.202910 0.317865 0.494270 0.302265 -0.429111 0.860914 0.001466 0.523440 -0.187149 0.508700 0.578994 -0.067993 0.644020 0.175246 0.289565 0.284107 1.113960 0.560666 -0.178028 0.301103 0.202586 0.080763 0.425504 0.117225 -0.357212 0.329138 -0.473235 -0.860795 -0.774464 0.566615 -0.091154 0.018703 0.198872 0.084479 -0.041486 0.500700 -0.398672 -0.296658 -0.346000 0.179646 0.186465 0.387521 0.071249 -0.678402 -0.139359 0.389921 -0.167782 0.835011 -0.114356 0.064777 -0.082960 -0.546856 -0.493988 -0.337806 0.248923 -0.139531 -0.681159 -0.018496 -0.476253 -0.163728 -0.253588 -0.149198 -0.294557 0.321193 -0.407436 -0.609510 0.313477 -0.352859 -0.238511 0.343481 0.136605 0.071917 0.205562
H15 0.004640 -0.003012 -0.223585 0.114524 0.114188 0.034705 0.536717 0.166223 -0.542753 0.128753 -0.215672 0.111000 -0.347140 -0.245887 -0.096616 0.435683 -0.143058 0.006062 -0.049592 0.549306 -0.391630 -0.038394 -0.471945 -0.437227 0.275402 -0.046484 -0.287765 0.441198 -0.045710 -0.221567 0.460916 0.157486 -0.254577 -0.846806 0.546431 -0.061952 0.396489 -0.467490 -0.044158 -0.023781 0.023869 0.464796 -0.210509 0.384476 0.076759 -0.646690 0.083268 0.911920 0.463783 0.609581 -0.055203 0.612951 -0.695007 0.349875 0.416887 -0.355761 0.315387 0.170082 0.338459 -0.316232 0.569754 -0.034350 0.396243 -0.761054 0.340892 0.262461 -0.399745 0.165469 0.496929 0.310612 0.255078 0.575955 0.576439 0.233126 0.735665 -0.240468 0.005537 -0.124390 0.710385 -0.205935 0.294683 0.114515 -0.885678 -0.653056 0.507268 -0.557811 0.016774 -0.148930 -0.221539 -0.520328 -0.545629 -0.183940 -0.183582 -0.530866 -0.039722 0.001428 0.101869 -0.095127 -0.668764 0.260390 0.541005 -0.168813 0.310609 -0.206770 -0.713291 -0.166876 -0.532824 -0.186398 0.194439 0.278594 -0.032776 -0.624531 0.131794 0.121792 0.014015 -0.231250 0.350520 -0.004974 0.273312 -0.153646 -0.159621 0.258080 -0.127876 0.154100 0.523069 0.534338 0.273747 -0.146697
H132 -0.384245 -0.147714 0.195732 0.323582 -0.193312 -0.722096 0.239134 0.435557 -1.050380 -0.146142 -0.151276 -0.186945 -0.251317 -0.995910 0.035816 0.451067 0.197838 0.078885 -0.177388 0.092751 -0.828491 -0.032226 -0.590826 -0.859190 -0.197833 0.248038 -0.297609 0.010057 -0.074839 -0.286809 -0.448692 -0.188010 -0.485164 -0.763738 0.742120 0.236157 0.457736 -0.747801 0.179660 -0.226324 -0.013273 0.130960 -0.060977 0.342280 0.346625 -0.464927 -0.376127 1.011356 0.630078 0.916101 -0.250514 0.520573 -0.411064 0.362891 0.916204 -0.627355 0.699979 -0.090720 0.074360 0.160489 0.149961 -0.150699 0.312443 -0.828052 0.259335 0.598885 -0.355609 0.712796 0.890106 0.398962 0.484066 0.195280 0.473750 -0.162512 0.837933 0.428274 -0.335199 -0.011291 -0.188175 0.572576 0.197119 0.312991 -0.713188 -0.641956 0.721779 -0.561960 0.327262 -0.401494 -0.433555 -0.271046 -0.225129 -0.637746 -0.289365 0.037581 -0.107958 -0.705237 -0.795149 -0.210119 -1.060326 0.133296 -0.403131 -0.211742 0.527205 0.165885 -0.427658 0.115447 -0.631411 0.027242 -0.369918 -0.074006 -0.291387 -0.347758 -0.099185 0.512132 0.301481 0.456086 -0.304248 0.064100 -0.025214 -0.443178 -0.242098 0.678401 0.377056 0.373227 -0.174843 0.773548 0.013560 -0.079243
H3 -0.179595 -0.296104 -0.132769 -0.396395 0.056592 0.209284 0.853338 0.207042 -0.348236 0.309031 -0.361772 0.518248 -0.766203 0.482611 0.108521 -0.314217 -0.367926 0.171470 0.576093 0.130815 -0.056832 -0.198085 -0.369936 -0.733255 0.136940 0.120124 -0.348058 0.629997 -0.752159 0.282246 0.850438 0.484219 -0.398136 -0.554644 0.648125 -0.335957 -0.195765 -0.287662 0.009134 0.613907 0.091350 0.214438 -0.519324 -0.138116 -0.251968 -0.376770 0.337711 1.018926 0.492003 0.712895 -0.089897 0.453754 -0.258231 0.216585 -0.087681 -0.478811 0.181652 0.417758 0.406858 0.171987 0.291074 -0.416032 0.570274 0.009091 0.110306 0.697078 -0.595405 -0.072641 0.111878 0.969630 0.126140 0.534529 0.325352 0.081185 0.812095 -1.469406 -0.518555 0.245691 0.747458 -0.000263 0.297295 0.463426 -1.043373 -0.534053 0.242382 -0.182811 0.726132 -0.016308 0.181538 0.064786 -0.347050 0.391002 -0.891746 -0.348261 -0.490336 0.844493 0.330145 0.143927 -1.032659 -0.046568 -0.142422 0.017617 -0.337720 -0.802412 0.298706 -0.235310 0.097741 0.170019 0.199653 -0.122339 0.242900 -0.816297 -0.284180 -0.041976 -0.274308 -0.446099 0.554631 0.211916 0.210079 -0.386209 -0.258995 -0.009583 -0.714877 -0.203731 0.721076 0.865515 0.645774 0.139279
H119 0.404366 -0.252056 0.290312 -0.351501 0.555486 0.546376 0.213794 -0.058442 -0.365821 0.238893 -0.009911 0.403051 0.247350 0.169314 -0.472774 0.304665 -0.311264 -0.184897 0.159020 0.005644 -0.253650 0.008015 -0.302737 -0.324933 0.352745 0.480601 -0.262811 0.586055 0.002042 -0.562187 0.377974 0.802368 -0.612535 -0.537312 0.429017 0.004469 -0.273824 -0.370929 -0.123808 -0.159850 0.324069 0.340595 -0.285703 0.643985 -0.086965 -0.562211 0.275096 1.135074 0.020972 0.360504 0.355231 0.062863 -0.673125 0.075025 0.471047 -0.633554 0.117541 0.008461 0.162925 -0.167143 -0.013637 0.410092 0.087980 -0.510544 0.923882 0.278021 -0.069616 0.396100 0.653890 0.371242 0.218343 0.509282 0.435024 0.413258 0.245666 0.655597 0.111371 -0.167590 0.435891 -0.684990 1.026958 -0.417211 -0.648779 -0.478726 0.380368 -0.471913 0.635641 -0.590335 0.634029 -0.266899 -0.141684 -0.390177 -0.822676 -0.435550 0.563578 0.111330 -0.009932 -0.099959 0.037764 0.402928 0.017927 -0.226288 -0.015179 -0.028148 -0.518348 0.114064 -0.782926 -0.407166 -0.060083 0.755761 -0.263466 -0.637953 0.507656 0.734647 0.567568 -0.397130 -0.287234 -0.231757 0.163348 0.042782 -0.190344 0.724101 0.328969 -0.074615 0.153786 0.543048 0.116941 -0.181041
H215 -0.167599 0.576798 -0.094483 0.206545 0.500508 0.242295 0.583672 -0.016110 -0.819157 -0.266472 0.076422 0.174286 0.252918 -0.156872 -0.088031 0.479694 -0.046797 0.323713 0.201056 0.874501 -0.059822 -0.398978 -0.211647 -0.445868 0.323459 -0.287843 -0.681249 0.430752 1.126904 -0.627226 0.260821 0.034814 0.406991 -0.262596 0.306995 -0.613222 0.269818 -0.348011 -0.587364 -0.584832 0.111176 0.572540 0.161383 0.314523 -0.424308 0.420175 0.407425 1.019366 0.361341 0.638937 -0.624239 0.412277 -0.383841 0.714916 0.198090 -0.135579 0.077562 0.913171 0.382490 -0.176024 0.701742 -0.248532 0.275240 -1.071775 0.568594 -0.218582 -0.595873 -0.907914 0.824296 0.649074 -0.292696 0.854790 0.244981 -0.011703 0.763395 -0.362172 0.248754 -0.604566 0.836321 -0.188911 1.016648 -0.441594 -0.627254 -1.010097 -0.303870 0.162819 0.321828 -0.282097 -0.105050 -0.632686 -0.292586 -0.113500 0.247835 -0.397739 -0.183788 -0.153358 0.154580 -0.703378 -0.011664 0.435265 0.376143 -0.400630 -0.054547 -1.075824 -0.220869 -0.909159 -0.445951 0.060732 0.560337 0.175240 -0.262529 -0.059226 0.447423 0.334688 0.160631 -0.492903 0.143633 -0.340398 0.582414 0.416868 -0.496413 0.191810 -0.180755 0.464418 0.409145 0.504094 0.088377 0.113897
H103 0.217651 0.165508 -0.210144 -0.236256 0.531638 -0.377018 0.720838 -0.145649 -0.562005 -0.065454 -0.602431 -0.517735 -0.153904 0.034635 -0.162493 0.070847 -0.374038 0.090657 0.014354 0.976208 -0.814853 -0.258875 -0.468773 -0.055395 0.122466 -0.330729 0.030815 0.771474 0.333248 -0.215646 0.568935 0.102403 0.030990 -0.347157 0.390153 -0.499421 -0.097749 -0.582823 0.334029 -0.388975 0.646483 0.192963 -0.171727 1.053911 -0.067804 -0.849816 0.363908 0.556142 0.288229 0.251673 0.244692 0.246233 -0.710195 0.383866 0.531664 -0.412654 -0.257028 -0.356559 -0.131853 -0.407506 0.233323 0.088698 0.166304 0.118973 0.638884 0.338064 -0.304175 0.419138 0.231168 -0.178297 0.117328 0.251601 0.465538 0.036150 0.775888 0.302764 0.151546 -0.468094 0.851088 0.514395 0.095236 0.009779 -0.771077 -0.287570 0.117550 -1.239319 -0.047240 0.178471 0.212952 0.319423 -0.354662 -0.423364 -0.153594 -0.489748 0.123234 -0.032232 -0.548724 0.076910 -0.470285 0.694762 0.361911 -0.207428 0.614048 0.145848 -1.586795 0.354645 -0.662318 0.136491 -0.256992 -0.120247 0.231207 -0.409175 0.828429 0.359094 0.187511 -0.394122 0.958161 -0.160677 0.021050 -0.284052 0.476488 0.559212 -0.336424 0.071705 0.759935 0.314596 0.110580 -0.642959
H63 -0.126103 0.271942 -0.447316 -0.240425 0.323002 0.180110 0.199458 -0.709067 -0.151852 0.078949 -0.136765 0.150942 -0.026035 0.209006 0.070732 0.614169 -0.804561 -0.152178 0.183120 0.837400 -0.686916 -0.459319 -0.150255 -0.130759 0.795984 0.133094 0.071348 0.903427 0.073897 -0.520672 0.611511 0.174088 0.220196 -0.294225 1.194806 -0.756930 -0.277045 -0.704464 -0.592385 -0.069369 0.029237 0.190258 -0.542130 0.055077 -0.520841 -0.416525 0.343155 0.841995 -0.035940 0.689446 -0.280977 1.120937 -0.702767 0.065711 -0.091086 -0.046797 -0.044005 0.646641 0.311426 -0.513627 0.422781 0.192721 -0.133046 -0.369482 0.409254 -0.160231 -0.862748 -0.193017 0.670213 0.762293 0.180034 0.720429 -0.025015 -0.124350 1.145153 -0.740005 0.209316 -0.310446 0.762171 -0.209878 1.052506 -0.518136 -0.637366 -0.101449 -0.511303 -0.213100 0.296692 -0.304795 -0.019078 -0.230391 -0.336182 0.082887 -0.515052 -0.566568 0.256168 -0.202939 0.410398 -0.472757 0.203659 0.270066 -0.143941 -0.774997 -0.009396 -0.164466 -0.347371 -0.377180 -1.214581 0.023032 0.057602 0.050534 -0.392947 -0.447700 0.551452 0.047054 0.544305 -0.297104 0.423427 -0.301639 0.728493 -0.303083 0.051044 0.925273 0.536473 0.025641 0.812468 0.417479 1.127971 -0.192046
H74 -0.036729 -0.046485 -0.260633 0.140055 0.071790 0.021548 0.609617 0.240382 -0.592871 0.119588 -0.258684 0.048331 -0.400788 -0.329219 -0.097122 0.486133 -0.120897 -0.012569 -0.062870 0.585733 -0.431200 -0.056405 -0.532221 -0.434241 0.347253 -0.034868 -0.297318 0.530452 -0.055063 -0.272340 0.542084 0.163259 -0.332187 -0.948712 0.626946 -0.095946 0.433945 -0.539810 -0.043350 -0.004935 0.037664 0.502193 -0.201915 0.503702 0.111284 -0.716269 0.122614 1.013897 0.530269 0.637808 -0.033810 0.685918 -0.790556 0.370229 0.499068 -0.460559 0.414058 0.192860 0.341353 -0.327166 0.585437 -0.035897 0.450315 -0.841296 0.347139 0.305913 -0.413645 0.200081 0.564948 0.343246 0.276267 0.623076 0.667264 0.300485 0.850155 -0.315722 -0.047587 -0.152982 0.810894 -0.192719 0.333915 0.204627 -0.981264 -0.710667 0.577897 -0.698597 0.022398 -0.221041 -0.298514 -0.591209 -0.684227 -0.196363 -0.219783 -0.565166 -0.102304 -0.022812 0.105883 -0.108901 -0.759647 0.277675 0.608478 -0.119344 0.331261 -0.187898 -0.868530 -0.146651 -0.552066 -0.196463 0.211445 0.318602 0.009406 -0.723501 0.198889 0.128041 0.020273 -0.245959 0.415272 0.006255 0.257243 -0.168852 -0.090645 0.291244 -0.135103 0.179351 0.589683 0.562162 0.329515 -0.137592
H152 -0.006181 -0.011713 -0.220690 0.118135 0.107418 0.030102 0.521539 0.172475 -0.540692 0.111405 -0.199587 0.104917 -0.334265 -0.224206 -0.077890 0.417210 -0.143373 0.009287 -0.062146 0.522796 -0.377182 -0.042463 -0.469032 -0.429676 0.270782 -0.032989 -0.289176 0.429724 -0.042112 -0.221936 0.435112 0.161764 -0.246104 -0.823541 0.518121 -0.055677 0.389017 -0.449788 -0.033619 -0.032919 0.031986 0.450833 -0.215661 0.372298 0.075463 -0.625262 0.075028 0.890808 0.440181 0.588865 -0.053625 0.598282 -0.655147 0.331972 0.404789 -0.357601 0.321309 0.169537 0.325986 -0.304614 0.538537 -0.043431 0.368553 -0.730605 0.336924 0.255983 -0.373822 0.165837 0.487512 0.296772 0.243037 0.557666 0.550995 0.224783 0.722316 -0.233006 0.001802 -0.120459 0.688857 -0.202807 0.297602 0.115760 -0.848721 -0.646001 0.497036 -0.535794 0.010341 -0.146797 -0.220792 -0.511549 -0.519791 -0.193210 -0.171314 -0.521326 -0.026889 -0.005115 0.108317 -0.086250 -0.647043 0.251981 0.512141 -0.153263 0.302216 -0.212346 -0.682271 -0.167325 -0.510268 -0.171683 0.197641 0.269874 -0.029968 -0.597876 0.119056 0.115063 0.021916 -0.237735 0.331882 0.004223 0.256584 -0.155345 -0.152145 0.246000 -0.130752 0.142850 0.506870 0.509479 0.278728 -0.138504
H189 -0.138073 -0.354601 0.331572 0.091170 0.843642 -0.579062 0.780951 -0.014278 -0.670043 0.591773 -0.514447 -0.541485 0.176277 -0.469373 -0.712820 0.402837 -0.075472 -0.130717 -0.313692 0.319133 -0.281891 -0.334306 -0.572842 -0.273717 0.609132 -0.222746 -0.403079 0.039551 -0.235242 -0.129968 0.390675 -0.458722 0.294398 -0.660817 0.073839 -0.183810 0.521019 -0.339157 -0.219833 -0.164766 0.490494 0.307790 0.171504 0.467160 0.616727 -0.853806 0.423941 1.257670 0.400688 0.281113 -0.066539 0.266011 -0.432008 0.370217 0.672873 -0.450351 0.213835 -0.324389 0.044678 -0.808618 0.130125 -0.054734 -0.073758 -1.196082 -0.023276 -0.116860 -0.275634 0.192056 0.468025 -0.404250 -0.005094 0.771747 0.729763 0.747636 0.365083 0.551711 0.415462 0.360741 0.267933 0.110533 -0.097727 -0.480182 -0.694177 -0.780768 0.672342 -0.615519 -0.227898 -0.146411 -0.359571 -0.131999 0.101560 -0.571461 0.289516 0.085114 -0.322366 -0.260001 -0.207133 -0.248307 -0.616558 0.248781 0.509972 -0.112929 0.721563 0.327926 -1.299252 -0.511060 -0.447581 -0.519467 0.192263 0.485986 -0.059638 -0.496810 0.874147 0.091796 0.629485 0.058759 0.257897 0.494665 0.033229 0.341539 -0.338618 -0.073371 -0.029061 0.480433 -0.118180 0.643029 -0.026609 -0.415684
H184 0.544527 0.354413 -0.625675 0.455504 0.499890 0.302046 0.222868 0.354426 0.103087 -0.037211 -0.010226 0.305734 -0.136366 0.399224 -0.033815 0.445429 -0.227461 0.330487 0.048934 0.277577 -0.050548 0.641626 -0.442234 0.000089 0.099043 -0.384138 0.229070 0.857757 -0.102495 -0.616961 0.711881 -0.291537 -0.024477 -0.800085 1.447047 -0.085117 0.379045 -0.055681 -0.485934 0.490811 0.304643 0.996017 -0.004050 0.382488 -0.540287 -0.408356 0.128939 1.205369 -0.251988 0.875236 -0.606251 0.095521 -0.531503 -0.410246 0.245744 -0.098895 -0.013117 0.259230 0.604873 -0.199582 1.098165 0.180905 -0.452299 -0.542117 0.590755 -0.625889 -0.464295 -0.758352 0.450166 0.489278 -0.105479 0.272166 1.022289 0.588343 0.901914 -0.881070 0.203793 -0.259650 1.209424 -0.793285 0.309631 0.240385 -0.839180 -0.056441 0.154308 0.135586 0.228942 -0.321869 -0.154267 -0.975804 -0.141360 0.297873 -0.381467 -0.670386 0.845323 0.439514 -0.010623 -0.182003 -0.499741 0.262515 0.622911 -0.363241 -0.481909 -0.374571 0.116159 -0.073253 -0.235537 -0.015252 0.204198 0.199776 -0.804834 -0.645484 -0.170039 0.395878 0.032948 0.314543 0.458247 -0.462446 0.552409 -0.260882 0.186952 -0.082364 0.339745 -0.074823 0.675102 0.552385 0.008447 0.000951
H112 -0.283959 -0.103030 0.054401 -0.234377 0.863725 -0.054551 -0.272204 0.291451 -0.244197 0.138895 -0.271569 0.341264 -0.600988 -0.269420 -0.316904 0.151638 0.308226 -0.756686 -0.285786 0.373182 -0.535512 -0.309614 -0.226107 -0.461029 0.128103 0.509211 0.199852 0.818127 -0.760711 -0.488195 0.970726 0.356846 0.188341 -0.623181 0.660120 0.283383 0.547945 -0.720038 -0.330979 0.147013 -0.085284 0.651333 -0.207811 0.502063 -0.234701 -0.197013 0.334586 0.745580 0.410267 0.512738 0.315475 0.816091 -0.521119 0.225677 0.666099 -0.463500 0.184304 -0.196827 0.559310 -0.028477 0.057438 -0.130242 0.697912 -0.182407 -0.171490 0.383822 0.115192 0.688311 0.412530 0.573367 0.276622 0.062168 0.218689 0.047324 0.929853 0.607616 -0.412290 0.059734 0.494915 -0.203207 -0.151565 -0.427349 -0.291522 -0.119374 0.173610 0.047241 -0.198037 0.106741 -0.376050 -0.161403 -0.037716 -0.408493 -0.391630 -0.551653 0.368506 -0.459825 0.200210 0.819430 -1.125177 -0.044754 0.325790 0.326062 0.562038 -0.027848 -0.839817 -0.299240 -0.627420 -0.205656 -0.322443 -0.091339 0.150368 0.090906 0.315015 0.476767 0.044297 -0.309358 -0.016551 -0.349424 0.443386 -0.094027 -0.217027 -0.085565 -0.025801 0.537033 0.464786 0.387302 0.385058 -0.485704
H123 -0.025009 0.142504 -0.363905 -0.012330 0.161890 0.161803 0.417543 0.232474 -0.755934 -0.262946 0.209405 0.126146 -0.000924 -0.326687 0.394559 0.653202 0.008138 0.193103 -0.243959 0.187200 0.035215 -0.507978 -0.127196 -0.413029 0.200925 0.077497 0.196193 0.667730 -0.328530 0.001462 0.205864 0.121295 0.050960 -0.211727 0.598348 -0.219003 0.463969 0.245063 0.140646 0.192973 0.296861 0.500950 -0.032720 0.766664 -0.223047 -0.624161 0.171019 0.624117 0.679687 0.212646 0.119554 0.412572 -0.142947 0.585759 0.070236 -0.089674 -0.045629 0.138793 0.203697 -0.740451 0.372192 0.518013 -0.028973 -0.680288 0.278951 0.128904 0.117598 0.001964 0.790017 -0.165401 -0.052336 0.515795 0.366153 0.061668 0.476807 0.348451 0.078802 -0.593065 0.733904 -0.364534 0.144072 0.087365 -0.501805 0.044325 0.141085 -0.375495 -0.162343 -0.351062 -0.493705 -0.351214 -0.690028 -0.548263 0.446962 -0.287178 -0.039377 -0.456321 0.301423 -0.094067 -0.166832 -0.097854 0.630771 -0.191555 -0.357511 0.275370 -0.692008 0.128470 0.049715 -0.638141 0.270045 0.164907 -0.054219 -0.364870 0.118901 -0.154677 0.256075 -0.030613 0.594328 -0.327621 -0.343340 -0.264852 0.254908 0.048713 0.600116 0.054284 -0.132316 0.060377 0.096716 0.326904
H57 -0.774480 0.158340 0.515661 0.298383 0.343492 -0.014269 0.975749 0.414965 -0.813593 -0.236764 0.125063 -0.104505 -0.233425 -0.385431 -0.187421 0.031070 0.193797 0.122143 -0.070766 0.852391 0.094478 -0.643315 0.021537 -0.491191 -0.253930 -0.298343 -0.847724 0.458054 0.072176 -0.316841 0.992676 -0.084444 -0.215075 -0.622452 0.196982 -0.608847 -0.265799 -0.576772 -0.266870 -0.062103 0.280223 0.492776 -0.328718 0.650690 -0.277265 -0.317211 0.287514 0.373113 0.672173 0.064802 0.170263 -0.205151 -0.131196 0.400510 0.198316 -0.008257 0.436192 0.226865 0.233775 -0.105838 0.505587 0.149897 -0.008558 -0.468434 0.162321 0.822159 -0.147870 0.080890 0.844535 -0.312562 -0.199071 -0.084528 0.099446 -0.067817 0.436693 0.155080 0.065213 0.017752 0.522306 0.156232 0.521777 -0.242767 -1.024858 -0.779020 0.542015 0.045792 0.629723 -0.079847 0.713543 -0.839786 -0.674782 -0.107377 -0.074706 -0.426842 -0.681486 -0.263692 -0.422221 -0.065365 -0.541502 0.593335 0.621789 -0.360754 0.168215 -0.066792 -0.405685 0.088867 -0.198676 -0.292209 0.511061 0.276958 0.264735 -0.422013 0.008238 0.393940 0.187688 -0.414687 -0.025758 0.303789 -0.108089 0.249086 0.088928 0.163909 -0.787037 0.732450 0.154307 0.188898 0.435702 -0.687045
P200 -0.172412 0.057628 0.456787 0.144659 0.086450 -0.453937 0.124139 0.049013 -0.421181 0.071430 0.296588 0.172256 -0.473686 -0.205847 -0.149445 0.295955 0.397376 0.307976 0.457987 0.083623 0.219806 0.146230 -0.388405 -0.755024 0.417700 -0.038146 -0.128166 0.147761 -0.244878 -0.395651 0.494394 0.344127 -0.584128 -0.565080 0.160486 0.171875 0.068508 -0.423246 0.219014 -0.411187 -0.205216 -0.231727 0.129836 0.962259 0.392394 -0.243442 0.072899 0.666313 0.223281 0.698612 0.099885 -0.296479 -0.743315 0.333067 0.592007 0.072389 0.595435 -0.093343 -0.136047 -0.146136 0.301585 -0.105427 0.537225 -0.760683 0.233863 0.418689 -0.208319 0.325583 0.090727 -0.102460 0.271807 0.428437 0.405864 -0.283337 0.583259 0.223778 -0.231114 -0.055355 0.653158 -0.157840 0.304410 0.017896 -0.507360 -0.648159 0.398575 -0.090725 0.211734 0.107454 -0.309245 0.270060 -0.070414 -0.300085 0.139822 -0.367826 -0.059667 0.155654 -0.466018 0.019024 -0.652771 0.003087 0.489826 0.598845 0.348666 0.041013 -0.417858 -0.150676 -0.197446 -0.321330 0.313231 0.409632 0.094026 -0.156933 0.392356 0.191619 -0.127848 -0.198193 0.745267 0.376748 0.108940 0.021632 0.206173 -0.025809 -0.533241 -0.045547 0.427038 0.207150 -0.209142 -0.146426
H86 0.226230 0.001688 -0.268488 -0.309146 -0.510632 0.097001 0.276426 0.503974 -0.404086 -0.324639 -0.160511 0.088261 -0.101304 -0.428821 0.141539 0.141254 0.127357 -0.228558 -0.203277 0.554255 -0.457938 0.400877 -0.243142 0.064660 0.689365 0.100231 -0.236700 -0.116724 0.336649 -0.204057 -0.099552 -0.245541 -0.410249 -0.307115 0.172356 0.135927 0.475341 0.112857 -0.178352 0.120174 0.155886 0.328044 0.142668 -0.264399 0.182208 -0.759732 -0.065996 0.362896 0.955692 0.363014 -0.092209 0.606457 -0.686110 0.383900 0.405545 -0.620736 0.212138 0.639156 0.262868 -0.229034 0.405610 -0.382762 0.607405 -0.651256 0.158516 -0.503385 0.048265 0.042011 0.401954 0.330076 0.556566 0.490407 0.509850 0.435133 0.029146 -0.313361 0.170166 -0.031657 0.303299 -0.558339 -0.158003 0.822138 0.072171 -0.589741 0.013105 -0.365865 -0.259544 -0.146350 -0.357412 -0.373733 -0.423708 -0.076027 0.507648 -0.520955 -0.043814 -0.095277 0.233360 -0.363219 -0.493601 0.099005 0.304415 0.033807 -0.003025 -0.390758 -0.360699 0.304380 -0.101202 0.474576 -0.450350 0.033697 0.323229 -0.689100 -0.091377 0.204592 -0.285345 -0.094928 0.205916 -0.563391 -0.243925 0.040884 -0.554989 0.000017 -0.408706 0.175848 0.162729 0.431767 -0.208665 0.430939
H197 0.067897 -0.159712 -0.386808 -0.091242 0.425278 0.184066 -0.037845 0.352610 -0.856700 0.642909 -0.303861 0.273290 -0.011442 0.032734 -0.676538 -0.185702 -0.094338 -0.405649 -0.041797 0.031880 0.536618 -0.139451 -0.324884 -0.020199 0.028146 -0.076441 0.306045 0.916929 0.206612 -0.440366 0.803978 -0.579065 0.112076 -0.904499 0.690689 -0.080652 0.179288 -0.269097 -0.058180 0.369612 0.211970 0.171962 -0.081154 0.526912 0.459098 -0.216748 0.607855 0.630902 -0.016219 0.377854 0.071778 0.720495 -0.768088 -0.496154 0.221187 -0.048955 0.170885 -0.008535 0.302857 -0.156541 0.211074 -0.112471 0.152005 -0.980293 0.110139 0.102368 0.066975 -0.324442 0.229113 -0.133795 -0.164783 0.519480 0.312273 0.373249 0.525571 0.151070 0.341968 -0.124552 1.393352 -0.562988 0.201047 0.565451 -0.669170 -0.333507 0.309052 -0.467411 0.338901 0.230699 0.100507 -0.391273 -0.318544 0.563183 -0.101935 -0.485574 -0.200350 0.465633 0.132937 0.123138 -0.205657 0.296459 0.483901 -0.282394 0.109535 0.095182 -0.704903 -0.466656 -0.076211 0.343816 0.197541 0.210368 0.080251 -0.922664 0.506638 -0.022067 -0.140166 0.050199 -0.409303 -0.254597 0.249710 -0.143377 0.446285 -0.012348 0.367599 0.070745 0.537041 0.349564 0.002751 -0.076667
H38 -0.265168 0.043243 0.205779 0.214893 0.209035 -0.034691 0.311051 0.566989 -0.835478 -0.038136 -0.333845 0.332604 -0.367585 -0.189722 -0.164753 0.036346 0.449004 -0.120684 -0.359083 0.124642 -0.175021 0.000502 -0.297293 -0.913696 -0.050404 -0.508163 0.096760 0.241556 0.843130 -0.253303 0.079329 0.041633 -0.214051 -0.460221 0.513473 0.278976 1.008979 0.041164 0.100044 -0.262088 -0.239789 0.570559 -0.608230 -0.143719 -0.208661 -1.117373 -0.313136 0.671251 0.336586 0.353915 0.565783 0.287426 -0.366800 0.235826 0.196887 0.651560 0.000084 -0.569603 0.530163 0.221057 0.537225 -0.353152 0.573037 -0.514312 0.259411 0.571493 0.189243 0.358637 0.562718 -0.401255 0.650076 0.217452 0.185552 0.167632 0.275441 0.288257 0.601782 0.081213 0.727507 -0.690289 0.105703 -0.165887 -0.832885 -0.729087 0.110903 -0.635843 0.060286 0.369340 -0.005094 -0.541862 0.187285 -0.424497 0.228147 -0.369883 0.014209 -0.257527 -0.513000 0.316545 -0.691613 0.391868 0.621539 -0.255028 -0.160648 -0.101868 -0.684920 -0.240740 -1.126348 0.079372 0.176292 0.015424 0.112637 -0.244729 0.341899 0.370268 0.143962 -0.343689 0.547138 -0.327183 0.031119 -0.380393 -0.048580 0.121446 0.116627 0.195650 0.210026 0.988969 -0.039686 -0.530845
H12 0.297674 0.200362 -0.457778 0.301691 0.423382 -0.313775 -0.009177 0.311970 -0.421302 0.119448 -0.014610 -0.534624 0.063092 0.295690 0.440396 0.428553 -0.036762 0.305564 -0.460924 0.137563 -0.624340 -0.020756 0.019474 -0.389095 -0.419925 0.193359 -0.401781 -0.145113 -0.653022 -0.331797 0.664671 -0.224145 0.144493 -0.705063 0.398734 0.206965 0.224003 -0.523803 -0.431631 0.206524 -0.022354 0.525022 -0.542974 -0.066291 -0.084324 -0.621258 -0.173567 0.563411 0.126035 1.078629 -0.142611 0.010019 -0.775943 -0.266734 0.195227 0.093438 0.413959 0.239699 -0.157805 -0.020009 -0.439215 0.514639 0.586468 -0.772253 0.359525 -0.140191 -0.710377 0.380835 0.651594 0.268656 0.160342 0.565285 0.130178 -0.011512 1.091500 -0.264554 0.220524 -0.222596 0.095881 -0.563348 0.440498 -0.091532 -1.196032 0.278907 0.133415 -0.411797 0.281150 -0.550639 -0.344126 -0.754987 -0.432161 -0.344238 -0.583881 0.061905 -0.036451 -0.134780 0.254020 0.042578 -0.543926 -0.509856 0.900261 -0.330055 0.094292 -0.026196 -0.312118 -0.241827 -0.253331 -0.262245 0.081843 -0.455450 -0.355882 -0.526934 -0.000539 0.909378 0.126435 -0.316767 0.588772 -0.011618 0.381202 0.373059 -0.308316 0.751618 -0.230902 0.738947 0.216435 -0.092732 0.075783 -0.155139
H14 0.626585 0.379120 -0.097544 -0.184297 0.347394 0.246466 0.516123 -0.476635 -0.276481 -0.172473 -0.164525 0.330058 -0.546965 -0.256562 0.124211 -0.390005 -0.259968 -0.133855 -0.053458 0.327179 -0.356212 0.113161 -0.234770 -0.473500 -0.277065 -0.004954 -0.579005 0.308444 -0.208481 -0.550909 0.715839 0.593425 -0.101765 -0.383810 0.517404 -0.392821 -0.371473 -0.425726 0.194334 0.811513 -0.146730 0.874894 0.301883 0.543362 0.043052 -0.390096 -0.478526 0.628670 1.292916 0.739375 -0.378751 0.122044 -0.816445 0.293630 0.211666 -0.145047 -0.295654 0.188228 0.618728 -0.264475 0.636820 0.371335 -0.249999 -1.159793 0.826091 0.585953 -1.192701 -0.026666 0.452277 0.739386 0.042955 -0.267569 0.652713 -0.352257 1.062164 0.176075 0.061310 -0.397854 0.441496 -0.470670 0.656169 -0.318045 -0.978352 -0.474416 -0.512622 -0.103051 0.482354 0.066926 -0.316227 -0.463789 0.140525 -0.039205 -0.082767 -1.352664 0.091390 0.296770 -0.151775 0.093284 -0.590411 0.354617 0.494757 0.011749 -0.076140 -0.567605 -0.144374 -0.194413 -0.060077 -0.249824 0.405723 0.212260 -0.404755 -0.297431 0.041072 0.546985 0.563311 0.267448 0.335544 0.404707 0.571971 0.231574 -0.077652 0.185230 -0.533035 0.529151 1.076747 -0.015126 -0.329466 -0.601875
H21 0.624677 0.188132 -0.338542 -0.038468 0.391075 0.238130 0.110242 -0.367186 -0.673161 -0.083832 -1.033122 -0.141650 -0.711591 -0.706929 0.214560 0.000234 0.181778 -0.157418 -0.105589 0.653827 -0.646617 -0.170514 -0.365168 -0.431653 -0.171916 -0.077636 0.134402 0.545458 -0.305094 -0.113442 0.635153 0.477659 0.344332 -0.340951 0.893292 -0.392166 0.615650 -0.305719 -0.311929 0.633961 0.173037 0.864838 0.243631 0.371510 -0.369686 0.237631 0.180026 0.603882 0.569969 0.207666 -0.226125 0.700132 -0.746790 0.538534 0.153104 -0.245376 -0.109460 0.142412 0.557033 -0.309618 0.388726 -0.205127 -0.416792 -0.509593 0.863551 -0.288601 -0.866422 -0.618764 0.877437 0.652041 0.778731 -0.018596 0.054913 0.118069 1.226448 -0.085285 -0.274034 -0.343445 0.168876 -0.263974 0.326284 -0.236824 -0.120061 -0.778208 0.001897 -0.239894 0.531464 0.162020 -0.159367 -0.354221 -0.826091 0.380575 -0.251885 -0.495583 0.112546 -0.271783 -0.158908 -0.605410 -0.072856 0.290645 1.375058 -0.610725 0.022915 -0.802776 -0.034393 -0.847491 -0.722796 -0.356318 0.384525 -0.475295 0.367606 -0.292889 0.116789 0.540177 0.618285 -0.007411 0.410966 -0.368376 1.107753 0.061724 -0.294531 0.245331 -0.128154 0.457349 0.944748 0.613035 0.371148 -0.167278
H220 -0.500841 0.165474 0.180378 0.068129 -0.476486 0.507739 0.458647 -0.682120 -0.409167 -0.133734 -0.283933 0.389307 -0.074706 -0.093211 0.038787 0.923348 0.057688 0.274765 0.561199 0.552406 -0.326649 0.214655 -0.078044 -0.344439 0.028817 0.502977 -0.558348 0.094854 -0.543261 -0.804543 0.188139 -0.000949 0.634190 -0.539809 1.342520 -0.472901 -0.202050 -0.306420 -0.109941 0.154821 -0.054684 0.128261 -0.043411 0.900301 -0.084022 -0.114790 0.239316 0.497631 0.852748 0.585694 -0.123844 0.595596 -0.561750 0.259034 0.570150 -0.058898 0.289020 0.670033 0.076765 -0.462063 0.311088 -0.056673 -0.273496 -0.431765 0.727180 0.448242 -0.468590 -0.071288 0.882485 0.236708 0.793053 0.024293 0.457657 -0.872817 1.091840 -0.199882 -0.169156 0.117247 0.441374 0.270801 0.655121 0.255783 -0.399377 -0.789764 -0.117882 0.067359 0.749304 -0.445615 -0.020716 -0.927776 -1.067395 0.429174 -0.297542 -0.492507 0.242899 -0.273285 -0.160706 -0.310145 -0.395796 0.591485 0.568149 0.136794 0.219593 -0.661858 0.365556 -0.015793 -0.730386 -0.254250 0.543163 0.396852 0.323014 -0.313382 0.120590 0.419594 0.095981 0.191832 0.129688 0.066318 0.422234 0.409902 -0.912505 0.504430 -0.098127 0.585646 0.813382 0.269355 0.318696 -0.467919
