1622 128
H79 0.594506 -0.199903 -0.297402 0.003421 -0.065771 -0.175866 0.122295 0.441117 -0.015230 -0.276429 0.054505 0.126611 0.066151 -0.409981 0.168192 -0.352639 0.166435 -0.229994 -0.129665 0.361446 -0.329874 0.332037 0.383483 0.481105 0.615154 0.087483 -0.374398 -0.286200 0.130602 -0.109792 -0.210874 -0.097812 -0.376688 0.132001 -0.070784 0.330382 -0.008017 0.267201 -0.010629 -0.276844 -0.040462 -0.085011 0.512312 -0.048568 -0.365600 -0.237531 0.106326 -0.121975 0.383029 -0.026619 0.201994 0.041821 -0.254312 0.172452 0.096593 -0.367819 0.037897 -0.014249 0.047606 -0.246066 0.169422 -0.097087 -0.074469 -0.221547 0.122368 -0.212979 -0.235110 -0.010764 0.390302 0.160441 -0.047398 -0.083348 -0.270733 0.256737 -0.108037 0.008932 0.179254 0.484856 0.104924 0.396362 -0.538877 0.099159 0.107819 -0.068283 -0.075342 -0.450860 0.477106 0.065331 -0.422470 -0.280286 -0.105176 0.099519 0.651475 -0.533686 0.329774 -0.728042 0.394872 -0.068747 -0.203108 -0.046405 -0.238587 -0.529279 -0.069614 0.327690 -0.072120 0.096155 -0.178766 0.112662 -0.034395 0.457896 0.141495 -0.477352 -0.296649 0.036863 -0.095100 -0.225229 0.303891 -0.298237 0.050207 0.038017 -0.392090 -0.247884 -0.274079 0.066466 -0.224185 -0.035229 -0.211068 0.237110
H95 -0.061062 -0.020886 -0.383487 0.197154 -0.077806 0.266369 -0.016127 0.415252 0.404692 -0.318157 -0.242971 0.122560 -0.007457 0.090424 -0.298620 0.161424 0.310114 0.221074 -0.112470 0.253879 -0.088979 0.357740 0.391234 0.440638 0.146398 -0.247044 -0.130237 -0.537438 -0.149581 -0.115255 -0.147322 -0.421115 -0.291737 -0.129053 -0.423064 0.142839 0.090482 0.418233 0.160732 -0.397285 -0.034259 -0.105324 0.532102 -0.374872 -0.599356 -0.075656 0.082492 0.281797 0.128953 0.066902 0.647967 0.117933 -0.493974 -0.103946 0.304108 -0.517538 0.351779 0.244267 -0.155568 0.377534 -0.394837 0.494334 0.153141 0.396384 -0.456419 -0.341787 -0.119373 -0.242435 0.180682 0.071121 -0.271082 -0.351614 -0.513470 0.392838 0.184385 -0.473729 -0.023132 0.218999 0.176182 0.076288 0.267868 0.106531 0.421034 0.333244 -0.007883 0.455872 0.143684 -0.198756 0.133838 -0.083002 0.072967 0.120832 0.285157 -0.590746 0.066126 0.027373 0.227973 -0.091850 -0.743498 -0.441296 0.357801 -0.112202 0.321504 0.284101 0.044031 0.175989 -0.277121 0.515719 -0.034821 0.150280 0.815772 -0.290304 -0.007688 -0.353293 -0.321838 -0.372092 0.160319 -0.375137 0.081657 0.153185 0.151447 0.466091 -0.176260 0.093172 0.083323 -0.045285 0.073983 0.183626
H209 0.099391 -0.071930 -0.122499 0.625636 0.498222 -0.147422 0.359846 0.988699 0.365912 0.287499 -0.066192 -0.019460 -0.428013 -0.094488 -0.575570 0.166577 0.045838 0.028759 -0.012554 0.328210 0.115676 0.629533 0.502038 0.056666 0.428723 -0.183099 -0.230741 -0.493696 -0.090076 0.153539 -0.136530 -0.326224 -0.314005 0.014135 -0.678208 0.339034 0.472361 0.475594 0.052740 -0.418444 -0.092686 -0.107740 0.002932 -0.526001 -0.119946 -0.073243 -0.166907 0.013734 -0.136603 0.429330 0.089581 -0.180434 -0.040072 -0.106684 0.194830 -0.086381 0.101480 -0.204541 0.534679 0.477677 0.378776 -0.126061 0.392640 -0.150005 -0.102465 0.260785 0.544137 0.449166 -0.021587 -0.575513 -0.491602 -0.188371 0.179220 0.429875 0.338234 -0.489205 -0.083902 0.077043 -0.188092 -0.031441 -0.154153 -0.017673 0.213548 -0.409586 0.570486 -0.317426 0.196059 0.031119 -0.724253 -0.668258 0.019055 -0.326789 0.287685 -0.601771 -0.191224 0.274139 0.235739 0.227916 -0.560979 0.078933 -0.582067 -0.082667 0.496531 0.348630 -0.543978 0.052352 0.169295 0.294144 0.016560 0.181022 0.282889 -0.750633 -0.109275 -0.171958 0.240243 -0.081419 -0.237099 -0.150331 -0.537477 0.125694 0.180092 0.059107 0.530828 -0.217252 -0.090396 0.052264 0.181926 0.268502
H191 0.059286 -0.403093 -0.316836 0.265008 -0.135643 -0.230839 0.414716 0.521372 0.498137 -0.165409 0.183244 0.185938 0.038466 -0.188522 -0.427068 -0.181446 0.025717 -0.002208 0.542669 0.048531 -0.060923 0.037194 0.456478 0.242707 0.152809 0.244254 0.291697 -0.329599 0.073126 -0.235427 -0.312331 -0.579544 -0.436027 -0.243096 0.107434 0.103173 -0.182527 0.005737 0.477541 -0.735573 -0.226051 -0.245103 0.738346 -0.601701 0.093410 0.278735 0.546075 -0.263714 -0.136196 -0.006194 -0.037915 -0.194364 -0.475081 -0.674364 -0.087706 0.027748 0.304328 -0.020170 0.551928 0.383790 -0.097192 -0.087985 0.307831 0.073082 -0.070469 0.467924 0.128000 -0.343411 -0.088318 -0.497431 -0.111108 0.011393 -0.198184 0.100709 0.333271 0.057929 -0.160956 0.080038 0.329975 0.109407 -0.658195 0.035738 -0.260701 0.391840 0.263920 0.014972 0.412706 0.248065 0.015883 -0.669647 -0.598429 0.248929 0.503815 -0.395604 -0.075686 -0.133257 0.481008 0.199529 0.030553 0.002084 0.012913 -0.342472 0.235345 0.146143 0.547647 -0.435746 0.150074 0.347543 0.764242 0.367845 0.564150 -0.712306 -0.078410 -0.544317 -0.343583 0.189357 -0.405964 0.108857 0.032037 -0.127708 0.343039 0.199299 0.099277 -0.574325 0.029829 0.093865 0.179292 0.189875
H149 0.664703 0.034212 -0.434925 -0.107368 -0.013301 0.226800 -0.077772 0.309800 0.802732 0.127130 -0.168866 0.079016 0.423155 -0.400627 0.246500 -0.028634 0.304244 0.152558 -0.232451 0.271076 -0.499296 0.179859 0.175700 0.533786 0.212492 -0.389549 -0.323216 -0.476478 -0.377408 0.141507 -0.246520 -0.034347 -0.409651 -0.498460 -0.307797 0.225431 0.122778 0.016307 0.349183 -0.533631 -0.296827 -0.291921 0.516379 0.192483 -0.126820 0.328229 -0.245764 0.429986 0.250031 0.149384 -0.174765 -0.141987 0.245505 0.032825 0.418028 0.228035 0.248482 0.179919 0.242280 0.569744 -0.071195 0.336400 0.414763 0.090036 0.143073 0.299634 0.169836 -0.339344 0.247358 -0.088937 -0.223423 -0.440979 -0.150709 0.474888 0.113661 -0.264045 -0.550335 0.311405 -0.135481 0.335183 -0.075036 -1.013430 -0.220285 0.112189 0.351883 0.195180 0.262762 -0.169085 -0.704495 -0.417120 -0.116883 0.301836 0.597454 0.056033 -0.241717 -0.544140 0.326693 0.232239 -0.271509 -0.009375 0.399615 -0.051299 0.558395 0.222653 -0.078354 -0.378239 -0.547949 -0.024048 0.690121 -0.244946 0.293675 -0.264423 -0.360578 -0.454776 0.692892 -0.136165 -0.108447 0.051175 0.148577 0.705244 -0.404641 0.227667 0.546877 -0.492006 -0.298649 0.122343 0.281623 0.026709
H87 0.681818 -0.469302 -0.079028 0.222205 0.017589 -0.011100 0.147339 0.323347 0.304155 -0.243571 -0.334478 -0.185488 -0.272981 -0.487077 0.066849 -0.326986 0.319568 -0.138255 0.022853 0.303604 -0.590099 0.667552 0.252393 0.659867 0.272868 -0.130172 -0.308637 -0.628720 -0.242050 -0.276029 -0.253042 -0.311414 -0.579516 0.239438 0.221448 0.272015 -0.118038 0.109401 -0.121165 -0.002847 0.082884 -0.222483 0.368920 -0.308006 -0.322673 -0.250294 -0.115908 -0.101273 0.058180 0.139423 0.223405 0.162614 -0.086755 -0.283568 -0.359790 0.080509 -0.187659 -0.337759 0.833547 -0.119351 0.249650 -0.009016 0.155127 0.153896 -0.051153 -0.157590 0.140893 -0.008545 -0.264648 -0.052144 0.115164 -0.266316 0.108158 0.304479 0.096358 -0.173385 -0.172818 0.448206 0.132185 0.445524 -0.707112 -0.280125 0.355490 -0.174093 0.105083 -0.450571 0.871788 0.359135 -0.314915 -0.345886 0.018864 0.618952 -0.121414 -0.348535 0.391616 -0.516920 0.120532 0.155687 0.139099 -0.461109 -0.138298 -0.694727 0.189464 0.172695 0.174828 0.240428 -0.576166 -0.029986 0.107800 0.101569 0.452784 -0.668142 -0.527155 0.231073 0.340935 0.192981 0.241331 -0.417256 -0.013005 -0.243068 0.218981 -0.131150 -0.384590 0.076330 0.135755 -0.041284 0.220355 0.279320
H89 0.353898 -0.350891 -0.121679 -0.200212 0.287818 0.139166 0.128044 0.505007 -0.278898 -0.128178 -0.211205 0.328439 0.112432 -0.530165 0.258857 0.043976 0.124058 -0.426499 0.137164 0.340553 0.003514 0.295786 0.460581 0.216085 0.506465 0.139237 -0.117719 -0.148522 -0.342281 -0.150550 -0.221224 0.002525 -0.475778 -0.172588 0.135048 0.107568 0.286791 0.557521 0.288329 -0.450799 -0.002894 0.151858 0.299627 0.090744 -0.578138 0.016968 0.192295 0.220466 0.296333 0.043696 0.046267 0.022732 -0.342119 0.015738 0.109581 -0.518630 -0.017443 -0.384994 -0.019191 -0.253861 0.283064 0.093850 -0.354030 -0.541187 -0.264742 -0.227401 0.155080 -0.176227 0.631391 -0.250342 -0.170745 -0.533009 -0.561853 0.402771 -0.095528 -0.029949 -0.030414 0.047377 0.392180 0.358005 -0.443782 -0.126335 0.002091 0.135992 -0.094773 -0.366362 0.528871 -0.185427 -0.564267 -0.356659 -0.088327 0.218655 1.087248 -0.586551 -0.055881 -0.831043 0.437612 -0.208581 -0.127867 -0.476400 -0.038426 -0.563682 -0.132332 0.445311 -0.225381 0.347233 0.011022 0.327220 0.211176 0.559875 0.233740 -0.437067 -0.239536 -0.290318 0.188380 0.224196 0.123848 -0.445030 -0.459189 -0.188483 0.068397 -0.117264 0.373615 -0.767505 0.059278 -0.074801 0.314530 0.722627
H106 0.201719 -0.129088 0.224318 0.427014 0.287476 -0.223274 -0.044191 0.419161 0.287238 0.248631 -0.390104 -0.175579 -0.149393 -0.666168 -0.380415 0.737465 -0.044119 -0.224361 0.211373 0.702440 -0.606630 0.541909 0.350184 0.294579 0.475235 0.502100 -0.269561 -0.252311 0.172238 -0.518261 -0.340338 -0.255509 -0.220444 0.167999 -0.573536 0.022261 -0.192158 0.393647 -0.025575 -0.685693 -0.268654 -0.326397 0.493295 -0.241932 -0.073687 0.065931 -0.061728 -0.577840 -0.150606 0.551515 0.271633 -0.076233 -0.814407 -0.128485 0.090986 -0.347679 -0.440137 0.313806 0.140106 0.417206 0.154413 -0.072067 -0.332774 0.026896 -0.208421 -0.274193 0.227191 -0.212000 0.383182 -0.376669 0.244166 -0.271877 -0.666843 0.709268 0.798525 -0.345533 -0.236786 0.467111 0.060479 0.070319 0.129437 -0.180251 0.489304 -0.156328 -0.117580 -0.299278 0.634921 -0.186274 -0.239288 -0.231039 -0.298912 0.695986 0.588900 -0.564417 0.371195 0.060238 -0.156097 -0.208521 0.015347 0.618102 -0.303796 0.391532 0.920624 0.015900 -0.090689 -0.190423 -0.000308 0.525584 0.268127 0.730776 0.577042 0.055302 0.025377 0.428305 0.086532 0.516745 -0.363834 -0.137575 0.102393 0.416799 0.057483 0.141515 0.433319 -0.307509 0.454370 -0.260679 0.098773 -0.032396
H20 0.053072 -0.344005 -0.819502 0.663259 0.290417 -0.135987 0.667864 0.161056 0.720488 -0.280757 -0.465097 -0.093836 0.053506 -0.050627 0.067385 0.185705 -0.825217 -0.000052 0.137035 0.430546 -0.730665 -0.267618 0.582530 -0.013750 0.441589 -0.298971 0.146739 -0.562779 0.275602 -0.182031 -0.599888 -0.332739 -0.110182 -0.271264 -0.607281 -0.084777 -0.099436 0.501592 -0.266886 -0.775659 -0.408360 -0.411234 0.437950 -0.115013 -0.568562 -0.604721 0.382311 0.338830 -0.309051 -0.017938 0.656912 0.093730 -0.579340 -0.133648 -0.134451 0.216075 0.354389 -0.438247 0.553964 0.542230 0.260954 0.345791 0.468214 0.253411 -0.073332 -0.589678 0.258100 -0.110552 0.109995 0.219391 -0.542221 -0.193207 -0.354616 0.539954 0.610384 -0.392006 -0.007537 0.652071 0.223365 0.581165 0.127517 0.024366 -0.446926 -0.654226 0.255143 -0.660423 0.053044 0.207774 -0.307612 -0.164679 -0.238996 0.068872 0.067408 -0.383608 0.672813 -0.202097 0.040626 0.249219 -0.027944 0.270162 -0.534547 -0.212832 0.316482 0.386641 -0.388813 0.281356 -0.494399 0.311976 0.681872 0.164395 0.446567 -0.209421 -0.133899 -0.395328 0.496297 -0.135960 -0.499819 0.215794 0.027933 -0.157987 0.092589 0.697431 0.417006 -0.165049 -0.176532 0.033394 0.310747 0.156898
H1 0.129734 -0.252452 -0.597591 -0.064045 -0.155049 -0.307119 0.373302 0.549256 0.108668 0.608236 -0.488558 -0.008342 -0.384539 -0.146591 0.473434 -0.309656 -0.293072 -0.294788 -0.217681 0.389517 -0.579229 0.237579 -0.066077 0.597812 0.167539 -0.075505 0.280478 -0.691711 -0.060505 0.027159 -0.293095 -0.119765 -0.575598 -0.425853 -0.659259 0.431636 0.591423 0.784495 0.279837 -0.309837 0.007460 -0.667850 0.064360 -0.100071 0.078304 0.015385 -0.401200 0.098071 -0.114540 0.198024 0.229261 -0.396560 -0.443974 0.134251 -0.192620 -0.032302 0.148154 0.271417 -0.105871 0.035014 0.438191 0.733329 0.228165 0.165067 -0.016236 0.340438 0.300980 0.082216 0.283750 -0.249220 -0.714801 -0.669862 0.022815 0.517343 0.526579 0.073771 -0.438918 0.298349 0.307939 -0.060613 -0.259341 -0.465573 -0.222561 0.284186 0.025150 -0.343257 0.597797 0.485641 -0.053697 -0.134381 -0.270585 0.533490 0.328283 -0.325545 0.391828 0.026417 0.476044 -0.023306 -0.475610 -0.113182 -0.213909 0.101938 0.611687 -0.084502 -0.088447 0.081189 0.260691 0.404216 0.550257 0.115729 0.099070 -0.302123 -0.047925 -0.525096 -0.127803 -0.008832 0.303951 0.069376 -0.366843 -0.400893 0.682036 0.712995 -0.213610 -0.577997 0.347017 0.085973 0.044035 0.240952
H165 0.207104 -0.211272 -0.206267 0.487999 -0.250106 0.285031 0.327668 0.804573 0.181536 -0.287845 -0.425695 -0.237203 -0.257230 0.211723 0.060755 0.291506 -0.418178 0.434627 0.341254 0.477980 -0.202730 0.353759 0.418698 0.621998 -0.170056 -0.112582 0.344651 -0.340001 -0.203478 0.224343 -0.485275 0.036216 -0.180433 -0.611001 -0.302007 0.044708 -0.061932 0.707465 0.690511 -0.126810 -0.334838 0.131138 0.858902 0.491785 -0.507231 0.003796 0.483978 0.054102 0.038195 0.400865 0.157288 0.047288 -0.629463 0.414037 -0.125789 0.227872 -0.187138 -0.459300 0.130170 0.153244 0.130626 0.178383 0.467267 0.242909 0.348432 0.321737 0.136465 -0.732719 -0.045399 -0.616252 -0.379278 -0.170336 -0.518000 0.443622 0.685568 -0.367154 -0.515145 0.621428 0.347842 0.239495 -0.377392 -0.383517 -0.165063 -0.288106 0.219847 -0.258695 0.812246 0.025384 -0.625745 -0.041385 0.119610 -0.080855 0.367986 -0.989464 0.273752 0.152669 -0.055577 -0.390731 -0.450581 0.317224 0.085620 0.060065 0.005833 -0.222810 0.170837 0.137456 -0.008914 -0.239042 0.457598 0.311890 0.450716 -0.362770 -0.183119 0.317503 -0.111616 0.218136 -0.484112 -0.109455 -0.070335 -0.120330 -0.225703 0.149431 0.585514 -0.360257 0.228136 -0.279811 0.002032 0.505637
H111 0.441539 -0.263443 -0.458051 -0.110251 0.146852 0.639712 0.631947 0.173257 0.091619 -0.442243 -0.665413 -0.088551 -0.171921 -0.005147 -0.248511 -0.593654 -0.270578 -0.131826 0.022132 0.155498 0.100662 0.312672 0.129364 0.052072 0.405014 -0.092701 -0.185303 -0.339514 -0.478429 -0.035856 -0.004941 -0.218328 0.207004 -0.303336 -0.480404 0.289530 0.070602 1.008582 0.106174 -0.614913 -0.675948 -0.480373 0.543936 0.326111 -0.281842 0.114674 0.459199 -0.171030 0.361791 -0.195823 -0.035128 0.028067 -0.589516 -0.200253 -0.164150 -0.228050 -0.494656 -0.407738 0.306681 0.177243 0.209136 0.592402 -0.168270 -0.163583 -0.369578 0.353432 0.314550 -0.149940 0.401279 0.108098 -0.144333 -0.775874 -0.266321 0.715544 0.722068 -0.592443 0.557927 -0.137578 -0.096752 0.084378 -0.286915 0.208646 0.251091 -0.866445 0.599129 -0.236807 0.205673 -0.230246 -0.229109 -0.162612 -0.452417 0.700755 0.548883 -0.795231 0.247240 -0.043535 0.335342 0.101925 -0.810792 -0.218663 -0.291314 -0.085780 0.216380 -0.039396 0.332234 0.052951 0.301774 0.884601 0.830618 0.810761 0.376000 -0.105493 -0.732917 -0.349214 -0.376584 0.319887 -0.510924 0.448094 -0.360685 0.497417 0.421514 0.152235 -0.293618 -0.121779 -0.095563 0.503433 0.146434 0.207504
H25 0.123882 0.159496 0.272415 -0.048959 0.552183 -0.304170 -0.039639 0.326798 0.442498 -0.128811 0.007506 -0.288310 -0.007732 -0.332563 -0.184310 0.014781 0.184998 0.290893 0.283778 0.027193 -0.100161 0.549990 0.491237 0.043140 0.460934 -0.355820 -0.635422 -0.462034 -0.418540 -0.081782 0.231602 0.085525 -0.373735 -0.258912 -0.876728 0.655388 -0.411726 0.118034 0.115955 -0.546510 -0.575054 -0.831618 0.915836 0.305091 -0.104469 0.013195 0.042413 0.045512 -0.055098 0.369460 0.331337 -0.795921 -0.636748 -0.241424 -0.504935 0.232589 0.235001 -0.288669 0.223162 0.425328 0.141226 0.113201 0.526784 -0.148673 0.005762 0.312775 0.032669 0.090453 0.179759 -0.432787 -0.432013 -0.659660 -0.478721 0.391157 0.267833 -0.079652 0.085718 0.090548 0.173205 0.144392 -0.033318 -0.437635 -0.685490 0.150888 0.377036 -0.010189 0.887521 -0.046296 -0.231226 -0.008417 -0.166789 0.393440 0.530759 -0.465341 0.255387 -0.028933 -0.231275 -0.069241 -0.459524 0.002393 0.120602 0.177324 0.481607 0.489338 0.241162 0.216317 0.011929 0.020891 0.467849 0.473908 0.297821 -0.081819 0.078118 0.218227 -0.241487 -0.185076 0.435436 0.038807 -0.299965 0.554969 0.331121 0.176645 0.194116 0.007320 -0.073636 -0.283113 -0.572945 -0.012921
H211 -0.267442 -0.159579 -0.224999 0.085126 -0.112908 0.231074 0.094141 0.533596 0.117509 0.103525 -0.208431 -0.309962 -0.101155 0.222633 -0.390792 0.595400 0.147058 0.097983 -0.487841 0.138163 -0.215986 0.489741 0.610164 0.357520 0.081854 0.153773 -0.125978 -0.412603 -0.093941 -0.110483 -0.126362 -0.798583 -0.352978 -0.296034 -0.551207 0.319009 0.294161 0.198873 0.409055 -0.060169 -0.087378 0.080715 0.322079 -0.070007 -0.304461 -0.153716 0.117371 0.256175 -0.204576 -0.272669 0.858826 -0.290775 -0.528357 -0.188128 0.086511 -0.489941 0.337083 -0.153564 0.074347 0.345936 -0.128401 0.179067 0.124587 0.375832 -0.474464 0.068263 0.181216 -0.092765 0.076347 -0.213558 -0.242137 -0.193931 -0.607509 0.279399 0.065090 -0.643974 -0.115727 0.318093 0.031235 0.172684 0.201437 0.009517 0.453187 0.261117 0.126394 0.721744 0.046036 -0.058929 0.012740 -0.201484 -0.112956 0.524773 0.673394 -0.328737 -0.100030 -0.066777 0.178375 -0.212612 -0.661547 -0.197131 0.458222 0.013696 0.477807 0.034493 -0.189354 0.295990 -0.560854 0.400861 0.439862 0.398319 0.575063 -0.370589 -0.448092 -0.510006 -0.658396 -0.220392 0.229920 -0.129262 0.032797 0.142465 -0.296474 0.532220 0.068878 0.129306 0.424993 -0.494479 0.239617 0.401561
H200 0.692962 -0.314033 -0.652349 0.519620 -0.281518 -0.064067 -0.039320 0.280811 0.798055 0.113239 -0.225317 0.067392 -0.364071 0.218932 0.332553 0.437164 0.233310 -0.457207 0.483981 -0.224774 -0.386973 0.427015 0.308060 0.162539 0.316689 0.264593 0.356894 -0.636095 -0.816973 0.050130 -0.338734 -0.036690 -0.603374 -0.531152 -0.760861 0.526792 0.052044 0.495815 0.503610 -0.442629 -0.445307 0.264092 0.272992 0.140241 -0.204468 -0.216398 -0.534350 0.106864 0.267743 0.312874 0.342732 -0.781818 -0.558733 -0.333454 0.108928 -0.119247 -0.034607 -0.250904 0.554795 0.548632 0.421218 0.323643 -0.198465 -0.053568 -0.387400 -0.060653 0.454072 -0.511858 0.065060 0.358734 0.168260 -0.526374 0.156512 0.730761 0.392778 -0.028915 -0.229847 0.865340 0.292273 -0.099558 -0.108583 -0.084218 0.439891 -0.033941 0.490087 0.161448 0.100159 0.071133 -0.822442 -0.584945 -0.109474 0.574502 0.156270 -0.866954 0.341002 -0.055384 0.071229 -0.390207 -0.528501 0.103142 0.157527 0.379941 0.108364 0.545620 0.207680 0.165156 -0.184612 0.007171 0.443025 0.902992 0.107736 -0.342347 -0.115842 -0.578527 -0.024856 0.041528 -0.587224 0.305209 0.042953 0.431514 0.346220 -0.319716 -0.080773 -0.185668 -0.471695 0.019171 -0.169983 0.151955
H126 0.781245 -0.523877 -0.076203 0.530073 0.204474 -0.128402 0.324744 0.293578 0.530808 -0.030823 -0.417525 -0.136738 -0.305714 -0.406189 -0.136816 -0.249656 0.250024 -0.567849 -0.239091 0.181774 -0.624271 0.209673 0.266966 0.494387 -0.251424 -0.099131 -0.568373 -0.565295 -0.046429 0.118512 -0.147018 -0.291712 -0.425298 0.249562 -0.443582 0.196811 0.277428 0.357047 0.037817 -0.091707 -0.200420 0.128328 0.741480 -0.335494 -0.372820 -0.173849 -0.126097 -0.151810 0.203373 -0.243048 0.399854 0.262116 -0.258551 0.256693 -0.229217 0.093249 -0.393495 0.003554 0.833379 0.191606 -0.221905 0.051922 -0.219058 -0.436273 0.029132 0.172511 0.192777 -0.158934 -0.233675 0.180151 -0.215703 -0.160357 -0.223597 0.599391 0.313778 -0.376420 -0.357683 0.187533 0.235176 0.571095 -0.908479 -0.373715 -0.081171 -0.039543 0.075209 -0.558236 0.548577 0.292657 -0.242637 0.023089 0.069898 0.505193 -0.088905 -0.444895 -0.068531 -0.623849 -0.050654 0.116539 -0.163213 -0.140752 -0.278763 -0.478090 -0.021313 -0.103467 -0.019001 -0.319610 -0.617005 0.392872 0.101119 0.499051 0.338274 -0.492651 -0.281167 -0.461409 -0.057252 0.078446 0.191114 -0.251960 0.389464 -0.164705 -0.141425 -0.119011 -0.351166 -0.052336 0.161453 -0.326011 -0.004260 0.154091
H22 0.018559 -0.086157 0.149079 0.075965 0.207812 -0.177055 0.036206 0.439692 0.531332 -0.138396 0.079835 -0.330951 -0.105656 0.026170 0.057585 0.104406 0.391073 0.243900 0.381652 -0.066698 0.023754 0.546271 0.220566 -0.049205 0.776519 -0.039506 -0.435697 -0.063575 -0.620678 -0.320543 0.111877 0.040026 -0.605485 -0.008091 -0.720670 0.672621 -0.321057 0.271259 0.125571 -0.786834 -0.463680 -0.820691 0.772529 0.244645 -0.073328 -0.189373 -0.095342 0.121480 0.091212 0.143480 0.080921 -0.801953 -0.424436 -0.145549 -0.300777 0.178853 0.037042 -0.360341 0.117723 0.674745 -0.221509 0.134548 0.888777 0.037657 0.122184 0.433639 0.001189 0.142744 -0.056889 -0.549435 -0.401098 -0.212922 -0.470936 0.570064 0.066293 -0.348755 -0.259224 0.088089 0.413940 0.503431 -0.376799 -0.010975 -0.524315 0.138615 0.118869 -0.055774 0.621538 0.251675 -0.296061 0.032796 0.208332 0.531122 0.425521 -0.350928 0.096790 -0.086642 -0.338997 0.275891 -0.804210 0.084253 -0.126455 0.156103 0.574809 0.533476 0.267118 0.108005 -0.218024 0.177396 0.617399 0.669626 0.361131 -0.331176 0.064717 0.035596 0.006233 0.178345 0.462688 0.030074 -0.321271 0.534489 0.204821 0.379937 0.179338 0.042971 -0.139361 0.066573 -0.764989 0.125401
H71 0.018697 -0.392770 0.156318 0.594713 -0.181207 0.181597 0.381176 0.382934 0.286806 0.470777 -0.284358 -0.705817 -1.069265 -0.147722 0.419634 0.007355 -0.663487 -0.497784 0.303965 0.792356 -0.794689 0.446708 0.427532 0.285579 0.743451 -0.241077 -0.053827 -0.650667 -0.778516 -0.236371 0.193739 0.421320 -0.368899 0.687713 -0.638608 0.053220 0.012376 1.032099 0.122089 -0.026197 0.030035 -0.236685 0.271661 0.593056 -0.686591 -0.832551 -0.347520 0.172605 0.456540 0.013906 0.212441 -0.353189 0.193524 0.235524 -0.444603 -0.867562 -0.206609 -0.347710 0.445956 0.323587 0.664870 0.050400 0.147913 0.048273 0.537359 0.114604 0.337116 0.246030 0.297985 -0.077208 -0.399838 -0.750320 0.122897 0.336596 0.421965 0.037131 0.149656 0.544078 0.175147 0.217055 -0.045223 -0.017174 0.436472 -0.154574 -0.121801 -0.415439 0.769780 -0.177236 -1.451929 -0.107797 0.004536 0.488517 1.065076 -0.774622 0.151690 -0.594625 0.096947 0.109906 -0.626258 0.417103 -0.643322 0.162920 0.515687 -0.233506 -0.228797 0.441103 -0.158241 -0.142625 0.839479 0.346179 0.292300 -0.207758 0.004987 0.331197 0.451866 -0.133224 0.119312 -0.053880 -0.312624 -0.034263 0.409514 -0.186410 0.282706 -0.251909 0.391224 -0.131343 -0.103232 0.623240
H33 -0.099758 -0.811873 -0.912808 -0.117139 0.025615 -0.443552 0.084129 0.334726 0.671995 -0.475502 -0.496083 -0.225251 -0.106284 -0.633537 -0.794078 -0.165466 -0.566925 -0.042683 -0.344199 0.571730 -0.638471 0.458855 0.706070 0.344559 0.772778 -0.424695 0.259937 -0.854233 -0.179007 -0.015611 -0.551591 -0.482895 -0.093462 -0.091003 0.127600 0.153618 0.650493 0.629689 0.252244 0.146283 -0.219747 -0.594338 0.281176 0.343747 -0.066391 -0.274689 0.246498 0.263636 0.348592 -0.287700 -0.236905 0.336698 -0.311064 -0.636436 0.452574 0.076887 0.031895 0.160237 0.324187 0.706450 -0.581603 -0.012478 0.021411 0.628294 0.326549 0.382491 0.185825 0.529750 0.844709 -0.042495 0.009926 -0.617781 -0.353490 0.139864 0.586779 -0.343803 -0.515037 0.263551 -0.493436 0.547802 -0.271482 0.308720 0.127578 -0.317503 -0.044743 -0.690149 0.409137 -0.393836 -0.143985 -0.535635 -0.461225 0.703323 0.104455 -0.560137 0.066063 -0.319332 0.172632 0.544300 -0.575993 0.346680 -0.315747 -0.192100 0.397214 0.179445 0.104088 0.020184 -0.170006 0.744771 0.494354 0.363314 0.851911 -0.474270 -0.209422 -0.564291 0.464941 -0.402695 -0.512811 -0.461725 -0.216970 0.012620 0.036953 0.209648 0.635853 -0.490590 0.155549 -0.534016 -0.033575 -0.306779
H30 0.135759 0.188112 -0.390563 0.541278 0.446714 0.598642 -0.033605 0.495118 0.213479 0.039331 -0.234854 0.286142 0.152836 -0.284476 -0.239211 0.114748 -0.068074 0.615284 -0.096227 -0.067711 0.102628 0.720532 0.442412 -0.128748 0.267926 -0.017052 0.196465 -0.672169 0.354257 -0.304509 -0.406667 0.119171 -0.078110 -0.008789 -0.003298 0.260230 0.426723 0.686859 0.288876 -0.570426 -0.445309 0.110545 0.255045 -0.322140 -0.557779 -0.275835 -0.236228 0.125697 0.306116 0.193404 0.441678 -0.452974 -0.295981 -0.205587 -0.568078 0.314932 0.175663 -0.560888 0.785333 0.509193 0.317362 0.325785 0.384888 0.068079 0.365504 -0.150407 0.321365 -0.197675 0.625673 -0.419030 0.035528 -0.791275 -0.355505 0.102404 0.335746 0.178015 0.448284 0.360253 0.123730 -0.389867 -0.053586 -0.519683 0.079565 -0.376676 -0.065623 0.120320 0.661651 0.489533 -0.117710 -0.737145 0.289949 0.523904 0.672290 -0.612111 0.543489 -0.551844 0.121020 0.222149 -0.703884 0.492157 0.141845 -0.413815 0.032721 -0.135613 0.385274 -0.030303 -0.688358 0.607125 0.857279 -0.104431 0.111935 -0.487532 -0.257452 -0.179532 0.191662 -0.456159 0.043784 0.042849 0.070834 -0.207206 0.160563 0.208347 0.647771 -0.114043 0.430754 0.318328 0.171646 -0.003556
H24 0.341640 0.095558 0.316083 0.290926 0.358213 -0.208555 0.060949 0.372936 0.517461 -0.055833 0.088943 0.032398 -0.108865 0.082337 0.145712 0.107817 0.463750 0.364213 0.344492 0.203815 0.045786 0.506887 0.224727 -0.165275 0.556387 0.038621 -0.191386 -0.258956 -0.636642 -0.296902 0.413268 -0.264642 -0.174593 -0.041364 -0.320271 0.835689 0.017765 0.315860 0.000201 -0.751546 -0.384699 -0.900412 0.474355 0.448002 -0.306061 -0.353504 -0.050890 0.212592 0.216611 0.102798 0.388323 -0.795586 -0.624360 -0.080421 -0.281290 0.271391 -0.073169 -0.026838 0.108447 0.659042 -0.148048 0.444481 0.815517 -0.004133 0.126257 0.240707 0.288984 0.295056 -0.001254 -0.585471 -0.328988 -0.156464 -0.188340 0.261626 0.107723 -0.474316 -0.219809 0.435445 0.340803 0.355038 -0.533308 -0.157103 -0.312558 0.269758 0.092687 0.112153 0.956812 0.035140 -0.421967 0.004946 0.246974 0.328136 0.821119 -0.462387 0.019875 -0.034070 -0.293147 0.278057 -0.802036 -0.001783 -0.103153 0.261200 0.338620 0.692992 0.435884 -0.173623 0.039463 0.249878 0.645857 0.312687 0.522925 -0.337657 0.145241 -0.025102 0.107281 0.303036 0.824174 0.099790 -0.110889 0.499030 0.184985 0.150220 -0.113761 -0.189274 -0.021099 0.026875 -0.664581 -0.043093
H147 0.403936 -0.131946 -0.240135 0.285800 0.232456 0.201141 0.119987 0.491936 -0.057290 -0.124692 -0.521556 -0.397248 -0.498103 -0.676232 -0.318775 0.066692 -0.508965 0.810008 -0.382373 1.171138 -0.792996 0.238670 0.241977 0.837992 -0.088066 -0.221598 -0.146380 -1.144945 0.445973 0.183909 0.195526 -0.711275 -0.136373 -0.134532 -0.825754 -0.017934 0.505231 0.799998 0.199304 -0.163251 -0.104389 -0.233659 0.620436 -0.119334 -0.276758 0.320615 0.091948 -0.507680 -0.488152 -0.328243 0.343447 0.510937 -0.062616 0.044043 0.793364 0.070569 0.339892 -0.162855 0.355804 0.312172 -0.309936 0.171959 0.050346 0.156270 0.228730 0.433385 0.170743 0.073446 0.078937 -0.551939 -0.789778 -0.559358 -0.216384 0.521316 0.392848 0.080266 -0.068113 0.004637 -0.147609 0.687419 -0.642703 0.070365 0.426248 -0.507082 0.199992 -0.176200 0.224765 0.469020 -0.787755 -0.634279 -0.120471 0.354218 0.821950 -0.347661 0.069391 0.028140 0.569966 0.140347 -0.187574 -0.007479 0.262194 -0.564528 1.099036 -0.091203 -0.436970 -0.655510 0.051326 0.249259 0.730655 -0.156982 0.582287 -0.681031 -0.436883 0.310323 -0.324006 0.582798 -0.349690 -0.248481 0.100310 0.572886 -0.313240 0.496870 -0.209668 0.112895 0.520264 0.337428 0.205035 0.289618
H210 0.115303 -0.591107 -0.062717 0.329352 -0.082867 0.419714 0.319636 0.213338 0.162077 0.118898 -0.298788 -0.293094 -0.422363 0.124620 -0.483998 0.675150 -0.010919 -0.020294 -0.399140 0.460486 -0.421013 0.367130 0.089368 0.578160 -0.225145 0.455270 0.150834 -0.281183 -0.669009 0.036249 0.068162 -0.542431 -0.439075 -0.267473 -0.614419 0.383643 -0.159380 0.012230 0.925826 0.075815 -0.220277 -0.023800 0.627145 -0.235801 -0.293757 -0.076924 -0.152474 0.026050 -0.240196 -0.335115 0.822600 0.143337 -0.352444 0.015574 0.068335 -0.555776 0.227333 -0.281673 0.122403 0.367033 -0.184081 0.352851 -0.013251 0.305596 -0.196417 0.539867 0.120583 0.156777 -0.073133 -0.558414 0.077372 -0.283269 -0.326185 -0.083842 -0.005981 -0.324040 -0.076164 0.324783 0.111124 0.093782 -0.190014 0.028264 0.210219 0.722899 0.474336 0.445229 0.218388 -0.135266 -0.603512 -0.016829 -0.165714 0.660174 0.751608 -0.772204 -0.191968 -0.130372 0.309423 0.166170 -0.862672 -0.129005 -0.157640 -0.049103 0.737586 0.275429 0.118378 0.474121 -0.330821 0.557922 0.561828 0.312400 0.274441 -0.420829 -0.163865 0.045026 -0.660605 0.132463 0.291922 0.055181 -0.252784 -0.347196 0.074283 0.502169 0.278709 -0.113384 0.792919 -0.295577 0.350970 0.195844
H217 0.452596 -0.629756 0.144624 -0.004007 0.015413 0.081553 0.057203 0.171897 0.131733 0.331821 -0.112205 -0.178238 -0.351131 -0.474750 -0.189666 0.389890 -0.059304 -0.085376 -0.581066 0.476608 -0.634540 0.428606 0.225768 0.494604 0.173817 0.486460 0.166207 -0.294417 -0.800863 -0.063521 0.130082 -0.546725 -0.785329 -0.396676 -0.448244 0.379402 -0.299122 -0.112715 0.642225 0.031197 -0.555663 -0.202256 0.712745 -0.064091 0.022737 -0.088816 -0.271076 -0.144643 -0.101201 0.048461 0.556143 -0.007015 -0.393562 0.022771 0.118205 -0.004170 0.160750 -0.619554 0.172925 0.168379 -0.053668 -0.083968 -0.038280 0.209111 -0.075651 0.597496 0.215527 0.425280 -0.155831 -0.720423 0.418331 -0.350505 -0.404644 -0.233117 -0.075653 -0.134721 0.106700 0.428528 -0.021684 0.370985 -0.480377 -0.101728 0.375167 0.442117 0.466078 0.532451 0.608445 -0.051624 -0.973210 -0.232107 0.003949 0.498053 1.165276 -0.403852 -0.428663 -0.618406 0.321458 0.394699 -0.677469 -0.137492 -0.017700 0.172197 0.696863 0.457436 -0.159000 0.419437 -0.487935 0.427367 0.590429 0.356428 0.126383 -0.561711 -0.447440 0.256937 -0.462264 0.299534 0.171136 0.248338 -0.142689 -0.042346 -0.564142 0.380428 0.313100 -0.317990 0.480483 -0.421284 0.540829 0.215932
H92 0.305091 -0.303810 0.028728 0.229080 0.253592 -0.212918 0.105528 0.692635 0.206312 -0.173093 -0.111118 -0.194162 -0.573857 -0.058501 0.032135 -0.157165 -0.119226 0.218347 -0.146298 0.514481 -0.242554 0.407662 0.751243 1.035035 0.294078 -0.047180 -0.308489 -0.932702 0.162257 -0.235601 -0.330275 0.070876 -0.494521 -0.082681 -0.057000 -0.033747 -0.181317 0.691552 0.096854 -0.944374 0.044587 -0.510926 0.297992 0.180110 -0.382700 0.197298 -0.141456 0.195336 0.177792 -0.096999 -0.170947 0.251474 -0.119325 0.390320 0.185535 -0.191036 -0.123641 -0.371107 0.032826 -0.430561 0.549614 -0.199250 -0.069759 -0.483777 0.120490 0.125418 -0.172821 -0.269827 0.753529 0.211839 0.016326 -0.079024 -0.494528 0.252544 0.509778 -0.003327 0.362445 0.513810 0.341852 0.626644 -0.583747 0.276663 -0.228879 0.012329 -0.148083 -0.296800 0.406856 0.416258 -0.593436 -0.719172 -0.151681 0.077440 0.048587 -0.575434 -0.005574 -0.554352 0.499553 0.331311 -0.582081 -0.203407 -0.099368 -0.398652 -0.307285 -0.391873 -0.047888 -0.493125 -0.056609 0.444522 0.540119 0.712491 0.582564 -0.413045 -0.171114 -0.146424 -0.152201 -0.554591 0.033030 -0.278786 0.243101 0.300583 -0.403836 -0.360539 0.179130 0.138126 -0.477814 0.342322 -0.140004 0.073574
H72 0.075223 -0.133747 -0.300964 0.985089 0.224828 0.721987 0.829484 0.174807 0.617571 -0.190447 0.041594 0.250795 -0.644063 -0.095336 -0.424768 -0.218157 -0.338084 -0.204002 0.269620 0.849707 -0.562133 0.406568 0.432878 0.814548 -0.355697 -0.378819 0.320376 -0.461317 0.185963 -0.503372 0.248555 -0.091842 -0.560643 -0.443922 -0.821419 0.143700 0.587968 1.373900 -0.050253 0.146075 -0.191518 -0.268018 0.402345 -0.635229 -0.969056 -0.639724 -0.073896 -0.249981 0.339996 -0.528225 0.153397 -0.130167 -0.504705 -0.098886 0.275764 -0.050309 0.104430 0.132301 0.795890 -0.134479 0.431312 0.151701 -0.067442 -0.198095 -0.455548 -0.479413 0.154464 -0.482934 0.301508 0.468161 0.149815 -0.412150 -0.143269 0.788640 -0.176753 -0.100347 0.083341 0.622784 -0.048956 -0.135156 -0.801153 0.135095 0.299124 0.266527 -0.004020 0.075417 0.669748 0.356579 -0.567896 -0.705506 -0.629869 0.494063 0.823434 -0.297779 0.378217 0.085972 0.572126 -0.084948 -0.131844 0.306705 -0.310086 -0.299507 0.276809 -0.020881 -0.206929 -0.143841 0.358680 -0.100635 0.645310 -0.136259 0.699691 -0.665512 -0.347198 -0.468982 -0.009924 -0.281925 -0.500753 -0.469780 0.217325 -0.123494 0.095539 0.384868 0.948673 -0.472834 -0.004822 0.048835 0.738692 0.320294
H101 0.878182 -0.154878 -0.519913 -0.095017 0.345464 0.050631 0.317066 0.251496 0.020353 -0.277722 0.283989 0.370237 0.026115 -0.179745 -0.093682 -0.017892 -0.154275 0.080349 0.028865 0.712555 -0.754094 -0.012545 0.576858 0.499995 0.974025 0.062149 -0.505587 -0.250873 0.370729 -0.049331 -0.010240 -0.019243 -0.523744 -0.127367 -0.199121 0.388778 0.249724 0.566202 -0.087868 -0.010303 -0.158141 -0.125721 0.443437 -0.012697 -0.329951 0.098466 -0.056552 -0.370326 0.226634 0.097325 0.079995 -0.144150 0.068273 -0.005476 -0.219100 0.002525 0.287498 0.283379 0.259845 -0.188520 -0.176027 -0.049542 -0.380890 -0.192443 0.277425 -0.059336 -0.115525 -0.258497 0.248422 -0.253834 -0.499033 -0.080553 -0.470771 -0.169657 -0.083913 0.071661 -0.011879 0.682286 0.441113 0.352666 -0.379669 -0.014379 -0.175987 -0.035152 0.123358 -0.397423 0.518769 -0.264697 -0.318180 -0.304011 -0.218975 0.270289 0.417381 -0.848940 0.541283 -0.603416 0.514856 -0.192337 -0.587780 0.089410 -0.159219 -0.544925 0.036718 0.281196 -0.126851 -0.018958 -0.209753 0.007788 -0.019099 0.756794 0.028694 -0.232690 -0.071055 -0.130467 0.342655 -0.287390 0.180663 -0.500930 0.078309 0.044042 -0.398487 -0.183456 -0.361323 0.184229 -0.099737 0.187986 0.221095 0.303665
H56 0.255150 -0.307159 -0.244888 0.386377 -0.719158 0.543465 0.816136 1.049996 0.574717 0.192192 -0.299273 0.225860 0.155501 -0.481996 -0.368665 0.122167 0.061485 -0.303942 0.305851 1.208701 -0.198538 0.067569 0.388672 0.294677 0.389808 0.236877 0.270750 -0.914640 -0.036244 -0.200011 -0.301461 -0.534665 0.263665 0.385200 -0.192035 0.040250 -0.126579 0.311800 -0.116466 -0.071598 0.113217 -0.016078 0.242223 -0.081301 -0.456099 0.135490 0.396266 0.113042 0.586652 0.115016 0.084181 -0.021588 0.224572 -0.256353 -0.647774 -0.136265 -0.147284 0.109558 0.456116 0.131330 0.548193 0.312760 0.255987 -0.024767 -0.246556 0.054848 0.607516 -0.268362 0.292081 -0.616215 -0.432045 -0.295746 -0.129034 0.141495 0.269993 0.045979 0.285426 0.853776 0.076930 -0.021279 0.148747 -0.236784 0.530386 -0.168670 -0.003384 0.424639 0.674103 -0.151723 0.040091 -0.900473 -0.605646 -0.370130 0.670859 -0.733918 0.039621 -0.382598 -0.056312 -0.208014 -0.532838 0.129864 0.595503 -0.004558 0.575028 0.112535 -0.133723 -0.079796 0.138107 -0.011261 0.892104 -0.029830 0.999569 -0.891842 -0.487959 0.362995 0.010120 0.124676 -0.079930 -0.224849 -0.499420 0.738892 0.150549 -0.147517 -0.019484 -0.470430 0.500993 -0.185762 -0.163269 -0.360335
H97 0.618228 -0.296554 -0.253908 0.079042 -0.386919 -0.148561 -0.109196 0.657252 0.084407 -0.251674 -0.171189 0.137801 -0.159543 -0.583937 -0.129439 -0.267742 0.388120 0.035019 0.072299 0.539275 -0.388082 0.485946 0.200642 0.157541 0.495621 -0.019028 -0.024300 -0.503201 -0.032139 -0.160416 -0.501369 -0.465725 -0.632822 -0.043345 -0.248531 0.282644 0.091558 0.205639 -0.175756 -0.652532 -0.701726 -0.488930 0.205836 -0.563276 -0.343200 -0.257690 0.261907 0.500861 0.194233 0.322084 0.612031 0.216887 -0.402913 -0.168937 0.105163 -0.322096 0.660303 -0.016697 -0.171858 0.014442 -0.156435 -0.260636 0.197827 0.437210 -0.632047 -0.165689 -0.048601 0.195185 0.449690 0.025156 -0.165336 -0.199611 -0.261631 0.108321 0.103343 -0.177984 0.458507 0.480868 -0.158995 0.277510 -0.037667 0.299353 0.394339 -0.130256 -0.119206 0.451384 0.514975 -0.234492 -0.168302 -0.235419 0.159442 -0.230772 0.499886 -0.483677 -0.350546 -0.632617 0.341064 0.220699 -0.523854 -0.441637 -0.046251 0.372012 0.541791 0.492715 -0.050956 -0.134464 -0.190247 0.556483 0.198034 0.268664 0.662580 -0.114479 -0.174626 -0.008034 -0.442537 -0.262451 -0.057118 -0.417540 0.234556 0.565098 -0.727624 0.169322 -0.400986 0.082518 -0.419362 0.136624 0.129972 -0.150725
H13 0.265407 -0.816043 -0.422221 -0.086392 -0.175797 0.822651 0.794932 -0.219736 0.685041 -0.743450 -0.457122 -0.365688 -0.352347 -0.457989 1.060727 -0.327810 -0.209053 0.319693 0.528399 0.719797 -1.144459 0.142962 -0.003583 0.214551 -0.165060 0.256266 -0.103706 -1.023894 -0.278557 -0.064861 -0.098623 0.114030 -0.264207 0.277455 -0.470440 -0.291747 -0.145949 0.417066 -0.036988 -0.426219 -1.187004 -0.260855 0.460049 0.108999 -0.685236 -0.086773 0.690505 -0.126099 0.608376 -0.259663 0.519663 0.040749 -0.616407 0.221388 0.053947 -0.056451 0.304431 -0.501454 0.240852 -0.041659 -0.404183 0.058412 0.088707 0.390091 -0.001075 -0.377511 0.006555 -0.395940 0.755000 0.508090 0.033855 -0.907488 -0.861990 0.566791 0.650347 -0.167013 -0.127084 0.909013 0.431442 0.511315 -0.245755 0.166627 -0.087334 -0.112703 -0.084261 -0.376658 1.231240 0.378092 -0.241625 -0.103363 -0.598877 1.054018 0.419635 -0.238233 0.059728 -0.911806 0.372798 -0.070124 -0.134594 0.431549 0.568635 0.241707 0.398915 0.139076 0.485499 0.135514 -0.388741 0.319524 1.693712 0.055638 1.296673 -0.019112 -0.222724 -0.140400 -0.419644 -0.021246 -0.395436 -0.302558 0.523818 0.223556 -0.268049 0.545057 -0.026703 -0.395103 0.330479 0.031928 0.341449 -0.006849
H208 0.232614 -0.571136 0.405368 0.105174 -0.271750 -0.074518 0.377463 0.648584 0.845840 -0.171526 0.471561 -0.532660 -1.021208 0.043298 0.560413 -0.018491 -0.140595 -0.019856 0.058099 0.384668 -0.163602 0.603255 0.804270 0.389321 0.656919 0.288865 0.313762 -0.866813 -0.238752 -0.499944 0.264858 0.237822 -1.009415 0.048698 -0.073180 0.136792 0.188207 0.729644 0.328490 0.087274 -0.398416 0.045392 0.747158 0.151143 -0.217232 -0.520419 0.320647 -0.479661 0.529994 0.676239 0.118004 -0.487356 -0.308118 -0.094769 -0.392725 -0.504406 -0.349113 -0.164424 0.555642 0.177635 0.336555 0.197565 0.086599 -0.733404 0.472410 -0.139594 -0.269433 -0.027243 -0.482531 -0.546905 0.111666 -1.199195 -0.395232 0.295417 -0.064923 -0.503171 -0.041550 0.318792 0.201740 0.020728 -0.644510 -0.391074 0.492523 0.581192 -0.021271 0.221228 1.128655 0.107201 -0.289245 -0.819503 -0.411690 0.438006 0.778220 -0.541370 0.285423 -0.446933 0.723420 0.273903 -0.413008 0.195513 0.775976 0.235769 0.432256 0.239228 -0.178356 -0.306446 -0.056647 -0.239179 0.975616 1.104631 0.228472 -0.795154 -0.936046 -0.182629 0.190346 0.136309 -0.374860 0.614731 -0.381865 0.581860 -0.277664 0.462775 0.592254 -0.968450 0.285363 -0.539179 -0.052690 0.042125
H177 0.563500 -0.151554 -0.788756 0.056531 0.439251 -0.087048 0.582675 0.115750 0.232964 0.111016 -0.544589 0.164253 0.382608 -0.636667 -0.593324 0.141035 -0.379002 -0.335315 0.504393 0.490432 -0.119121 0.032926 0.238579 -0.093767 0.724559 0.216170 -0.184656 -0.566577 -0.537863 -0.380075 0.018547 -0.512729 -0.339966 0.130430 -0.321750 0.135911 -0.412066 0.390815 0.705037 0.054929 -0.119920 -0.667939 0.719859 0.655221 -0.523196 0.354584 -0.189054 0.266966 0.280536 0.407037 0.699096 0.376059 -0.510725 -0.219928 -0.357726 -0.138835 0.087619 -0.344738 0.823570 0.731453 0.271678 0.653833 0.422795 0.572227 -0.547105 0.615357 -0.527407 0.285919 0.538677 -0.186682 -0.618991 -0.309940 -0.124550 0.253071 0.411274 -0.205431 0.706904 -0.077502 0.120854 0.047832 -0.615447 -0.314968 -0.465710 -0.089719 -0.083811 -0.091065 0.539592 0.447110 -0.584404 -0.620897 -0.412675 0.463229 0.462395 -0.485101 -0.330303 -0.056966 -0.018241 0.165573 -0.828058 0.135901 0.088144 -0.785661 1.136274 -0.061440 -0.037485 -0.152229 -0.545428 0.741736 0.026738 -0.009778 0.430606 -0.831338 -0.097266 -0.102082 0.516718 0.135205 0.217219 -0.035951 -0.031009 0.490298 -0.284539 0.061530 -0.122432 -0.438456 0.356991 0.564741 0.309954 0.428226
H29 0.096240 0.168734 -0.424413 0.697325 0.223207 0.387076 0.030682 0.759152 -0.204340 0.212137 -0.267432 0.314860 -0.037399 -0.461440 -0.448423 0.231444 -0.164246 0.338570 -0.090922 0.131199 -0.041445 0.909087 0.483656 -0.190126 -0.071468 0.277035 0.083591 -0.773420 0.175094 -0.136804 -0.168393 0.235847 -0.361080 0.008397 0.002533 -0.115049 0.002456 0.814102 0.660398 -0.678593 -0.700970 0.197283 0.665107 -0.516260 -0.353449 -0.313468 -0.224623 -0.110464 0.387277 -0.133308 0.529884 -0.637404 -0.187001 -0.113556 -0.297772 0.561752 0.375864 -0.393528 0.738533 0.780418 0.156952 0.678278 0.229822 0.302775 0.155175 -0.186652 0.207210 -0.177479 0.266482 -0.230937 -0.422996 -0.706733 -0.603477 -0.000296 0.563156 0.260353 0.276795 0.001152 0.151982 0.088973 -0.063500 -0.124314 0.287114 -0.375841 -0.305093 -0.348307 0.794380 0.403041 -0.268772 -0.710581 0.222724 0.377318 0.682422 -0.608656 0.441462 -0.866365 -0.038081 0.133329 -0.586562 0.331223 -0.265173 -0.435970 0.267682 0.067817 0.322060 -0.085500 -0.393775 0.981670 0.627339 -0.171158 0.163332 -0.658048 0.135650 -0.565615 -0.037397 -0.240493 -0.139731 0.031979 -0.120287 -0.354386 0.023520 -0.067012 0.265140 -0.161785 0.920824 0.062787 -0.360241 0.286254
H194 0.050412 -0.455396 -0.481082 0.530635 0.006277 -0.356961 0.461871 0.855468 0.791098 0.250093 0.086402 -0.003441 0.105241 -0.280613 -0.432238 -0.159430 -0.236740 0.017718 0.290610 0.005227 -0.423697 -0.140745 0.650298 0.583963 0.215979 0.217883 0.361781 -0.564782 -0.499603 -0.256247 0.008075 -0.557306 -0.530033 0.170103 -0.280538 0.158280 -0.286452 0.240383 0.599364 -0.716897 -0.248549 -0.701526 0.385245 -0.072897 -0.396418 -0.162796 0.216757 -0.231840 0.123641 -0.063276 0.114095 -0.520139 -0.386401 -0.112908 0.220798 -0.348872 0.683018 -0.380826 0.396884 0.237089 -0.220680 0.013254 0.302378 0.605342 0.336736 0.019780 0.423263 0.002867 -0.053222 -0.485063 -0.645045 -0.084199 -0.634641 -0.060955 -0.016257 0.300152 -0.457634 0.708780 0.063678 0.463470 -0.368175 -0.430804 -0.087904 0.611483 0.069719 0.005609 0.702495 0.341798 0.083173 -0.450750 0.234906 -0.094737 0.231306 -0.308464 -0.347535 -0.092981 0.230335 0.422495 -0.093662 0.285415 -0.098848 -0.121357 0.561481 0.167441 -0.524694 -0.235577 -0.299099 -0.071209 0.406782 0.175457 0.969902 -0.665738 0.647038 -0.168082 -0.052602 -0.662013 -0.601079 -0.272953 0.539709 -0.377349 0.465685 0.324031 0.410500 -0.904467 -0.172422 -0.335552 0.194431 -0.063288
H64 0.621221 -0.053375 -0.502693 -0.244064 -0.114818 0.164816 0.099324 0.221099 -0.191734 0.087340 -0.899123 -0.260397 -1.104773 -0.264564 0.534944 -0.090366 -0.485894 -0.093609 0.309400 0.639636 -0.784081 -0.192929 -0.048896 0.129571 0.229726 0.427909 0.202615 -0.836431 -0.409814 -0.419994 -0.330506 -0.770188 -0.312000 0.119696 -0.347691 0.050941 -0.188504 0.413269 0.394928 -0.737359 0.211697 -0.240216 0.653644 -0.036997 -0.755814 0.208720 -0.344020 0.210084 0.457965 0.372177 0.398616 0.358219 0.089872 0.580174 0.361466 -0.037048 0.509774 0.157399 0.353507 0.536514 0.198152 0.332947 -0.149885 0.591664 -0.173691 0.429887 0.145211 -0.501637 0.914941 -0.200183 -0.229421 -0.757734 -0.645568 -0.070707 0.343939 -0.272000 0.010943 1.118256 0.501998 0.352427 0.244934 -0.152339 0.521016 0.292412 0.113962 -0.260378 0.991439 -0.484520 -1.018118 -1.042669 -0.215530 1.149286 0.572894 -0.185604 -0.431880 0.205386 0.398659 -0.475692 -0.448514 0.333998 0.310553 -0.371823 1.105017 0.194130 0.214432 -0.323646 -0.425735 0.316567 0.268223 -0.114498 0.472844 -0.031466 -0.091697 -0.174208 -0.089214 -0.222711 -0.013158 -0.011877 0.383712 0.451462 -0.003712 0.313642 0.023925 -0.196599 0.646422 0.452971 -0.230451 0.480043
H218 -0.042390 -0.655633 0.156067 0.835741 0.555559 0.488058 0.076680 0.516998 0.620893 -0.165939 -0.234141 -0.479260 -0.606387 -0.079720 0.330588 -0.460843 -0.080283 0.468333 -0.004320 0.898828 0.090402 0.010044 0.667949 0.699230 0.673148 -0.241413 0.224199 -0.787430 -0.530592 -0.001423 0.360918 0.307726 -0.679997 -0.533131 -0.990438 -0.210502 0.174092 0.655890 -0.035379 -0.722599 -0.157162 -0.326724 0.646840 -0.329751 0.227474 -0.445656 0.060166 -0.314569 -0.068086 0.046272 0.103763 -0.317186 0.084907 0.165132 -0.380897 0.020887 0.509521 0.018012 -0.142223 0.168420 -0.444087 -0.014667 -0.182258 -0.156813 0.214599 -0.071548 -0.348489 -0.090965 -0.042654 -0.315196 -0.665668 -0.069622 -0.429571 0.549014 0.840362 -0.542833 -0.501386 0.004241 -0.228148 0.845437 -0.207540 -0.196353 0.329460 -0.166874 0.375469 -0.061790 0.462149 -0.390435 -0.198560 -0.313703 0.140362 0.478255 0.981631 -0.989997 0.061345 -0.599698 0.899394 0.094942 -0.191166 0.149237 -0.442304 -0.272665 0.650311 0.521653 0.230834 -0.305433 0.592719 0.316544 1.341773 0.403334 0.329481 -0.298182 -0.642779 0.195149 0.279993 -0.262800 0.069641 0.403171 -0.165125 -0.424283 0.837903 0.563950 0.295164 -0.062485 -0.497867 -0.035435 -0.176463 0.773299
H80 -0.273615 -0.899496 -0.603406 1.035037 -0.043909 -0.305118 0.635818 0.424585 0.343046 0.302073 -0.482471 -0.285497 -1.115311 -0.291400 -0.708115 -0.530822 -0.225836 -0.138319 0.413942 0.064859 -0.555345 0.291183 0.559927 0.088480 0.016583 -0.353234 0.263106 -1.058948 -0.367503 -0.034653 -0.783244 -0.495792 -0.272090 -0.140774 -0.807033 0.350134 -0.389856 0.903024 0.276498 -0.861179 -0.618083 -0.160237 0.336134 -0.641190 -0.779512 -0.557090 -0.073762 -0.061670 0.478328 -0.002886 1.070298 0.096986 -0.491565 -0.670019 -0.449248 -0.536092 0.497102 -0.523186 0.640108 0.377705 -0.003108 -0.456717 0.365235 1.050091 0.160243 -0.206795 0.024566 0.034671 0.601379 0.077486 0.156850 -0.509448 -0.317543 -0.337651 0.463953 0.086676 0.187446 0.777723 -0.121443 -0.275781 0.160521 0.606825 0.163249 -0.219474 0.255917 0.345349 0.714028 0.682688 -0.140294 -0.583114 -0.701258 0.490207 0.871393 -0.993888 -0.440752 0.049998 -0.172058 0.334900 -0.650543 0.922306 -0.037015 0.271797 0.813174 -0.457956 0.539870 -0.123804 0.327757 0.879109 0.866412 -0.122178 1.406532 -0.227580 0.279011 0.022440 0.038115 -0.245207 -0.745946 -0.076316 0.096558 -0.014824 0.047888 0.174262 0.280010 -0.447459 0.175528 0.027439 0.104256 -0.081220
H75 0.147034 -0.265614 -0.044490 -0.012242 0.173783 -0.221098 0.321563 0.407397 0.636388 -0.067946 -0.588926 -0.068805 -0.743069 0.025884 -0.401485 0.162683 0.081981 0.283123 0.089535 0.039954 -0.329451 0.251296 -0.054898 0.371091 0.446389 -0.239691 -0.200379 -0.742368 -0.518020 0.375528 -0.560994 -0.097645 -0.529910 0.253162 -0.083074 0.273775 0.069296 0.803224 0.145494 -0.322070 0.710748 0.256039 0.661697 -0.396039 -0.638597 0.489197 -0.339119 -0.339254 0.383070 0.126957 0.338114 -0.485369 -0.282925 0.115556 0.170926 -0.538795 -0.089506 -0.522926 1.335280 -0.015095 -0.297366 0.074483 0.445710 0.110999 0.476262 -0.104338 -0.374082 0.098762 0.249801 -0.303526 -0.641122 -0.755893 -0.859577 0.062609 0.154289 -0.121705 -0.602591 -0.250440 0.452293 0.360564 -0.245253 -0.041789 -0.209646 -0.225596 0.093039 -0.425125 0.988259 0.885369 -0.484128 -0.315884 -0.422371 0.989289 0.687433 -0.509753 0.058477 -0.295435 0.371695 0.015538 -0.433037 0.763775 -0.361572 -0.238292 0.786014 0.096367 0.568713 0.007007 0.488594 0.095671 1.117420 0.002235 0.515661 -0.578436 -0.297821 0.113722 0.805089 0.442549 -0.481239 0.139788 -0.659062 0.007266 -0.121002 0.279220 0.616890 -0.657585 -0.319634 -0.313989 -0.163760 0.477465
H192 0.173398 -0.412684 -0.495331 0.272827 0.090038 -0.087937 0.599547 0.510564 0.572047 -0.207379 -0.007579 0.209760 -0.059471 -0.254536 -0.668283 -0.396245 0.256395 0.092234 0.629844 -0.304093 -0.213569 0.109639 0.430202 0.482865 0.074635 0.284689 0.224335 -0.346592 -0.645580 -0.270852 0.055034 -0.518279 -0.330374 -0.052667 -0.152226 0.170023 -0.323291 0.407065 0.630269 -0.749588 -0.430878 -0.583726 0.613738 -0.028057 -0.159999 0.232462 0.491607 -0.357732 0.331344 -0.367854 -0.264557 -0.301372 -0.445581 -0.352585 0.237174 0.005324 0.365035 -0.461899 0.308921 -0.087073 -0.408619 0.016530 0.073576 0.322480 0.220711 0.550024 0.483215 -0.005937 -0.144986 -0.453998 -0.352095 -0.120107 -0.448144 -0.098369 -0.066164 0.066723 -0.364831 0.189515 0.173394 0.341933 -0.936234 -0.304950 0.012583 0.276006 0.239488 0.326600 0.808563 0.274412 0.134921 -0.472231 -0.299672 0.201795 0.479233 -0.364329 -0.397226 0.017005 0.400299 0.471481 -0.211188 0.049996 0.081174 -0.387926 0.322819 0.092532 0.051023 -0.517908 -0.005998 0.120578 0.471204 0.371566 0.730736 -0.775406 0.326336 -0.372658 -0.568974 -0.226403 -0.453052 -0.187344 0.464567 -0.231678 0.524569 0.101309 -0.113002 -0.729308 -0.231932 0.047750 0.438028 0.125727
H213 -0.276202 -0.547379 -0.470745 0.587353 0.162194 0.313347 0.105562 0.601111 -0.264185 0.187413 -0.185554 -0.557412 0.219784 -0.725741 0.262290 0.028281 0.163768 -0.254125 0.075803 0.562483 -0.758519 0.572061 0.387155 -0.073725 -0.016305 -0.065586 0.263712 -0.659008 -0.748556 -0.686491 0.233685 0.540781 -0.238473 0.193889 -1.059829 0.742588 -0.080532 0.535330 0.184199 -0.619287 -0.309619 -0.705742 0.211988 -0.330738 -0.630000 0.050779 -0.009948 -0.177839 0.305981 -0.414455 -0.141911 0.078425 0.240953 0.305660 -0.203879 -0.279110 0.513735 -0.468511 0.148887 0.179534 -0.291663 0.818688 0.141553 0.740010 0.198330 0.676862 0.577112 0.203868 0.196433 0.348620 -0.617990 0.002223 -0.352907 0.565395 0.889847 -0.643405 -0.328573 0.354601 0.087973 0.760930 -0.336993 -0.245579 -0.211806 -0.004007 0.594590 -0.023445 0.096082 -0.224612 -0.554726 -0.397247 -0.423539 0.157029 0.517080 -0.825744 -0.422026 -0.161703 0.007220 -0.175328 -0.300567 0.077230 0.283466 -0.634831 0.405089 0.448133 0.168315 -0.215369 -0.643214 -0.506461 0.830249 0.656680 0.828719 -0.296109 -0.118247 -0.223395 0.092604 0.202261 0.204993 -0.358535 -0.265881 -0.026326 0.510301 0.282505 -0.251226 0.246568 -0.116059 0.061450 0.448957 0.466341
H52 0.717436 0.011121 -0.170237 0.323109 -0.561409 0.531261 0.439426 1.086734 0.835061 0.361587 -0.351303 0.280675 0.070530 -0.645150 -0.556975 -0.084371 0.506486 -0.671892 0.405855 0.951001 -0.238572 0.493756 0.311131 0.263716 0.118112 -0.021226 0.082620 -0.818344 -0.239112 0.062711 0.156799 -0.242122 0.151618 0.482294 -0.503599 0.441295 -0.006818 0.395031 0.039698 0.070161 -0.080765 0.050317 0.589438 -0.273976 -0.212928 0.196317 0.212417 0.212068 0.624864 0.328648 -0.009646 -0.023590 0.091794 -0.385398 -0.528900 -0.198628 -0.538549 0.071123 0.566814 0.176729 0.313039 0.276773 0.262377 -0.034749 -0.553346 0.097216 0.577571 -0.355574 0.133762 -0.391309 -0.643097 -0.156125 -0.058332 0.547263 0.069131 0.223609 0.321100 0.789793 0.137879 -0.026801 -0.124414 -0.360581 0.462440 0.231748 0.064598 0.432726 0.843682 -0.169034 -0.393717 -0.549198 -0.513531 -0.104256 0.854049 -0.416599 -0.013805 -0.385535 -0.062912 -0.292581 -0.429635 -0.296826 0.762303 0.066781 0.638691 0.070951 0.060312 -0.384908 0.308989 -0.085490 0.857842 -0.058318 0.896261 -0.847551 -0.385073 0.238148 -0.409243 0.063733 0.286079 -0.367069 -0.445045 0.904116 0.205386 -0.134071 -0.025203 -0.604202 0.375816 -0.033712 -0.423832 -0.049669
P433 0.402088 -0.115815 -0.215830 -0.054902 -0.304255 -0.150292 -0.108233 0.458829 0.125822 -0.283931 0.053888 0.246862 -0.018897 -0.260829 -0.080794 -0.140955 0.352931 -0.092751 -0.173932 0.314724 -0.471422 0.274190 0.445854 0.445859 0.450837 -0.074236 -0.209240 -0.504665 0.099626 -0.023168 -0.226719 -0.387701 -0.539771 -0.157390 -0.204011 0.321812 0.120056 0.149758 -0.139050 -0.537184 -0.284841 -0.178333 0.345124 -0.306780 -0.385719 -0.240978 0.141438 0.218370 0.251879 0.019847 0.596672 0.165254 -0.436134 -0.020361 0.320848 -0.350484 0.343555 0.192991 -0.215665 0.106665 -0.223624 -0.069577 0.069651 0.206564 -0.334427 -0.368515 -0.108882 0.019004 0.108378 0.226819 0.025148 -0.114281 -0.453421 0.224663 -0.142051 -0.224775 0.268810 0.577408 0.013483 0.298306 -0.004973 0.294250 0.365623 -0.106612 -0.091149 0.171645 0.194571 -0.221512 -0.106625 -0.037565 -0.008393 -0.120437 0.566749 -0.543945 -0.095082 -0.564834 0.388200 0.021684 -0.476808 -0.560789 -0.006596 -0.138891 0.163585 0.325567 -0.215838 0.179326 -0.251446 0.473733 -0.175034 0.425990 0.452409 -0.334890 -0.163903 0.016066 -0.366301 -0.319029 0.196724 -0.540888 0.136379 0.270577 -0.436618 0.217891 -0.514658 0.282981 -0.182881 0.066047 0.042297 0.081563
H151 -0.101498 -0.316327 -1.145375 0.188698 0.286592 0.147093 0.082941 0.477600 0.736806 -0.184567 -0.069149 -0.043741 0.079555 -0.829555 0.332377 0.254422 -0.161462 0.226217 -0.241441 0.207988 -0.608691 0.343290 0.237820 0.146277 0.425812 -0.160705 0.113359 -0.453336 -0.480106 -0.399864 0.215608 -0.366679 -0.375639 -0.334734 -0.452087 0.577129 0.100997 0.044867 0.788716 -0.935285 -0.503516 -0.614900 0.755257 0.559921 0.221484 -0.020840 0.177469 0.761266 0.059568 0.177350 -0.172748 -0.694730 -0.261791 -0.092056 -0.036670 0.068695 -0.008257 0.001515 -0.084767 0.735482 -0.053225 0.585002 0.422881 0.163648 -0.430798 0.212127 0.553254 -0.025414 0.198256 -0.145828 -0.431722 -0.382770 0.266242 0.729819 0.132183 -0.390420 -0.332555 0.304868 0.019309 0.542569 -0.241216 -0.613734 -0.170287 0.136488 0.721258 0.194995 -0.047249 -0.793127 -0.747322 -0.238726 -0.628823 0.110087 0.689579 0.009058 0.079900 -0.304379 0.304368 0.291515 0.000263 -0.484727 0.371090 0.531195 0.854201 0.086859 -0.438076 -0.407863 -0.489023 0.024142 0.851466 0.172969 0.475837 -0.044146 -0.154355 -0.703999 0.423930 0.123817 -0.426049 0.471911 -0.197263 0.376236 0.045572 0.622322 0.446077 -0.616872 -0.412578 0.129547 0.355801 -0.030208
H195 0.268415 -0.300344 -0.231477 0.096616 0.221861 0.292095 0.259639 0.583056 0.365137 0.035345 0.009208 -0.037131 -0.145443 -0.185615 -0.396414 -0.417826 -0.321206 0.027124 0.153094 0.161404 0.157864 0.055790 0.264199 0.500529 0.339293 -0.042137 0.218810 -0.282065 0.019942 -0.485940 0.431956 -0.310621 -0.164896 -0.214609 0.020762 0.259398 0.127180 0.289491 0.808309 -0.391009 -0.092739 -0.496713 0.810276 0.296091 0.254760 0.272702 0.222387 -0.113820 -0.096587 -0.126032 -0.368054 -0.318927 -0.029865 -0.574468 -0.239289 -0.081451 -0.012341 -0.098610 0.930585 0.756229 0.089742 0.096283 0.301030 -0.409780 0.292729 0.889366 0.263871 -0.383884 0.145572 -0.675031 -0.588044 -0.278478 0.150513 0.321415 0.305630 0.172618 -0.146648 -0.353528 0.502644 0.010662 -0.784570 -0.185331 -0.395662 0.349657 0.271249 -0.045316 0.571754 0.135564 -0.593086 -0.840290 -0.299950 0.966182 0.762539 -0.611176 -0.172942 0.054425 0.476684 0.212837 0.130382 0.326302 -0.201728 -0.359269 0.315136 -0.078082 0.274194 -0.755437 0.270798 0.343882 1.238388 0.588296 0.602355 -0.806267 -0.071566 -0.433906 0.086643 0.298097 -0.780054 0.342158 -0.123410 0.053886 0.681224 -0.163168 0.547922 -0.546854 0.057157 0.279677 -0.024688 0.164194
H35 -0.156894 0.247251 -0.492732 0.449848 0.408285 0.244058 0.093813 0.069478 -0.052992 -0.226450 -0.626581 -0.346323 -0.572549 -0.174369 -0.456193 0.446007 0.308139 -0.041255 0.366235 0.750451 -0.174542 0.536870 0.620997 0.963773 -0.004967 0.136579 -0.633279 -0.376417 -0.548666 -0.356840 -0.774377 -0.715670 -0.612548 -0.074060 -0.586573 -0.130190 -0.337191 1.212231 0.449184 -0.267674 0.692395 -0.135614 0.701726 -0.557367 0.221750 0.056441 0.313859 -0.319669 -0.171661 0.402901 0.552205 0.071714 -0.475551 -0.198145 0.561694 0.153598 0.567789 0.426340 0.047518 0.024190 -0.080668 0.370511 0.434100 0.060664 0.394102 0.166293 0.360146 0.201826 -0.319222 -0.369900 0.062710 -0.287324 -0.430538 0.677464 0.896390 -0.240950 -0.192176 0.385906 0.793807 0.652302 -0.333905 -0.302754 0.143364 -0.247459 0.415746 -0.648892 0.742451 0.101059 -0.898620 -0.334851 -0.650028 0.541733 0.561180 -0.875250 0.654223 -0.586077 0.517847 0.217678 -0.218343 -0.014707 -0.351240 -0.159217 0.941727 0.352211 0.057012 0.285806 0.164189 -0.419246 0.166993 0.622638 0.503339 -0.406750 0.002919 -0.807814 0.402099 0.388491 -0.504597 0.543506 -0.249796 0.101742 0.067610 0.698255 0.595121 0.332058 -0.398784 0.418694 -0.080964 0.857792
H58 0.688126 -0.305885 0.169358 0.063389 -0.055306 0.309469 -0.000933 0.983757 -0.190936 0.219156 -0.067432 -0.706449 -0.713242 -0.848289 0.191464 -0.052609 0.286451 0.223457 0.135621 0.890354 -0.378624 0.881735 0.316186 0.659709 -0.245428 -0.209361 -0.604191 -1.113000 -0.411734 -0.327982 0.057449 0.047452 -0.270652 0.510502 -0.012207 0.384053 -0.143304 0.967947 0.870186 -0.263263 -0.711392 0.168754 0.389188 0.173926 -0.664371 0.404193 -0.387896 -0.311697 0.494027 0.076540 0.244079 0.149367 0.263652 -0.014981 0.349731 -0.865156 -0.252298 -0.063935 0.876416 -0.196758 -0.533945 -0.146616 0.053808 0.386232 0.205442 0.513206 0.027384 0.424433 0.073482 -0.552077 -0.116901 -0.877791 -0.189974 0.423606 -0.157518 -0.321449 -0.281032 -0.093008 0.058974 -0.424512 -0.146342 -0.294717 0.102877 0.173589 -0.227684 0.132414 1.283304 -0.150493 -0.607877 -0.968498 -0.405341 0.228893 0.521056 -0.997422 -0.597880 -0.488481 0.524217 0.293159 -0.548213 0.280352 0.320362 0.130348 1.187131 -0.477175 -0.041095 -0.502933 0.314642 0.236859 0.566678 0.668833 0.795396 -0.196387 0.090946 -0.200683 -0.140135 0.737085 -0.047647 -0.564640 -0.494320 0.457618 0.017871 0.257179 0.296551 -0.356187 0.324262 0.154122 -0.066303 -0.022473
H182 0.343461 -0.636517 -0.046560 -0.241966 -0.128233 -0.080231 0.530846 -0.345448 0.316538 -0.472819 -0.290147 0.250573 -0.243382 0.152016 0.387593 0.109043 -0.226054 0.442361 0.272160 0.664732 -1.138755 0.444214 0.352340 0.156342 -0.023299 0.003044 -0.459846 -1.432742 -0.540564 -0.381853 -0.346981 -0.622775 0.415710 -0.156217 -0.324148 0.757354 -0.166017 0.754302 0.553558 -0.536229 -0.249960 -0.763146 0.478953 -0.246660 0.150139 -0.483502 -0.178869 0.078116 0.300847 0.427141 0.192004 -0.056988 -0.021777 0.043487 -0.117350 -0.362551 0.097196 0.583988 0.499058 0.075637 0.019708 0.163721 0.406981 -0.002179 0.417557 0.293535 0.304277 -0.191527 0.239744 0.079644 0.153641 0.279872 -0.228471 -0.064337 0.481032 -0.140289 -0.510782 0.944070 -0.035340 0.090349 -0.107853 -0.117460 -0.146591 0.053104 0.264840 0.698614 0.483952 0.298294 0.017192 0.024621 0.248555 0.695760 0.903399 -0.746786 0.422306 -0.239585 0.397736 -0.024496 -0.418010 0.057915 0.196267 0.237380 1.183130 -0.003369 1.057478 -0.091282 -0.180958 -0.251969 0.729480 0.876891 1.020385 -0.511319 -0.232707 -0.556747 -0.107882 -0.007506 -0.617043 -0.084194 0.187288 0.528964 -0.294994 0.619813 -0.009304 -0.508589 0.050476 -0.509810 -0.386092 0.281770
P829 0.214511 -0.145267 -0.934305 0.058210 0.281575 0.222765 0.198641 0.458078 1.001209 -0.258515 0.141263 0.212294 0.511573 -0.602739 0.376234 0.147079 0.137698 0.215183 -0.438923 0.267908 -0.536661 0.081365 0.318211 0.462052 0.578310 -0.260525 -0.120426 -0.550178 -0.172293 -0.211633 -0.024310 -0.228481 -0.437264 -0.530801 -0.229163 0.398266 0.104671 -0.095711 0.524248 -0.741404 -0.493733 -0.391696 0.766112 0.377926 0.106555 0.138541 0.039166 0.690005 0.084157 0.121414 -0.158786 -0.569055 -0.187505 -0.007118 0.142713 -0.023526 0.074012 -0.000853 -0.100506 0.722929 -0.059722 0.347415 0.566385 0.090118 -0.228565 0.141567 0.285630 -0.245907 0.086912 0.089677 -0.389776 -0.171658 0.056149 0.593966 -0.063563 -0.413642 -0.531022 0.230831 0.069527 0.699632 -0.299492 -0.714994 -0.390445 0.292431 0.531737 0.256795 0.053356 -0.617235 -0.652109 -0.333604 -0.392249 0.099727 0.408165 0.086283 0.034244 -0.571767 0.397367 0.315609 0.035089 -0.415913 0.366309 0.194198 0.537488 0.172120 -0.559345 -0.362819 -0.766625 0.065896 0.693006 0.179406 0.558086 -0.390826 -0.207636 -0.753108 0.567725 -0.177163 -0.070120 0.257886 0.002696 0.387481 -0.258391 0.457256 0.416791 -0.484576 -0.491816 0.086267 0.522714 0.119683
H96 0.599984 -0.307554 -0.340662 -0.083441 -0.283253 -0.201908 -0.078915 0.639659 0.438974 -0.157897 0.416849 0.557748 -0.276321 -0.269060 -0.048461 -0.529675 0.391751 -0.101649 0.181201 0.300353 -0.615246 -0.044219 0.491036 0.196394 0.535034 -0.088303 -0.121199 -0.791155 0.034369 0.098993 -0.038121 -0.225507 -0.493895 -0.348189 -0.198497 0.473286 0.257188 0.349331 -0.272997 -0.987221 -0.737491 -0.470463 0.311490 -0.306385 -0.463114 -0.102307 0.001092 0.084455 0.453844 0.163653 0.510003 -0.067591 -0.434679 -0.300209 0.441978 -0.071601 0.313100 0.309730 -0.145729 0.592605 -0.450554 -0.217661 0.191993 0.175384 -0.282369 -0.235881 0.019829 0.050887 0.185047 0.195343 0.072130 -0.528613 -0.459020 0.251445 -0.188169 -0.100647 0.211808 0.535235 0.041826 0.001403 0.207001 0.317191 0.367288 -0.235307 0.052139 -0.009409 0.214296 -0.304532 -0.020851 0.056635 -0.106606 -0.164705 0.719373 -0.640496 -0.375819 -0.426162 0.324568 0.250261 -0.741572 -0.570486 0.097367 0.040524 0.243493 0.355399 -0.233259 -0.059740 -0.017214 0.695033 -0.180135 0.421399 0.500518 -0.319197 -0.037287 -0.021467 -0.230508 -0.371168 -0.141139 -0.738173 0.194023 0.438190 -0.219122 0.211130 -0.471865 -0.013638 -0.104324 0.309690 -0.091204 -0.237027
H31 0.525266 -0.066725 -0.269688 -0.441736 0.613530 -0.457397 0.069374 0.543976 0.385902 -0.153920 -0.149013 -0.388725 -0.346874 -0.531273 -0.236202 0.096622 0.114792 0.328872 0.569432 -0.071436 -0.013580 0.298835 0.755524 0.207098 0.822997 -0.168181 -0.160812 -0.246898 -0.199228 -0.023412 -0.023348 0.009030 -0.443082 -0.247710 -1.107211 0.470435 -0.188442 0.398478 0.201432 -0.301957 -0.864691 -0.406443 0.954477 0.202725 -0.471586 0.063428 0.429600 -0.130423 -0.392267 0.311096 0.379825 -0.712810 -0.694902 -0.010463 -0.309800 0.112950 0.783120 -0.525381 0.190408 0.303395 -0.023488 -0.128886 0.596243 0.254219 0.127406 0.227115 -0.233445 0.487587 0.074291 -0.182216 -0.628819 -1.086700 -0.513314 0.475236 0.130572 0.103226 0.330040 0.045749 0.163800 0.213398 0.145973 -0.332223 -0.484947 -0.127243 0.496340 0.004939 0.775617 0.295386 -0.519013 -0.114372 -0.146279 0.252846 0.768911 -0.550735 -0.017857 -0.295155 -0.212087 0.138377 -0.204183 -0.452402 0.339450 -0.045084 0.661993 0.545925 0.196361 0.065165 0.121355 -0.013960 0.431703 0.194731 0.201113 -0.099817 -0.106849 0.186989 -0.138996 0.394570 0.090682 0.234717 -0.388820 0.635831 0.503142 0.446798 0.216067 -0.007396 -0.171488 -0.377762 -0.359501 0.359144
H84 0.189027 -0.297987 -0.412947 0.180111 -0.289042 0.040006 0.080085 0.323864 0.176260 -0.094551 0.107351 0.121141 -0.194351 -0.268194 0.165927 -0.338733 0.378012 -0.360166 0.004021 0.719444 -0.880099 0.016915 0.368017 0.866066 0.698317 0.158452 -0.124176 -0.673649 -0.028696 -0.131609 -0.306893 0.199380 -0.415181 -0.028006 -0.159817 0.211003 -0.270406 0.697716 -0.382091 -0.574011 0.080421 0.447423 0.482352 -0.225980 -0.404139 0.142482 0.047258 -0.183208 0.552130 -0.307959 0.088800 0.142479 -0.335739 0.278853 0.128644 -0.132387 0.247173 0.259604 0.112062 -0.502511 -0.318735 -0.060495 0.328931 -0.301361 0.390120 -0.489799 -0.421616 -0.051019 0.203679 -0.062189 0.051217 -0.211821 -0.441249 0.364716 0.201940 -0.237258 0.259693 0.594665 -0.175040 0.227858 -0.850278 -0.116100 0.311683 0.008627 0.053748 -0.639112 0.366051 0.400173 -0.021773 -0.093746 -0.026303 -0.191183 0.704512 -0.398615 0.380483 -0.735900 0.611453 0.058663 0.037296 -0.143124 0.508938 -0.341157 0.065049 0.286402 -0.265593 0.088589 -0.191357 0.099767 0.228088 0.542246 0.064381 -0.721394 -0.449145 -0.132173 0.250021 0.076897 -0.234950 0.017936 0.073317 0.209453 -0.234652 0.118240 -0.068077 -0.012110 0.225161 0.216996 0.278714 0.305878
P826 0.694284 -0.150998 -0.367979 -0.149207 -0.085290 0.060256 0.168600 0.043575 0.990979 0.363556 -0.070955 -0.361177 0.265507 -0.481956 0.598783 0.020575 0.081198 0.332783 0.029408 0.507647 -0.635164 0.241436 0.324530 0.576545 0.520155 -0.290187 -0.008515 -0.528453 -0.228828 -0.068503 -0.211206 0.089271 -0.407745 -0.392478 -0.314038 0.145017 0.300362 -0.333562 0.248796 -0.303897 -0.117564 -0.021881 0.748582 0.366652 -0.218865 -0.011888 -0.095753 0.388791 0.391011 -0.055118 -0.057697 -0.270541 0.306171 0.119650 0.002926 0.146490 -0.135547 -0.071430 0.416681 0.580379 -0.053283 0.179073 0.370230 -0.272920 0.471530 0.400208 -0.060700 -0.268445 0.237583 0.079275 -0.385857 -0.167405 -0.516492 0.591264 -0.162972 -0.216236 -0.722823 0.519033 -0.020556 0.377383 0.033393 -0.953443 -0.240566 0.287471 0.368029 0.125203 0.163405 -0.357671 -0.934117 -0.416929 -0.492675 0.385020 0.519454 0.071490 -0.178144 -0.585861 0.762231 0.116845 -0.087538 -0.203276 0.407988 -0.061527 0.457773 0.154935 -0.036532 -0.215375 -0.535663 0.061794 1.007101 0.038361 0.299833 -0.473448 0.039706 -0.535581 0.517660 -0.173853 -0.220219 0.132937 -0.020864 0.636290 -0.502734 0.501548 0.708806 -0.472484 -0.054741 0.193681 0.219802 -0.183470
H203 0.352056 -0.710284 0.052464 0.387194 -0.394077 0.191138 -0.461070 0.054344 0.237588 0.028881 -0.136592 -0.637997 -0.242500 -0.655047 0.507057 -0.697622 -0.790707 -0.569504 0.180227 0.478077 -0.951032 0.763364 0.901439 0.622163 0.048311 -0.271711 -0.334464 -0.944225 -0.291793 -0.713948 0.005357 -0.210953 -0.249381 0.245508 -0.223825 0.543571 -0.332617 0.816418 -0.153832 -0.752686 -0.663886 -0.624092 0.329914 0.356554 -0.122839 -0.582716 -0.304099 0.050590 -0.400983 -0.106527 0.074920 -0.169346 -0.547033 -0.211377 -0.426510 -0.130115 -0.050431 -0.439812 0.827582 0.148888 -0.019170 0.366649 -0.303859 0.004151 -0.242020 0.290788 -0.298398 -0.655706 -0.010643 -0.998551 -0.108388 -0.679494 0.112465 0.219910 -0.048015 0.181895 0.328801 0.536423 -0.096710 0.195578 -0.514948 -0.519428 0.155692 0.631077 0.118706 0.348896 0.806361 -0.059621 -0.798994 -0.991466 -0.169456 0.036410 0.813130 -0.682990 0.094248 -0.713327 0.207872 0.115939 0.191129 -0.035390 0.448016 -0.065645 -0.137950 -0.482306 -0.405141 0.315054 0.186702 0.230093 1.293864 0.725293 0.993496 -0.170338 0.224811 -0.330304 -0.398911 0.203201 -0.412368 0.378937 0.372254 0.540962 0.328747 0.157801 0.183332 -0.430785 -0.074126 0.156137 -0.261028 0.372069
H107 0.416380 -0.683984 -0.486136 0.564775 0.247127 0.785251 -0.036647 0.705865 0.661190 -0.037022 0.013988 -0.029584 -0.483649 -0.571044 0.011827 -0.118881 -0.106289 0.439115 -0.160177 0.096968 -0.634010 0.431595 0.421484 -0.349764 0.035560 -0.373787 0.340380 -0.828781 -0.210006 -0.504987 0.166136 0.349629 -0.693816 0.021986 -0.508716 0.774523 -0.238120 0.813223 0.255190 -0.684646 -0.340507 -0.563974 0.144362 -0.116169 -0.569402 0.378600 0.405684 -0.246158 0.257692 -0.199200 0.417844 -0.331018 -0.555023 -0.708847 0.070430 -0.327741 -0.045077 0.010928 -0.142084 -0.070296 0.074449 0.152943 0.071234 -0.377044 0.577660 -0.204470 -0.024611 0.184709 0.496148 -0.182907 -0.792585 -1.120364 -0.658840 0.894068 0.461518 -0.607899 -0.019369 0.353297 -0.180286 0.621845 -0.280945 0.222123 -0.199710 -0.419269 -0.204042 -0.026297 0.379276 0.192525 -0.545303 0.107558 -0.109674 0.358772 0.348520 -0.356844 -0.074442 -0.666116 -0.313863 0.356816 0.010984 0.444762 0.173075 0.197469 0.195078 0.845983 -0.083195 -0.303418 -0.257234 -0.040637 0.374471 0.241127 0.869292 -0.383531 -0.227443 -0.566103 0.323613 0.504715 -0.286710 0.557238 -0.044098 0.274019 -0.180186 0.789159 -0.142492 -1.105086 -0.380732 -0.629448 0.052771 -0.376758
H82 -0.022094 -0.583074 -0.094657 0.390039 0.171176 -0.016649 0.637037 0.734573 -0.128739 -0.137578 -0.067430 0.070191 -0.899966 -0.573453 0.134363 -0.179106 -0.004359 0.334779 0.726284 0.855471 0.280475 0.346264 0.786049 -0.249815 -0.138223 -0.369135 0.000876 -0.884833 0.160217 -0.792184 -0.591871 -0.447107 -0.164266 0.637858 -0.628100 0.151647 0.063292 1.142668 -0.269113 -0.530067 -0.558251 0.011903 0.725173 -0.090125 -0.325188 -0.729571 0.609861 0.348444 -0.010087 0.568293 0.292856 -0.144779 0.186434 0.209292 -0.234461 -0.464818 -0.282193 -0.820418 0.291586 0.309670 -0.407645 0.452822 -0.140363 -0.172798 -0.044442 -0.659018 0.505861 0.395217 -0.073326 -0.210926 -0.764187 -0.147780 -0.367834 -0.137807 0.624779 0.018168 0.280739 0.641250 -0.118422 -0.346481 -0.279773 0.039262 0.082056 -0.292176 0.256233 -0.460013 1.047278 0.348237 0.225259 -0.505802 -0.300179 0.306255 0.451202 -1.017531 0.003518 -0.431095 0.252026 -0.228921 -0.644488 -0.085821 0.427185 -0.280800 0.420829 0.268013 0.526452 -0.306832 0.398214 0.462220 0.598601 0.701484 0.597135 -0.381046 0.066479 -0.097325 0.386312 0.225334 -0.399481 -0.297482 -0.027068 -0.186095 0.442340 0.601419 -0.205361 -0.082780 0.062998 0.297587 -0.546921 0.399034
H175 0.329619 -0.099297 0.137851 -0.162991 0.666144 -0.207919 0.027900 0.321406 0.073772 -0.263698 -1.053909 0.042285 0.550395 -1.082124 -0.107796 -0.448137 0.258592 0.288674 0.745704 0.681233 -0.789261 0.559414 0.621005 -0.412503 -0.023447 -0.425557 -0.177938 -0.705756 -0.113683 -0.319438 -0.132756 -0.441002 -0.144383 0.039320 -0.624742 0.086021 -0.094329 0.985705 -0.029039 -1.113272 -0.108820 -0.485855 0.463058 -0.374810 -0.810821 -0.002093 -0.037217 0.065779 -0.338069 -0.238975 0.823668 0.310809 -0.718439 -0.542744 0.411282 0.433442 0.107000 -0.383177 0.642240 0.560478 -0.330081 0.249755 0.222188 -0.124470 -0.692662 -0.380657 0.670371 0.265935 -0.025351 -0.490894 -1.227651 -0.562221 -0.614517 0.804830 0.752487 -0.070303 0.118122 0.005403 0.589771 0.678870 -0.343561 -0.193767 -0.634204 -0.336195 -0.319501 -0.164548 1.059358 0.559739 -0.659474 -0.349543 -0.031350 0.306015 0.607452 -0.881839 0.188760 -0.614884 0.325936 0.227694 -0.417786 -0.753493 -0.317462 -0.589666 0.675518 0.765906 -0.121717 -0.316200 0.318923 0.186198 0.574632 0.126446 0.549614 -0.628826 0.005644 -0.604267 -0.264842 0.161428 -0.016207 -0.023460 -0.024193 0.702058 0.168828 0.943623 0.290887 0.273415 -0.605318 0.747831 -0.420274 0.862466
H55 0.633013 -0.722474 -0.461423 -0.262651 -0.050079 0.215746 0.113401 0.737854 0.459150 0.347931 -0.726886 -0.183205 -0.133827 -0.349958 -0.182663 0.417911 0.083921 0.053252 0.520599 0.840608 -0.584536 0.132870 0.107443 0.231338 0.777908 0.211787 0.290811 -0.798719 0.072446 0.029830 -0.144817 0.055003 -0.332350 0.325256 -0.359579 0.318529 0.238769 0.602721 0.214082 -0.391514 -0.755716 -0.584942 0.652002 -0.047478 -0.313322 -0.368650 0.006480 0.109385 -0.462123 -0.159296 0.293365 0.171529 -0.264335 -0.532636 0.119813 -0.065203 0.456032 -0.601586 0.357138 0.406570 -0.277199 -0.058142 0.388503 -0.479737 -0.002101 -0.074058 0.463333 0.520300 -0.220368 -0.161418 -0.067450 -0.564829 -0.260279 -0.088685 -0.135756 0.113948 -0.179113 0.213798 0.385487 0.215353 -0.650838 0.223550 -0.139718 -0.103233 0.183604 -0.157327 0.471085 0.093863 -0.784822 -0.186252 -0.432207 0.540785 0.287514 -0.289418 0.431540 -0.553358 -0.125966 -0.210838 -0.497415 0.299453 0.402033 0.411703 0.735143 0.680146 -0.316681 -0.055041 -0.409707 0.059211 0.832784 0.159687 1.137570 -0.097276 0.239138 -0.482799 -0.118218 1.015579 0.609738 -0.347872 -0.473669 0.255935 0.327363 -0.046000 0.709903 -0.888965 0.345881 0.055591 -0.074387 0.066393
H18 -0.075558 -0.586992 0.148544 0.485243 0.259321 0.035655 0.530276 0.623327 0.546331 -0.210974 -0.029874 -0.044178 -0.452353 -0.296408 0.486479 -0.183602 0.365015 -0.065123 0.148111 0.713745 -0.836703 0.517839 0.167017 -0.260855 0.097525 -0.198903 -0.399405 -0.206029 -0.143777 0.200466 -0.423254 -0.440978 -0.004512 -0.103345 -0.920039 -0.037090 -0.313165 0.764183 0.129745 -0.165303 -0.256038 -0.676743 0.056141 0.548785 -0.242740 -0.220599 -0.466834 -0.082506 0.134842 0.064122 0.650158 -0.019713 -0.078892 -0.047458 0.089823 -0.450407 -0.094696 -0.505044 0.364208 0.743127 -0.146806 -0.141551 -0.092159 -0.013690 0.511522 -0.376367 0.357460 -0.683387 0.309277 -0.417409 -0.225708 -0.330907 0.080981 0.609648 -0.116759 0.208616 0.513352 0.325209 0.964757 -0.176169 -0.332070 0.208183 0.092457 0.471019 0.530227 -0.006859 0.602679 0.068976 -0.133492 -0.950888 -0.338290 0.217378 0.542253 -0.465980 -0.592345 -0.513293 0.059071 0.523348 -0.753922 0.553028 0.220680 0.284965 0.739403 0.332629 -0.377423 -0.089352 -0.075731 0.016389 0.285281 0.161286 0.448898 -0.639819 -0.201306 -0.485928 0.162903 -0.848466 0.018136 0.047389 -0.438352 0.153564 -0.280662 0.806302 0.216133 -0.195941 0.187069 0.023705 -0.331051 0.741754
H65 0.487969 -0.097100 -0.353168 -0.256382 -0.127829 0.254599 0.134042 0.279185 -0.140108 -0.038787 -0.817330 -0.164935 -1.009884 -0.372876 0.566110 -0.002621 -0.502648 -0.010809 0.450796 0.649352 -0.617614 -0.173550 0.056821 -0.158220 0.097001 0.485267 0.336017 -0.733555 -0.485007 -0.496797 -0.288771 -0.563577 -0.218058 0.109868 -0.262334 -0.020393 -0.296957 0.360398 0.511319 -0.765598 -0.159174 -0.161562 0.652523 -0.024120 -0.760056 0.119537 -0.196159 0.290715 0.448547 0.377851 0.436537 0.250218 0.040769 0.364223 0.206279 -0.046271 0.499502 -0.058274 0.347425 0.634342 0.116638 0.276599 -0.020075 0.622622 -0.188966 0.447898 0.130343 -0.432182 0.885082 -0.253222 -0.161040 -0.848566 -0.648511 -0.102537 0.353755 -0.165775 0.014126 0.975564 0.523409 0.087690 0.376308 -0.229609 0.235249 0.223987 -0.015717 -0.143117 1.062700 -0.558950 -0.877866 -1.037515 -0.340663 1.018760 0.655938 -0.252348 -0.430685 0.086866 0.259298 -0.459062 -0.378492 0.401033 0.371164 -0.129046 1.059988 0.238235 0.389383 -0.144948 -0.281607 0.340051 0.555115 -0.155402 0.454293 0.122307 -0.020802 -0.228248 -0.190213 -0.013335 -0.074841 0.044903 0.190947 0.445567 0.055799 0.412861 0.280583 -0.247113 0.676831 0.404648 -0.231503 0.407021
H178 0.259563 -0.584691 0.034038 -0.160895 -0.100631 -0.029893 0.537716 -0.363418 0.018580 -0.303174 -0.245653 0.232485 -0.168607 -0.138613 0.505590 -0.168121 -0.276847 0.308661 0.393020 0.887286 -1.399943 0.492685 0.411286 0.108572 -0.004189 -0.029315 -0.359716 -1.132524 -0.760142 -0.631673 -0.257214 -0.336214 0.292241 -0.328778 -0.702918 0.800509 -0.512394 1.175280 0.092305 -0.264345 -0.359223 -0.699988 0.493159 0.041770 -0.049662 -0.078250 -0.038963 0.232609 0.311301 0.157285 0.404609 0.332638 -0.342624 0.234210 -0.198540 -0.437923 0.353841 0.397684 0.316810 -0.025795 0.088161 0.008135 0.412476 0.222048 0.114910 0.428035 0.215433 -0.096795 0.460259 0.149737 0.212578 0.239865 -0.302530 0.021853 0.341779 0.051224 -0.153250 1.018720 -0.012500 0.032309 0.014272 0.118483 -0.615607 0.145478 0.343071 0.491709 0.785934 0.514948 -0.431766 0.017039 -0.123056 0.534242 0.712321 -0.568321 0.091058 -0.247417 0.042489 -0.330117 -0.451285 0.149254 0.378880 0.246165 1.084733 0.355338 0.816336 0.268172 0.119750 -0.245596 0.470210 0.743587 0.920025 -0.378124 0.227700 -0.474858 -0.210354 0.369885 -0.380112 -0.233937 -0.187573 0.574191 -0.407242 0.821339 -0.324913 -0.283973 0.042174 -0.579674 -0.071024 0.453401
H15 0.125905 -0.146827 -0.631032 0.593323 0.466347 0.241006 0.643933 0.172273 0.857266 0.584717 0.128835 -0.280455 -0.896313 0.298211 0.406906 -0.115178 -0.471645 0.768931 -0.157807 0.373292 -0.839423 0.083696 0.103059 0.118662 0.114372 -0.358765 -0.024834 -0.781314 -0.017607 0.229863 0.403430 0.181753 -0.434024 -0.396145 -1.241584 0.457480 0.326765 0.454083 0.462695 -0.707725 -1.126681 -0.677995 0.558422 -0.654048 0.161107 -0.334490 -0.416646 -0.035562 -0.029612 0.174889 0.361039 -0.670556 -0.080686 0.340480 -0.367959 0.535026 0.624774 -0.172966 0.614243 0.688892 -0.025787 0.013932 1.158562 0.122775 0.506013 0.341225 0.420068 0.148994 0.400081 -0.386423 -0.525215 -0.184608 0.050937 0.110016 0.353041 -0.271355 -0.402624 0.913909 0.468123 0.190138 -0.178065 -0.009529 -0.679795 0.100602 0.630476 -0.746962 0.794220 0.508929 -0.812528 -0.283313 -0.168141 0.857394 0.455670 -0.338656 -0.053818 0.193543 0.560077 0.560325 -0.712974 0.923125 -0.365974 0.361032 0.704428 0.193397 0.421749 -0.318997 -0.306233 0.342443 1.376748 -0.102220 0.397351 -0.362134 0.041443 -0.610475 -0.053255 -0.485214 -0.044032 0.241003 0.122585 -0.276888 -0.192056 0.636134 0.515576 -0.051794 -0.190929 0.481724 0.049261 -0.333695
H132 0.171109 0.080970 -0.602388 0.319697 -0.645331 0.694962 0.794887 0.218672 0.757374 -0.128148 0.358873 0.242121 0.252707 0.030112 -0.000984 -0.282693 0.004617 0.303936 0.618766 0.190068 -0.796984 0.058033 0.094371 0.654670 0.688119 0.268410 -0.177251 -0.717893 -0.187065 -0.448424 -0.011997 -0.016760 -0.197544 -0.110663 -0.363974 0.571560 -0.800932 0.078156 0.323235 -1.053794 -0.841472 -0.795323 0.994297 0.383812 -0.356961 0.064127 0.273503 0.354740 0.863220 0.349883 -0.015528 -0.872249 -0.501628 -0.231063 -0.334058 -0.659768 0.433626 0.157309 0.285809 0.384015 0.223340 0.127211 0.734967 0.198487 0.001716 -0.119325 -0.047014 -0.786771 0.972024 0.110039 0.130494 -0.332903 -0.273437 0.033082 0.036134 0.268110 0.428188 1.439536 -0.093567 -0.130990 0.125249 0.072303 0.014513 0.125039 0.395412 0.506553 0.993791 -0.068147 -0.356039 -0.189228 -0.626633 0.296033 0.708939 -0.200206 0.482465 -0.336726 0.028314 -0.119478 -0.729570 0.622775 0.232448 0.538037 0.554041 -0.272975 0.652387 -0.042197 -0.211231 0.135299 1.259363 0.284619 1.031320 -0.367388 0.000757 0.287703 -0.072915 -0.431390 -0.603963 0.266317 0.387884 0.702731 -0.067255 0.133705 0.172170 -0.207317 -0.427895 0.794368 0.225914 -0.294622
H3 0.210802 -0.255417 -0.645588 0.137733 -0.098789 0.387698 0.916551 0.063588 0.308072 0.450833 -0.608024 -0.557671 -0.757721 0.000582 0.147976 -0.189228 -0.840968 -0.160932 -0.187255 0.972813 -0.978338 -0.529066 0.201411 0.957783 0.068032 0.340412 0.023563 -0.975458 -0.386439 -0.103201 0.051805 -0.139989 -0.151532 0.145995 -0.952356 -0.294675 -0.178506 1.172799 0.546913 -0.050825 -0.367098 -0.198610 0.944877 0.256724 -0.158942 0.006181 -0.148729 -0.150496 0.446262 0.073446 0.194405 -0.014920 -0.166351 0.660170 -0.164731 -0.391545 -0.188908 0.386357 1.044374 0.055223 -0.286930 0.180057 -0.119159 -0.090973 0.654102 0.600592 -0.200476 -0.165620 0.752934 0.387611 -0.255994 -0.621392 0.134334 0.631148 0.951491 0.127131 0.144341 0.252576 -0.195638 0.146880 -0.148193 -0.232242 0.110825 -0.314518 0.203283 -0.680387 0.522629 0.178745 -0.790882 -0.553592 -0.695262 0.798673 0.935421 -0.627699 0.050198 -0.225276 0.714962 -0.112637 -0.262396 0.805188 -0.193342 0.197869 0.845056 -0.861411 0.035924 -0.727449 0.188728 0.169430 1.282960 0.422315 0.677412 -0.424246 -0.358639 -0.404015 0.214156 0.292658 -1.061869 0.991388 0.218968 0.274260 -0.555219 0.099650 0.248817 -0.561345 -0.081318 0.428885 0.299826 0.109822
H119 0.408982 -1.084877 -0.041642 0.099063 0.205250 0.907056 0.376687 0.133008 0.669413 -0.339663 -0.336733 -0.528585 -0.138023 -0.100308 -0.077708 -0.009375 -0.212598 -0.049435 0.183208 -0.021566 -0.597319 0.497945 0.587255 0.167458 0.023564 0.360515 -0.049353 -0.762142 -0.711681 -0.683064 -0.143708 0.396042 -0.642837 0.477930 -0.626337 0.356128 -0.775328 0.344925 0.415203 -0.370139 -0.379103 -0.486512 0.912576 0.074391 -0.742386 -0.616019 0.125258 0.705388 0.103256 -0.291246 0.866003 -0.561758 -0.153312 -0.181173 -0.457891 -0.751766 -0.019649 -0.255921 1.109692 0.898233 -0.531408 0.387917 0.441426 0.282417 0.608580 0.004542 0.231024 0.019330 0.623820 0.273996 -0.094492 -0.670032 -0.279579 0.403485 0.007736 0.322756 -0.246944 0.482740 -0.149019 -0.380672 0.591393 -0.698041 0.057670 0.280037 -0.025883 0.471168 1.219304 -0.333427 -0.243335 -0.109764 -0.166261 0.806829 0.292881 -0.700225 0.090546 -0.309532 -0.347434 -0.159922 -0.012191 0.636051 -0.258550 0.227423 0.655337 -0.047323 0.555601 0.188262 -0.643110 0.165032 1.109671 0.541903 0.828034 -0.123936 0.220010 0.136149 0.671243 -0.099709 -0.726335 -0.073654 -0.035316 0.238412 0.068158 0.546119 0.790865 -0.351724 0.140749 -0.061524 -0.227410 -0.040360
H215 0.525298 0.386917 -1.108215 0.667371 -0.101219 0.190014 0.921278 0.731436 0.008395 0.392220 -0.123944 0.188674 -0.143499 0.369232 -0.262160 -0.080863 0.080890 0.230577 -0.315202 0.240906 -0.526950 0.087584 -0.049658 0.638491 0.324763 -0.228234 -0.464938 -0.572251 0.476709 0.565133 -0.502739 -0.269579 -0.190428 -0.161483 -0.996843 0.488948 0.112738 0.598155 0.792098 -1.159373 -0.704299 0.364389 0.689267 -0.309912 -0.626574 0.376042 -0.460246 0.281799 0.665290 0.079995 0.201894 -0.662796 -0.186927 0.571980 0.077895 0.034390 -0.037150 0.039052 0.604092 0.543073 0.085018 -0.010143 0.561069 -0.168863 0.074983 0.622626 0.230318 -0.565663 0.713106 0.122187 -0.374307 0.109161 0.169897 0.357309 0.381117 -0.285541 0.487191 0.661091 0.409916 -0.067253 -0.250767 -0.201215 -0.262442 -0.361890 0.699142 -0.507814 0.275001 0.151357 -0.855831 -0.624669 -0.036743 0.258892 0.848764 -0.873564 -0.388224 -0.247864 0.387648 -0.110751 -1.411001 0.840540 -0.450119 0.032738 0.281383 -0.597717 0.109703 -0.778948 0.033822 0.882383 0.708645 0.326674 0.213105 -0.520558 0.020828 -0.245849 -0.161740 -0.352193 -0.380026 0.316321 0.337504 0.418026 -0.582487 -0.419652 0.129869 -0.052892 -0.327596 0.978221 0.203392 0.147786
H103 0.567071 -0.308106 -0.478384 0.145438 0.203692 0.068454 0.481083 0.610551 0.449294 -0.279553 -0.379770 -0.086162 -0.135309 -0.280805 -0.093451 -0.118347 -0.056446 0.115763 0.098631 0.712665 -0.655078 0.477370 0.607130 0.448152 0.466411 -0.039992 -0.117885 -0.713632 -0.014083 -0.111116 -0.266761 -0.324176 -0.445682 -0.119439 -0.406988 0.241278 0.017864 0.578990 0.315951 -0.769225 -0.266080 -0.251170 0.640171 -0.100188 -0.488499 -0.127791 0.286973 -0.006670 0.221886 0.181112 0.373172 -0.272756 -0.598855 -0.185605 0.103904 -0.327656 0.086890 -0.090696 0.420111 0.362949 0.242501 0.008464 0.180080 0.102094 -0.011962 -0.110273 0.087760 -0.243935 0.312295 -0.131467 -0.301003 -0.495359 -0.303955 0.490737 0.470920 -0.362229 -0.003347 0.473333 0.286937 0.439236 -0.471478 -0.078714 -0.050870 -0.074916 0.059607 -0.260930 0.617411 0.165463 -0.401470 -0.448938 -0.257643 0.372251 0.704388 -0.877141 0.230063 -0.422832 0.388910 0.039957 -0.495192 0.019348 0.053903 -0.290602 0.576660 0.177384 -0.172136 0.066665 -0.239232 0.512133 0.643327 0.384901 0.626885 -0.588298 -0.204445 -0.291627 -0.047027 -0.049134 -0.034226 -0.112215 -0.099836 0.313811 0.033514 0.297444 0.082652 -0.330177 0.105635 0.096724 0.135060 0.158072
H63 0.338597 -0.313009 -0.338018 0.278139 0.119036 0.102097 0.335475 0.569795 0.432368 -0.123289 -0.237167 -0.081763 -0.214490 -0.316008 -0.063519 -0.059285 0.005159 0.045095 0.096372 0.491620 -0.440508 0.431789 0.497308 0.439741 0.433240 -0.052363 -0.170462 -0.705360 -0.229667 -0.198544 -0.179458 -0.261467 -0.441187 -0.042116 -0.519072 0.343980 0.030706 0.589198 0.252561 -0.588533 -0.296996 -0.366865 0.639262 -0.105146 -0.426405 -0.156567 0.065719 0.041682 0.196412 0.088058 0.349080 -0.187807 -0.385414 -0.118531 -0.058090 -0.187080 0.126487 -0.176791 0.443686 0.350266 0.023881 0.184991 0.268275 0.034659 0.026779 0.059275 0.180106 -0.097783 0.281667 -0.246525 -0.321376 -0.458972 -0.355640 0.451012 0.333274 -0.234135 -0.074862 0.455277 0.222196 0.308705 -0.332757 -0.155579 0.048693 -0.009945 0.211651 -0.149115 0.675855 0.084197 -0.508360 -0.443930 -0.236067 0.411845 0.678418 -0.691078 0.129055 -0.389399 0.280985 0.065342 -0.501958 0.034775 -0.012171 -0.204957 0.504247 0.236981 0.009625 -0.046330 -0.201477 0.321279 0.685619 0.427445 0.672475 -0.571797 -0.185455 -0.243018 0.064442 -0.023688 -0.066262 -0.090827 -0.116181 0.205524 0.069108 0.262778 0.165676 -0.285564 0.047538 0.061607 0.049316 0.246056
H74 0.151738 -0.253212 -0.616893 1.042823 0.003597 0.738813 0.457806 0.005195 1.182151 0.045849 0.257063 -0.712089 -0.505018 0.212164 -0.015934 -0.198418 0.370796 0.520197 -0.264907 -0.111463 -0.477325 0.701477 0.215349 0.823417 0.389126 -0.458959 0.049965 -0.776434 -0.570817 -0.233284 0.236215 0.117180 -0.567065 -0.290017 -0.562831 0.587624 -0.120082 -0.012639 0.305049 -0.598576 -0.516998 -0.507206 0.666622 -0.054989 -0.695584 -0.869508 -0.168726 -0.247556 0.399886 -0.200322 0.206583 -0.413036 -0.021152 -0.468498 -0.055549 -0.217499 0.334570 -0.687778 0.761023 0.489074 0.002022 0.568308 0.380712 0.721792 0.568580 -0.134623 0.436485 -0.296157 -0.444049 0.110805 0.089880 -0.030992 0.157170 0.091007 -0.242560 -0.715583 -0.600311 1.047952 -0.175774 0.447413 -0.266248 -0.222667 0.750135 0.000953 0.723276 0.174854 0.404811 -0.112737 -0.886295 -0.507759 -0.187796 0.817658 0.229516 -0.614317 -0.023986 -0.179747 0.713025 0.304194 -0.529404 0.613320 -0.186425 -0.136177 0.470469 0.085473 -0.022941 0.042764 -1.031490 -0.135058 1.120343 -0.005138 0.821474 -0.719459 -0.203097 0.050643 0.665405 -0.991739 -0.153245 0.203368 0.392488 -0.629316 0.539353 0.304971 0.544273 0.151829 -0.259097 0.277887 0.739277 0.211336
H152 0.419793 -0.699530 -0.581481 0.276830 -0.140282 0.183853 0.024902 0.659462 0.134344 -0.547780 -0.275765 -0.267303 -0.163206 -0.330964 0.619780 -0.192522 -0.805133 0.333631 -0.114801 -0.082040 -0.430668 -0.051149 0.286377 0.121969 0.760408 0.845702 -0.101244 -0.454892 -0.284625 -0.643225 0.098067 0.260708 0.241323 0.024623 -0.872403 0.285061 -0.375133 0.635306 0.499820 -0.645199 0.141440 -0.723589 0.555161 0.100128 -0.118025 0.156789 -0.166690 -0.026354 -0.105496 0.296196 0.245659 0.130303 -0.011052 -0.554166 -0.097498 -0.468536 0.469220 -0.599973 0.721752 0.321265 -0.785767 0.036830 -0.063785 0.166061 0.050224 -0.620698 0.453651 -0.100792 0.384546 -0.537981 -0.400297 -0.544200 -0.748609 -0.164347 0.639401 0.201843 -0.287582 0.025339 0.410760 0.322597 0.224405 0.223085 -0.044836 -0.255975 -0.088798 -0.322443 0.781168 0.349270 -0.268011 -0.386713 0.417801 0.104861 1.096324 -0.708454 0.521925 -0.586792 -0.030915 -0.254390 -0.077953 -0.452269 0.220897 0.187166 0.727110 -0.118742 0.330021 -0.017798 -0.426917 0.665401 1.351254 0.032429 0.649680 -0.200841 -0.479127 0.065940 0.341695 -0.099026 -0.360823 0.059554 -0.182695 0.403297 0.171943 0.401253 -0.422846 -0.538738 0.061750 -0.466577 0.226982 -0.246481
H189 0.065175 -0.765784 -0.003538 0.266366 1.116851 -0.349794 0.647700 0.182383 0.221149 0.175105 -0.803010 -0.677598 -0.069513 -0.654974 -0.320227 -0.015042 0.083030 0.567778 -0.150520 0.338671 -0.381386 0.118144 0.544595 -0.023252 0.476854 -0.194436 -0.283760 -1.139162 -0.236977 -0.404421 0.087754 -0.639201 0.441714 0.131208 -0.584338 0.195203 0.289397 0.566768 0.255972 -0.576208 -0.071031 -0.015366 0.948490 0.076195 -0.140820 -0.349986 0.567427 0.691012 0.496219 0.046668 0.724677 -0.433461 -0.461105 -0.067881 0.418207 -0.411937 0.205320 -0.695465 0.628097 0.110125 -0.383924 0.131559 -0.136664 -0.280931 0.191835 -0.717513 -0.122096 0.155366 0.415262 -0.276221 -0.376455 -0.145666 0.014931 0.677586 0.330078 0.047476 0.030413 0.577271 0.125964 0.410160 -0.409193 -0.680498 -0.085058 -0.510600 -0.144328 -0.165549 0.266677 -0.033735 -0.390924 -0.270582 0.431144 0.270880 0.756891 -0.318009 -0.292304 -0.549427 0.041568 -0.014975 -0.526878 0.257091 0.325201 -0.063817 1.251621 0.440000 -0.427372 -0.417599 -0.447994 0.021106 0.905338 0.326236 0.469658 -0.259765 0.455923 -0.252934 0.926831 0.065218 0.436331 0.292866 -0.373871 0.553558 -0.156908 0.698335 0.351180 -0.061578 -0.430482 0.424555 -0.020958 -0.188543
H184 0.175559 -0.512014 -0.611891 0.276030 -0.545505 0.436339 0.320599 0.428361 0.600438 -0.259175 0.048518 -0.721094 -1.410526 0.081795 -0.112511 -0.482173 -0.230273 0.094133 -0.105474 0.450743 -0.221237 0.560984 -0.060989 0.938249 0.365703 -0.091049 0.293191 -1.221987 0.046083 -0.214221 0.026142 -0.148500 -0.127961 0.165577 -0.176890 -0.032089 0.543185 0.579430 0.587636 -0.284844 -0.444464 0.214805 0.615793 0.403947 -0.556710 -0.149054 0.196209 -0.361289 0.461620 0.201796 0.335358 0.023264 -0.040569 -0.057643 0.054009 -0.725069 0.063550 0.169762 0.312495 0.303962 -0.128827 0.056751 -0.112386 0.576052 0.573883 0.152268 -0.045254 -0.637823 0.707892 -0.102605 0.383120 -1.017356 -0.287693 0.317941 0.438635 -0.561682 0.081720 0.715039 -0.017847 0.213740 -0.354064 0.314532 1.234567 -0.051577 0.009396 -0.176422 0.646553 -0.139647 -0.375251 -0.469417 0.145856 0.910816 0.445301 -0.731343 -0.205358 -0.258537 0.916790 0.241627 -0.587192 0.647003 0.752878 0.029987 0.375387 -0.720700 0.712791 -0.818087 -0.180365 0.776853 1.221921 0.873575 0.827654 -0.425851 -0.711221 -0.126802 -0.102256 -0.674767 -0.394505 0.146654 0.571270 0.237614 -0.109498 -0.238483 0.081822 -0.573418 0.382736 -0.104199 -0.237262 -0.389179
H86 0.436337 -0.194956 -0.275661 -0.251937 -0.010845 -0.155790 -0.012019 0.391045 0.006681 -0.487504 -0.074272 0.179745 -0.046136 -0.414874 0.048816 -0.209374 0.036539 -0.019115 -0.140818 0.192524 -0.755482 0.438702 0.335977 0.352576 0.514123 -0.123757 -0.351608 -0.408703 0.249587 -0.022712 -0.154717 -0.331310 -0.615890 -0.163735 -0.335942 0.115075 0.254095 0.505274 -0.229658 -0.472376 -0.218813 -0.231376 0.232148 -0.250861 -0.375943 -0.192772 0.117766 0.050840 0.238976 -0.038925 0.527557 0.345721 -0.598159 0.170024 0.651843 -0.335521 0.363520 0.334762 0.108143 0.268094 -0.229481 -0.108727 0.033774 0.259556 -0.337266 -0.548338 -0.014958 -0.046908 0.070400 0.374276 0.140144 -0.253692 -0.512468 0.575794 -0.044685 -0.190080 0.167064 0.654401 0.212163 0.442185 -0.200065 0.485100 0.236465 -0.407227 -0.133888 -0.053999 0.237192 -0.024388 -0.221134 -0.267344 -0.099480 0.251572 0.512603 -0.649795 0.006804 -0.657922 0.515337 -0.006281 -0.477330 -0.659395 -0.303103 -0.454097 0.287395 0.260265 -0.262992 0.291730 -0.225930 0.731105 -0.189926 0.679495 0.664558 -0.481631 -0.098939 -0.139988 -0.245739 -0.261134 0.153696 -0.804473 0.055725 0.404954 -0.410108 0.436870 -0.857850 0.323767 -0.339902 0.302660 0.194562 0.431941
H112 -0.213085 -0.299141 0.308407 0.222327 0.594913 0.092784 0.172480 0.599541 0.581821 -0.637447 -0.138154 -0.003084 -0.391745 -0.543369 -0.042731 -0.109836 -0.020078 -0.511818 0.071250 0.659760 -0.691837 0.015329 0.661879 -0.195297 0.228410 0.783302 0.458570 -0.273831 -0.544882 -0.791373 0.558830 0.140894 -0.394419 0.013554 -0.415133 0.230704 0.180623 0.344694 -0.226616 -0.419328 -0.073841 -0.245678 0.691108 0.207962 -0.729002 -0.307604 0.650207 -0.139152 0.028398 0.020954 0.645159 0.051385 -0.323426 -0.375090 0.067351 -0.370274 0.009993 -0.382030 1.155855 0.512039 -0.198333 0.072226 0.737729 -0.130328 -0.391347 -0.022208 0.250284 0.398928 0.629230 0.529267 -0.635112 -0.480852 -0.250445 0.364138 0.563777 0.175640 -0.523077 0.309099 0.304308 0.544891 -0.767358 -0.241702 0.209329 0.252171 -0.403558 0.306277 0.478623 0.757582 -0.347600 -0.429816 -0.315274 0.423011 0.418134 -0.594011 0.640530 -0.560212 0.493938 0.783406 -0.673771 0.072569 -0.503332 -0.197882 1.215315 0.127972 0.040799 -0.203902 -0.034803 -0.017714 0.679142 0.367484 0.410917 0.086997 -0.027618 -0.074204 -0.193365 -0.015495 -0.307322 -0.182078 -0.233291 0.533716 -0.186719 -0.087446 0.346473 -0.123628 0.352825 -0.145888 -0.140506 0.078271
P200 0.209300 0.052259 0.310811 0.103938 0.509893 -0.314665 0.004049 0.323342 0.504942 -0.126603 0.044371 -0.199241 -0.111968 -0.054365 -0.036133 0.091704 0.335432 0.320490 0.420789 0.102521 -0.031637 0.460649 0.364687 -0.107377 0.507979 -0.117432 -0.414167 -0.289188 -0.573614 -0.182467 0.302703 -0.085586 -0.273331 -0.148720 -0.692706 0.716362 -0.242449 0.230426 0.054172 -0.645040 -0.482402 -0.863914 0.717696 0.394434 -0.200813 -0.207536 0.038696 0.107989 -0.039469 0.196694 0.365584 -0.792693 -0.663595 -0.169189 -0.355453 0.250838 0.111193 -0.217512 0.169301 0.553835 -0.085036 0.213752 0.715432 -0.104905 0.094107 0.281699 0.156561 0.262282 0.011706 -0.466250 -0.396649 -0.349559 -0.331792 0.360644 0.198687 -0.255011 -0.139148 0.218577 0.343898 0.339714 -0.328271 -0.269031 -0.554794 0.182242 0.263297 0.043689 0.884001 0.050392 -0.378203 0.060381 0.083361 0.370816 0.654241 -0.495063 0.078057 -0.004384 -0.284735 0.154919 -0.621713 0.031534 -0.033970 0.265640 0.463411 0.635691 0.336908 -0.016997 0.060662 0.059413 0.534716 0.409946 0.381851 -0.132632 0.129210 0.078665 -0.044472 0.172995 0.619736 0.130963 -0.256370 0.532957 0.258605 0.214966 0.071368 -0.050203 -0.147426 -0.119439 -0.662882 0.068872
H123 0.309342 -0.326215 -0.404898 -0.098975 0.107255 0.057882 0.060638 1.018766 -0.123019 -0.118848 -0.228010 0.460968 0.318271 -0.585191 0.193507 0.264393 0.054847 -0.257720 0.038383 0.183572 0.090396 0.327796 0.660756 0.406775 0.450888 0.152915 0.147659 -0.260515 -0.107912 0.040543 -0.547198 -0.066832 -0.465672 -0.242701 0.020095 0.113824 0.384468 0.782992 0.362789 -0.492061 0.098910 0.057652 0.279288 0.238547 -0.460434 0.052405 0.275593 0.248399 0.125963 0.046965 0.122114 -0.005511 -0.321265 -0.104760 0.359058 -0.500848 -0.107033 -0.429552 0.004135 -0.192779 0.490154 0.387123 -0.359261 -0.586677 -0.287032 0.064756 0.364716 -0.310096 0.571500 -0.212793 -0.497809 -0.366095 -0.520139 0.621160 0.123099 0.192350 -0.004022 0.060420 0.550125 0.428654 -0.406619 -0.192633 -0.217192 0.283900 -0.168664 -0.007078 0.372729 -0.004055 -0.640551 -0.715147 -0.305133 -0.266474 0.971487 -0.692181 0.069913 -0.772758 0.449270 -0.339208 -0.189328 -0.555673 -0.039112 -0.532256 -0.207041 0.425573 -0.560307 -0.025793 0.172062 0.230252 0.404879 0.582986 0.417328 -0.494189 -0.210543 -0.520262 -0.131872 0.188938 -0.001114 -0.554718 -0.549689 0.104793 0.002817 -0.085325 0.486323 -0.806025 -0.361491 -0.246218 0.133839 0.600922
H57 0.032577 -0.292216 -0.084241 0.313647 -0.402094 0.581165 1.073330 1.278602 0.171916 -0.299731 -0.327262 0.344298 0.421597 -0.658452 -0.192360 0.010538 0.179874 -0.413163 0.095230 1.516264 -0.285444 -0.477138 0.603719 0.330179 0.123633 -0.150349 -0.023255 -0.651006 0.200170 -0.222112 -0.011139 -0.674306 0.194638 0.011260 -0.062145 0.087266 -0.104954 0.589319 -0.060713 0.173509 0.056777 0.049924 0.067695 0.265693 -0.549460 -0.144639 0.235651 0.076739 0.517896 0.026216 0.052800 -0.144839 0.273052 -0.140955 -0.101909 -0.087260 0.258524 0.247139 0.323255 0.018445 0.575149 0.290240 0.170242 -0.058034 -0.506496 0.266740 0.609260 -0.256357 0.862216 -0.461422 -0.419658 -0.182125 -0.173424 0.037602 0.171599 -0.054105 0.198980 0.794236 0.024031 -0.202178 -0.245770 -0.341738 0.246824 -0.211254 0.050256 0.283002 0.746733 -0.188140 0.099474 -1.072128 -0.678468 0.211615 0.791854 -0.619016 -0.076253 -0.590698 -0.069607 -0.120094 -0.575696 0.255138 0.530512 -0.024801 0.534913 0.258073 -0.336990 -0.060611 0.052919 -0.269591 0.828230 0.049004 0.939512 -0.700369 -0.549156 0.080461 0.063354 -0.023607 -0.370642 -0.131138 -0.314909 0.741277 0.126891 -0.104898 0.218889 -0.570792 0.267770 0.123337 0.242961 -0.270756
H12 -0.056333 -0.518494 -0.691399 0.813219 0.059355 0.637362 0.891010 0.325443 0.359141 -0.449156 -0.351975 -0.925386 -0.575077 0.502389 -0.428129 0.204504 -0.879830 0.925272 0.134040 0.924513 -0.545554 0.096750 0.607754 0.229945 0.037479 0.130599 0.206828 -1.211415 -0.225675 -0.516363 0.282901 -0.718289 0.453357 0.191988 -0.735516 0.205958 -0.219524 0.758063 0.106098 0.018413 -0.559768 -0.387910 0.443153 -0.272948 -0.542211 -0.410300 0.411554 -0.393075 -0.275959 0.093284 0.207172 -0.020380 -0.415362 -0.685664 -0.461980 -0.078653 0.332323 -0.186798 0.731289 0.546250 -0.255245 0.465536 0.553020 0.317890 0.102200 -0.158357 -0.015963 0.026615 0.373753 -0.199643 -0.360464 -0.170333 -0.169076 0.106283 0.858877 -0.545476 0.434098 0.332959 -0.191444 -0.406054 0.099982 0.487498 0.131003 -0.024196 0.379602 0.073688 0.492556 -0.142117 -0.097068 -0.869558 -0.656022 0.638118 0.077129 -0.760174 0.461934 0.424339 0.389255 0.205170 -0.707384 0.448233 0.145916 -0.066347 0.660000 -0.139526 0.548800 -0.142312 0.270619 0.380638 1.236275 -0.027270 1.028669 -0.630764 -0.362253 0.435502 -0.381049 0.371671 -0.453807 0.343146 -0.209135 0.156926 0.632487 0.729019 0.217204 0.259954 0.491365 0.079859 0.184764 0.081323
H14 0.393774 -0.353162 -0.376976 0.293575 0.145056 0.114310 0.380171 0.609420 0.462897 -0.144745 -0.278159 -0.067432 -0.223601 -0.366750 -0.057410 -0.084781 0.006769 0.024135 0.100902 0.533965 -0.518340 0.458108 0.533021 0.480494 0.473826 -0.049483 -0.198654 -0.769521 -0.218656 -0.223298 -0.208451 -0.286046 -0.479713 -0.051971 -0.537913 0.348641 0.036001 0.643174 0.264280 -0.608129 -0.311852 -0.377157 0.716397 -0.109299 -0.461906 -0.162808 0.076878 0.047192 0.213192 0.099744 0.369384 -0.178659 -0.422674 -0.102288 -0.046303 -0.218926 0.145069 -0.191195 0.489900 0.374643 0.042385 0.213550 0.284478 0.038194 0.010551 0.027363 0.173866 -0.118052 0.312243 -0.223742 -0.341514 -0.510839 -0.387414 0.496361 0.352919 -0.252691 -0.070840 0.501666 0.220261 0.356992 -0.389703 -0.160680 0.059144 -0.044007 0.214822 -0.197317 0.722028 0.091041 -0.552846 -0.494027 -0.244131 0.448422 0.741442 -0.742339 0.162172 -0.432568 0.313429 0.100680 -0.520211 0.029174 -0.035153 -0.222396 0.545472 0.235165 0.005328 -0.039100 -0.223208 0.337086 0.720837 0.451289 0.725971 -0.598528 -0.222580 -0.246674 0.077642 -0.033777 -0.080634 -0.130089 -0.110010 0.218155 0.045353 0.267852 0.166336 -0.301325 0.041384 0.061658 0.054631 0.280886
H21 0.444930 -0.373110 -0.405000 0.296534 0.129921 0.080820 0.374262 0.678846 0.498944 -0.156935 -0.263580 -0.064394 -0.234437 -0.388849 -0.070924 -0.097393 0.028598 0.014011 0.099915 0.561423 -0.541946 0.490433 0.569591 0.488707 0.545594 -0.076056 -0.202188 -0.824741 -0.224502 -0.219203 -0.219443 -0.289573 -0.517081 -0.086254 -0.558610 0.413115 0.063649 0.670468 0.244673 -0.690368 -0.363957 -0.427182 0.766266 -0.104246 -0.494652 -0.160598 0.088424 0.069983 0.224120 0.088738 0.406012 -0.200684 -0.458112 -0.128106 -0.044685 -0.243961 0.168190 -0.209447 0.509914 0.395730 0.054435 0.198546 0.311061 0.032017 -0.022592 0.003385 0.186542 -0.105849 0.333612 -0.240201 -0.369024 -0.519673 -0.419179 0.542773 0.341703 -0.277946 -0.047097 0.527280 0.230813 0.386023 -0.442399 -0.128429 0.062576 -0.056096 0.234505 -0.194024 0.745942 0.092219 -0.579806 -0.508916 -0.257768 0.438665 0.794706 -0.789422 0.158771 -0.476895 0.351948 0.099561 -0.566498 0.012982 -0.032493 -0.248710 0.569668 0.288809 -0.017405 -0.043870 -0.234572 0.404144 0.747386 0.498082 0.763954 -0.663857 -0.256706 -0.246826 0.077641 -0.045573 -0.061244 -0.151437 -0.118314 0.258663 0.027394 0.282553 0.151852 -0.323470 0.019077 0.065409 0.052422 0.287590
H220 0.450857 -0.354690 -0.353496 0.187515 0.022186 0.171253 0.358803 0.543218 0.510442 -0.084452 -0.268385 -0.052539 -0.211961 -0.403663 0.074656 -0.103738 0.023472 0.002225 0.104811 0.531594 -0.598334 0.378268 0.444084 0.558850 0.458737 -0.001311 -0.189887 -0.802628 -0.246133 -0.214741 -0.182230 -0.207831 -0.448398 -0.061240 -0.445144 0.296823 0.086779 0.643878 0.274765 -0.504142 -0.350895 -0.321124 0.726442 -0.048629 -0.452484 -0.126188 0.034418 0.076619 0.333293 0.063123 0.386692 -0.141585 -0.313388 -0.004566 -0.036524 -0.243071 0.192859 -0.100535 0.448150 0.289870 0.034759 0.171172 0.157915 0.000955 0.048784 -0.038873 0.108010 -0.140959 0.355782 -0.209767 -0.238784 -0.536082 -0.405638 0.501563 0.255036 -0.223367 -0.076320 0.519348 0.223912 0.345250 -0.361069 -0.165932 0.114324 0.016595 0.217830 -0.100805 0.729251 0.051391 -0.546741 -0.494835 -0.325562 0.495569 0.712687 -0.662483 0.155495 -0.527429 0.343762 0.051669 -0.437049 -0.025784 0.064408 -0.158178 0.520749 0.158335 0.017378 -0.056969 -0.265148 0.305896 0.728296 0.448894 0.709290 -0.614664 -0.232185 -0.218693 0.018548 -0.054840 -0.090615 -0.116850 -0.028199 0.258179 -0.068736 0.322214 0.158410 -0.305004 0.059073 0.058340 0.105546 0.288850
H225 0.340855 -0.363072 -0.349339 0.248429 0.042414 0.172799 0.306785 0.490285 0.425188 -0.056232 -0.253652 -0.101407 -0.268573 -0.312164 0.004067 -0.064261 0.038033 -0.011524 -0.002165 0.544105 -0.478144 0.376977 0.387322 0.524731 0.309161 -0.006027 -0.116955 -0.778498 -0.210887 -0.166730 -0.159137 -0.286945 -0.339564 0.008084 -0.433795 0.295582 0.066119 0.495243 0.311056 -0.477915 -0.262904 -0.235155 0.547815 -0.096606 -0.387854 -0.085216 0.023767 0.055452 0.244400 0.056680 0.254660 -0.126964 -0.303722 -0.048561 0.043335 -0.294955 0.124813 -0.082449 0.405043 0.320714 0.008140 0.168867 0.191142 0.101467 0.036961 0.060758 0.178048 -0.118981 0.286955 -0.147858 -0.200021 -0.451445 -0.303128 0.381753 0.269612 -0.194789 -0.061567 0.480339 0.119408 0.237797 -0.248825 -0.148060 0.169220 0.045159 0.202122 -0.083074 0.632763 0.072222 -0.492647 -0.456109 -0.280391 0.468190 0.616020 -0.576551 0.038828 -0.378576 0.333780 0.096082 -0.440459 0.058973 0.024210 -0.079125 0.545973 0.095021 0.016502 -0.096119 -0.200496 0.286215 0.665829 0.329686 0.714282 -0.478963 -0.219724 -0.200447 0.013092 -0.051992 -0.137226 -0.119707 -0.031606 0.223012 0.036044 0.188704 0.144500 -0.295760 0.104630 0.089743 0.116827 0.167974
H227 -0.087137 0.182013 -0.288091 0.668831 0.283503 0.478013 0.194531 0.490433 1.098098 0.007074 0.222895 -0.098071 -0.591320 -0.016965 -0.249873 0.066351 0.619124 0.439150 -0.388076 0.966944 0.034920 0.764025 0.581220 0.883541 1.002090 -0.428605 -0.487484 -0.750961 0.098131 -0.152346 0.210460 -0.379603 -0.572251 0.324847 -0.580304 0.099024 0.469193 -0.052584 -0.175469 -1.173722 0.161403 -0.640215 0.420064 -0.191429 0.239008 -0.067030 -0.714474 0.300028 0.592414 0.363528 -0.180551 -0.825866 -0.015143 -0.078928 -0.042723 -0.278740 0.032295 1.133127 -0.011810 0.692536 0.079199 -0.091853 0.143293 -0.152962 -0.283827 -0.239021 -0.017653 -0.356027 0.971440 -0.004833 -0.120344 -0.598827 0.141485 0.602346 0.279926 -0.583337 0.324501 0.705333 -0.091726 -0.028030 0.194817 0.149310 0.831062 0.469423 0.295697 -0.271134 0.358373 -0.612707 -0.495689 -0.920076 -0.568431 0.613232 0.812904 -0.333760 0.217778 -0.090153 0.752803 0.057611 -0.648781 0.268664 0.004603 0.281940 0.397660 -0.026204 0.045597 -0.390728 -0.031318 0.745508 0.889891 0.284038 0.724352 -0.570527 -0.709323 -0.265067 0.230178 -1.094003 0.217469 0.251853 -0.122346 0.596211 0.521978 -0.013167 0.616699 0.248163 -0.373837 0.700646 0.013574 -0.127049
